0.20498729
-0.010326624
0.06967604
-0.083640695
0.19719934
0.09461796
0.06202936
-0.018008351
0.096309066
0.028699279
0.09108603
0.20861375
0.027699351
-0.17458642
-0.13276267
0.24808788
-0.097628474
0.23062778
0.11055505
0.20796192
0.08154261
0.14139283
0.016147852
0.049156904
0.014767289
-0.012303829
-0.0433383
-0.08893335
0.07692599
-0.15803087
0.14966142
0.16891742
0.08547723
-0.17941189
0.0738554
0.06145799
-0.057171345
0.02795136
0.079150796
0.14099395
0.038395405
0.015131116
-0.029355884
0.33804655
0.073512435
0.20394707
-0.036391854
0.1573422
0.023567915
0.13898337
-0.10117555
0.06243992
0.005445242
-0.18872571
-0.06682509
0.07612288
0.041315436
0.019273281
-0.019902349
0.13985133
-0.06698477
0.21076441
0.08735037
0.13929999

0.14833236
-0.02690661
0.013348937
0.030807137
0.068570375
0.2830609
0.013917327
-0.003088951
0.050695777
0.011680722
0.009994149
0.1398505
0.15035903
0.06311989
0.021743774
0.46834254
0.05362737
0.144279
0.20048928
0.056516647
0.13809264
0.08344138
0.026018381
0.0065721273
0.068722844
-0.08286786
0.04233086
0.02993381
-0.01517725
0.24378061
0.05954051
0.039089084
-0.09537172
0.0014657974
-0.008845329
-0.07161486
0.013152838
0.114471436
-0.063568115
0.04717648
0.004677534
0.11021757
-0.063263535
-0.007767558
0.003674984
0.03908789
-0.049706936
0.12870312
0.10008478
0.011056542
0.0031071901
-0.03262818
-0.039522648
-0.10877192
-0.0036734343
0.024227142
-0.05319345
0.10353279
0.08841312
0.10663283
-0.00067174435
-0.008490562
-0.04112947
0.2113843

0.14120162
-0.03888476
0.06320381
-0.09931874
0.07115972
0.035924554
0.011344671
0.013459206
0.14581156
0.12197757
-0.018867373
0.038932443
0.04226625
0.08000231
-0.045137286
0.03660786
0.011189938
0.0067591667
0.003918171
-0.030830383
0.013215184
0.07918322
0.013144612
0.008133054
-0.011153579
0.017123818
0.039842844
-0.0052415133
0.030320168
0.05231607
-0.034767985
-0.0131959915
0.0698874
-0.0059804916
0.0069482327
0.025832415
0.008749843
-0.07136178
0.03239703
0.028007984
0.006977439
0.086257815
0.034563065
-0.09147036
0.06484842
0.060670376
0.10673773
0.02810514
0.076514125
0.04704082
0.05044663
0.012219787
-0.0069111586
0.02575159
-0.006636381
-0.0010652542
0.04199791
-0.06242597
0.00040328503
0.03331566
-0.002054572
-0.0049040318
0.05050373
0.009610534
0.04970014
0.02609539
0.03022921
-0.016015649
0.01375258
-0.043269277
-0.019775271
0.037711143
-0.11832976
0.08110726
0.0386523
0.025788784
0.023875594
0.024995923
0.0313313
0.051748037
0.010579824
-0.007859111
-0.042219996
0.049518228
0.06082666
0.032673955
0.09538114
0.036010742
0.06775141
-0.0620749
0.024096608
0.033223152
0.006980896
0.0515275
0.027251244
-0.0364269
0.005710125
0.015584469
0.0098541975
0.10442209
0.08357084
0.028254509
-0.0028141737
0.041076303
0.060989857
0.05623126
0.0054405928
0.043138623
0.033405185
-0.00070381165
0.0066167116
0.02590406
-0.030359268
0.058297276
-0.034764886
0.02162242
0.02785623
0.0035091639
0.030038476
0.00267303
0.0028383732
0.02515912
0.12484324
0.016448498
-0.0045107603
0.08955693
0.0063456297
-0.022866964

0.015291214
0.016934156
-0.015369058
0.050711036
0.041735888
-0.062072754
0.014071703
-0.010284543
-0.00080394745
0.0643599
-0.026774049
0.03338611
0.08122659
0.07100773
0.011377454
0.0129595995
0.025346518
0.06695092
0.086850286
0.06655514
0.0342021
-0.0010689497
-0.0007638931
-0.0046964884
0.01429987
0.04492426
0.039394855
0.06673396
0.014325619
0.023705125
-0.062631965
0.007006526
0.029290676
0.040691018
0.07583201
0.14782393
0.033560634
-0.0019007921
0.037240267
-0.07865584
0.00861764
0.014138699
0.01033926
0.057003856
-0.016251206
0.09817207
-0.014488816
0.007685542
0.0504781
0.01813817
0.052081585
0.082930684
0.031226158
0.018543601
0.039529562
0.07513404
0.00019800663
0.0050565004
-0.019076467
0.0017557144
0.04776895
0.017175674
0.058710933
0.0036113262
0.047488213
-0.008117318
0.014816165
-0.00067555904
0.03751445
0.012613177
-0.0069206953
0.0027577877
0.060646772
0.05265975
0.10681188
0.071033955
0.012065411
0.0058369637
0.011598468
0.0051095486
0.011484623
-0.0155649185
0.054287434
-0.04140854
0.07515824
-0.02528727
-0.015108824
0.02423501
0.023411274
0.014388442
0.010752678
0.11911261
0.067527294
0.05272448
-0.06690407
0.04848838
0.0415231
0.02796948
0.017310143
0.021951675
0.026246905
-0.09134829
0.0019159317
0.013849378
0.0031466484
0.002786994
0.069607615
0.0069630146
0.03028822
0.0071806908
-0.0036388636
0.00406456
0.056257486
0.02304411
-0.052955627
0.06579971
0.016388774
0.037768364
0.0049682856
-0.037256002
0.037680984
-0.014074922
-0.0032049417
0.0052286386
0.005573988
0.04210019
0.007971168
0.037073612

0.00414145
0.02945435
-0.005725026
-0.02002585
0.013651133
-0.0119867325
0.030879855
-0.0006097555
0.015168071
-0.0020035505
-0.012812376
0.041413307
-0.004279971
0.027671099
0.06932843
0.016756773
-0.0013508797
0.01798439
-0.0058128834
0.018006802
0.025176883
-0.0047518015
-0.0012696981
0.017106056
0.016714811
0.011207819
-0.012681365
0.0495435
-0.03277242
-0.007098794
0.02478683
-0.0080212355
-0.011408567
0.031618953
0.007971406
-0.0031273365
-0.00086963177
0.006844163
0.03681612
0.029840827
-0.009189606
-0.0052155256
0.023524761
0.016994715
0.019491553
0.012508988
0.0029916763
-0.021171331
0.02414596
0.0142861605
0.041971087
0.04561627
0.008739114
0.027763486
-0.035022974
-0.056065083
0.023551345
-0.032756686
0.025528431
-0.039431572
0.008062124
0.03684616
-0.0044823885
-0.0067278147
-0.0025798082
0.028681517
0.008851409
0.010927916
-0.0025289059
0.0022780895
0.011714339
0.041291118
0.011216521
0.016851187
0.014421582
-0.026458979
0.017235875
0.01905775
0.021572113
-0.023905516
0.02721107
0.00034487247
-0.004700899
0.015297532
-0.025930285
-0.0060869455
0.014498591
0.047643065
0.021105647
-0.031309485
0.017171264
0.051776648
0.07001424
-0.04336524
0.025326133
-0.032693863
0.020514369
0.021919608
-0.026445031
0.0329237
0.0036605597
-0.012609124
0.026982784
0.031569958
0.020423532
0.025524855
0.037591696
0.021768928
0.012337446
0.0067368746
-0.015981555
0.0006715059
0.02418375
0.0006505251
0.04806304
-0.019646406
0.024789691
0.010376453
-0.0051425695
0.020989537
0.024597645
0.00021731853
0.02707398
0.010344744
0.016735911
-0.036005378
0.0012704134
0.032571197
0.03212738
-0.0069601536
0.014015913
0.061799526
-0.014804959
0.021843314
-0.00813818
0.048531532
0.074021816
-0.019261599
-0.00318861
0.014140725
0.015404344
0.030058146
0.0045166016
-0.0020526648
0.008718729
-0.0006159544
0.009826064
-0.0071042776
0.027236104
0.03216636
0.022474885
0.0067585707
0.008357286
0.0074859858
0.023922324
0.029376745
0.0067195892
0.0048855543
0.019465923
0.013141155
0.0056899786
0.009746432
-0.00275743
0.024615288
0.024218202
-0.0065282583
0.038807273
0.0012439489
0.05279231
0.016606927
0.006720066
-0.0029683113
0.010997295
0.033990383
-0.016551495
0.009762645
0.004217744
0.036478877
0.0039839745
-0.03933394
0.020329356
0.038769364
-0.011357784
-0.020177603
0.00853622
-0.051588893
0.010490179
0.025786638
-0.026243687
0.046004415
0.031958103
0.009298325
0.020730495
0.012953997
0.0081989765
-0.015559077
0.032966137
0.0034720898
0.013824344
0.03359258
0.03653395
-0.014442921
0.0011614561
0.028952837
0.014235139
-0.008820653
0.020338774
0.022886872
0.0042744875
0.024025321
0.034700394
-0.01318562
0.0077528954
0.0050133467
0.046013594
0.0010436773
0.08181453
0.05041969
-0.0010136366
0.031293273
0.0019049644
0.012595177
0.0060801506
-0.042337656
-0.0028096437
0.023203611
0.009421825
0.019358873
0.0045683384
0.0031102896
0.026312828
0.012934089
0.011465907
0.05242479
-0.00336349
-0.03294933
0.0009300709
0.02509284
0.0005056858
0.00050103664
0.018395662
0.042161226
-0.013451338
0.026928067
0.001794219
0.017057061
0.014462948
-0.039701223
0.037906647
-0.0007160902
0.01313138
-0.024210095
0.03647399
0.032907367
-0.0037440062
0.03555429

-0.0050815344
0.0011975765
0.008773327
0.008224964
-0.02681756
0.039747477
0.008235693
0.026305318
0.03766918
-0.0033278465
0.038057327
0.020943642
0.013712406
-0.00421679
0.0002554655
0.0070643425
0.04349661
0.007833719
0.0104961395
-0.00018393993
-0.00031721592
0.023887277
-0.0012423992
-0.015797853
0.0024615526
-0.0009890795
0.04581356
-0.0075644255
0.00088596344
0.01452148
0.010310054
0.00069987774
0.009147644
-0.0028342009
0.013296723
0.032155395
0.014286637
0.04555285
0.0017077923
0.0049482584
0.0036697388
0.020515442
-0.0068296194
0.010549068
0.028711319
-0.0020483732
-0.029497981
-0.0047781467
-0.0027643442
0.022258878
0.02390635
0.01868856
-0.0022140741
0.03868556
-0.019021988
-0.0066006184
0.00834465
0.029623032
0.01987493
0.023069024
-0.008223534
-0.011340141
0.0044938326
-0.008782983
0.011249304
0.036340475
0.03698039
-0.0003260374
0.020868897
0.006127715
-0.03167951
0.01409626
0.010755658
0.0042951107
-0.0008574724
-0.0021823645
0.026004672
0.030308962
-0.009827375
0.0069288015
0.022812128
-0.0013128519
-0.0012186766
0.025639534
0.018290758
-0.015167832
0.01099062
0.03566134
0.026947856
-0.020826101
0.034135103
0.0242244
0.01188314
0.03513515
0.00027048588
-0.0033609867
0.03014183
0.020346284
-0.01424253
0.01597035
0.006091833
-0.0046002865
-0.0058157444
0.0044944286
0.031727552
0.0014606714
0.034495354
-0.0018441677
0.056498528
-0.005169511
0.016568542
0.018660665
-0.016091108
0.007564783
-0.014441729
-0.009056091
0.0012792349
0.033013582
0.01379621
0.0068383217
-0.005195737
0.0036069155
0.033130765
0.0021164417
0.031131148
0.05071509
0.0042949915
-0.0062555075
0.045475483
0.02260232
-0.008884788
0.0018012524
-0.0030037165
0.0086447
0.007874608
0.014564276
0.06961191
0.0422287
0.030269742
-0.008388519
0.019232988
0.02967155
0.0143585205
-0.0022320747
0.06745279
-0.006305933
-0.019036531
0.029882312
-0.009272814
0.0026968718
0.01971519
0.01672721
-0.0037766695
0.004255533
0.019063354
0.009602904
0.030597806
-0.0012788773
-0.0021950006
-0.015761495
0.018155098
0.025049448
-0.006875515
-0.07085228
-0.0031192303
-0.0060755014
-0.0035368204
0.00087559223
-0.0045142174
0.03396654
-0.02671957
0.017141819
0.01974976
0.04319215
0.025658727
0.0149258375
0.049730778
-0.0049062967
0.011291623
-0.0069452524
0.0035129786
-0.007676363
0.011192799
0.018684864
0.0055931807
0.029996037
-0.00978291
0.0641011
-0.034042597
-0.0023235083
0.004351735
-0.013314486
0.0090658665
-0.008507848
-0.022378325
0.020011902
0.008074999
-0.002314806
0.087067604
0.01826942
0.009512186
0.016588092
0.012138367
0.005471945
0.00073087215
0.0038695335
0.0012747049
-0.0058373213
-0.023735046
0.014059901
-0.010564804
0.029338837
0.03239453
0.0697397
0.0075455904
0.001543045
-0.010715365
-0.010564327
0.011591792
0.030521035
0.022358537
-0.0077216625
-0.0048263073
0.016291142
0.026471853
0.07439959
0.005606413
0.02605486
0.020361423
0.06259239
0.0227803
-0.034092546
-0.004485488
0.029846668
0.016763449
0.037607193
0.041916132
-0.0034097433
0.010143161
-0.024921656
-0.0036890507
0.056254268
-0.0016503334
-0.0034240484
-0.011389852
0.027494669
0.022970319
0.0025106668
0.029354572
0.0062185526
0.009616733
0.012960196
0.07953584
0.023567557
0.0022337437
-0.00399065

0.049987435
-0.014926195
-0.006779909
-0.025196671
0.013819456
0.007703066
-0.028141856
-0.0100928545
0.005215764
0.00344038
0.054338217
0.090628624
0.031113148
0.0043092966
-0.022758603
0.015951633
0.025199413
0.026689649
-0.0048497915
-0.02888441
0.014609098
-0.04056859
0.08224332
0.00089275837
0.024356484
-0.019623876
0.0009896755
0.028198838
-0.031205177
0.0012563467
0.0045315027
-0.008976817
0.015482068
0.05800438
0.012913942
0.0055160522
0.0027666092
0.004140258
-0.027953148
0.010779381
-0.032411218
0.00056505203
-0.00064766407
-0.0008485317
-0.049129248
-0.007636428
0.031488776
0.0030697584
-0.00823009
0.020727754
0.013334632
-0.011862397
-0.0047820807
-0.015775442
0.042704105
0.016326308
-0.014307141
0.014736414
0.06449258
0.019156575
-0.021777749
0.024843693
-0.002127409
0.038333297
-0.00091814995
0.006432891
-0.040225744
0.012441754
-0.0014173985
0.045975804
8.881092e-05
0.02512145
0.013484478
0.02351737
-0.008921981
-0.0040587187
-0.027513027
0.040393233
-0.005059004
-0.014332652
0.041156292
-0.012995601
0.039719462
0.0066349506
0.030249834
0.09050548
0.0035699606
0.017428756
0.041424632
0.02504158
0.0414114
0.015738845
0.0064202547
0.03435397
-0.0058449507
0.06489587
-0.010407448
0.006698489
-0.002696395
0.0291183
0.035395145
0.037651777
0.004442215
0.012943268
-0.0025708675
0.0541538
-0.026394129
0.051059723
0.00547266
-0.0025093555
0.040319562
0.025687337
0.0018754005
0.03704965
0.0078009367
0.02596724
0.027323484
-0.006820202
0.019299865
-0.0075181723
0.0013661385
0.119396925
0.014252901
-0.03434384
0.014919043
0.0061500072
0.009123921
0.003557682
0.011919737
0.018844366
-0.010458708
0.0254246
0.013364911
-0.011383653
0.010007262
0.033895373
0.0088175535
0.03384018
-0.034973025
0.07034695
-0.004680395
-0.001326561
-0.014868379
0.006034136
0.012226105
0.008080125
0.0466671
-0.0025399923
0.017127275
0.03426075
0.0069566965
-0.020148039
-0.0013790131
0.020531893
0.07064426
0.03382671
-0.004832387
0.00478971
-0.0035665035
-0.0062459707
0.013997793
-0.0016940832
0.033716917
-0.01117301
0.07654488
-0.023528695
-0.005809784
-0.029616594
0.041016936
0.0027441978
0.04642248
-0.00029969215
-0.00053346157
-0.03799498
-0.01255393
0.030218005
0.017308831
-0.056538463
-0.005223632
-0.00050628185
0.030798078
-0.008008003
0.017324448
0.014435887
0.028796434
0.0484097
-0.020814657
0.0022263527
0.048956633
-0.008810639
-0.0060430765
0.009050131
0.07862997
0.015832901
0.035623312
0.0020594597
0.013309121
-0.0074914694
0.032896876
0.0017305613
0.035507202
0.01339972
0.015361667
-0.056222916
0.058440566
0.047602415
0.031872988
0.016305685
0.015029073
0.0045621395
-0.0023515224
0.02064073
0.022668839
0.062389612
-0.0075922012
0.04937637
-0.001292944
-0.0043013096
0.01312542
-0.0031182766
-0.018368363
0.038024545
0.020317912
-0.021041393
0.020499706
0.0057229996
0.039112926
0.037040114
-0.01751256
0.022285819
0.0026335716
0.012091279
0.010053754
0.03294146
-0.022964597
0.043162584
0.0070899725
-0.016970277
0.0010592937
-0.04562509
0.05467844
0.013487935
-0.006944895
0.019018888
0.01556766
-0.0069503784
-0.028117537
0.023124456
-0.0072865486
0.0054534674
0.0014346838
0.020741224
-0.008585334
-0.0026386976
0.007278919
-0.0012944937

0.018342137
0.031035542
0.013955474
-0.0047985315
-0.0061354637
-0.015815973
0.0036410093
-0.024408937
0.014343262
-0.0015866756
-0.012512565
0.0010094643
-0.0077352524
0.008777857
-0.013635755
0.024943471
-0.0011299849
-0.0013501644
0.018294096
-0.0044157505
0.014855862
-0.0010533333
0.029707551
0.006758809
-0.007879972
0.010422707
-0.020682096
-0.001405716
-0.002085328
-0.001336813
0.024446607
0.0049436092
-0.0006928444
0.017531753
0.014425874
-0.0028396845
0.004104972
0.0058647394
-0.009553671
0.021320939
0.015617251
-0.0042408705
0.042371154
0.021188498
0.0016391277
-0.0023397207
0.033438087
-0.0022249222
0.0005532503
-0.00612092
-0.006244898
0.0075286627
0.010723114
0.0051623583
0.014374733
0.021218657
0.016623616
0.018778801
0.0011137724
0.014543891
-0.014824867
0.0033800602
0.0013922453
0.013569832
-0.025456429
-0.02781558
0.0037147999
-0.019373298
0.030219316
0.018642306
-0.020483017
-0.0064674616
0.02378261
0.010816336
0.00046122074
0.0016206503
0.022521973
0.009512544
0.029850721
0.018017888
-0.03308642
0.018862247
-0.02874732
-0.003877759
-0.01672995
7.3075294e-05
0.023684978
0.0027045012
-0.0036566257
-0.00850749
0.0034035444
-0.008687854
-0.01576066
-0.0017393827
0.012662172
-0.009436607
-0.0066349506
0.022806287
0.012890816
0.012722373
-0.0032520294
0.017854095
0.0088682175
-0.0058625937
0.014514327
0.028612852
-0.016186237
0.0077471733
-0.0018085241
0.013634682
0.010947347
-1.9073486e-06
0.025134921
7.43866e-05
-0.005195141
0.010586381
-0.00024604797
0.023402452
-0.007410884
0.008989453
-0.0011353493
-0.00056266785
0.032244325
0.0216043
0.01355505
0.058529854
0.0131902695
0.0040824413
0.052694798
-0.019176245
0.0044056177
0.02534008
0.00972271
0.019845009
0.011098027
0.0094304085
0.01478827
0.0018572807
0.013318539
0.0076487064
-0.001393199
-0.0427109
0.02549553
0.0024352074
0.0066907406
0.0049614906
-0.012871861
0.002929449
-0.011021256
0.0137581825
0.001209259
0.014280081
0.0046275854
0.0074483156
-0.006300211
0.019567132
-7.605553e-05
-0.0030417442
0.0021213293
0.0039738417
0.023484588
0.0035450459
-0.0012116432
0.004018903
0.00637424
0.027257204
0.0043013096
-0.0054080486
0.0059250593
-0.00012612343
0.017711163
0.0005276203
0.013799548
-0.0025326014
0.010681033
-0.0070757866
0.0033966303
0.023288488
0.001273632
0.01605153
-0.016704082
-0.044252515
-0.022831678
-0.0035083294
0.008928895
0.007323861
0.0002105236
-0.017002344
-0.012517214
0.0014256239
0.003964901
0.003660202
0.00876832
-0.0136522055
-0.0038864613
-0.020984292
0.0027347803
0.017318606
0.0075576305
0.0029456615
0.023993373
0.013918281
0.017066836
-0.0006586313
0.0070000887
-0.008036494
0.009785175
0.024239182
-0.0010751486
0.023696184
0.007035494
0.024382591
0.0091769695
0.034798145
0.017015576
-0.007237196
0.014113426
0.0011796951
0.014149547
0.014403582
-0.022865772
0.0049393177
0.02117753
0.017655015
-0.004770875
-0.015753865
-0.006133437
0.011194468
0.024727583
0.0013532639
0.0045654774
0.010509372
0.015318632
0.005366206
-0.002911687
-0.03245437
0.025805473
0.0019180775
0.014731169
0.0079295635
-0.0018708706
0.025897503
0.0072675943
0.0126514435
0.018287301
0.008681893
0.026053071
0.0072523355
0.015898347
-0.049750328
0.0064920187
0.010055542
0.00019538403
0.04415822
0.0126953125
0.01470983
-0.011443257
0.009205937
0.016016841
-0.006488085
0.0010104179
-0.0048310757
0.0068223476
-0.0040261745
0.016605496
0.0116375685
-0.015578747
0.03265798
0.0003902912
0.004734516
-0.0024194717
0.0076493025
-0.0008087158
-0.018619776
0.00063610077
-0.0061935186
0.01608777
0.027166605
-0.006164551
-0.026598573
-0.01013875
0.044381738
-0.0005362034
-0.0021320581
0.005207777
-0.010401964
0.00626719
0.00030481815
-0.008366466
-0.0074146986
0.0034309626
0.03206122
-0.0005453825
0.0019842386
0.0049289465
0.0012229681
0.017655969
-0.00094401836
-0.013532758
0.0081477165
-0.025069594
0.02755022
0.018317461
0.011482596
-0.0035883188
0.0036529303
0.00727129
0.026935935
0.012862444
0.012730837
-0.009499073
0.023892283
-0.02288735
0.027067661
0.002233386
0.026830316
-0.018864274
-0.007314682
-0.0003670454
0.0244385
-0.00471735
0.0108783245
0.012486815
0.00039494038
-0.037587404
0.007201433
0.008830309
-0.0057497025
0.013625741
0.011767507
0.0068770647
0.019582272
0.0030316114
0.016518593
0.02671349
0.00052154064
0.011138439
0.011456132
0.0008689165
-0.015224338
-0.002040267
-0.00065255165
0.024083138
0.015420198
0.011750817
0.01307416
0.0071353912
0.020944357
0.027549028
0.023082376
-0.005964637
-0.0010813475
0.02137041
0.019531727
0.009866118
0.023732781
0.009330034
0.018441916
-0.0019506216
0.040943503
0.018804789
0.0026898384
0.0055748224
0.01617086
0.026792288
-0.017670274
0.002251625
0.010635972
-0.0055799484
0.0058254004
0.0048224926
0.034028888
-0.03933561
-0.0018330812
-0.009091377
0.0025926828
0.01673162
-0.030520082
-0.0032640696
0.0030355453
0.015324473
0.012286305
-0.022135735
-0.0016893148
0.026140928
-0.006848693
0.015366435
0.004574895
-0.008679867
-0.01330173
0.025497556
-0.00032806396
-0.008407116
0.014803529
0.012091398
-0.019960523
0.0028226376
0.01650834
-0.029177189
0.0030652285
-0.0016800165
0.016575575
-0.013051748
0.022888541
0.02184999
-0.011080623
0.010180235
-0.013534546
0.0021101236
0.009849668
0.018513441
0.00043988228
-0.03123641
0.020770073
0.008229017
0.011192799
0.014336228
0.01734984
-0.0031101704
0.016981244
0.009733319
0.005978346
0.018541336
-0.0058168173
0.0024142265
0.0038045645
-0.0056916475
0.008920193
-0.024209619
0.028969407
0.00478065
-0.0031614304
0.008232713
0.0176785
0.0012251139
-0.013827682
0.02564907
0.006159425
0.015427589
-0.0037909746
0.017712831
0.0037174225
-0.00095665455
0.0069158077
-0.006750345
-0.020264864
0.027605176
0.009988546
0.0040080547
0.006498337
-0.004107833
-0.013143897
0.05089438
0.0045485497
0.00091195107
-0.0025177002
-0.0014231205
0.022688866
0.010844946
-0.008130074
0.0035133362
0.006485939
0.060450792
0.010323405
0.02477777
0.025352716
0.03108108
0.008562207
0.004369259
0.00400877
0.01343286
0.0020486116
0.039722204
0.0038249493
0.0020977259
0.0048396587
-0.018611312
-0.0031415224
0.011783481
0.008583069
0.010642052
-0.0020258427
-0.0051873922
0.018283606
0.015006185
0.0118813515
0.010420322
0.009913325
0.024480104
-0.0035067797
0.005117178
0.013776422
-0.0046350956
0.045722365
-0.009757996
0.0054032803
-0.022687316
0.006948948
0.0062782764
-0.009506702
0.008335471
-0.004505396
0.014580011
0.0016099215
-0.0049666166
0.00472939
-0.04573524
0.010095954
-0.006979227
-0.020536423
-0.0013090372
0.029074073

0.0036178827
0.004455924
-0.018129706
0.005104065
-0.004367113
0.0048799515
-0.009979725
-0.0009211302
-0.002505064
-0.0016493797
0.0055264235
0.029376507
0.012004733
0.009504318
0.015173793
-0.004369855
0.013337851
0.00071394444
-0.007515192
0.010205507
0.005265832
0.01708436
0.0063233376
0.007380843
-0.0028145313
-0.00031864643
0.002390623
-0.00016486645
0.0037736893
0.0034059286
0.002873063
-0.0030924082
0.013135314
0.009714127
0.014871955
0.0003633499
0.0024969578
-0.00086033344
0.021912098
0.0008249283
0.010742545
0.003954053
0.0019379854
0.001557231
0.02009046
-0.008662224
0.007906318
-0.0371145
0.014803767
0.021214962
0.0075751543
-0.006319523
0.006746173
0.003164053
0.021257639
0.0056414604
0.00092053413
-0.0066149235
0.009418368
0.0035477877
0.0057766438
0.0038793087
0.007780552
0.010284424
0.033008814
0.007179141
0.007883072
-0.001021862
-0.0091974735
0.0032199621
-0.0053961277
0.01598239
0.0022318363
0.02075684
0.0058009624
0.01597333
-0.0033301115
0.021739602
0.009986758
-0.010688424
0.0070240498
0.0052416325
-0.0052719116
0.0023384094
0.008999586
0.008852124
-0.0010780096
-0.0074881315
-0.0028595924
0.004322171
0.024118543
0.0039242506
0.004722595
0.024500608
-0.004716873
-0.010266185
0.007084608
0.003133893
0.004740119
0.021533608
0.011177182
0.0028715134
0.018854618
0.022497535
0.0016585588
-0.0090225935
-0.0042907
0.008956432
-0.0014535189
0.002455473
0.012190938
0.005567074
0.010217071
0.0010858774
0.01711595
-0.015772939
5.686283e-05
0.005151868
0.015172958
0.01401186
0.0027205944
-0.0014978647
0.013156295
0.014758468
-0.00464499
-0.00048482418
0.0020285845
0.010699868
-0.002743125
0.0030093193
-0.012121201
0.042015553
-0.0050148964
0.022642136
0.02878058
-0.010214567
-0.004639268
-0.008700132
0.017098308
-0.004384756
0.019309998
0.030651093
-0.0033195019
0.0094156265
-0.0021276474
-0.0010795593
0.0024918318
-0.007315159
0.0016140938
-0.023797393
0.009744644
-0.028471947
0.01701498
0.0015206337
-0.02602148
-0.043521285
0.010770559
0.018032908
0.0096178055
0.0032297373
0.0018610954
0.023293138
0.008867741
0.0054306984
-0.00039839745
0.0014207363
0.00042378902
-0.0048578978
0.008225799
0.009692192
0.00020849705
0.011816382
-0.0012587309
0.014827371
-0.016134858
0.002229333
0.02502203
0.004462123
0.008541107
0.02992487
0.01131773
-0.0066485405
0.03248465
-0.009750605
-0.012947559
0.0059530735
0.003750801
0.001578331
-0.009000063
0.019990683
0.046049237
-0.0064154863
-0.0009660721
0.002243638
0.016212583
0.006235957
0.004519582
0.023652554
0.00209558
0.0016695261
0.00074517727
0.023670197
-0.0027103424
5.7935715e-05
-0.0002695322
0.029916644
0.011497855
-0.0069932938
0.03463018
0.0161556
0.0045642853
-0.0013231039
0.000109791756
0.029471159
0.0079933405
0.031656742
0.019577503
0.00611794
-0.009250164
0.0067892075
0.025128484
0.00838387
0.012068033
0.02081871
0.003856063
0.016775846
0.025603414
0.008579969
-0.0016012192
0.0012601614
0.0026689768
0.008325219
0.007899404
0.0016676188
0.014863968
0.004714012
0.005488634
0.01531136
0.01875627
-0.00979948
0.009658575
0.016261935
0.015649676
0.009998679
0.00027143955
0.012978911
-0.006474018
0.0045957565
0.0037808418
0.010020137
-0.00032544136
0.0042028427
0.00088489056
0.008215904
-0.0323354
-0.005416274
0.015579343
0.028420806
0.035216212
0.007982373
-0.020434499
0.009536028
-0.016340137
-0.0016158819
0.003361702
0.017391086
0.009452224
0.012483001
-0.0049675703
0.0064082146
-0.014051795
-0.0015541315
0.0044674873
0.0015753508
0.009144545
0.018376231
0.015882492
0.0019080639
0.008273363
0.01651609
0.027763963
0.029487014
-0.012039423
0.02433741
-0.005872607
0.0001989603
-0.0057532787
0.014130354
0.0012472868
0.006998539
0.0021926165
-0.0007214546
-0.0023932457
-0.0017732382
0.024987578
-0.0060328245
0.022147894
0.024808526
0.013296127
0.025631428
0.008287191
-0.016251206
-0.0054205656
-0.0025799274
0.0143197775
0.021574616
0.011162043
0.00034224987
0.004132986
0.0028880835
0.026795983
-0.021506071
-0.013389587
0.00064611435
0.009741068
-0.0016915798
-0.00027871132
0.008804917
-0.0012331009
0.0078424215
0.0034017563
0.014332771
0.026257992
-0.008799553
0.030583262
0.018789649
-0.008805871
7.1406364e-05
-0.0028008223
0.022202611
0.0011529922
0.0013275146
0.003113985
0.0087111
-0.016801476
-0.01848483
-0.0009689331
0.0005581379
0.012021422
0.022652984
0.018079638
-0.0029166937
0.0032464266
0.0110247135
0.007184267
-0.0031251907
0.020788789
0.008398414
-0.0068291426
-0.00017094612
-0.0027474165
0.007801056
-0.0017937422
0.016313076
0.0065962076
0.003352642
0.0049387217
-0.0020780563
-0.004314184
0.0062886477
0.013105154
0.009919524
-0.028693914
0.022829175
0.014431238
-0.0035728216
-0.009162784
0.0066211224
0.0040175915
0.00039708614
-0.01794374
-0.00728631
0.012713313
0.0030225515
0.012033343
0.0049208403
0.0027680397
0.0095191
0.0036273003
0.023678303
-0.0029577017
0.016814828
-0.0018004179
0.02062893
0.0058221817
0.03066051
-0.0015681982
0.029331207
0.0048769712
0.0043429136
-0.01716113
-0.005293727
0.012562752
0.033852816
-0.013396144
-0.0103753805
0.013022423
0.0028465986
0.025693417
0.017707586
0.0101543665
0.0039191246
0.0027185678
-0.011375308
0.038531303
-0.014014363
0.0042487383
0.002061367
-0.014935136
0.015898466
0.016518354
0.003988266
0.015156984
-0.0016624928
0.023288488
0.0008083582
0.0080503225
0.010873437
0.007851243
0.01337719
0.00041294098
-0.003991723
0.0041662455
-0.013118148
0.022766829
0.010095954
-0.032359004
0.0039383173
-0.009086013
-0.029741526
-0.02137196
0.015099287
0.0023143291
-0.0017608404
0.0154562
-0.005694747
-0.008909345
0.030526161
0.009570599
-0.0024240017
0.004811287
0.024232745
0.007846832
0.014392018
-0.014600277
0.0018974543
-0.015348077
0.002729416
-0.0054928064
-0.00883019
0.00930357
0.0012332201
0.004507065
0.017667532
0.0041080713
0.0016999245
0.0075086355
0.0067698956
0.0048844814
0.009652972
0.028289318
0.008118629
-0.010057569
-0.005690336
0.019373655
0.021074533
0.0063313246
0.039350748
0.0046265125
0.005866885
-0.008839846
0.013160229
0.009677768
0.015296102
0.0046738386
0.002162099
0.0060726404
0.002552271
0.004805684
0.01664567
0.003632903
0.0011793375
0.019451737
0.010062575
-0.0074831247
0.0024518967
-0.0025148392
-0.0051561594
-0.0037620068
0.018398762
0.006972909
0.006764531
-0.011386156
-0.002694726
-0.002660513
0.0006943941
0.002097845
0.010933518
-0.0070126057
0.004984021
-0.0020166636
-0.015900373
-0.0072500706
-0.0032770634
0.010057569
0.008740902
-0.013576865
0.024717093
0.0054091215
-0.0003285408
0.036584496
0.03423643

-0.0004940033
-0.005042553
0.018371582
0.02183783
0.008487582
0.028712869
0.0021101236
0.018304825
0.011419058
0.009500623
-0.0020685196
-0.0017414093
-0.004963517
0.0024427176
0.0052936077
0.0017743111
0.0021903515
0.0055105686
0.0013865232
0.0043444633
0.0071765184
0.041704178
-0.0071024895
0.0097619295
0.013669848
0.012880683
0.005291939
0.0063815117
0.0037246943
0.0032941103
-0.00468266
0.017036319
-0.008824348
-0.009571552
-0.00017046928
-0.00066900253
0.0130313635
0.021443844
-0.0006765127
0.013626337
-0.008208156
-0.0015337467
0.00845921
0.008076191
-0.0012338161
0.008340478
0.0062042475
0.012474179
0.007093787
0.025719762
-0.0032874346
0.0017014742
-0.0042345524
0.015605688
0.0017597675
0.004303217
0.0017069578
-0.0013333559
-0.0009887218
-0.013916731
0.016530752
-0.0030462742
-0.010770559
0.010418415
0.011180282
-0.002136588
0.009487748
-0.00065898895
-0.0045074224
-0.016957521
-0.01254046
0.01665616
0.010499597
0.023489714
0.0032179356
-0.003741622
0.0210644
-0.0024254322
0.004278302
0.0012725592
0.0026869774
0.00704062
0.0033986568
0.006112337
0.011730552
0.012536645
0.0013102293
0.022719622
0.021384478
-0.012644768
0.002854824
0.019162178
0.0062121153
-0.0080218315
0.007383704
-0.025048971
-0.003073454
0.02189672
0.02331078
0.01333189
0.002293229
0.001414895
-0.0059359074
0.0041177273
0.008964539
-0.0028562546
0.009117603
-0.001960516
0.004833102
0.011526227
0.007844329
-0.012103438
0.009151816
0.012603164
0.0045216084
0.012763023
0.0042774677
-0.0006403923
-0.0029459
0.0015712976
0.0068876743
-0.003861308
0.0089280605
0.010831356
-0.013996005
-0.006186247
0.0066189766
0.0078077316
0.012414455
0.027019262
0.0011962652
0.032397628
0.00044453144
-0.011907935
0.005906701
0.005287409
-0.002507329
-0.0010011196
0.0051488876
0.0075609684
0.008844137
-0.0017974377
0.008911967
-0.002734065
0.012983322
0.0058590174
0.003161788
0.0023642778
0.014798999
-0.024117827
0.0047454834
0.014469504
0.004727006
0.008645296
0.012765884
-0.001485467
0.0067517757
-0.0036119223
-0.0051357746
-0.0030100346
-0.0055511
-0.0029052496
0.021078467
0.008452296
0.013123751
0.012911677
0.004945636
0.007867932
0.011705041
-0.0028992891
-0.0022130013
-0.0122869015
0.008238435
0.006708503
0.0045939684
0.025707603
0.010850072
-0.0003029108
0.0018447638
-0.003987074
0.0029450655
0.001144886
0.010102034
0.004155159
-1.2755394e-05
0.0042768717
0.010604978
0.018955112
0.005456209
-0.0047006607
-0.010662794
0.0018578768
-0.014074683
-0.006918192
0.008820891
0.0061944723
-0.0019857883
0.004500985
0.00427711
0.018541217
0.01808405
0.0484308
0.00029432774
0.0046738386
0.0009558201
0.0040482283
0.014357448
0.0063261986
0.0043764114
-0.010334015
0.0038564205
0.00083065033
-0.0038444996
-0.0105627775
-0.003209591
0.018543243
0.005883932
0.008333921
0.006660819
-0.007118702
-0.0011327267
0.012003183
0.0021419525
-0.005625367
0.0024318695
0.026296139
0.016593218
0.0012494326
2.6345253e-05
-0.0061781406
0.017505288
3.7312508e-05
0.005000353
0.0099595785
0.009280682
0.0066888332
0.0077598095
-0.00011610985
0.0024747849
0.010028958
0.0012168884
-0.008900166
0.0082582235
-0.00014424324
0.0034931898
0.0028920174
0.010370016
0.0018502474
0.0010430813
0.008561254
0.0013029575
0.0051482916
-0.015324235
-7.843971e-05
0.012064338
-0.0026043653
0.0027831793
0.033777952
0.0100182295
-0.0012025833
0.015259385
0.01718998
0.010282278
0.011677027
0.01869595
0.005557418
-0.0026146173
0.008410454
0.006790757
0.024494767
0.011447191
0.0020815134
0.0023165941
-0.02079773
2.026558e-05
0.002685666
0.0057708025
0.0035276413
0.012523174
0.019435287
0.008143663
-0.003727436
0.023115039
-0.0015929937
0.0051864386
0.006013751
0.0052154064
-0.0058021545
-0.00050342083
0.0044472218
0.0021041632
-0.009833455
0.031685114
-0.0024693012
0.020572186
-0.00085663795
-0.004311681
0.0038615465
0.006047249
0.009781361
0.0111659765
-0.00024747849
0.02865684
0.01651597
-0.00037944317
-0.004459262
-0.0069390535
0.004149437
0.0072540045
0.0062690973
0.017335176
0.0004800558
-0.00020384789
0.00093245506
0.009034634
0.0065356493
0.0086025
-0.0018811226
0.014395356
0.0004118681
0.000947237
0.004868388
-0.01575613
0.0034207106
0.0044293404
0.00089776516
-0.002085805
0.011187315
0.017329216
0.007368684
0.0031936169
0.014221072
0.009955287
-0.006509781
-0.0006854534
0.007203698
-0.00041627884
0.015007496
-0.00053977966
0.016748428
-0.00067293644
0.0065078735
-0.0007275343
0.006240487
-0.0024734735
0.013439298
0.0025868416
0.01764524
-0.004568577
-0.0027401447
0.0046904087
0.014212847
0.010311127
-0.0010623932
6.4373016e-05
0.012064099
0.0114712715
0.010914683
0.016378045
0.0024200678
0.0008456707
0.0016468763
0.0025383234
0.0002257824
0.008775353
0.0012780428
0.02020216
0.019799948
0.0007698536
-0.00204432
0.001956582
0.0070233345
0.0016547441
-0.006463647
0.005150199
-0.022116661
0.0035233498
0.0051158667
0.005328536
-0.008674979
-0.003177166
0.018013597
-0.0046259165
0.012215376
-0.0005325079
0.0028457642
0.013454795
0.014684081
0.004319668
0.0008560419
0.03946984
-0.0032390356
0.017596006
-0.0007041693
0.03602767
0.004297614
0.0008466244
-0.0026584864
-0.0014654398
0.013266683
0.004522562
0.0029666424
0.0023958683
0.002466917
0.0035176277
0.016989231
0.0057319403
0.0076847076
0.024684787
0.005565405
0.0048942566
0.005158663
0.019451737
0.032910347
0.02370143
0.0017932653
-0.01082623
-0.0022215843
-0.004228711
0.00066411495
0.002569437
-0.0002052784
-0.0028772354
-0.021321416
-0.0031820536
-0.0022383928
0.008870006
0.037112117
0.0021089315
0.019245267
-0.00080418587
0.007265568
0.0033512115
0.009283066
-0.014159918
0.012801647
-9.9897385e-05
0.007355809
-0.0053077936
0.0031619072
0.021551847
0.029070377
0.002803564
0.009602189
0.00947237
0.005892992
-0.006998539
0.02097559
-0.012172222
-0.0020974874
0.013625503
0.05259216
0.01158464
0.02259171
-0.004423499
0.0042438507
0.0116176605
0.012828112
0.014649868
-0.0011664629
0.01322329
0.008206129
0.0208503
-0.00076436996
0.007849097
0.0076425076
-0.0010528564
0.0059821606
0.0062907934
6.556511e-06
0.008846045
-0.006615758
0.0052793026
0.019150734
-0.0006650686
0.018031478
-0.013395667
0.009921908
0.019209623
-0.0035632849
-0.0005543232
0.0073601007
-6.7830086e-05
0.008849263
0.0010462999
0.00942111
0.0008288622
-0.00092577934
0.0029565096
0.00014328957
0.0051162243
-0.004420519
0.029434443
0.0060982704
0.003265977
0.010127068
0.0061041117
0.029343367
0.0038148165
0.010416627
0.0026271343
0.0071148872
-0.0029904842
0.010107398
-0.0076731443
0.03058362
-0.0077807903
0.0003221035
0.0071442127
-0.0044989586
0.0030071735
0.0073999166

0.013151884
0.0057286024
0.00878942
-0.007914662
0.007394433
0.0051407814
0.019480348
0.012671471
0.010879517
0.007545471
0.0057498217
-0.00030875206
-0.00026464462
-0.0024302006
-3.874302e-05
0.003339529
0.0027070045
-0.008595347
0.0003067255
-0.0017983913
0.0021682978
0.0056387186
0.011432886
0.004251957
0.0011345148
-0.0020947456
-0.00027740002
0.0059792995
0.020379424
0.013362646
0.005962968
0.0003004074
0.003002882
-0.0006005764
0.0012114048
0.015909314
-0.001457572
0.0029600859
0.0074380636
-0.0063072443
0.004838586
0.0009821653
0.00992775
0.0038768053
0.0094053745
0.00070154667
0.004795909
0.00020039082
0.00038444996
6.735325e-05
0.00067436695
0.007644534
0.0053943396
0.008615494
0.007501483
0.013594151
-0.00059592724
0.019020915
0.012218952
0.005641818
0.0028147697
0.0044773817
0.004721999
0.00444293
0.0058321953
0.0010336637
0.005705595
0.0032957792
0.011345744
0.0007697344
0.0058398247
0.028606534
0.012074828
0.0018322468
0.0040084124
-0.0014806986
0.0060487986
0.0019496679
0.00588727
-0.0011154413
0.0065802336
0.006139159
0.017663002
-0.0038200617
0.002035141
0.0021677017
-0.001377821
-0.0007556677
0.014639258
0.0067944527
-0.00042557716
0.0057088137
0.005496621
0.009656429
-0.0008614063
0.004475355
0.00024557114
0.0031653643
0.014222503
0.00028145313
0.019010544
-0.00045514107
0.0046418905
-0.0004771948
0.0048321486
0.011116385
0.004696846
0.0014101267
0.008036256
-0.00035345554
0.0038274527
-0.00084865093
-0.002218008
0.009929538
0.0052542686
0.004492283
-0.0012550354
0.0042728186
0.024012446
-0.0025072098
0.008748651
-0.0025236607
0.0037801266
-0.0003451109
0.0048133135
0.00038194656
0.00080513954
0.013476968
0.0054457188
0.0014967918
0.007565975
0.037979722
0.0050019026
0.0059713125
-0.001277566
-0.0007637739
0.003020525
0.004355192
0.016353726
0.0007612705
0.011798024
0.012562633
0.0027105808
0.0070747137
0.022058249
0.0089046955
0.0019119978
-0.0020655394
0.0025627613
-0.000114798546
0.0044674873
0.00751698
0.0014896393
0.013972163
-0.0011929274
0.010914445
0.004308939
0.022354603
0.009400845
0.00067818165
0.005698681
0.0004390478
0.0072079897
-0.003464222
0.00012910366
0.0026237965
0.012437224
0.018667698
0.0021954775
0.0011191368
0.0025655031
0.0061073303
0.00027394295
-0.0007432699
0.006660104
-0.0023744106
0.010118842
0.0034048557
-0.00052285194
0.0010004044
0.0023249388
0.0031789541
0.0038616657
0.00036537647
0.006734848
0.009564042
0.007967234
0.004691601
0.0055036545
0.00045073032
0.01654017
0.0019110441
0.007171631
0.0019657612
0.0038244724
0.0008047819
0.0071024895
0.0086346865
0.0072761774
0.015646577
0.0122329
0.0007580519
0.0012149811
0.035663486
0.011003852
0.0038548708
0.018066287
0.004070401
0.0016992092
0.007200122
0.0038046837
0.011928678
0.0041035414
0.0021089315
0.018963933
0.00600791
0.0018996
0.009352565
-4.9233437e-05
0.025167465
0.0012962818
-0.0018011332
-0.0032132864
0.0017688274
0.010310292
0.012979388
0.0030235052
0.016831517
-0.0003682375
0.0016537905
0.005267501
0.043237805
0.009875178
0.0018168688
0.0011806488
0.011821628
0.011297941
0.005433202
-0.0009860992
0.009620309
0.00095689297
-0.0018123388
0.015121341
0.0017317533
-0.00079119205
1.9550323e-05
0.0021629333
0.011036038
0.00013363361
0.0023989677
-0.00064480305
0.0030150414
0.017403126
0.013891697
-0.0001834631
-0.0006994009
-0.00069868565
0.004013419
0.011453867
-0.0015877485
0.0088579655
-0.00025832653
0.001326561
0.0005968809
0.0073696375
-0.0025186539
-0.0016196966
-0.0009511709
0.00471735
0.0064282417
0.016252518
0.0005515814
0.0050371885
-0.0035915375
-0.00023627281
0.020843863
0.009840965
0.0073378086
-0.00017476082
0.0037901402
-0.00027024746
0.0019342899
0.005609274
0.019096613
0.0078213215
3.4928322e-05
-2.7775764e-05
0.0066707134
0.022990823
-0.0010682344
-0.0010532141
-0.0013736486
0.00714612
0.011838555
0.018712163
0.005896926
0.004406929
-0.0010873079
0.014889717
0.0007150173
0.002619028
0.028340816
0.0070353746
-0.0005168915
0.0034037828
0.0015305281
0.0005288124
0.009478688
-0.00045681
0.00058496
0.0006211996
0.0016504526
0.016724467
0.0029170513
0.00062191486
0.021893024
0.008797646
0.009563088
-0.00095558167
0.0013821125
0.0013766289
-0.00015413761
0.0012083054
0.01539731
0.004259467
0.0029158592
0.0121456385
-9.024143e-05
0.0009305477
0.02349031
0.0024671555
0.0027120113
0.0061267614
0.0006392002
0.002089262
0.0029751062
0.0040177107
-0.00033068657
0.0017656088
0.0019737482
-0.0027877092
0.009521723
-0.0037295818
0.0017973185
0.011500001
0.005112529
0.0109859705
0.0028487444
-0.002646327
0.0028630495
0.0033732653
0.0036631823
0.0012149811
0.0011343956
0.015953183
0.024380803
0.003479004
0.014124274
0.000116467476
0.002997756
0.00534153
-0.0015851259
0.0030212402
0.0058535337
-0.0006117821
0.0073001385
0.0026351213
0.007203698
7.390976e-05
-0.0004748106
0.0028953552
0.014456749
-0.0020742416
0.005154848
0.001067996
0.009614587
0.037549376
0.0016829967
0.00611639
0.011516094
0.0006790161
0.014254093
0.016963601
0.0081579685
-0.004199147
0.01971972
-0.0001155138
0.0004413128
0.003099203
0.0010236502
-0.0026801825
0.026969433
0.015481591
0.004792452
0.002085209
0.0012818575
0.0229069
0.011188984
0.0075445175
0.004619837
0.007492304
0.004029274
0.0065009594
0.0052024126
0.015328288
-0.00060141087
0.0074265003
0.011443019
0.0008326769
0.013891578
0.0076254606
0.018577576
0.009678125
-0.0002090931
0.015859365
-0.0018144846
0.0002770424
0.003099084
0.006357312
0.003411889
0.0048993826
0.0054216385
-0.0014064312
0.0015735626
0.0053157806
0.005288124
0.0030196905
0.004934311
0.0008627176
0.0028995275
0.0021281242
0.009810686
-0.0037398338
0.007322192
0.00017750263
0.026489377
0.008388519
0.008203983
0.0007749796
0.005645752
1.0371208e-05
-0.00039112568
0.0030552149
-2.2053719e-05
0.015430212
0.0127648115
-0.0035854578
0.0019239187
0.009454012
0.0057268143
0.0028421879
0.0036114454
0.0025503635
-0.0010780096
-0.0065193176
-0.002724409
0.019292355
-0.0008968115
-0.0002194643
0.0036770105
0.012270927
0.00086283684
0.0045946836
0.007970333
-0.0014227629
0.0032510757
0.006275773
0.0037711859
-0.0005759001
0.0023306608
-0.0020451546
0.0079039335
-0.0017722845
0.012881279
0.00060880184
0.0042438507
0.0051122904
0.0043002367
-0.0037648678
0.008524299
0.0030180216
-0.0036473274
0.016617656
0.0042095184
0.01147449
0.00097310543
-0.0007497072
-0.00057303905
0.0066925287
0.006525755
-0.0005338192
0.005214691
-0.0011937618
0.0014890432
0.008017778
0.00095033646
0.0033031702
0.004047394
0.010060906
0.007926583
0.00014662743
0.0054502487
0.0041856766
0.010773182
0.025700212
0.0005854368
0.021909237
0.0063449144
0.0018547773
0.002580762
0.0011103153
-0.0031853914

0.004464388
0.004668832
0.0070620775
0.01569724
0.0022720098
0.007986784
-0.0018113852
0.003561616
0.0030673742
0.007527709
0.002503872
0.0017656088
0.009505749
0.014917731
0.007759571
0.0066713095
0.005458951
0.0062969923
0.004333973
0.0025041103
0.020288944
0.008986473
0.009194016
0.003920555
0.012815595
0.006329298
0.0032314062
-0.0039281845
0.006042838
0.0010845661
0.011760592
0.00080502033
0.0035598278
0.0047032833
0.009894848
0.0014089346
0.0003131628
0.0026831627
0.016623974
-2.1100044e-05
0.0024300814
0.010329127
0.0032811165
0.0052655935
0.004753828
0.011945248
0.00028824806
0.00288558
0.0075006485
0.015816212
-0.0011675358
0.004717231
-0.0019189119
0.0064805746
0.0031517744
0.0071667433
-0.0008032322
0.0059040785
0.0024266243
0.014403701
0.0019551516
0.005777359
0.0031824112
0.0111294985
0.006329298
0.004770398
0.0065672398
-0.00061428547
-0.0010716915
0.01105535
0.0067765713
0.0058346987
0.0039988756
0.0020295382
-0.000718832
0.007014513
0.0021576881
0.0020401478
0.004771948
0.0067822933
0.012176514
0.0011403561
0.0049692392
0.008652568
0.016284227
0.010031939
0.0046669245
0.008649468
0.0035979748
0.003471613
0.009642005
0.0018578768
0.008968234
0.003608346
0.01526022
0.008191109
0.0138549805
0.002513051
0.0016044378
0.0055053234
0.002837658
0.00035881996
0.0027663708
0.004343629
0.0032789707
0.000857234
-0.00035321712
3.695488e-05
0.019889355
0.00060868263
0.007968545
0.004030347
0.011179805
0.008395672
0.0071291924
0.0030020475
0.009713531
0.003096819
0.0057406425
0.013478279
0.0037821531
-0.00021910667
0.0028307438
0.006655693
0.00086188316
0.0021635294
-0.00047886372
0.004953146
0.0068576336
0.0026361942
0.0035387278
0.012708306
0.0037699938
0.0044493675
0.005953908
0.009052992
-0.0011695623
0.009564757
0.008738399
0.0041058064
0.004939437
0.013252854
0.0062339306
0.0028233528
0.012028933
0.0043902397
0.0014196634
0.008095384
0.0058722496
0.0042665005
0.0015501976
0.002171874
0.011200428
0.0058345795
0.011568189
0.002216816
0.003953576
0.0009922981
0.008561969
0.000467062
0.007318616
0.010788798
0.0011861324
0.001965046
0.010645628
0.0047712326
0.0021367073
0.012771964
0.0022771358
0.013984442
0.0030304193
0.0019152164
0.006948948
0.0066714287
0.0060077906
-0.0006289482
0.009679794
0.007809758
0.004632592
0.002131939
0.0018135309
0.007649541
0.004269123
0.0017795563
0.001691103
0.010312557
0.0068278313
0.00075757504
0.012658238
0.0047711134
0.00626266
0.010352135
-0.00040590763
0.0055297613
0.004366994
0.013101935
0.0029139519
0.002931118
0.0020846128
0.005931139
0.0038963556
-0.002226591
0.0007082224
0.005056262
0.00019299984
0.007687211
0.00999856
0.004053116
0.0010253191
0.0027276278
0.010240912
0.0019227266
0.0057532787
0.00087857246
0.014488697
0.004377842
0.008821726
0.0030400753
0.0020788908
0.0046913624
0.0065721273
0.007593155
0.008808136
0.0006148815
-0.0011049509
0.0103183985
0.00025761127
0.0034086704
0.0039128065
0.0037624836
0.0040107965
0.0046783686
0.0070394278
0.0008006096
0.00090932846
0.0039545298
-0.0006381273
0.0030061007
0.009996653
0.011727214
0.00676167
0.0021390915
0.010053396
0.001473546
0.01634407
0.009390831
0.0015884638
0.0118198395
0.0012406111
0.007799387
0.017406344
0.009987235
0.0020290613
0.007885456
0.003497839
0.0071407557
0.000611186
0.00085532665
0.0026458502
0.008259773
0.0060709715
0.0019791126
0.007091403
0.00020492077
0.011924863
0.0071487427
0.00969553
-0.00047421455
0.004864812
0.0054103136
0.0034435987
0.009569287
0.009092569
0.00018668175
0.022271395
0.0031745434
0.0013213158
0.006424427
0.0046793222
0.0033152103
-0.00037574768
0.00024712086
0.0044970512
0.00074744225
0.0014464855
0.0061563253
0.0010564327
0.0010789633
0.0068582296
0.0024313927
0.0022382736
0.008332968
0.0027821064
0.010507345
0.0119434595
-0.00020468235
0.0011781454
0.0025548935
0.00074338913
0.005970359
0.006795883
0.0015790462
0.0030559301
0.00047385693
0.0054872036
0.00428319
0.009237409
0.011406064
0.0018986464
0.0027832985
0.017014384
0.006084442
0.0058285
0.0124435425
0.0039349794
0.002180934
0.004549861
0.01198411
0.0013195276
0.001480937
0.008686781
0.006064415
0.008163333
0.0074726343
0.0051071644
0.0023243427
0.0011724234
0.0030527115
0.0006853342
0.01707387
0.003986478
0.0062065125
0.0021685362
0.0026254654
0.0012372732
0.00668931
0.0036730766
0.0033807755
0.004531622
0.01100111
0.010373235
0.008703589
-9.405613e-05
0.0005377531
0.0033500195
0.003501296
0.00076413155
0.0036563873
0.0054028034
0.0036485195
0.0057649612
0.0063821077
0.010550976
0.009665966
-0.00036895275
0.016628861
0.0019401312
-0.0004953146
0.00488317
0.0021538734
0.0073640347
0.006885886
0.004446268
0.0036019087
0.016218781
7.522106e-05
0.019738674
0.0017932653
0.0032929182
0.0076106787
-0.00030386448
0.0072505474
0.0032982826
0.0066702366
0.0027219057
0.007449031
0.0032391548
0.003815055
-0.0024403334
0.0051505566
0.0077763796
0.008077383
0.0012751818
0.0064589977
0.0047860146
0.014521837
0.006724119
0.013940334
0.011829019
0.004645705
0.008593082
0.0031217337
0.00091409683
0.0010199547
0.0015450716
0.004816532
0.00035357475
-0.0010697842
0.004542351
0.0014556646
0.012215257
0.0027433634
0.0016112328
0.0053561926
0.002212286
0.001985073
0.0038975477
0.017716408
0.012162924
0.008238435
0.008726001
0.00801599
0.005699277
0.0066105127
0.0016849041
0.0024665594
0.011971831
0.00671947
3.7312508e-05
0.0037673712
0.010014296
0.010204434
0.010540962
0.009845614
0.003894806
0.0026665926
0.006046176
0.004366517
0.012848139
0.004485011
0.0016121864
0.009898782
0.013737917
0.0076607466
0.0001231432
0.0067079067
0.004676819
0.011345029
0.0053653717
0.0050479174
-0.00023114681
0.0055139065
0.0058689117
0.002672553
0.0053584576
0.00087821484
0.007497072
-0.00078988075
0.00040507317
0.001234293
-0.0009063482
0.005914688
-0.0008380413
0.003264308
0.0060573816
0.001077652
0.014111996
0.0008571148
0.0065020323
0.000611186
0.0031225681
0.0022170544
-0.0003029108
0.0023274422
0.0041573048
0.000104665756
0.007964611
0.01044476
0.0004968643
0.0032225847
0.0030493736
0.0042364597
0.00060403347
0.008964062
0.011626005
0.009149313
0.00030517578
0.015419483
0.0053813457
0.0043393373
0.008451223
0.0030269623
0.002358675
0.0013794899
0.002380848
0.016972184
0.007836223
0.0057229996
0.0070272684
0.014813781
0.0016628504
-0.0024086237
0.0019006729
0.013222933
0.0052382946
0.0036103725
0.011842132
0.0094714165
0.003843069
0.0059939623
0.004221916
0.002921462
0.01224947
0.0050923824
0.0038231611
0.00015032291
0.0039367676
0.008461118
-0.00032293797
0.0073144436
0.0051555634
0.0034861565

0.001278162
-0.0016117096
0.0020333529
0.011061072
0.008701324
0.0017966032
0.00534451
0.0005774498
0.007044673
-0.0012273788
-0.002891183
0.004276991
0.0019289255
0.0019738674
0.0025211573
0.0031214952
0.014732838
0.008417606
0.0010894537
0.006116152
0.018805265
0.011573315
0.002201438
0.004598379
0.0014544725
-0.0017778873
0.0012589693
0.0041782856
0.0024417639
-0.0006251335
0.012641311
0.004776597
0.009552121
0.01159811
0.0068643093
0.0060203075
0.004809022
0.002208829
0.0011832714
0.003983021
0.008102775
-0.00083196163
0.016453505
0.0007673502
0.0024858713
0.0016337633
0.005093217
0.009063125
0.004350662
0.008240223
-0.0021320581
-1.2397766e-05
0.006331444
0.007705927
0.0063279867
0.0085065365
0.0042096376
0.00013637543
0.0006620884
0.010078311
-0.0010150671
0.010027289
0.0012772083
0.00697875
0.00068092346
0.0041131973
0.0028687716
0.0077605247
0.010546446
0.0037038326
-0.0004658699
-0.0019167662
0.0051215887
0.00070393085
0.013838291
0.0056716204
0.013124466
-0.00026142597
5.2809715e-05
0.0041366816
0.009904623
0.0041952133
0.0026965141
0.006753564
0.0008368492
0.025184393
0.008100033
0.00020694733
0.016269088
0.0045189857
0.008948207
0.0022784472
0.011271715
-0.004275799
-0.0016536713
0.004751563
0.007287264
-0.0026103258
0.0021454096
-0.0002975464
-0.0008907318
-0.0011838675
0.006960988
0.0012632608
-0.0009973049
0.00069630146
0.007207155
0.0025684834
0.0035221577
0.0034850836
0.0014975071
-0.004611492
0.0037783384
0.013307452
0.002291441
0.006503463
0.0029097795
0.018007278
-0.0066826344
-0.001709938
0.0052440166
0.004647851
0.00029814243
-0.0010929108
0.00844872
0.0005233288
0.006804943
-0.00015974045
0.002819419
-0.0019794703
0.011902809
0.0027655363
0.02678442
0.021848321
0.009436846
0.014041901
0.0009281635
0.006891489
0.02896607
0.002088666
0.0071924925
-9.6678734e-05
0.013099194
0.014405489
0.0039236546
0.0033997297
0.00037002563
0.005412936
0.0073622465
0.00059115887
-6.020069e-05
0.0016871691
0.01385963
0.0029315948
0.0021095276
0.0065499544
0.0024527311
-0.0017786026
9.679794e-05
-0.0005733967
1.513958e-05
0.0017157793
0.0075856447
0.0018873215
0.0020370483
0.0029412508
0.000420928
0.018677473
0.009399772
0.0032666922
0.0042124987
-0.00075626373
0.0042620897
0.005453944
0.00089132786
0.0016393661
0.0012296438
-0.0017092228
0.007107377
0.0050578117
0.0050946474
0.0065449476
0.006942272
0.009908557
-0.0035924911
0.011413932
0.014742017
0.005462885
0.00087690353
0.0005120039
0.004042864
0.0014750957
0.004228115
0.029476404
-0.0017410517
-0.0009226799
0.0069508553
-0.007626891
0.0003540516
0.0074721575
0.0012491941
-0.001029253
0.0064389706
0.011239171
0.007691741
0.0058448315
0.0069583654
0.002915144
0.0027867556
0.00032866
0.0016547441
0.01249516
0.007029414
0.004723668
0.016721845
0.008422136
0.0002747774
0.00083196163
-0.0024027824
0.003951907
0.004359603
-0.0033615828
0.012480974
0.0035691261
0.0049977303
0.0039737225
0.0006905794
0.0070186853
0.012194037
0.0024176836
0.01360178
-0.00010061264
0.0049437284
0.0008571148
0.005246401
0.008708
0.0014340878
0.009045601
0.0019125938
0.01179409
0.003135562
-0.0032061338
0.0076397657
0.0015292168
0.00039708614
0.007938981
0.0036171675
0.010156393
0.0073646307
0.011245489
-0.0010644197
0.00066030025
0.005360365
0.010331392
0.004618168
0.0011893511
0.0031433105
0.0067517757
0.0024061203
-0.0009800196
0.0075062513
-0.0013999939
0.002714157
0.012455463
0.016249776
0.0045562983
0.0022621155
0.0022034645
0.008147001
0.005957365
-0.0011029243
0.028485298
0.006947398
0.0036821365
0.0028231144
0.051039934
0.00083231926
0.00037670135
0.0023630857
0.0009559393
0.003743887
0.004083276
0.00925231
0.004196286
0.00043320656
-0.00054609776
0.0047557354
-0.0022720098
0.0040973425
0.009924412
0.0056825876
0.011942387
0.003222108
0.0038975477
9.775162e-06
0.022779822
0.008796692
0.0010864735
0.0041171312
0.004660368
0.015809894
0.007649541
-0.003021121
0.0055555105
0.0064486265
0.00894165
0.0012590885
0.014537334
0.002686143
0.0075267553
0.003096819
0.005031824
0.0056648254
-0.0010274649
0.0074927807
0.013237119
-0.0031006336
0.009040117
0.0039542913
0.0005939007
0.015900731
0.008589506
0.0013127327
0.008726001
0.0020776987
0.0058584213
0.004970789
-0.00021886826
0.0015038252
0.012524724
0.0029649734
0.00037050247
0.010646343
0.0014927387
0.004746318
-0.0033813715
0.00906992
0.0060459375
0.003606677
0.011027575
0.006847143
0.0044277906
0.012948275
-0.00041425228
0.0074846745
0.003623724
0.013075709
0.0051562786
0.0016515255
0.0057407618
0.009382248
0.02464211
0.00096571445
-0.0003004074
-0.0018182993
0.0046583414
0.00016570091
0.0033602715
0.011016846
0.007937789
0.007039666
0.009639382
-0.0009824038
0.0059788227
0.009352803
0.004171014
0.0014791489
0.0018171072
0.0037982464
0.0038403273
0.0041862726
0.0058629513
0.0067796707
0.0010758638
0.010331631
0.010684133
0.005583763
0.025657058
0.0059281588
0.0029120445
0.009986043
0.000103354454
0.0026978254
0.0014383793
0.0039498806
0.0014733076
0.020506501
0.006729722
0.013236165
0.01832366
0.006233692
0.0044625998
0.01798284
0.01517427
0.00030946732
0.0046812296
0.032407284
-0.0006700754
0.00030207634
0.013082385
0.012540102
0.0025635958
0.005539298
0.0040391684
-0.0010647774
0.008427143
0.015986085
-0.000983715
0.007974148
0.0008715391
-0.005354047
0.0066598654
0.00093877316
0.007839322
-0.0014880896
0.004583597
0.011265755
0.009320617
0.012685537
-0.0015255213
0.0050592422
-0.00043225288
0.004820943
0.0015476942
0.0010300875
-0.00039243698
0.0008069277
0.012365699
0.011642814
1.3709068e-05
-0.00052571297
0.013830304
0.015138984
0.005529046
-0.00023496151
-0.001110673
0.00037753582
0.008907676
0.0053988695
0.0104215145
-0.0015615225
0.014721394
0.0016493797
0.0059486628
0.0023953915
0.0027056932
-0.002281189
0.016113877
0.009863019
0.0034284592
0.011512399
0.004949093
-0.0010211468
0.00034081936
0.0013600588
0.005620122
0.0015227795
0.0070283413
0.02142191
0.011830211
0.0048605204
0.0071229935
0.011963606
0.0049960613
0.005223155
0.0023401976
0.008232713
-0.00032377243
0.0077548027
0.01128006
0.02262485
0.011633873
0.0032106638
-0.00037181377
0.00238204
0.00027489662
0.004412055
0.008765936
-0.00023460388
0.008341193
0.008892179
0.0034360886
0.0002297163
0.0054551363
0.0039527416
0.010070324
0.0032082796
0.0059541464
0.0070961714
0.004660487
0.014713526
0.0025413036
0.0011513233
0.0034066439
0.0018686056
0.012319207
0.014965653
0.00046861172
0.003931403
0.012901664
0.0021258593
0.0062539577
0.019991875
0.0040459633
0.011089325
0.007261038
0.002741456
-0.0006252527
0.0029306412
-0.00019812584
-0.0007120371
0.0041452646

0.36420667
0.36823714
0.31348062
0.27327538
0.3634634
0.29110813
0.29520166
0.35743308
0.41040647
0.31333697

