0.060265183
0.07172513
0.018273711
0.044795036
0.012869716
0.022801518
-0.05481875
0.104352
0.0419904
0.0024774075
-0.1333468
0.042007923
0.040633917
0.06739187
0.028009176
0.0457139
0.0661509
0.0544734
0.0033681393
-0.031929612
0.11134505
0.018129945
-0.00027287006
0.11881101
-0.07865381
-5.7935715e-05
0.017464519
-0.0746932
0.002748251
0.024413824
-0.036452293
0.070508
0.07543671
-0.0686177
-0.016723752
0.020622373
0.041857123
0.103679895
0.07107997
-0.060467005
-0.030770421
0.011760354
0.0669719
0.03348887
0.006289482
0.06766975
0.086470485
0.017154694
0.004192114
0.048189998
0.020639539
0.020083308
0.032674193
-0.050667405
-0.088481784
0.03297782
0.034971356
-0.00047194958
0.008987069
0.03756666
0.008401513
0.04598677
0.034159184
0.02768135

0.104056835
0.058790326
0.00982213
0.022025943
-0.004428029
0.030406594
0.04039514
0.0125825405
-0.026142836
0.07983065
0.009952188
0.01313436
0.0015441179
-0.0049756765
0.008494496
0.04679346
0.0932616
0.0039248466
0.009291768
0.027091503
-0.014699578
0.0068006516
0.002903819
0.008617759
0.027437568
-0.17537844
0.008295059
0.00234437
0.0020706654
0.074309826
-0.07603061
0.12070334
0.010996461
-0.03524947
0.092717886
0.018782139
0.02608025
-0.010364413
-0.02616036
0.17405808
0.036732197
-0.026750803
0.008925915
0.11219823
0.056538463
0.10672629
-0.021785736
-0.009515047
-0.06735039
0.027683973
0.051239848
0.023162246
0.046625018
0.005412817
0.020432472
0.018072844
0.0013024807
0.0015336275
0.00020599365
0.08371544
-0.076023936
0.028332114
0.0027259588
-0.040261507

0.0027946234
0.017301202
0.029723287
0.00037503242
-0.0018324852
0.013477564
0.010857224
-0.0026510954
-0.0019011497
0.007661104
0.029849768
0.00083088875
-0.013644099
0.021573901
5.710125e-05
0.038695812
0.01420486
0.027800083
-0.0016058683
0.018962502
0.015591502
0.041898966
-0.02118671
-0.063975334
-0.031443954
0.004264593
0.0013092756
0.023372293
0.0055754185
0.017427802
-0.0005940199
0.008544087
0.008664846
-0.004686475
0.0047199726
0.021185279
0.021284342
0.003128171
0.052838445
0.002367735
0.010975361
0.0013667345
-0.015909195
0.013626814
0.03304875
-0.03566277
0.009225607
0.0113738775
0.009232521
0.048661947
0.010086656
0.0062116385
-0.00073575974
0.021299362
0.026729465
-0.0061770678
0.046932578
-0.009385943
-0.015121698
0.017342687
0.04436922
0.016158938
9.4652176e-05
-0.02733612
0.018710613
-0.006690383
-0.009128332
0.014418602
0.017143369
-0.009515882
0.030586958
0.0086609125
0.02596128
-0.0010682344
0.036804557
0.015813947
0.042816877
-0.0006186962
0.010105014
0.021720529
-0.03434217
-0.024039626
0.013119936
0.030842781
0.0053687096
-0.011460066
0.014394999
-0.037266493
-0.023633957
0.018500328
0.012791038
0.013510346
0.029243946
0.059206128
0.01804626
-0.03534901
0.00962925
-0.063632965
0.0076686144
0.019622087
0.0034571886
0.019906878
0.060200214
0.041938066
0.0155745745
0.004332304
0.033780575
0.00076806545
0.019050717
0.049761772
-0.041971564
-0.018893719
0.010326624
0.020929575
0.02290368
0.025243998
0.0023816824
-0.00408113
0.056825876
-0.02867198
0.0071339607
-0.008998275
0.04457903
-0.005995989
-0.003002286
0.015666485
0.009110332
0.019034743

0.0021653175
0.036676764
-0.008751512
-0.03642404
0.0008183718
0.019067526
0.012614489
-0.00091409683
0.030586004
0.039437413
-0.020646572
0.01317203
-0.00063979626
0.04115224
-0.014169812
-0.008292675
0.0050098896
0.01294601
0.0012245178
0.0037328005
0.0141325
0.018254042
0.014727116
-0.01417613
0.0038405657
0.008041501
0.03291869
-0.0010071993
0.013053894
0.014344215
0.015160561
0.008711338
0.0060908794
0.03594184
-0.093161345
0.015624523
0.021152496
-0.058871508
0.0039955378
0.0077750683
0.031291485
0.0071486235
0.022183299
0.030754328
0.03342867
0.021133661
-0.008271813
0.0023956299
-0.001965642
0.008771658
0.016838074
0.0030002594
0.005294919
0.020692348
0.055083513
-0.009841919
-0.00377357
0.02052164
-0.00063622
0.008677244
0.015746713
0.03041327
0.014212489
-0.0002449751
0.0047193766
-0.00583601
-0.014298081
0.015868783
0.005295396
-0.0037214756
0.015943289
0.0462687
-0.004965186
0.008591056
0.014134049
0.029662013
0.00031530857
0.020463943
0.018787622
0.0040471554
-0.0036022663
0.063112974
-0.017796278
-0.009419322
0.017879367
-0.0053064823
-0.0031497478
-0.016115665
0.02323711
0.02140665
0.018892527
0.05475998
0.015968442
0.02363348
0.010662913
0.027314186
0.014745593
0.025308251
0.0009355545
-0.002627492
0.012294173
-0.03030157
0.019252658
-0.006922722
-0.023681879
0.00016510487
0.00040376186
-0.023645401
0.0031467676
0.045680046
0.0045001507
0.027991414
-0.025158405
0.044031024
-0.0069812536
0.015770435
0.022792935
0.033284307
-0.02343762
0.028743267
0.009108424
0.01159358
0.0014855862
0.013781548
0.012621403
0.036756754
0.042491317
-0.016577244

0.009358048
0.019438863
-0.014487982
0.008203387
-0.022172093
0.0011674166
-0.0025604963
0.009978652
-0.0011520386
-0.012817502
-0.0017883778
0.02071762
-0.00062286854
-0.0013904572
0.0077689886
0.0029594898
0.0076055527
0.013079524
0.0015920401
0.0110218525
-0.009080768
0.0075232983
-0.019599676
0.0216012
0.00066816807
0.02270937
0.015122414
0.016486168
-0.00021731853
-0.010532141
0.0100592375
0.0024847984
0.015000939
0.02313006
0.00028312206
-0.0031018257
0.0064103603
0.018227577
0.012145996
-0.016484976
-0.0038768053
-0.0024744272
0.00279665
0.0002695322
0.00051128864
0.0043572187
-0.0308218
-0.0040751696
0.017965913
0.020810723
0.0046629906
0.012239814
0.0136448145
0.0197438
0.0053988695
0.015851736
0.006933689
0.011422157
-0.0016388893
0.0056300163
0.02888918
0.0028595924
0.008224368
-0.0028232336
0.0120847225
0.0014740229
-0.006090164
0.018113136
-0.000103354454
0.00927496
0.0028176308
-0.010135174
7.236004e-05
0.009060025
0.0070317984
0.025083661
0.0036096573
0.029264808
-0.011506081
0.005274296
-0.0014982224
-0.0065749884
-0.0012282133
-0.00030624866
-0.014096737
0.0071127415
0.01741445
0.0016325712
0.0027198792
0.0013263226
0.0046406984
0.006428361
0.013117433
0.0042214394
0.011022568
-0.008408546
0.021125197
0.00063073635
0.01139307
-0.0033267736
-0.0022616386
-0.0015786886
4.696846e-05
0.00010550022
-0.007115841
0.0044219494
0.012265921
-0.00095260143
0.020636559
0.0049494505
0.03464055
0.0036689043
0.0021859407
0.00925684
-0.014433384
0.0031924248
0.006265402
0.0012695789
-0.0031392574
0.016339183
8.34465e-05
0.00055122375
0.0022696257
0.021850586
0.010469198
-0.021315455
0.002575159
0.0064771175
-0.008728504
0.005552888
-0.024442911
0.0037082434
0.0053670406
0.005945325
0.02700901
0.0008530617
-0.00025200844
0.0022035837
0.01133275
0.0046052933
0.01756227
0.004811406
0.02690053
0.0018724203
0.0048224926
-0.004444599
0.0059667826
0.0053447485
-0.0003002882
8.261204e-05
7.7843666e-05
0.0020309687
0.011719584
0.012780905
0.0012564659
0.00045859814
0.02943921
0.00035989285
0.0023287535
0.010492206
0.0064679384
-0.024946213
0.005457282
-0.025877476
0.0065300465
-0.003897071
0.019896269
0.018332243
0.008727908
0.009262204
0.0005272627
0.020309329
0.0005772114
0.01716268
0.010906577
0.031589508
-0.00019216537
-7.069111e-05
0.01566875
0.020571709
0.0018312931
0.007677436
0.0011286736
0.002637148
0.005926132
0.024998069
-0.00850451
0.020500064
-0.0006004572
-0.0034730434
-0.020627141
0.00544858
0.012158632
0.0017886162
0.0103981495
-0.024237633
-0.00078320503
0.0005624294
-0.016148329
0.015827417
0.0059211254
-0.00038790703
0.003610015
0.03184998
0.0024433136
0.007796645
0.004641056
0.006914735
-0.0015243292
0.011397481
0.001067996
-0.0011533499
0.002031207
0.0038336515
0.032758236
0.003913045
-0.0018101931
-0.0016778708
0.01534605
0.004692197
0.030614376
-0.0006760359
0.012444258
-0.0030229092
0.0025986433
0.008603334
0.015268207
-0.0049681664
-0.0011211634
-0.0023539066
0.017863154
-0.015339732
-0.0072199106
-0.001542449
0.0152442455
-0.0074169636
0.024620652
0.0110810995
-0.007253289
-0.0036052465
0.00980401
-0.017728925
-0.0127670765
0.0032829046
-0.0012457371
-0.004006624
0.013435841
0.0028914213
-0.0010573864
0.0141278505
0.0024151802
0.0053572655
0.0060647726
-0.008026838
0.0021452904
0.0040169954

0.0075546503
-0.0014151335
0.0045108795
-0.0046970844
0.0015141964
0.006821513
0.00682652
0.007698536
0.0012794733
-0.005207062
0.011108637
-0.00054454803
0.0015896559
0.019248009
0.0013843775
0.009207368
0.0037316084
-0.012714386
-0.011052728
0.010069728
0.007097006
-0.0043365955
0.00042688847
-0.0071944
-0.0044727325
0.0037144423
0.01623857
0.008823514
-0.0010931492
0.020751
0.008954763
-0.0068643093
0.0055696964
0.0054073334
0.0016471148
-0.017986536
-0.0011417866
0.0011590719
0.00278759
0.0113841295
0.004891753
0.010119081
0.0013295412
0.01170814
0.0009598732
0.002459526
0.025894284
0.007618785
-0.0021445751
0.019975543
0.005266309
0.0031052828
0.0052826405
-0.00055098534
0.010678172
-0.0012103319
0.02284658
-0.005777836
-0.002857685
-0.011417389
-0.001839757
0.0028144121
-0.014001131
-0.0076568127
0.0028053522
0.0016435385
0.01143086
0.016465664
0.0030441284
-0.0075360537
0.0088710785
-0.0055025816
0.0066171885
0.01197803
0.0043250322
0.007867098
-0.0011140108
-0.005410075
0.009996414
0.013071299
0.015517592
0.0077608824
0.009859204
0.0021528006
-0.0052013397
0.027585864
0.003503561
-0.010216355
-0.00398767
-0.011112094
0.015789866
-0.004352689
0.0071742535
0.006639838
0.007472992
0.0044374466
0.0072944164
0.0074249506
0.0007696152
0.017035365
0.0067061186
0.010036945
0.0074260235
0.0012761354
0.026607275
0.0030983686
0.014715195
-0.012787342
-0.0016790628
0.006971717
0.0021090508
0.009123206
-0.013422966
0.007386446
0.011965632
-0.0013885498
-0.004009962
1.0728836e-05
0.00262928
-0.0005296469
-0.003914118
0.0029081106
-0.000279665
-0.0006701946
0.017643213
0.015648246
0.0010091066
0.011483431
-0.008271217
0.0008357763
0.006653428
-0.006485939
0.030811787
0.029506564
-0.0062520504
-0.008448362
0.006273389
0.0055760145
-0.0030595064
0.008126855
0.011092424
0.013651729
0.007703781
-0.007392764
0.012192488
-0.0032988787
-0.005939603
0.007397175
0.009731054
0.02072835
0.015664458
0.0021060705
0.012381434
0.0076594353
0.027323365
0.010046005
7.1525574e-07
-0.012112856
0.0119998455
-0.023899317
-0.0041618347
-0.001486063
-0.0040854216
0.017071843
0.02714777
0.005571127
0.0051971674
0.005368471
-0.0014071465
0.0008728504
0.00248909
0.0012644529
0.0002297163
0.007823825
0.0063921213
0.014453888
0.0054825544
0.0070198774
0.0097332
0.009185195
0.0006763935
0.00649035
0.009502649
0.0109654665
-0.014340997
-0.0073652267
0.0009622574
-0.001106739
-0.009523749
-0.0068725348
-0.00052034855
-0.020747304
0.009546638
0.013079643
-0.0005774498
0.010783315
0.018382072
0.005157113
0.015884995
-0.0035309792
-0.00083625317
-0.00053691864
0.008620739
0.013495445
-0.005203843
0.017100811
-0.004163742
0.008578658
0.0010447502
-0.014613867
0.014104843
-0.0027842522
0.013834715
0.009830594
0.0030111074
0.010263205
0.018733144
0.0008957386
0.004412055
0.016590714
0.005823016
0.006300211
0.019647837
-0.00036346912
0.0016083717
0.024051428
-0.006221175
0.0031120777
0.0016146898
-0.01649487
0.0073423386
0.009070039
0.0027196407
-0.0033723116
0.007022381
0.014830589
0.008784175
0.007185936
0.017506123
0.0013649464
0.0016006231
-0.008782983
0.0054581165
0.0044424534
0.0073549747
0.022042155
0.014757633
0.0019006729
0.0012136698
0.009360194
0.0035319328
0.004252434
0.012355804
6.6161156e-05
0.014850974
0.014273167

0.024136782
0.029577613
0.0061784983
-0.0026626587
0.005111456
-0.0072482824
0.011587739
-0.004189968
0.028591275
0.006154299
-0.0050275326
0.01840043
0.0059924126
-0.007629752
0.0076761246
0.015669346
0.012997985
-0.0015903711
0.014418721
0.003751278
0.01808703
0.0074920654
-0.004224062
-0.0067914724
0.016498566
0.013529897
0.013235927
0.0013490915
-0.0035450459
0.013970494
0.00865829
0.005493164
-0.00238657
-0.0021051168
-0.0023614168
0.0005649328
0.00031602383
-0.009182453
0.009538174
-0.0015935898
0.0067392588
-0.0032041073
0.007750869
-0.011380672
0.0041924715
0.00015366077
-0.012647629
0.0018293858
0.015147448
-0.0017188787
0.0074083805
0.010488987
0.0023497343
0.006516695
0.00613904
0.024652123
-0.0027675629
-0.0071356297
-0.007445812
0.034784794
0.0081243515
0.027840972
-0.011392593
-0.004365802
-0.002098322
0.006361723
-0.0029668808
0.01105094
-0.005061984
0.02214086
0.01006484
0.006919384
-0.0011944771
0.011698127
0.014183283
-0.002967596
0.007299304
0.0014641285
0.0027074814
0.015378952
-0.00018262863
0.018875718
0.011528611
0.026447415
0.0077774525
0.0058037043
0.021360755
0.013028145
-0.00033450127
-0.014058113
-0.00030577183
-0.008481383
0.0069361925
-0.004424095
0.00894177
0.010056019
0.02327919
0.009046316
0.0070574284
0.0010908842
0.0047603846
0.003524065
-0.009724379
0.011153817
-0.012413263
0.013993263
-0.003250122
0.030870795
-0.033242226
0.014039278
0.0047798157
0.025574088
-0.009436727
-0.00039565563
0.0009847879
0.000308156
-0.0016634464
0.020036578
0.00057065487
0.009275317
0.005265355
0.039180994
-0.0056717396
0.00033819675
-0.00791502
0.003043294
0.028105736
0.0039043427
-0.0010421276
0.010706186
0.018698692
0.0016194582
-0.005890131
0.011236787
-0.0068598986
0.009139061
0.0034337044
0.010037899
0.015227795
0.0070124865
0.014530182
-0.00051522255
-0.00019299984
0.022084832
0.017228484
0.008746266
-0.015464783
-0.011538982
0.012745619
0.027701378
0.010023713
0.017831683
-0.003347993
-0.0016555786
-0.030007005
0.009755373
-0.0039799213
-0.012386203
0.0045815706
0.029455185
0.009870172
0.0029591322
0.004761696
-0.0048425198
0.002231717
0.020846248
0.0077626705
0.0067956448
0.019039989
0.014617205
-0.004147172
-0.0084683895
-0.012305737
-0.009094
0.003915906
0.008438945
-0.00016820431
0.0019001961
-0.00053977966
-0.0020922422
-0.0065555573
-0.0015878677
0.00018775463
-0.0040358305
-0.0044397116
0.0070734024
0.0072346926
0.022225022
0.018811584
-0.0019285679
-0.0093592405
0.009601593
-0.0014945269
-0.007775426
-0.0032693148
-0.011000276
0.019363284
-0.0059667826
-0.011068106
-0.013685465
-0.003263712
0.016901493
-0.003714323
0.002169609
0.00016498566
0.005254984
-0.0042533875
0.0063744783
0.00074362755
-0.0011013746
0.005563259
0.0013335943
0.013996124
0.004625559
-0.0036548376
-0.005650401
0.007733226
-0.0044567585
0.020923018
0.007916927
-0.004893303
0.011520505
0.041701555
-0.008049488
-0.005617976
0.0024409294
0.00084614754
-0.004410267
0.014291406
0.012838602
-0.00018978119
-0.00057029724
0.011869311
-0.0022757053
0.0028617382
0.029236674
0.0023317337
0.024010539
0.009153962
0.010183811
-0.0053833723
0.006732583
-0.0071382523
-0.001301527
0.0046314
0.02030611
0.010179162
0.014531136
-0.046736002
-0.013499498
-0.0032886267
0.0066035986
0.0053663254
0.0038232803
-0.0062595606
0.0072494745

-0.017779946
-0.0087451935
-0.0003105402
-0.008493185
0.004873991
0.011413813
0.00963676
0.012287974
0.007308483
0.0005942583
0.0038349628
0.00085151196
0.0006840229
-0.0042039156
0.005893469
0.007581711
9.202957e-05
0.002359748
0.0016056299
0.0073053837
-0.00082683563
0.01580584
0.0012985468
0.005501032
0.0047751665
0.0041314363
-0.0020889044
-0.011105061
0.009143472
6.1035156e-05
-0.0010387897
0.017624736
-0.0011538267
0.0028444529
0.00034582615
0.004673004
0.002015233
0.017708063
0.007968426
0.011778116
-0.004901767
0.007626891
0.008753061
-0.0040000677
0.0016489029
-0.004630327
-0.00068092346
-0.007114768
-0.014541149
0.004556179
-0.0044704676
-0.008252978
0.0016723871
0.010648012
0.0066167116
0.008156538
-0.0031609535
1.9311905e-05
0.018652916
0.004829645
0.012975097
-0.0074779987
-0.00013446808
-0.00061273575
0.009578943
0.013106942
-0.004069209
0.008293271
-0.0027281046
0.004270315
0.008960605
0.015640378
0.007495761
-0.0025976896
-0.008531809
-0.0062303543
0.006509185
-0.00038814545
0.004343152
0.0050805807
0.014716029
0.0058625937
0.0015573502
0.0069493055
0.0014010668
0.0063989162
0.00054073334
-0.015720129
0.0009126663
0.0013178587
0.0022827387
-0.0080987215
-0.001599431
-0.00519681
-0.009795308
0.0015518665
0.015633106
0.006688237
0.0017309189
0.0006392002
-0.0013329983
-0.00022304058
0.0047717094
0.009903431
0.012349844
0.0052666664
-0.009024024
-0.0073360205
0.0038181543
0.0063681602
0.0055599213
0.016271234
0.003356576
0.004385352
0.008150697
0.012968063
-0.002533555
0.004232168
-0.0022550821
-0.00327909
0.00057446957
0.0056192875
0.0039361715
0.00035381317
-0.0042663813
0.0033198595
-0.012231231
-0.0111551285
0.0066661835
-0.0020087957
0.011714339
0.008478284
-0.0036565065
-0.002004981
0.004608512
0.00087308884
-0.005932212
0.0008869171
-0.0033950806
0.0018559694
-0.0037739277
0.0123643875
0.0032496452
0.0016078949
-0.0007581711
-0.002064824
0.005215049
-0.016585946
0.015841246
-0.0016775131
-0.017598867
0.00080788136
0.005130768
0.01256609
-0.010907888
-0.00046372414
-0.0045951605
-0.0090818405
0.002892971
0.017655253
-0.0013293028
0.01671815
0.000528574
0.004657626
0.0021989346
0.012510419
-0.006000519
-0.0005517006
-0.0022108555
-0.0009173155
0.0068295
0.007227421
-0.016456008
0.00203681
0.0026541948
-0.0030975342
0.004836321
0.0006492138
0.010591984
0.008813858
-0.0017492771
0.011447549
0.0021522045
0.0010616779
-0.006665945
0.0044611692
0.008579969
0.007725477
0.007155657
0.002101183
0.010757685
0.009019494
0.012489796
-0.0003709793
0.0018684864
0.0067101717
0.00049829483
0.017343998
-0.0017551184
-0.007929087
-0.0022909641
7.7843666e-05
-0.011979103
0.004479885
0.005347848
-0.008343816
-0.0045552254
0.0029562712
0.003950238
-0.0017713308
0.007229209
-0.0013376474
0.0049387217
0.010019779
-0.006960988
-0.005496502
0.0002799034
0.0013737679
0.0028738976
0.0056250095
0.0027997494
0.009676933
0.004624963
0.0059775114
0.0035307407
0.01150775
-0.002417326
0.017665625
0.0017369986
0.0071288347
0.010273457
-0.000915885
4.2319298e-05
-0.0052330494
-0.0040603876
0.0022062063
-0.003916502
0.0074911118
-0.00030982494
-0.00038814545
6.67572e-06
-0.007076025
-0.004191637
-0.015390158
0.008281231
-0.019333601
0.0016553402
0.0075086355
0.005839348
0.0035581589
0.0034382343
0.0033568144
0.0033578873
0.0061258078
0.00047266483
0.0051094294
-0.0008523464
0.003963828
0.0063074827
0.0030333996
0.008567691
0.009903431
-0.000305295
0.001715064
0.00032663345
-0.0035351515
-0.0118147135
0.0057365894
0.004052162
0.0011819601
-0.005014777
0.0071719885
0.0013276339
-0.00089144707
-0.00052404404
0.008031487
0.002526164
-0.001034975
0.010274529
0.009463072
-0.0005861521
0.0017604828
-0.0076539516
5.8293343e-05
0.008210301
-0.0016714334
0.0054569244
-0.011618495
-0.0039663315
0.0014853477
0.0010892153
0.007822871
0.006592989
0.001341939
0.0058119297
0.0065853596
0.008834124
0.0030987263
0.0015535355
0.0060516596
-0.007967353
0.024389744
0.0028270483
0.0008622408
-0.002908349
0.006060362
0.002340436
-0.019615889
0.003492713
0.011355162
0.0028413534
0.01934588
-0.0034430027
0.00443995
0.016118526
0.0024957657
-0.004490137
-0.0015850067
0.0068485737
-0.031298637
-0.015809298
0.0036319494
0.011531115
-0.00015091896
0.0057896376
-0.0054957867
0.012193441
0.0008940697
-8.583069e-06
-0.008368015
0.006404519
0.014654279
0.0056887865
-0.0027946234
0.004903674
-0.0028666258
-0.0027866364
-0.0019460917
0.004345417
-0.004238248
0.009686828
-0.010326147
0.0045033693
0.0006984472
0.020368695
0.0037915707
0.0073981285
0.014865041
0.012819886
0.006159425
0.015993237
0.015743017
0.0073127747
0.008541226
-0.0058555603
-0.003921032
0.017526627
0.012447596
-0.007816553
0.005632639
0.0053471327
0.0001784563
-0.0076755285
0.005273223
-0.006450534
-0.010703206
0.0053532124
0.01597035
0.00019431114
-0.004240632
-0.00022864342
-0.0020403862
-0.0007570982
0.00020945072
0.00046801567
0.0029540062
0.00826323
0.0029199123
0.010998011
0.0007828474
-0.0030721426
-0.003865242
0.0035401583
0.0027720928
0.008508205
0.013179541
0.0051071644
0.0005940199
-0.004313588
0.00045752525
0.010479689
0.0034908056
0.0120328665
-0.002360344
-0.01356864
-0.0011792183
-0.0016021729
0.0036183596
-0.0049545765
-0.00067543983
0.0016247034
0.003776431
-0.0020102262
0.0036309958
0.0013830662
-0.0014083385
-0.0031422377
0.012694955
0.003271103
0.0047358274
0.005281687
0.009979248
-0.0038414001
0.003262639
0.0015212297
-0.0017069578
0.006750226
0.0045819283
0.0051476955
0.015614152
-0.004192114
-0.0041673183
0.006843567
0.0022169352
-0.001979351
-0.0013868809
-0.003528595
-7.712841e-05
-0.0026448965
0.007894158
0.0083299875
0.0007982254
0.013849497
-0.0013397932
0.0043296814
0.016505122
0.0029956102
0.0031796694
0.004822731
-0.0032328367
0.005441189
0.0025074482
-0.007141471
-0.00080907345
-0.0029022694
0.0034646988
-0.00029671192
0.0077756643
0.008814335
-0.003145218
-0.008686423
0.010177016
-0.0053715706
0.0126338005
0.0010408163
-0.0005095005
0.019456744
-0.007257104
0.004392743
0.0010938644
0.018339992
-0.008627057
0.0008186102
0.014490604
0.00044727325
-0.0076243877
-8.34465e-05
0.00034308434
-0.0037978888
-0.00036740303
0.0005028248
0.0022517443
-0.0022653341
-0.0022841692
0.003697276
0.00094127655
0.0093637705
0.010593414
0.00019919872
-0.0035384893
0.0052372217
0.0010002851
0.0015331507
-0.005963564
0.006866336
-0.0019756556
-0.00018942356
-0.007540822
0.0091228485
0.015432239
0.0062789917
0.006134391
0.00595963
-0.010171771
0.0095722675
0.010387063
0.008841038
0.0028848648
-0.0059121847
0.0077753067
0.0035586357
0.0004066229
0.0022990704
-0.0031853914
0.0051122904
-0.00045502186
0.0013234615
-0.012925625
0.0034852028
-0.0009018183
0.002423644
0.0013329983

0.00024724007
-0.0025541782
-1.1920929e-05
-0.012575746
0.008953452
0.0054608583
-0.0040302277
0.007230878
-0.0038564205
0.006502986
-0.0028941631
0.02016282
-0.0030694008
0.002452135
0.0019944906
-0.00053691864
-0.00050234795
-0.0032795668
-0.0006650686
0.002066493
0.0051385164
-0.0029565096
-0.005874872
0.0029752254
0.0047267675
0.01294148
-0.00045084953
0.0018358231
-0.002675891
-0.0024832487
0.0008637905
0.006195545
0.002841115
0.0012023449
-0.00029933453
-0.0014702082
-0.0053417683
0.0016061068
0.013907075
0.0025117397
-0.0015189648
0.003720045
-0.00068449974
-0.0017930269
0.007283926
0.003597498
0.0012196302
-0.0022716522
-0.0013228655
-0.006966591
0.0054848194
-0.0010000467
-0.0009533167
-0.0038739443
-0.004500866
0.00043475628
-0.00040209293
0.0025835037
-0.0011467934
0.0014257431
0.010069609
-0.0016448498
0.0070619583
0.00031352043
0.0015881062
-0.00093221664
0.008612275
-0.004639864
-0.0031980276
-0.004539609
0.002092123
0.003591776
0.01106441
0.009321809
0.003422141
0.008750439
0.0026602745
-0.0090254545
0.00098598
0.0009987354
0.003379941
0.00039374828
-0.0014932156
0.005930066
-0.0034759045
0.005527973
-0.0022211075
0.00078833103
-0.00076651573
-0.0001333952
0.0025948286
0.006753683
0.007288575
0.0077821016
3.6358833e-05
0.009059668
-0.00043284893
0.0056626797
0.0018415451
-0.013529301
-0.005464554
0.006074786
0.0048036575
0.012401104
0.0031733513
0.00060772896
0.0027623177
-0.0020951033
-0.005143285
-0.0023150444
0.0019131899
-0.004118204
0.004651904
-0.007486224
0.007109046
0.0073227882
-0.0065437555
0.0024724007
-0.0027492046
6.1035156e-05
0.0038546324
-0.0012868643
0.004618764
0.0013486147
0.00069081783
-0.0025640726
-0.00036132336
0.009281993
-0.0046964884
-0.0017989874
0.010052443
0.004687071
0.016345263
0.0129208565
0.0031698942
0.0018782616
0.006490469
0.009157419
0.003612399
0.0045380592
0.0038993359
0.00332582
-0.0010792017
0.0050748587
-0.001127243
-0.0011307001
0.0017616749
0.0013631582
-0.0024317503
0.0012652874
-0.004704237
0.002118826
0.0011920929
-0.0010179281
0.0011587143
-0.00014996529
-0.0056630373
0.013976693
0.0016156435
0.0115906
0.0041093826
0.009954572
0.0014066696
0.0003350973
0.005056143
0.008939505
0.01085937
0.0015438795
-0.005842924
0.003201604
-0.0003607273
0.0057435036
-0.0013645887
0.003929138
0.0057936907
-0.0011729002
-0.004373312
0.0059007406
0.00079643726
-0.0024807453
0.019858956
-0.0015208721
0.0029656887
0.0041054487
0.0042693615
0.0022296906
0.0003979206
0.005431175
0.0031780005
0.0014870167
0.010015607
0.01202333
0.0092628
0.016013026
0.002718091
0.004027486
-0.0040290356
-0.0045137405
0.0037472248
-0.002175808
-0.00061261654
-0.0002734661
0.010163188
-0.0050120354
0.002038598
0.014016032
-0.0016976595
-9.179115e-06
-0.00054347515
0.0033049583
-0.010550261
0.014521122
0.0028651953
-0.0003042221
0.010431409
0.011151314
-6.735325e-05
-0.0066473484
0.0044407845
-0.012027621
0.0030144453
-0.002074957
-0.004799485
-0.00024914742
0.007453084
0.009159684
0.00041544437
0.0007312298
-0.0021145344
-0.0069895983
-0.0014673471
0.008220911
-0.0022079945
0.010128617
0.0072865486
0.00301373
-0.0007324219
0.023073554
0.00088882446
0.009876251
-0.0004889965
-0.00082445145
0.009906411
0.006189704
0.002144456
-0.002047062
-0.0028818846
-0.0012497902
0.002719283
0.0055195093
0.005743265
0.0009253025
0.0141067505
-0.001806736
0.0016717911
0.0011993647
0.00024449825
0.0021783113
0.010347605
0.009591222
0.002951622
-0.0101594925
0.009538293
-0.004400015
0.0053390265
0.0053789616
0.00066924095
0.003092289
0.0031062365
0.008402228
-0.0013254881
0.008602619
0.007242441
0.0010462999
-0.004637003
0.0048230886
-0.002242446
0.0017930269
-0.0031930208
-0.0019478798
0.0012044907
0.009008646
0.008304834
0.007214904
0.0048937798
0.0006415844
0.008523941
0.0060281754
-0.011671066
0.0068959
-0.0004994869
0.00688982
-0.00020694733
0.015134811
-0.0007265806
0.01919794
-0.002024293
0.010193825
0.0019447803
0.0018626451
-0.0017712116
0.0013554096
0.011293888
0.0015283823
0.015249014
-0.0056762695
-0.0024944544
0.0008087158
0.005866289
0.013405919
0.0029335022
0.0014845133
0.0031961203
0.003155589
0.00052523613
-0.0036314726
0.015957475
8.106232e-05
-0.002926588
-0.0056988
-0.0020529032
0.012967944
0.015094042
-0.0015636683
0.005536437
-0.0033923388
0.0023061037
-0.00809896
-0.0028671026
-0.0034171343
-0.0016647577
0.00636518
-0.0014871359
0.01243782
-0.00026738644
0.001653552
0.0049825907
0.0038532019
-0.0085635185
0.0026056767
-0.0013275146
0.005138278
0.0071698427
-0.00018882751
-9.417534e-05
-0.0007356405
0.011388779
0.0042579174
0.0052371025
0.0034035444
0.011084557
0.0025333166
0.0024700165
0.010156035
0.008796573
-0.010663509
0.009742737
-0.00041902065
-0.0026687384
0.00015437603
0.005319476
0.0020030737
5.9723854e-05
0.0025788546
0.003727436
0.008987546
0.011090159
0.0054289103
0.012256265
-0.001537323
-0.0038341284
-0.000944376
0.0018537045
-9.4771385e-05
0.002087593
-0.0077006817
0.0017778873
-0.000800848
-0.00029444695
0.012835264
0.004605174
-0.0011546612
-0.00013804436
0.0064815283
0.008066177
0.0005350113
9.23872e-05
0.004891157
-0.0008147955
0.00097584724
0.009798527
-0.006126642
0.0073543787
0.008983731
0.0034348965
0.008563876
-0.001619935
-0.0007866621
-0.004934311
0.008909941
-0.0026509762
0.0060608387
0.0095973015
0.0007802248
0.00052666664
-0.0012457371
2.6226044e-06
0.0013625622
-0.0040382147
-0.0026388168
0.0072624683
-0.00034499168
0.002923727
0.015439391
-0.0031440258
0.0053817034
-0.015505433
-0.0049197674
0.003502369
0.0044682026
0.007983327
-0.0027719736
-0.0070382357
0.005105257
0.014793396
0.005125642
-0.00274086
0.0075372458
0.00974226
0.0013741255
-0.002247095
0.003240347
0.0015058517
0.0074692965
-0.0009075403
0.011319876
9.906292e-05
0.002835393
0.0027561188
-0.00082218647
0.0025242567
-0.006849885
0.0006393194
0.00071644783
0.0029917955
0.0026659966
-0.005010009
-0.0011920929
0.0059051514
0.0004682541
-0.00060522556
0.0077757835
-0.0014907122
-0.010678291
0.0106829405
0.0036990643
0.0036400557
-0.0018748045
-0.0006415844
-0.0001899004
0.0012469292
0.011718273
-3.33786e-05
-0.0007274151
0.0030943155
0.0029889345
0.018057227
-0.0021880865
0.007132411
-0.0052478313
0.0019984245
0.005136609
-0.002200842
0.0066691637
0.024499774
-0.00611794
-0.00051510334
-0.0006198883
0.0029224157
-0.0021619797
-0.0054163933
0.0009201765
0.01000762
0.0003489256
0.0048748255
-0.0017580986
-0.003365755
-0.0022877455
0.0006047487
-0.00060904026
-0.0010157824
-0.0153898
-0.0047159195
-0.0051186085
0.00730896
0.0037915707
-0.008308291
-0.0023081303
0.007811904
0.0067412853
-0.0006762743
-0.0076208115
-0.00011527538
-0.0035122633
0.00061810017
-0.00036883354
-0.0037119389
0.0064224005
0.024078488
-0.0008009672
0.0006892681
0.0044406652

-0.00072181225
-0.0014532804
0.00058960915
0.0062001944
0.007495165
0.00041544437
0.0056624413
0.013152957
0.0037106276
0.0068558455
0.00070655346
-0.00022637844
0.0009262562
0.004170656
-2.0384789e-05
0.006815672
0.00036001205
0.0015538931
-0.0020366907
0.00940752
-0.00086236
0.0037685633
0.010167956
0.0022348166
0.00198102
0.005459428
0.0062377453
-0.001704216
0.0038012266
-0.0011160374
0.0009384155
-0.0018651485
0.004032016
-0.009165168
0.005007148
-0.0017029047
0.003411293
-0.001437068
-0.00040996075
-0.0010533333
0.0021475554
0.004810095
0.0010232925
-0.0017969608
0.0058344603
-0.0020039082
-0.0017322302
0.0072768927
0.0049079657
0.0021425486
0.002941966
0.0025615692
0.00041854382
0.0033128262
0.012429357
0.0025240183
0.0025012493
-0.0011560917
0.0018495321
0.0012168884
0.005986452
-0.0028983355
0.0024847984
0.00037693977
0.0071007013
-0.00049459934
0.00198555
0.0019534826
-0.004049778
0.0007842779
0.0075712204
-0.0016511679
0.01849413
0.004032612
-8.940697e-06
-0.00061297417
-0.0075130463
0.006938696
-0.0004543066
-0.00059998035
-0.00054371357
-0.0024104118
0.004811406
0.0015536547
0.0023750067
0.0036109686
0.0013139248
-0.0017431974
0.004109025
0.0005557537
0.007879853
0.004357457
-0.00031542778
-0.00020968914
0.001137495
-0.004285693
0.0019680262
0.009033442
-0.0009074211
0.004660368
0.0057958364
0.0013478994
0.003960967
-0.00352633
0.0020446777
-0.004358053
0.0011969805
0.0014621019
-0.0011562109
0.003234148
0.0041908026
0.004001856
0.005220294
0.010458589
0.0012084246
-0.003530383
9.5009804e-05
-0.0036830902
0.004998803
0.017497897
0.0037574768
0.0018489361
-0.0004943609
0.009818792
-0.0017188787
2.9087067e-05
0.0115253925
0.0029052496
0.000106453896
0.0001348257
-0.0002259016
0.0025398731
0.004715681
-0.003100276
0.01075542
-0.00087594986
-0.0042669773
-0.001119256
0.0053060055
0.006235957
-0.0076078176
-0.0039514303
0.00023627281
0.009646177
0.0036417246
0.00091421604
0.0072197914
-0.0031477213
0.0019168854
0.0006674528
-7.104874e-05
0.0057604313
0.0057463646
0.008828402
0.0010573864
0.00058436394
0.00027120113
0.0033533573
0.00042450428
0.00062322617
-0.00067949295
0.0056550503
-0.00669384
-0.002817154
0.003581047
-0.0070234537
-0.0019239187
0.006099224
0.007138133
-0.0011062622
0.0028647184
0.001639843
0.00054979324
-0.0013756752
-3.7908554e-05
-0.00082457066
0.01569879
0.0025126934
0.008243799
-0.0015653372
-0.000841856
0.004383564
0.008411884
-0.011584401
-8.225441e-05
-0.00087594986
0.00024151802
0.0003938675
0.0045853853
-0.0032522678
1.41859055e-05
0.0037872791
0.000993967
-0.0013612509
0.006150484
0.005939722
0.0032782555
0.0070551634
-0.0018305779
-0.0024017096
0.0018275976
0.0027848482
0.004177928
0.004115939
0.0010845661
0.0010631084
0.0041507483
0.0050165653
-0.001398325
0.0014928579
0.00619483
0.0013349056
-0.02350378
0.0049369335
0.001704216
0.003767252
-0.0010106564
0.0043262243
0.0006341934
-0.0069972277
0.005866289
-0.0013326406
-0.0021665096
0.006893277
0.0059047937
-0.0005632639
0.003133893
0.0036642551
0.0011800528
-3.8146973e-06
0.0013811588
0.0051116943
0.0060566664
0.012033701
0.0028390884
0.009339213
-0.0036548376
0.0023424625
0.013789415
0.0058711767
0.0016615391
0.003969431
-0.0005412102
0.004415393
-1.001358e-05
0.0010141134
0.0009366274
0.0033226013
-0.00030851364
0.0018188953
0.0070180893
0.001168251
-0.0007921457
0.009877682
0.010472894
0.0025202036
-0.00209558
0.0018529892
-0.0010865927
-0.0023815632
0.003362894
-0.002117157
0.003131032
0.006448984
0.0049461126
0.01042521
-0.0008575916
0.010046124
-0.0012009144
0.009183884
-0.0021129847
0.002903223
0.003848195
-0.00011384487
0.013368607
-0.00067794323
0.0004938841
0.0029882193
-0.005286932
0.0022864342
0.0013996363
-0.006320238
0.005341649
-0.00164783
-0.00051259995
0.0036164522
-0.0009086132
0.0036138296
0.016211152
-0.0004118681
-0.0014584064
0.0014349222
-0.002286315
0.0055037737
0.009279132
0.00085890293
0.0080688
0.001137495
0.0003758669
0.004531026
0.002674222
-0.0028852224
1.4305115e-06
0.016649246
0.0030190945
0.0042744875
0.0006701946
0.0024415255
0.0008904934
0.0023025274
-0.0007545948
0.00051140785
-6.055832e-05
0.0038392544
0.0005466938
0.003414631
0.013148427
-0.0015169382
0.0023690462
0.0016901493
-0.0020617247
0.009299517
0.008398175
0.008716941
-0.0034577847
-0.0009024143
-0.0012934208
0.009635925
0.006536007
0.0059962273
0.0033966303
0.002640605
0.008565903
0.003572464
-0.0014624596
0.009848118
0.0029931068
0.00093114376
0.0032492876
-0.00077676773
-0.0026997328
0.0065540075
-5.018711e-05
0.012464523
-0.00062537193
-0.001038909
0.00038433075
0.009260058
0.0016214848
0.0055013895
-0.00039291382
0.0044614077
0.00010359287
-0.0007073879
0.0062767267
-0.012000799
0.0012625456
0.008843064
-0.0015856028
0.00527215
0.0017315149
0.0023121834
-0.0032560825
0.0034097433
0.0013164282
0.009899497
0.01085484
0.004483938
0.003192544
-0.00046896935
0.008693695
-0.009995818
9.6559525e-05
0.005939245
0.003755927
0.00038266182
0.0026111603
0.0014773607
0.00022304058
0.0034210682
0.0003671646
0.004858732
0.007114053
0.0022819042
-0.0014960766
0.0037738085
-3.0994415e-06
3.2663345e-05
-0.0018775463
0.005012274
0.0010999441
0.0011577606
0.0017530918
0.0010977983
-0.0015439987
-0.00095033646
-0.00083863735
0.0059092045
0.0015684366
-0.0010285378
0.008411288
0.004104972
0.0034273863
0.0048195124
0.0065619946
0.00792706
0.0010414124
0.011186004
-0.0016326904
-0.0013016462
0.005351782
0.0033944845
0.0029108524
-0.0016331673
0.021667719
0.0053578615
-0.0009871721
0.0050489902
-0.00088799
-7.4744225e-05
-0.0019499063
0.010996819
0.0031075478
0.0042294264
-0.0016038418
0.0045940876
0.0016077757
-0.00028383732
5.1259995e-05
-0.0018779039
-0.0038813353
-0.0018645525
0.00047802925
-0.00052666664
0.009730458
0.002887845
0.0012209415
0.0001770258
-0.0033029318
0.0012216568
0.0015428066
-0.0020295382
0.0028090477
0.0019694567
0.0016750097
0.009903431
0.0037618876
0.0017764568
0.0027599335
0.0011101961
0.0021042824
-0.001732707
0.0009807348
-5.1140785e-05
0.0070489645
0.016955018
0.0056997538
0.00029742718
0.0027151108
0.00361228
-0.0059241056
-0.0021044016
-0.0023152828
0.0004196167
0.00076913834
0.0068460703
0.0019302368
0.0025628805
0.0067481995
0.0030292273
0.0011065006
0.0028927326
0.0012620687
-0.006372452
0.0017447472
0.00064730644
0.0010522604
-0.0011377335
0.0009634495
0.008212566
0.0030052662
-0.001884222
0.0038485527
-0.002946496
0.0015133619
6.067753e-05
0.0027393103
0.0024996996
0.0025219917
0.00022089481
0.0013967752
-0.0016149282
-0.000982523
0.0024325848
0.0036627054
-0.0014728308
-0.0070677996
0.0053220987
-0.00064253807
0.0021047592
0.0011718273
-0.0008016825
0.003922224
-0.0012710094
-0.00031745434
0.008532643
-0.0027629137
0.0090607405
0.0093683
0.0026870966
-0.0006175041
0.0003412962

0.0025752783
0.0040006638
0.0023368597
7.70092e-05
0.009738088
0.0016100407
2.4437904e-05
0.012096882
0.003934622
0.004327774
0.0021857023
0.0029900074
-0.0032241344
0.0051648617
-0.0014045238
0.009764791
-0.00072705746
-0.00022220612
-0.00031220913
0.008502603
-0.0002875328
0.00197649
0.0021281242
0.0028916597
0.00190413
0.0012388229
0.0011771917
0.0013765097
-0.0015552044
0.00034368038
0.0009678602
0.002690792
0.0042054653
0.0034364462
-0.0004297495
0.0005995035
0.001390338
0.0027540922
0.00046110153
0.00094664097
0.0019603968
0.0030357838
0.00056648254
0.0059039593
0.0014796257
0.0020176172
0.0016146898
0.009092331
0.0043535233
0.005987048
-7.545948e-05
0.00051665306
0.0031894445
0.001164794
-0.0006849766
-0.0004159212
-0.0014458895
0.0006182194
0.0005040169
0.00095307827
0.0032253265
0.001011014
0.0008138418
-0.0013557673
-0.00036275387
0.004617691
0.0008430481
0.0014079809
0.00069510937
0.0013577938
-0.0004724264
0.00451684
0.0014163256
0.0040023327
0.0019946098
0.003036499
-0.0011097193
0.00018155575
0.0012224913
0.00079524517
-0.0022329092
0.00042307377
0.0017809868
0.0006971359
-9.548664e-05
-9.083748e-05
0.0057042837
-0.0009390116
0.00011277199
-0.0010291338
0.0012973547
-3.0636787e-05
0.0026516914
0.0016338825
0.0014615059
-0.00047779083
-7.498264e-05
0.003759265
0.0011781454
0.0010060072
0.0010740757
0.0024852753
0.0009974241
0.00172925
0.011873126
0.00095129013
0.0016031265
-0.0019757748
0.0029976368
0.00027811527
0.004496813
0.0016475916
0.0065625906
0.00031769276
0.006106019
0.0014131069
0.0006738901
0.00015330315
0.0062963963
-0.00028550625
-0.0011650324
0.0010561943
0.0023669004
0.00036382675
0.0048930645
-0.0006943941
-0.00011765957
0.0006169081
-0.0002669096
0.0022782087
0.004449725
0.0019854307
-0.00020778179
0.00063431263
0.00254488
-0.0029393435
-0.00045371056
0.000721097
0.0023844242
0.0034261942
0.00052547455
0.00060784817
0.0023897886
0.001998663
0.0013798475
0.0013569593
-0.0002579689
0.0025621653
0.0005054474
0.0027384758
0.0018748045
0.0021731853
0.0060150623
-0.002334237
0.00095009804
0.004318595
-0.00018525124
0.0022704601
0.0013737679
0.011333466
0.0004657507
0.001906395
0.00039088726
0.00030255318
0.0056949854
0.009483099
0.0024514198
-0.0019528866
-0.00030875206
0.0033817291
0.0031192303
-0.00088465214
0.0023314953
-0.00013458729
0.00026893616
0.004152775
0.0020560026
0.0005418062
0.0017427206
-0.00077342987
-9.8347664e-05
-0.0006554127
-0.00011098385
0.0010685921
0.0020512342
0.0007724762
0.0022082329
0.008543968
0.00017523766
0.002747655
-0.00010585785
-0.00029170513
0.0064013004
0.0019044876
0.0012482405
0.004275322
0.00057303905
0.0031421185
0.00129807
0.0018692017
0.0066486597
0.0069276094
0.0015285015
0.0022735596
0.0019745827
0.009655118
0.00042176247
0.010104179
0.0034923553
-0.0009788275
0.0020968914
0.0009651184
0.0015108585
0.0046420097
-9.441376e-05
0.0009138584
0.00018167496
-0.0003349781
0.0032898188
0.0061012506
-0.0007083416
0.0021334887
0.002860427
2.348423e-05
0.0014343262
-0.00012457371
0.0016208887
0.00080001354
0.0023298264
-0.0024032593
0.006713629
0.0018556118
0.007928133
0.0023254156
0.0029797554
0.00010967255
0.010600448
0.0038249493
-0.0006133318
0.0058346987
0.0047410727
-0.00044476986
0.0032200813
0.00139606
0.0008085966
-0.0011390448
-0.000426054
-0.001211524
0.0038951635
0.0012903214
0.0061460733
0.0002733469
0.00562644
0.0031826496
0.0057492256
0.0011407137
-0.00015997887
0.0057543516
0.00031125546
0.00044584274
0.0028045177
0.0031090975
0.003480792
0.00017809868
0.005837679
0.0032309294
0.002352357
0.0024935007
0.0019518137
0.0010426044
-0.0006535053
0.0016297102
0.0004041195
0.0052369833
0.0034816265
0.00019145012
0.003908992
0.012321115
0.0023001432
0.0020754337
-0.0006119013
0.004776597
-0.0007776022
0.0025675297
0.00014340878
0.00032699108
0.0013186932
0.002942562
-8.21352e-05
0.005183339
0.0003914833
0.0075968504
0.0015575886
0.0012965202
0.002212286
0.00700438
0.0038385391
0.00077438354
0.0016611814
0.0014526844
0.00038659573
-0.00021922588
0.0054614544
6.365776e-05
-0.0005531311
0.0071669817
0.0013633966
0.0038232803
0.0039492846
0.0025289059
0.006111741
0.0010967255
3.4570694e-05
0.0045912266
-0.002319336
-5.1379204e-05
0.0054939985
-8.034706e-05
0.011514664
-0.00022315979
0.0008870363
-0.0008019209
0.0075963736
-3.5762787e-05
0.0014930964
0.00016963482
0.00036740303
0.0006263256
0.011150837
0.0018943548
0.002061367
0.0045021772
0.0005466938
0.0040341616
0.0014941692
0.0016883612
0.0137838125
0.0025974512
0.005057931
0.001156807
0.0017203093
0.0027991533
-0.00023508072
5.6385994e-05
0.0011322498
0.00046730042
0.0014578104
0.0034230947
0.000636816
0.005430937
0.010682344
-5.5909157e-05
0.0036047697
0.0026905537
0.0053914785
0.00027787685
0.0028971434
0.010175228
0.002274394
0.0030640364
0.00090301037
0.0045161247
0.00020134449
0.0017390251
0.001658678
0.0020856857
0.005096197
0.01028955
0.00012397766
0.0030477047
0.0031365156
0.0026091337
0.0002681017
0.007881761
0.0006673336
0.0034838915
0.00088727474
0.0063409805
0.0028471947
0.004151702
-0.001062274
-4.6491623e-05
0.0038013458
0.0035809278
0.007224798
0.006361842
0.00049483776
0.00047659874
0.003503561
0.0030235052
0.00087988377
0.00031518936
0.0007044077
0.0006302595
0.0005251169
-0.00030052662
0.0021398067
-0.0006046295
0.0012190342
0.0023276806
0.00027620792
-0.00078880787
0.0026882887
-2.360344e-05
0.004495859
0.010806084
0.00014829636
0.00092220306
0.00214684
-0.0001193285
-9.214878e-05
0.005749464
0.000816226
0.0013127327
0.0009938478
0.0044933558
0.004818082
0.0010664463
0.0066393614
-0.0007163286
0.002069831
0.0002824068
0.0055298805
1.0848045e-05
-0.00044894218
0.00016450882
0.0001282692
-4.386902e-05
0.0078469515
-0.002404213
0.0026144981
0.0021438599
-0.0007042885
0.0031508207
-0.0011609793
0.0075267553
9.560585e-05
0.0026637316
-0.00025212765
0.0029523373
0.0005352497
0.0052520037
0.00428319
0.004056692
0.0026240349
0.00027525425
0.0010894537
0.0029929876
0.0007736683
0.0009795427
0.0018765926
0.00070762634
0.006796241
0.00012755394
0.0022553205
0.004312992
-2.1219254e-05
0.00027799606
0.0104055405
0.0035524368
0.0031284094
-0.0004968643
0.002245903
-0.0009018183
-0.0003209114
0.012020111
0.011865616
-0.0006864071
0.004656911
0.0057611465
0.0056090355
0.0011279583
0.0009926558
0.00050234795
0.0027552843
0.0016014576
0.004806161
0.000114798546
0.00043678284
0.004288912
-0.00018537045
0.0034981966
-8.4638596e-05
0.0009622574
0.0035926104
0.00055909157
-0.0008817911
-0.0008431673
0.010445476
0.0018547773
-0.000991106
0.00018048286
0.0013136864
0.0047397614
0.003275752
0.0002758503
0.004942298
-0.00047409534
0.0016334057
-0.00057065487
-0.00011563301
0.0031844378
0.00018072128
0.0070153475
0.0006287098
0.0011329651
0.003504157
0.004331827
0.0031026602
0.0056933165
0.0051077604
0.000121712685

0.00082957745
0.0015051365
0.0024831295
0.0020856857
0.003187418
0.0042693615
-0.0007761717
-0.00021147728
0.000705719
0.00047695637
0.0032727718
4.6372414e-05
0.002086401
-0.00083601475
0.0030679703
0.0066934824
0.0033675432
-0.00019299984
0.00090134144
-7.247925e-05
0.0021847486
0.0020780563
7.8082085e-05
0.006664157
0.0022449493
0.002236724
-0.0013879538
-0.00013017654
0.0043188334
0.0029995441
0.0017324686
0.0052285194
0.0036622286
0.0010145903
0.002470255
0.0023645163
0.003075242
0.0042034388
0.0031702518
0.0012999773
0.0020204782
-0.00048947334
0.0031290054
0.003512621
0.0015413761
0.001327157
0.00090932846
0.0012499094
0.0016932487
0.002306223
0.0020706654
0.0019782782
0.0005553961
0.0026620626
0.0032895803
-0.0006341934
0.0010920763
0.00043928623
0.0006494522
0.00011205673
0.006739497
0.00022029877
0.0018320084
0.001330018
0.005051136
-0.00020205975
0.0016801357
0.0026277304
0.0019240379
0.0024647713
0.00084865093
0.0030703545
0.0023738146
0.00022101402
0.0035613775
0.0022841692
0.00034320354
8.7976456e-05
0.002004981
0.003224492
0.0028949976
-0.00031352043
0.00048577785
0.00048851967
0.00010192394
0.0015848875
0.0050002337
0.0005391836
0.0007609129
0.0012253523
0.0044327974
0.0022581816
0.0034661293
0.003250122
0.0006737709
0.0010604858
0.001292944
0.00616014
0.0023936033
0.005203247
0.0012760162
0.0019084215
0.0009123087
0.00083601475
0.0012029409
0.004147887
0.0017534494
0.0028264523
0.0017255545
0.003714323
2.682209e-05
0.0019068718
0.00099051
0.003404975
0.001992464
0.0038745403
0.0007747412
-0.0007753372
0.002341628
0.004768133
0.0024764538
0.005331874
-0.00038146973
0.0023363829
0.0068827868
0.00049316883
-0.00064361095
0.00084102154
0.0013810396
0.001760602
0.00021922588
0.0029326677
0.00647223
0.00025475025
0.0045315027
0.0016144514
0.0017774105
0.0016815662
0.0004928112
-0.00090289116
0.0024682283
0.00464046
0.0010449886
0.006316781
-8.821487e-06
0.0011103153
0.003416419
0.00092983246
0.0021437407
0.0029455423
0.0042123795
0.0030651093
0.00030851364
0.0032503605
-7.6293945e-05
0.0010092258
0.0038425922
0.0019190311
0.0039719343
-0.00020253658
0.004541993
0.0023348331
0.0040712357
0.0022176504
-0.00011074543
0.000978589
0.00069487095
0.0016332865
0.0014884472
0.0005918741
0.002039671
0.0027514696
0.0044304132
0.0008559227
0.005101323
0.0034846067
0.003310442
-0.00032138824
-0.00041234493
0.0032516718
5.3048134e-05
0.003913641
0.0018843412
0.0041464567
0.0012060404
0.0073832273
0.003713131
0.0016537905
0.0014461279
0.0034595728
0.0050370693
0.0037437677
0.0003620386
8.928776e-05
-0.0001540184
0.00089132786
0.0018949509
0.002124548
-7.2836876e-05
0.00228858
0.0017459393
0.001714468
-0.00025558472
-4.7802925e-05
0.0034093857
0.00643003
0.0003244877
0.00065779686
0.0008723736
0.002800703
0.002622962
0.0050611496
0.004768133
-0.0007750988
0.0025451183
0.001038909
0.0052633286
0.00204432
0.00016856194
-0.00032103062
0.0016983747
0.00029444695
0.0012019873
0.0003207922
-0.0005925894
0.003073454
0.0007380247
0.0021147728
0.00037813187
0.00434196
-0.0003529787
0.0013098717
0.00064074993
0.001192689
0.0028976202
0.0025004148
0.0013552904
0.00091063976
0.0011804104
0.0041600466
0.00701344
0.007668972
0.004001379
0.0034462214
0.0037908554
0.004151225
0.0025144815
-0.0002529621
0.0013049841
-0.00044310093
0.00091457367
0.00025689602
0.0044687986
0.0024297237
0.0002052784
0.002904892
0.00979507
-0.000369668
-0.00014412403
0.0076811314
0.0009883642
0.0025566816
0.004432678
0.0010586977
0.00042283535
0.0063962936
0.0043063164
0.0012328625
-7.379055e-05
0.00219059
-0.00050246716
0.00089752674
0.0011810064
0.0006381273
0.00012528896
0.0017590523
0.00028073788
0.0036518574
0.0074659586
0.00065910816
0.0007201433
0.00076150894
0.0037199259
0.0016616583
0.0020058155
-0.00023889542
0.00064253807
0.0025615692
0.0031311512
0.00088989735
0.004745722
0.0013855696
0.00038850307
0.0006519556
0.0019916296
0.004750848
0.0013802052
0.0037282705
-0.0003758669
0.00048661232
0.0009521246
0.0046538115
0.0005258322
0.0006902218
0.0033506155
0.0018494129
0.0019689798
0.0030845404
0.004941106
0.002571702
0.0012453794
0.003133297
0.0030272007
0.0061939955
0.0013866425
0.0032655
-0.0012098551
0.0033438206
0.0021557808
0.004367709
0.0031342506
0.003312707
0.0023504496
0.0018123388
0.002802372
0.0003607273
0.003733635
0.0041081905
0.00290668
0.0033766031
0.00030469894
0.0027719736
0.00082445145
0.0008999109
0.0007146597
0.0032784939
0.0055634975
0.0008326769
0.0006518364
0.0023726225
0.00233531
0.0041840076
0.0025496483
0.00222373
-0.00045478344
5.567074e-05
0.0001872778
-0.00014901161
0.0007790327
4.4107437e-05
-8.583069e-06
0.0044840574
0.0014358759
0.0016064644
0.0011529922
0.00019335747
0.0012471676
0.0036741495
-9.036064e-05
0.0020003319
-7.1525574e-06
0.0017392635
0.00097310543
0.004314065
0.006556511
0.000805974
0.00419569
0.00087559223
0.0009821653
-0.00040733814
0.003963113
0.0109295845
0.00057017803
7.092953e-05
0.0031062365
0.0014218092
0.0017440319
0.003916979
0.00388968
0.004376769
0.0010032654
0.0007356405
6.663799e-05
0.0009536743
0.0038074255
0.00045645237
0.0018285513
0.002786398
0.00035250187
0.0044853687
0.0073182583
0.0049294233
0.0014035702
0.0016483068
0.00074124336
-0.00013673306
0.0014390945
0.0044127703
0.00034594536
0.00039708614
0.0044602156
0.0004605055
0.0014289618
0.0038237572
0.0023773909
0.0029628277
0.0005967617
0.0014886856
0.0003991127
0.002296567
0.0021352768
0.0014464855
0.005369067
0.0027850866
0.0030158758
0.0021232367
-0.0020148754
0.002442956
0.0011599064
0.00072979927
0.0042175055
0.0013034344
0.006557584
0.0020874739
0.0009796619
0.0019489527
0.0022768974
0.0052890778
0.0011231899
0.0016088486
0.001103282
0.0017200708
0.008217335
0.007055998
0.002402544
0.0024785995
0.0014702082
0.004186034
0.0043315887
0.007965207
0.00038945675
0.0022968054
-7.891655e-05
0.0021888018
-0.00076007843
0.012664437
0.0017222166
-0.00038290024
0.003367424
0.00017631054
0.002143383
0.0005810261
1.0967255e-05
0.0032340288
0.0021452904
0.0018006563
0.00041425228
0.00023126602
0.0022404194
0.0026669502
0.0019279718
0.005677223
0.0036352873
0.0068262815
0.0004917383
0.005017042
0.004523635
0.0047160387
0.002650261
0.0015761852
0.0048960447
0.0055862665
0.002496481
0.0041475296
0.0043934584
0.004590869
0.0037156343
0.0012609959
0.00071418285
-7.665157e-05
0.0006107092
0.0062298775
0.007622957
0.0006941557
0.0014380217
0.0006763935
0.0016300678
0.0029633045
0.0019345284
-0.0007944107
0.0025507212
0.0055059195
0.00018000603
0.0011184216
0.0018748045
-0.00029873848
0.004465699
0.0014297962
0.0005245209
0.0065416098
0.0010179281
0.0027862787
0.0028350353
0.0060703754
0.0053952932
0.0013171434
-0.00012886524
0.0031907558
0.009724021
0.0072550774
-0.00016522408
0.0018728971

0.00420928
0.0005042553
0.008127928
0.008252025
0.0009264946
0.0014566183
0.0024225712
0.008367658
0.0012264252
0.002597332
0.0027617216
0.0028510094
-0.0008262396
0.00091707706
0.0018495321
0.008606911
0.0010839701
-0.00030303
-0.00011873245
-8.881092e-05
0.0005620718
0.0004671812
0.000110030174
0.010640621
0.004359126
-0.0010739565
-0.0005379915
0.0012608767
0.011214972
-0.0007020235
0.0014842749
0.002571702
0.0059888363
-8.1539154e-05
0.0012933016
0.0025742054
0.0016355515
0.0053868294
0.003109336
0.002219677
-0.0006798506
0.0018547773
0.00013494492
0.0017234087
0.000526309
0.004863262
0.0028575659
0.00029170513
0.008390307
-0.0016756058
-0.0004886389
0.005864501
0.00013530254
0.00084388256
-0.0011225939
0.002349019
0.0034879446
0.0022679567
-0.0010336637
0.001663208
0.00074613094
0.004334688
0.00029683113
0.00268054
-0.0001450777
-0.00045871735
0.0012409687
0.0012153387
0.0014677048
0.0030274391
0.0031551123
0.0028322935
0.0052968264
-0.0026334524
0.0010523796
0.004664421
0.0021777153
0.0026301146
0.0024528503
-0.00056254864
0.0013080835
-0.00023651123
0.0013967752
0.00030970573
0.0018138885
-0.00072312355
0.0058683157
0.0014977455
0.004989505
0.00030362606
0.002106309
-0.001464963
0.00017142296
0.007024169
-0.0007853508
0.0042300224
0.0014322996
0.0025795698
0.00042688847
0.009287834
0.00072932243
0.005368829
0.00502038
0.007179618
0.0017443895
0.0022164583
0.005136609
-0.00063729286
0.0018709898
0.0021966696
0.0009925365
0.0030964613
0.003782034
-0.00062322617
0.0006483793
-0.00035083294
0.00440979
-0.0020040274
0.001316309
0.001937747
0.00027525425
0.004130125
-0.0012811422
-0.001560688
0.0077159405
-0.0005172491
0.00042319298
0.004762292
0.0008504391
0.0049785376
0.0037852526
0.0054984093
0.00012433529
0.007289648
0.0012506247
0.000238657
-0.00033724308
0.0076361895
0.0033125877
3.85046e-05
-0.00047934055
0.0046485662
0.005669594
0.007063031
0.005954623
0.0038398504
-0.00060617924
0.0022560358
0.0017095804
-0.0011413097
0.0010011196
0.008024454
0.0051831007
0.000598073
0.005279064
1.9192696e-05
0.002516508
0.0077676773
0.00035095215
0.002693653
0.001172781
0.0025821924
0.00027012825
0.010898709
0.005755782
-0.00050389767
0.000652194
0.0013631582
0.00079488754
0.0026488304
0.0005578995
0.008544922
0.0012527704
0.0004969835
0.00030124187
0.00053179264
0.016064882
0.00029695034
0.0015736818
0.0012170076
0.00565958
-0.00014448166
0.00018417835
-0.00036644936
0.00037527084
0.00082468987
0.00025475025
0.007169962
0.0003796816
-0.00045716763
0.0015393496
-0.0006004572
-8.4638596e-05
0.0021516085
0.0032167435
0.004848957
0.001979947
0.0005450249
0.0068912506
0.004527092
-0.0007953644
0.0003066063
0.0004837513
-0.0004967451
0.0061864853
0.0018686056
0.0042892694
-0.000106573105
0.0016636848
0.0035494566
0.004384637
-0.000567317
0.0029250383
-0.0002373457
0.004382968
0.005074382
-0.0021668673
0.002908349
0.0010339022
0.000680089
0.0032895803
0.0011882782
0.006697178
0.002797246
0.002001524
-0.0007891655
0.0014135838
-0.0010051727
0.00090813637
0.0005003214
0.004142165
0.003138423
-5.173683e-05
0.00040352345
0.0020128489
-0.00116992
0.0031986237
-0.0020035505
-7.4505806e-05
0.0011403561
8.237362e-05
0.00046300888
0.00046110153
0.00062191486
0.0030283928
-0.0010368824
0.016735673
0.0020276308
-9.179115e-06
0.0043793917
-0.0013221502
-0.00046098232
0.0027985573
0.0052096844
-0.00090670586
0.0023019314
0.0044783354
0.00057923794
0.008265853
0.0036996603
0.00488925
0.0006043911
0.0024522543
-0.0021361113
0.004126191
0.0048823357
0.0056034327
0.0015705824
0.00018548965
-0.0002310276
0.00094759464
0.0024012327
0.00416708
0.0003002882
0.0016180277
0.002801299
0.0027990341
0.0016350746
-1.04904175e-05
-0.00017416477
0.0030651093
-0.00038862228
0.0032490492
0.0040251017
0.004849434
-0.0006440878
0.0036702156
0.0048840046
0.0035926104
-0.0019210577
0.0013307333
0.000108122826
0.00052404404
0.00091576576
0.0020622015
0.0047723055
0.0030997992
0.005004525
0.0021538734
0.0015449524
0.0042790174
0.007607579
0.0044150352
0.0018209219
-8.9645386e-05
0.00013911724
0.0046145916
0.0029205084
0.0035102367
0.0015443563
0.005144477
-0.0003401041
0.0013250113
-1.04904175e-05
0.00024044514
0.0036315918
-0.00016748905
4.839897e-05
-0.0003335476
0.00020337105
0.0010390282
0.00021290779
0.002876997
0.0044852495
0.004638195
0.003790617
-0.0007586479
0.0045883656
0.0017832518
0.006571293
0.0034915209
-0.0007907152
0.0006233454
0.0027544498
0.0021916628
0.00015866756
0.0010991096
0.004383564
0.0024660826
0.0030472279
0.003160596
0.00057709217
-0.0005298853
-0.000898242
0.0029979944
0.0018074512
0.0075244904
0.0044099092
0.00019288063
0.0019299984
0.0027229786
0.0046008825
0.0016615391
0.0027179718
0.0016120672
0.00025641918
0.005486846
0.00020575523
0.004629135
0.0014759302
-0.0003157854
0.0036517382
0.0042700768
-0.0018523932
0.004950762
0.0035823584
0.0013701916
0.006358862
0.001147747
0.0011929274
0.0033379793
0.0006862879
0.0008121729
0.0023245811
0.0015231371
0.0003014803
0.0016955137
0.0017644167
0.0056191683
-1.680851e-05
0.00064122677
0.0011999607
0.0031273365
0.001842022
0.0035403967
0.0010477304
0.000441432
0.0016952753
0.0017143488
0.00092053413
0.0013393164
0.009036422
0.0017595291
0.0054545403
0.0059559345
0.0031354427
0.004540086
0.0026253462
-0.00022768974
0.0035248995
0.001281023
0.0044392347
0.0011225939
0.0019040108
0.0010159016
0.0027655363
-0.00015509129
0.001296401
0.0014976263
6.484985e-05
-0.00079500675
0.0019545555
0.0025708675
-8.702278e-06
0.001965642
0.0013957024
0.0011327267
0.014586091
0.0009559393
0.0009511709
0.00020575523
0.0029296875
0.0013817549
0.0003335476
0.0051072836
0.004245758
-0.00050807
-0.001414299
0.00416255
0.0021110773
0.00058817863
-0.0003966093
0.0003746748
0.0051136017
0.002847433
0.002429366
0.001799345
-0.0008343458
-9.012222e-05
-0.0012054443
0.002272606
-0.003586769
0.0056209564
0.0027287006
0.0018037558
0.005430937
0.0007789135
-0.0011857748
8.34465e-05
0.0027751923
0.0013979673
0.0017579794
0.009935021
0.005053878
-0.00086319447
0.0011252165
0.000667572
0.0020397902
0.005781412
-0.00044691563
0.0076714754
0.0005979538
0.008230329
0.003259182
0.0051048994
0.0004079342
0.00019562244
0.004493594
0.0043017864
0.0011713505
0.007049799
0.0007133484
-0.00018978119
0.001201272
0.007952929
0.0035930872
0.00023198128
-0.00042665005
-0.0012521744
-0.00067949295
0.0018693209
0.0018087626
-0.0007750988
-0.001038909
0.0007612705
0.00414145
0.0009524822
0.00545156
0.0011012554
0.00092983246
-0.0003618002
0.0013357401
0.0016965866
0.0024276972
0.00036883354
0.0009367466
0.00018846989
2.682209e-05
0.0019025803
0.004129052
0.0029304028
0.003957391
0.0008471012
0.009812117
0.00320673
0.0027618408
-0.0001975298
0.0010654926
0.014254808
0.0023890734
0.0039817095
0.0026222467

0.3130561
0.33757412
0.2797395
0.26900816
0.3007145
0.23981452
0.2816652
0.29438424
0.38809156
0.31609428

