0.099787235
0.050430655
0.05232382
0.06608498
0.0108006
0.14336634
-0.11045194
0.20780468
0.17546594
-0.007712126
-0.15918231
0.080340266
0.1353302
0.18940163
-0.0070859194
0.118946075
0.18591404
0.10085356
-0.08030951
-0.1295898
0.23600006
-0.017230272
-0.0140903
0.4010216
-0.137061
0.018875122
0.06577039
-0.20032561
-0.041838646
0.050917268
-0.0692991
0.22528338
0.19878924
-0.27815533
-0.09358239
0.018709183
0.060579777
0.27177954
0.10025203
-0.12666142
-0.06949711
0.0021463633
0.111460686
0.027199745
-0.0507015
0.0778743
0.20042706
0.022624493
0.019208193
0.058692098
0.037734866
0.03546679
0.04136741
-0.1705904
-0.14997864
0.05620253
0.014999747
-0.006942272
-0.0039161444
0.069788694
0.02193749
0.17409492
0.04130864
0.084979415

0.11918318
0.06332195
-0.08178067
0.044703364
-0.010744095
-0.028521895
0.04971683
0.005435705
-0.15104783
0.26189888
0.061523795
-0.025221467
-0.032245994
-0.005728483
0.023400307
0.07934296
0.1421969
-0.07712507
0.047371507
0.061152577
-0.069337845
0.0189296
0.011517525
0.00082194805
0.0052164793
-0.36743796
0.03748846
-0.016425848
-0.043413997
0.20130754
-0.23356843
0.23617947
0.010517716
-0.13933933
0.2766595
0.05339682
0.14520383
-0.13659668
-0.069471
0.45461845
0.041897416
-0.07537496
0.028531432
0.1266396
0.08017588
0.31252897
-0.06291938
-0.060542226
-0.20745254
0.10366404
0.15222168
0.070848346
0.07619798
0.065417886
0.0069663525
0.01857078
-0.02938497
-0.007748008
-0.03487885
0.22062516
-0.104524374
-0.04736221
-0.060404778
-0.16805959

0.0056488514
0.08872795
0.048894763
-0.0042926073
-0.004880786
0.04577124
0.0024565458
0.014036894
-0.008120894
-0.029954791
0.06267011
-0.004612446
-0.012393713
0.06483626
-0.02559197
0.08738637
0.023319483
0.07711136
-0.0022120476
0.06173098
0.14270794
0.084527016
-0.10563183
-0.16463983
-0.16527021
-0.044901848
0.00081825256
0.015091777
0.008606434
0.072208166
0.008207321
0.020057917
0.052414417
-0.060251713
0.008421302
0.052223206
0.032498956
0.03156042
0.09904683
-0.0073509216
0.047042847
-0.0122618675
-0.018288732
0.019960165
-0.017737031
-0.08860779
0.038259387
0.01977241
0.039209723
0.08331418
-0.021353126
0.0077062845
-0.055503845
0.042581677
0.008067369
-0.043462276
0.038100243
-0.008125067
-0.063494205
0.0035151243
0.05604005
0.0038183928
0.0038069487
-0.15086997
0.04583311
0.028339028
-0.016925454
0.03411138
0.06603396
0.0035301447
0.04123926
0.015953064
-0.016956806
0.005624056
0.06037438
0.0060323477
0.07743037
-0.02330482
0.0060874224
0.037709475
-0.08379793
-0.14086485
-0.022256613
0.12796438
-0.040482283
-0.01753521
0.03905654
-0.068665266
-0.10847497
0.04487872
0.036547422
-0.068431616
0.12496257
0.07128239
0.036498785
-0.09135246
0.021774054
-0.122332454
0.02169013
-0.0016440153
-0.0263654
0.017198563
0.15241122
0.12546682
0.030173063
-0.015377879
0.05794406
0.0004069805
0.03422141
0.12305045
-0.08718014
-0.047890186
0.010378718
0.02453041
0.05685973
-0.0103446245
0.07676947
-0.02093196
0.072292686
-0.11186874
-0.06268811
-0.011508346
0.109283686
0.057376146
-0.11705899
0.04021561
-0.006823778
0.07371509

0.020490289
0.040966034
-0.05401373
-0.17509067
-0.00025093555
0.012929678
-0.003178358
-0.0015203953
0.07937014
0.055774093
-0.039576888
0.012360215
-0.060019374
0.070301175
-0.049875975
0.0051505566
-0.04102254
0.04841125
0.0148175955
0.0074152946
0.047825575
0.009935141
-0.050182223
-0.06682372
-0.036402345
0.050561905
-0.0014939308
0.031169415
0.06255686
0.092135906
0.06791854
0.03194189
0.123438835
0.06550634
-0.202263
0.0076032877
0.028622508
-0.16263092
-0.024412036
0.048532248
0.09440768
0.04871142
0.081653714
0.06325269
0.03067863
0.011538267
-0.04885125
-0.016601324
-0.0072164536
-0.04870665
-0.012516141
-0.012396216
0.0127391815
-0.026347518
0.14563954
-0.008793116
0.019810677
0.0037873983
0.017208219
-0.069087505
-0.022432208
0.031088233
0.03475523
0.014570713
0.030702591
-0.0022417307
-0.034553766
0.078137875
-0.03541565
-0.0026768446
0.021754384
0.10923433
-0.056842208
0.009178996
0.011877179
0.09441495
-0.007478714
0.059676528
0.02086401
-0.022560239
0.0143351555
0.106916785
0.007273555
-0.01287663
0.054165006
-0.032537937
-0.009506345
-0.09573865
0.089027405
0.010911107
0.028003097
0.092178345
0.023131967
0.09513068
0.044359565
0.008300304
0.013540268
0.050726533
-0.0008023977
0.001625061
0.0126827955
-0.15006936
-0.0035864115
-0.029134989
-0.058998108
0.00349617
0.020442605
-0.04172194
-0.0043803453
0.029695868
0.00091540813
0.06826842
-0.038823128
0.034133434
-0.022211432
-0.03750074
0.054527998
0.094548225
-0.06537998
0.045817018
-0.0006841421
-0.065353036
0.0062696934
0.07378328
0.034651518
0.021823645
0.059580922
-0.06423259

-0.008677244
0.005598426
-0.06206274
-0.025496721
-0.047804117
0.006235361
-0.021674156
0.07088876
0.013149023
-0.009984016
-0.044088244
-0.0038070679
0.0076550245
0.0019843578
0.022223115
0.0163095
0.022154689
0.075749874
0.0016263723
0.029764175
0.014410019
-0.004021764
-0.056152344
-0.021228313
-0.012539387
0.005362153
-0.0027093887
0.009324074
0.008955836
-0.0031430721
0.031128049
0.025431037
0.037112117
0.014100671
-0.010852575
0.010745764
-0.008077621
-0.014090657
0.0029611588
-0.05408466
0.00018036366
0.004394889
0.023341894
-0.0034823418
0.07919204
0.013452768
-0.092511296
0.06394017
-0.0058802366
0.04155743
0.010090828
0.032973766
0.013631344
0.0055538416
0.0028030872
0.064917445
0.037521005
0.031831503
0.0012940168
0.03902793
0.030558825
0.022077084
0.0384084
-0.000991106
0.063043
0.006881714
-0.015077591
0.049224615
-0.0010734797
0.0028131008
0.006073594
-0.053604364
0.0013357401
0.008753419
-0.002908945
-0.012523413
0.011054158
0.062940955
-0.05851209
-0.0066069365
0.039788127
-0.055624604
-0.045308948
0.0005129576
-0.038668275
-0.019808292
0.052227497
-0.0022232533
0.0021734238
0.00088369846
-0.030496955
0.05072236
0.041154265
0.0029242039
0.048543096
-0.02536869
0.049866557
0.02643454
0.001671195
0.017797112
0.024475098
0.029733181
0.00018811226
-0.00052273273
-0.04458475
-0.007567048
0.003991723
0.03429997
0.052255034
0.023560643
0.0070385933
0.017397761
-0.004266739
0.0069862604
-0.0065295696
0.020766735
-0.004569173
0.0037195683
-0.016284466
-0.024482489
-0.05363989
-0.023153543
-0.061454773
0.035151243
0.074270844
-0.0034701824
0.00521791
0.024953246
-0.07790375
-0.0051478148
-0.021835208
0.027067304
-0.018866897
0.0005309582
0.032615185
0.017799616
0.023078084
-0.0031733513
0.04985273
0.008468509
0.009919524
0.0006144047
0.0065618753
0.014663696
0.03386247
-0.010800362
0.023424387
0.037564754
0.026231766
0.039157033
0.0031362772
-0.03893459
0.036641
-0.0017111301
0.009293556
0.00842917
0.046404958
0.048657656
0.002384305
0.0022877455
0.0012594461
-0.0410316
-0.034181476
-0.047603846
-0.0101059675
0.0021538734
0.0020188093
-0.037745714
0.0363338
0.06927109
0.0015534163
0.0014601946
-0.026285768
0.023486853
-0.013833284
0.057342052
0.042093396
-0.032897115
0.0061593056
0.03750992
-0.0005940199
0.020524144
0.039394617
-0.028645754
-0.0053378344
0.033234596
-0.03491485
-0.06491423
0.0034172535
-0.03567469
0.02602613
0.046938896
0.047602892
0.0028886795
-0.0073115826
-0.02095294
0.01339376
-0.070014
-0.085237384
0.0015069246
-0.033435345
-0.047516584
0.04731655
0.059841394
0.016411662
0.0030617714
0.04088831
0.012808681
0.028813124
-0.0015348196
-0.05105543
-0.056002617
0.00043976307
-0.041531086
0.054792047
0.038761616
0.00060272217
-0.0026483536
0.011191249
0.0074546337
0.02513051
0.029118776
-0.04118955
-0.0025595427
-0.00645864
-0.007522106
0.01795566
-0.025918365
0.03624189
-0.004413724
-0.042899966
-0.035442233
-0.008709192
0.040157676
-0.06708014
-0.025354266
0.092959285
0.05784917
-0.03443432
0.04256642
0.032126307
0.005717635
-0.115267396
-0.0049729347
0.025141
0.010580182
0.014658809
0.0015338659
0.0011482239
5.0663948e-05
-0.019631505
0.015607953
0.010499239
-0.028715491
-0.01501894
0.01096046

-0.0029798746
0.007617593
0.0237602
0.0025476217
0.0024403334
-0.054020643
0.02768147
0.043580174
0.0021196604
0.05464387
-0.017528057
-0.0052825212
-6.7949295e-05
0.019391775
-0.03147626
-0.018167377
-0.009779811
-0.04746592
0.004645467
-0.006719947
0.012983322
0.013637662
0.02102387
0.0057325363
0.006118536
-0.00053310394
0.005818844
0.0024981499
0.022912621
0.15580118
-0.005645752
-0.044015884
-0.041377187
0.034430027
0.016735435
-0.007742405
0.009234071
-0.03891182
-0.008792639
-0.010491729
0.0034512281
0.019957542
0.047547936
0.019212604
-0.003037572
0.0075165033
0.06680322
0.0051538944
0.008730173
0.0028700829
-0.014177084
0.023761988
0.055151105
-0.023316145
0.05239618
0.006758213
0.03775084
-0.055148125
-0.02199912
-0.03908384
-0.008862376
-0.08064163
-0.03029883
-0.0003399849
0.04366386
-0.0030561686
-0.00067412853
0.026401162
-0.007722497
0.015195966
0.032020092
-0.06638551
0.006242633
0.0024365187
0.010048389
0.033390284
-0.015285134
-0.06558406
0.029409528
0.026502848
0.031231761
0.02344346
-0.0028520823
0.00031602383
0.02139318
-0.032655597
0.03945291
-0.012748241
0.043449283
-0.036417127
0.0055291653
0.0015679598
-0.008076429
0.030136108
0.031858325
0.0117583275
0.03142631
-0.014323592
0.012945175
0.05637753
-0.004410267
-0.054071188
0.013970733
-0.07069051
0.012727976
-0.0056459904
0.02719605
-0.03961408
-0.049194574
-0.0027347803
-0.0031840801
-0.0055123568
-0.0046123266
0.012441993
0.031138897
0.025471091
0.018430352
0.014517546
0.024194479
-0.014923573
-0.01099205
0.010614991
0.0057560205
0.005991459
-0.023625016
0.002300024
-0.0020141602
0.034766912
-0.004398942
0.020644546
0.020725012
-0.02730751
0.025476217
0.042913795
0.010794401
0.016129613
-0.020435214
0.02717197
0.012549996
0.047696948
-0.0007171631
0.0386827
0.042389393
0.042246938
0.013088226
-0.0034339428
0.017117143
0.04519546
-0.095569015
0.038638353
0.04636085
0.012415409
0.009197712
-0.0037732124
-0.013227344
0.0042356253
-0.04317093
-0.017427206
-0.00452888
0.012257218
-0.05305934
0.004347801
-0.030507565
0.084017515
0.030186534
-0.0025912523
0.03331375
-0.007792592
0.018902779
-0.00057673454
-0.021336198
0.013303041
0.0073000193
0.00015902519
0.025713563
0.011702895
0.016077876
0.014797807
-0.053387523
-0.030636668
-0.06315589
0.02158618
0.004863858
0.0005173683
-0.047226787
0.020406604
-0.007853508
-0.00073230267
-0.06937158
-0.04383266
0.001080513
-0.0133577585
0.034794927
0.07160485
-0.004710436
0.0043970346
-0.047116637
0.042411804
0.003101945
0.009813666
0.0022956133
0.022311449
0.008749604
0.019934535
-0.028318524
-0.010506511
-0.00070238113
-0.026450396
0.0369246
-0.031897902
-0.01841104
0.0012316704
0.030917645
0.0344218
-0.0141785145
0.0056550503
0.03378904
-0.0049310923
0.027979016
0.111610174
0.004357457
-0.040718555
-0.03953755
0.02741003
-0.01812005
0.045773864
0.00038290024
0.0034227371
0.0044369698
-0.031924486
-0.021032572
-0.0060231686
-0.017448783
-0.007496357
-0.009701371
0.0029661655
-0.009238124
0.0031985044
-0.028642058
0.010291696
0.007960081
0.01824975
-0.038054228
0.014751792
0.024082422
0.04920125
-0.01222074
0.017540336
0.036031365
0.023622155
-0.033740163
-0.010429859
0.015424013
0.02342832
0.051884532
0.06224537

0.07239616
-0.01130271
-0.018096685
-0.0008621216
0.015056968
0.022481918
0.03709519
0.019183636
0.03188789
0.002198577
0.0060766935
0.030216694
0.04359901
-0.043427348
0.008435726
0.04989767
-0.01012814
0.0024137497
0.05493653
0.035502315
0.0051546097
-0.002095461
-0.00069475174
-0.010097861
-0.0065871477
0.003852725
0.005820751
0.058126926
-0.04985702
-0.013251901
-0.0039180517
-0.011074901
0.017767906
0.0014263391
0.01300478
0.030077577
0.031063914
0.001927495
-0.034399867
0.0070080757
0.03722012
0.04850042
-0.014708638
-0.024383426
-0.04657495
0.0020997524
0.029785633
0.005673051
0.082025886
0.039078474
-0.025389194
0.009008169
0.00089645386
0.05163777
0.033129454
0.016444325
-0.016534567
-0.07118809
0.016595602
0.06787443
0.0028271675
0.017969012
-0.035666227
0.0059968233
-0.0061877966
-0.009863973
0.06597948
-0.030741334
-0.012198925
0.022305489
-0.025983095
0.04352069
-0.020439625
-0.002222538
0.03167665
0.07576263
0.003199935
-0.020118713
-0.017324448
0.011164188
0.041657567
0.029298067
-0.0038315058
0.04563582
-0.0070592165
0.0125956535
0.014443636
0.0076333284
-0.0104289055
-0.06017804
-0.016817331
0.0145174265
-0.031566143
-0.0094156265
0.0059826374
0.08275199
-0.031227589
0.020416498
0.021043777
-0.0062998533
-0.007964969
-0.019290328
0.00476861
0.0333575
0.015279651
-0.013914585
0.017350674
-0.052085996
-0.025473237
-0.020659447
-0.040518165
0.049176812
0.003406167
0.021350265
0.025812864
-0.015344143
-0.008341908
0.07177961
0.07927406
0.017359376
-0.049337626
0.064466715
0.02291882
0.010983467
-0.032479882
0.013469696
-0.00017273426
0.01376307
-0.013043404
-0.00684464
-0.04594004
-0.023658514
-0.013658643
0.025398374
-0.01162827
0.011329174
0.031896472
0.028670669
0.056663036
-0.003429532
0.008088112
-0.0034544468
0.06288028
-0.04887283
-0.094308615
0.025270939
-0.029126048
-0.085271835
0.038988233
-0.015398502
0.0552423
0.0006814003
0.023002505
-0.0051106215
-0.021197796
0.029894829
0.022035241
-0.010232091
-0.007710457
0.06676412
0.03905058
0.01019609
-0.035197496
-0.03661132
0.01412642
-0.019433618
0.03141904
-0.0054540634
-0.094733
0.03713143
0.006550789
0.00034201145
-0.041486025
-0.02336824
-0.04820633
0.06769049
-0.00033068657
0.033481717
-0.044525385
0.01422441
-0.014870524
-0.003313303
0.020108342
-0.04033017
-0.0071070194
0.0066508055
-0.0013895035
0.007326722
-0.0010689497
0.03284192
0.0068101883
0.003087163
0.00095283985
0.030860305
0.00015330315
-0.0648545
-0.0059785843
0.020769477
0.018960118
-0.05197072
-0.00025558472
0.064089894
-0.022524
-0.056637287
0.004946947
0.021896124
0.034169674
-0.0024182796
-0.051516056
0.003975868
0.026650667
0.0028902292
-0.0061935186
-0.020752788
0.0035113096
0.021928549
-0.024378538
-0.06735706
0.025806308
-0.02297151
0.009322524
-0.006733656
0.0499475
0.033111453
-0.013349175
0.010853171
0.038366675
0.014699936
-0.019548178
0.003391385
0.0020344257
-0.0034308434
0.0012352467
-0.039855003
0.0069110394
-0.026235819
0.028488636
0.051424623
-0.027806759
0.033230186
-0.025294662
0.043537617
0.068606496
-0.047261477
0.034032106
-0.01950252
0.028878689
0.06332302
-0.03274238
-0.07465637
-0.0038381815
0.011613607
-0.0154025555
0.02147615
-0.022129893
0.037804008

-0.009855509
-0.022044897
0.006475687
-0.027645946
0.014919877
-0.0045992136
0.015034556
0.017613411
0.0044389963
-0.023834825
0.024356127
0.010033965
-0.016707778
0.04379046
-0.032079935
-0.06676996
0.0057418346
0.00652194
0.025747895
-0.022773385
0.0024614334
-0.0059102774
-0.040536284
0.027794957
0.044721484
-0.02375853
0.0072892904
-0.012663126
0.023896575
0.0021442175
-0.007119894
-0.007196188
-0.003717184
-0.047260523
0.03081572
-0.0084888935
-0.03435552
0.043016315
0.01996839
0.000677228
0.0005079508
0.014354944
-0.016269565
0.010711074
0.0013004541
0.0034413338
0.007029414
-0.051859856
-0.03349495
-0.014392972
0.019804478
0.0011534691
0.034558296
0.022269487
0.008301616
-0.011792302
-0.019220948
0.0008189678
0.014687061
0.01996553
0.022118688
-0.044142723
0.012892008
0.012893915
-0.0059598684
0.012266755
0.006848216
-0.0012763739
0.0044111013
-0.0006004572
-0.0022006035
0.01760912
-0.042127848
-0.0041297674
0.0011427402
-0.0013445616
0.009331703
-0.031540632
-0.012176752
0.011700034
-0.024544239
0.0040005445
-0.009501696
0.007948041
0.009343028
0.0026760101
0.022969127
-0.022075176
0.011446714
-0.009097695
-0.031122684
0.0075479746
0.00982213
0.021580696
-0.005984068
0.03873658
0.025216937
0.007322192
0.050233126
-0.018313527
-0.027625084
-0.030570865
-0.0012521744
0.018109322
-0.004358053
0.0022144318
-0.020889401
0.043156028
-0.028443456
-0.026684046
-0.008530378
0.014675736
0.01432085
0.02071464
0.018586278
0.020315766
0.024078608
0.014210701
0.027160883
0.025251865
-0.002562046
-0.04225099
0.046088338
0.0256356
0.025985241
1.0609627e-05
0.014882326
0.019130945
0.016571403
0.0059827566
0.022234797
-0.029821396
0.0030984879
0.0025529861
0.045634747
-0.031392932
0.03249991
0.0027406216
0.008903861
0.006862998
0.006875634
0.032565713
0.0023611784
0.016456604
-0.008564353
-0.018223524
0.019034386
-0.04210794
-0.019851327
0.0021555424
0.026876688
-0.022799373
-0.0009636879
-0.009608746
-0.004024029
0.0013327599
0.006439328
-0.024069548
-0.006637335
0.0067818165
0.04695785
0.03744054
0.015824437
-0.004809737
0.009899616
0.02470851
0.03437972
0.008041501
0.00647676
0.005234599
-0.014033079
-5.6266785e-05
-0.03225255
0.027652144
0.00020635128
-0.0038019419
0.030346036
0.033147454
-0.012171745
0.007251501
0.010428548
0.006930828
0.0063040257
-0.00064742565
0.023054719
-0.022307634
0.014775157
0.006447196
-0.03549862
0.017416477
-0.045010686
0.0007534027
0.027692437
0.0023561716
0.021851659
-0.019955873
0.011474013
0.049494743
-0.0059245825
0.014177799
-0.0029022694
-0.015088916
0.00022447109
0.010033727
-0.0058496
0.008150339
0.01752007
0.0046588182
-0.012580991
-0.0058885813
-0.016364336
0.0003362894
-0.010997057
-0.00012588501
-0.014736414
-0.011234045
0.022537947
-0.011935234
0.022638798
0.014325738
0.00029623508
-0.0014253855
0.018187046
0.04090178
0.0040724277
0.004709363
-0.0048285723
0.0041412115
0.0033925772
0.009646773
-0.001136303
0.020233393
-0.012682557
-0.041101336
-0.006474495
0.040928483
0.007855773
0.024027824
0.011085629
0.013911366
-0.009082079
0.017922163
-0.016310811
-0.073286414
-0.019192457
0.0012090206
0.021727562
0.004842639
0.018754363
-0.01005435
0.037732482
-0.0077751875
-0.010063171
-0.01664269
0.0017986298
0.00907886
-0.017820835
0.0042613745
-0.0070078373
0.004635811
-0.01778102
-0.01041615
0.013833046
0.0021172762
-0.013011456
-0.037572026
0.03140962
0.026910305
0.020162225
-0.0020701885
-0.00975585
-0.004061818
-0.00045788288
0.03059864
0.007315755
0.035054326
-0.011433363
-0.013578773
0.010360479
0.030465245
-0.0071675777
-0.0019359589
-0.010609865
-0.00047886372
-0.033192515
0.034345627
-0.0029176474
-0.012053013
0.022227526
0.02951312
-0.016187072
-0.008320689
0.03964758
0.01669538
-0.016533732
0.044208407
0.010540605
0.011639357
-0.02349794
-0.01051712
0.015702486
0.00636971
0.014026403
0.013198137
-0.030368328
0.0053159
0.0045409203
-0.08237016
-0.008756757
0.042169094
0.0021469593
-0.004177332
0.0059281588
0.007924318
0.041831374
-0.011664748
0.020440102
0.00034582615
0.006468296
-0.03441286
0.006361127
0.0012449026
0.025195241
-0.005392194
0.042214513
0.040964246
-0.0013887882
-0.0019026995
-0.0021123886
-0.020671487
0.025780201
0.010999918
0.021636605
0.0019551516
-0.052550316
-0.010598779
0.0071594715
0.010677218
0.027035594
0.015028834
0.0045731068
-0.016865492
-0.0028378963
0.007903576
0.050754786
-0.045689464
-0.0061005354
-0.021864414
0.025439024
0.021381855
0.013670564
-0.024916053
-0.029996395
0.017841697
-0.012989402
-0.012750506
0.017805696
0.008146167
-0.017639875
0.019551516
0.019575119
0.034920573
0.052580714
0.042391777
-0.012500644
-0.0007735491
-0.015194893
0.031850338
0.0031650066
0.013219237
-0.0038591623
-0.023254752
-0.0012270212
0.0060362816
0.020590425
0.010341048
-0.011137128
0.013333082
0.00040388107
0.037046194
0.036051393
0.013580084
-0.001342535
-0.050398707
0.0055263042
0.0025042295
-0.0027304888
-0.044665575
-0.019557714
0.0046936274
0.023645401
-0.017158508
0.04493165
-0.02067554
0.013676643
-0.009652853
-0.0022802353
0.03140068
-0.008410454
-0.009852052
0.020382166
-0.035351753
-0.0017381907
0.009541988
0.015933752
0.011411309
0.012291908
0.0076930523
0.02139914
0.0036051273
0.017266989
0.026353717
0.045901537
0.019947886
-0.00695765
-0.012455463
0.01320827
-0.0074415207
0.012019634
0.026215434
0.009687901
0.008704543
0.031027913
0.0005476475
0.035998702
0.013663292
-0.011304498
0.0022258759
0.007877946
-0.011274934
-0.0036041737
-0.022425294
0.00880897
-0.024178863
0.0090248585
-0.011488557
0.016444683
-0.021314383
-0.08003628
0.007863045
-0.00024843216
0.03706622
-0.033263326
-0.04180062
0.019487858
0.020964742
0.0047661066
-0.03422129
0.010052443
0.002419114
-0.016141534
-0.026546955
0.017111659
0.02812314
-0.0056494474
0.014654994
0.02365613
-0.0030384064
-0.009293675
0.00052046776
-0.007354021
-0.030292988
-0.016691446
0.0060819387
-0.026066303
-0.056125402
0.008841515
0.0048089027
-0.021267653
0.017819643
-0.025640726
0.010198474
0.01044333
-0.018862844
0.004464984
-0.0028425455
0.020807028
0.0021449327
0.0035672188
-0.0112890005
0.009174943
0.0036525726
0.006070018
-0.0029258728
0.020128489
-0.0042158365
-0.02288127
-0.007060766
-0.018919349
0.018064499
0.007405162
-0.0010802746
-0.0012507439
-0.01836443
0.0070848465
-0.007311225
-0.011620879
0.020610452
-0.060852528
0.0017933846
0.0009524822
-0.009943008
-0.0007174015
-0.0063563585
-0.035675406
-0.0025577545
0.0013105869
-0.024739027
0.012085795
0.010477185
-0.0043421984
0.007745743

0.0075745583
-0.01281476
-0.008682489
-0.010931373
0.012456298
0.009939313
0.004840255
0.01446259
0.00029575825
0.018817306
-0.008194804
0.029968858
-0.0014743805
0.0014283657
0.00071823597
-0.0015255213
0.005257368
0.003030777
0.045513272
-0.013443112
0.007455468
0.015532851
0.0069475174
0.02744162
0.010484695
0.027169108
-0.036938667
-0.026329637
-0.0003746748
-0.008498669
-0.0010217428
-0.016002655
-0.01374197
0.02263391
0.011015534
0.007876754
0.0016739368
0.010835409
-0.015506506
-0.0041897297
-0.019949675
-0.013576865
-0.0025753975
0.033955812
0.0095027685
-0.011334777
0.005985141
-0.0071679354
-0.013589025
0.013220906
-0.013241529
0.011761069
-0.008026838
0.014550924
-0.009544849
0.0025209188
0.0027860403
0.013113022
0.008224845
-0.011263609
-0.027072787
-0.013982415
0.014670968
-6.3180923e-06
-0.013206124
-0.0028607845
0.015383959
0.010727406
0.010976315
0.012726426
0.0064440966
-0.013705969
0.015475392
0.01638937
-0.01858008
-0.009729624
0.013672829
0.017121434
-0.025315046
-0.0014622211
0.03837478
-0.005439639
-0.014256358
-0.0044845343
0.0019967556
0.039392233
0.009279728
0.038663745
0.0013303757
-0.0064997673
-0.030762553
0.014172554
-0.0072175264
-0.008081555
-0.04735446
-0.014371991
-0.0043063164
0.012639046
0.016461372
0.005105853
0.0031696558
-0.029860377
-0.008894682
-0.011992216
0.00011384487
0.0022591352
-0.0021442175
0.006428361
0.037662983
0.0018310547
0.012842536
-0.021098256
-0.022264361
-0.0077056885
0.043254375
0.038665414
-0.013945103
-0.013867855
0.056419015
0.0019005537
0.01199317
-0.0029404163
0.009965539
-0.0066639185
0.01486361
-0.008928895
-0.0017703772
0.007846236
-0.007829905
0.005106926
0.008470058
-0.020030856
0.02025032
-0.016719103
-0.015681982
0.0052189827
-0.00027000904
-0.029453635
0.0021728277
0.016702533
0.010176063
0.023988724
0.013862371
0.024512649
-0.0066360235
0.010205984
-0.00907588
0.021039128
-0.00029444695
-0.007860184
-0.004701376
0.0080451965
0.012573242
0.007694483
-0.0127232075
-0.006518364
-0.004829526
-0.015363336
0.0016269684
0.0108578205
-0.037071705
0.0006235838
0.025675654
-0.025725245
-0.012037873
0.005241871
-0.007102251
-0.018348455
0.016252995
0.006180167
-0.005290866
0.037207007
0.0072022676
0.01069808
-0.005431056
-0.014124393
0.01023531
-0.0030024052
0.014027119
0.005959749
-0.032616496
-6.151199e-05
-0.021072268
0.0013061762
0.010949254
0.0043547153
0.01185751
-0.011923194
0.008587122
-0.0075821877
0.0034677982
-0.016774654
-0.024754763
-0.0049431324
0.036887646
0.015674591
-0.013976693
0.03638339
-0.007436514
-0.0041382313
-0.00092482567
-0.0018422604
-0.006344557
-0.027312994
0.025771141
0.00414145
-0.016921043
-0.00037527084
-0.009345531
0.0019927025
-0.015385866
-0.012274623
-0.02592814
-0.0016828775
-0.0063773394
0.02737391
0.0044124126
-0.0041918755
0.008508921
-0.079192996
0.0145846605
0.02002716
0.011238694
0.029357553
0.03460598
0.018190384
-0.00014388561
0.0054289103
-0.029840231
-0.018359065
-0.03341973
0.02447915
0.013067365
0.019899964
-0.018877387
0.024571776
0.022892714
0.063904405
0.03788483
0.008816481
0.02566433
-0.00279212
-0.0043301582
-0.0024187565
-7.70092e-05
-0.00095796585
0.020287633
-0.007940054
-0.012479186
0.027166128
0.0037966967
0.0014548302
0.009221435
-0.01255846
0.0007457733
-0.0050406456
0.0073416233
0.0068827868
-0.043563843
0.000543952
0.04238975
0.010651112
0.013331175
0.006200433
0.015131712
0.008857369
0.0027810335
0.00057530403
0.03174627
-0.024104118
-0.015375137
0.034668088
0.026692033
-0.0037431717
0.012359858
0.020333886
-0.0016474724
-0.008112431
-0.0094201565
-0.003030777
0.00060999393
0.041455746
0.04059708
0.015484333
-0.03455293
0.003535986
-0.0013022423
-0.008140683
0.0098769665
-0.035298705
0.00095677376
-0.011010528
-0.0039992332
-0.01697898
0.0036462545
0.017363906
0.0017033815
0.027961016
0.004228711
-0.015238047
0.0054581165
0.007230282
0.022618532
0.03790295
0.02625513
-0.005230427
0.003604889
-0.033159137
0.038719177
-0.013397694
-0.012307048
0.039968133
-0.0031799078
-0.006176591
-0.0055873394
-0.0057610273
0.004774809
-0.0037983656
-0.0020341873
0.029992461
-0.0068502426
-0.006962776
-0.0012835264
-0.013671994
-0.02707231
0.018828154
0.013245583
-0.016051173
-0.002049446
-0.004397273
0.011728287
-0.01083076
0.009771585
0.014470696
-0.0013862848
-0.040410638
0.0013051033
-0.027258873
0.014019847
-0.0057817698
-0.011738062
0.0163486
0.01183629
-0.0012220144
-2.4199486e-05
0.009308934
0.018693924
-0.0065528154
0.005279541
-0.012850761
0.03568816
-0.0029109716
0.005861044
0.039918423
-0.0021717548
0.0027077198
0.02640891
0.004262209
0.008998156
0.009923816
0.031548858
-0.014929295
0.00028455257
-0.0011751652
0.007761836
0.054318905
0.003710866
0.007024884
-0.005272627
-0.015937686
4.7683716e-07
-0.0011036396
0.0029598475
0.01376462
0.009884477
-0.03921044
-0.032071352
-0.0033677816
0.022156358
-0.012645006
-0.034861326
-0.019455194
-0.0023789406
0.011626482
-0.03288591
-0.025104046
0.0024888515
-0.028609514
-0.041160464
-0.008227468
0.034295082
-0.024228692
0.029821634
0.007922888
0.0028363466
-0.03891754
0.0090096
-0.0054394007
0.005298376
-0.010209441
0.009506583
0.033031702
-0.03799641
0.022714496
0.0054451227
-0.0009058714
0.059588194
0.002629757
0.01011157
0.0068137646
-0.0025373697
0.020852923
0.0060116053
-0.033280253
-0.021149278
0.013287306
0.023750901
0.00084877014
-0.0058960915
-0.0007709265
-0.007130623
-0.039661884
0.014304876
-0.025428534
0.025098681
-0.01068902
0.0060213804
0.00331223
-0.010519743
-0.015811324
0.0033330917
0.0047314167
-0.002588153
0.0076076984
-0.016663313
-0.00571537
-0.009690881
0.0065066814
-0.008527875
0.0026327372
0.007828355
-0.012454987
0.011313558
-0.006904006
0.014825344
0.05648148
0.045148253
0.0054905415
0.02104783
0.005784273
0.010686398
0.013510585
0.028538823
0.024139047
0.024180293
-0.006247163
9.9658966e-05
0.04734397
-0.008379698
0.011228442
0.020466208
-0.029217124
0.015926003
0.018830419
-0.004180908
-0.0016387701
0.0147743225
-0.01204741
-0.016305923
-0.002903819
0.020713806
-0.036954284
-0.013541341
-0.03165257
-0.025041342
-0.014200687
-0.010527968
0.0042392015
0.005719304
-0.0013204813
0.022505999
-0.0061947107
0.012362957
0.0018843412
0.009517074
-0.0013957024
0.026443481
0.019778013
0.0070306063
0.03721881
-0.01719439
-0.024596095
-0.009734869
-0.011543512
-0.00022804737
-0.0020039082
-0.018484354
0.0034524202
0.027685761
-0.017814279
-0.0020120144
0.0069465637
-0.0028773546
0.006807685
0.018424869
0.009761691
-0.007540822
0.009662509
0.0037316084
-0.00048530102
-0.000762105
0.028279543

0.0014356375
-0.001449585
0.0017344952
-0.0027526617
0.0039259195
0.025714636
-9.095669e-05
0.015347958
-0.01791215
-0.006512642
0.005074382
-0.007115364
-0.015709758
0.009197116
0.0050930977
0.03671229
0.00035321712
0.0002528429
-0.008217454
0.0015459061
-0.0025957823
-0.001059413
-0.0019842386
0.0066571236
0.0065009594
0.020146847
-0.004768729
0.0015233755
0.013287187
0.0045666695
-0.0070266724
0.0024918318
-0.01343596
-0.0012921095
-0.021909356
-0.0013884306
0.0053776503
0.0047231913
0.0038269758
0.0037515163
-0.01579237
0.006866455
-0.004933119
-0.01584673
0.00094258785
-0.0025134087
-0.0073447227
-0.0025776625
-0.00692451
-0.011229277
-0.0014568567
0.0031216145
0.0070888996
0.009783149
0.0159626
0.0072540045
-0.00874114
0.00077307224
0.0020320415
-0.0074123144
0.0020182133
0.004581332
-0.000874877
-0.0059877634
0.016723394
0.004743099
0.010647893
-0.0002528429
-0.004457712
0.0030310154
0.014068723
-0.0066480637
-0.008974075
0.010294318
0.030224562
0.001947999
0.0023616552
0.047558308
0.0011792183
-0.0042957067
0.0043987036
0.020505667
0.009807587
-0.021057129
-0.03906238
-0.013492703
0.01226902
0.014337659
0.003929138
0.00095152855
0.00436759
-0.01311326
0.00074756145
0.016851902
0.012805104
-0.0058493614
0.0036917925
-0.012671351
0.014897823
-0.005615592
-0.001875639
-0.005801797
-0.008195162
-0.006016493
0.014879823
-0.0129106045
-0.0009934902
0.024327159
0.015315175
-0.0030976534
0.008664727
0.010694146
-0.015776992
0.015720963
0.00968647
-0.020898819
-0.010113955
-0.00038969517
0.019568324
0.057743788
0.024011016
0.02304387
0.015210152
0.010752201
-0.0013889074
0.026872873
-2.336502e-05
0.057993174
0.0055024624
-0.007190585
-0.010705113
-0.005913973
0.010503769
-0.007449627
0.015855193
-0.0037366152
0.0029337406
-0.002879262
0.009260774
-0.004315257
0.001393795
0.00977385
0.009423614
0.020473957
0.01680386
-0.006589532
-0.025518656
0.014915824
0.0019868612
-0.00528419
-0.003815174
0.0005787611
-0.0036580563
0.03932607
0.0031704903
-0.007936001
-0.0044281483
-0.00083351135
-0.00095665455
-0.0029172897
-0.011614442
0.0055128336
-0.006517291
0.012233615
0.010852098
-0.01754558
0.0092766285
-0.025831223
0.005665779
0.0028841496
-0.003045559
-0.0032000542
-0.013180137
0.00218606
0.018541932
-0.0074135065
-0.0057593584
-0.002679348
0.010872126
0.010038018
0.003164053
-0.0017906427
0.008751154
-0.022750258
0.007776141
-0.00623405
0.0015307665
0.003921747
-0.007332325
0.0058010817
-0.012168884
0.0036859512
0.008758783
-0.004054427
-0.0056881905
0.020288706
0.012279987
-0.0026179552
-0.011930585
0.020726323
-0.00848949
0.0025459528
-0.002064228
0.009853244
0.013241529
-0.0013238192
-0.004011512
-0.010490298
6.723404e-05
-0.013888955
0.012448549
0.003286481
-0.05143869
0.005175829
0.005476713
-0.0050393343
0.0008302927
-0.0038039684
-0.0012042522
-0.026683211
-0.01662159
-0.016951084
0.009087324
0.011715412
0.0052269697
0.0022113323
0.0021145344
0.013934374
-0.010091543
-0.004533887
-0.019879341
-0.0058261156
0.0041718483
0.0050008297
0.025243163
0.013356447
-0.0021288395
0.009317517
0.03422892
0.012217402
-0.017660737
-2.8014183e-05
-0.0133847
-0.008378029
0.009149075
0.012645721
0.0045992136
0.041012287
-0.008850813
-0.009418845
-0.014904261
-0.01430583
0.0104494095
0.025835752
0.017942786
0.0072820187
-0.0051870346
-0.005174041
0.0008639097
-0.034377337
-0.010511875
0.006478071
0.0004168749
0.009668112
0.005303979
0.031514883
0.00036370754
0.0067956448
-0.006184578
0.01171124
-0.00025963783
0.02443409
0.01424408
0.003992915
0.024321318
0.0033502579
0.0033861399
-0.00042247772
0.044795156
0.014872909
-0.018544197
-0.005387068
0.0032345057
-0.012158632
0.017198443
0.0035094023
0.018626451
0.017989397
0.00797987
-0.00032651424
0.0011312962
0.019769192
-0.0030549765
-0.0044448376
0.025287032
0.004436612
0.026813626
0.01986587
-0.0017757416
-0.0025912523
-0.0054671764
0.008685589
0.006103635
0.012058973
0.011481166
0.013600826
0.0070952177
-0.003840804
0.0055229664
0.003949523
0.009905815
-0.0021704435
-0.0076761246
0.009894133
-0.0009832382
0.009803891
0.009640932
0.015258074
0.006406784
0.021182418
0.010260582
0.005705714
-0.009748697
-0.027700543
-0.005709052
0.001753211
-0.0038987398
-0.0022095442
0.004684806
0.064900994
-0.0049165487
0.0018296242
-0.029642582
0.012287021
-0.002041459
0.010326505
-0.021577597
0.003965616
0.006921053
-0.010843992
-0.0014806986
0.012496233
-0.0053349733
-0.0104647875
-0.00075137615
-0.0067722797
-0.010441542
-0.014871478
-0.01543355
-0.012229681
-0.0055857897
-0.0075485706
0.0012052059
0.0039018393
0.0060533285
0.009489298
0.002729416
0.0044031143
0.003195405
-0.029442787
-0.0010783672
0.013056159
0.005997777
0.012045145
0.011359811
-0.004201412
0.012918711
-0.00038290024
0.0053850412
0.017577052
0.014567018
-0.08556664
0.012902498
0.0012130737
0.011810541
0.0018199682
0.005070567
-0.0026720762
0.00856781
0.0020569563
-0.009402633
-0.018355608
0.0033166409
-0.013894439
-0.004345417
0.020429492
0.00015807152
-0.0008304119
-0.008814096
0.008784413
-0.0002850294
0.0006400347
0.00172019
-0.0025945902
0.001364708
0.0057988167
0.0013567209
0.0114274025
-0.0027199984
0.026865244
0.012834549
-0.015558839
0.00015437603
-0.00093996525
0.016453266
0.020586371
0.003653288
0.007935643
-0.008404255
-0.0061221123
-0.000116467476
-0.002703786
0.006690979
-0.000109791756
0.0017894506
-0.0030351877
-0.009667158
-0.0045844316
-0.008893013
-0.0034037828
0.0028102398
0.00996995
-0.0061877966
-0.00068354607
0.010741711
0.046836138
-0.003477335
-0.0033003092
-0.011664748
-0.018085599
-0.016950011
0.0054228306
-0.00023794174
0.0039031506
0.012619615
0.0045131445
0.001491785
0.0024712086
-0.0044418573
-0.023210168
-0.0048736334
0.00034201145
0.0031780005
0.014400482
-0.003336072
-0.0034538507
-0.0010470152
0.00032126904
0.011343956
0.04228437
0.013229728
0.0039383173
0.006966591
-0.0017112494
0.012863159
0.03794563
0.0070997477
0.004309535
-0.00019919872
-0.021039367
0.030564308
-0.040847063
-0.024631023
-0.00219059
-0.0033175945
0.008022785
0.0019346476
0.0018343925
-0.0003298521
0.0007069111
-0.00031352043
0.014976025
-0.0010170937
-0.01772046
-0.0026109219
-0.0003066063
-0.00037312508
-0.0016419888
0.00092840195
0.011797547
0.0057337284
-0.0017130375
0.017630935
-0.007109165
0.00032019615
0.0087708235
0.00866878
0.009716153
0.0029268265
0.0043678284
-0.0045446157
0.009323955
0.0013582706
0.009408355
-0.041923642
0.0011328459
0.00037527084
0.010439634
-0.0010837317
-0.0015935898
0.012932539
0.0034624338
0.01255846
-0.016835213
0.004458308
-0.0042330027
-0.00061905384
-0.013260245
-0.018040657
0.0031354427
-0.0066138506
0.004880905

-0.0017482042
0.015916944
0.0049134493
-0.0018569231
0.01686716
0.008010507
0.0018782616
0.012019038
0.0016542673
0.005238414
0.0065125227
0.003721118
-0.0062549114
0.0052359104
-0.006115079
0.0024273396
-0.00037896633
-0.0006984472
-0.0006991625
0.01597631
-0.0030510426
-0.0021674633
-0.00038659573
0.0063797235
0.0025556087
-0.014555693
-0.0024980307
0.0047454834
-0.002416253
-0.0074874163
0.0067029
0.009198189
-0.003157854
0.003152728
-0.00031137466
0.0041457415
-0.0029683113
0.017249227
0.0043900013
0.0052158833
0.0031744242
0.0016235113
0.0029450655
0.016070604
-0.014315367
-0.0024707317
-0.002419114
0.026251554
0.008009791
0.010422468
0.014075756
0.005172491
0.008113027
-0.0009676218
-0.007889867
-0.0017368793
-0.0011179447
-0.0009713173
0.003001213
0.00014150143
-0.0022833347
0.004917264
0.006081581
0.0054534674
0.00080001354
0.014725089
-0.002794385
0.0046590567
0.00095295906
0.002264738
-0.0018676519
0.008457303
-0.0043702126
0.0074431896
-0.0012127161
0.0036803484
-0.0009124279
-0.0012454987
0.00026595592
0.0038362741
0.003777504
0.000846982
0.010745883
-0.0017508268
0.0042544603
0.0038255453
-0.002711773
0.004203081
0.0059622526
0.008436799
-0.007616639
-0.002334118
-0.0017151833
0.00086450577
-0.00517118
-7.05719e-05
-0.001398325
0.0030437708
0.0018714666
0.0063579082
0.0009919405
0.0031782389
0.0040647984
0.0075218678
0.002690196
-0.0007045269
-7.998943e-05
-0.0017398596
0.006289482
-0.0061781406
0.007562399
-0.0030697584
0.0021127462
-0.00025749207
0.011978388
0.010897517
0.005132675
-0.008571148
0.019275188
-0.0007138252
-0.015424967
-0.0015903711
0.0021269321
0.002767086
0.0071092844
0.0019392967
0.015493393
-0.0011703968
-0.001688838
0.0010011196
0.0022227764
-0.005643964
0.0014801025
0.002290368
-0.00225389
-0.0030696392
0.0016305447
0.0017707348
0.009777546
-0.0016778708
0.0023219585
-0.0013691187
0.007840157
0.0008690357
0.0075222254
0.0004413128
-0.0018942356
0.010940194
-0.0066560507
-0.010479212
0.00066280365
0.005326748
-0.0014597178
-0.0036919117
0.0060374737
-0.0030508041
0.0009768009
0.02096796
0.0123028755
0.011551738
6.1035156e-05
0.0014996529
-0.00095534325
0.0040153265
0.009349585
0.002108574
-0.0023875237
-0.00134933
0.0035742521
0.010911822
0.00041759014
0.0018525124
-0.0047711134
-8.261204e-05
-0.0027177334
0.0034555197
0.0031136274
0.0010918379
0.0023953915
0.00089144707
-0.00035440922
0.0027132034
0.0001424551
-0.000726223
0.009089589
0.002726674
0.0028265715
0.02320242
-0.0016272068
0.014623523
0.01770401
0.011395812
-0.0015045404
-0.010491252
0.00412488
0.000308156
0.00035595894
0.0072107315
0.0043172836
-8.165836e-05
0.008327484
-0.004292488
0.0034220219
-0.010427833
-0.0019824505
-0.007342577
0.0010205507
-0.007676482
-0.005197525
0.001052022
-0.0064241886
-0.00054883957
-0.0017409325
0.025714636
-0.002115965
0.002812028
7.069111e-05
-0.0010892153
0.008277893
-0.001335144
0.0013686419
0.008656979
-0.0049334764
0.001762867
-0.00082814693
0.00047767162
-0.0050592422
0.0017741919
-0.011699319
-7.033348e-05
-0.0020325184
-0.0037584305
-0.005482197
-0.0012849569
0.005100012
0.003460288
0.013336062
-0.0039629936
-0.0033934116
-0.0008069277
0.008442283
-0.003818512
-0.011984944
0.0065299273
-0.0010848045
-0.0005071163
0.00070106983
-0.0015121698
0.007935405
-0.0025012493
0.019310594
-0.0027743578
0.008494735
0.002796173
0.009710312
0.012696624
2.4557114e-05
0.0036623478
0.0039510727
0.0067226887
-0.005226493
0.003988266
0.008967161
-0.0050293207
0.00067973137
0.0018076897
-0.0015149117
-0.0018236637
0.0058751106
-0.005689025
0.00457108
0.0014132261
0.00026142597
0.001734376
0.001388073
0.0011689663
0.0043212175
0.029196978
0.0002465248
0.0028903484
-0.0010905266
0.0024353266
-0.0027846098
0.0013177395
-0.0023345947
0.004255414
-0.0015970469
-0.003906846
0.0014835596
0.01617074
0.0043331385
0.009468079
0.0005823374
0.0007747412
0.005826235
-0.00082719326
0.0052536726
0.010181904
-0.006320238
0.0063585043
0.004531145
-0.0017212629
-0.007702589
0.0021054745
-0.0001333952
0.0077548027
0.005226493
0.005995631
0.019892693
-0.0023165941
0.010916948
-0.00051546097
-0.006973624
0.0074025393
-0.00058591366
-4.2676926e-05
0.008246779
-0.0006824732
0.014184713
0.0008573532
0.00015366077
-0.010453701
0.007638335
-0.0010935068
0.004112363
0.0028961897
0.00065100193
0.0014014244
-0.013281703
-0.013819575
0.0044099092
-0.0004310608
-0.0065169334
0.009588838
0.01026237
0.0072420835
0.023321271
-0.004247546
-0.011298656
0.000385046
-0.0013746023
0.0069025755
-0.0046651363
0.0006670952
0.00092053413
-0.0014498234
-0.0017234087
0.0013325214
-0.006327629
0.004714012
0.01318419
0.0037236214
0.00039303303
0.0024113655
0.0011613369
-0.0020833015
-5.1021576e-05
0.010408163
0.000269413
0.0035210848
0.0073765516
0.015947223
0.00033128262
0.0022736788
0.0063655376
0.009062648
0.0085392
0.01471138
-0.002552867
0.006246805
0.005458951
-0.0002629757
-0.008696437
0.011053562
-0.00047647953
0.009525776
-0.0039298534
0.010792971
0.0029940605
0.009958386
-0.0010719299
-0.0022245646
0.002866745
0.0018801689
0.0083630085
0.010233164
-0.00055861473
-0.0027071238
0.0047160387
-0.0033810139
0.001511097
0.00047910213
-0.004216194
0.0043200254
-0.0013415813
0.001248002
0.00564003
-0.0011515617
-0.003948331
0.0056393147
0.00206995
-0.0015918016
0.0007069111
0.0006660223
-0.0010300875
0.007856846
6.03199e-05
-0.004176259
-0.0010284185
4.5776367e-05
-0.0032417774
0.0075622797
-0.0055253506
-0.0055760145
-0.0002579689
0.008140445
0.007713318
-0.0049642324
0.006985545
-0.004880309
-0.0059666634
-0.0023378134
0.0014861822
-0.0021657944
-0.005155921
0.0031552315
-0.007008195
0.005153775
0.01383543
-0.004445076
-0.005720973
-0.0016231537
-0.0013411045
0.0023165941
0.0036969185
-0.007813573
-0.00072300434
0.009702206
0.0040056705
-0.0050063133
0.011206508
0.011489511
0.006569624
0.004003525
0.0044802427
0.004361868
0.002420187
-0.0009828806
-0.0011833906
0.0015355349
0.0052821636
0.007282853
0.012318611
-0.00093209743
-0.023732066
0.004555464
-0.0011630058
0.0053493977
-0.0078012943
-0.0073144436
0.00321877
0.0019661188
-0.006887555
-0.0007624626
0.003790021
-0.002488494
0.0076152086
-0.01786673
-0.002171278
0.004495144
-0.0005713701
0.0004683733
-0.005596876
-0.0015517473
-0.008120298
0.00018811226
0.0022127628
-0.0006349087
0.0045740604
0.005811572
-0.00071144104
0.003025055
6.878376e-05
-0.0054713488
0.0070923567
0.006226659
-0.0038237572
0.0033732653
0.012150884
-0.004132867
-0.0015717745
0.00096702576
-0.003303051
0.0046349764
0.0040234327
0.0031323433
0.00032281876
0.007459283
0.003870964
0.009676933
0.001666069
-0.00059723854
-0.00030601025
0.0029087067
-0.0015724897
0.0018745661
0.0061011314
0.0012997389
0.0070883036
0.0018025637
0.0054990053
-0.0030874014

0.001995802
-0.0043543577
-0.0015391111
0.0026606321
0.0008699894
0.00049197674
-0.0066990852
-0.00044453144
0.0013500452
0.00023901463
0.00875628
-0.0023608208
0.0044978857
-0.0034252405
0.0027222633
-0.008325934
-8.368492e-05
-0.0023919344
-0.003121972
-0.0008660555
0.0016057491
-0.0010789633
0.00023436546
0.0020377636
0.0025144815
0.0046322346
-0.0024034977
-0.00050115585
-0.0017031431
-0.00030195713
0.0009377003
0.0074572563
0.0038614273
-0.0031882524
-0.0043935776
0.0007556677
0.0074596405
0.0058482885
0.0035920143
-0.0031086206
0.0015752316
0.0004299879
0.008642554
0.0055212975
0.00030255318
0.001306653
0.00089788437
0.0032742023
0.00026285648
0.012529492
0.0017362833
0.008009791
0.0027793646
0.002728343
0.0011399984
-0.0035908222
-0.00015223026
0.0013458729
0.0013495684
0.00054204464
0.009225011
-0.004180312
0.0009201765
0.0041668415
0.012949705
-0.0011608601
0.00122118
-0.0035341978
0.000782609
0.0007419586
0.0015354156
-0.0020991564
0.004504442
-0.0053352118
0.002551794
0.0065196753
-0.0024237633
0.0017631054
0.003108263
0.004782319
0.0007739067
1.7762184e-05
0.00024938583
-0.0005195141
-0.00036215782
-0.0040061474
-2.5749207e-05
0.00079774857
0.0038733482
0.0037733316
0.01163733
0.0040431023
0.006189227
-7.7843666e-05
0.0016967058
0.0027688742
0.0032835007
0.010608196
0.0023063421
0.0059888363
0.0037231445
0.0020928383
0.0025544167
-0.0003963709
-0.00019288063
-0.00028681755
0.0020252466
0.00914371
-0.00024557114
0.00809896
-0.00225842
-0.0009031296
0.0019260645
0.008186698
-0.0032639503
0.0064888
-0.000116705894
-0.0052444935
-0.00038814545
0.0017654896
0.0015995502
0.003914714
-0.0032573938
0.0014389753
0.0075742006
0.00077462196
-0.0047858953
0.0028719902
0.0027099848
0.0029730797
-0.0022642612
0.010215521
-0.010872006
0.00089609623
0.011486888
0.006570697
0.0018600225
-0.0024641752
0.0015802383
-0.002031207
0.008385658
-0.00033962727
-0.000349164
0.0011886358
-0.0034092665
0.0066314936
-0.00033307076
0.0037316084
0.0022642612
0.0046224594
0.009624839
-0.0017073154
0.0033745766
0.0036028624
-0.0011152029
-0.0010106564
0.0033409595
0.0058783293
0.0031489134
-0.0004799366
0.003818512
0.007564783
0.009459972
-0.00036132336
0.0030465126
0.0002605915
-0.0008752346
0.0009627342
-0.001454711
-0.0070853233
0.0022933483
0.00034332275
-0.0013302565
0.0022605658
0.007372141
0.002207756
0.0030691624
-0.00013077259
-0.00073349476
0.0050235987
-0.0027770996
-0.002004981
-0.00047171116
0.0014392138
0.0011028051
0.018643498
0.007456064
-0.0014922619
-0.0024431944
-0.0006955862
0.0034552813
0.0025662184
0.001180768
-0.003100276
-0.0022668839
0.0010721684
0.009493828
-0.00192523
-0.0012149811
0.0025396347
0.0031507015
0.0037111044
0.00022983551
-0.0019880533
0.013741016
0.0055624247
-0.001595974
0.0011667013
-0.001514554
-0.00029969215
0.0042204857
0.009500623
0.005755782
-0.008471608
0.00022673607
-0.0008034706
0.007952809
0.0020945072
0.0012278557
-0.0031734705
0.006133318
0.0012760162
0.001791954
0.0019204617
0.0005835295
0.005843878
0.00029730797
0.005885601
-0.0027608871
0.0040330887
-0.0009970665
-0.0011097193
0.0008523464
-0.00080156326
0.0007542372
0.003959298
0.0017808676
-0.0002322197
-0.00026893616
0.006052017
0.0087605715
0.006572485
-0.002789259
0.0029240847
0.004949689
0.0047682524
0.001719594
0.00017690659
-0.007483363
0.0022562742
0.009311795
-0.00083243847
0.002780795
0.0022906065
-0.0007916689
0.00081801414
0.0043467283
-0.0025889874
0.0006159544
0.021677852
0.0027177334
0.0038170815
0.0049597025
-0.004787445
0.00062799454
0.01805973
0.011831284
0.0020171404
-0.0004940033
0.0076714754
0.0006222725
0.0012332201
-0.0014129877
0.0017011166
3.8146973e-06
0.0028070211
0.0002784729
0.0016940832
0.002985239
-0.0004594326
0.0007644892
0.0012996197
9.775162e-06
-0.0015609264
0.0015093088
-0.001172781
-0.005110979
0.003180623
0.010106683
0.0018830299
0.0075011253
0.005838752
5.9723854e-05
0.0004595518
0.00185287
0.010554671
0.0040234327
0.008913875
0.0019694567
-0.0029275417
6.747246e-05
0.009725094
-0.00043475628
0.0018736124
0.00645411
0.002014041
-0.0005185604
0.0031963587
0.0032178164
-0.001655221
0.0033994913
0.0077625513
0.005671859
0.005650878
0.0058270693
-0.001447916
-0.0029753447
0.009429455
0.0027976036
0.0047935247
-0.0002605915
0.0054671764
0.0050582886
0.0033185482
-0.00068724155
-0.003024459
0.0082166195
0.0059070587
0.003416419
0.0077904463
0.00011086464
0.0005631447
9.453297e-05
0.0041092634
0.0026738644
0.0046544075
0.00042200089
0.0012729168
-0.0036315918
0.0071507692
0.0006160736
0.0032430887
-0.003390193
0.00028204918
-0.00085246563
-0.00048482418
0.0014315844
-0.0005366802
-0.006349206
0.0027627945
-0.0021811724
0.006420374
-0.002350688
0.0034490824
-0.005141616
-0.0047142506
0.0011162758
0.00013959408
0.0023508072
0.007123947
0.0007208586
0.0024802685
0.0012794733
0.0036011934
0.009813905
-0.002665162
0.0052570105
0.0025992393
-0.0005595684
0.00073480606
0.0014586449
0.0007175207
-0.0041691065
-0.00067198277
-0.0008369684
-0.0004261732
-0.0041188
0.004070282
0.0022044182
0.002671957
-0.0017272234
-0.0012435913
-3.8981438e-05
-0.0009278059
0.00077080727
-2.2768974e-05
-0.0003181696
-0.0017944574
5.853176e-05
0.02144897
0.006852627
0.013656259
0.0017540455
-0.0028407574
-0.0014131069
-0.00094747543
0.0031166077
0.0024901628
0.00021207333
-0.0002065897
7.510185e-05
0.0003387928
0.004332304
0.007988334
0.0023458004
0.002272606
-0.0011320114
-0.0074983835
-0.0013349056
0.004410267
0.003484726
0.00091540813
0.005261779
-0.004368067
0.006098628
0.0046532154
-0.006433964
0.008459568
0.0030113459
0.005296707
0.008791089
0.0023909807
0.006200671
0.00096976757
0.0034635067
0.0022171736
0.0010014772
-0.00030767918
0.0045633316
-0.0004247427
0.0058273077
0.0030657053
0.013222098
0.0143613815
-0.0008318424
0.012493014
0.00068199635
-0.0037311316
0.0015457869
-0.0021600723
-0.0013056993
0.0028316975
-0.0001604557
-0.00032496452
-0.012253404
0.01798582
-0.0029375553
-0.003498435
-0.002400279
-0.0007354021
0.0027189255
-0.00022172928
-0.00032794476
-1.9550323e-05
0.0019282103
0.00308609
0.00015735626
-0.00021874905
0.0049614906
-0.0012490749
0.0031701326
0.012271762
0.003953576
0.004839778
0.00082969666
0.003697276
0.009689927
0.0069254637
-0.0017342567
-0.0025390387
-0.0027076006
0.012672067
-0.004540324
0.009302139
0.0069738626
0.011688113
0.006813884
-0.0017638206
-0.00093615055
4.2676926e-05
0.0046714544
0.0013302565
-0.005549431
-0.0003350973
0.00029313564
-0.0004299879
0.002621889
-0.0005837679
0.0018950701
0.00051379204
-0.0043900013
0.000790596
-0.0015023947
-0.0022763014
0.002067566
0.002337575
0.004851222
-0.001992941
0.0007971525
0.0057104826
0.0015048981
-0.0031850338
0.0031200647
0.0075747967
0.009129405
-0.00012373924
-0.00032663345
0.0031684637
0.007350683
0.008602977
0.0028859377
0.002805829

0.012650609
0.0010174513
0.008682132
0.018881083
-0.005793214
0.004783511
0.000621438
0.010221362
-0.0021464825
0.0066850185
0.0022530556
0.0027544498
-0.005643487
0.0054661036
-0.0024892092
0.018263102
-0.005494356
-0.0021018982
-0.0010733604
-0.0059462786
-0.002008438
-0.0012044907
-0.0012406111
0.019965887
0.0075855255
-0.0072746277
-0.0035678148
0.0019171238
0.0053755045
0.0018302202
0.0018157959
0.0031687021
0.0032008886
-0.0019971132
-9.4771385e-05
-0.0051236153
-0.0020352602
0.0017640591
-0.0007122755
0.0032975674
-0.0063049793
0.00036478043
0.0005018711
0.002040863
-0.0016204119
0.012497783
0.0025156736
-0.0026454926
0.035649896
-0.013641834
-0.0034520626
0.014508605
0.0013380051
-0.00053215027
-0.0032013655
0.0022747517
0.005948782
0.0034452677
-0.0056687593
0.00094139576
0.0014587641
0.009525418
0.0011291504
0.0071600676
-0.00056672096
-0.0056917667
0.0018606186
-0.0011341572
-0.0011978149
0.005656123
0.005069375
0.012210131
0.013096094
-0.002734661
-0.0066565275
0.00043046474
0.00074386597
0.0014476776
0.005703807
-0.0048930645
0.0038727522
-0.0029039383
0.0020973682
0.0024710894
-0.008012891
-1.3947487e-05
0.009645343
0.0005698204
0.009002686
-0.0022534132
0.0010055304
-0.0006699562
-0.0012660027
0.0045642853
-0.0033408403
0.006028652
0.0015463829
0.0056672096
-0.0022177696
0.0101879835
-0.006705284
0.010750055
0.002506256
0.004389286
0.0025666952
0.0011285543
0.0031267405
-0.0006889105
0.0015547276
0.0052517653
0.0007067919
8.189678e-05
0.007918477
-0.007421732
-7.581711e-05
-0.000808239
0.00403893
-0.0032989979
-0.0054552555
-0.005818963
0.00016748905
0.002679944
0.0022479296
-0.007798195
0.01248765
-0.0006135702
0.006592393
0.008154392
-6.4492226e-05
0.016935587
0.0009138584
0.0073678493
-0.0013285875
0.0045882463
0.001327157
-0.002146244
-0.004689336
0.015119433
0.0031795502
-0.002195835
-0.0012317896
0.014577389
0.0035153627
0.0012145042
0.008129835
-0.0011057854
-0.0028244257
0.008005142
0.0017037392
-0.0071965456
-0.0020555258
0.01614976
-0.0004671812
0.0034960508
0.012678146
0.00016367435
0.0076493025
0.01204145
-8.893013e-05
0.0007133484
0.0063456297
0.00034809113
-0.01789844
0.021404147
0.008449793
-0.0052107573
0.0018523932
-0.0031286478
0.0121665
-0.0019360781
0.0013828278
0.0068068504
-0.00026524067
-0.0042384863
0.0005235672
-5.567074e-05
0.023397565
0.0053454638
0.0032682419
-0.0015968084
0.0012763739
-0.006380439
-0.00072836876
-0.0021800995
-0.0039709806
0.001663804
-0.00015842915
0.0063586235
-0.0007004738
-0.0069156885
-0.0026118755
-0.002715826
-0.00032925606
0.00065267086
0.0007725954
0.007953644
-0.0013779402
0.0065021515
0.009832859
0.008960605
-0.0056557655
0.002125144
-0.002087593
-0.0057741404
0.011573672
-0.0024808645
0.010217667
-0.0060698986
0.0014606714
0.006921768
0.010088325
-0.0020054579
-0.0027018785
0.003012538
0.009913325
0.0019919872
-0.011585712
0.004842162
0.005412936
-0.00034093857
0.0076328516
-0.00047051907
0.006831765
-0.0013296604
0.0014423132
-0.004383683
0.0018131733
-0.007366538
0.0003875494
0.0005118847
0.005683422
0.010493398
0.0068706274
-0.0018484592
0.00020432472
0.0063871145
0.0029741526
-0.002230525
-0.0026384592
0.002882123
0.007864714
-0.0042010546
-0.0004889965
-0.0020154715
0.0022355318
-0.0005174875
0.021224976
0.0019125938
0.0023949146
0.0050833225
-0.0031397343
-0.0019564629
-0.004262328
0.014229417
-0.005976796
0.002777934
0.004499197
0.0012726784
0.014223576
0.008458018
0.012205124
4.4345856e-05
0.0032531023
-0.0081983805
0.0075668097
0.008818626
0.005457163
-0.0037140846
-0.0008406639
-0.005315542
0.0021618605
0.002957821
0.007945657
0.002967596
0.0007414818
0.009994864
-0.0051808357
0.00021243095
-0.001755476
0.0019837618
0.007918358
-0.0023745298
0.013449907
0.00018107891
0.0042532682
-0.00012469292
0.005670309
0.006537318
0.015001655
-0.009041548
0.009022713
-0.0022722483
0.0016748905
0.0011415482
0.0020742416
0.004691243
-0.00062453747
0.0018436909
0.0069926977
0.001401186
0.0058277845
-4.9233437e-05
0.0076756477
-0.002329111
-0.0018508434
-0.00012505054
0.004963279
-0.006097436
0.006913781
-0.014145136
0.0057200193
-0.0014787912
-0.004506469
-0.0005646944
-0.00044310093
0.0033500195
0.0038591623
-0.004478216
0.00075638294
-0.0070824623
0.0007389784
-0.00061798096
0.0042737722
-0.00091934204
0.0039647818
0.0024341345
-0.004851818
0.014673591
-0.0048371553
0.00795269
0.007589817
-0.0037369728
0.00096583366
0.009946227
0.0033652782
0.0011496544
-0.0044921637
0.0065226555
0.0016362667
0.0027122498
0.0020370483
0.0026746988
-0.004906416
-3.8266182e-05
0.0020273924
2.0861626e-05
0.009601474
0.0055761337
-0.00042760372
0.0033808947
0.0036189556
0.01357615
0.0001989603
-0.0011943579
0.0012327433
0.008974791
0.003088951
-0.0040638447
0.0061364174
0.003939748
-0.0005867481
0.0049147606
0.010478854
-0.011158347
0.00050354004
0.004817724
-0.0009895563
0.008130908
0.013312697
-0.0031535625
0.0016834736
-0.0020127296
-0.0038180351
0.002503872
-0.0055246353
-0.0052086115
0.0039479733
-3.4689903e-05
0.0070346594
-0.0021464825
0.0010960102
0.0008280277
0.008304119
0.007338524
0.011542797
-0.00054883957
-0.0037375689
-0.0051933527
-0.012515545
0.003327489
-0.0025875568
0.02165997
0.0006490946
0.001187563
0.0145481825
0.0038952827
0.0045517683
0.0034666061
-0.00050115585
-0.0034079552
-0.0022587776
0.0021986961
-0.011107922
0.010655999
0.00075757504
0.005441785
-0.0034763813
-0.0006996393
0.0009499788
-0.0026800632
-0.0036796331
0.00016283989
0.0033134222
-0.0044044256
-0.0012227297
0.0016697645
-0.0012735128
0.0030941963
0.0015432835
0.0038220882
-0.00972271
-0.0028333664
1.2755394e-05
-3.695488e-05
0.0005017519
0.010196567
-0.0023440123
-0.0042614937
0.0011992455
0.004168391
0.0019290447
-0.0005121231
-0.00067055225
0.0072681904
0.0014599562
0.0026837587
0.00040328503
-0.0009467602
-0.004290223
-0.0056450367
0.0027678013
-0.0073091984
0.004703641
0.0039269924
0.0022771358
0.0016415119
-0.0029298067
-0.0010956526
-0.0013961792
0.007040739
0.0046206713
0.001928091
0.010297656
0.007833004
-0.0005875826
-0.000101327896
-0.007008791
0.0032544136
0.009104133
0.0005532503
0.023948073
-0.0028995275
0.016069531
0.00017368793
0.010797858
-0.0011719465
-0.0044966936
0.002916932
-0.0021862984
-0.0010304451
0.011144161
-0.008747458
-0.0018515587
-0.001965046
0.007632613
0.0014363527
-0.0008749962
-0.0018503666
-0.009590268
-0.0038301945
0.004909992
0.0026817322
-0.0020301342
-0.0052769184
0.009367704
0.003965974
0.00019621849
0.0012438297
-0.00085651875
0.002765894
-0.005182147
0.0044965744
0.0028719902
-0.00037431717
0.00010585785
0.0006443262
-0.005538225
-0.002411604
0.0022131205
0.011301041
-0.002714038
0.0028313398
-0.011023641
0.012536764
0.01478374
0.008602381
-0.0003876686
0.0022755861
0.029664516
0.0024262667
0.0019687414
0.0005398989

0.42312515
0.49562752
0.3896209
0.39505303
0.3892231
0.38243496
0.36455488
0.39968562
0.48078346
0.40477812

