0.04450965
0.12424886
0.015001535
0.005245924
0.07437873
0.035984397
0.04983318
0.032765985
0.13176537
0.01983869
0.25805724
0.11497593
0.09455454
0.06104493
-0.028546214
0.007690668
0.049848795
-0.051039696
0.21514297
-0.08991575
0.008154869
0.07004583
0.07232821
-0.031663537
0.02098918
0.05321467
0.122991085
0.027511716
0.14687395
0.005165696
0.09237182
0.07882142
0.06075096
0.126189
0.010709524
0.021890521
0.019365907
0.06004536
-0.011595011
0.07339978
0.040878296
0.04061508
0.021381736
0.295946
-0.012815475
0.13926232
-0.016977549
0.08772349
0.07648873
0.057925582
0.117687345
0.013577461
0.03945458
-0.007884979
0.051414013
0.008389592
0.062111616
0.056063414
0.052780867
0.018578053
0.007870436
0.0327003
0.011790037
-0.040690064

0.013072014
0.027597904
0.008419514
0.00047504902
0.09662688
0.08718455
-0.032979608
-0.028258443
0.17679918
0.052978158
0.008846641
0.010852814
0.033744812
0.0010828972
0.21970272
0.044753313
0.03627217
0.0033499002
-0.0025734901
0.05525136
0.05771458
-0.0037209988
0.04762137
0.10985458
0.020733237
0.122599125
0.054316044
0.039552927
0.05000949
0.38496578
0.04059446
0.026632428
0.036946297
-0.00043582916
0.017476201
0.00929153
0.15259421
0.10760987
0.06041658
0.022047639
0.0065100193
0.012923479
-0.0081214905
0.04886043
0.09336579
0.109451294
0.13141811
0.04124701
0.094723105
0.06380248
0.059932828
0.069235206
0.15078115
0.11882055
0.007860899
0.020012379
0.09253681
0.025786877
-0.0016852617
0.060577393
0.08204198
0.03455341
0.0042903423
-0.0060218573

0.046588182
0.01951158
0.03910029
0.03430164
0.0040894747
0.032503843
0.034444332
-0.0009794235
-0.08456266
0.020787835
0.08348489
0.014040232
0.0056945086
0.0008137226
0.0023075342
-0.022764325
0.006744027
0.035960436
0.07969284
0.062354088
0.0067378283
0.043030024
0.052464128
0.041526794
0.034626245
0.0071827173
0.03900397
-0.020185947
-0.0002733469
0.07463634
0.009669781
0.023427367
0.028392553
0.054963112
0.00044679642
-0.013030052
0.030721664
-0.0006701946
0.015884638
0.020500898
0.033664823
0.0118813515
0.0376091
-0.00086057186
-0.00081157684
0.038078904
0.04646063
0.037213326
0.05323851
0.116604805
0.03321314
0.0058122873
0.04564011
0.039602995
0.034338713
0.02070105
0.027238727
0.03924942
0.036964536
0.0077204704
0.0771209
0.045309544
0.015769362
-0.004492879
0.0017453432
0.014971018
0.002483368
0.009880543
0.0009441376
0.08655906
0.032815695
0.03105092
0.0032134056
-0.010875583
0.017611623
0.10245836
0.052213907
0.047810078
-0.002153039
0.02960205
0.028250456
0.027819037
0.03612101
-0.024603486
0.012408853
0.024148583
0.00731647
0.035258174
0.04141736
0.0008068085
0.023331523
0.034228325
0.047334433
0.07557905
0.022223115
0.003707528
0.026598692
0.008298874
0.026197791
-0.0013356209
0.045138955
0.03393233
0.017992973
0.107635856
0.07214379
0.030953884
0.026602387
0.055599928
0.0009435415
0.013465524
0.0067454576
0.013506293
0.090735555
0.034915566
0.04087627
0.034023523
0.0014702082
0.008076072
0.0042049885
0.0016156435
0.029334784
0.07871556
0.008421063
0.017071128
0.031592846
0.032738328
-0.029324293
0.07488942

0.0042511225
0.034719467
0.03232217
0.0037529469
-0.0028424263
0.019306779
0.006873846
0.0056073666
0.012861013
0.0023872852
0.038058043
0.06630731
0.039479017
0.04778707
0.019038558
0.025026083
0.023838997
0.02280271
0.031900644
0.017253518
0.031095862
0.022627711
0.026387215
-0.0053161383
0.01747334
0.006421447
0.040487766
0.020410419
0.014039516
0.068629146
0.021870732
-0.0053293705
0.08464599
0.05061972
0.039812922
0.027921557
0.033478618
0.0071133375
0.050592303
0.022732258
0.041558385
0.016215205
0.008752108
0.045175076
0.046922803
-0.0144325495
0.036619186
0.041593075
0.038640738
0.0064132214
0.03533864
0.029783368
0.037851095
0.023017883
0.015966892
0.040738463
0.05530691
0.032197833
0.0144559145
0.021777391
0.012723088
0.008285046
0.046943903
0.040866375
0.0665375
0.033136845
0.0034765005
0.054231524
0.0024007559
0.00621891
0.06824958
0.025413156
0.018501282
0.0396502
0.022894382
0.0022617579
0.013916135
0.0031069517
0.03423059
0.030261755
0.03995979
0.056848645
-0.00224185
0.012650371
0.032387853
0.026992202
0.04989624
0.050600052
0.037110806
0.023349285
0.028792262
0.066121936
0.02718246
0.016548276
0.024675608
0.01999557
0.014304042
0.03576958
0.012215853
-0.0022388697
0.03671229
0.019595861
0.023068666
-0.0068204403
0.02930355
0.04530275
0.031622887
0.06501043
0.038725853
0.008441329
0.022882342
0.010174274
0.021338582
0.0028113127
0.026777983
0.052875876
0.057358146
0.020024538
0.018058062
0.07017541
0.017968059
0.0022217035
0.020410657
0.0004092455
0.005228162
0.039862394
-0.026501656
0.032054186

0.022382855
0.01868534
0.0058294535
0.0032356977
0.0061992407
0.055651665
0.0029871464
0.011405349
0.034972668
0.028641224
0.024423122
-0.030872583
0.027740598
0.026568055
0.0042871237
0.0075609684
0.010978341
0.00064766407
-0.0017687082
0.028084278
0.01979804
0.052752018
0.0069693327
0.005309224
0.004316807
0.012274146
3.0875206e-05
0.0036787987
0.012054205
0.022197127
0.0014104843
0.012708783
0.013342261
0.029987335
-0.0025572777
0.023204923
0.005684972
0.0009100437
0.0027430058
0.005855918
-0.00025331974
0.007983446
0.00867033
-0.007779479
0.01416719
0.0068274736
0.003194213
-0.012131572
0.0029700994
0.01842153
0.0038146973
0.011125922
-0.0018045902
0.003764987
-0.00078964233
0.0033284426
0.04670441
0.045159817
0.008442998
0.046120167
0.015298367
0.00037193298
0.0070557594
0.029385686
0.030573845
0.00660038
0.014970064
-0.0015940666
0.0123176575
-0.0020713806
0.0025930405
0.012727737
0.03134775
0.015992045
0.0081756115
0.019526243
0.038343906
0.02326572
0.0027624369
0.025737643
0.013888001
0.010624886
0.012970686
-0.00085675716
0.0065864325
0.005025029
0.02112639
0.0148973465
0.03713131
0.0054836273
0.012227893
-0.0013405085
0.008630991
0.027674556
-0.0033855438
0.014324069
0.009549856
0.00879395
0.027051091
-0.0054183006
0.019399166
0.011625648
0.022502542
-0.0032587051
0.008938432
0.0024348497
0.009589076
0.0075906515
0.027248144
0.005541444
-0.010247707
0.0162704
-0.0076596737
0.020497918
0.0044600964
-0.029894114
0.02737236
0.008746505
0.0070439577
0.032693624
0.008596301
-0.008338213
0.023960471
0.02812028
-0.023503423
0.026321769
0.023314834
0.016317606
0.036549926
0.0051110983
0.005053282
0.0033527613
0.03169906
0.008045077
0.019211888
0.03579831
0.0010806322
-0.0062232018
0.009360909
0.0061621666
0.036763668
0.009962916
-0.003404379
0.027817607
0.008704424
0.007184148
0.015283108
0.021220803
-0.0069788694
0.0067778826
0.014563441
0.004655361
0.030899048
0.019953132
0.027770162
0.017792344
0.01251483
0.0036236048
0.010939002
0.0072648525
0.00027537346
0.0090709925
0.017933369
0.017727852
0.017359018
0.022787213
0.0031385422
0.012341619
0.026614428
-0.0071475506
0.02158773
0.02189684
0.0071793795
0.03492987
-0.0035409927
-0.00060486794
0.025495768
0.015492082
0.02611208
0.04619479
0.01801014
0.022767067
0.019101381
0.03252983
0.023836374
0.018910766
0.0001705885
0.015348554
0.02077365
0.008038998
0.015749335
-0.0018014908
0.015330553
0.02737844
-0.0067663193
0.010102749
0.020509124
0.001513958
0.002032876
0.023302913
0.02017665
0.0055309534
0.010007739
0.017709374
0.0006508827
0.012049675
0.020562172
0.013701081
0.033299685
0.007051587
0.012209177
0.025876522
0.0025516748
0.040082812
0.010404468
-0.001588583
0.020197392
0.018789172
0.015972495
0.021100044
-0.0016144514
0.0048732758
0.02004087
0.0029716492
0.0035301447
0.024856806
-0.0018142462
0.019320488
0.018157482
0.021124005
-6.842613e-05
0.011809111
0.018291116
0.013460159
-0.0015516281
0.009128571
0.007918119
0.017283082
0.0041368008
0.0076295137
0.03443587
0.008055806
0.034216523
0.014258504
0.023446798
0.029350996
0.029399872
0.020018697
0.006094694
0.05061221
0.0030448437
0.011134148
0.0077923536
0.024466991
0.024561524
-0.017480731

-0.0013587475
0.016679406
0.01223433
0.0030596256
0.025836349
0.011217475
0.004773736
0.0119457245
0.00048053265
0.017610788
0.016852021
0.008885503
0.014513612
0.0150260925
0.032541513
0.011329532
0.021962881
0.022751808
-0.0012704134
0.023080707
-0.0017662048
-0.004132867
0.016171575
0.021962881
0.012268662
0.018259048
0.011203766
0.013678193
-0.0026496649
0.0031915903
0.025754213
0.024564862
-0.0016169548
0.018356323
0.005275607
0.0025898218
0.012912154
0.008204818
0.024594903
0.0043073893
0.016283512
-0.0036400557
0.02069199
0.008036017
0.001161933
0.008745074
0.011477113
0.021998525
0.028841734
0.029900908
0.005263567
0.016134858
0.0031837225
-0.0029925108
-0.001653552
0.027032375
0.027182937
0.026936173
0.015375137
0.012863874
0.03647983
0.03903246
-0.008794665
0.008965373
0.010227323
0.010556698
0.011126995
0.025429964
-0.0077626705
0.02636242
0.0068161488
0.018982291
0.013840556
0.024803877
0.028204322
0.020640373
-0.004273057
0.0075690746
0.004134655
-0.00959003
0.0014234781
0.02472806
0.008776307
0.020303011
0.03595853
0.006928444
0.032323956
0.0020319223
-0.0069316626
0.02001226
0.0071564913
0.019433618
-0.001539588
0.016447783
0.008623004
0.028588772
0.0007908344
0.024822474
0.019390464
0.015073299
0.013763666
0.015054345
0.006853223
0.012926102
-0.0038918257
-0.0005311966
0.016438365
0.018374681
0.032517552
0.00063323975
-0.0008420944
0.0008151531
0.012637734
0.01859641
0.036873817
0.023806095
0.01122272
0.008043647
0.034706593
0.025651097
0.002174139
0.008997083
0.013967872
0.021457672
0.010951877
0.020971894
0.020508766
0.025843978
0.0015842915
0.004279852
-0.0052905083
0.020266056
0.0011891127
0.0085680485
0.030278325
0.002329588
0.019581676
-0.004488468
-0.00056374073
0.010022879
0.035317063
0.03045249
0.0011532307
0.014622688
-0.00086927414
0.026208878
0.007142544
-0.011187553
0.04701817
0.010685325
0.015455723
0.0012412071
0.035717368
0.0055679083
0.005774021
0.004469037
1.7404556e-05
0.019885063
0.0095540285
-0.004714012
0.027475
-0.00024795532
0.013804913
0.026186466
0.013028979
0.001998663
0.012270331
0.0123595
0.006677866
0.02104044
0.014639378
0.035950422
0.024864912
0.0074204206
0.020314097
0.024080396
0.013505578
0.02766037
0.0038269758
0.00024032593
0.022024632
0.007914424
0.0021021366
0.016702533
0.011819601
0.023082137
0.025347352
0.0071251392
0.024394035
0.0099669695
0.0024033785
0.0050765276
0.01601386
0.028845072
-0.023578882
0.0052559376
0.0008773804
-0.0036478043
0.0066524744
0.0055259466
0.03711629
0.025397182
0.022781491
0.018533587
0.013740182
0.005798459
0.009913683
0.007776141
0.012502313
0.0023056269
0.015714288
0.0076807737
0.0512383
0.0031909943
0.0009120703
0.01626718
0.019743443
0.0140042305
0.027085185
0.009455204
0.031610727
0.025664091
0.0008368492
0.0041463375
0.01854217
0.0052199364
0.014829159
0.0024979115
0.022208929
0.015073419
0.02303052
0.0032653809
0.022146583
0.0021214485
0.010739088
0.008177996
0.026700139
0.007920742
0.026705623
0.011820674
0.028280497
0.0033177137
-0.0069111586
0.008493066
0.0090510845
0.011508346
-0.00481987
0.006644964
0.029453754
0.003537178
0.029201508
0.029938579
0.008817911
0.03264606
0.019198537
-0.00042033195

0.0133636
0.012936473
0.004963994
0.0065500736
0.008698821
0.029910803
-0.011051297
-0.021591425
0.014506221
0.008789778
-0.00097203255
0.049856663
-0.0036222935
0.013091683
-0.0020865202
0.02884221
-0.022714019
-0.015743494
0.009550333
0.04032767
0.0044589043
-0.003987074
0.00688076
0.017097235
0.03586328
0.009583116
0.0072591305
0.024801135
0.014851332
0.053805113
0.046911597
8.368492e-05
0.0041434765
0.042366624
0.01174736
0.025783658
0.023412108
0.010991931
0.02751255
0.002998948
0.02087593
0.0040951967
0.003828764
0.06381118
0.019911528
-0.0026439428
0.01743579
-0.0023868084
0.039779067
0.04808247
0.023692131
0.0156641
0.029292941
-0.0031712055
0.046064973
0.0052298307
0.0048588514
0.0025691986
-0.0086683035
0.008723974
0.031617403
0.020953655
0.017355919
0.003674388
0.024522781
0.008450747
0.0052517653
0.030832052
0.0046629906
0.01818633
0.020923376
0.033777237
0.018150449
-0.0030317307
0.00020086765
-0.0037486553
-0.003955245
0.015998006
0.022569299
0.007589221
0.035250068
0.0042004585
-0.0069713593
0.0014514923
0.0025476217
0.027064085
0.0028876066
-0.002363801
0.0024569035
0.0117640495
-0.00946641
0.001511097
0.004848838
-0.0047938824
0.023470402
0.029288173
0.010997057
-0.0034663677
0.018254042
0.027584791
0.0093227625
0.03159201
0.031626225
-0.006080389
0.051177025
0.045969844
0.01128459
0.003301859
0.03676343
0.042333484
-0.0009162426
-0.00037813187
0.012212515
0.0014737844
-0.009727597
-0.0010870695
0.008984804
0.013763189
0.009939194
-0.003234148
0.03689432
0.019932628
-0.0021635294
0.011657834
0.0016906261
0.025450587
-0.005125761
0.0042905807
0.025930762
0.020223618
0.04824066
0.0019562244
0.03669703
0.0022445917
0.0033977032
0.027672768
0.034822464
0.002460122
-0.0013680458
-0.010740638
-0.005142808
0.0074039698
0.011844516
0.040800333
0.0054273605
0.016275048
0.015212297
0.0013033152
0.0057479143
-0.00624156
0.0046901703
0.024003744
-0.004690528
0.017766714
0.011407495
0.013468146
0.015819192
0.015794635
0.033341646
0.061309814
0.016682982
0.016789079
0.01006043
0.019212365
-0.003155589
0.0048542023
0.020777464
0.002562046
-0.0006953478
0.02207172
0.008817315
0.015862465
0.005453348
0.012029052
0.0033898354
0.0033211708
0.021098137
0.012883663
0.027179241
-0.004083276
0.013101816
0.02341938
0.042127013
0.0047695637
0.0044641495
-0.0013459921
0.03889489
0.0060807467
0.049444914
3.1232834e-05
0.013269067
0.0007429123
0.016676545
-0.00096809864
0.017816663
-0.00085783005
0.019314885
-0.011187315
-0.008214593
0.04134667
-0.0002669096
0.0037776232
-0.0007636547
-0.0037145615
0.00511992
0.027228713
-0.002423048
0.03535378
0.019973516
0.00066292286
0.01301384
0.011443973
0.017804742
0.03374839
0.005478382
0.016632795
-0.003421545
0.036127806
-0.00023341179
-0.007130623
0.030342937
0.021878242
0.054409385
0.021546364
0.018886924
0.010315061
0.011493325
0.020840287
-0.0069351196
0.015962243
0.010720372
0.017215252
0.023405671
0.021479726
-0.00057828426
-0.013690591
0.024625778
0.03276825
-0.00020372868
0.011540294
0.003160119
0.011379719
0.022093177
0.0059500933
0.011026382
-0.009769082
0.00023698807
0.0040353537
0.022102118
-0.0016871691
0.01514709
0.009886026
0.009916306
0.025134087
0.02074778
0.032794714

0.0012257099
0.009625196
0.0027282238
0.019481063
0.013233066
0.0042271614
0.013108134
0.02240324
0.010269284
0.0019196272
0.0035492182
-0.0012103319
-0.0002719164
0.004491806
-0.0014232397
0.017524362
0.011704683
0.015090585
0.029391527
-0.0028692484
0.0037374496
0.020179033
0.012868285
0.010307908
0.0104522705
2.7418137e-06
0.014891624
0.014653325
0.0073634386
0.029472828
0.002583146
-0.004630804
0.007798791
0.013315797
-0.0005092621
0.0029691458
0.0053362846
-0.0034433603
0.008288503
0.015347004
-0.005591631
0.0006028414
-0.0014892817
0.006732583
0.0018892288
0.013933539
8.773804e-05
-0.0049231052
0.005551338
0.028940558
0.008874059
0.009510756
0.009736061
-0.008395433
-0.0026779175
-0.00080001354
0.0032167435
0.0031599998
0.00824666
0.000838995
0.005046487
0.0137114525
-0.0048726797
0.023275495
0.011451244
-0.001245141
0.0030819178
7.05719e-05
0.00820446
0.022338748
0.0014654398
0.019296408
0.00479877
0.0008337498
0.0014762878
0.008292198
0.021207571
0.0021505356
-0.00015926361
-0.0034053326
0.018699646
0.001962781
0.0072721243
0.012704611
0.0037072897
0.015493274
0.007578492
0.008700728
0.017290592
0.023507595
0.012147069
0.009469628
0.0088095665
0.0057805777
-0.003106594
0.016672134
0.001881361
0.01521945
0.0030699968
0.00966537
0.0057799816
0.012172937
-0.014760137
0.0065966845
0.009423494
0.0042665005
-0.0031819344
-0.0007942915
0.014061928
0.019961715
0.0034754276
-0.000826478
-0.0015377998
0.0072926283
0.0043290854
0.013826132
0.0036216974
-0.0024604797
0.0066075325
0.010575652
0.0056067705
0.008081198
0.00027012825
0.005569458
0.011173844
0.009291649
0.010978103
0.011007786
0.0057811737
0.0027313232
0.014253616
0.013026476
0.00809443
0.0070774555
0.0014389753
0.0056180954
0.01465857
0.0062696934
0.01032877
-0.0042051077
0.0031636953
-0.0021065474
0.012488604
0.007626772
0.00778389
0.004829645
0.004540324
0.011045694
0.0008753538
-0.0018903017
0.020864725
0.011156917
0.0036650896
0.009233952
0.0054979324
0.004281163
0.014135838
0.0012017488
0.0016772747
-0.00044059753
0.009669423
-0.0010482073
0.010313153
0.018275857
0.012779713
0.004023671
0.016003728
0.012907386
0.008669496
-0.0044562817
0.0018533468
0.0037419796
-0.0033124685
0.015207887
0.010148168
0.010001421
0.00650084
0.012565494
0.0005623102
-0.00085163116
0.020097971
0.0011357069
0.010609388
0.00040495396
-0.0013666153
0.008379221
0.014189839
0.01965046
-0.0016742945
0.01868558
0.0037144423
0.006917
0.010037184
0.007654786
-0.0021299124
0.010704994
0.007258415
0.026098251
0.003320694
0.004045248
-0.0014864206
0.020923495
0.008130908
0.013746977
0.0074466467
0.013584137
0.009198546
-0.009584427
-0.009210229
0.0016356707
0.013761997
0.0018928051
-0.0012923479
-0.003123045
0.017102957
0.005246401
-0.019031644
-0.0010938644
0.003866911
0.008736253
0.0102699995
0.018862247
0.020816445
0.013511062
-0.0028350353
-0.0021013021
0.0065079927
-0.0027230978
0.006297469
0.0069972277
0.0049254894
-0.0019670725
0.0036644936
0.0040431023
-0.008827686
0.017891526
0.012362242
0.00096285343
-0.0010528564
-0.001362443
0.023849845
-0.0038272142
-0.003356576
0.0062999725
0.00759995
0.026791692
-0.0019458532
0.001514554
0.009370327
0.018034697
0.003977537
0.008417368
0.009747744
0.0002322197
0.016636372
0.015197039
-0.011916995
0.022555947
0.009056687
0.015235901
0.000551939
-0.0012931824
0.031461716
0.004835367
0.000983715
-0.00015234947
0.0048992634
0.004913211
0.0011808872
0.0007247925
0.0054934025
0.0028568506
0.013928056
0.008290887
0.010236502
0.002319336
0.0066404343
-0.0016809702
-0.0030033588
0.009889483
0.00075137615
-0.0010898113
0.009999871
0.0014429092
0.03128183
0.0029064417
0.00724411
0.004933238
-0.006954074
0.01751399
0.007977247
-0.0006400347
0.005637884
0.002601266
0.0025014877
0.008634329
-0.004593849
-0.0019435883
0.035849094
0.012002349
-0.0005174875
-0.0011441708
-0.007146716
-0.0051363707
-0.00095403194
0.0012414455
0.0046600103
-0.006235361
0.029488444
0.011186242
0.016759396
8.4757805e-05
0.015842438
0.016964316
0.008667231
0.0052928925
0.016327262
0.0026563406
-0.0010462999
0.0066998005
0.0055645704
-0.00031530857
0.005557418
0.0010054111
-0.004893303
0.003981471
0.026824355
0.007799268
0.025941014
0.009318113
0.0060231686
0.0031791925
0.013709903
-0.0021790266
0.0053397417
0.0010221004
0.0039002895
0.0003247261
0.005888343
0.006195426
0.014575839
-0.00037240982
0.0030568838
0.014015913
-0.008320808
-0.0031987429
-0.002233386
-0.00034189224
-0.0017623901
-0.00055491924
0.0055485964
-0.002529502
-0.006327033
0.023929715
0.0031090975
0.0070000887
0.010938287
0.002889514
0.00937438
0.0025827885
0.011037827
-0.006543398
0.004153371
0.0018050671
0.006997347
0.019627333
0.0032582283
-0.0031545162
-0.004868388
0.011051655
-0.00784862
0.0080907345
0.021294951
0.0033727884
0.007573724
-0.010697961
-0.0007798672
-5.3048134e-05
0.0064918995
-0.0013898611
0.009810448
0.0078109503
0.009632707
0.0051043034
0.014112592
0.006178856
0.00092351437
-0.005650878
0.005694151
0.0011014938
0.00537014
0.019531608
0.0061324835
0.008438945
0.011365414
0.011328101
0.004812002
0.0091689825
-0.0016556978
0.021224141
0.022147775
0.0017814636
0.009921074
0.020817041
0.008733034
0.008302808
0.020175576
0.0055936575
-0.0066229105
-0.007620573
0.0025162697
0.0187217
-0.0012974739
-0.00018930435
0.014716983
0.001381278
-0.00077831745
0.002819419
0.0026327372
0.006162405
0.010358572
-0.00024974346
0.0014615059
0.0071160793
0.010668635
0.0076771975
0.0094873905
0.012483358
0.010277629
0.01629901
0.008053541
0.006193161
0.01651144
0.003118515
-0.0020854473
0.0056573153
-0.004642606
0.0041184425
0.02279687
0.00013196468
0.016682267
0.012816668
0.0018042326
0.0030208826
0.012510419
-0.00069868565
-0.000441432
0.005483389
0.0024638176
0.007544756
0.020930767
-0.0027053356
0.012713909
-0.009677649
0.013477325
-0.009820104
0.009413004
0.0034321547
0.0020176172
-0.012516975
-0.004215598
0.013748169
0.010917783
0.014606476
0.014104605
0.0009534359
0.0015431643
0.019290566
-0.00240314
0.023509502
0.018797874
0.012536764
0.007926941
0.012571573
0.020541906
0.012553453
0.030397415
0.023799777
0.0023105145
0.018561006
-0.003640294
0.018024087
0.014768481
0.008392334
0.012684107
-0.00039172173
0.0073860884
0.015776753
-0.0007082224
-0.0031040907
-0.0009223223
0.0058248043
0.0007933378
0.018964767
-0.0031547546
0.0025314093
0.00063955784
0.006701708
0.031707525
0.0012931824
0.00300169
0.010979533
0.0042693615
0.012014747
-0.0048851967
0.0050320625
0.0015426874
0.00052309036
0.00020933151
-0.0045745373
0.016991973
-0.0030897856

0.006603241
-0.0020834208
0.00932169
0.011747241
0.008985758
0.009260535
0.021175146
0.017992377
0.0038495064
0.0067789555
-0.0035539865
0.0044406652
-0.0017522573
0.008505344
0.009741902
0.0016243458
0.0057435036
0.0020745993
0.018554091
0.010678053
0.017748475
-0.0023251772
0.004997134
0.0019085407
0.02131641
0.0026094913
0.010197878
0.014562845
0.008867979
-0.005678177
0.005851984
0.010818005
-0.00970304
0.025183558
-0.0015375614
0.01093173
0.0077733994
0.0032184124
0.0035032034
-0.0019390583
-0.0046987534
0.015474796
0.0055259466
0.0095927715
0.002018571
0.02588284
0.0023822784
0.011929512
0.004322529
0.008799911
0.0050958395
0.0010857582
0.010643959
0.002395153
0.0072547197
0.005550742
-0.0010197163
0.006380558
0.0041621923
0.011737347
0.008758426
0.0008096695
0.0074522495
0.0027513504
0.0074801445
0.003748417
0.0041890144
0.020065188
0.005135894
0.007793784
-0.003908038
-0.0015072823
0.0006918907
0.011384726
0.002016902
0.0007830858
0.016629457
0.0038243532
-0.0011943579
0.008557558
0.00554955
0.0011386871
-0.0012581348
0.0055817366
0.008771181
0.0031585693
0.0104699135
0.0009293556
0.01779306
0.0011942387
0.00890708
0.007701874
0.0138293505
-0.00026261806
0.0011457205
0.0044642687
0.0019239187
0.0022404194
-0.0010097027
0.01253736
0.0006234646
0.005654454
0.006242752
0.003981471
0.012113929
-0.00066280365
0.0012917519
0.005039096
0.0002822876
0.018152952
-0.0003774166
-0.00076544285
0.00083720684
0.010665536
0.0021474361
-0.00046491623
0.015197277
-0.004320264
0.01158464
0.009670496
0.010741234
0.00019490719
0.008563042
0.004810214
0.008624911
0.0073987246
0.003286004
-0.0004966259
-0.0028574467
0.0031280518
-0.00019693375
0.0018997192
0.002993703
0.0041024685
-0.00093221664
0.005882621
0.013668656
0.009149194
0.012421727
0.0041456223
0.0016773939
0.0086762905
0.00285995
0.0063210726
0.0073595047
0.0028518438
0.003743887
0.011132121
0.023064494
0.018333316
0.007248521
0.004269719
0.010754585
0.011328459
0.020738602
0.005802989
0.006286025
0.0033181906
0.0067579746
0.008232355
0.0030504465
-0.0038975477
0.011019111
-0.0030674934
-0.0030976534
0.015688896
-0.00022041798
0.004196763
0.022075891
0.00959909
0.00072050095
0.0029642582
-0.0016156435
-7.1287155e-05
0.005397558
0.007894874
0.0054125786
0.015237331
0.012804985
0.017970204
0.00020563602
0.00062918663
0.00905323
0.010135412
0.0049864054
-0.0017688274
0.0053896904
0.0034290552
0.0022491217
0.003327012
-0.003471613
0.0053486824
0.007596731
-0.008425474
-0.0016093254
0.009360433
0.018517137
0.004111767
0.010010362
0.009286404
0.0043051243
0.007961631
0.0054615736
0.0026216507
0.018891692
0.0016320944
-0.0026186705
0.023888826
0.0023846626
0.018010616
0.007851481
-0.0030542612
0.0058300495
0.011024237
0.012265325
0.013234019
-3.0636787e-05
0.017645359
0.024397016
0.0076773167
0.0025689602
-0.0019664764
0.0015125275
0.003512621
0.009757161
0.022622347
0.002016902
0.004532337
0.0013723373
-0.0010099411
0.0076822042
0.006493211
-0.006592512
0.021657467
-0.0014256239
0.0066461563
0.0050041676
0.005120516
0.0074853897
0.0076224804
0.011139393
0.008325458
0.022189975
0.0026819706
0.009555697
0.022546649
0.018417954
0.0009775162
0.0029865503
0.004102707
0.01634419
0.00713706
0.0016719103
-0.0046699047
0.011217594
0.007671237
0.009630084
0.017854095
0.005317569
0.012879014
-0.0016106367
0.0037477016
0.0063842535
0.007237673
0.006974697
0.011583686
0.0066651106
0.008982062
-0.0031888485
-0.008571863
-0.0016257763
0.0047063828
-0.0125466585
0.011345029
-0.0004222393
0.0067714453
-0.00077593327
0.011059403
0.0053572655
0.009911776
0.010641575
0.022631526
0.0018825531
0.0006492138
0.018727064
0.0034058094
0.010040164
0.001116991
0.006772995
0.006247163
0.013338089
0.00043296814
0.0065267086
-0.0025913715
0.019100666
0.009727836
0.004613757
0.006267667
0.001790762
0.010987282
0.011467338
0.0045416355
0.025554061
0.007422447
0.0025105476
-0.0007865429
0.0039794445
-0.001437664
0.009251356
0.030542374
0.008478403
0.0014730692
0.007221937
0.00881958
-0.004144311
0.006934643
0.0008569956
0.009220958
-0.004737854
0.0052319765
0.013739824
0.003038764
0.001992464
0.01621604
-0.0056055784
0.007279992
0.009692669
-0.006168604
0.0008009672
0.0033234358
0.020678401
0.010481834
0.010863423
-0.00026476383
0.008447528
0.003622532
0.011050701
0.0065865517
0.0011273623
0.005370617
0.004689932
0.008914828
0.020780802
0.011633873
0.013039947
0.011774063
-0.00030601025
-0.001178503
0.008503675
8.571148e-05
0.0031472445
0.009929538
0.0069354773
0.007287264
0.028635263
0.028976083
0.007295966
0.014837503
0.009736657
0.004506707
0.03065908
-0.004098177
0.017552257
0.011043668
0.0047016144
-0.004436612
0.006639242
0.014784217
0.014565945
0.010073185
0.0005260706
0.0007607937
0.0017082691
0.0012714863
-0.0027674437
0.0084962845
0.004950285
0.016680121
0.009690523
0.009659529
0.008902788
0.0061633587
0.0138424635
0.007063508
0.0029509068
0.018538713
0.0066233873
0.0018503666
0.006487727
7.2956085e-05
-0.0025291443
0.0110554695
0.0022404194
0.009032726
0.0043474436
0.007801771
0.0013619661
0.013539672
0.0017408133
0.00970149
0.0023065805
0.013868928
-0.0011433363
0.008651733
0.005676508
-0.00440681
0.018860936
0.0122458935
0.0074813366
0.0040980577
0.009634495
0.008244753
0.002387166
-0.012553811
0.022721648
0.0037888288
-0.0053948164
-8.34465e-06
0.00409317
0.0019530058
0.008213162
0.0017483234
-0.0016322136
0.016359806
0.011300921
-0.0014125109
0.0055708885
0.008821249
0.0017673969
0.010823488
-0.0028049946
-0.0027046204
0.009713888
0.038930893
0.0028518438
-0.0005568266
-0.0020108223
0.013381958
0.009497523
0.0025804043
0.008388758
-0.002024889
0.018413544
0.0058481693
0.0036565065
0.00097465515
0.021517038
0.012829304
0.0045882463
-0.0057566166
-0.0029643774
0.018522501
0.0046340227
0.01175344
0.009228468
-0.011204481
0.0033392906
0.009609103
-0.0007197857
0.0037076473
0.018635511
0.016970634
0.0014225245
0.007404804
0.006809473
-0.00087440014
0.006448269
0.0010616779
0.007444501
0.016287327
0.014671683
0.022023201
0.00820291
0.01699102
0.017668962
0.0076019764
0.0046241283
-0.0038805008
0.0068337917
0.011470079
0.0069719553
0.0062241554
0.008806825
-0.00034284592
0.015168905
0.010802984
-0.00032007694
0.0073082447
0.0003619194
0.0069178343
0.011909485
0.014569163
0.019863725
0.0027318
-0.0007568598
0.006668091
0.0060266256
0.012156963
0.017128825
-0.010542989
-0.009109378
0.008430004
0.002423644
0.014616013
0.0068581104
0.014336944
0.011500478
0.0049186945
-0.0012720823
0.007970929
-0.004698515
-0.0061974525

0.015537024
-0.00019192696
0.0013431311
0.0013642311
0.0036334991
-0.00088989735
0.016812325
0.011238694
0.009302139
-0.00011777878
-0.00057029724
0.009729743
0.0011919737
0.0043343306
-0.0010778904
0.010976076
0.0038198233
0.0039337873
-0.0036836863
0.013190985
0.0032889843
0.0065675974
0.0056427717
0.0033050776
0.0051831007
0.007843494
0.0028326511
0.013500214
0.0027618408
0.013979197
0.010471463
0.014047146
-0.0019948483
0.02133131
-0.0011621714
-5.1140785e-05
0.010289669
0.0059525967
0.0037635565
0.010667324
0.022123218
0.0026040077
0.008003712
-7.557869e-05
0.0021406412
0.0048668385
-0.0022896528
0.0039459467
-0.0028836727
0.004783392
0.0007824898
0.003915906
0.009746194
0.006922126
0.0122846365
0.008450031
-0.002800107
0.014020205
0.013823748
0.00795269
0.00028014183
0.026468515
0.003678441
0.00064110756
0.0038212538
0.0017007589
0.0092897415
0.0031785965
0.009242535
0.012458205
0.0061386824
0.0008735657
0.00505805
0.010986447
0.0084530115
0.005549073
-0.0018059015
0.002005577
0.01637721
0.0026634932
0.010926604
0.0068235397
0.006642103
0.0049049854
0.0053907633
0.001601696
0.0072438717
0.018854141
0.014955401
0.00123775
0.0006341934
0.0039658546
0.0100746155
0.017686844
0.008647919
-0.00038421154
0.007044196
0.00042819977
0.017810225
0.0038985014
0.0039032698
0.005000949
0.0056107044
0.010172367
0.00028944016
0.0021662712
0.01982665
-0.0032800436
0.0011310577
0.0017226934
0.002972126
0.0127232075
0.0051552057
0.0036885738
0.015174985
0.0018924475
0.0007123947
0.018700361
-0.0009713173
0.017820716
0.0135650635
0.0003862381
-0.00075149536
0.00976789
0.0028721094
0.005019903
0.0035247803
0.003336072
-0.0057519674
0.0026700497
0.0014411211
0.0017387867
0.0049214363
5.1617622e-05
0.0007508993
0.0035475492
0.010313034
0.0057936907
0.022600532
0.0008188486
-0.0013992786
0.0025844574
0.02629447
0.013165593
0.0054326057
0.004541993
0.003713131
0.015929341
0.023409128
0.035196424
0.010435343
0.0038499832
0.005316615
0.018936157
0.025581002
0.011977196
0.00070893764
0.0040545464
0.013124585
0.012508273
0.019215584
0.0017018318
0.014516711
-0.0040153265
-0.00024569035
0.0015813112
0.0005710125
0.0009995699
0.022958875
0.0075713396
0.014793754
0.010258317
0.008902788
0.0014595985
0.0026273727
-0.0018287897
0.0015952587
0.008849144
0.0014371872
0.0009241104
0.0027711391
0.009618759
0.008580804
0.0010629892
0.0069277287
0.023063064
0.007370591
0.008582115
0.017525196
-0.001108408
0.01049304
0.006388545
-0.00023841858
0.00980866
0.00259614
1.1920929e-05
0.01379776
-0.00028264523
0.008165479
0.0037299395
-0.00021469593
0.003555417
0.016477108
0.008473754
-0.004089594
0.003337741
0.00014007092
0.0013636351
0.006016016
0.014378309
-0.0007016659
0.004077196
0.009599566
-0.0023453236
0.007168889
-0.0005171299
0.0013839006
0.0047801733
0.007335305
0.00051665306
0.0025925636
0.004258275
0.004574895
0.020241976
-0.005117178
-6.7949295e-06
0.00480628
0.018622398
0.0049011707
0.004748225
0.009236932
0.015590429
-0.0016722679
-0.0039747953
0.005164981
0.0038118362
0.02052188
0.0019944906
0.0069833994
0.005340457
0.003946185
0.0336169
0.004758358
0.0025775433
0.013526559
0.0072772503
0.0049761534
0.002829671
0.009858251
0.0022033453
0.017261624
0.0078264475
0.0046807528
0.0081858635
0.012018204
0.018428683
0.007499814
0.012173057
0.0030703545
0.0005762577
0.0069254637
-0.00042629242
0.0030077696
0.01362741
-0.0013397932
0.002513051
0.008053184
0.003919363
0.02721858
0.010098934
0.0033950806
0.0052188635
2.8014183e-05
0.0044208765
0.015297174
0.0022648573
-0.0010620356
-0.0019856691
0.0024715662
0.0065755844
0.01711297
0.0014616251
0.02516067
0.012491703
0.0031023026
0.00794816
-0.0023083687
0.0078115463
0.009020209
0.015831828
-0.00038778782
0.004081607
0.0013744831
0.017700315
0.004868746
0.0026187897
0.008087277
0.019697428
0.020753145
0.00027883053
0.0109142065
0.00393486
0.001423955
0.0004298687
0.010367155
0.0042966604
0.0030634403
0.0074892044
0.006584525
-0.0011359453
0.009162188
0.027005196
-0.00030326843
0.00882709
0.0020720959
0.0015639067
0.0053542852
0.0061864853
0.0070683956
0.0009636879
0.0047808886
0.010402918
0.009073019
0.0023912191
0.0004892349
0.0119766
0.016655684
0.008292198
0.012126327
0.010616064
0.017859578
4.9352646e-05
0.002503872
0.009784222
0.006719351
0.010675073
0.0063427687
0.012738347
0.018669844
0.0081727505
0.00058984756
0.0013580322
0.0060195923
0.009106278
-0.0011072159
0.001783967
0.0022574663
0.006605983
0.004693508
0.0062114
0.0012302399
0.018741012
0.0062303543
0.015721321
0.011528492
-0.0024812222
0.006170869
0.017629027
0.0009900331
0.0076122284
0.0021424294
0.005913019
-0.00021827221
0.002321601
-0.00018167496
0.0012431145
0.016983986
0.013058901
-0.0032912493
0.007626772
-0.0023801327
0.011266351
0.014737368
0.005384445
0.002429843
0.015244484
0.037301302
-0.0013183355
0.008589268
0.008209825
0.007772088
-0.0001335144
-0.0007343292
0.0013272762
0.002772808
0.00073456764
0.0027153492
-0.00038981438
-0.0010920763
0.00027668476
0.009195209
0.008583665
0.009108543
0.0112758875
0.017010331
0.0017825365
0.015873194
0.005801797
0.006380558
-0.0018507242
0.01591611
-0.0014784336
0.017751813
0.0034018755
0.0011018515
0.0067538023
-0.00071263313
-0.0022927523
0.0092715025
0.0017986298
0.00035250187
0.01053834
0.008161426
0.0022720098
0.0060201883
0.0010163784
0.0064263344
0.005735159
0.001680851
0.0068501234
0.017136455
0.020902872
0.0011656284
0.006017685
-0.0031654835
0.005059123
-0.0007477999
0.012088776
0.0027480125
0.007858515
0.0010933876
0.0017585754
0.0097231865
0.0040328503
0.0072779655
0.012638688
0.0044010878
0.01565373
0.0036250353
0.0049755573
0.012172222
0.004063368
-0.0013360977
0.025468588
0.007801771
-0.0011366606
0.0046719313
0.0070803165
0.0004720688
0.0052273273
0.013820648
0.025428414
-0.0022853613
0.0037020445
0.0036560297
0.007447362
-0.0029445887
0.006555915
0.0071821213
0.0027002096
-0.0024621487
0.027122617
0.0014679432
-0.0022120476
0.0023630857
0.005536318
0.004218459
0.019839525
0.008510709
0.0016082525
-0.00038290024
0.0004607439
0.0015683174
0.018238544
0.011496425
0.0020184517
0.0053055286
0.003833294
0.009205699
0.013307214
0.0026261806
0.009571791
0.0010437965
-0.00030648708
0.0004478693
0.0023114681
0.0049294233
0.01134479
-0.0020831823
0.004173517
0.00274539
0.012035251
0.00046432018
0.03196037
0.00302732
0.0072096586
0.013773918
0.003651619
0.0109552145
0.026769996
0.003950715
0.006408453
0.0011423826
0.0053423643
0.0061694384
0.003512144
0.0082576275
0.0063159466
0.004364252
0.0048116446
0.0023180246
0.009719849

-0.0017727613
0.0065220594
0.010173917
0.0065920353
0.013492346
0.0024063587
0.0028938055
0.0042996407
0.00020515919
0.013353229
0.0016889572
-0.00033640862
-2.348423e-05
0.009247184
0.010902047
0.01571536
0.0042227507
-0.00027549267
0.0018057823
-8.8095665e-05
0.013933539
-0.0013011694
0.007974267
0.007357359
-0.0005778074
0.009553552
0.006130457
0.0045695305
0.012136579
-0.000106692314
0.008521438
0.005230665
0.006095171
-0.0006220341
0.020873189
0.013417602
0.011220932
0.011238456
0.0044578314
0.0027605295
0.0076839924
0.0020056963
0.0005398989
0.0069601536
0.0025212765
0.0031489134
0.0026686192
0.021414638
0.0076669455
0.005999565
0.0045388937
0.0125927925
0.0038063526
0.0144741535
0.0032997131
-0.00018799305
0.0071053505
0.003015995
0.008800149
0.0014582872
0.0011912584
0.0152311325
0.0022095442
0.003955126
0.01405251
0.011828303
0.01266098
0.00026726723
0.012919188
0.005756378
0.0055143833
0.012216091
0.00091028214
0.011025906
0.007311225
0.007945776
0.004243374
0.019839764
0.0018105507
0.0076622963
0.0020434856
0.00970161
0.011804938
0.013766766
-0.00043666363
0.023104787
0.004455328
0.018514395
0.0045679808
0.005834222
0.0037739277
0.0039634705
0.032984495
0.0037468672
0.00055110455
0.00022101402
0.007596612
-0.00034487247
0.0044510365
0.0024865866
0.0015816689
0.0064618587
0.005267501
0.0011729002
0.0019624233
0.0041401386
-1.5735626e-05
0.0045895576
0.004909277
0.0020765066
0.0043873787
0.00643909
0.0008112192
0.003665924
0.0036901236
0.0005797148
0.003138423
0.0005683899
0.0002514124
0.0040664673
0.006534219
0.002053976
0.011909127
0.013976455
0.00014412403
0.020501137
0.0011683702
-3.9339066e-06
-2.4080276e-05
0.008314252
0.0030822754
0.0069431067
0.0059782267
0.017215252
0.0016384125
0.0014015436
0.012668371
0.0024693012
0.0005854368
0.0005033016
0.0002809763
0.0069018602
0.012308836
0.0020859241
-0.0009915829
0.0060584545
0.023510575
0.004956603
0.013118863
0.014692068
0.0059615374
0.0058407784
0.007267952
0.005155921
0.0025459528
0.010444045
0.0020689964
0.015600085
0.0037423372
0.0027077198
0.01143074
0.0004272461
0.011341333
0.0070170164
0.012296915
0.00019073486
0.004471183
0.0043028593
0.0039577484
0.0027606487
0.008264899
0.009999633
0.02184248
0.0036672354
0.008487582
0.008053899
0.0067458153
0.0086244345
0.005739808
0.020603895
0.020284772
0.01615262
0.008259535
0.003255725
0.0025786161
0.0020930767
0.0017596483
0.01041615
0.008562803
0.0015107393
0.002753377
0.0069634914
0.009711981
-0.00042772293
0.0021624565
0.010365367
0.0059973
0.0048886538
0.006063819
0.0022917986
0.014167547
0.013683081
0.001527667
0.0013873577
0.0011438131
0.013066173
0.003724575
-0.001151681
0.0012000799
0.0024561882
0.00059735775
0.0032646656
0.008995414
0.0134369135
0.005876422
0.0010412931
0.0034124851
0.0035163164
0.0058116913
0.0025519133
-0.0005698204
0.00086188316
0.0030595064
0.009711385
0.008040667
0.023023248
0.0060042143
0.004576206
0.007653475
0.0018078089
0.0075831413
-4.5657158e-05
0.019836783
0.0070437193
0.0038472414
-0.00054490566
0.020068288
1.7881393e-05
0.005618334
0.012448192
0.0007824898
0.0059820414
0.011776924
-0.0012770891
0.0029199123
0.009012699
0.0033948421
0.0013575554
0.013574719
0.022090197
-0.00019335747
0.0075297356
0.007986665
0.011615634
0.029625297
0.012488604
0.0037440062
0.0041139126
0.02073443
0.0035256147
0.0075371265
0.007045746
0.0005364418
2.9802322e-06
0.0065977573
0.0017204285
0.00647676
0.0005850792
0.008914113
0.0122385025
0.010147572
-0.00020956993
0.022263527
0.027757168
0.0033795834
0.007124424
0.007538438
0.00090408325
0.001155138
0.01775229
0.0028027296
0.008116603
0.00030469894
0.010938048
0.005011201
0.0073091984
0.0045980215
0.012549877
0.0088073015
0.0038772821
0.010205269
0.0010223389
0.0015695095
0.013584256
-0.0011049509
0.0054399967
0.016083837
0.01388514
0.0050040483
0.0019578934
0.015045047
0.002551198
0.0005348921
0.007803321
0.0065152645
0.0035192966
0.01903081
0.040956855
0.013743639
0.030228019
0.005330205
0.014405608
0.00870645
0.00045204163
0.0045450926
0.0028592348
0.0022234917
0.01149869
0.007084608
0.005211234
0.012491345
0.0191648
0.0040153265
0.00054192543
0.00037705898
0.00059974194
0.00016796589
0.0060886145
0.0017659664
-0.0001796484
0.018104672
0.006652355
0.016699672
0.0055929422
-0.0011945963
0.0037053823
0.01451087
0.021527171
0.004824877
0.005653143
1.9192696e-05
0.007060528
0.0035105944
0.002093196
0.010585427
0.00630486
0.005087018
0.0042425394
0.0058511496
0.00077843666
0.006509781
0.0013786554
0.0067236423
0.0020799637
0.009513855
0.008875132
0.00795579
0.0114969015
-0.001360774
0.0017353296
0.002704978
0.003951192
0.009046912
-8.714199e-05
0.0017937422
0.016811848
-0.0014269352
0.005732298
0.009159923
0.006801963
0.0018498898
0.014266372
0.0058493614
0.012153864
0.01232183
0.0046269894
0.019432306
0.0053128004
0.013370156
0.006240487
-0.00033545494
0.006268978
0.0050063133
0.0021899939
0.011982441
0.0066775084
0.00014901161
0.010902047
0.0067743063
0.0104135275
-0.0010893345
0.001757741
0.008324742
0.010656595
0.018028617
-0.0009784698
0.01694274
0.012835741
0.0033717155
0.0031365156
0.0030893087
0.0069628954
0.00454998
0.007401228
0.00085270405
0.0054496527
0.013093233
0.004440546
-0.0009776354
0.006442666
0.003946185
0.0028202534
0.013585925
9.906292e-05
9.441376e-05
0.011793852
0.010244727
0.00036799908
-0.0007481575
0.0066617727
0.0069828033
0.0006984472
0.0020292997
0.014697194
0.018511653
0.02104187
0.008339405
0.0032346249
0.012035966
0.0065003633
0.0028229952
0.0013843775
-0.000238657
0.0067123175
0.0015406609
0.001278758
0.004265547
0.0069042444
0.00015997887
0.0039135218
0.013874769
0.020736098
0.012901425
0.009932637
0.0017141104
0.0051243305
0.0056596994
0.009194493
0.00033843517
0.0033119917
0.0058324337
0.0007869005
0.004645705
0.0071104765
-0.0005748272
0.0066173077
0.0016194582
0.0058215857
0.0015621185
0.00374794
0.0015102625
0.0007160902
0.008505583
0.00492537
-0.00023758411
0.0075774193
0.0036754608
0.007584691
0.003544569
0.020311117
0.0032078028
0.009213209
0.007822752
0.0014476776
0.0012907982
0.0032645464
0.011766672
0.0014053583
0.017224312
0.0115151405
0.00015056133
0.010728478
-0.00017857552
0.005968809
0.009131074
0.008465767
0.0050735474
0.00126791
0.0072544813
0.001688242
0.0032598972
0.001177311
0.034515023
0.0046174526
0.0027905703
0.0025399923
0.004981637
0.008714199
0.0071080923
0.0011701584
0.0017299652
0.007224679
0.005832672
0.008013725
0.012254357
0.008642316
0.0061187744
0.003040433
0.00032532215
0.009205461
0.0014218092
0.0011376143

0.012952924
0.0024996996
0.0059417486
0.02230084
0.00045144558
0.0085603
0.012453556
0.0050832033
0.0066171885
0.00033271313
0.0051465034
0.008244038
0.01424861
0.0056706667
0.0037554502
0.0020477772
0.0009120703
0.001977682
0.008320928
0.0074623823
0.0075039864
0.00737381
0.0074142218
0.0047814846
0.004580021
0.0144149065
0.0022081137
0.0038143396
0.010776997
0.0037893057
0.003093958
0.0017267466
0.003318429
0.00015246868
0.0004490614
0.0037457943
0.008855462
0.00027906895
0.008098245
0.006277919
0.0071974993
0.005494237
0.005232811
0.00056278706
0.008031845
0.0118153095
0.0049579144
0.008264542
0.0048737526
0.00016975403
0.005873561
0.0016146898
0.0023343563
0.006552696
0.0070306063
0.004160881
0.0049664974
0.018222213
0.0028178692
0.00047194958
0.0046821833
0.0020756721
0.007609248
0.0018322468
0.0020506382
0.01625359
0.008947611
0.0074886084
0.006173253
0.0065306425
0.0021164417
0.0054986477
0.00572598
0.010293722
0.006678939
0.008323312
0.0066480637
0.002956748
0.0028731823
0.0070921183
0.004868865
0.002840042
0.0063005686
0.0092948675
0.004807234
0.0071651936
0.00587821
0.0057393312
0.008208871
0.009185195
0.006089449
0.0048704147
0.008365512
0.015075684
-0.0008043051
0.0019351244
0.0049551725
0.006640315
0.019366145
0.0032078028
0.028037667
0.02086234
0.0154441595
0.0075210333
0.010737658
0.005270481
0.0077596903
0.015046358
0.006182313
0.0046522617
0.0021090508
0.00044620037
0.012777209
-0.0001707077
0.0125694275
0.00477314
0.005967021
0.0036340952
0.0037674904
0.005901575
0.0035722256
0.017143011
0.012281299
0.0051760674
7.9870224e-05
0.009583354
0.008084178
0.009552002
0.010752797
0.009385824
0.00709939
0.0034761429
0.0030511618
0.0012619495
0.012748122
0.002089858
0.0009109974
0.0018651485
0.0034202337
0.0057286024
0.002790451
0.0009932518
0.005264282
0.0021885633
0.008491993
0.00901413
0.0029718876
0.0037096739
0.017405868
0.0025435686
0.005757332
0.007999778
0.015883803
0.013375878
0.01232481
0.010790706
0.0034947395
0.007011652
0.012701035
0.002678275
0.006707549
0.00792706
0.00354743
0.002923131
0.0105804205
0.0037276745
0.013447881
0.0031151772
0.010266066
0.012412906
0.0091433525
0.0071083307
0.004088521
0.0026220083
0.00053846836
0.003669262
0.0075701475
0.0069628954
0.004932165
0.006473303
0.0027985573
0.003590107
0.009813666
0.00758183
0.0018907785
0.0015217066
0.006589651
0.00891912
0.0037566423
0.0029934645
0.0013487339
0.0067288876
0.004501462
0.0059883595
0.0036553144
0.0012881756
0.015379906
0.0028085709
0.0026875734
0.013571739
0.0102369785
0.0004813671
0.007867336
0.010551095
0.006708741
0.01326859
0.0073758364
0.008621097
0.0006233454
0.0029678345
0.0050905943
-2.4080276e-05
0.012243032
0.0034075975
0.017045736
0.009137869
0.01323843
0.0040978193
0.0030031204
0.011224985
0.0006970167
0.006906152
0.00045394897
0.008118033
0.008516431
0.002952695
0.00033199787
0.0034495592
0.017387629
0.009533048
0.005329013
0.0007610321
0.002145052
0.005243778
0.006372452
0.0135217905
0.011256576
0.013148904
0.0026456118
0.0009932518
0.001807332
0.007542014
0.010784388
0.008749843
0.000915885
0.008227825
0.003481388
0.002495408
0.005298972
0.0076299906
0.0004415512
0.0026671886
0.0045508146
0.0024852753
0.0075370073
0.009023428
0.004463792
0.016496181
0.0038011074
0.016121149
0.014313579
0.009861708
0.0050196648
0.01101625
0.005296588
0.0032225847
0.0025897026
0.008968115
0.015149355
0.008892059
0.009435177
0.0036150217
0.0055315495
0.004817486
0.0008299351
0.0043799877
0.013112068
0.0011638403
0.022277474
0.004578471
0.0071868896
0.007730007
-8.201599e-05
0.0041359663
0.013859153
0.0047371387
0.005974531
0.012984157
0.0024050474
5.9843063e-05
0.00043654442
0.004590988
0.005355835
0.001907587
0.0075888634
0.004542947
0.0015588999
0.012088895
0.0032957792
0.0048217773
0.010561824
0.01249671
0.0038746595
0.014565587
0.0045472383
0.013763785
0.007920146
0.011783838
0.0037688017
0.0036666393
0.007806301
0.0033422709
0.0028543472
0.0017098188
0.0029131174
0.003972888
0.010160804
0.0036102533
0.013934374
0.013281107
0.0005719662
0.024480104
0.010819674
0.006614089
0.008043051
0.006836176
0.008749604
0.0017318726
0.00063717365
0.008255005
0.0019973516
0.007249832
0.0042675734
0.004177332
0.0065641403
0.0074875355
0.001972437
0.0047148466
0.0075781345
0.0029386282
0.00023388863
0.0003720522
0.0069924593
-0.0004132986
0.005781412
0.009621263
0.0003143549
0.00835216
0.0056602955
0.01050055
0.006210804
0.0047034025
0.0022414923
0.010652065
0.0057752132
0.0062930584
0.006804824
0.002861619
0.0026391745
0.0005977154
0.0051443577
0.002146721
0.012592673
0.009835839
1.5497208e-05
0.004918933
0.004944086
0.015279412
0.003420353
0.014216542
0.0012190342
0.0068825483
0.008964419
0.0014441013
0.0018070936
0.008327007
0.010804772
0.0039639473
0.010554075
0.0025429726
0.0016114712
-0.00045084953
0.0038992167
0.006668687
0.004809141
0.0049335957
0.004425168
0.004932165
0.005030513
0.01980722
0.00767076
0.010924697
0.0031119585
0.0019137859
0.008395672
0.0005687475
-7.5101852e-06
0.0036566257
0.0035253763
0.009159446
0.001404047
0.022047639
0.004259348
5.2452087e-06
0.0070962906
0.008241892
-0.00046920776
0.008113503
0.019039989
0.010779738
0.008900881
0.003126502
0.0029911995
0.00536561
0.0036388636
0.009540319
0.005398512
0.0053396225
0.0036609173
0.0032806396
0.008707523
0.020930767
0.00045132637
0.000954628
0.00579381
0.0056831837
0.0026646852
0.005906582
0.016168714
0.004560232
0.006399989
0.005716443
0.0051790476
0.010849237
0.009100676
0.010668993
0.021259904
0.006074548
0.004205346
0.009868622
0.008718133
0.00808835
0.014145136
0.0019985437
0.006237626
0.0037665367
0.008086681
0.008472204
0.016526341
0.012613177
0.013207674
0.0044835806
0.006360173
0.0024217367
0.00954926
0.0064382553
0.005448699
0.0114815235
0.015463114
0.009047031
0.007824063
0.0039155483
0.0043662786
0.0017107725
0.0013773441
0.008098364
0.0033849478
0.008770108
0.01365912
0.010240912
0.012164235
0.008923173
0.003620267
0.015322685
0.0077039003
0.0030516386
0.003623128
0.0015431643
0.019367814
0.0023505688
0.0023014545
0.0036691427
0.008975506
0.0013313293
0.008037329
0.009533882
0.0037595034
0.005727291
0.011906266
0.010772586
0.0086447
0.0039827824
0.012243509
0.0035852194
0.013848782
0.011033297
0.0022592545
0.0008727312
0.0067067146
0.0037367344
0.0038808584
0.001116991
0.011714697
0.010681748
0.005797386
0.0060652494
0.014433265
0.005070567
0.0023902655
0.005684495
0.003631711
-0.00017774105

0.0076196194
0.0045222044
0.002289176
0.005768776
0.0048298836
0.0060269833
0.022638917
0.012748599
0.004186511
0.005493164
0.004915595
0.008680701
0.015918016
0.0020745993
0.011196613
0.0030647516
0.021546245
0.009039521
0.0029449463
0.006157279
0.0017925501
3.9100647e-05
0.013692021
0.005578518
0.0032901764
0.018538952
0.004410863
0.007317424
0.002477765
0.008118868
0.0016794205
0.012423754
0.0070644617
0.012260079
0.00058555603
0.009815812
0.012940884
0.010692239
0.0064138174
0.004022956
0.0069713593
0.0044338703
0.0040780306
0.008948326
0.0016491413
0.00612092
0.0023155212
0.003641963
0.0003376007
0.0036491156
-0.0004401207
0.0073438883
0.00240767
0.012552261
0.001837492
0.012003899
0.011550188
0.004484415
0.006046295
0.0054341555
-0.0002669096
0.0032092333
0.0013908148
0.011441827
9.655952e-06
0.0037913322
0.000880599
0.009359479
0.010709524
0.0018340349
0.0069059134
0.008736014
0.007506132
0.0039076805
0.0027629137
0.009948492
0.0040026903
0.002259612
0.011120319
0.0015758276
0.009533882
0.0050361156
0.008102179
0.0029847622
0.0058330297
0.009305954
0.0074037313
0.012043834
0.00017213821
0.0020656586
0.0054990053
0.010704517
0.0008496046
0.0026597977
0.007294655
0.0015989542
0.0101133585
0.0022666454
0.0050281286
0.0037961006
0.0073103905
0.0038449764
0.0020730495
0.011000514
0.006569624
0.011745572
0.010110736
0.009060383
0.0047715902
0.021519542
0.0068075657
0.004361987
0.014588475
0.0043331385
0.0030663013
-0.0016778708
0.007934809
0.004085541
0.00336802
0.0053327084
0.008212566
0.0028893948
0.0028210878
0.0022728443
0.001141429
0.0014629364
0.0029120445
0.003243208
0.015014887
0.010013223
0.006311536
0.0044876337
0.0030175447
0.0071891546
0.0056654215
0.0027000904
0.011008382
0.0021979809
0.017524242
0.006943822
0.0031781197
0.0021523237
0.00032389164
0.005592108
0.011015177
0.005975604
0.005335927
0.0056015253
0.00781405
0.0059808493
0.0041725636
0.0015301704
0.0058369637
0.022349834
0.00085926056
0.008977771
3.7431717e-05
0.001962185
0.0016912222
0.01137054
0.0069572926
0.0052729845
0.002559781
0.008529782
0.009422421
0.0048332214
5.9604645e-07
0.014780879
0.0025088787
0.00041139126
0.009407163
0.0034344196
0.0013722181
0.0032708645
0.015702367
0.001172781
0.0027269125
0.010101199
0.0010588169
0.014307499
0.00496161
0.00048065186
0.00853157
0.003243804
0.009506702
0.007751465
0.0037415028
0.0018701553
0.0016568899
0.014892459
0.009367108
-4.529953e-06
0.011248708
0.00034356117
0.002854228
0.0054148436
0.014405131
0.01085031
0.0047535896
0.0151901245
0.017108798
0.014683485
0.0015898943
0.009749293
0.0078122616
0.0067915916
0.0061769485
0.012127876
0.000824213
0.007946849
0.006440282
0.00177145
0.0034406185
0.008744597
0.00016307831
0.00076556206
0.021710873
0.0037264824
0.020786881
0.0025262833
0.0027672052
0.0049158335
0.006923318
0.017708778
0.0071874857
0.009187341
0.0040551424
0.0028153658
0.004995823
0.0049898624
0.004027128
0.0044187307
0.0059705973
0.0073896646
0.0024086237
0.01155901
0.010818243
0.010064483
0.00045108795
0.011194348
0.0028156042
0.0035521984
0.0037956238
0.0045591593
0.008191466
0.001052022
0.0014799833
0.007573247
0.004891515
0.0083527565
0.004848957
0.008996129
0.0047090054
0.0057640076
0.007935524
0.007940173
0.0031690598
0.011698723
0.001975894
0.010949135
0.004797101
0.0018771887
0.00433743
0.008529782
0.010207057
0.0041611195
0.02142942
0.0040712357
0.0078547
0.0014606714
0.008746505
0.001958847
0.00787437
0.0062481165
0.0055116415
0.019611359
0.01776576
0.0066586733
0.01685834
0.009562492
0.0047678947
-0.0009088516
0.00018572807
0.015544534
0.008000255
0.0088044405
0.0072185993
0.004504204
0.0065711737
0.0056682825
0.0041048527
0.020059586
0.0021522045
0.009812593
0.0075160265
0.010227561
-0.0011582375
0.0057655573
0.006578326
0.008158088
0.0047529936
0.021647692
0.004356861
0.00663054
0.004875183
0.0027366877
0.0005573034
0.0059063435
0.01039207
0.015504599
0.01138854
0.0022403002
0.010123849
0.0068552494
0.0070328712
0.006639719
0.009022117
0.027486086
0.0089331865
0.00087833405
0.008627057
0.0128599405
0.0031238794
0.0038630962
0.009787798
0.009456396
0.015572071
-0.00033175945
0.010964751
0.0108754635
0.007973313
0.0055975914
0.005152464
0.008934379
0.008996487
0.012442827
0.008565545
0.009363532
0.009508252
0.00066673756
0.0066553354
0.005571127
0.009056926
0.0022444725
0.0047228336
0.010255575
0.0053884983
0.0029188395
0.0020825863
0.003697276
0.008555651
0.00815177
0.00046730042
0.018603921
0.005170703
0.011904836
0.013781309
0.006971121
0.0054016113
0.0078264475
0.011596918
0.008389473
0.005406618
0.0036872625
0.0006364584
0.0036830902
0.0024068356
0.00399971
0.006788254
0.014526129
0.018265247
0.0035684109
0.003222704
0.0014603138
0.011416674
0.011319637
0.0025012493
0.0020887852
0.0052882433
0.012820959
0.00075662136
0.006515503
0.002243042
0.007390499
0.00402987
0.0009833574
0.006060481
0.013710022
0.0066478252
0.0016821623
0.001701951
0.009529352
0.007247448
0.005810499
0.008243084
0.008629441
0.0001244545
0.013935089
0.0030162334
0.008896232
0.0022677183
0.005803108
0.009072065
0.0051953793
0.0047231913
0.004915595
0.008102059
0.0029195547
0.0017815828
0.0072084665
0.0019581318
0.0020575523
0.01124692
0.008812308
0.005123377
0.026210427
0.008800507
0.0055636168
0.022397041
0.007884145
0.002752781
0.0053117275
0.013288379
0.0009499788
0.0020825863
0.00139606
0.014174461
0.007421255
0.0036942959
0.00021016598
0.0038603544
0.0034558773
0.008950353
0.0117480755
0.0013201237
0.0017565489
0.005911112
0.00085151196
0.0019845963
0.0032756329
0.0022962093
0.006632328
0.009260178
0.0059087276
0.03457153
0.0018812418
0.0033694506
0.0113271475
-0.0009148121
-0.00027036667
0.0071582794
0.0068745613
0.0020130873
0.0046583414
0.0020298958
0.0037989616
0.008925438
0.007507801
0.006757021
0.0012418032
0.005651474
0.009802103
0.023505569
0.0023055077
0.0044192076
0.0081009865
0.002564907
-0.00040781498
0.028456092
0.00084781647
0.0035140514
0.008322954
0.009494424
0.0058071613
0.008366108
0.0028914213
0.008563876
0.009718776
0.00549376
0.0019174814
0.0077358484
0.005328417
0.004965067
0.0029039383
0.006946206
-0.0019456148
0.0055799484
0.0022665262
0.0034259558
0.0046311617
-0.0004286766
0.0067054033
0.0033453703
0.0013270378
0.0033667088
0.008220553
0.0027419329
0.013390422
0.0016937256
0.0052907467
0.003750205
0.002390027
0.0021113157
0.0043381453
0.007593274
0.003317833
0.014834285
0.0076316595
0.013415098
0.0076828003
0.0062892437
0.0056505203

0.2761085
0.27554488
0.19078994
0.19623804
0.25138855
0.20649457
0.27487743
0.26392317
0.2727903
0.24611199

