0.09615052
-0.0054944754
0.036038637
-0.072924495
0.09018767
0.061621666
0.040042996
-0.015048385
0.053249955
0.028563857
0.05853665
0.09350276
0.032476544
-0.1065321
-0.048282266
0.08219206
-0.028332949
0.13450718
0.07666075
0.09314954
0.043296337
0.071834564
-0.000838995
0.03141296
0.040411234
-0.005297661
-0.02111733
-0.018767953
0.07188344
-0.046242833
0.10966551
0.10569239
0.043792248
-0.06042254
0.026911259
0.029208899
-0.026730657
0.016171694
0.042191744
0.067994475
0.028442144
0.005830765
-0.0016264915
0.13471222
0.059443355
0.1300391
-0.018917203
0.08074927
0.02755773
0.04722452
-0.06362355
0.05979383
0.0033653975
-0.12010872
-0.05448389
0.06445658
0.03040433
0.023147345
0.0068616867
0.076407194
-0.029258728
0.12486386
0.045262933
0.07592571

0.06489289
0.02389729
0.00022542477
0.035730362
0.066993594
0.22724271
0.03357327
-0.010586381
0.023435831
0.033671618
0.02861762
0.08297205
0.07384443
0.030364394
0.010511041
0.24231517
0.01539278
0.10778892
0.06364334
0.02894044
0.07394171
0.061840296
0.024811745
0.0038849115
0.03533387
-0.011362195
0.024508476
0.008742094
0.0074893236
0.1254096
0.02737987
0.032652617
-0.010052562
0.024671435
0.004792452
-0.03716719
0.040557146
0.07326329
-0.023767471
0.061054826
0.0026439428
0.045070767
-0.027026534
-0.002483964
0.008837581
0.017816305
-0.014137864
0.0732851
0.06503451
0.0001834631
0.0055416822
0.0019916296
0.009967208
-0.030183911
0.020339966
0.017302632
-0.009939909
0.038295507
0.049249172
0.010277867
-0.010239124
0.008637667
-0.02847159
0.08714676

0.04237759
-0.014300466
0.0482738
-0.0627985
0.053488135
0.009694338
0.011857986
0.015673399
0.06159067
0.07475841
-0.0017951727
0.015179992
0.023630738
0.02652824
-0.0028727055
0.011435747
0.0061947107
0.025218606
0.027610421
-0.008488774
-0.0035529137
0.03647971
0.025640488
0.010860801
0.0059423447
0.002009511
0.021571636
-0.0012725592
0.011673331
0.022598267
-0.00604403
-0.015785336
0.025344253
0.016734362
0.03339815
0.024054646
0.043751836
-0.0008711815
0.01849246
0.025092363
-0.0021640062
0.06010282
0.020796537
-0.016609669
0.022464514
0.03146422
0.04706061
0.029962659
0.03543341
0.033272743
0.028317928
0.011249781
0.0054808855
0.0044237375
0.02969718
0.005690336
0.023990512
-0.008202076
0.00051903725
0.014176965
0.03166294
0.001257658
0.009599447
0.00067448616
0.018481374
0.022434592
0.018270373
0.028358221
0.02012062
-0.01180017
0.010478735
-0.00400877
-0.056404233
0.018848896
0.023761392
0.017962456
0.015842438
0.03696704
0.012069702
0.025194764
0.041335106
0.017546535
-0.004321933
0.02067411
0.041250944
0.022270322
0.049337506
0.01649189
0.054414988
-0.024549842
0.014490724
0.008436084
0.017911077
0.029610634
0.0053788424
0.028757334
0.02704525
0.007843971
-0.005523801
0.06667471
0.04598427
0.0232898
0.019103527
0.021208286
0.029794931
0.011250496
0.0030827522
0.017367601
0.008127928
0.0018391609
0.007657528
0.01330483
-0.00067055225
0.02533245
-0.012182355
0.009557247
0.00498569
-0.0054992437
0.0016750097
0.003406763
-4.2796135e-05
0.010928273
0.048936248
0.022547245
0.021066546
0.052574158
-0.0013079643
0.0008907318

0.0246799
0.026306748
-0.0066275597
0.031229258
0.03628099
-0.0018129349
0.023220778
0.019596696
-0.0036963224
0.029082775
0.018413901
0.014982581
0.01609826
0.025869131
0.0117378235
0.035357237
0.008173823
0.045030355
0.031026125
0.018330812
0.008532405
0.009949923
0.013195515
0.015770912
0.024675012
0.027389884
0.024927497
0.013303518
0.0022135973
0.02622044
-0.03894651
-0.002309084
0.029608369
0.010012627
0.012546778
0.058383226
0.0033308268
0.009257913
0.024268508
-0.005256772
0.021288395
0.022567987
0.0143556595
0.04967773
0.0023415089
0.02368915
0.024024248
0.017799973
0.018502712
0.010864615
0.037814736
0.034668446
0.014403343
-0.0005110502
0.018668175
0.04196
-0.007467389
0.0071333647
-0.021325827
0.002552271
0.05438268
0.008020878
0.05598104
0.019029021
0.036034226
0.01312542
0.00096178055
-0.003286004
0.009043574
0.0064896345
0.023936152
0.0007138252
0.038122058
0.051232457
0.0453099
0.04020822
0.009380817
0.02161789
0.024742603
0.032666087
0.027828574
-0.016643405
0.019935608
-0.010595202
0.028648734
0.026388645
-0.007444501
0.01512599
0.008586407
0.0050424337
-0.020795941
0.0541234
0.029626846
0.026872873
-0.022660613
0.02755177
-0.0067192316
0.006708741
0.049358487
0.011249423
0.024288774
-0.02335596
0.010075092
-0.001183629
0.006913185
0.031140089
0.03308463
0.0013228655
0.041038513
-0.0077227354
-0.000120043755
0.00967443
0.0355587
0.025327682
0.001573205
0.021719098
0.04155624
0.009199381
0.009711146
0.01089704
0.012061
-0.0021826029
0.0015308857
0.01508069
0.017383575
0.03408432
-0.00327456
0.014415264

0.0032240152
0.023720622
0.010071039
0.0016669035
0.011918783
-0.0146307945
0.00831604
0.002504468
0.013733149
0.004194498
0.0033667088
0.004290104
-0.004760504
0.0054217577
0.013040066
0.021950603
-0.00069475174
0.018951654
0.010250568
0.017659664
-0.012326241
-0.0047496557
0.0021101236
0.012826443
0.010912895
0.022973776
0.015544295
0.022224307
-0.002469182
0.021267176
0.014386773
0.013428092
-0.0039172173
0.004330516
0.000983715
0.012184024
0.025300384
0.00024437904
0.017098784
0.01069808
0.021920562
0.008285761
0.025122881
0.008020401
0.010228395
-0.00045764446
-0.0017998219
-0.013348103
0.023512721
0.011027575
-0.003992319
0.0004235506
-0.0009496212
0.004350662
-0.0072306395
-0.0122282505
0.018812656
-0.008952498
0.0042562485
-0.017559528
0.0054912567
0.019458413
-0.004728198
0.016315103
0.0031375885
0.019526005
-0.0037783384
0.0019445419
0.003964305
0.00056028366
0.020324588
0.021471262
0.0022984743
0.007437825
-0.004015565
-0.011342049
0.008956671
0.0008189678
0.026929975
-0.0021818876
0.010123491
0.010746002
-0.0044641495
0.016429543
-0.036922574
0.019702196
-0.0028085709
0.027602196
0.01268816
0.004363537
0.016041756
0.02868402
0.019785643
0.004562378
0.005743861
0.0019385815
0.01706326
0.017150402
-0.0015611649
0.021480203
-0.00028336048
0.014072895
0.013697624
0.008770108
-0.001573801
0.016030908
0.01125288
0.013057351
0.01607287
0.008372068
0.017180443
-0.0019328594
0.005662799
-0.0009435415
0.009737253
-0.008063555
0.0047056675
0.0103548765
0.008901358
0.0020341873
0.014405727
0.0099390745
0.0038847923
0.0075985193
0.0034116507
-0.0073224306
-0.0017768145
0.015450239
0.0063370466
0.004573822
0.019868731
0.015023708
0.008838177
0.019870877
0.004634261
0.013147593
0.034440756
0.0035408735
0.011561871
-0.0033501387
0.014543772
0.0032384396
0.001791358
0.0030328035
0.019665122
0.0010439157
0.0007965565
0.010119677
0.02137065
0.012315869
0.023948908
0.012975216
0.013250589
0.004794121
0.014839292
0.014653921
0.0029315948
-0.00045502186
-0.0005450249
0.009302974
0.00030720234
0.004621625
0.014267683
0.02880752
0.0074847937
0.0069441795
0.0145481825
0.0059450865
0.024999738
0.006106615
0.004663348
-0.0008326769
0.020924091
0.027510881
-0.00022661686
0.005599022
0.0041698217
0.0075786114
0.0012449026
-0.0029987097
0.010691285
0.032003045
0.008080006
-0.0037368536
-0.00017428398
-0.015254021
0.0070779324
-0.0032379627
-0.00040745735
0.013245702
0.008593559
0.01429677
0.0051727295
0.0037053823
-0.0013524294
0.014825463
0.025735497
-0.003653407
0.016961575
0.005627036
0.011811733
0.010507226
0.0010777712
0.0069663525
0.006276846
0.0051060915
0.009827375
0.002723813
-0.0022872686
0.005646944
0.014219403
-0.0023269653
0.0019030571
-0.0070855618
0.013971329
0.0041320324
0.021960497
0.014137864
0.00053858757
0.019527555
0.019742727
0.008722782
0.022891283
0.0048378706
0.018269658
0.0066452026
0.014558911
0.005547285
0.0039186478
0.02974701
0.004278183
0.0033619404
0.0024597645
0.028471112
0.006279707
0.016372442
0.019950747
0.0069178343
0.0064872503
0.0056267977
0.016535282
0.01781094
0.017150521
0.006897688
-0.001562357
0.0075775385
0.023960233
0.0049015284
0.011187673
0.016305208
-0.006009221
0.020314217
0.021366239
0.0062268972
0.011216402
0.0032737255

0.0068286657
0.002952695
0.0012518167
0.032528162
0.015908837
0.00424242
-0.010283947
0.011095285
0.0063638687
0.0013593435
0.025303721
0.009185672
0.006159425
0.0060942173
0.0125210285
0.00081932545
0.014949679
0.0020303726
0.033637166
0.013569832
0.008516312
0.023009658
-0.00038862228
-0.002460003
0.01992035
0.024710178
0.010469794
0.01789403
0.0013202429
0.01357758
0.009700179
0.0052809715
0.007183194
-0.0038807392
0.006636381
0.017513871
0.011352539
0.014866829
0.02815044
0.0037477016
0.0011401176
0.022850752
-0.004470229
0.007904768
0.010974646
0.014715552
0.018530965
0.0015397072
-0.005426407
-0.0013327599
0.0001386404
0.0030398369
0.00060772896
0.01131773
0.010012388
0.00657773
0.0011582375
0.008613467
0.010512233
0.009340644
-0.009793758
0.019328475
0.0053629875
-0.002828598
0.0151565075
0.0010253191
0.018828273
0.0037550926
0.0031757355
0.041157246
0.003800869
0.007397175
0.0069009066
-0.00010764599
0.0010668039
-0.0012573004
0.0021454096
0.040825844
-0.0039417744
0.0052073
0.0091125965
0.0043905973
0.0082268715
0.0066605806
-0.00017881393
0.0041098595
0.0018959045
0.025591731
0.0021324158
0.00025439262
0.026231408
0.0060368776
0.017822742
0.020579576
0.008719802
0.010582805
0.012065887
0.005565524
0.0019797087
0.016869307
-0.00028562546
0.024027467
0.0010396242
0.003303647
0.013078451
0.0006495714
0.006716013
0.0055811405
0.025613427
-0.003739953
0.0007929802
0.014603376
0.00870645
0.0033111572
0.002520442
-0.0005772114
-0.0030727386
0.0031523705
0.0010459423
0.008304238
0.011780262
-0.0010305643
0.0026532412
0.002665162
0.0066581964
0.014497161
-0.0005609989
0.0010775328
0.004548788
-0.0014740229
0.023496866
0.010286689
0.016161323
0.0064231157
0.0040043592
-0.0042653084
0.01880312
0.018920064
0.0031945705
-0.00073575974
0.013393521
0.028312325
-4.7564507e-05
0.00011181831
0.011302352
0.014624596
0.015510082
0.00019943714
0.017316222
0.03065145
0.00873673
0.014877796
0.0053788424
-0.015105844
0.016753554
-0.0033278465
0.008860588
-0.001072526
0.012470961
0.003765583
-0.0012303591
-0.00021982193
0.011909366
0.0048909187
-0.016721487
0.00044727325
0.00080037117
0.022783637
0.0039486885
-0.0031561852
0.008559585
0.013825417
0.029373527
0.00058460236
0.016065955
0.008551478
0.009737492
0.011764407
0.016622066
0.02080357
0.0078264475
0.003101468
0.006377578
0.0013821125
0.009588957
0.007894516
0.0064048767
0.01807952
-0.0035216808
0.0001783371
0.004475236
-0.0042170286
0.028774023
0.0006670952
0.013604283
0.011483192
0.009934187
0.0031785965
0.009562492
0.022709966
0.00011944771
-0.007070303
-0.0032120943
0.0036326647
0.0033912659
-0.00024819374
0.004690051
0.0070052147
0.0039486885
0.022767305
0.0082502365
0.011235476
0.008796334
0.01290977
0.006913781
-0.00081169605
0.009073257
0.012883186
0.0070017576
0.015608907
0.005870104
0.0071179867
0.006706476
0.013333917
0.022940874
0.020240784
0.007596493
-0.014261246
0.013107777
0.0250628
0.005402446
0.0005041361
-0.0009448528
0.022675514
0.018336296
0.01737237
0.020535946
-0.0032263994
0.0046103
0.016060352
-0.00044548512
0.029855132
0.00028979778
0.00277102
-0.0035467148
0.029630184
0.003790617
0.0033329725
0.005278349
-0.00080013275
-0.0011332035
0.020409346
0.02771163
0.01243031
0.00867033
-0.00016367435

0.022755504
0.008066416
0.002714157
0.013463974
0.02234006
0.04083407
-0.00018322468
0.009764075
-0.014136553
0.004343152
0.014565587
0.014621615
0.006984353
0.015543222
0.005643964
0.020366907
0.022728086
0.0063427687
0.0007456541
0.012834907
0.01940167
-0.0017243624
0.02043736
0.004719615
-0.0013048649
-0.012162924
-0.00081932545
-0.0087349415
0.009549618
0.016392827
0.026404858
-0.0029740334
0.009944677
0.020352483
-0.02220285
0.024291158
0.0010393858
0.035701394
-0.007986546
-0.008367062
0.004936695
-0.0018348694
0.0031266212
0.022928119
-0.03204131
0.010052681
0.016007066
-0.0069158077
-0.002820611
-0.006441951
0.006926894
0.020436168
0.00081539154
0.0152596235
0.011625171
0.0085071325
0.0012607574
-0.009119272
0.03027904
0.012211919
-0.0063517094
0.013044
0.015446544
0.008430243
0.0053323507
0.0014008284
0.0062133074
0.017899632
-0.00011897087
0.018328786
0.024458885
0.008282661
-0.0027170181
-0.009468436
-0.008903861
-0.0032240152
-0.023628592
0.00815165
0.009231567
0.006402731
0.025464296
0.0068719387
0.010857582
0.0044196844
0.013663769
0.005500436
-0.0015785694
-0.0037606955
0.03603506
0.0027786493
0.037833095
0.0064846277
0.004929304
0.003929019
0.008515358
0.041651607
0.019539714
-0.003313899
0.00026881695
-0.0047192574
0.008093715
0.012304187
0.002359867
0.026323438
0.009447455
0.00759089
0.0063506365
0.024154186
0.0128695965
-0.00010085106
-0.0057480335
0.014421463
0.0020560026
0.019859314
0.009269953
0.022299051
0.015191317
0.0027462244
0.0025849342
-0.004549265
-0.0011137724
0.02558148
-0.009535909
-0.008008957
0.025624752
0.004938841
0.0022741556
0.0029714108
-0.027099848
0.015681505
-0.005411744
0.040783048
0.0102036
0.022095323
0.007740617
0.010726213
-0.015612245
0.0007814169
0.009029508
0.006206274
0.005420804
-0.0018006563
0.0065772533
-0.0045437813
0.020763755
0.009487152
-0.00075650215
0.0077887774
0.010218501
0.0029096603
-0.0014023781
-0.002989769
-0.0044130087
0.009617329
0.014989257
0.0065817833
-0.00081706047
0.0059717894
0.0024975538
-0.0017795563
0.028062344
-0.008099437
0.014767408
-0.0002297163
0.013090849
0.0055583715
0.002360344
0.026531816
-0.0029267073
0.00049352646
0.017523885
0.0029207468
-0.012709737
-0.0070433617
0.0022944212
0.005838394
0.013366461
-0.0009783506
0.0012583733
0.014169455
0.011287689
0.017142415
0.021820545
0.023940682
0.004101634
0.030467987
0.01934743
-0.0016452074
0.0027409792
0.03665197
-0.0059500933
0.023197174
0.03323531
0.014179468
0.02106464
-0.0015459061
0.0243783
-0.0004929304
0.024353981
0.024739861
0.02448833
-0.0040323734
-0.02443993
0.009025335
-0.0011552572
-0.0005258322
0.009484053
0.015787363
0.009330511
-0.004021287
0.015415549
0.057564616
0.01813519
0.008069515
0.020695448
0.018924832
0.013903379
0.0018970966
0.0015232563
-8.261204e-05
-0.0038930178
0.031981707
0.008619189
0.016582966
0.011624694
0.009655833
0.002845168
0.02087605
0.01508379
0.02861178
-0.0047796965
0.0031050444
0.007250309
-0.0017163754
-0.0151337385
0.012883902
-0.0032657385
0.012769103
0.022789001
0.014926672
0.016223669
0.009884238
0.014322877
0.00095653534
0.0243963
-0.004591465
0.02005291
0.012036681
0.005008459
0.0038778782
0.028338552
0.008763194
-0.0041589737
-0.002683282
0.0142964125
-0.0031865835

-0.0061272383
0.004792094
0.011804104
0.0058107376
-0.002167225
0.009950519
0.0023491383
-0.0031278133
0.008454919
0.0009483099
0.0019966364
0.010515571
0.00774014
0.004938245
0.011124492
0.0026259422
0.0024403334
-0.0010694265
0.014355779
0.0049853325
-0.0010660887
0.008623719
0.0071086884
-0.002499342
0.0051294565
0.0016715527
0.012855291
0.0074756145
0.006542802
-0.012121201
0.005076647
-0.0006599426
-0.009329438
0.0037873983
0.0030434132
-0.00097596645
0.009425759
0.0002667904
0.0060663223
0.013407469
-0.000928998
-0.0050131083
0.012912273
-0.0051761866
0.0015234947
0.0057399273
0.004671335
0.0021326542
0.0032416582
-0.014585018
-0.006168008
0.0009509325
-0.002414465
-0.0004812479
0.0059913397
0.00874126
0.009136319
0.005043149
0.0013512373
0.0070723295
0.008430719
0.01442945
-0.0037008524
-0.0024222136
0.00020229816
0.0034538507
-0.0026135445
-0.0067620277
0.004961252
0.011211276
0.011150241
0.014334798
0.0026474
0.010520339
-0.0027378798
-0.0004544258
0.0077012777
0.0023739338
0.003175497
-0.0035716295
0.0014476776
0.0006095171
-0.001937747
-0.00064492226
0.004863739
0.0026311874
0.011467457
0.0018869638
0.020217776
0.0050364733
-0.00049364567
0.004026413
0.0014489889
0.0011792183
0.00090920925
-0.0049506426
0.0058254004
0.007076621
0.0070255995
0.0019319057
-0.0020387173
0.009268403
0.0017088652
-0.0050069094
0.0168581
0.0038030148
0.0021517277
0.0035313368
0.011272788
0.0071896315
0.009590864
-0.0036494732
-0.0069955587
0.012852311
0.0034604073
0.0042259693
0.0066666603
0.0020500422
-0.00031650066
0.00379467
0.0071314573
-0.008807421
0.025828958
-0.0014215708
0.012565136
0.013958454
0.0013315678
0.002416253
-0.002113223
0.008084059
-0.0046738386
0.008404255
0.009767771
-0.007331848
0.0011637211
0.004467368
0.0084427595
0.011492968
0.011425376
0.0025030375
-0.0063917637
-0.0014408827
0.011156559
0.0032361746
-0.0024417639
0.0008504391
0.0036183596
0.0015822649
0.007603407
0.01134038
0.00032269955
0.006676197
-0.0017050505
0.014345527
-0.0012873411
0.014037728
-0.0005028248
-0.0013720989
0.010302186
-0.004189253
0.01425159
-0.0008736849
-0.0066912174
0.002886176
0.0077273846
-0.003950119
0.010559082
-0.0013859272
0.010009766
-0.0019750595
0.011829495
0.003479123
0.015855193
0.008569121
0.0032818317
-0.007118106
0.006257415
-0.0011587143
0.0042096376
0.0068775415
0.0014492273
-0.00016021729
-0.0018206835
0.011395574
0.013981223
-0.0009938478
0.0011540651
0.011934757
-0.0017044544
-0.00010538101
0.00070512295
0.0011758804
0.006371379
0.0018680096
0.0053099394
-0.00043606758
-0.0014915466
0.005497813
0.005466819
0.011220217
0.0013827085
0.003546834
0.00097608566
0.00028944016
9.6321106e-05
0.0008664131
0.011930823
0.0090556145
0.0028016567
0.01899767
0.0067231655
-0.004286289
0.01586485
0.016394615
0.0026985407
0.010512114
0.013898253
0.00085008144
0.0045058727
0.02147913
0.0039343834
0.009478688
0.00020551682
0.002752304
0.0015184879
0.007352233
0.0060088634
-0.0009610653
4.4345856e-05
0.01143229
-0.0012212992
0.0018594265
0.009342313
-0.0006674528
0.0049711466
0.01396513
0.004461527
0.015081048
-0.00013947487
-0.0045981407
0.008244395
0.0017267466
0.017276168
0.0068216324
0.006992221
0.008191586
0.0055929422
0.004827976
0.0066969395
-0.010054231
-0.010934353
0.004867792
0.0039538145
0.004818678
-0.0050258636
0.014980078
-0.0016760826
0.0031526089
0.013176441
-0.0033954382
-0.008322716
-0.002113223
0.011461616
-0.008633018
-0.0008612871
0.0038599968
0.0037379265
0.010449529
0.0048149824
-0.0058785677
-0.0014896393
0.014467955
0.0017447472
0.0039691925
0.008101463
-0.010899305
0.009315848
0.012631416
0.0075962543
0.0058686733
0.021981716
0.008668184
-0.0014820099
0.0075101852
0.0089463
0.010747194
-0.0008145571
0.007158637
-0.0063887835
-0.006069422
-0.00709641
0.0062618256
0.004774809
0.015046716
0.010691404
0.0053704977
0.003478527
0.018906474
0.0028147697
0.0031768084
0.008915305
0.009301424
-0.0019854307
0.0012704134
0.0008186102
0.0068662167
0.0031561852
-0.0055264235
0.0042858124
-0.00050365925
0.0018767118
0.009737134
-0.0046441555
0.004302621
-0.0020407438
0.010231376
-0.003661871
0.00087559223
0.0014885664
0.011219621
0.013038993
0.008535743
0.0019921064
0.0031073093
0.005839944
-0.009669781
0.00015461445
0.0065454245
0.0056090355
-0.0064105988
-0.0002963543
0.0044465065
0.0018229485
0.012127399
-0.00417614
-4.2438507e-05
0.0005643368
0.006137252
0.00022053719
0.0021343231
0.0012456179
0.00016200542
0.0071840286
-0.010168195
0.0037529469
0.001791358
0.013713002
0.0046532154
0.0108395815
1.692772e-05
-0.00019490719
0.0038473606
0.009863615
-0.0079633
0.006886959
0.0022281408
0.0018672943
-0.0014792681
-0.001241684
0.0053702593
0.0016152859
0.007081747
0.0019556284
0.017389894
0.014369965
-0.010298252
0.0016511679
0.0104471445
0.006705761
0.024024963
0.0070431232
-0.0064706802
0.0070945024
-0.00018906593
-0.00079381466
-0.0012608767
0.011829495
0.011531234
-0.00022649765
0.00039601326
0.00045609474
0.0048128366
0.006115794
0.0054285526
-0.0040056705
-0.012782574
0.011675596
-0.0021859407
0.008519769
0.0043587685
0.0179559
0.008520126
-0.0030494928
0.01761198
0.0102494955
0.0067511797
0.008051991
0.008659005
0.006595373
-7.498264e-05
-0.0025839806
-0.0018515587
-0.0038614273
0.0062270164
-0.0004696846
-0.000513196
0.012617946
-0.00022864342
0.0030523539
0.0007504225
0.0021418333
-0.00495553
-0.007836342
0.007925153
0.006139636
0.012473822
0.0068085194
0.003446579
-0.00223279
0.0283463
0.0079033375
0.007370591
0.00031971931
0.013412356
-0.0005364418
0.014742136
-0.0047262907
0.0145738125
-0.0021746159
0.010528684
0.0047017336
0.0033384562
0.0042669773
0.0043292046
0.025246978
-0.00048160553
-0.0031952858
0.0035494566
0.01134634
0.00031781197
0.00044178963
0.0036542416
0.011976957
0.0010199547
0.0024377108
0.0027110577
0.009555101
0.012544274
0.0016521215
-3.838539e-05
0.00041234493
0.00085926056
-0.013788104
0.0027104616
0.0155415535
0.00027489662
0.010407329
0.0119354725
0.0013564825
0.0009279251
-0.00016629696
-0.008247733
0.011122227
0.012322426
-0.0019142628
-0.0017007589
1.9907951e-05
0.009627819
0.0024929047
0.00033700466
0.011218548
0.0016944408
0.0069584846
0.011698484
0.011228204
0.008316159
-0.0053982735
-0.00034189224
0.0026792288
0.007699728
0.0075109005
0.013413906
0.00014126301
0.0037142038
0.0059173107
0.008209586
0.009228468
-0.0078264475
0.012493253
-0.0009096861
-0.0018293858
0.014633417
0.0024763346
0.0062367916
0.0068558455
0.00095164776
0.013432026
-3.2544136e-05
0.0056777
-0.004212022
0.006100774
0.010149956
0.008090615
0.016973376
0.0008533001
-0.00092959404
0.00825274
-0.000839591
-0.003711462
0.004735589
0.012986898
0.022632837

0.004178405
0.0007580519
0.00089108944
-0.0010539293
-0.00047194958
-0.0013593435
0.00037765503
0.009254217
0.008310199
0.009765029
-0.002857089
-0.0013267994
-0.004158497
-0.00023901463
0.023398519
0.007996917
0.0075980425
0.010978103
-0.011782765
0.0018918514
0.010078311
0.000119924545
0.0051015615
0.0017127991
-0.001100421
0.009978056
0.006384492
0.018990636
-0.0031621456
0.01130867
0.008411527
-0.0007762909
0.009506106
0.000106453896
0.0011488199
-0.000274539
-0.00054848194
0.007340193
0.0128160715
0.0033859015
0.0033597946
0.0027821064
0.009000063
-0.0020056963
0.0038827658
-0.002055049
0.014454842
-0.0019465685
0.0077934265
0.013644099
-0.008677125
-0.0018985271
0.00791502
0.0037052631
0.008044481
-0.0054627657
0.011251926
0.0040956736
0.0027352571
-0.0030001402
0.000543952
0.0013076067
0.01770711
0.0033296347
0.0076606274
-0.0010718107
0.008508325
-0.0007762909
0.00906384
0.005311966
-0.0006160736
0.017710447
0.013230443
0.007393956
0.0070307255
0.00030434132
-0.0054422617
0.0060219765
0.0048731565
-0.0002323389
-0.001440525
0.0063750744
-0.0003900528
0.0034404993
0.009890318
-0.00027620792
0.0012089014
-0.007043481
0.014791369
0.013741136
0.013829231
0.0058190823
3.9100647e-05
0.009407997
0.0014002323
0.0024530888
0.0020779371
0.00021541119
0.004588604
-0.0012668371
0.000656724
0.008007765
-0.00200665
-0.00350976
0.00838685
0.009099722
-0.0016049147
0.004797697
0.0035128593
0.007744193
-0.002038598
0.0023825169
0.0064126253
0.0012254715
0.0046987534
0.008009672
0.021060586
-0.0008472204
0.011942863
0.0016597509
0.004158616
0.0034168959
0.0060225725
0.008118987
0.001691699
0.0017161369
0.0035002232
0.0043441057
0.0015927553
0.0034316778
0.0071258545
-0.0064795017
0.009866238
0.00023293495
0.005718589
-0.0004862547
0.015898705
0.0025146008
0.0054979324
-0.00042760372
-0.0006262064
-2.4199486e-05
-0.0023925304
0.010528445
0.0019652843
-0.0014009476
0.0031619072
0.0018247366
-0.0020768642
-0.01088953
0.0018284321
-0.00023031235
0.0057559013
0.0047107935
0.0036745071
0.008106351
0.0020622015
0.0022206306
-0.0006862879
0.0033143759
0.010058999
0.0072005987
0.0019185543
0.00917542
0.005277157
-0.0001039505
-0.00019788742
0.0017585754
-0.0034736395
0.0021830797
0.013741374
0.018850803
0.0021733046
0.00667274
0.002408862
0.0040864944
0.0010133982
0.00035393238
0.00068318844
0.00011062622
0.00024855137
-0.0010259151
0.007737756
-0.005538821
0.0020874739
0.002436161
-0.0015615225
0.012334943
-0.0013372898
-0.001188159
0.008253694
-0.0012487173
0.0020523071
0.0015425682
0.012315631
0.012398481
0.0030105114
0.0027598143
0.011803985
0.004977703
0.00553298
0.004624963
0.0009664297
0.0013542175
0.011490107
0.015169501
0.0055047274
0.00015282631
0.0049390793
0.0023014545
0.027470589
-0.0034542084
0.007668495
0.010182381
0.0106499195
0.0064600706
-0.0010516644
0.014635563
0.016965985
-0.003221631
0.005760312
0.0028928518
0.0085430145
0.0054278374
0.004179597
-0.0007286072
-0.0005643368
0.003076315
0.003937006
0.0052479506
0.0014744997
0.0024627447
0.0018576384
-0.00095415115
-0.0011880398
0.0044174194
0.013834357
-0.0010948181
-0.0052978992
0.0036764145
0.0041332245
0.0052173138
0.009416461
0.005383849
0.003979802
0.014662385
0.00026583672
-0.00042438507
0.0011131763
0.011989832
0.002606392
0.00079226494
0.013395309
0.003518939
0.0008317232
0.0006223917
0.0046110153
-0.0031706095
0.0015312433
0.0069903135
0.010878563
-0.0036280155
0.003728509
0.0063204765
-0.00021791458
0.0003786087
-0.004455447
0.006458044
0.002353549
0.004267812
0.0034811497
0.0064846277
0.0042015314
-0.0018798113
-0.0066934824
0.0067175627
0.019352198
0.010287881
0.0054394007
0.0063112974
0.0130803585
0.0077291727
0.008618951
-0.002749443
0.010847688
-0.0005506277
0.0023047924
0.017372012
-0.0004143715
0.0033785105
0.0023624897
0.0013145208
0.014660478
0.0045161247
0.0031744242
0.0038461685
-0.00012814999
-0.0004993677
0.00050127506
-1.7046928e-05
0.013600588
0.0028195381
0.0007458925
0.013828158
0.008016229
0.00056385994
0.0068439245
-0.00011587143
0.00228858
0.0014381409
0.002014041
0.0037647486
0.0023845434
0.009274006
0.0026699305
-0.0016082525
-0.0088272095
0.0046516657
0.0008727312
0.0023704767
0.0013636351
-0.008539319
0.008603573
0.0044050217
0.01153326
0.004965782
-0.00049829483
0.013250351
0.0076146126
0.0020387173
-0.0009673834
0.006204009
-0.0021115541
0.0022568703
0.0067129135
0.004303932
0.0043313503
0.0018066168
0.006326437
0.008925796
0.009364128
0.00084769726
0.0073616505
0.00061643124
-0.006811261
0.0034925938
0.008566022
0.0019928217
0.0013092756
0.0049483776
0.005308628
0.008200765
-0.00082457066
-0.0049883127
0.0033278465
0.009632468
-0.0011421442
0.0025793314
0.0023208857
0.00874722
0.007380128
-0.00056016445
-0.0025461912
0.0074887276
0.01665175
0.001844883
0.0034507513
0.007531643
0.004024029
0.0030071735
-0.0054541826
0.006990671
0.015809536
0.010376334
0.0012037754
-0.0011433363
0.012677193
0.010189056
0.0056449175
0.0064861774
-0.0007644892
-0.0023679733
0.010137439
0.0128263235
0.016474962
-0.002882719
-0.0004760027
0.015282631
0.011086583
0.00091063976
0.007212281
-0.007139802
0.0068557262
0.0042859316
0.006044507
0.008283615
0.015749812
-0.0005867481
0.001285553
0.004014373
0.002436757
0.008745909
-0.0010795593
0.011695743
0.0044802427
0.00076532364
-0.005959153
0.0037628412
0.011620045
0.007566333
0.0054557323
0.008445978
0.0031881332
0.007649064
0.0015240908
0.0082992315
-0.00046217442
0.0056198835
0.001870513
0.0064753294
0.0034879446
0.011263013
-0.0028874874
0.011683941
-0.00054228306
0.009260178
0.0009095669
0.008217931
0.016157627
0.0065099
0.017317772
-0.0004876852
0.0013113022
-0.0013403893
-0.0026797056
0.017896771
0.0035090446
0.002035141
0.012741685
-0.005567789
0.0012289286
0.0063961744
0.014688134
0.011083007
0.003360033
-0.00044369698
0.0054166317
0.000600338
-0.007456422
-0.005626917
0.00069344044
0.009650826
-0.0012578964
0.0052303076
0.00083243847
0.001244545
0.002034545
-0.00011539459
0.0015633106
0.004501343
0.0034387112
0.0021935701
0.0030269623
-0.0004440546
0.0046572685
0.008047938
0.0029067993
0.0035221577
-0.0062224865
0.0066218376
0.0047746897
0.0038326979
-0.0014930964
0.008478165
-0.0025930405
0.007971644
0.0045701265
0.0055441856
0.003917694
0.0024192333
0.0038374662
0.0021791458
0.0016417503
-0.00065660477
0.009293437
-0.0015958548
0.0046150684
0.0066610575
0.00602293
0.003328085
0.00867784
0.0012961626
0.010983825
0.0053601265
0.00043809414
0.012343407
-0.0032824278
0.011703849
0.0119822025
-2.3841858e-06
-0.0020627975
0.0017088652
-0.0011125803
-0.0010359287
0.005624175
0.012302756
0.0023998022
0.0066297054
0.0033538342
-0.008845687
0.0048059225
0.0010983944

0.0076663494
-0.00059342384
0.007459879
0.016855717
-0.0010364056
0.009665012
0.000849247
-0.0006016493
0.013498783
0.0032263994
0.0031307936
0.00028383732
-0.0017310381
0.005740404
0.007868767
-0.00011360645
0.006439328
0.010692477
0.0028214455
0.0053323507
0.021843076
0.008120179
0.005482316
0.0075969696
0.008248448
0.007229209
0.006404996
0.010443211
0.0043913126
0.0010510683
0.002456069
-0.00204432
0.0027941465
0.011528015
-0.0002477169
0.0014737844
0.0023636818
0.009849191
0.002468586
0.0074676275
0.0012630224
0.034000516
0.0018271208
0.004005909
0.002998352
0.0021867752
0.0032625198
-0.0087713
0.0031791925
0.0168252
0.0014199018
0.0012700558
-0.0006878376
0.022952795
0.0028738976
-0.002751112
-0.001747489
-0.002307415
4.053116e-05
0.004288316
0.0035065413
-0.00014007092
-0.0025435686
0.008864999
-0.0012620687
-0.0014516115
0.0049118996
0.0021853447
0.006234288
0.007840633
0.004235983
0.001177311
0.0024563074
0.003681779
0.00093114376
0.0008690357
0.0009460449
0.009808779
0.0063307285
0.008903265
0.00059747696
0.0010040998
-0.0005930662
0.008473992
0.0014947653
-5.4717064e-05
0.0055299997
0.010187745
0.011124611
0.006529331
0.0037043095
0.012742281
0.01054883
0.009890795
0.0022021532
0.0077468157
-0.0006941557
0.011514306
0.0043764114
-0.0021525621
-5.7935715e-05
0.0018945932
0.0004951954
0.0025935173
0.0045381784
0.0022341013
-0.000426054
-0.0013085604
0.007289648
0.0031571388
-0.0027583838
0.005493164
0.0052173138
0.0029287338
0.005827427
0.0026547909
0.0056220293
0.0076828003
-4.8041344e-05
0.002572775
-0.00017428398
-0.0015829802
0.0038815737
0.004572034
-0.00262177
0.0030388832
0.002958417
0.0008791685
0.009747386
-0.002162099
0.010479808
-0.002341032
0.002554655
-0.00070011616
0.0041980743
0.0014047623
0.0022051334
0.0074688196
-0.00031745434
0.023560762
0.0140480995
0.00083100796
0.0066605806
0.00011026859
-0.0013875961
0.0013308525
0.0020080805
0.0035051107
0.009953618
-0.002809167
-0.0024943352
-0.0029025078
0.0021244287
0.0013639927
0.005998254
0.0049078465
6.4730644e-05
-0.0010280609
-0.0011134148
0.007432103
-0.0010356903
0.00054585934
0.009023428
0.007895708
0.0036160946
0.0031360388
0.0003234148
-0.00030469894
0.0045387745
0.0010291338
0.014183283
0.0051572323
0.0022087097
0.0060704947
0.0040159225
0.0070118904
0.00043165684
0.003776908
0.0028383732
0.0007340908
-5.722046e-06
0.008652806
0.0056824684
0.006106496
0.0016018152
0.008143783
0.0032070875
0.0077753067
-0.00076782703
0.0007548332
0.004223585
0.0028567314
0.008898616
0.0028606653
0.0066150427
0.006539583
0.0030759573
0.007314563
0.002542138
0.002595067
0.0032186508
0.013602853
0.0023477077
-0.00085377693
0.0018362999
0.0046197176
0.0032275915
0.0016032457
-0.00016605854
0.009291291
0.0025045872
0.0024421215
0.0047808886
-0.0037020445
0.021387339
0.005371928
0.009131551
0.0031001568
0.009254694
0.0010718107
0.0012574196
0.000916481
0.000934124
-0.0013539791
0.008745313
0.0058881044
0.0039004087
0.025567293
0.00096035004
-0.0005816221
0.011349082
0.0065664053
0.005752325
0.012802124
0.00066781044
0.0011364222
0.0019583702
-0.001704216
0.0029281378
0.0052275658
0.0021209717
-0.0012164116
0.00039744377
0.00053346157
0.002729535
0.0018800497
0.009763718
0.0045171976
0.007359147
0.0019123554
-0.0019602776
0.006110668
0.009348869
0.0065358877
0.0026099682
-0.0031821728
0.002562046
0.03375423
0.003324151
0.0041246414
0.0009765625
0.0016952753
0.0071873665
0.001577735
0.0065113306
0.0016070604
-0.00015032291
0.0038849115
0.004207611
0.002986312
0.005339384
0.001142025
-0.0007253885
0.0031354427
0.0007252693
0.0006392002
0.0086506605
0.012680173
0.0026419163
0.0076072216
0.0070459843
0.010401368
0.006379485
-0.00081956387
-0.0019569397
-0.00061798096
0.001270175
0.01421392
0.0014092922
0.0032277107
0.00091814995
0.0068974495
0.0067414045
0.00095677376
0.0033230782
-0.00057530403
0.005035877
0.002244234
-0.00040495396
0.0040926933
0.0023561716
0.003237009
0.012106538
0.00039744377
0.007810235
-0.0009936094
-0.002649188
0.0017925501
0.009561658
0.0019993782
0.0049306154
-0.00014054775
0.0025568008
0.0044027567
0.0015741587
0.00038349628
0.0074694157
0.0010019541
0.0034880638
-0.0010294914
0.0116250515
0.00078701973
0.00092566013
0.004648924
0.0017249584
-0.0012663603
-0.0015484095
0.0043034554
0.0038456917
0.004470706
0.00045919418
-0.0013437271
-0.0014804602
0.003024578
0.00077164173
-0.0012345314
0.0061011314
0.0032155514
0.008607149
0.00021100044
-0.0022500753
0.003222227
0.0020279884
0.0035777092
-0.00282979
0.0021048784
0.0034366846
0.0041211843
-0.00043416023
0.004988909
0.0061204433
0.0031840801
-0.0012675524
0.006082654
0.002943635
0.012365103
0.0034282207
0.0027800798
0.010658979
0.0010453463
0.003286481
0.0045204163
0.0052098036
0.0012167692
0.0062978268
9.393692e-05
0.00388968
0.007998824
-7.224083e-05
0.006593466
0.008620143
-0.0015119314
0.0016646385
0.00022661686
0.014044404
0.0072170496
0.0070135593
0.002585411
-0.00029087067
0.0008095503
0.00941515
0.007615924
0.0073230267
0.00827837
0.0011867285
0.00035989285
0.01641953
0.0080958605
0.0065648556
0.00045681
-0.00042128563
-6.7949295e-06
0.008165956
-0.0002220869
0.015147209
0.011481047
-0.0025054216
0.0005546808
0.003287673
0.007553458
0.010130525
0.0017997026
0.002458334
0.0012814999
0.0029203892
0.0020376444
0.0006632805
8.940697e-06
0.016575575
0.001942873
0.0029400587
0.011574745
0.008889794
0.004610181
0.0032852888
0.0032401085
0.004334092
0.0048242807
0.004232168
0.0013762712
0.0006210804
0.0053521395
0.004823923
0.0009381771
0.0001090765
0.01020503
0.010677338
0.016742468
0.00017464161
0.003503561
0.002626896
0.007426858
0.0013387203
-3.9458275e-05
0.014293313
0.0041724443
0.012394667
0.001490593
0.0036560297
0.00036132336
0.007465601
0.0074852705
0.003003955
0.005256653
0.007935286
0.010724425
0.007978201
0.0045473576
-0.0015769005
0.0012408495
0.005631447
0.019573689
0.006653428
-0.0026533604
-0.0015696287
0.0050131083
0.0026775599
0.01283443
0.0051864386
-0.0038918257
-0.0039693117
0.005196452
0.0023828745
0.0069829226
0.004556179
-0.0016871691
0.004570484
-0.0012913942
0.0052199364
-0.0008186102
0.0049852133
0.001450777
0.0037167072
0.002345562
-0.0012950897
-5.4121017e-05
0.010766864
0.0058213472
-0.0059473515
0.0044704676
-0.0006610155
0.01746893
0.0022997856
0.010195255
-0.00090396404
0.007786751
-0.003174901
0.0012208223
0.00035953522
-0.0025117397
0.0069414377
-0.0014003515
0.022725582
0.003549695
0.0005606413
0.0009241104
0.0032074451
0.015239477
0.0065500736
0.0123410225
0.0064787865
0.0030982494
-0.000700593
0.010905623
0.0022575855
0.0063607693
0.0026743412
0.00096678734
0.0025025606
-0.0035865307
-0.0020434856
0.010041118

0.011656761
0.002099514
0.0059603453
0.0072516203
0.009901881
0.005481124
0.012257695
0.005081415
0.007164359
0.005227804
0.005097866
0.0030021667
-1.9192696e-05
-0.00011909008
-0.0007517338
0.0012301207
0.0016825199
0.004271269
0.006755352
-0.00062668324
0.0033068657
0.004975915
0.00963223
0.0011689663
0.0009858608
0.00042903423
0.005091071
0.0057308674
0.0125705
0.0053910017
0.0057872534
0.0055065155
0.0017786026
-0.00037300587
0.00012755394
0.004959464
0.0009367466
0.0017409325
0.0054842234
0.0041320324
0.0011816025
0.0007914305
0.004540801
0.00080132484
0.0028797388
0.0006489754
0.0040160418
-0.001026988
0.0061967373
-0.0013285875
0.0011539459
0.0050674677
0.0028387308
0.0074460506
0.0014541149
0.00843823
-0.0001502037
0.0154623985
0.011093497
0.006410837
0.0008980036
0.0013905764
0.0052546263
0.0036222935
0.0015443563
0.0012886524
0.0086865425
0.004527688
0.0059449673
0.0025556087
0.0056881905
0.014792323
0.0033525229
0.0053293705
0.0019141436
0.0012423992
0.0055891275
0.0032740831
0.0034495592
0.0005722046
0.0030579567
0.0022096634
0.022039056
-0.0018476248
0.00022161007
0.001798749
-0.00035822392
-5.054474e-05
0.0121665
0.0049749613
0.00046634674
0.0027202368
0.0023386478
0.002931118
0.00030755997
0.001832366
0.003461361
0.0028406382
0.0044133663
0.000177145
0.014205575
0.00016200542
0.0012431145
-0.00042521954
0.0017678738
0.006218195
0.0041167736
0.0007942915
0.009568095
-0.0005351305
0.0041122437
2.8729439e-05
0.0012130737
0.0050525665
0.0021694899
0.0023204088
0.0017342567
0.0008946657
0.012283802
0.0007585287
0.008017421
0.0025452375
-0.0007479191
0.00077676773
0.008543611
0.0027163029
0.0065346956
0.0057247877
0.003342867
0.0017470121
0.005205035
0.02373445
0.0018502474
0.01460278
0.00073206425
-0.0004733801
0.0049414635
0.0022889376
0.010145307
0.001368165
0.0024847984
0.0033348799
0.004797101
0.0064594746
0.009364963
7.092953e-05
7.9751015e-05
-0.0008286238
0.001853466
0.003376484
0.0008016825
0.0077689886
0.0055977106
0.009540439
6.2704086e-05
0.006632328
0.00264287
0.008817315
0.0016765594
0.00069737434
0.001704216
-0.00057697296
0.0036120415
-0.0008074045
-0.00012755394
0.0035159588
0.0063773394
0.0092839
0.006875038
0.0004928112
0.0007097721
0.0047795773
0.002276063
0.0008929968
0.006516099
-0.0007878542
0.0052657127
-0.00072813034
0.0024522543
0.00053942204
0.00405252
0.0065340996
0.0060533285
0.005424738
0.0030755997
0.0059195757
0.004004836
0.0024546385
0.006799221
0.0056022406
0.00393188
0.00335145
0.008622766
0.0035706758
0.004380703
0.0017430782
0.005022645
0.0064498186
0.004081726
0.018350482
0.0052423477
0.0032043457
-0.0001386404
0.004463911
0.006803274
0.001491785
0.007961154
0.004077673
0.002574563
0.002899766
0.0009967089
0.007930398
0.0024155378
0.0021723509
0.011005521
0.007656336
-0.00034832954
0.0037548542
0.0006445646
0.021312594
0.014069796
-0.0017969608
0.0010066032
0.0009857416
0.005843401
0.004190445
0.0010495186
0.00041913986
0.00077831745
0.0006349087
-0.0010581017
0.0111916065
0.003918171
0.002712965
0.0015132427
0.0033441782
0.0014792681
0.0009598732
0.0009821653
0.00823009
0.0013229847
0.0016037226
0.00795424
0.00018894672
0.0025383234
0.0063147545
0.00197649
0.007062435
-0.0001565218
0.0008548498
-0.00065910816
0.0036613941
0.010139108
0.0036290884
0.0044083595
-0.00022804737
-6.4730644e-05
0.00393188
0.001835227
0.0019086599
0.0019983053
-0.00037920475
0.00036513805
0.0019291639
0.005284548
0.0012501478
0.00054478645
0.005494237
0.002581954
0.005780697
0.017208695
0.0037121773
0.004843354
-0.00045919418
-3.8027763e-05
0.009067535
0.003996253
0.0037139654
-0.00016117096
0.001155138
0.0010285378
0.0017791986
0.0020467043
0.015231609
0.008450985
-0.00078082085
-2.0384789e-05
0.00053691864
0.0108965635
0.0058506727
0.0037875175
-0.0010354519
0.0026677847
0.011014342
0.016661167
0.011776805
0.0030237436
0.00022649765
0.007571578
0.00091278553
0.0007725954
0.014037967
0.0030730963
0.0073633194
0.0053931475
0.005615592
0.0026654005
0.0038177967
0.0029745102
0.003431201
0.0059159994
0.010497093
0.008475542
-0.0009857416
0.0016926527
0.0063636303
0.010851741
0.016823888
-0.00028002262
0.0020110607
0.0013902187
0.00023329258
-0.00032615662
0.00970614
0.003296256
0.004158616
0.0044744015
0.0006505251
0.0010535717
0.012729168
0.0019043684
0.00020718575
0.00815773
0.00087702274
0.0034829378
-1.6212463e-05
0.004124284
0.0003503561
0.0029120445
0.0012308359
0.0037730932
0.013814092
0.007828593
0.0003707409
0.0033581257
0.0047295094
0.0036696196
0.00014472008
-0.00044047832
0.0026267767
0.0025771856
-2.1576881e-05
0.0005801916
0.0045200586
0.015454173
0.012686729
0.008365393
0.008068562
0.00012648106
0.00057291985
0.0043963194
0.0015015602
0.0011723042
-0.0012437105
0.0001809597
0.01238811
0.006958008
0.0071519613
-0.00036108494
0.0030645132
0.004781127
0.009537935
0.00094771385
0.0062576532
0.003508091
0.0077102184
0.016801953
0.001968503
0.00394094
0.0022047758
0.0005606413
0.011506081
0.014675379
0.0011349916
-0.000531435
0.01074326
-0.00074601173
0.0032628775
0.006280303
0.0033631325
0.0036748648
0.008318663
0.004378438
0.006154537
0.0070581436
-0.00046634674
0.008063197
0.008440971
0.004089713
0.0039969683
0.0025564432
0.00055909157
0.0041912794
-0.00010442734
0.0077693462
0.0012887716
0.00015485287
0.005984783
0.001167059
0.008591652
0.0060503483
0.0038717985
0.0037362576
0.002830267
0.00595212
-0.0004326105
0.00043928623
0.003306508
0.0037500858
0.0005414486
0.002080202
0.0075832605
-0.0012358427
-0.00078749657
0.0010972023
0.00942409
0.0028834343
0.00507164
0.0019233227
0.004141569
0.0051734447
0.0012191534
0.002074957
0.005967498
-0.00027251244
0.016284347
0.001042366
0.009776831
0.0019522905
0.010642171
-0.00069129467
-0.00039744377
0.002175212
0.0024392605
0.0019207001
0.008366823
0.0004888773
0.0021808147
0.009899259
0.004386306
0.0022714138
0.001139164
0.004155278
0.001208663
-0.0005505085
0.0007523298
0.011276722
0.0013170242
6.8068504e-05
0.001885891
0.0062890053
0.00017380714
0.005039692
0.0011754036
0.0012629032
0.0011519194
0.006817341
0.0050201416
0.0015351772
-0.0013971329
0.001860857
0.001501441
0.0063718557
0.0006531477
-0.00040829182
0.0029207468
0.004487157
0.004281163
0.0006790161
0.0033766031
0.0022583008
0.0038042068
0.011949062
0.0070869923
0.007766366
0.000877738
0.00059723854
-0.0009199381
0.001611352
0.005541444
0.002703905
0.0011428595
0.0035264492
0.00072288513
0.0044026375
0.0049870014
0.0024937391
0.00755322
0.0018100739
0.002440095
0.00026214123
0.0035892725
0.0056289434
0.0065615177
0.0088135
-0.0004582405
0.0059752464
0.0034042597
0.001773715
-0.0009852648
0.00035488605
0.0019948483

0.007856131
0.0029454231
0.0062949657
0.008411765
0.0078059435
0.0041410923
0.001604557
0.0006569624
0.00037682056
0.0052422285
0.001251936
0.0031311512
0.0036696196
0.0075433254
0.004485965
0.0056796074
0.0043451786
0.0040932894
0.0029492378
0.0032689571
0.0073446035
0.0080058575
0.005342126
0.0065841675
0.005289912
0.008059263
0.006298542
0.0005379915
0.004963994
0.001887083
0.0072231293
0.0015685558
0.0029673576
0.0040943623
0.01127708
0.004689932
0.0024917126
0.0013424158
0.0030405521
0.000803113
0.0018577576
0.011772871
0.0038776398
0.002639532
0.0037909746
0.010302305
0.00016593933
0.0031622648
0.004142046
0.009000421
0.00017142296
0.0039955378
0.0014770031
0.0024921894
0.0009075403
0.0053294897
0.00050497055
0.0046931505
0.0012786388
0.008939385
0.0009570122
0.0044237375
0.0023189783
0.00657475
0.002028346
0.004239559
0.002572894
0.001168251
0.0074219704
0.0070014
0.0031713247
0.0010771751
0.005434394
0.0028021336
0.0018159151
0.003182888
0.0016524792
0.00046563148
0.0037187338
0.007383108
0.011045814
0.00050354004
0.0048555136
0.0044238567
0.009478331
0.004025817
0.0051351786
0.007104993
0.004819274
0.0035301447
0.0064913034
0.00028204918
0.008565426
0.0052746534
0.0046782494
0.008293629
0.010958672
0.0030812025
0.0016399622
0.0021349192
0.0017049313
0.00013530254
0.002939701
0.00035476685
0.0007368326
0.0010552406
0.0009263754
1.4305115e-05
0.0073105097
0.003664136
0.006126046
0.0031098127
0.007025838
0.0047408342
0.009732604
0.0016701221
0.0029360056
0.0020079613
0.0026003122
0.009326458
0.0017365217
0.00041258335
0.0032994747
0.0057940483
0.0029300451
0.0064491034
0.0016943216
0.0046924353
0.002618432
-0.00040960312
0.0040141344
0.011493087
0.005329132
0.0052326918
0.0043913126
0.0027711391
0.0076020956
0.0027757883
0.005531192
0.00080549717
0.003278017
0.010374188
0.005133271
0.008314967
0.005134225
0.004256606
0.0015137196
0.007032037
0.004809618
0.000420928
0.0009204149
0.0044647455
0.0023992062
0.007001877
0.0037990808
0.0010886192
0.0023622513
0.0017361641
0.0061718225
0.0004607439
0.005112648
0.007111311
0.0010565519
0.004478693
0.0061160326
0.0035893917
0.0006093979
0.006181121
0.0013775826
0.0069617033
0.0005222559
-0.00014233589
0.004525304
0.007660985
0.003513813
0.00083208084
0.0034358501
0.0070990324
0.006361246
-0.0003746748
0.00095260143
0.0033893585
0.0018060207
0.0030878782
0.0027703047
0.0019470453
0.002247095
-5.1498413e-05
0.0065995455
0.0054454803
0.0014841557
0.008426309
0.0013371706
0.0059400797
0.0011188984
0.006248355
0.0015836954
0.004662037
0.0025675297
0.0035488605
0.006434679
0.00078976154
0.0012828112
0.00085401535
0.0015119314
0.0065071583
0.004172206
0.0029245615
0.0019959211
0.003914714
0.005431175
0.00421679
0.0043900013
0.0025687218
0.008103371
0.005213976
0.0044984818
0.0018515587
0.0026686192
0.0034390688
0.004864931
0.0043013096
0.009299278
0.0010105371
0.0008832216
0.002323985
0.0031963587
0.0022007227
0.002013445
0.0028201342
0.0009908676
0.008154988
0.00551641
0.00087213516
0.00021278858
0.002347827
0.0007522106
0.0006957054
0.007135153
0.006401062
0.010753751
0.00017535686
0.004160285
0.0013107061
0.01508832
0.0045672655
0.0025695562
0.0044813156
0.002060175
0.0042994022
0.01348269
0.009158373
0.0021835566
0.004559636
0.0048315525
0.0037482977
0.002973318
0.0026644468
0.0016937256
0.0038132668
0.004331112
0.0054303408
0.005388379
0.002755046
0.0017725229
0.0063910484
0.0030956268
0.0003809929
0.003403306
0.0064142942
0.0029348135
0.0044624805
0.0074857473
0.0020133257
0.013357639
0.0013327599
0.0014219284
0.0026917458
0.0029839277
0.0015486479
0.00049233437
0.00014996529
0.00087082386
0.004080534
0.0017867088
0.007648587
0.0011060238
0.0007548332
0.0006762743
0.0022569895
0.00018131733
0.0039565563
0.002709508
0.00498271
0.0041692257
0.00035524368
0.004770875
0.0007702112
0.0019913912
0.009670019
0.0030201674
6.4492226e-05
0.0020515919
0.00014448166
0.00078868866
0.0022433996
0.0029093027
0.007108927
0.0015149117
0.0025863647
0.009821773
0.0051585436
0.0005375147
0.006991267
0.005104184
0.0058853626
0.00281322
0.0061460733
0.0044220686
0.0019919872
0.005855322
0.002939105
0.004595518
0.004779458
0.0025473833
0.0036269426
0.0021153688
0.004911542
0.003768444
0.0061300993
0.0034018755
0.0046702623
0.0054273605
0.0023251772
0.0013003349
0.0037515163
0.0032402277
0.003895998
0.0032408237
0.0053749084
0.007339716
0.009148836
0.004832983
0.00015974045
0.003250599
0.007472992
0.00042366982
0.0026073456
0.0014299154
0.005261302
0.0021586418
0.007482648
0.004572034
0.004971385
-0.0001733303
0.014890313
0.003590107
0.00046026707
0.003441453
0.0040997267
0.0072864294
0.006507039
0.003971219
0.0009326935
0.008343697
0.0007234812
0.012554407
0.0006707907
0.0005199909
0.0056470633
-2.8729439e-05
0.006501794
0.0048304796
0.0038883686
0.0022047758
0.0021600723
0.00024056435
0.0018345118
0.0021793842
0.006335616
0.0056499243
0.005626321
0.0027493238
0.002319932
0.0036159754
0.011291742
0.0060544014
0.008550048
0.0055617094
0.003881216
0.0038878918
0.0034679174
0.00021457672
0.0006531477
0.0015761852
0.00083231926
0.002878666
0.0018409491
0.0024513006
0.0022599697
0.009577155
0.0014104843
0.0020295382
0.005541086
0.004380107
0.0007945299
0.0046639442
0.014624953
0.003771305
0.0033439398
0.0048618317
0.005555868
0.005539179
0.0030608177
0.0027689934
0.0056390762
0.007829905
0.004342437
0.00071787834
0.0023924112
0.006299734
0.00662446
0.008755088
0.0030275583
0.0024194717
0.0020353794
0.0039162636
0.0016316175
0.007939935
0.0008460283
0.001435399
0.005283475
0.0043257475
0.0024712086
0.002313137
0.005260706
0.004098296
0.011273861
0.003653407
0.0023566484
0.00054585934
0.0030053854
0.004786968
0.001722455
0.0039726496
0.0047949553
0.0074130297
0.0012598038
0.003175497
0.0010693073
0.001390934
0.002273798
0.0004504919
0.0019429922
0.004516244
-6.67572e-06
0.0016974211
0.0051594973
0.0014230013
0.0021708012
0.0058544874
0.0016880035
0.00048542023
0.0012483597
0.0027347803
0.00041496754
0.009402394
0.008095026
0.0029985905
0.0031821728
0.00019836426
0.0022450686
0.001768589
0.0060464144
0.0072547197
0.0048310757
-0.00020384789
0.006738901
0.002270937
0.0031380653
0.0042972565
0.0019592047
0.002460122
0.0025541782
0.0030385256
0.0086654425
0.006121397
0.006552577
0.0039442778
0.011579752
0.0030037165
0.0012214184
0.0010453463
0.007133484
0.0034182072
0.0034025908
0.009668589
0.0053542852
0.0048154593
0.0016874075
0.0012385845
0.0036691427
0.003611803
0.0041131973
0.0024040937
0.0023041964
0.0021092892
0.005556822
0.00034618378
0.0055724382
0.003735423
-5.8054924e-05

0.003305912
-0.0007324219
0.0014506578
0.005947709
0.0041570663
-0.000118494034
0.0045871735
0.00014543533
0.0052022934
0.0006953478
-0.0010467768
0.0059309006
0.0013741255
0.003761053
0.0012024641
0.0032941103
0.0047773123
0.0050877333
0.0011463165
0.008656621
0.009716868
0.0076367855
0.003911257
0.004687667
0.00096678734
-0.00044691563
0.0044192076
0.004957795
0.0041605234
0.0055092573
0.006300807
0.0019321442
0.012194514
0.0070394278
0.002218008
0.009696007
0.0052227974
0.0029114485
0.0008559227
0.0022304058
0.0030962229
0.004243374
0.009786963
0.0010367632
0.0016974211
0.002393961
0.0055878162
0.0044318438
0.00423491
0.00647223
-0.0004695654
0.00052285194
0.0041618347
0.0077449083
0.0034991503
0.0063192844
0.0027487278
-0.00058841705
0.0016055107
0.006262064
-0.0006072521
0.0057513714
0.002625823
0.0041457415
0.00069642067
0.002802968
0.0014139414
0.0055072308
0.008853674
0.0037597418
-0.00045323372
5.364418e-05
0.0061968565
0.0015616417
0.007757306
0.0047963858
0.009253144
0.0009908676
0.00068318844
0.0036877394
0.0077517033
0.003382802
0.0034339428
0.004781246
0.002518177
0.017225146
0.00581944
0.0008043051
0.012513638
0.00167799
0.0060652494
0.0014033318
0.008140326
0.0002348423
0.0013693571
0.0064917803
0.010761499
-0.00035822392
0.0020081997
-0.00068843365
-0.00019216537
0.000487566
0.006307006
0.005539298
-0.0004887581
0.004837036
0.0036255121
0.00039207935
0.0026174784
0.007441044
0.0040113926
-0.00021123886
0.0014175177
0.0068427324
0.0025223494
0.004193306
0.0016037226
0.010194659
0.0038050413
0.0013148785
0.0006519556
0.0036340952
0.0047888756
0.00304389
0.0045642853
0.00068581104
0.0045284033
0.0014935732
0.0015194416
0.0016266108
0.011291146
0.00054109097
0.015230179
0.009665489
0.005797267
0.011491537
0.0020720959
0.00430727
0.013743162
0.004766941
0.005744934
0.0015143156
0.00851047
0.0113197565
0.0029735565
0.002375126
0.004250407
0.0011520386
0.0073022842
0.0014343262
0.0009741783
0.0018025637
0.006042242
0.001173377
0.003486514
0.0034583807
0.0013467073
0.001306653
-0.0006123781
0.00037240982
0.0017137527
0.0030682087
0.0009919405
0.0021009445
0.001301527
0.0055748224
0.002024889
0.011001945
0.006617546
0.0031762123
0.0023716688
-0.00071179867
0.0029648542
0.0010215044
0.0013027191
-0.00062680244
-9.9658966e-05
-0.0005378723
0.0052028894
0.008276343
0.0029318333
0.005117655
0.0024522543
0.0055384636
-0.0015848875
0.0051141977
0.010393858
0.0039173365
0.0010950565
0.0015860796
0.00086557865
9.75132e-05
0.003326416
0.015817046
0.002542615
-0.00030601025
0.0054676533
-0.0014766455
0.00036513805
0.0032560825
0.00041806698
5.1617622e-05
0.0024023056
0.006029129
0.0035130978
0.0047574043
0.00076425076
0.0043125153
0.0014746189
0.0015212297
0.002301097
0.006893277
0.008081198
0.0052946806
0.0128088
0.0059815645
0.00042307377
0.0066725016
-8.833408e-05
0.0020282269
0.003702283
-0.00045382977
0.0035580397
0.0011854172
0.0036064386
0.0014292002
0.0019551516
0.0039417744
0.008508325
0.0034793615
0.007033944
0.0040016174
0.0031334162
-6.6280365e-05
0.005270958
0.007769823
0.0020341873
0.004328847
0.0014636517
0.009352684
0.0022562742
0.0008351803
0.0016078949
0.0015482903
0.0012910366
0.005553007
0.0039770603
0.007435918
0.0046076775
0.0055406094
-0.0021983385
0.002768159
0.0030959845
0.0053441525
0.0028544664
0.0016800165
0.0024100542
0.0058277845
0.0018855333
0.0014042854
0.0062963963
0.00048696995
0.0024886131
0.007555604
0.010133624
0.0016297102
0.0056186914
0.0022531748
0.0066952705
0.0038155317
-0.0004119873
0.014300704
0.0028586388
0.0025919676
0.0013414621
0.016574383
-2.9444695e-05
-2.1457672e-05
0.00557065
0.0013108253
0.0053179264
0.0051651
0.004641533
0.002567649
0.0020662546
-0.00017750263
0.0006555319
0.0017790794
0.009286404
0.0076817274
0.0035022497
0.008391619
0.0012209415
0.003448844
0.00018322468
0.012932062
0.008801222
0.0014042854
0.004212737
0.0021736622
0.009624243
0.006597638
0.001721859
0.0034079552
0.00317657
0.0030697584
8.9764595e-05
0.010350585
0.0072407722
0.005821109
0.004965782
0.0030616522
0.0037323236
0.0024781227
0.0053755045
0.005603075
0.0016564131
0.005530715
0.0013617277
0.0011111498
0.011669993
0.006454706
0.00095272064
0.00987196
0.0037677288
0.004265189
0.0037335157
-0.0004374981
0.0018655062
0.004449129
0.0035156012
0.0021276474
0.0022495985
0.001711607
0.0035054684
0.0005480051
0.006516695
0.0033513308
0.0030344725
0.007658601
0.0066685677
0.0020923615
0.0045080185
0.00030195713
0.004793763
0.0050088167
0.0076630116
-0.00015997887
0.0009511709
0.0021246672
0.009396791
0.017281532
0.00077557564
9.8228455e-05
0.00027513504
0.003882885
0.0005605221
0.002322793
0.005800009
0.004264593
0.005020499
0.002122283
0.000885725
0.0042364597
0.005748749
0.00086057186
0.0026262999
0.0017199516
0.0012009144
0.0027236938
0.0031459332
0.0053013563
0.0056858063
0.0020253658
0.004673362
0.0069446564
0.0028924942
0.01463902
0.0046715736
0.003878951
0.005560875
0.0016145706
0.004168272
0.002377987
0.004294634
0.005441308
0.014235377
0.0016154051
0.006521821
0.008746624
0.005506754
0.0040848255
0.013574481
0.0074521303
-0.00054728985
0.005437255
0.017573595
-9.3340874e-05
0.001435399
0.0041900873
0.0010166168
0.0032099485
0.004914999
0.0038403273
0.0009897947
0.0045654774
0.009235978
-4.7564507e-05
0.0054798126
0.0012254715
0.0035824776
0.005533695
0.0014797449
0.0044579506
0.00023674965
0.0030971766
0.008746743
0.009791136
0.004411936
0.002349496
0.0030902624
0.0020034313
0.0010002851
0.0063579082
0.00038075447
0.0067794323
0.0024935007
0.0049185753
0.008985758
-4.9471855e-05
0.0004720688
0.008298874
0.009867668
0.0038211346
0.002287507
0.0051915646
0.00014328957
0.010063648
0.0028862953
0.004313588
-0.00016355515
0.008370638
0.0010108948
0.0063308477
0.00090646744
0.00537014
-0.00040209293
0.0082861185
0.009046078
0.0014253855
0.0064706802
0.003459096
0.0019515753
0.002103448
0.0028191805
0.0018713474
0.0053623915
0.0056316853
0.0127619505
0.005808711
0.003866315
0.004645705
0.010238171
0.0035897493
0.006123543
0.002390027
0.0036873817
-9.095669e-05
0.004757166
0.009708405
0.0112576485
0.0077894926
0.0021392107
0.0015470982
0.0025806427
0.0033744574
0.002638936
0.0045073032
0.0005110502
0.004784465
0.0036150217
0.0018340349
-0.00027406216
0.006158948
0.0018248558
0.013218284
0.0035947561
0.0012867451
0.004814148
0.004997015
0.008905768
0.002117753
0.00027918816
0.0030171871
0.0023713112
0.00584507
0.010966301
0.00024294853
0.0022583008
0.009254694
0.001445055
0.0022697449
0.015000105
0.0019004345
0.00688231
0.004906893
0.0036623478
0.00051510334
0.0027143955
-4.4345856e-05
0.0012949705
0.005470872

0.37489963
0.38205945
0.34300256
0.31716883
0.4140247
0.32316327
0.32090986
0.38435638
0.4363761
0.33358538

