0.21978807
0.0045681
0.07741451
-0.07632649
0.21073449
0.102570534
0.06515241
-0.008170724
0.11373246
0.03637612
0.103838325
0.22240174
0.033260465
-0.16047132
-0.114821434
0.26811457
-0.09210312
0.23752391
0.13479495
0.22680318
0.08347571
0.15764487
0.017961621
0.050793767
0.027018309
-0.0019261837
-0.035443068
-0.06777334
0.08379841
-0.14498127
0.15887082
0.18505955
0.0963006
-0.16246378
0.07914877
0.07054269
-0.044337988
0.03421426
0.0847975
0.14960337
0.04100001
0.016956687
-0.018244267
0.39506423
0.08340204
0.21491563
-0.035456896
0.1697799
0.03200078
0.15532327
-0.09885049
0.07579458
0.021843076
-0.18450868
-0.061187327
0.0790993
0.04777074
0.026211739
-0.01664865
0.15321827
-0.06284702
0.22831464
0.097325325
0.14571738

0.165874
-0.0063732862
0.020107865
0.035871863
0.096794486
0.3413136
0.028640866
0.001524806
0.058645606
0.01947093
0.014852047
0.1518209
0.17736948
0.06549585
0.022516847
0.5159205
0.057872415
0.16365874
0.21789122
0.06316471
0.17023385
0.094754696
0.035854936
0.0066803694
0.07163429
-0.06880462
0.053909063
0.030672431
-0.012446284
0.26767206
0.060882688
0.044001818
-0.06721699
0.020519018
0.001163125
-0.061617732
0.020459533
0.137321
-0.053971887
0.060358286
0.004744649
0.12421346
-0.052288532
-0.007264614
0.006184697
0.05286777
-0.03891003
0.1386013
0.12955856
0.015088558
0.0060528517
-0.021264076
-0.027410865
-0.07764232
0.0008574724
0.03192544
-0.043684363
0.10968161
0.10194552
0.116401315
0.014575601
-0.006647587
-0.037801147
0.23013246

0.1548841
-0.030482769
0.06656599
-0.09010613
0.0792855
0.036728263
0.012871742
0.015836
0.15921807
0.13354325
-0.014564991
0.04099357
0.04859698
0.08361912
-0.030037284
0.038134098
0.011824727
0.015151858
0.014886737
-0.023385048
0.019704342
0.08671093
0.016587138
0.014699101
-0.0098103285
0.018365264
0.04227841
-0.0052036047
0.035284758
0.058323264
-0.02922833
-0.0034843683
0.076212645
-0.0039583445
0.019426465
0.030734539
0.019126654
-0.045336008
0.034613013
0.03454864
0.0128548145
0.099316835
0.036900282
-0.07386899
0.06914711
0.06792462
0.11019075
0.03418398
0.083768725
0.05360973
0.05409944
0.016980052
0.004161358
0.030933738
0.0064047575
0.003440261
0.047819853
-0.057090282
0.00044310093
0.037132263
0.0068216324
-0.0027974844
0.053245187
0.0126791
0.058761954
0.027580738
0.03833258
-0.010848999
0.020497322
-0.03359294
-0.012396336
0.039000154
-0.10950887
0.0894382
0.041839957
0.027439117
0.032880306
0.02842772
0.03246057
0.058482766
0.017848015
0.0004388094
-0.036019206
0.05433488
0.063349605
0.033784866
0.10335004
0.037460685
0.08117318
-0.054207206
0.027468443
0.043961167
0.01211977
0.05418408
0.033112407
-0.026820898
0.010509133
0.016412616
0.017201543
0.11147368
0.08695996
0.03358662
0.00551188
0.045201182
0.06623006
0.06363559
0.007986069
0.04668665
0.039176702
-0.00068855286
0.0067112446
0.026861548
-0.02649343
0.062269688
-0.02511704
0.022500992
0.032089114
0.0037548542
0.037637115
0.0077102184
0.0028727055
0.026353717
0.13727236
0.022695303
-0.0015112162
0.09905493
0.015794873
-0.011280537

0.020018578
0.01898408
-0.008802533
0.05767548
0.046027303
-0.055663705
0.02043581
-0.0005030632
0.002450943
0.070531964
-0.016223311
0.036427736
0.09782529
0.077177405
0.017417908
0.020879507
0.02951932
0.071383595
0.09818101
0.07144153
0.041226387
0.005080104
0.00073587894
0.005596161
0.019296885
0.0483495
0.04554665
0.07059574
0.023349285
0.02955389
-0.05225241
0.007356882
0.03534174
0.043100715
0.08978295
0.15296161
0.035391092
0.00054967403
0.0415349
-0.06707549
0.015305042
0.01802063
0.01889205
0.06391668
-0.010307789
0.10905075
-0.0068819523
0.011195064
0.05447185
0.01989448
0.061915398
0.090243936
0.040894985
0.019538164
0.0432657
0.0835191
0.0021746159
0.0055851936
-0.009326339
0.0023585558
0.061139584
0.02356577
0.074474216
0.0046446323
0.054940224
0.0012357235
0.025170803
1.7881393e-05
0.044521213
0.021118402
-0.0033535957
0.0031106472
0.06596422
0.06017804
0.11065221
0.07980394
0.0133064985
0.0101361275
0.015085578
0.009855747
0.014333487
-0.008461833
0.06314242
-0.036273003
0.08480346
-0.020794988
-0.011344552
0.028985262
0.025320768
0.015457153
0.01825285
0.126472
0.07289541
0.05886519
-0.061210394
0.054029346
0.051870227
0.029696584
0.032722473
0.024517179
0.03125477
-0.08020818
0.0073200464
0.015019894
0.0125517845
0.013366461
0.071930766
0.0071234703
0.040751457
0.0141916275
-0.0036386251
0.009580851
0.063253045
0.02860713
-0.048842788
0.072088
0.026206851
0.040722847
0.007176161
-0.029069185
0.04722798
-0.008917928
-0.0031274557
0.011539578
0.008985281
0.04944849
0.012909651
0.03975606

0.008421302
0.030527234
-0.0024243593
-0.01535368
0.014887333
-0.009297371
0.03236413
-0.0005323887
0.018537164
0.00089132786
-0.008435607
0.042689323
-0.00030088425
0.031460047
0.073928356
0.018862963
-0.0013504028
0.020685911
-0.004197955
0.019700766
0.02724564
-0.0018604994
0.0011869669
0.02055204
0.018182993
0.013125777
-0.009220362
0.053246617
-0.028509736
-0.0038154125
0.025660038
-0.0032931566
-0.0070250034
0.033221245
0.008467793
0.006190419
0.002577424
0.007891893
0.039292336
0.032142997
-0.0068023205
-0.00065255165
0.026530504
0.017902374
0.020758629
0.013308287
0.003098607
-0.01871705
0.027193666
0.017382264
0.048750997
0.05052674
0.008977532
0.029066324
-0.028253436
-0.05141759
0.026180148
-0.028552175
0.027332664
-0.035427332
0.010069251
0.039031148
-0.0033499002
-0.0040932894
-0.0010900497
0.031959057
0.009877086
0.012880325
0.0005902052
0.0023212433
0.0154931545
0.043896675
0.011574388
0.018622398
0.016597152
-0.02319777
0.018633008
0.022925138
0.023623824
-0.020067215
0.032978296
0.0038666725
-0.0046857595
0.01899445
-0.021987915
-0.00070655346
0.015494227
0.051176906
0.022750735
-0.025853038
0.01884234
0.055125713
0.07370806
-0.03921628
0.025853634
-0.02800119
0.022491693
0.026192784
-0.021058083
0.034927607
0.0036965609
-0.010097742
0.028616667
0.033390522
0.02361393
0.028734803
0.04112482
0.027279735
0.013403416
0.009235859
-0.013168931
0.0007095337
0.026549459
0.00096046925
0.05063057
-0.016908526
0.027783751
0.0110605955
-0.0027747154
0.021976948
0.025640488
0.0006079674
0.028825283
0.0126748085
0.02144897
-0.033097148
0.0014283657
0.034166098
0.036410093
-0.005782008
0.019688845
0.067162395
-0.009824038
0.02731061
-0.004003763
0.05236566
0.07682943
-0.0128901005
-0.00018692017
0.016789436
0.016084194
0.031348348
0.0053493977
-0.0018241405
0.012198567
-0.00017809868
0.011537671
-0.0018345118
0.030244231
0.037184954
0.02470541
0.008612514
0.011240959
0.010912776
0.02848506
0.032476664
0.009742022
0.0052080154
0.021055698
0.017748237
0.0082502365
0.01107645
0.00011730194
0.031027198
0.026220322
-0.0035461187
0.04371822
0.0019147396
0.057477117
0.01803565
0.009162903
9.691715e-05
0.01352942
0.038586617
-0.009388566
0.009965539
0.008991241
0.039742947
0.004448056
-0.034848094
0.024198055
0.042366147
-0.008126378
-0.01640606
0.009225249
-0.046091557
0.011146665
0.027557492
-0.022522688
0.049942017
0.033261776
0.01344347
0.024996877
0.013549328
0.008377552
-0.010798454
0.037229896
0.0051002502
0.01665914
0.03475368
0.041411042
-0.0104032755
0.0013350248
0.031707525
0.015468717
-0.0048737526
0.022398353
0.0313735
0.004297018
0.025307417
0.03995657
-0.00683403
0.007987022
0.011661768
0.04866934
0.0035681725
0.087070465
0.054635286
-0.000993371
0.036592722
0.0037261248
0.01516974
0.008648276
-0.03898418
-0.00046551228
0.02413416
0.011701345
0.02581036
0.004988909
0.009042501
0.0285573
0.01605308
0.015917182
0.05620289
0.0004506111
-0.03029263
0.005230069
0.027303457
0.004005909
0.0042209625
0.024390697
0.0443269
-0.012550235
0.02827704
0.0018258095
0.018645525
0.019654274
-0.032057524
0.043572307
0.0014603138
0.019954562
-0.018648624
0.040656567
0.035385013
0.00044167042
0.038616538

-0.003835678
0.0050145388
0.012548566
0.01398778
-0.02285719
0.044754624
0.013132095
0.029916406
0.042999268
-0.0029006004
0.04295814
0.02486968
0.015131116
-0.0037287474
0.005741
0.008400679
0.045312405
0.008622527
0.012999535
0.0026003122
0.0009120703
0.02756846
-0.0012201071
-0.012547731
0.003630042
0.0038508177
0.05110526
-0.004036069
0.0036312342
0.017771602
0.015308142
0.00157547
0.010268092
0.002252102
0.016302705
0.03595853
0.017206907
0.048712134
0.006689906
0.0056726933
0.0041999817
0.022611022
-0.0018776655
0.011941433
0.032042384
-0.00072419643
-0.026073694
-0.0034320354
0.0014535189
0.026483536
0.029177547
0.02047515
-0.002206087
0.042366266
-0.015578032
-0.0037076473
0.009520769
0.03270328
0.023902416
0.029233694
-0.0066702366
-0.007363081
0.008540988
-0.0066478252
0.013610244
0.037750244
0.042380452
0.004574418
0.024875164
0.010837674
-0.027245522
0.018783689
0.011434436
0.0053414106
-0.00069642067
-0.0014177561
0.032283425
0.034903765
-0.008641481
0.009496927
0.026363969
-0.0013145208
-0.00081276894
0.027369738
0.018864036
-0.010684729
0.011443496
0.04091382
0.028437734
-0.014607787
0.039518118
0.027455926
0.015108228
0.039163947
0.0029652119
0.00092697144
0.034062386
0.02259481
-0.011395097
0.018185854
0.006661415
0.0026980639
-0.0040324926
0.008873463
0.035847664
0.0014914274
0.036226273
-0.00043201447
0.062701225
0.0002770424
0.017453432
0.02147603
-0.01411593
0.0078048706
-0.0122100115
-0.008780479
0.0020183325
0.035593748
0.015995383
0.011565566
-0.0047678947
0.0057686567
0.03539145
0.0034466982
0.03248775
0.057474136
0.004502058
-0.0035749674
0.048873305
0.023578525
-0.005851388
0.003455162
-0.001447916
0.012006044
0.008900881
0.015944958
0.0735594
0.046168447
0.03497064
-0.005967498
0.020849347
0.034472346
0.016432047
-0.0015547276
0.07273221
-0.0035237074
-0.01635325
0.03191781
-0.006115794
0.00714767
0.02295196
0.022658587
-0.002338171
0.008258939
0.021342516
0.014791131
0.035301328
-0.0012298822
0.0010293722
-0.013673902
0.022693396
0.030159473
-0.0058162212
-0.06526816
0.0020445585
-0.002101183
-0.0035258532
0.0027538538
-0.00074243546
0.038092136
-0.024201512
0.020182848
0.022665381
0.04681027
0.027661324
0.018950582
0.052362323
-0.0011056662
0.014649987
-0.0030300617
0.0066581964
-0.0030905008
0.016038537
0.020832777
0.008593321
0.0336318
-0.0054188967
0.06928873
-0.03254378
-0.0023075342
0.006495476
-0.010064125
0.012717247
-0.0071798563
-0.020995617
0.025485992
0.010753155
5.6743622e-05
0.09134519
0.023131013
0.010838032
0.020688057
0.017619252
0.007893205
0.0007483959
0.004240155
0.0027860403
-0.004992366
-0.020988703
0.017265081
-0.006729841
0.031412244
0.03598845
0.07390523
0.008954287
0.0022736788
-0.00826931
-0.006935239
0.013082385
0.03312838
0.024882436
-0.0059109926
-0.004155636
0.02016294
0.03076005
0.08460009
0.006894946
0.032881975
0.022982597
0.065880895
0.025030732
-0.031238914
-0.0009820461
0.03428185
0.018030047
0.041356683
0.04453075
-0.003316164
0.013777137
-0.021228075
-0.0034333467
0.05914116
-0.0016490221
-0.0013531446
-0.010464668
0.03312385
0.025864601
0.0040802956
0.031425714
0.009803295
0.0143454075
0.017178655
0.08470905
0.025306582
0.0029290915
-0.0019803047

0.05340302
-0.014523029
-0.0014826059
-0.023753047
0.017875314
0.010289788
-0.023219347
-0.0071492195
0.009844899
0.0060579777
0.058716416
0.09568322
0.03782344
0.005558014
-0.019341588
0.019348025
0.027961135
0.029585838
-0.001260519
-0.026155472
0.015448928
-0.038603902
0.0866735
0.0054541826
0.027971387
-0.0173347
0.0014671087
0.032547593
-0.027991056
0.003667593
0.0068774223
-0.007868886
0.016908407
0.06110692
0.015294075
0.008284569
0.0032845736
0.0073512793
-0.025765061
0.014676094
-0.029080749
0.001458168
0.0027703047
0.0017316341
-0.04150772
-0.0037947893
0.03777778
0.0031495094
-0.005023837
0.02342701
0.0146096945
-0.008093834
-0.0028219223
-0.013626337
0.04577589
0.019761205
-0.011456132
0.020496607
0.06939089
0.023594499
-0.019073606
0.02771771
0.0019403696
0.043652654
0.00014185905
0.006795287
-0.0353899
0.0138037205
-0.001180768
0.050439358
0.0009253025
0.028495908
0.013838172
0.025495887
-0.007797122
0.0010416508
-0.025090814
0.044282794
-0.0032371283
-0.012615442
0.04437709
-0.01046598
0.042734742
0.007267356
0.03415215
0.0947994
0.0045274496
0.018202424
0.045378923
0.028003454
0.04628122
0.018062592
0.011494517
0.038283825
-0.00084233284
0.0704602
-0.006657958
0.0069470406
-0.0022511482
0.03220594
0.038649797
0.03956735
0.0062714815
0.015992403
-0.00032877922
0.059368968
-0.022451162
0.054390788
0.0071349144
-0.0018609762
0.043302894
0.02972591
0.0028316975
0.040096283
0.009506226
0.030934215
0.029364228
-0.0049067736
0.020455956
-0.0043017864
0.0020589828
0.12359047
0.018941164
-0.029940367
0.016976237
0.0077961683
0.010211468
0.0046977997
0.015781164
0.019342422
-0.010070682
0.03179598
0.017226815
-0.00592494
0.013141632
0.036760807
0.011970878
0.038148165
-0.030586123
0.07428324
-0.0016013384
-0.001254797
-0.014454365
0.006841302
0.01730907
0.0088329315
0.05136299
-0.0013513565
0.019173145
0.037261844
0.007643223
-0.019934654
-0.00093221664
0.02600336
0.077193856
0.037330627
-0.0014606714
0.008960605
-0.0013192892
-0.006000757
0.018655539
-0.0012425184
0.03474176
-0.008608937
0.08129239
-0.018198729
-0.0049860477
-0.025462985
0.046781898
0.0030411482
0.049720287
0.0013309717
0.0034691095
-0.03411925
-0.012009382
0.031760097
0.019683838
-0.05289936
-0.004706025
0.0033141375
0.03460884
-0.0059508085
0.018900633
0.01826477
0.035395503
0.053800464
-0.018573284
0.0031226873
0.053068876
-0.005871296
-0.0056129694
0.012797117
0.08378506
0.017284632
0.038773894
0.0022263527
0.016639829
-0.0053807497
0.038324
0.0059161186
0.040308952
0.015779614
0.018685102
-0.052865863
0.06537175
0.051323414
0.034774065
0.018968463
0.016280174
0.0047494173
-0.0005249977
0.026261568
0.027444482
0.065692425
-0.004028678
0.053080678
0.0013484955
-0.0021293163
0.018532515
0.0008394718
-0.018238544
0.041819215
0.024235249
-0.018768668
0.023525953
0.0068901777
0.044432282
0.040515065
-0.015753508
0.024716973
0.003766656
0.01271224
0.01213789
0.035181284
-0.018845081
0.045742273
0.00853312
-0.015449643
0.0052410364
-0.04220879
0.06196153
0.018103123
-0.0015101433
0.022037387
0.018657565
-0.0038725138
-0.024046898
0.027231812
-0.0056056976
0.007404804
0.0056984425
0.022905588
-0.00721395
-0.0023571253
0.009723425
-0.00036239624

0.019944787
0.032942772
0.015819311
-0.0039647818
-0.0052628517
-0.014975309
0.0049114227
-0.02364719
0.016934395
-3.7312508e-05
-0.009785175
0.0034009218
-0.0060147047
0.010441899
-0.011779904
0.02602005
0.0005507469
0.00036525726
0.019732356
-0.0038586855
0.016047716
-0.00032436848
0.031595945
0.007519245
-0.0061308146
0.011080623
-0.019266367
-0.0004736185
-0.0005373955
0.00016474724
0.025815248
0.0056313276
0.0009874105
0.018714428
0.01576531
-0.002789259
0.0053168535
0.0062913895
-0.00731647
0.02291274
0.016428232
-0.0025987625
0.044751883
0.023327231
0.00225389
-0.0017337799
0.034707427
-0.00095009804
0.00060379505
-0.0045614243
-0.004210353
0.008901238
0.011963129
0.006999731
0.016793013
0.02312088
0.017905593
0.020199537
0.0014697313
0.016104937
-0.012018919
0.0052046776
0.0036376715
0.015070081
-0.02375865
-0.026747584
0.0045256615
-0.017193317
0.03175366
0.021494031
-0.01724863
-0.0050638914
0.025067925
0.012587547
0.0026094913
0.0025017262
0.023326278
0.010368228
0.031289935
0.019572496
-0.03136933
0.019461274
-0.026195407
-0.0037772655
-0.014147401
0.00046503544
0.02510345
0.0027942657
-0.0022035837
-0.00716269
0.00390625
-0.008602142
-0.013774872
-0.0015259981
0.014457583
-0.0076117516
-0.004144311
0.02384913
0.014122009
0.013376713
-0.0021950006
0.020036697
0.009750843
-0.0047693253
0.016104579
0.029510498
-0.014283299
0.008525133
-0.00032305717
0.015049458
0.012801409
0.00085020065
0.026806235
0.0011026859
-0.004078746
0.011904955
0.0012007952
0.024229407
-0.0072060823
0.009558439
-0.0005712509
0.0012527704
0.034711838
0.023680687
0.015287042
0.061651707
0.013926387
0.00620687
0.054661155
-0.017060041
0.00502789
0.027402759
0.010542154
0.022007942
0.013150573
0.010042071
0.016014457
0.0023386478
0.0152282715
0.008784771
0.00060129166
-0.040896893
0.027017593
0.0031778812
0.008933425
0.005687952
-0.0104340315
0.004888296
-0.009210348
0.015473604
0.0021964312
0.015418053
0.004798293
0.0090305805
-0.006038785
0.020943165
0.0012603998
-0.0025982857
0.003580451
0.004832983
0.025022745
0.004790187
-0.000118136406
0.0047638416
0.007811904
0.028645873
0.00613451
-0.003065586
0.008249164
-8.1300735e-05
0.018988252
0.00092852116
0.015678883
-0.0012073517
0.011725545
-0.004730344
0.004194975
0.024250388
0.0020313263
0.016990662
-0.0154531
-0.042154193
-0.021377444
-0.0016527176
0.011311054
0.00758934
0.00020837784
-0.014377952
-0.011315346
0.0022449493
0.0058453083
0.0038313866
0.009844303
-0.012984276
-0.002221465
-0.020218253
0.0031049252
0.017926335
0.009496212
0.0047466755
0.025998235
0.01428175
0.018760681
0.00036764145
0.008070469
-0.0059292316
0.010907531
0.026608944
0.000114798546
0.02540338
0.009481311
0.025767684
0.011314988
0.0358752
0.017948627
-0.0065261126
0.01650238
0.0019327402
0.0152493715
0.016100168
-0.021541357
0.0061062574
0.023058891
0.018185139
-0.0045241117
-0.0145174265
-0.005645871
0.012043357
0.025466084
0.0024992228
0.0056488514
0.011594176
0.0175488
0.0061935186
-0.0013386011
-0.031153202
0.027715445
0.0043804646
0.017393589
0.009184599
-0.0004130602
0.027599454
0.008979082
0.015241623
0.019466162
0.010301113
0.028438449
0.0078526735
0.01827395
-0.04787612
0.008465767
0.011065483
0.001684308
0.045990944
0.014364958
0.017856002
-0.009937167
0.010352612
0.018149257
-0.005164027
0.003473997
-0.0039867163
0.007933259
-0.002623558
0.017763019
0.013304472
-0.013731837
0.03472352
0.0005632639
0.0057792664
-0.00025761127
0.00957644
0.00021016598
-0.016949773
0.003025651
-0.0043098927
0.017556787
0.029598951
-0.0036895275
-0.023712635
-0.006666422
0.04654932
0.0015386343
-0.0018179417
0.0068944693
-0.008385539
0.0076315403
0.0026865005
-0.006467819
-0.0056529045
0.0054495335
0.03426206
0.0010038614
0.004329324
0.006273985
0.0034902096
0.019007802
0.002161026
-0.011440039
0.009886503
-0.023702264
0.028843284
0.018854618
0.012004137
-0.0015667677
0.004345417
0.008111954
0.028695703
0.014041543
0.014472365
-0.006576538
0.024887204
-0.020420313
0.028850198
0.002568841
0.028027773
-0.017702818
-0.006627083
0.0019634962
0.02718234
-0.003070712
0.011982679
0.012948394
0.0011755228
-0.035437346
0.009188652
0.009625316
-0.0032402277
0.015818357
0.012553692
0.008452535
0.020730734
0.0038450956
0.018577456
0.02844131
0.00079905987
0.011978626
0.0117406845
0.00096940994
-0.014036417
-0.0019090176
-0.0006175041
0.025175571
0.017162085
0.013521075
0.014143825
0.008379817
0.021955252
0.029349327
0.02459681
-0.004887581
0.0003707409
0.022578359
0.02133429
0.01180625
0.025135279
0.009749651
0.019086123
-0.0019030571
0.04288125
0.02114749
0.0028493404
0.007320404
0.017767549
0.028558254
-0.015375018
0.0033768415
0.011425734
-0.004906535
0.007458091
0.0058995485
0.035909772
-0.037525535
-0.0006864071
-0.0073251724
0.004207611
0.01846373
-0.028249502
-0.0011707544
0.0035595894
0.017350674
0.0127260685
-0.020482779
-0.0003451109
0.028122067
-0.0042016506
0.019042253
0.00476563
-0.0073058605
-0.011990905
0.027102232
0.002056241
-0.008024216
0.016191721
0.01376915
-0.018355966
0.00532794
0.018840075
-0.027566433
0.003373742
8.070469e-05
0.01784563
-0.012286186
0.024255276
0.022752523
-0.0090305805
0.010981679
-0.011764169
0.004392028
0.012853622
0.020409822
0.0027651787
-0.03028047
0.022842765
0.009696603
0.012653947
0.017741203
0.01939261
-0.0029474497
0.019516826
0.010989904
0.0072278976
0.020549774
-0.004108906
0.0032379627
0.005591154
-0.0032823086
0.011665702
-0.02193427
0.03020966
0.00557065
-0.0022941828
0.008602977
0.019262552
0.0027565956
-0.012204289
0.026687622
0.006877899
0.01803422
-0.0034098625
0.019034386
0.0044158697
0.00038039684
0.008557916
-0.0051207542
-0.018843532
0.029742956
0.013254762
0.005168438
0.007527709
-0.0030460358
-0.011451125
0.05333817
0.0055720806
0.002216339
-0.002287984
0.0008842945
0.024131894
0.011804223
-0.0057640076
0.0041487217
0.009404302
0.063263655
0.013004422
0.02579093
0.02628553
0.03232622
0.010102987
0.005025506
0.004368305
0.014467239
0.00424397
0.04178536
0.0050845146
0.003355503
0.005783558
-0.017541766
-0.0015468597
0.01219511
0.009389877
0.012104154
-0.0012716055
-0.0037033558
0.01940012
0.016956806
0.012647152
0.01217711
0.0120408535
0.027199864
-0.0034434795
0.0057235956
0.015461922
-0.004502058
0.047837377
-0.009017944
0.005975604
-0.020027637
0.007822156
0.007993579
-0.008295774
0.009721875
-0.002785802
0.016114473
0.0037498474
-0.0042842627
0.005360961
-0.04360819
0.012401938
-0.0059047937
-0.01962006
-6.663799e-05
0.031400204

0.004851699
0.006586075
-0.016231537
0.0073354244
-0.0039577484
0.005350232
-0.009649277
-0.0001039505
-0.00045144558
0.00030601025
0.0062988997
0.030979991
0.012955189
0.01157403
0.016664863
-0.0027258396
0.01412642
0.0022964478
-0.00557518
0.011831284
0.0066337585
0.018599391
0.008027911
0.00878334
-0.0016810894
0.001344204
0.0035096407
0.001188159
0.004741311
0.0044800043
0.0037608147
-0.0025428534
0.014198065
0.011685371
0.017288566
0.00094389915
0.002922535
0.0011998415
0.022722244
0.0015454292
0.012380958
0.0041394234
0.0048919916
0.0028271675
0.02160728
-0.007072091
0.011083245
-0.036204815
0.016479254
0.022762537
0.009476781
-0.0055406094
0.007615447
0.0047268867
0.023605466
0.006026745
0.0017517805
-0.005053401
0.010488749
0.0047695637
0.007515192
0.0041846037
0.009219766
0.01181972
0.034679413
0.008109093
0.0095773935
-0.00034034252
-0.0076003075
0.0051398277
-0.004462719
0.017754436
0.0044150352
0.022389531
0.0073167086
0.018597603
-0.002870798
0.02384615
0.011742473
-0.010237575
0.0075285435
0.006403208
-0.004109025
0.0031375885
0.010882497
0.0101110935
-0.0001680851
-0.0062350035
-0.0020188093
0.006042123
0.0254215
0.006314397
0.0060676336
0.025617003
-0.0039104223
-0.0082730055
0.008506656
0.004164815
0.0054974556
0.022890449
0.012548566
0.003860712
0.021441698
0.024394989
0.003335476
-0.007497072
-0.0037298203
0.0103622675
1.8835068e-05
0.0047912598
0.013792992
0.009363294
0.010963559
0.00230062
0.018692613
-0.014310598
0.0024635792
0.006497264
0.017380595
0.015365243
0.0045216084
0.00022935867
0.014778733
0.01648283
-0.0031809807
0.0015963316
0.0036762953
0.011107087
-0.0024900436
0.0048462152
-0.011030197
0.043653846
-0.004032731
0.024515867
0.030030012
-0.009482145
-0.002232194
-0.007289648
0.018675208
-0.004296541
0.02045691
0.032859206
-0.00146842
0.011269212
-0.0002937317
-0.000587821
0.003220439
-0.006779194
0.0020842552
-0.021315098
0.010719657
-0.02734685
0.01851666
0.0027478933
-0.024988413
-0.041968465
0.011693835
0.019429326
0.011392355
0.0039954185
0.0033962727
0.02468121
0.009626031
0.006565094
0.0018814802
0.0023332834
0.00080275536
-0.003815651
0.010415912
0.01078248
0.0015957355
0.013958216
-0.0006440878
0.015489578
-0.014634728
0.00399065
0.027939677
0.005309224
0.009310722
0.031591177
0.012116671
-0.005668521
0.033934355
-0.008081913
-0.011721969
0.007218361
0.0039891005
0.0027616024
-0.007673025
0.021411061
0.048906088
-0.0061038733
-0.00083220005
0.0036696196
0.018087149
0.0066752434
0.0054125786
0.02672875
0.0030150414
0.0025451183
0.002303481
0.02477312
-0.00074255466
0.000680089
0.00039100647
0.032392144
0.012440324
-0.006068945
0.036966085
0.018201709
0.006777525
0.00040876865
0.0010955334
0.031629324
0.0103468895
0.03357494
0.021796584
0.008213282
-0.0073981285
0.008355379
0.026918888
0.009227395
0.015573859
0.022989273
0.004490733
0.01897347
0.026610494
0.009763956
-0.00066435337
0.0031917095
0.0039662123
0.009078383
0.008903027
0.0024362803
0.01583898
0.0053651333
0.007732749
0.016344309
0.020000339
-0.008850217
0.010997415
0.018295527
0.019102693
0.011425257
0.00094377995
0.014280438
-0.004264593
0.005036354
0.004367113
0.010709047
0.00078737736
0.005754113
0.0020548105
0.010496855
-0.031963706
-0.0045614243
0.019086719
0.032961845
0.037985206
0.009310007
-0.017740488
0.011718631
-0.015054941
-0.0009368658
0.0034815073
0.019412756
0.010828853
0.0134938955
-0.0046190023
0.008211255
-0.012366295
0.00035059452
0.0061790943
0.0029958487
0.011265755
0.019927144
0.017237902
0.003473878
0.010448456
0.018995166
0.029502153
0.031217933
-0.010939479
0.02663982
-0.0047842264
0.0004888773
-0.005420804
0.018156528
0.0021606684
0.009457827
0.0026136637
0.000882864
-0.0016077757
-0.00062072277
0.027470708
-0.004499674
0.023038864
0.026323676
0.014454246
0.027413368
0.009827018
-0.013444781
-0.0044049025
-0.0013747215
0.015591741
0.022869706
0.012211084
0.0004068613
0.0047061443
0.004468441
0.029149055
-0.020151734
-0.012784004
0.0026714802
0.010640144
-0.00087964535
0.0018676519
0.010481477
-0.0008969307
0.0097568035
0.005066991
0.015963554
0.02796626
-0.007286191
0.032385707
0.020692587
-0.0069503784
0.002779007
-0.0012830496
0.023850083
0.0013457537
0.002187848
0.0036689043
0.010832429
-0.016073346
-0.01726067
-0.00019621849
0.0015318394
0.013331056
0.023994565
0.019448042
-0.00051021576
0.0042589903
0.012799263
0.00834465
-0.0028065443
0.022921562
0.010985136
-0.0065791607
0.0010018349
-0.0018284321
0.009473324
-0.0016636848
0.018239975
0.0077637434
0.0052173138
0.0064498186
-0.0018320084
-0.0025618076
0.00768435
0.01557672
0.011413217
-0.027234197
0.026514053
0.016106606
-0.0021609068
-0.007739663
0.007235527
0.0056983232
0.0013350248
-0.0154777765
-0.0061854124
0.014395475
0.0061621666
0.012972951
0.006505966
0.0043661594
0.011685848
0.0056780577
0.026471853
-0.0005185604
0.019587755
-0.0009766817
0.02284038
0.0069839954
0.033283472
-0.0004171133
0.030994058
0.006829977
0.0051870346
-0.0153023
-0.004696846
0.013741136
0.035695672
-0.0100694895
-0.008764505
0.015044451
0.003251791
0.0276469
0.02022624
0.012463331
0.0053857565
0.0035729408
-0.009504437
0.040907145
-0.013484597
0.0056735277
0.0027229786
-0.013523936
0.017356396
0.018431664
0.004805684
0.01613617
-0.0008286238
0.026509166
0.00227952
0.00856185
0.012150645
0.008786559
0.014717102
0.0009685755
-0.0007555485
0.006213069
-0.01098609
0.024240136
0.011388183
-0.031294107
0.0040465593
-0.006705165
-0.028708458
-0.019718409
0.01671803
0.0027524233
0.00031650066
0.016608834
-0.004766226
-0.007974505
0.031315923
0.01172781
-0.001172781
0.0057229996
0.027139425
0.010543942
0.017899036
-0.012827873
0.002158165
-0.014572501
0.0030044317
-0.0047217607
-0.008414507
0.010418534
0.0035420656
0.0047682524
0.018789291
0.0064691305
0.0018635988
0.008501172
0.0085392
0.0060483217
0.010937333
0.03155303
0.009930968
-0.009416819
-0.005361438
0.020586729
0.022860527
0.008171916
0.042378664
0.005753994
0.0069966316
-0.0073457956
0.014083862
0.010105252
0.017141461
0.0073429346
0.0029381514
0.007562995
0.0043706894
0.0075649023
0.017908096
0.004191041
0.002587676
0.021119475
0.010709047
-0.0057017803
0.0034826994
-0.0009924173
-0.004046917
-0.0017168522
0.02021122
0.0086426735
0.007948756
-0.010119438
-0.00039839745
-0.0023471117
0.0018280745
0.0027199984
0.011402726
-0.0054022074
0.008220196
-0.0012048483
-0.015554309
-0.005360365
-0.0021572113
0.011891961
0.009405613
-0.012901187
0.026292324
0.007822633
0.0009689331
0.039720774
0.036166787

0.00085246563
-0.0045330524
0.021308184
0.02507186
0.009499788
0.030577183
0.0025240183
0.019699097
0.013383031
0.01274097
-0.0020656586
0.00085890293
-0.004418254
0.004519701
0.006252885
0.0023001432
0.0026413202
0.006829977
0.0018794537
0.005042672
0.01031816
0.045808077
-0.0027946234
0.010397434
0.01652515
0.01456821
0.007995009
0.009539008
0.0039889812
0.0037329197
-0.0031148195
0.01788187
-0.008032799
-0.0062680244
0.0002670288
-0.00038087368
0.014506102
0.023173094
0.0006415844
0.015993357
-0.0074341297
0.0009914637
0.009160161
0.008536816
-0.0008211136
0.009380937
0.008726716
0.0140173435
0.007949233
0.03170979
0.0043096542
0.0039964914
-0.003173709
0.017325282
0.0029184818
0.0045958757
0.0024547577
-0.00051546097
-0.000628829
-0.011807799
0.017947078
-0.0020971298
-0.010254502
0.010937691
0.011800051
-0.0019141436
0.010226607
-0.0005507469
-0.004210949
-0.014475822
-0.011193991
0.018043637
0.011482358
0.025983095
0.004505396
-0.0036451817
0.024536014
0.00021851063
0.0045740604
0.002221465
0.002728939
0.007744193
0.003909588
0.007074356
0.01330626
0.013547659
0.0017105341
0.023918152
0.024493456
-0.010783076
0.0037670135
0.021195173
0.008659124
-0.0064321756
0.008095264
-0.021063328
-0.001090765
0.024871945
0.024675608
0.014359117
0.00362432
0.0021826029
-0.005735278
0.004547119
0.009672761
-0.0020883083
0.010451794
-0.0019212961
0.0062656403
0.012188673
0.009547472
-0.008995771
0.010807037
0.013609886
0.008522272
0.013848186
0.0080688
0.004423499
-0.002752304
0.0019301176
0.007389188
-0.003105402
0.011371374
0.011326313
-0.012049317
-0.005179763
0.00785315
0.008975983
0.014369965
0.029515624
0.005043268
0.037110448
0.001120925
-0.008035064
0.006150365
0.005555153
-0.0017454624
0.00151968
0.005706787
0.008842349
0.01009202
-0.0014510155
0.009590268
0.00029349327
0.015620947
0.0060875416
0.0036734343
0.0033125877
0.015767574
-0.02020979
0.0076105595
0.015982509
0.0055475235
0.009065509
0.013551593
-0.00091958046
0.007534623
-0.0027343035
-0.0049022436
-0.0011878014
-0.0038434267
-0.0018571615
0.023901701
0.009437919
0.013431907
0.01558435
0.005513072
0.008637428
0.012466431
-0.0024516582
-0.00065517426
-0.009597063
0.009322405
0.0129003525
0.0047956705
0.028212547
0.012525439
-7.021427e-05
0.0025538206
-0.003693223
0.003247857
0.0040638447
0.011995554
0.0054243803
0.0015598536
0.006064296
0.011411309
0.021185756
0.009451866
-0.0044614077
-0.009398818
0.0037603378
-0.013055801
-0.00620234
0.009542227
0.0066742897
-0.001617074
0.0055902004
0.004524708
0.019187331
0.019559383
0.05031824
0.00046348572
0.005139351
0.0015507936
0.005338669
0.014921665
0.0075933933
0.005880952
-0.009163141
0.00428164
0.0011014938
-0.002806425
-0.008143902
0.0029969215
0.019937992
0.006913662
0.009137273
0.0074332952
-0.006955266
-0.00051414967
0.013971448
0.002755046
-0.0045343637
0.0033794641
0.028410435
0.02076757
0.0023952723
0.0027610064
-0.005979657
0.01821351
0.003737688
0.0066229105
0.01221168
0.010142684
0.0071151257
0.009096861
0.0007122755
0.0031678677
0.010785341
0.002470851
-0.0068353415
0.008604646
5.710125e-05
0.004606843
0.0038360357
0.011824727
0.002338171
0.0031961203
0.008566856
0.0015054941
0.006781101
-0.012814522
0.0003925562
0.012922645
-0.0022495985
0.0035645962
0.0403322
0.011500359
-0.0009891987
0.016063452
0.018636107
0.013131499
0.013786793
0.023204327
0.005972266
-0.0024849176
0.009937286
0.010719776
0.025797486
0.012781382
0.0029877424
0.0033335686
-0.017536283
0.00043737888
0.003638506
0.008846283
0.003903389
0.0138680935
0.020304203
0.008851767
-0.000790596
0.026640534
-0.0007302761
0.005571723
0.006238699
0.007408023
-0.0038808584
0.0004785061
0.0061352253
0.002583146
-0.0074929
0.033088326
0.0031040907
0.021977544
-0.00084745884
-0.003996372
0.009316087
0.0068103075
0.011038065
0.013455987
3.838539e-05
0.030245423
0.018779516
-8.59499e-05
-0.004376292
-0.00594306
0.0044640303
0.007936478
0.0069334507
0.023256302
0.0013672113
0.00037634373
0.0014622211
0.010532856
0.0073213577
0.011571765
-0.0016732216
0.014917135
0.0013431311
0.0033118725
0.0051796436
-0.013853908
0.005704522
0.005276561
0.001357317
-0.0012593269
0.013252735
0.018205881
0.008907914
0.003457427
0.016303658
0.01138854
-0.0054656267
-0.00057065487
0.008878946
0.00081527233
0.015482545
0.00114429
0.018152595
-0.0001348257
0.009699225
0.0007801056
0.007138014
0.00058054924
0.01645267
0.003960252
0.0188905
-0.004474163
-0.0018638372
0.005433917
0.016564846
0.011013389
0.0025833845
0.000502944
0.013038993
0.012250543
0.011229277
0.02084589
0.003602147
0.0008980036
0.0034520626
0.0029330254
0.00051546097
0.009597778
0.0015422106
0.022808671
0.020645022
0.00083220005
0.00076150894
0.0039384365
0.008020163
0.0018496513
-0.005435586
0.006812811
-0.016567588
0.0045911074
0.0058869123
0.0067105293
-0.007512331
-0.0016024113
0.01937139
-0.0042676926
0.014107347
0.0022895336
0.00327456
0.014965296
0.014841437
0.004708886
0.0013055801
0.041697025
-0.0026547909
0.018362522
-0.0007107258
0.037032247
0.006629348
0.0010817051
-0.0017887354
-9.942055e-05
0.014385462
0.005930543
0.0040386915
0.0031075478
0.0025792122
0.0039145947
0.018038988
0.0062021017
0.008645058
0.02943182
0.006369114
0.005597353
0.006811619
0.021433353
0.03484416
0.02642548
0.002236843
-0.010013938
0.0014616251
-0.0021276474
0.0022788048
0.0028268099
0.007904649
-0.0018239021
-0.019054651
-0.002896428
0.0011453629
0.010383606
0.040091515
0.002688408
0.019610524
-0.00042545795
0.0079391
0.0035412312
0.010167837
-0.010163426
0.013551235
0.0005092621
0.009184122
-0.004958391
0.0043438673
0.023089528
0.0315727
0.004445076
0.011066318
0.010110974
0.006739855
-0.0033078194
0.022040844
-0.010955691
-0.0008560419
0.016903043
0.058642387
0.014041066
0.02464974
-0.0007146597
0.0051014423
0.01347065
0.014198184
0.015769243
-0.00096797943
0.014884114
0.008483052
0.027347684
-0.00012516975
0.008187056
0.008270621
-0.0007497072
0.007769227
0.006860256
0.000598073
0.009305596
-0.0056946278
0.007542491
0.020959377
-0.0005514622
0.019256711
-0.010377526
0.01023984
0.020955443
-0.0019401312
-0.0004541874
0.010821819
3.0755997e-05
0.010688424
0.001101017
0.011437893
0.0013407469
-0.0005595684
0.0037443638
0.00054848194
0.0056734085
-0.004184842
0.03277445
0.0063507557
0.0037696362
0.010851145
0.0067914724
0.03206098
0.006341696
0.012121081
0.0043838024
0.007703066
-0.002242446
0.015730023
-0.007206559
0.035190344
-0.007333517
0.0029693842
0.0082935095
-0.002007246
0.0040695667
0.0088044405

0.016731024
0.0079523325
0.012117028
-0.0063660145
0.0108549595
0.005952835
0.022021413
0.017100215
0.012181878
0.0104961395
0.0067943335
0.0013874769
-0.00026094913
-0.001668334
0.00013434887
0.005635977
0.0028306246
-0.0074754953
0.0021890402
-0.0017710924
0.0026488304
0.006358862
0.014369369
0.005625248
0.0014109612
-0.0017207861
-3.9696693e-05
0.0076642036
0.023649693
0.01619947
0.0066509247
0.0014177561
0.003556013
-0.0005991459
0.0013583899
0.018817782
-0.001292944
0.0031898022
0.008924961
-0.0045969486
0.0064804554
0.0009851456
0.0110862255
0.0045262575
0.011213422
0.0011591911
0.0060716867
0.00023639202
0.0021967888
0.00081169605
0.0016657114
0.008773446
0.0067925453
0.013248563
0.008621812
0.018247008
-0.00048720837
0.022903442
0.015188694
0.0063859224
0.0035452843
0.004965067
0.0057536364
0.005039215
0.0066553354
0.0012805462
0.009019136
0.0038889647
0.014265895
0.0012466908
0.0069229603
0.032917142
0.01421833
0.002695918
0.0055497885
-0.00060522556
0.007545948
0.005825758
0.0075427294
-0.0010706186
0.008891225
0.007074952
0.021647215
-0.0032910109
0.0021488667
0.003591895
-0.0013623238
-0.00073993206
0.018428802
0.00754869
-2.1219254e-05
0.0059006214
0.0067813396
0.011991143
-0.0008122921
0.005559683
0.0010092258
0.0058043003
0.017002821
0.0006684065
0.024638891
-0.0004478693
0.004859209
-0.00037443638
0.0069471598
0.013656855
0.007439971
0.0016311407
0.0097744465
-0.0003541708
0.003964305
-0.0008481741
-0.0020303726
0.012329698
0.0066939592
0.0051515102
-0.00072419643
0.0045872927
0.02728498
-0.002497077
0.009870768
-0.0022687912
0.003960967
0.00047302246
0.0068534613
0.0015307665
0.0023248196
0.015607476
0.0065327883
0.0015666485
0.0090972185
0.04461825
0.0054500103
0.007649541
-0.0010923147
-0.0007582903
0.0041000843
0.0055122375
0.01896131
0.0022215843
0.014165044
0.014765859
0.0046397448
0.007920265
0.026522279
0.010310531
0.0023659468
-0.0012770891
0.0040205717
5.2452087e-05
0.0051624775
0.009216905
0.0020388365
0.016754031
-0.00044548512
0.013374686
0.0049734116
0.026281714
0.013444424
0.00077700615
0.0060008764
0.00045835972
0.008121371
-0.0027490854
0.00021576881
0.0036501884
0.01648128
0.021730661
0.0029501915
0.0011332035
0.0034157038
0.0069135427
0.0004335642
-0.0006147623
0.008193135
-0.0018019676
0.011228442
0.0036723614
-0.0004169941
0.001301527
0.0029724836
0.0041456223
0.004526973
0.002829671
0.0069625378
0.011713266
0.008427858
0.0058705807
0.008373022
0.0020153522
0.019874096
0.0033459663
0.008046627
0.0022984743
0.0047620535
0.0011351109
0.008222342
0.010284424
0.008195877
0.019414186
0.017805219
0.00083601475
0.001251936
0.039904
0.014036536
0.00464046
0.020554662
0.005117178
0.0022616386
0.008479357
0.004375577
0.014167666
0.00591743
0.0024895668
0.023051858
0.00916636
0.0021195412
0.010345697
0.00045847893
0.030597568
0.0036526918
-0.0017975569
-0.002570033
0.0023633242
0.012457132
0.013719678
0.00330472
0.019259095
-0.00031602383
0.0017212629
0.0059062243
0.049001932
0.012360096
0.0024033785
0.0021777153
0.013865471
0.013541102
0.0059025288
-0.00091683865
0.012913108
0.00119102
-0.0009810925
0.018354535
0.0019526482
-0.0007663965
0.00036036968
0.0039503574
0.014125228
0.0003812313
0.0033608675
-0.0004285574
0.003597498
0.022399068
0.016309023
0.0008648634
-0.0006953478
-0.00026071072
0.006757617
0.013250709
-0.00149858
0.010639787
-0.00025451183
0.0014415979
0.002727747
0.0092237
-0.0019586086
-0.00033938885
0.00024986267
0.006026387
0.007451892
0.020814776
0.0011037588
0.006407857
-0.0033222437
-0.00010418892
0.025441766
0.011001587
0.007912993
-0.000172019
0.003984928
0.00028896332
0.0026078224
0.007898688
0.025812984
0.011201739
5.209446e-05
-2.3961067e-05
0.007785797
0.025766611
-0.00087058544
0.0005565882
-0.0011228323
0.0077569485
0.013933301
0.02283895
0.0078037977
0.005194187
-0.001081109
0.019665837
0.0017656088
0.005256057
0.03252256
0.009554625
0.0011100769
0.004846096
0.0025383234
0.0024485588
0.010967493
0.0004043579
0.0010097027
0.001589179
0.003910303
0.019334793
0.0033795834
0.0008109808
0.024763227
0.01107347
0.012142539
-0.00093984604
0.0020843744
0.0016235113
-0.00015103817
0.0017164946
0.019451737
0.005936742
0.0034579039
0.015317559
-4.684925e-05
0.0013054609
0.02664423
0.003176093
0.0027403831
0.007641554
0.0009149313
0.0038989782
0.0046613216
0.0048857927
-0.00030517578
0.0021389723
0.0024957657
-0.0027598143
0.0121901035
-0.0031692982
0.002073288
0.013869762
0.006496191
0.012461305
0.0032397509
-0.0014821291
0.004983902
0.0039241314
0.0040011406
0.0013810396
0.0025634766
0.020954728
0.03311956
0.005853057
0.01621294
0.0032030344
0.0035473108
0.0060807467
-0.0012485981
0.0039914846
0.0069389343
-0.0005913973
0.010928631
0.003034234
0.009017706
7.379055e-05
-0.00043833256
0.004537821
0.01730442
-0.0014003515
0.0075849295
0.0030424595
0.012118459
0.04650879
0.0025012493
0.007833004
0.015134335
0.00088584423
0.01704526
0.019433498
0.0093438625
-0.0036079884
0.021852493
-3.4093857e-05
0.0016368628
0.0039684772
0.0021945238
-0.0021260977
0.029458165
0.019590616
0.007017255
0.0038013458
0.0013625622
0.025562525
0.013106465
0.01002121
0.006118536
0.009700775
0.0044887066
0.008465648
0.007616639
0.017906547
-0.00050735474
0.008644104
0.012819648
0.00103724
0.014731765
0.010976434
0.021856427
0.012368321
0.00029671192
0.020623922
-0.00084257126
0.00032877922
0.003928423
0.008849502
0.004015684
0.005845666
0.00739944
-0.0009894371
0.0019665956
0.006819606
0.00753963
0.004064083
0.006011486
0.0013768673
0.0042829514
0.00529778
0.012968659
-0.0036104918
0.008922458
0.00032520294
0.03074193
0.009486198
0.01097405
0.0010447502
0.0075546503
6.16312e-05
-0.00039184093
0.0031524897
0.0011239052
0.017590165
0.015088558
-0.0026942492
0.002719283
0.010822177
0.008984566
0.003123045
0.0047101974
0.00455606
-0.0007828474
-0.005842924
-0.001744628
0.022489667
-0.00087213516
-0.00019609928
0.0046635866
0.0149225
0.0013495684
0.005408764
0.009675503
-0.00037181377
0.0034755468
0.00663507
0.0045524836
-0.00048673153
0.0027970076
-0.0018007755
0.00898993
-0.00093615055
0.014336348
0.0012202263
0.0071156025
0.0058238506
0.00464499
-0.0036667585
0.009534955
0.004564643
-0.002809763
0.021482706
0.006207347
0.013218999
0.0012812614
-0.00057816505
-0.0005233288
0.007598281
0.008826971
0.0014766455
0.0060446262
-0.00057530403
0.0026113987
0.010807991
0.005060315
0.0038704872
0.0077673197
0.011149287
0.008638859
0.0001487732
0.005948782
0.006563306
0.012889385
0.03249514
0.00063431263
0.025096059
0.007660866
0.002665162
0.0027257204
0.0016329288
-0.0021656752

0.005975127
0.004982829
0.009072423
0.019324183
0.0034089088
0.010197639
-0.0010175705
0.003997445
0.0044231415
0.008756757
0.0034457445
0.0030841827
0.011337042
0.017718077
0.009601474
0.00829041
0.006750107
0.007489562
0.005034089
0.0037801266
0.023096919
0.012370706
0.0108881
0.005207658
0.0149844885
0.0077627897
0.0051938295
-0.0026394129
0.0077530146
0.0016340017
0.014479041
0.0020141602
0.004381299
0.005588174
0.012016416
0.002584815
0.00052273273
0.0033289194
0.019682646
0.0012595654
0.0034737587
0.01453948
0.004791856
0.0064167976
0.0061692
0.014462948
0.00032567978
0.0034829378
0.009438157
0.01835215
-0.0011678934
0.006029725
-0.0009434223
0.008011341
0.0041276217
0.0090072155
-0.0006850958
0.007125497
0.0031136274
0.017665625
0.0029113293
0.0071707964
0.0036149025
0.013826728
0.0077210665
0.006336093
0.008226037
-0.00041389465
0.00054097176
0.013407707
0.008350253
0.006825447
0.005398035
0.0025109053
-0.0005327463
0.008582711
0.002539754
0.0031311512
0.0068264008
0.008901358
0.014211893
0.0016742945
0.0063638687
0.00989604
0.018781304
0.012317181
0.007176161
0.010735393
0.004954815
0.0050879717
0.011575103
0.002195239
0.010697126
0.0043611526
0.017700672
0.010975599
0.016342878
0.0032047033
0.0025029182
0.006570816
0.0041275024
0.00089883804
0.0040688515
0.005564332
0.0038440228
0.001747489
-0.00019538403
0.0004988909
0.023400307
0.002824664
0.009882331
0.004914999
0.012977004
0.011167765
0.008856773
0.003955841
0.011588454
0.004663229
0.006866932
0.01668799
0.005688548
-0.00020062923
0.0036562681
0.008387208
0.002285719
0.0033900738
0.00011765957
0.006441951
0.0077097416
0.0032880306
0.004183054
0.015983224
0.00476861
0.006594658
0.0071365833
0.010297775
0.0013388395
0.011382341
0.010791063
0.0049209595
0.006376028
0.016607642
0.00767529
0.0049500465
0.014686704
0.006558895
0.0016198158
0.009782076
0.0067868233
0.006439328
0.0019849539
0.003191471
0.012565136
0.007942915
0.013334155
0.0026811361
0.005128145
0.0018367767
0.010585785
0.0010207891
0.009547472
0.013896823
0.0013483763
0.0024752617
0.01311636
0.0066506863
0.0024778843
0.015909553
0.0026775599
0.016546369
0.0044072866
0.0021694899
0.008523107
0.0076675415
0.006922841
-0.00017976761
0.011135101
0.009503126
0.0072155
0.0026057959
0.0019948483
0.0088739395
0.005147338
0.0035983324
0.0028748512
0.012912869
0.007645607
0.0007586479
0.01461339
0.0064047575
0.008024454
0.012866259
-0.00037193298
0.0073025227
0.006159663
0.015951753
0.004621625
0.0039772987
0.0032291412
0.00789547
0.0045357943
-0.001985073
0.001430273
0.006774187
0.00031244755
0.010214925
0.01166296
0.004778862
0.0013871193
0.0035483837
0.011737108
0.0027496815
0.007947803
0.0012047291
0.017166495
0.0064567327
0.010225296
0.004266143
0.0030480623
0.0063773394
0.007651329
0.00911808
0.0116022825
0.0009765625
0.0002257824
0.012191415
0.00064623356
0.0049569607
0.005284071
0.0048835278
0.0052468777
0.007828951
0.008913279
0.00083589554
0.0011616945
0.0048532486
0.0012199879
0.004016161
0.0113812685
0.0145276785
0.009674549
0.0023829937
0.011678219
0.0017175674
0.020233989
0.011482477
0.0024222136
0.013776064
0.0018630028
0.009104133
0.020661712
0.012195945
0.002884984
0.009559989
0.005625963
0.009006858
0.0015523434
0.00220716
0.0034458637
0.009826183
0.008239269
0.003884554
0.008518577
0.00075387955
0.014399886
0.010228157
0.011942863
-0.00041353703
0.0059010983
0.00734663
0.0047347546
0.011861563
0.0105724335
0.00025892258
0.02679193
0.0038400888
0.0021119118
0.008010864
0.0065020323
0.0043896437
-0.00015163422
0.0012083054
0.005215287
0.0021346807
0.0028845072
0.008435726
0.0016402006
0.0013034344
0.0078498125
0.0035108328
0.0025840998
0.010191917
0.0037667751
0.011839271
0.014525175
0.0010627508
0.0024021864
0.002906084
0.0011463165
0.008809209
0.008141756
0.001986146
0.004066944
0.00051891804
0.0067886114
0.005374074
0.011477947
0.012965322
0.0022314787
0.0035488605
0.020448565
0.007228017
0.0069435835
0.014750004
0.0052330494
0.0029730797
0.0053515434
0.01399827
0.0030280352
0.0025434494
0.010323167
0.007212043
0.009894609
0.009050608
0.0064840317
0.003006816
0.0019989014
0.004376173
0.0017904043
0.020950913
0.004723668
0.008016825
0.0038403273
0.0038158894
0.0023138523
0.008066177
0.004769206
0.0051835775
0.006056428
0.012856483
0.012623429
0.011341333
0.00075256824
0.0005540848
0.0038164854
0.0051008463
0.0014550686
0.004369259
0.0069770813
0.004889965
0.006856084
0.008491397
0.01200676
0.011700273
-0.00036382675
0.020168781
0.0028797388
-0.0004951954
0.006038785
0.0031260252
0.0096616745
0.008535981
0.0057992935
0.0039783716
0.01977861
0.0005480051
0.023958325
0.0024086237
0.0041600466
0.0092561245
-0.00029993057
0.008908153
0.0043153763
0.007918596
0.0034493208
0.0090146065
0.0039203167
0.004804611
-0.0008151531
0.006287098
0.009481907
0.010290265
0.0024001598
0.008440137
0.005944133
0.017140865
0.008893728
0.016965747
0.013399005
0.0059850216
0.009824514
0.0047335625
0.0010938644
0.0016400814
0.002404809
0.005834818
0.0018091202
-0.00047171116
0.0050293207
0.0030941963
0.0147076845
0.004270196
0.0018129349
0.006778598
0.0028967857
0.002583623
0.005658269
0.021721125
0.0142992735
0.009816647
0.011394739
0.009375095
0.007972956
0.007022977
0.0024197102
0.00349617
0.015062809
0.007735729
0.00040745735
0.004446268
0.0119229555
0.013255835
0.013155937
0.012573004
0.0050297976
0.003431797
0.007347703
0.005478859
0.015800953
0.0054062605
0.0023955107
0.012280345
0.016293049
0.009325266
0.0010892153
0.0076235533
0.0074402094
0.013962865
0.007350683
0.0065157413
-0.0002310276
0.0067546368
0.007560134
0.003817916
0.0070466995
0.0017088652
0.008876681
0.00018143654
0.0011546612
0.0016419888
-0.00037002563
0.008061051
-0.0007722378
0.0044807196
0.007451892
0.0018963814
0.016236067
0.0017254353
0.008121848
0.0010225773
0.004677415
0.0029357672
0.00063335896
0.0034126043
0.0053032637
0.00017094612
0.010501385
0.013173819
0.002164483
0.0036666393
0.0038591623
0.0058459044
0.00074875355
0.011973262
0.014016509
0.011317372
0.00074601173
0.018896937
0.008871794
0.0055553913
0.0103183985
0.0042181015
0.0037566423
0.0019658804
0.0035482645
0.020879745
0.009313703
0.00704813
0.008611798
0.017090917
0.0031900406
-0.0021072626
0.0025367737
0.01577115
0.007846713
0.004167676
0.014278412
0.011775613
0.005279064
0.0073646307
0.004785657
0.0040769577
0.014349699
0.00613451
0.0058294535
0.00051414967
0.004807353
0.010686755
0.0004335642
0.008370638
0.006079912
0.004141569

0.0021055937
-0.00074517727
0.0030132532
0.013649583
0.009668231
0.0024784803
0.0066508055
0.0012799501
0.008850932
-0.0007060766
-0.0021111965
0.0060881376
0.0025737286
0.0033619404
0.0028438568
0.0042063
0.01753068
0.009575009
0.0023639202
0.009752989
0.022417784
0.013554692
0.0026897192
0.005763769
0.002051115
-0.0016664267
0.0039993525
0.004992485
0.0044693947
-1.1920929e-06
0.013732195
0.0063887835
0.011827469
0.013831973
0.009168029
0.010012746
0.0076675415
0.0034796
0.0021420717
0.0047801733
0.010076523
0.00065612793
0.018072724
0.0018796921
0.0028392076
0.0024853945
0.006745696
0.0109303
0.0056700706
0.0099983215
-0.0015792847
0.0005848408
0.007300377
0.00910306
0.0075553656
0.011131763
0.005835414
0.0007970333
0.0012402534
0.012397766
-0.00048696995
0.011208415
0.0025087595
0.009694934
0.0013898611
0.005063176
0.0037636757
0.010127306
0.013909936
0.005321145
7.426739e-05
-0.0015670061
0.006507635
0.0012646914
0.01635933
0.007221937
0.015180588
0.0004081726
5.877018e-05
0.006232977
0.011101484
0.0050421953
0.0045410395
0.008489609
0.0017299652
0.028121114
0.009271264
0.0009772778
0.01920271
0.0056391954
0.010725617
0.0034041405
0.012604952
-0.0029336214
-0.000875473
0.005532384
0.009467006
-0.00048029423
0.002863288
-7.712841e-05
-0.00078880787
-0.00011920929
0.008072853
0.0028918982
-0.0009974241
0.0026112795
0.0093768835
0.0040997267
0.004599452
0.007379651
0.0039025545
-0.003823638
0.006108761
0.015159965
0.0034034252
0.008957148
0.0034362078
0.020425916
-0.0034310818
0.00033915043
0.00736022
0.0061540604
0.0019325018
0.00097072124
0.010148406
0.0011622906
0.009395838
0.0021806955
0.003409624
-0.001512289
0.013844013
0.0033972263
0.028987646
0.024529934
0.012090087
0.016733289
0.0016676188
0.008181691
0.032155037
0.0038013458
0.0084142685
0.0014967918
0.016709805
0.016754389
0.0048929453
0.004926324
0.0015175343
0.006637454
0.01012373
0.0012061596
0.0010825396
0.002367735
0.015355229
0.004406333
0.003206849
0.007906675
0.0029085875
-0.0012484789
0.0015759468
-0.00032150745
0.0010498762
0.0031689405
0.010139346
0.0024574995
0.002341032
0.0036088228
0.0017489195
0.021190405
0.011371613
0.0040163994
0.0058168173
0.0011011362
0.004941702
0.0069152117
0.002993226
0.0024160147
0.0019494295
-0.00063705444
0.008418441
0.006843686
0.0064730644
0.0077673197
0.008066297
0.011718154
-0.0021944046
0.012471318
0.016659856
0.006385684
0.0015214682
0.0022176504
0.0053750277
0.0021309853
0.005515456
0.03283286
-0.0006804466
-0.0009088516
0.009133697
-0.005940795
0.0008678436
0.0091661215
0.0022250414
0.00055253506
0.0075680017
0.012838483
0.009123325
0.008044243
0.008450031
0.003723383
0.0032942295
0.0011838675
0.002239585
0.015342116
0.009057283
0.006158471
0.020936131
0.009918332
0.0009242296
0.002157092
-0.0015556812
0.0049180984
0.005274415
-0.0027246475
0.01463747
0.004511118
0.0069954395
0.004836321
0.0019313097
0.007906079
0.013892412
0.0034966469
0.01555264
0.00013816357
0.0064741373
0.0012618303
0.0064685345
0.011273861
0.0016818047
0.010110855
0.0029069185
0.01433444
0.004083276
-0.0017439127
0.009845734
0.0018817186
0.0009714365
0.0095124245
0.006769538
0.011758566
0.008490682
0.013225198
-0.0010644197
0.0024460554
0.006528139
0.012289882
0.005804658
0.0024068356
0.0037685633
0.008382201
0.003665328
0.0006121397
0.009297967
-0.00034546852
0.0040482283
0.014090896
0.018323421
0.0074460506
0.003232479
0.002485156
0.009638548
0.0076556206
-0.0011029243
0.0326488
0.008793116
0.0044909716
0.0037424564
0.054784417
0.0010193586
0.0008713007
0.0037657022
0.0024276972
0.0046993494
0.005930543
0.010858655
0.0051805973
0.0016169548
-0.00054609776
0.0058779716
-0.0007491112
0.005702615
0.013145924
0.0067436695
0.013795018
0.0040849447
0.0050650835
0.00019264221
0.026832223
0.011155963
0.0017453432
0.0049732924
0.0054650307
0.01793015
0.010209441
-0.0017629862
0.0066691637
0.007263303
0.010523081
0.0019148588
0.016054273
0.006195903
0.009539366
0.00412035
0.0056711435
0.0071462393
-0.00024223328
0.009354353
0.015486479
-0.0013064146
0.010430932
0.0050218105
0.0013576746
0.018912077
0.00967586
0.002178669
0.010299921
0.00473392
0.008452296
0.0066492558
5.4121017e-05
0.0029882193
0.015686154
0.0047721863
0.0015648603
0.013183475
0.002389431
0.005385995
-0.0029588938
0.010679841
0.0076773167
0.0041327477
0.012852073
0.009452343
0.0053315163
0.015133262
2.2649765e-06
0.008907676
0.0054433346
0.01594317
0.0061511993
0.0033775568
0.0066707134
0.011554837
0.027685523
0.0013585091
-0.00030052662
-0.00089526176
0.005505204
0.0011979342
0.004915118
0.013660789
0.00888896
0.00948
0.011922598
0.00014579296
0.0068523884
0.010903478
0.004968524
0.0026291609
0.0029437542
0.0044578314
0.004540682
0.0054370165
0.007072687
0.009639263
0.0016667843
0.0120100975
0.012560725
0.006612301
0.02838695
0.0070199966
0.0042915344
0.012162209
0.001193285
0.005292177
0.00226748
0.005139351
0.0033692122
0.022991776
0.008201838
0.015097737
0.020944357
0.008628964
0.0055826902
0.020600438
0.017197132
0.0003556013
0.005939245
0.03617561
-0.0006700754
0.000841856
0.0154310465
0.01522553
0.0035136938
0.0072944164
0.005055189
-0.00032496452
0.009696603
0.017108917
-0.0006452799
0.009631753
0.0014760494
-0.0033756495
0.00800395
0.0016465187
0.010166049
-0.0011928082
0.005297303
0.012930632
0.011446118
0.014460564
0.00047814846
0.0060976744
0.00038421154
0.0059742928
0.00289464
0.002115965
0.001439929
0.0016644001
0.015152454
0.013154149
1.4781952e-05
-0.00026142597
0.015499949
0.017324686
0.0063632727
0.00036287308
0.00036549568
0.00089776516
0.011367202
0.0070052147
0.012672901
-0.001427412
0.016720653
0.0022661686
0.0076469183
0.0034704208
0.0036705732
-0.0015361309
0.017918944
0.012322664
0.003962159
0.012909412
0.005513668
-0.0002310276
0.0012863874
0.0032014847
0.0067744255
0.003036499
0.00858283
0.02400279
0.014295697
0.0058140755
0.00839591
0.013981581
0.007038355
0.0069414377
0.004634142
0.010481477
0.0006762743
0.00901854
0.014850497
0.02732277
0.014236808
0.0039548874
0.00031542778
0.003148675
0.0021816492
0.0051733255
0.009459734
1.0728836e-05
0.009835601
0.010833025
0.0043512583
0.00022935867
0.0079449415
0.00436759
0.013322592
0.0042620897
0.007191777
0.008222938
0.0053249598
0.016564727
0.0032588243
0.0018012524
0.004452586
0.00368917
0.013703704
0.0176481
0.001709938
0.0051236153
0.014901638
0.0027108192
0.008190036
0.022446394
0.0053067207
0.012679815
0.009635687
0.003856659
-0.00052785873
0.0034570694
0.00010561943
-4.4822693e-05
0.006280303

0.39188445
0.39161134
0.34973264
0.3127185
0.39616418
0.32386768
0.31774962
0.38333023
0.4368502
0.34105408

