0.065535426
0.092511535
0.01979351
0.063667655
0.02242136
0.034107566
-0.03192532
0.11482036
0.045974493
0.013383985
-0.12558424
0.058703303
0.047733784
0.08701873
0.037522316
0.055862427
0.06955838
0.057735205
0.0072700977
-0.026753783
0.13203871
0.021864414
0.00627625
0.13572061
-0.06936991
0.0076158047
0.019755483
-0.06647825
0.010315537
0.031670928
-0.026625276
0.080518365
0.088249326
-0.051873326
0.002944827
0.028092623
0.04365182
0.13593161
0.08517718
-0.04723966
-0.02508998
0.017980933
0.07946861
0.04301715
0.028194666
0.10015762
0.09824729
0.02599144
0.010083914
0.07753241
0.031084538
0.028061867
0.04431069
-0.03906393
-0.06554258
0.040093064
0.05313909
0.009348273
0.015455008
0.047545314
0.02036047
0.06316435
0.049101472
0.043456793

0.14359069
0.07483411
0.02078712
0.02720356
-0.0010262728
0.036352873
0.068155885
0.017677188
-0.01241982
0.11071849
0.012511253
0.019450307
0.0045951605
0.012076139
0.016989589
0.053105474
0.11092484
0.02976346
0.0153182745
0.039556623
-0.0013861656
0.01033628
0.0029480457
0.008884668
0.031706095
-0.14416158
0.010509133
0.031707406
0.008369207
0.08917487
-0.03987336
0.1549865
0.011299729
-0.011313796
0.11835003
0.026958108
0.03966832
0.0045137405
-0.021470666
0.19821382
0.04086852
-0.02046597
0.01816237
0.14294577
0.063251734
0.12371874
0.0055981874
0.0036987066
-0.02456963
0.03891027
0.061778426
0.03192711
0.05297482
0.0083658695
0.029973388
0.019391537
0.002755642
0.0077819824
0.0030879974
0.1028744
-0.057938933
0.037824035
0.016992569
-0.01914668

0.0028847456
0.024457455
0.034806848
0.00048244
-0.001793623
0.018560052
0.01738584
0.0015510321
-0.0018407106
0.02187252
0.04365337
0.0010191202
-0.00084781647
0.023558259
0.0103827715
0.044426322
0.016968727
0.030923247
-0.0016111135
0.02687025
0.027351499
0.047536492
-0.002309084
-0.04919195
-0.025515676
0.014903069
0.0013947487
0.028808713
0.008051395
0.022431612
0.0002449751
0.013807416
0.01293993
0.004625559
0.0053744316
0.028765202
0.03266561
0.004006982
0.0700469
0.009154797
0.015543342
0.0082730055
-0.0064655542
0.01628375
0.03687203
-0.027855515
0.012778759
0.014421344
0.012453556
0.05871582
0.020947337
0.014820218
0.0049105883
0.025018096
0.04056239
-0.0014272928
0.060284972
-0.003183484
-0.011540413
0.030876637
0.05646205
0.018760443
0.00013577938
-0.006828308
0.02140975
0.0023088455
0.00022602081
0.022929072
0.019899964
-0.0043842793
0.039826274
0.009157777
0.031555533
-0.0010733604
0.04218018
0.018974304
0.05496943
0.011430025
0.014148951
0.026473522
-0.02262044
-0.014572382
0.021829844
0.04207313
0.010510802
-0.004673481
0.019895673
-0.025050998
-0.019047141
0.025876284
0.013626099
0.024147034
0.03546512
0.06815684
0.022848606
-0.025164843
0.010853171
-0.05210769
0.009746075
0.027003169
0.005543351
0.021815777
0.069814086
0.04717529
0.018860102
0.01777637
0.039846063
0.0008403063
0.027923942
0.055871606
-0.030685902
-0.0015333891
0.015982509
0.025930405
0.027176261
0.032195568
0.004688859
-0.0012533665
0.06370294
-0.01671648
0.020566463
-0.0012475252
0.052862763
0.0060116053
0.008925796
0.02042675
0.0107319355
0.025468588

0.002887845
0.043504
0.0017644167
-0.022749424
0.0009163618
0.025212407
0.016641617
-0.0009133816
0.039405942
0.04382491
-0.0086551905
0.01824987
0.008970499
0.049605727
-0.009430647
-0.0010486841
0.022890925
0.020021796
0.0029450655
0.004049301
0.015678525
0.024160981
0.022684336
-0.003716588
0.013382912
0.009909153
0.04065752
0.003011465
0.016598225
0.020878315
0.01678276
0.010836601
0.014845967
0.042961597
-0.06546497
0.018295169
0.028881669
-0.04235363
0.010212779
0.014370441
0.04101062
0.018607855
0.029364586
0.039786696
0.043205857
0.02851069
-0.000949502
0.0044077635
-0.001011014
0.015104771
0.02227807
0.00442183
0.006539464
0.025525808
0.05951929
5.841255e-06
0.0012387037
0.027274728
0.0028333664
0.0154823065
0.0201329
0.039728284
0.02298832
0.0049721003
0.009593964
-0.0012316704
-0.0038182735
0.021734834
0.009214044
-0.0010632277
0.017851353
0.059046626
-0.00076913834
0.021800995
0.017027497
0.037763715
0.00035655499
0.02477169
0.021418452
0.014481068
0.010845065
0.07271874
-0.0074230433
-0.0026038885
0.024608374
-0.0002938509
0.005607486
-0.010988474
0.028803825
0.029917717
0.02605927
0.06736398
0.02115941
0.029732466
0.013558984
0.034255505
0.020651102
0.029491305
0.0030107498
0.0026106834
0.016883612
-0.01941514
0.028256774
0.00014066696
-0.0123131275
0.0008049011
0.00094509125
-0.020305872
0.005039811
0.051196694
0.008633733
0.028894901
-0.014863014
0.057171345
-0.0040489435
0.02835679
0.035736203
0.044966698
-0.0144120455
0.03429663
0.018731236
0.019715548
0.014169931
0.019638538
0.022331834
0.045201063
0.052814126
-0.00870049

0.01179266
0.023828387
-0.010934591
0.0114245415
-0.013230562
0.0018640757
0.0019241571
0.012552381
0.0003452301
-0.009039998
0.0033060312
0.022708297
0.0048333406
-0.0012646914
0.011779547
0.003310442
0.009623408
0.018138528
0.0016496181
0.013570905
-0.0060704947
0.011672378
-0.012106657
0.028042912
0.004139662
0.02775836
0.019176364
0.0213238
7.033348e-06
-0.0032202005
0.01243794
0.003117919
0.017742515
0.027488947
0.007960558
0.0009942055
0.008156061
0.021663547
0.016863108
-0.009067774
-0.0005251169
0.0014007092
0.0033884048
0.0012545586
0.0040932894
0.009052396
-0.02321589
0.001347065
0.02597785
0.026549816
0.0051796436
0.017254472
0.01597619
0.021797657
0.008777857
0.019391537
0.007776141
0.0130313635
-0.0016100407
0.006991267
0.031246662
0.0045120716
0.010807753
-0.0022752285
0.016291738
0.0018675327
-0.002521038
0.023751736
0.0035948753
0.011352539
0.0061798096
-0.005758643
8.3208084e-05
0.014163375
0.008693576
0.029398203
0.0041719675
0.03304255
-0.0050504208
0.006930232
0.004321933
-0.0029135942
0.006872177
-9.047985e-05
-0.010357618
0.012670279
0.020356536
0.0017820597
0.0070329905
0.0026603937
0.010146499
0.0077471733
0.015911698
0.005161643
0.013587952
-0.0047659874
0.024451613
0.0052553415
0.012775779
-0.0006619692
0.0025146008
0.003352046
7.510185e-05
0.00010442734
-0.002481699
0.008189321
0.012920499
0.0015835762
0.023422241
0.00526011
0.040346384
0.0053099394
0.00274992
0.01146698
-0.009884119
0.00694108
0.006875992
0.0015938282
0.0011329651
0.018975735
0.006364107
0.0022394657
0.0045871735
0.026617289
0.014852285
-0.015728831
0.0046747923
0.008438706
-0.0019530058
0.010708928
-0.01787281
0.008933306
0.010047197
0.0070049763
0.030765057
0.0056596994
-0.00028431416
0.00878644
0.016153932
0.0059524775
0.021160603
0.0055365562
0.034267902
0.0022284985
0.0074118376
-0.0014064312
0.0068353415
0.007910609
0.0014611483
0.003995061
0.0003695488
0.006290555
0.0151337385
0.015486836
0.0025969744
0.0048377514
0.03599
0.0060976744
0.0023930073
0.015431166
0.010508299
-0.018325448
0.0075423717
-0.020017147
0.0091968775
-0.0037140846
0.022224903
0.022298574
0.011191726
0.013563037
0.0007714033
0.023558259
0.004711151
0.019136071
0.014758825
0.03505087
0.00060606
0.009458542
0.018096209
0.023314118
0.001906395
0.008468628
0.0063283443
0.007952929
0.0065801144
0.030058384
-0.0059047937
0.024886012
-0.0005645752
0.000536561
-0.015130997
0.0079267025
0.014413953
0.0018056631
0.016806126
-0.020243526
-0.00061774254
0.008346438
-0.008723855
0.019557714
0.0101646185
0.004009843
0.008137584
0.037038207
0.005460143
0.008482218
0.009479761
0.007982969
0.00059986115
0.013905168
0.006273508
0.0029881
0.0024895668
0.007573962
0.04043019
0.005403042
-0.0015207529
-0.0016971827
0.018954992
0.0065227747
0.033863187
0.0038415194
0.016514063
-0.0030075312
0.0050210953
0.010208845
0.017984986
-0.0007060766
0.0008455515
0.00031518936
0.02194643
-0.010873318
-0.00019776821
0.0053583384
0.02176249
-0.0026968718
0.029157162
0.013924837
0.0006330013
-0.0029520988
0.014043212
-0.013715625
-0.007516861
0.011243939
0.008068562
-0.002707839
0.015094519
0.00562346
-0.0007367134
0.01968515
0.0068331957
0.00988698
0.0076818466
-0.0048769712
0.00614357
0.0054762363

0.012498498
0.001337409
0.005694151
-0.0025039911
0.006813884
0.014480472
0.010290265
0.010736227
0.0036582947
0.0014270544
0.012691617
0.0042426586
0.0016708374
0.021751285
0.006960392
0.01558888
0.0064520836
-0.0077694654
-0.009075761
0.013746619
0.008608222
0.0005877018
0.003200531
0.0012828112
-0.003781557
0.0075695515
0.020751476
0.012212515
-0.0010704994
0.024259686
0.011159897
-0.0036504269
0.010940552
0.00821197
0.0049176216
-0.012899876
-0.00040769577
0.005285263
0.006917119
0.014505267
0.006883025
0.01575613
0.0044318438
0.015223265
0.0039839745
0.0031086206
0.030200958
0.01045537
-0.0016951561
0.02348578
0.010911703
0.0050559044
0.0110292435
0.0020861626
0.013294339
-0.00030374527
0.032455325
-0.0025041103
-0.00126338
-0.0070233345
0.0022338629
0.0075774193
-0.0100752115
-0.004848361
0.0046373606
0.0020807981
0.014375806
0.017477512
0.0058425665
-0.001075983
0.014428139
-0.00024104118
0.009491801
0.013964653
0.0067465305
0.010463357
-0.0011101961
-0.00019931793
0.013189077
0.016066909
0.019876003
0.011214852
0.011703849
0.005261421
-0.0031696558
0.03151691
0.0056681633
-0.0074207783
0.0045921803
-0.0042220354
0.020920277
-0.0033545494
0.012444377
0.009436488
0.010466695
0.009580374
0.00892508
0.010873437
0.0017329454
0.020306826
0.009327412
0.015236616
0.008055091
0.0043797493
0.02873087
0.007170081
0.016867518
-0.0075597763
0.001406908
0.013111711
0.002726674
0.012625933
-0.00892961
0.012390971
0.014972568
0.001557827
-0.0039613247
0.0011764765
0.0059667826
0.0008004904
-0.0033797026
0.010793209
0.0009458065
-0.00063967705
0.023831964
0.020995736
0.0018305779
0.016542792
-0.0058681965
0.0035959482
0.0101104975
-0.003907919
0.035007596
0.033132672
-0.004012823
-0.0051664114
0.0077638626
0.009879708
0.0011996031
0.012274146
0.013858795
0.01829052
0.0098724365
-0.005377054
0.016147256
-0.0024266243
0.00052034855
0.015720844
0.016422153
0.025819182
0.018465877
0.0029057264
0.019023418
0.0085122585
0.030674815
0.011439204
0.0055333376
-0.009996414
0.014057994
-0.018082857
-0.0004620552
-0.0014280081
-0.0002168417
0.024540901
0.03019154
0.007279277
0.008217692
0.010264158
0.0010501146
0.000906229
0.0070283413
0.0015356541
0.0026874542
0.012501597
0.011307836
0.01753962
0.0071986914
0.008087397
0.013096571
0.017127514
0.0065454245
0.0121177435
0.013576031
0.014821649
-0.009452581
-0.0030423403
0.0011613369
-0.0005661249
-0.00394547
-0.0022841692
-0.00029098988
-0.015281439
0.011003852
0.016202688
0.00075113773
0.013677001
0.022095919
0.0069185495
0.018664718
-0.002914548
0.0005456209
0.007331729
0.010461807
0.016755342
0.0002812147
0.022150517
-0.0020641088
0.015899897
0.003718257
-0.009548783
0.01664269
-0.002730012
0.019264817
0.0118153095
0.008825541
0.012463689
0.027123928
0.0015178919
0.005002618
0.02236998
0.01060617
0.009682298
0.024184585
0.0022605658
0.0076550245
0.028925657
-0.0043543577
0.0041327477
0.0017309189
-0.012477994
0.010805249
0.013728142
0.008845091
-0.0027208328
0.0074539185
0.017088413
0.014077902
0.007942557
0.023112655
0.0018094778
0.0019006729
-0.0073444843
0.010788083
0.008428097
0.009566188
0.025440335
0.02015686
0.00268507
0.0036342144
0.0126719475
0.008100748
0.008583188
0.017288566
0.003120184
0.017243624
0.018968344

0.02685225
0.03416288
0.00911057
-0.0009701252
0.008360863
-0.005354762
0.013882399
-0.0028631687
0.030432224
0.008417249
-0.00233984
0.02110827
0.012137771
-0.0013703108
0.009731412
0.018115044
0.01551044
-0.00073742867
0.018373013
0.005608797
0.02224803
0.009267449
-0.0011614561
-0.0039824247
0.021384954
0.021654367
0.017924547
0.004196286
0.0020899773
0.016888976
0.011901379
0.0067745447
0.0008363724
-0.001716733
-0.0013449192
0.0060806274
0.00780499
-0.0072352886
0.0139734745
0.00092852116
0.007397294
-0.0014193058
0.008713126
-0.007266164
0.008120894
0.0011732578
-0.010453105
0.004019141
0.018098712
0.004191041
0.010196924
0.015123367
0.0030356646
0.010217905
0.008318543
0.030005217
0.0017141104
-0.0025603771
-0.0035904646
0.0402838
0.011345267
0.031874537
-0.0063284636
-0.003373146
0.0034428835
0.010573149
0.0005617142
0.015981436
-0.004978776
0.027408004
0.012155175
0.009044409
0.0011944771
0.012999654
0.016509533
0.00013375282
0.011187315
0.005981803
0.0038980246
0.019236445
0.0045161247
0.020860076
0.013759732
0.028903723
0.010430217
0.009774327
0.024774909
0.01624453
0.0003733635
-0.010699391
0.0046485662
-0.0025396347
0.009961963
-0.0010536909
0.013337374
0.013662338
0.029972553
0.010329962
0.014404774
0.0064584017
0.005673766
0.005405307
-0.0065187216
0.016643643
-0.008862853
0.019046783
-0.00076532364
0.037140965
-0.02727747
0.017126441
0.008252859
0.028355718
-0.008972406
0.005750656
0.002490878
0.0030072927
0.0020109415
0.023497105
0.0039052963
0.015969515
0.008912921
0.044514656
-0.004896879
0.0062577724
-0.0039271116
0.0073827505
0.033213973
0.006083131
-0.00026071072
0.012226105
0.02300024
0.0031813383
-0.0032570362
0.017257333
-0.003229618
0.010935783
0.006519079
0.015485048
0.023405671
0.010864377
0.016263962
-0.0001603365
0.0070593357
0.02712214
0.023798585
0.011754751
-0.011749983
-0.0070227385
0.015356064
0.032440186
0.01463294
0.022902846
-0.0014921427
-4.6610832e-05
-0.02562344
0.011409879
-0.0018591881
-0.0119172335
0.009214878
0.034373283
0.011266828
0.004533887
0.008308768
0.006144285
0.004651785
0.025775313
0.012260795
0.010180712
0.022952437
0.02024591
-0.00017166138
-0.005477667
-0.009227276
-0.0075182915
0.0061633587
0.012349367
0.004538417
0.0036928654
0.0028704405
-0.0016468763
-0.0055282116
-0.00060498714
0.0024510622
-0.00096845627
0.0009944439
0.008032322
0.010434151
0.027354121
0.023240209
0.0037614107
-0.004052162
0.011986971
-0.0014466047
-0.0033464432
-0.0030462742
-0.006755948
0.022056103
-0.004052043
-0.0077478886
-0.009456515
0.0011333227
0.021853328
-0.0036424398
0.0051139593
0.00054860115
0.008289814
-0.0010046959
0.008851886
0.007104993
-0.00075411797
0.008367062
0.0028342009
0.017524838
0.0065762997
-0.0015058517
-0.0026664734
0.012007713
0.00084781647
0.025346756
0.01157701
-0.0039366484
0.015526533
0.048356652
-0.005150199
-0.0014599562
0.0044584274
0.0023622513
-0.0026173592
0.018530011
0.018048167
0.00037515163
2.7179718e-05
0.017569304
0.001726985
0.0054610968
0.033905506
0.0029394627
0.02975738
0.0153849125
0.016408563
-0.0031495094
0.008945227
-0.0046628714
0.001618743
0.005782008
0.026489854
0.012322903
0.021360159
-0.040353775
-0.010344744
-0.0016566515
0.010873914
0.0072436333
0.004846096
-0.0014359951
0.0113784075

-0.015578628
-0.0069640875
0.0019150972
-0.0070409775
0.0077495575
0.015367627
0.01147449
0.01480186
0.00952673
0.0017366409
0.0057286024
0.0033050776
0.0008034706
-0.0016282797
0.007883191
0.01074779
0.0001449585
0.0040249825
0.0032719374
0.009816289
0.00032949448
0.01788485
0.0020205975
0.006482482
0.0068495274
0.0064235926
-0.0018484592
-0.009131193
0.00953567
0.0004118681
0.000662446
0.020714164
-0.0011572838
0.0044652224
0.001001358
0.004996896
0.0035504103
0.019122362
0.009746194
0.013265967
-0.002921939
0.008525491
0.011345983
-0.00083196163
0.001696825
-0.0020920038
0.0012007952
-0.0038535595
-0.01273787
0.00598979
-0.0031186342
-0.0057412386
0.00274539
0.014517784
0.007863164
0.009573102
-0.00075757504
0.0010405779
0.020577908
0.0064002275
0.014312029
-0.005428672
0.0005582571
-0.00036013126
0.013081908
0.014749289
-0.0017546415
0.0088483095
-0.0010626316
0.0062485933
0.010366082
0.016946077
0.010835886
-0.0012637377
-0.007506609
-0.004735112
0.0085936785
0.0028169155
0.0062645674
0.007022381
0.016559243
0.007066846
0.0023481846
0.009344697
0.0021870136
0.0072432756
0.0019019842
-0.013196945
0.0027962923
0.0014287233
0.004242778
-0.006609559
-0.0006736517
-0.0025800467
-0.007820606
0.0035495758
0.018082023
0.007736206
0.0036375523
0.0014121532
-0.00012207031
0.0019657612
0.006247759
0.012422085
0.01385355
0.0057114363
-0.0073957443
-0.005824089
0.00627172
0.0066928864
0.0071618557
0.01839912
0.0047752857
0.005708456
0.009411335
0.014738202
-0.0017797947
0.0048412085
5.507469e-05
-0.0025253296
0.0029489994
0.008700371
0.0070536137
0.0005902052
-0.0016223192
0.0036238432
-0.011266708
-0.009927392
0.008771896
-0.00066292286
0.013552666
0.010277629
-0.0019994974
-0.0006685257
0.0062607527
0.0024983883
-0.0041612387
0.0024267435
-0.0023709536
0.0023192167
-0.0036649704
0.0151667595
0.004502058
0.00410378
0.0011086464
0.0011012554
0.008313775
-0.014285564
0.017658234
-0.0016423464
-0.014944911
0.0027376413
0.0057371855
0.014162421
-0.008391976
-9.9658966e-05
-0.0037359
-0.0067373514
0.0039389133
0.018462539
0.00012862682
0.018417716
0.002328992
0.0057218075
0.0034536123
0.016351342
-0.0044094324
2.9802322e-05
0.0010433197
-0.00060236454
0.008348703
0.008632898
-0.014683247
0.0036633015
0.0033572912
-0.0011416674
0.005773902
0.0022337437
0.012883186
0.009871602
0.000923872
0.013025761
0.002499342
0.0018831491
-0.0050965548
0.007078886
0.010104537
0.010306478
0.007822394
0.004061103
0.013323665
0.010497451
0.015974522
-0.00024092197
0.0049268007
0.008593082
0.0019221306
0.020140171
-0.0015639067
-0.0065715313
0.00056016445
0.00044810772
-0.010546207
0.005109787
0.0066382885
-0.0057804585
-0.004249215
0.003700614
0.0056118965
-0.00075376034
0.008564711
0.0005390644
0.0068315268
0.013059497
-0.004649043
-0.0038093328
0.0022021532
0.0033824444
0.0035165548
0.007227063
0.003707528
0.01205492
0.006864786
0.008342147
0.0046093464
0.013571382
-0.00080788136
0.019084215
0.004038334
0.009124398
0.011633277
0.00049090385
0.0040074587
-0.002917409
-0.0031116009
0.005309224
-0.0028162003
0.009008527
0.0005328655
-0.00024950504
0.00088751316
-0.0058881044
-0.002914071
-0.013425231
0.010119677
-0.015638828
0.0016798973
0.0108270645
0.0077062845
0.005920291
0.0052984953
0.0049477816
0.0050896406
0.007404685
0.0023065805
0.005797863
0.00040459633
0.005693078
0.008097649
0.0041282177
0.010700464
0.012129307
0.0022928715
0.004010439
0.0022697449
-0.0010205507
-0.00976789
0.007325411
0.0054535866
0.001550436
-0.003394246
0.008431554
0.0035727024
0.0007381439
0.0016367435
0.009105921
0.004275322
0.00026202202
0.011659145
0.011708379
0.00080394745
0.0039020777
-0.0056604147
0.0015355349
0.010623097
-0.0012049675
0.007563472
-0.008820057
-0.0016257763
0.0028817654
0.0034189224
0.009145975
0.007585764
0.0017647743
0.0072329044
0.007318735
0.010393381
0.003469944
0.0024975538
0.0093022585
-0.0060913563
0.026174903
0.005079627
0.0010863543
-0.001543045
0.010388494
0.0043216944
-0.017370582
0.0043098927
0.013530016
0.0034161806
0.021217108
-0.0028418303
0.0063490868
0.018352747
0.0055679083
-0.0029822588
-0.00073444843
0.008791804
-0.026863098
-0.013933063
0.00496912
0.013846636
0.0010492802
0.0071656704
-0.00435853
0.013857245
0.0016487837
0.0008864403
-0.0062799454
0.008210778
0.016077757
0.0076298714
-0.0022233725
0.0074613094
-0.0015804768
0.000103235245
-0.001752615
0.005763054
-0.003376484
0.011138678
-0.0070106983
0.005332589
0.0013357401
0.022207975
0.004734993
0.010395646
0.01758957
0.015375137
0.007847071
0.01851201
0.018071532
0.009825945
0.010009766
-0.004297018
-9.381771e-05
0.019644022
0.014565468
-0.0070073605
0.0067139864
0.0070821047
0.0023050308
-0.006636381
0.0071344376
-0.0038214922
-0.00965488
0.007815719
0.01886499
0.0014128685
-0.0020838976
0.00013124943
-0.0012427568
-0.00014400482
0.00073707104
0.0021361113
0.0033146143
0.009071231
0.0042387247
0.0135810375
0.0018178225
-0.0020036697
-0.003296256
0.004463196
0.005533695
0.010142684
0.016895533
0.0062401295
0.0026654005
-0.0021076202
0.0013538599
0.012358785
0.0056453943
0.014374375
0.0002245903
-0.01208663
0.00047004223
-0.0010201931
0.005329609
-0.001973629
0.0013917685
0.0025559664
0.005914569
-0.000805974
0.004333377
0.0018843412
-0.001095891
-0.0020360947
0.013982773
0.004839182
0.005783558
0.006410837
0.012902975
-0.00041341782
0.0037144423
0.0038431883
-0.0015562773
0.009227276
0.004576087
0.008263588
0.0183357
-0.0035184622
-0.001655221
0.008285403
0.0043118
0.0004298687
-0.00021493435
-0.002069831
0.0012273788
0.00060129166
0.010043025
0.009564161
0.0020860434
0.016227722
-0.000541687
0.0064059496
0.018815279
0.0049836636
0.004842758
0.0068148375
-0.0020464659
0.006366968
0.0054733753
-0.004320979
0.0007981062
-0.0013189316
0.004918337
0.0013715029
0.010405064
0.010615945
-0.002054572
-0.0077581406
0.012956023
-0.002714157
0.013337851
0.0057606697
0.0011886358
0.022001863
-0.0046588182
0.006093383
0.0019140244
0.021269202
-0.0062378645
0.002983451
0.016083837
0.0014631748
-0.0055933
-2.861023e-05
0.002024889
-0.002621889
0.0014977455
0.0017699003
0.0038003922
-0.0020672083
0.00062179565
0.004566431
0.0035163164
0.010759115
0.011457205
0.0016080141
-0.0032562017
0.0057885647
0.0011935234
0.0037971735
-0.004065275
0.008116007
-0.0013206005
0.0035367012
-0.0054997206
0.010182023
0.018191934
0.0069481134
0.0075930357
0.0080007315
-0.007791519
0.011297941
0.012290001
0.010595202
0.004401922
-0.005197525
0.009111047
0.0043338537
0.00089776516
0.003690958
-0.0015887022
0.0075006485
0.0014210939
0.0014373064
-0.011152148
0.004379034
0.0010086298
0.0042210817
0.0026965141

0.00154984
-6.0796738e-05
0.00035750866
-0.009570956
0.012124419
0.0065671206
-0.003744483
0.009008169
-0.0022102594
0.008384705
-0.000121474266
0.022206187
-0.002798915
0.003119111
0.0023987293
0.0013507605
0.00019705296
0.0007631779
0.00061798096
0.0054655075
0.0059593916
-0.0019255877
-0.0047501326
0.0037189722
0.00754869
0.01616466
0.0020056963
0.0032849312
-0.0020153522
-0.0005609989
0.003344655
0.0077385902
0.003881216
0.003647685
-0.00026261806
0.0004528761
-0.0034127235
0.0039044619
0.016378999
0.0038073063
-0.00012135506
0.004521847
-0.00013625622
-0.0013871193
0.009413958
0.004700303
0.0029878616
-0.0021307468
-0.00041925907
-0.0044317245
0.006679654
-1.9907951e-05
0.0015963316
-0.0014483929
-0.0026817322
0.0009419918
0.00019490719
0.0042210817
-0.0011113882
0.0017420053
0.0130729675
-0.00041365623
0.0082166195
0.0008671284
0.0033305883
-0.00024175644
0.011385798
-0.0028765202
-0.002714634
-0.003020525
0.0044475794
0.004612565
0.012126803
0.012391329
0.0067470074
0.012428522
0.0048019886
-0.007590413
0.0018365383
0.003902197
0.0054243803
0.0041390657
0.00056147575
0.00794661
-0.00057399273
0.008096814
-0.00095546246
0.0018640757
0.00038802624
0.0002645254
0.0060281754
0.009082437
0.009699225
0.010049701
0.0026113987
0.01023519
-0.00034880638
0.006932497
0.0035629272
-0.011376023
-0.004033327
0.0072598457
0.0072273016
0.014390707
0.0032753944
0.0021435022
0.003962755
0.00024664402
-0.0037480593
-0.0017870665
0.0032117367
-0.0018570423
0.0064980984
-0.005728483
0.011374593
0.009381413
-0.004080653
0.0033000708
-0.00052285194
0.00044071674
0.007632017
-0.0011488199
0.0053430796
0.0023019314
0.0021401644
-0.0015823841
0.00030124187
0.011837482
-0.0038949251
-0.00032877922
0.013363123
0.007958174
0.020157456
0.01559031
0.0050206184
0.0040135384
0.007978201
0.011089802
0.005023837
0.006415367
0.0051333904
0.004336238
-0.000467062
0.007498622
-0.0003437996
0.000320673
0.0030431747
0.0035960674
-0.0021719933
0.0021145344
-0.0036405325
0.0029611588
0.0023719072
0.0022343397
0.0029139519
0.00048089027
-0.004559517
0.016910672
0.003677249
0.014616489
0.005869627
0.012691736
0.003327012
0.0028594732
0.0080708265
0.011234999
0.012464881
0.0036656857
-0.004789591
0.004498005
-0.00017905235
0.009301186
-0.0005992651
0.0045980215
0.010394931
-0.0007638931
-0.0029084682
0.0066818
0.004111409
-0.0002424717
0.020934463
-0.00077342987
0.0055356026
0.005551696
0.005483389
0.003515482
0.0052517653
0.0069606304
0.0056933165
0.0038735867
0.0129749775
0.015046477
0.010339975
0.019411683
0.005511403
0.005312562
-0.0031901598
-0.0019456148
0.0041339397
-0.0010819435
0.0010037422
0.0012923479
0.011842966
-0.0015766621
0.0038410425
0.015771985
0.00035881996
0.0018595457
0.00019145012
0.0037640333
-0.009405732
0.015890121
0.0032448769
0.0006147623
0.012521982
0.013969421
0.001008153
-0.0047581196
0.0061314106
-0.009229541
0.004327297
-0.00029051304
-0.0029515028
0.001013279
0.009878278
0.010866642
0.0014282465
0.0030947924
0.00066947937
-0.0054324865
0.00021612644
0.009698033
-0.0019068718
0.013072729
0.008708954
0.0047506094
0.00031626225
0.02457118
0.0029536486
0.011194348
0.0023380518
-0.0007866621
0.012929916
0.0073992014
0.003345728
-0.0003707409
-0.00038349628
6.67572e-06
0.0051772594
0.007240176
0.007149935
0.003553629
0.015590191
-0.0004478693
0.002749443
0.0023217201
0.0008200407
0.002853632
0.011996388
0.012246013
0.005348444
-0.00824976
0.010813117
-0.002636671
0.0071474314
0.0062024593
0.0017749071
0.0045758486
0.004961133
0.0110218525
-0.00094652176
0.009980917
0.009077668
0.0028582811
-0.0039771795
0.0067716837
0.0008121729
0.0028096437
-0.002960205
-0.0014765263
0.0022341013
0.011626363
0.009688377
0.008990645
0.0072788
0.0011447668
0.00933516
0.010009408
-0.00892663
0.009465694
0.00066804886
0.007986069
-0.0001449585
0.018076777
0.00023937225
0.021217465
-0.0016362667
0.012163997
0.007016778
0.00402987
-0.0016376972
0.0021896362
0.013844371
0.003083229
0.01910448
-0.0045434237
-0.00028276443
0.0028858185
0.009109616
0.015441656
0.0046110153
0.0022755861
0.003907323
0.006297946
0.0015544891
-0.0009108782
0.019845128
0.0021336079
-0.0021607876
-0.004501939
-0.00065743923
0.016091347
0.017320156
-0.001375556
0.0062423944
-0.0030267239
0.0028375387
-0.006312132
-0.0028737783
-0.00071942806
0.000934124
0.007682085
0.0033136606
0.014131427
-6.425381e-05
0.0036087036
0.007105112
0.006551385
-0.0062476397
0.004784584
-0.0005018711
0.0075068474
0.008042932
-0.00015318394
0.00061917305
-0.000567317
0.01373291
0.0050219297
0.0060008764
0.004344821
0.0129362345
0.004042506
0.0034542084
0.011875749
0.009908795
-0.010016918
0.011444211
-0.00037670135
-0.001110673
0.0014388561
0.008376002
0.0030200481
0.0013357401
0.0049943924
0.0041992664
0.011764646
0.013061523
0.0064737797
0.01431632
-0.00026977062
-0.0031807423
-0.00083887577
0.0018367767
0.0011696815
0.0036162138
-0.0054935217
0.0037724972
-0.00038015842
0.0011143684
0.01559031
0.008515954
0.00028014183
0.0009608269
0.009479523
0.008929729
0.0013266802
0.00017356873
0.0064622164
0.0023152828
0.0037533045
0.01052165
-0.0033246279
0.008936524
0.010308266
0.004917264
0.011279821
-0.00014042854
0.0024778843
-0.0029456615
0.009494662
-0.0022541285
0.0069003105
0.01202929
0.0032930374
0.0011247396
0.0009175539
0.0005891323
0.0016448498
-0.0029895306
-0.00016105175
0.008277297
0.0005493164
0.00434947
0.018535137
-0.001440525
0.008010149
-0.012809157
-0.004601836
0.004680276
0.004810691
0.01053822
-0.0010544062
-0.0061484575
0.007584572
0.018087983
0.0059762
-0.0025829077
0.010148048
0.011947155
0.003917098
-0.0013978481
0.00352633
0.003807187
0.00941062
0.0003736019
0.014109254
0.0026141405
0.0034368038
0.004402995
-0.0005019903
0.005597234
-0.0054415464
0.0016703606
0.0027092695
0.0042927265
0.0039002895
-0.0014992952
-0.0010579824
0.0069009066
0.0025521517
0.0007596016
0.009749174
0.00039839745
-0.009474993
0.012712836
0.004778862
0.004925251
0.00014805794
0.00026333332
0.00021624565
0.0035175085
0.013820887
0.00067961216
0.00044977665
0.004208803
0.003557086
0.019519925
0.00011765957
0.009263635
-0.0038200617
0.0032453537
0.007416606
-0.0011817217
0.008091092
0.0268718
-0.004089117
0.00018024445
-0.00026917458
0.005637884
-0.0015730858
-0.0042375326
0.00157094
0.01239872
0.0011490583
0.006583929
-0.0012922287
-0.002260089
0.000664711
0.00063085556
0.0026726723
0.00087463856
-0.013892889
-0.0024986267
-0.003406763
0.009584546
0.00538218
-0.006677866
-0.0015962124
0.011000872
0.008609295
0.0014027357
-0.0037549734
0.00034952164
-0.0028586388
0.0010687113
0.0005260706
-0.0031337738
0.009147406
0.027032256
0.00012040138
0.000688076
0.007178068

-0.0006892681
-0.0014135838
0.0048310757
0.012236834
0.008824825
0.0013561249
0.0069304705
0.01650381
0.0052912235
0.0091205835
0.0011124611
0.00030493736
0.0024510622
0.0055201054
0.0023862123
0.009564877
0.0004144907
0.0016670227
-0.0014659166
0.011485815
0.0027239323
0.0042169094
0.011225104
0.004401684
0.0060768127
0.006822586
0.0071538687
-0.0015449524
0.004274726
0.0015286207
0.0017454624
-0.0018379688
0.0049396753
-0.0048526525
0.0074830055
-0.0011399984
0.0047279596
0.0039681196
0.00019013882
-0.00084650517
0.0051162243
0.0055207014
0.0024158955
0.00040841103
0.0066001415
-0.0015690327
-0.0006066561
0.007806897
0.005775094
0.0034872293
0.0042465925
0.0031996965
0.0007995367
0.0037732124
0.014047742
0.0036256313
0.004107237
-0.0010230541
0.002134204
0.0020058155
0.008736491
-0.001300931
0.002782464
0.0018248558
0.008885503
0.00044500828
0.002334118
0.0023044348
-0.0027085543
0.001445651
0.010770798
-0.00063991547
0.022864819
0.0040807724
0.0024273396
9.88245e-05
-0.0028556585
0.011082649
-0.00016319752
-0.00042915344
-4.2438507e-05
-0.0019279718
0.0080964565
0.0057100058
0.0059942007
0.0045950413
0.0016278028
0.0020939112
0.0088380575
0.0008735657
0.014133811
0.007514715
-0.000106453896
0.00058948994
0.001416564
-0.003941059
0.0031379461
0.012174964
0.00020456314
0.0048954487
0.0070203543
0.0018159151
0.005049467
-0.0011217594
0.004712343
-0.0032356977
0.0019909143
0.0022554398
-0.0011510849
0.0038757324
0.004945278
0.005828142
0.009613156
0.015764713
0.0014462471
-0.0025328398
0.0004388094
-0.0010137558
0.009122372
0.021389723
0.008875251
0.0052702427
0.0016748905
0.013935447
0.0008523464
0.000916481
0.014450312
0.0053179264
0.00063598156
0.0005193949
0.0014277697
0.0030878782
0.005250931
-0.00045919418
0.011385083
-0.0007377863
-0.003811121
-0.00059580803
0.00641191
0.0071237087
-0.004782796
-0.0030616522
0.0020546913
0.015375972
0.0054632425
0.0081682205
0.008891344
-0.0026028156
0.0026700497
0.0009738207
4.887581e-05
0.0060777664
0.008448958
0.010653377
0.001940608
0.001350522
0.0010955334
0.0043284893
0.0006953478
0.0010802746
-0.0003427267
0.006195426
-0.0051732063
0.0010969639
0.004278779
-0.0046708584
0.0020997524
0.008233666
0.008904815
-0.00085639954
0.003319621
0.0019396544
0.002100706
-0.00088214874
0.0023397207
-0.00046920776
0.019466877
0.0028752089
0.010487318
-0.0005719662
-0.0005582571
0.0055166483
0.008849859
-0.00550735
0.0011646748
-0.00044572353
0.0006942749
0.00062704086
0.0067737103
0.008718371
0.0010559559
0.0042010546
0.0013450384
-0.0013366938
0.008417368
0.007862091
0.003856182
0.008524418
-0.00017857552
-0.0018868446
0.0019315481
0.004413128
0.009831667
0.0069360733
0.0018231869
0.0017842054
0.0053038597
0.0064077377
-0.0011692047
0.0052815676
0.0068558455
0.0016747713
-0.01692915
0.005563259
0.0043696165
0.0045084953
-0.0009634495
0.006195307
0.0021378994
-0.004068136
0.0067442656
-0.0006765127
-0.0004836321
0.009961247
0.007933855
0.0003502369
0.0056796074
0.0052149296
0.0019311905
0.00057554245
0.0018486977
0.0053402185
0.007875085
0.014072657
0.003340125
0.013580799
-0.0025804043
0.0034464598
0.02022922
0.0064229965
0.0031459332
0.0051095486
-0.00014674664
0.0059770346
0.008792877
0.0018779039
0.0011303425
0.0050450563
6.341934e-05
0.0021272898
0.008688927
0.002784729
-0.00026261806
0.011079788
0.0125283
0.005323887
-0.001781702
0.0020794868
-0.0007251501
0.0032889843
0.004637003
-0.001627922
0.003983736
0.007780671
0.0058664083
0.0124332905
-0.0001142025
0.01291275
0.0014053583
0.009795785
-0.0014848709
0.0050598383
0.0060344934
0.0013308525
0.015331864
-0.00068616867
0.0006085634
0.0033432245
-0.0014377832
0.00280118
0.0036398172
-0.0014079809
0.006051779
-0.0007932186
0.0022300482
0.0042948723
0.0022602081
0.004447818
0.020201325
-2.5629997e-05
-0.00096428394
0.0023088455
-0.001752615
0.0058478117
0.011774063
0.0014086962
0.010914922
0.0049231052
0.001199007
0.005527973
0.00279665
0.00039184093
1.13248825e-05
0.023595095
0.0036230087
0.004683614
0.002252102
0.0031085014
0.0027291775
0.0034866333
1.5497208e-06
0.00051629543
0.0032616854
0.0078856945
0.00070381165
0.004590869
0.016830206
0.00306046
0.0024776459
0.00543344
-0.0015083551
0.012225866
0.0132911205
0.015014768
-0.0006558895
-0.0006659031
-0.0009621382
0.010932684
0.007494211
0.010346413
0.0040221214
0.0035254955
0.010593057
0.0065624714
0.0011703968
0.01433146
0.0040106773
0.0017310381
0.004727483
0.0031210184
-0.0012452602
0.007958412
-3.9339066e-05
0.014841795
-0.0006045103
2.8371811e-05
0.0009467602
0.010243773
0.0044230223
0.006505728
-0.00022137165
0.012019992
0.00060391426
-0.00043582916
0.0067795515
-0.0027740002
0.001350522
0.01161027
-0.0015223026
0.011374712
0.0026011467
0.005666256
-0.0014636517
0.004522562
0.0016645193
0.011577249
0.014814973
0.006125927
0.0044027567
0.00033152103
0.009630084
-0.0072681904
0.0001655817
0.0092971325
0.0061991215
0.00056517124
0.0041185617
0.0030806065
0.0014792681
0.004706502
0.005379319
0.007095456
0.009422779
0.0022052526
-0.001375556
0.0048059225
0.00046253204
0.0018761158
-0.0011117458
0.006418586
0.0011566877
0.0013741255
0.0026900768
0.0013078451
-0.00094389915
-0.00088071823
-0.0008753538
0.008380532
0.0021163225
-0.00010204315
0.00980401
0.004583478
0.0037573576
0.0053321123
0.0094230175
0.009549141
0.0017453432
0.014255524
-0.0015944242
-0.00097095966
0.0055714846
0.004148245
0.004526973
-0.0012925863
0.026695728
0.0070465803
0.0008716583
0.007040739
-0.00041496754
2.3841858e-07
0.000736475
0.011813521
0.004940152
0.0049586296
-0.00049996376
0.009051442
0.0063712597
0.0026402473
0.000618577
0.0015480518
-0.002054453
-0.00092577934
0.0015563965
0.001342535
0.011350632
0.0033609867
0.0014789104
0.000579834
-0.002735734
0.009257197
0.0026443005
0.00017774105
0.003686905
0.0031383038
0.0038655996
0.0112257
0.006419301
0.0045335293
0.0037264824
0.0026943684
0.0024219751
-0.0012974739
0.0018831491
0.0010730028
0.0085065365
0.023620725
0.006622553
0.0005913973
0.0032155514
0.0067642927
-0.003932357
0.0009088516
0.0003683567
0.0015720129
0.0015397072
0.009407878
0.0020503998
0.003591299
0.0092583895
0.0033111572
0.0015113354
0.004553199
0.0022557974
-0.0012871027
0.002571106
0.00094497204
0.001154542
-0.0010006428
0.0028208494
0.011741757
0.0046925545
-0.0016553402
0.008288503
-0.0020803213
0.0021225214
0.0004862547
0.0030969381
0.0034905672
0.0030682087
0.0005772114
0.0035914183
-0.0013176203
-0.0007445812
0.0062776804
0.0054143667
-0.0012680292
-0.00368011
0.0067653656
-0.0005390644
0.004595399
0.0017951727
-0.0003194809
0.0067659616
0.0005414486
0.00043821335
0.009686112
-0.0015163422
0.013408661
0.011419892
0.0046260357
-0.00060915947
0.00038397312

0.0053117275
0.0071475506
0.003147602
8.356571e-05
0.013020158
0.0027836561
6.401539e-05
0.017168522
0.005467534
0.008041382
0.0037851334
0.0058323145
-0.0020151138
0.0070317984
-0.0007594824
0.015675664
0.00018417835
-0.00020849705
-0.00031149387
0.010731697
0.00067043304
0.0033994913
0.0036029816
0.007299423
0.0022429228
0.0019510984
0.0031085014
0.0028574467
-0.0013825893
0.00068986416
0.001105547
0.0045468807
0.009843469
0.0044994354
-0.00042760372
0.001327157
0.0041362047
0.005420089
0.00072801113
0.0010299683
0.0026903152
0.00574708
0.0007455349
0.008955002
0.005454898
0.0037754774
0.0023351908
0.01381433
0.006028533
0.011439443
0.002399683
0.0006560087
0.0045711994
0.0016475916
-0.00021004677
-0.0004168749
-0.0013972521
0.00073075294
0.0010738373
0.001345396
0.0052462816
0.004027605
0.0018720627
-0.0012047291
0.0010640621
0.008103967
0.0012743473
0.002716422
0.00077438354
0.0035448074
-0.00046002865
0.006479025
0.0018274784
0.009209275
0.003218174
0.0045661926
-0.0011041164
0.0003427267
0.0024886131
0.0022342205
-0.0007750988
0.0016034842
0.0039895773
0.0007607937
0.0015031099
-6.699562e-05
0.008268952
0.0011129379
0.0013875961
0.00047564507
0.002371788
1.4424324e-05
0.0036394596
0.002189517
0.0025122166
0.00022363663
0.00014007092
0.00426805
0.0013365746
0.0015829802
0.0011421442
0.005257845
0.0019727945
0.0025798082
0.01691556
0.0021785498
0.002939105
0.00043809414
0.0049051046
0.0020501614
0.006791353
0.00251472
0.008734107
0.002036333
0.009699225
0.0039201975
0.0014227629
0.003778696
0.011485815
0.0006740093
0.001565814
0.0026866198
0.0030978918
0.0014258623
0.0066143274
-0.0005824566
0.003499031
0.000934124
-0.00026905537
0.0032612085
0.0057992935
0.0031346083
-0.00010967255
0.0021413565
0.0042340755
-0.0021681786
-0.00028717518
0.0013183355
0.0030859709
0.0056796074
0.001295805
0.0007636547
0.008292437
0.0031358004
0.0024901628
0.0024107695
-0.00024199486
0.0035752058
0.0016480684
0.0046161413
0.0028699636
0.004177332
0.009751797
-0.0011166334
0.0011322498
0.006371379
-0.0001821518
0.004782915
0.0017784834
0.014887691
0.0010157824
0.003765583
0.0004041195
0.0031123161
0.0077964067
0.01154089
0.0046378374
0.0013282299
0.0005928278
0.0057429075
0.0042009354
-0.0007427931
0.0025509596
0.0012668371
0.0008479357
0.0054508448
0.002276659
0.0007132292
0.0020241737
-0.00061261654
0.00092947483
-0.000641942
-0.00011873245
0.0038770437
0.0046224594
0.0026820898
0.0027985573
0.013793707
0.0014206171
0.0030138493
0.0032839775
0.0016956329
0.012117147
0.0029890537
0.0015538931
0.004907489
0.0015470982
0.0045861006
0.0019233227
0.005359173
0.010212064
0.011110544
0.0035809278
0.0052927732
0.0031698942
0.0153898
0.0029293299
0.015354872
0.005018592
-0.00097346306
0.0028520823
0.001437664
0.0028942823
0.0071624517
0.0002799034
0.0016640425
0.0013947487
-0.000330925
0.004563451
0.009129405
-0.0006580353
0.003917694
0.0039645433
2.1338463e-05
0.0018831491
4.005432e-05
0.0031715631
0.0019426346
0.00624609
-0.0017846823
0.0076682568
0.0031695366
0.012348175
0.003350377
0.0048588514
0.00036108494
0.014912367
0.0061481
-0.0003787279
0.0076013803
0.009057164
-0.00026464462
0.0042583942
0.0026608706
0.0009750128
-0.0010056496
-0.00035834312
0.0014468431
0.005463958
0.0029358864
0.009124279
0.001155138
0.0066822767
0.003946662
0.008744836
0.0036914349
9.9778175e-05
0.0085276365
0.0003708601
0.0006432533
0.004935384
0.0047006607
0.0052337646
0.0009343624
0.0072448254
0.0043519735
0.0034862757
0.00565207
0.003522396
0.0014814138
-1.513958e-05
0.0020575523
0.00058496
0.007924318
0.005020499
0.00039470196
0.0054086447
0.0174582
0.0061947107
0.0026353598
-0.0004223585
0.0068959
9.191036e-05
0.0029301643
0.00017130375
0.0019338131
0.0032401085
0.0037915707
0.0001667738
0.010615468
0.0005886555
0.011055231
0.0023549795
0.0026262999
0.0034480095
0.007901549
0.0054934025
0.0014784336
0.0040273666
0.0017572641
0.0015625954
-0.00021862984
0.008781552
7.4505806e-05
-0.0005508661
0.009569645
0.0016241074
0.007452011
0.006811142
0.003681779
0.010037661
0.0026185513
0.0009955168
0.0072641373
-0.0014505386
-4.8279762e-05
0.007631302
-6.914139e-05
0.013810635
-0.00020670891
0.001278758
0.00047135353
0.008835316
0.0001538992
0.0025734901
0.00045597553
0.0006927252
0.0010309219
0.018604755
0.003583312
0.002501607
0.00605762
0.002213478
0.005714059
0.002601266
0.0024381876
0.020285845
0.0035641193
0.008038759
0.0012913942
0.0032066107
0.0041559935
0.0020821095
0.000113368034
0.0023903847
0.0005402565
0.0023249388
0.0052222013
0.0013661385
0.00898397
0.015301943
0.00049602985
0.0058903694
0.0037207603
0.0074466467
0.0011749268
0.0033439398
0.015076995
0.002366066
0.0047774315
0.00113976
0.006492257
0.0002092123
0.002063632
0.0026563406
0.0033460855
0.007716894
0.014416337
0.00083351135
0.005435705
0.0052843094
0.004009962
0.001639843
0.012130141
0.00086796284
0.004809141
0.0023063421
0.0080292225
0.0033239126
0.006005168
-0.00026845932
4.720688e-05
0.0045945644
0.0059708357
0.012009025
0.009157538
0.0006978512
0.0010979176
0.007893562
0.0050879717
0.0015479326
0.00033128262
0.0016014576
0.00077211857
0.0015443563
-1.50203705e-05
0.0035356283
-0.00043594837
0.0023911
0.0031877756
0.0015256405
0.000114798546
0.0030270815
-1.1920929e-06
0.0061370134
0.016204834
0.00020897388
0.0028762817
0.005760789
-2.1219254e-05
0.0011754036
0.007729292
0.005293727
0.003989935
0.0012239218
0.006028652
0.006536007
0.0022045374
0.009672761
-0.00022304058
0.0047837496
0.0011205673
0.0067932606
0.00021851063
0.0008687973
0.00042581558
0.0015954971
7.677078e-05
0.012030959
-0.0001975298
0.004469514
0.0031518936
-0.0006431341
0.0033415556
-0.0004056692
0.01123476
0.00011181831
0.0037814379
0.00020480156
0.003949642
0.001791954
0.00905478
0.005825758
0.005851269
0.0038719177
0.00077950954
0.0011924505
0.004278302
0.0013148785
0.0014777184
0.0020952225
0.0016263723
0.008837938
0.000523448
0.005684495
0.0053397417
0.00016975403
0.0019874573
0.014711142
0.007967591
0.004024625
0.0023235083
0.0041685104
-0.0008997917
-9.655952e-06
0.01707995
0.017658353
0.0017656088
0.0076333284
0.007145524
0.010397315
0.0016776323
0.0011392832
0.0011287928
0.00301826
0.0018006563
0.0069270134
0.00075006485
0.001011014
0.005347848
-0.00018668175
0.0057582855
-8.583069e-05
0.006878495
0.005633235
0.00070905685
-0.00055110455
-0.00023972988
0.016759872
0.0027400255
0.0012229681
0.00019001961
0.0033824444
0.0065442324
0.005028844
0.0013772249
0.008176327
0.0006673336
0.0021486282
0.0016565323
-7.1167946e-05
0.004239559
0.00020456314
0.009403229
0.0007404089
0.002115965
0.004679799
0.006546378
0.0049374104
0.008146286
0.010357499
0.00039291382

0.0025814772
0.0035008192
0.004001856
0.0031108856
0.004966855
0.0054961443
0.0014492273
6.520748e-05
0.0016409159
0.001737833
0.005383134
0.0003323555
0.0029505491
-0.0003042221
0.0036623478
0.0113322735
0.00687325
-1.0371208e-05
0.001401782
3.2424927e-05
0.003687501
0.0035051107
0.0007134676
0.008792043
0.0042574406
0.003754735
-0.0003285408
-0.00012505054
0.0065453053
0.0055024624
0.0027610064
0.0071077347
0.005632758
0.0027883053
0.0037084818
0.0032190084
0.0046104193
0.0065871477
0.004719734
0.0029888153
0.0033408403
-0.00039422512
0.004783869
0.006340027
0.0023919344
0.0029188395
0.0039283037
0.0026814938
0.0023498535
0.0038011074
0.0036883354
0.0032792091
0.0015208721
0.0032743216
0.0046269894
-1.1920929e-07
0.0017232895
0.000543952
0.00097191334
0.00012850761
0.0102853775
0.001693368
0.0032155514
0.0024417639
0.008512497
-6.687641e-05
0.002434373
0.0046105385
0.003114462
0.0044714212
0.0012683868
0.0045979023
0.003886342
0.0015630722
0.0051614046
0.0034958124
0.0007869005
0.00015676022
0.0038437843
0.0049438477
0.004020095
-8.9645386e-05
0.00089764595
0.0006148815
0.0003232956
0.0028868914
0.008206725
0.0008993149
0.0016841888
0.0019465685
0.0072294474
0.003078699
0.004899025
0.005935073
0.0011898279
0.0018627644
0.0026413202
0.010189295
0.0040307045
0.0070705414
0.0017843246
0.0025812387
0.0011790991
0.0018047094
0.002073884
0.007347822
0.0035933256
0.005399585
0.0038564205
0.0053676367
0.0014010668
0.0033899546
0.0010586977
0.0043052435
0.0034575462
0.0053300858
0.0013576746
0.00040912628
0.005390048
0.0071958303
0.0041726828
0.006721139
0.0004760027
0.002935052
0.009319663
0.002088666
0.00020420551
0.001126051
0.0026328564
0.002767086
0.0005481243
0.0052286386
0.010691166
0.0003350973
0.0076060295
0.0035210848
0.002786994
0.0025019646
0.001052618
-0.0006158352
0.004300475
0.007071018
0.0020407438
0.010745287
0.00068485737
0.004487276
0.005320668
0.002671361
0.0036154985
0.00490427
0.006123781
0.0040510893
0.0008330345
0.005334258
-7.6174736e-05
0.0032777786
0.006426692
0.0028890371
0.005281329
-0.00020253658
0.007930994
0.0039038658
0.005228758
0.003730297
0.00042915344
0.002232194
0.0018918514
0.0021291971
0.0028418303
0.0017188787
0.004972577
0.0036281347
0.0074779987
0.0011011362
0.0072906017
0.004904628
0.0049563646
0.00037109852
0.0005450249
0.0046930313
0.00042283535
0.0053967237
0.0022007227
0.006833911
0.0016320944
0.013155103
0.0073543787
0.002824664
0.001817584
0.0047661066
0.0071099997
0.0046174526
0.00064253807
0.00020062923
8.189678e-05
0.0028784275
0.0032114983
0.003571272
2.7656555e-05
0.0033328533
0.0027065277
0.0026624203
-0.00023436546
0.00054216385
0.00539124
0.010693073
0.00040471554
0.001226306
0.001188159
0.0036965609
0.004110098
0.007704377
0.008504748
0.0017801523
0.004953265
0.0016173124
0.00817287
0.0027042627
0.0024648905
0.0018981695
0.0026276112
0.0003527403
0.0022431612
0.002044797
-0.0003106594
0.0045770407
0.0011765957
0.0039749146
0.0014411211
0.0068854094
-0.00019323826
0.0019145012
0.0020912886
0.002345562
0.0039179325
0.004263401
0.0019438267
0.0015813112
0.0026922226
0.007275343
0.009575486
0.010836959
0.0059651136
0.004907131
0.006423831
0.006656289
0.004843831
0.00030946732
0.002145648
0.0007970333
0.0017892122
0.0002579689
0.006741166
0.004012227
0.00025117397
0.0040923357
0.014135838
0.0013728142
-0.00014400482
0.012460351
0.001732111
0.0038137436
0.00734365
0.0019583702
0.00093090534
0.0093541145
0.006741166
0.0020481348
-7.331371e-05
0.004407406
-0.0004940033
0.0014190674
0.0014916658
0.00080537796
0.00037181377
0.002350092
0.00042533875
0.0066224337
0.011438727
0.0008839369
0.0025205612
0.0011321306
0.0055246353
0.0022803545
0.0035518408
0.00047671795
0.003251791
0.0036331415
0.004666209
0.0025289059
0.008505464
0.002651453
0.0011677742
0.0011136532
0.002848506
0.0063664913
0.002147913
0.00558722
0.0002874136
0.00076186657
0.001885891
0.0072796345
0.001262188
0.0016512871
0.004240036
0.0036616325
0.003908396
0.00473845
0.009203672
0.003682375
0.0019202232
0.006034136
0.0047460794
0.008826613
0.0028393269
0.004177451
-0.0006836653
0.0046976805
0.0042990446
0.0060687065
0.004666686
0.0047073364
0.003504753
0.0036474466
0.0042624474
0.0013215542
0.005903244
0.007102847
0.0043336153
0.005336404
0.000682354
0.0046151876
0.0014332533
0.0036270618
0.0013809204
0.00446856
0.008375406
0.0016343594
0.001241684
0.0033711195
0.005556941
0.006233096
0.003992796
0.0030792952
0.0005197525
0.00046551228
0.000549078
-0.00014650822
0.0020362139
0.0022785664
1.2278557e-05
0.0064382553
0.00415051
0.0024248362
0.0020965338
0.0011966228
0.0017110109
0.0075689554
0.00059866905
0.003620863
0.0008558035
0.0055576563
0.001982212
0.0077923536
0.009271383
0.0015332699
0.0072155
0.0012294054
0.0016411543
0.00018918514
0.005919099
0.01568377
0.0010237694
0.00034558773
0.003920555
0.0030337572
0.0025998354
0.0065414906
0.006436348
0.007319212
0.003597498
0.0011240244
0.001667738
0.001634717
0.004927397
0.0005387068
0.0037152767
0.005299449
0.00057542324
0.007269025
0.010768771
0.0073344707
0.002247095
0.0031257868
0.0019682646
-0.00013649464
0.003197074
0.0069018602
0.00061130524
0.001026392
0.0054923296
0.00074219704
0.0028640032
0.0057011843
0.003687501
0.0045036077
0.00062692165
0.0036506653
0.00071907043
0.0031288862
0.0036879778
0.0028113127
0.007038474
0.006934285
0.0055862665
0.0026103258
-0.00027513504
0.0043303967
0.0019226074
0.002914071
0.0063815117
0.0024671555
0.010981441
0.0033938885
0.0021981
0.0044475794
0.0030503273
0.008417964
0.0021816492
0.0025897026
0.0018320084
0.0026766062
0.011731744
0.010291457
0.0042295456
0.0050145388
0.0021995306
0.0062304735
0.006331444
0.0126953125
0.00073826313
0.0040416718
0.00025320053
0.003918767
0.0010174513
0.017570257
0.0036314726
-0.00020456314
0.006262541
0.00074887276
0.003261447
0.0009986162
0.0020329952
0.005687952
0.004446149
0.0021291971
0.0004492998
0.0010732412
0.0036207438
0.0045626163
0.0035158396
0.009980202
0.005073786
0.010045648
0.0013314486
0.006829381
0.007030964
0.006863117
0.0041035414
0.0020743608
0.0077512264
0.008314848
0.006121516
0.005684495
0.0067993402
0.007466078
0.0061950684
0.0022158623
0.0015444756
-7.6532364e-05
0.0015614033
0.008428574
0.011242747
0.0012536049
0.004196644
0.0013372898
0.0032715797
0.0057678223
0.0035328865
-0.00025463104
0.0038433075
0.0075689554
0.0002886057
0.0024322271
0.0029717684
-1.9073486e-06
0.0059589148
0.0020775795
0.0005955696
0.01015687
0.0019820929
0.0039619207
0.004058361
0.0092304945
0.007936239
0.0029684305
-5.2452087e-05
0.004897833
0.014585257
0.009692788
0.0002670288
0.003599286

0.007361889
0.001134038
0.009920478
0.011592269
0.0030395985
0.0026483536
0.0035916567
0.011755824
0.0019743443
0.0037287474
0.0040221214
0.0046521425
0.0010877848
0.0024733543
0.003839612
0.011339784
0.0025401115
-0.00030303
-0.00011920929
0.0012481213
0.0020672083
0.0012667179
0.0002554655
0.012209058
0.0056456327
0.00034344196
-0.00022006035
0.002018571
0.01401031
-0.0003694296
0.001942873
0.003587842
0.009775877
0.00036489964
0.0022552013
0.0067363977
0.0036671162
0.007691145
0.0048805475
0.0029723644
-0.0006747246
0.0037021637
0.0025385618
0.004368663
0.0021525621
0.008044839
0.0036808252
0.0020415783
0.013901114
0.0017108917
-0.00033032894
0.008007407
0.0017063618
0.0018643141
-0.00084352493
0.0030642748
0.0055416822
0.004301071
0.0023306608
0.002932191
0.0015474558
0.0064196587
0.0029031038
0.0043367147
0.00011467934
0.0005438328
0.0017254353
0.0026632547
0.0023376942
0.004074812
0.004470229
0.0059719086
0.0065875053
-0.0006246567
0.0032168627
0.0066348314
0.0046411753
0.0042107105
0.0037608147
0.0023806095
0.0016477108
0.00054490566
0.0023382902
0.0010223389
0.004450679
0.0006415844
0.0077352524
0.0024120808
0.0056732893
0.0005301237
0.0032291412
-0.0007328987
0.00034797192
0.009008527
-0.00037765503
0.005659342
0.0028159618
0.0038722754
0.0009509325
0.012181163
0.0031710863
0.0074552298
0.007156968
0.010106325
0.003361702
0.0035994053
0.0070177317
-0.00051128864
0.0035598278
0.004354596
0.0022575855
0.0060253143
0.0066587925
0.00045919418
0.0011526346
0.0011897087
0.0062493086
-0.0009739399
0.003463626
0.0039241314
0.0025666952
0.005729556
0.00014960766
0.0006376505
0.011294246
-0.00025069714
0.0009676218
0.0066444874
0.0017777681
0.008297205
0.0056705475
0.006853223
0.00012683868
0.010133982
0.0018177032
0.0021406412
0.00071823597
0.0120590925
0.005253434
0.0012769699
0.00034296513
0.00600636
0.007613063
0.010640621
0.007365346
0.005875349
0.00026643276
0.0040204525
0.0027309656
-2.5391579e-05
0.0025578737
0.011416435
0.0071451664
0.0014476776
0.007983923
0.00037801266
0.0032875538
0.009926915
0.0015562773
0.005281925
0.0027979612
0.004271984
0.0036183596
0.013614178
0.00887239
-1.7642975e-05
0.001455307
0.0026506186
0.0026465654
0.0037915707
0.0010043383
0.01178813
0.0032582283
0.0010894537
0.0006490946
0.0005540848
0.01856649
0.0025708675
0.002517581
0.0026910305
0.009310961
0.00045001507
0.0007570982
0.00039315224
0.0022107363
0.0012046099
0.0006645918
0.008976817
0.0007542372
0.0010915995
0.0025508404
-0.0002682209
0.0006583929
0.0038803816
0.0046209097
0.0071516037
0.002986908
0.0014492273
0.008678436
0.006999731
0.002311945
0.0015357733
0.0009971857
0.0011407137
0.007961631
0.0025367737
0.00628531
0.002938509
0.0027775764
0.0046414137
0.0069252253
0.00028669834
0.0048469305
0.0004905462
0.006486535
0.00763309
0.000289917
0.004523039
0.0031214952
0.0015558004
0.0049197674
0.0030243397
0.009664297
0.003943324
0.003322363
4.172325e-06
0.0025316477
0.0015231371
0.0017246008
0.0014737844
0.0064994097
0.004583955
0.0018869638
0.0017867088
0.0034698248
0.00063085556
0.0038045645
-0.00037908554
0.00015592575
0.0032480955
0.001249671
0.0019936562
0.0007477999
0.0010944605
0.0055105686
0.0010346174
0.020168781
0.0026086569
0.0002990961
0.006703615
5.9962273e-05
-0.00045132637
0.006997347
0.0070682764
-0.00062048435
0.002903223
0.007181287
0.0010565519
0.01116693
0.005581975
0.0071378946
0.0011258125
0.0031597614
-0.0008609295
0.005764365
0.006833434
0.0071605444
0.0033518076
0.0005081892
-0.00023078918
0.0014083385
0.0034979582
0.0069508553
0.0008535385
0.0027827024
0.0039904118
0.0052036047
0.0026774406
0.00038135052
-0.00017416477
0.004779458
-0.0001989603
0.006755352
0.0071491003
0.0067082644
0.00044810772
0.0059098005
0.006128192
0.005527377
-0.0012981892
0.0032128096
0.0011198521
0.0017006397
0.001614809
0.003906727
0.0064013004
0.004488945
0.008835912
0.0037726164
0.0025752783
0.008209944
0.011087298
0.005752921
0.0028407574
0.00034236908
0.00024807453
0.0055406094
0.0059962273
0.0056271553
0.0060403347
0.007327676
-0.000341177
0.005365014
0.0003745556
0.0010384321
0.0060726404
0.0004143715
0.00057423115
-0.0002938509
0.0021560192
0.0018526316
0.0008568764
0.0034930706
0.007868767
0.0061690807
0.0049244165
-4.029274e-05
0.006509304
0.004045129
0.009521246
0.004068613
0.00034308434
0.001196742
0.0035773516
0.004995227
0.0024392605
0.0026409626
0.005342245
0.0037498474
0.0046452284
0.0044267178
0.002095461
0.00015711784
8.785725e-05
0.0043747425
0.005697131
0.009622574
0.0054597855
0.001704812
0.0025514364
0.0044751167
0.0059461594
0.004029393
0.004717827
0.003213644
0.0017609596
0.008984208
0.0015503168
0.0063803196
0.0033125877
-9.918213e-05
0.0047717094
0.0062146187
0.0003119707
0.006495595
0.0039184093
0.0029860735
0.007889748
0.0030019283
0.0028793812
0.004777193
0.0012757778
0.0019978285
0.003639698
0.0038932562
0.0020028353
0.0031949282
0.0027594566
0.0075292587
0.0006854534
0.0026755333
0.0017762184
0.00452888
0.0028278828
0.0050143003
0.0019435883
0.001888752
0.0042102337
0.0038750172
0.0012310743
0.0028585196
0.011124611
0.0031336546
0.010150194
0.009547353
0.006167054
0.007442713
0.0066792965
0.00024056435
0.0052450895
0.002064824
0.0063740015
0.0044151545
0.0031272173
0.0018529892
0.0041685104
0.0006787777
0.003583908
0.0021122694
0.00037288666
-0.0004823208
0.0029447079
0.0037355423
0.0023821592
0.003591776
0.004095793
0.0015946627
0.018787742
0.001658082
0.0017826557
0.0027770996
0.0064046383
0.0022069216
0.00228858
0.009777427
0.0067412853
0.001098752
-0.00031912327
0.006503463
0.003683567
0.0009925365
0.00013101101
0.0006697178
0.006943226
0.0052673817
0.0031305552
0.0035885572
0.00041985512
9.059906e-05
-0.00023496151
0.0037391186
-0.0025150776
0.010934472
0.0049262047
0.0022451878
0.008360624
0.0022211075
-0.0009214878
0.0013430119
0.004213214
0.0021380186
0.0026394129
0.014259696
0.011202574
0.000767231
0.0023348331
0.002226591
0.004067898
0.0070978403
-0.00032019615
0.010076761
0.002376914
0.010689139
0.0070273876
0.008859158
0.0015941858
0.0015672445
0.0069584846
0.00743258
0.0028990507
0.010013819
0.0028024912
0.0010437965
0.002178669
0.010358572
0.0050908327
0.0006737709
-0.00021231174
-0.00021445751
0.00028800964
0.002612114
0.0025867224
-0.0004080534
-0.00045013428
0.002530098
0.0047825575
0.0015712976
0.0072689056
0.0023041964
0.0016438961
0.0012074709
0.0032045841
0.0026745796
0.0031442642
0.0005226135
0.0014520884
0.003917098
0.00062966347
0.0033717155
0.0063769817
0.005794525
0.0058903694
0.003250122
0.0143021345
0.0052257776
0.004809141
0.0005503893
0.0023869276
0.016670227
0.0043166876
0.0059022903
0.0046253204

0.38282323
0.39830792
0.375018
0.35810554
0.37657964
0.32654715
0.34042704
0.34613168
0.44902742
0.37598717

