0.006073773
0.03018117
-0.12370396
-0.039866686
-0.10951674
0.030841112
0.023585558
0.03568399
-0.056839228
0.07417333
-0.054563522
0.037961483
0.04964173
0.00056290627
-0.0057142973
-0.022916913
-0.031465888
0.033503413
0.006878853
0.040839076
0.045815587
0.04123974
0.036307216
0.0079164505
-0.008035183
0.09173417
-0.039646506
-0.00045239925
0.18388999
0.049771667
-0.010583758
-0.030996442
0.02848053
-0.034956574
-0.10596442
0.03953135
-0.3001932
0.15567148
-0.01259768
0.08915591
0.013077378
0.025326729
0.07251072
0.13131297
0.030577064
0.03654611
0.03682375
0.057006598
0.039215326
-0.057029963
0.042944193
-0.041562557
-0.027341723
0.10770416
-0.12745869
-0.0051511526
0.006189823
0.1211704
-0.0047935247
0.04308176
0.0033593178
0.08375454
0.038648725
0.02023971

0.0012366772
-0.08609581
-0.032189965
-0.111287236
-0.05513203
0.03365946
0.093976974
0.0042208433
0.005261898
-0.037894845
0.011406541
0.09439862
-0.096666455
0.00037407875
0.02436471
-0.07636297
0.067385435
-0.041314483
0.004420042
0.017640948
0.00794971
0.10844731
0.08127046
0.028604388
0.031297803
0.06364405
0.038848877
-0.06422949
0.10708547
-0.012994885
0.08716166
0.022141695
0.019087076
-0.0059667826
0.10338771
-0.0018142462
0.028155327
-0.012545109
-0.09208715
0.01036191
0.06630123
-0.009058356
0.003359437
0.003809929
-0.036958575
0.0005559921
-0.030255914
-0.10809672
0.058697343
0.1555934
0.014949799
0.019013524
0.0054801702
-0.1430167
0.03644216
-0.10030234
-0.010715604
0.16210854
0.0037312508
0.03330779
-0.11573386
-0.039604425
0.05358088
-0.003755927

-0.0052170753
0.048772454
0.004366994
0.008113623
0.015199065
-0.06525719
0.00083720684
-0.009500623
0.067863226
0.03230369
-0.0059025288
0.0027624369
-0.03875506
-0.06004095
-0.001683116
-0.019180655
-0.02768302
0.01685369
0.04914546
0.007987142
-0.0130957365
-0.033686996
0.014474988
-0.024150848
0.011570334
0.04688263
-0.013103485
0.010023236
-0.026165128
0.020861387
-0.032444358
0.0020918846
-0.023286104
-0.024258733
0.006053686
-0.02358234
0.0032461882
0.03425777
-0.024294734
-0.020802379
0.028811693
-0.011977553
0.03556013
0.0075546503
0.032795906
-0.005151987
-0.0025429726
-0.043400407
-0.016250134
0.0004918575
0.027549267
0.022190332
0.0059615374
0.0046334267
-0.017647505
0.039781928
0.0037952662
0.012720704
0.039745092
-0.020128489
0.042878747
0.0007419586
0.037026167
0.005375862
0.011322379
-0.0057052374
-0.009526849
0.031502604
-0.0010852814
-0.019637823
-0.008344173
-0.009236813
0.01693821
0.012419581
0.0030121803
-0.011053324
0.0014288425
0.023549438
-0.029980063
-0.026971221
0.04229772
0.01858902
0.013035893
0.009609818
0.012167096
-0.0005991459
-0.02242732
-0.02902174
0.01658225
-0.052859545
0.031623125
-0.04842305
-0.046979308
0.048941612
-0.004865885
0.016972542
0.046696186
-0.00982666
0.015737295
0.003712535
0.015195608
0.04136443
-0.010084629
0.05442512
0.03380108
-0.06816375
-0.06431544
0.021801949
-0.030280113
0.054553032
0.0046930313
-0.015422702
-0.014694333
-0.041163802
0.025120974
0.026638508
0.010416031
-0.007164955
-0.006852746
0.024235725
-0.009095311
0.010025501
0.030154705
0.022781491
0.043433666
0.018939614
0.03443098
-0.022043347

-0.04278004
0.028857827
-0.0013518333
0.013980269
-0.01671815
-0.047309756
-0.015951753
0.02142322
0.0031089783
-0.018677115
-0.04032767
0.011455536
0.014171362
0.017008066
-0.0007790327
0.014297724
0.03693509
-0.0016309023
0.015770078
0.02287972
-0.03774512
0.031066895
0.008750677
-0.010315061
0.006067872
-0.044887662
0.010337949
0.010575414
-5.6028366e-05
0.035088897
-0.00976181
0.05891657
0.0024151802
-0.04464233
0.012652874
0.01993978
-0.0066184998
0.0043307543
0.03520167
-0.021444917
0.009555817
0.039202094
-0.061812043
0.004103422
-0.011829615
-0.0048906803
0.0031040907
-0.011871815
-0.01620853
-0.013124824
0.034491777
-0.0051778555
0.008960605
0.005400181
-0.008298993
-0.03708911
-0.009374261
0.007928252
-0.0015420914
-0.0020893812
-0.016061425
0.0151542425
-0.010577202
0.015474558
0.031003714
-0.010117888
0.002978325
-0.044450402
0.06958282
0.007327318
-0.0054450035
0.0020067692
0.01495409
0.027090907
-0.018606901
0.013127804
0.004706621
0.003176093
0.0027126074
0.029472351
0.012031436
0.0076680183
-0.018040419
0.008378506
0.016266584
0.0071074963
0.030495167
0.08632362
-0.013366461
0.010143638
-0.022022843
0.0009754896
0.01877129
0.022720695
0.0019829273
-0.0046126842
-0.015178561
-0.00091814995
-0.017790914
0.03816986
-0.00550282
0.014586806
-0.0007966757
0.008466601
0.030166507
0.006086588
0.05876124
-0.05046487
0.006885767
-0.06314385
-0.01735127
0.0023401976
0.0319376
0.019464374
0.038900137
0.011207938
0.022024393
0.0031805038
-0.034536958
0.016263604
-0.008951545
0.0055092573
-0.0014390945
0.021222949
-0.02220118
-0.01614368
-0.0008867979
-0.0013324022

0.019035101
-0.055187464
0.0015681982
-0.00033569336
0.022755623
-0.0072643757
0.0023269653
-0.026778102
-0.01587379
0.0031388998
0.008674026
0.016851664
0.01866591
0.010722756
0.006611228
-0.0023155212
0.018822193
-0.0029970407
-0.00255692
0.0096699
0.0036824942
-0.00017678738
0.016279697
0.0067198277
0.001236558
0.0069311857
0.0049962997
0.0057770014
-0.001982808
-0.034376383
-0.00040721893
0.0112781525
0.018814683
0.0064338446
0.023247361
0.014357805
-0.010785699
-0.0014349222
-0.0033841133
0.0046658516
-0.014341593
0.0032943487
-0.017736912
-0.0023587942
0.007271886
-0.03992021
-0.008288741
-0.006141305
0.006249666
0.027620554
0.019644976
-0.0050116777
-0.0006452799
0.004372835
-0.004129052
4.887581e-06
0.01701212
0.034090757
0.006365299
-0.0021300316
0.00012886524
-0.0015108585
-0.001120925
0.0049231052
-0.021915913
0.0014104843
-0.02291739
-0.06850541
0.012170196
0.028045177
-0.01693976
0.031407
0.022040129
0.0070046186
-0.013487935
-0.0038597584
0.01661706
0.008360028
0.00016009808
-0.0007991791
0.030988216
-0.0016759634
-0.0022310019
0.00095009804
-0.00014054775
-0.018600345
0.008419156
0.0043691397
0.0038731098
-0.016576529
-0.0034884214
-0.016168594
0.011759877
0.020038843
0.00694561
0.013929129
0.0024927855
-0.00096833706
0.0028229952
0.024672627
0.0035585165
-0.007262945
-0.014166355
-0.045488477
-0.021406293
-0.0153980255
0.024174452
0.014547825
-0.034737825
0.011736989
0.0012779236
0.035131216
0.0050725937
0.010718942
-0.012556553
-0.02109778
0.006310463
-0.030459285
0.01438427
0.019322753
0.0021144152
0.0030206442
-0.009759545
0.010400534
0.011124015
-0.029733062
0.018581748
0.0126235485
-0.0045928955
-0.00035893917
0.00881207
-0.002796173
0.00019550323
0.00033044815
-0.016774774
0.0099179745
0.011109829
0.005928755
0.0037088394
-0.0058315992
0.015308499
-0.022068739
0.022526145
-0.003445983
0.0025205612
-0.010399461
0.0004402399
0.008393168
-0.0015720129
-0.0072512627
0.0027439594
0.011715651
0.0121644735
0.02113092
0.01307416
0.0041897297
-0.053851724
0.002168417
-0.004633665
0.022207975
0.0058556795
-0.009852767
0.009219289
0.0017534494
0.009797454
-0.007212639
0.0009037256
0.033183217
0.00044107437
0.009497166
0.01812303
-0.0032471418
-0.017321944
0.011297107
-0.0076328516
0.009289026
0.010056734
0.0090533495
0.0013468266
0.025055647
0.012626052
-0.009392142
0.011934638
0.0023688078
0.041625977
0.00034368038
0.0056176186
0.032393575
0.0009114742
0.0063021183
0.0025496483
0.017490149
0.016662478
0.010847092
-0.0054320097
0.002200365
0.011476636
-0.0007303953
-0.013185978
-0.0013406277
-0.0067789555
0.00732553
0.013292074
0.00335145
0.0013401508
-0.0019241571
-0.0017199516
-0.0019693375
-0.04310465
-0.004458189
0.02153802
-0.0004518032
-0.010861874
-0.0008480549
-0.0175215
0.016736746
0.009267569
0.0033324957
-0.032259703
0.008697033
0.007665515
0.02047503
-0.028756142
0.015911222
-0.003723383
0.025639415
-0.013342738
-0.03326249
-0.018657684
-0.03255725
0.012835741
0.0027774572
0.0028084517
-0.028163671
0.010030627
-0.003268838
-0.0011422634
-0.00065147877
0.0021387339
-0.001151681
-0.016925097
0.013438106
0.020661592
-0.018321872
0.0015642643
0.0072464943
-0.023134232
0.0063699484
0.009335041
0.006276846
0.008473635
0.018817544
-0.01004982
0.0033820868
-0.014831781
0.007491946

-0.00044500828
-0.015380144
-0.0020418167
-0.000333786
-0.022312045
-0.01339221
0.005494952
0.00070536137
-0.014659286
0.011115551
0.0033810139
0.0039669275
0.0076693296
-0.0077335835
-0.00061249733
0.0019700527
0.009820342
0.0011130571
0.00767529
0.018133283
-0.036525846
-0.013097286
0.023369312
0.013898492
-0.016854167
-0.018161893
0.0061154366
0.0021079779
-0.02624011
-0.013671875
0.026833057
-0.021199346
0.0004284382
0.0042420626
-0.012569666
0.013130784
0.006077051
0.0065062046
-0.0031900406
-0.0023027658
-0.021956801
-0.028760314
-0.0029346943
0.006713271
0.005908489
0.0010533333
0.011151791
-0.038505673
0.004130721
-0.026553988
0.0034267902
0.02160418
0.016468048
0.0050578117
0.0041177273
0.0019503832
0.0030739307
0.0011520386
-0.036319256
0.0063871145
-0.0046812296
0.0033245087
0.016355515
0.015147209
-0.00082039833
0.019533157
-0.011653185
-0.000659585
0.032791138
-0.0021299124
-0.022802234
0.00875175
0.021152258
0.0023356676
0.042229414
0.0030726194
-0.015759945
0.013616204
0.009330392
-0.0040103197
-0.021308541
0.0013884306
0.006472349
-0.003915429
-0.014190555
0.015503049
-0.00019812584
-0.0011909008
-0.004638076
0.0017386675
0.00505054
-0.002648592
0.026289463
0.019726157
0.003409505
0.019554257
-0.004889369
0.00025987625
0.00440979
-0.00876832
0.014513612
0.002453208
-0.013339162
0.0072796345
-0.009907007
-0.016813874
-0.0047324896
-0.0003657341
-0.043513656
0.008338332
-0.0073263645
0.018428326
0.012814164
-0.0052245855
-0.027959824
0.009568334
0.01695776
0.003824234
-0.00601995
-0.0087533
-0.002599001
-0.0046926737
0.010622025
0.015274286
-0.016165137
0.03258252
0.014749646
0.020546317
-0.008988023
-0.00041770935
0.007957101
-0.0056216717
-0.029079318
0.010591388
0.018512368
0.007715583
-0.0034757853
0.010976195
-0.030296803
-0.00046408176
0.014456272
0.023308516
0.012001038
0.008657336
0.00442636
0.022766113
0.009698153
-0.012010932
0.006228566
0.008715153
0.010124803
0.028018355
0.003602147
-0.0056604147
0.0030959845
0.008442044
0.007699728
-0.02204585
0.010994792
-0.0015083551
0.020966172
0.0005352497
-0.010317802
0.006030321
-0.021556497
0.028874755
0.008572698
-0.0010910034
-0.04249215
-0.008555651
0.005457163
-0.02681768
0.0011451244
0.0055775642
0.028997302
0.04082179
-0.018751264
-0.038203955
0.02864635
0.00336349
-0.0075911283
0.018073678
0.023459554
0.020789862
-0.009941459
-0.0008971691
-0.00018692017
0.0043292046
0.0048252344
0.0007407665
0.009196281
0.011508942
0.004121542
0.010490894
0.021584272
-0.012496471
0.0093871355
0.00720191
0.0012477636
0.0050672293
0.0024813414
-0.034479856
-0.017817736
-0.0070393085
0.004667163
-0.0026243925
-0.010760784
-0.014416218
-0.01386106
0.004076004
0.009889603
-6.3061714e-05
0.0072950125
-0.0013887882
0.0072557926
0.016977191
-0.0019768476
-0.0075064898
0.013892293
0.0059638023
-0.0038007498
0.0014965534
0.017104983
-0.00843215
6.8068504e-05
0.0004413128
-0.0057649612
-0.0022947788
-0.003918171
-0.0011262894
0.01003325
0.007043481
-0.00903666
0.010054469
0.0022250414
-0.007107377
-0.0013644695
0.025941253
0.0010288954
0.011568427
0.0019087791
0.005529642
0.029660821
0.013248563
0.0016883612
-0.032158256
-0.012583733
-0.008119702
0.009384632
0.0055572987
0.020710826
-0.025584102
0.004303217
0.028624773
0.0014981031
0.0042961836

0.019936323
-0.01312089
0.016427279
0.0040408373
0.0067563057
0.0038839579
0.012119293
-0.008736849
0.019989133
-0.0069481134
0.0014624596
0.03624916
0.031561613
0.00865674
-0.0042999983
0.02776301
0.0055588484
-0.00014686584
0.011130929
-0.0043741465
0.024359345
0.041166782
-0.00032269955
-0.010341525
-0.0063489676
-0.003135085
0.009361744
-0.00886488
0.004040599
-0.024782538
0.003925085
0.022180915
-0.007069707
-0.004275441
-0.006104946
-0.00026237965
-0.0027872324
0.00727129
-0.0019772053
0.009077072
0.03128469
0.028861284
0.023516417
0.0038495064
-0.005534768
-0.0063359737
-0.0134522915
0.0076411963
-0.0033560991
0.0
-0.0022637844
-0.00065612793
-0.014613986
0.0005797148
-0.0043051243
0.008267164
-0.010489821
-0.0144712925
-0.0024584532
-0.032196164
-0.016248584
-0.009594202
-0.0030409098
0.052287698
-0.025270581
0.04771304
0.010182023
0.022021532
-0.033380866
-0.001830101
0.018202662
-0.011555672
-0.014195561
0.0050860643
-0.046002507
0.012198925
-0.027438521
0.00501132
-0.055132627
-0.0054531097
-0.004359126
0.002967
-0.00042319298
0.0104055405
-0.0009124279
0.015661955
-0.014780641
-0.0024044514
-0.0048265457
-0.01943469
-0.0002721548
0.010479093
-0.014904618
0.018038273
-0.0056450367
-0.0057365894
-0.0005239248
0.0041868687
0.0095152855
-0.007172823
-0.008992791
-0.0008639097
-0.0002850294
0.013002276
-0.026610255
-0.015567541
-0.018117547
-0.004606843
0.012034178
-0.005199671
-0.010584593
0.0052844286
0.0040775537
0.012463331
0.013140678
0.03153324
-0.00018393993
-0.002865076
-0.015904784
0.0030835867
0.01291883
0.018054605
0.038755894
0.0149639845
0.027482033
0.0046494007
0.0008916855
0.0311172
0.007950664
-0.0037654638
0.007925749
0.0036435127
-0.021153688
-0.00043225288
-0.008312821
-0.0015079975
-0.013347864
0.04455173
-0.0064764023
0.05430734
0.031198382
0.01503408
0.025346994
-0.015566111
-0.015954256
-0.005093336
0.017857075
0.004095435
0.023456097
-0.034701467
0.01052928
-0.009001851
-0.026115179
-0.013505101
-0.026304126
0.0026049614
-0.0027735233
-0.01665783
-0.027074218
0.012345195
-0.031303287
0.0041515827
0.018990993
-0.01802814
0.035620213
0.04202628
0.0017774105
0.0034434795
-0.010708094
0.003177762
0.013863683
-0.005397558
0.008685589
0.005410552
0.00010788441
-0.0022410154
-0.009033442
-0.0009896755
0.0103966
0.014184356
-0.02276802
0.025999427
-0.0071413517
0.010689497
0.0015708208
0.0001424551
-0.010007739
0.013604641
-0.0066275597
-0.016955614
-0.023690939
0.020148993
-0.014538527
0.00018048286
0.01983869
-0.009440422
0.012596369
-0.0148665905
0.015140057
0.0059763193
-0.014718413
0.00092196465
0.037012577
0.038034678
-0.0132369995
0.0005964041
-0.0048168898
-0.015275121
-0.00089013577
-0.017408848
-0.0022233725
-0.026367068
0.005450487
0.009284973
-0.0075381994
0.014284492
-0.037329912
0.006046653
0.015277982
0.014396191
-0.04940176
0.00048077106
-0.02090156
-0.011480689
0.0016165972
-0.03929901
-0.0088585615
-0.02219522
0.0143402815
-0.0009678602
0.0149611235
0.0013700724
0.024170995
-0.0062578917
0.026235104
-0.014596224
0.013207912
-0.002963543
0.015619874
-0.011094451
0.00471735
-0.0044947863
0.0016628504
0.0134551525
-0.008365631
0.01097548
-0.0007804632
0.019979835
0.003676176
0.007928252
0.04037726
0.010059476
0.0046331882
-0.030200124
0.0021166801
0.013935685

0.007784605
0.025951385
-0.008875966
-0.0029861927
0.0006750822
0.009560466
0.0052654743
0.006195426
-0.014785767
-0.012905121
-0.011838913
0.0057770014
-0.0022752285
0.009352803
-0.007085085
0.0018720627
0.0046920776
-0.002175212
-0.009251118
0.0022910833
0.020796299
-0.00040090084
0.003485322
-0.0035020113
0.00591743
0.0022000074
0.0032776594
0.00075769424
-0.004500866
-0.00028407574
0.0026699305
-0.009593725
-0.008037567
-0.0025430918
0.007707119
0.0061473846
-0.027670622
-0.01082027
-0.0022566319
-0.013706565
-0.0116506815
-0.012163639
-0.00017642975
-0.013941288
-0.0036883354
-0.012123227
-0.0051505566
0.00085806847
0.009468079
0.0038318634
0.010246992
-0.0016647577
0.0016798973
-0.026971579
-0.0063397884
-0.002982974
-0.009422898
0.0025349855
0.0041538477
0.006399274
-0.0027720928
0.0036970377
0.021144748
0.010096192
-0.0029370785
0.004434943
0.013285518
0.0051209927
0.005172968
0.009338856
0.013421893
0.007382989
0.00026285648
0.012986779
-0.009238124
-0.016595483
0.015582085
0.0022284985
-0.0009404421
0.0015001297
-0.0055621862
-0.0051169395
0.0076423883
0.0014865398
-0.0032325983
-0.0020109415
-0.005698204
-0.00934279
0.0008431673
0.0009610653
0.0030326843
-0.0012173653
-0.009760618
-0.0080804825
-0.017646313
0.008381486
-0.0050655603
0.013071418
0.017169237
-0.006249666
-0.0049955845
0.005223632
0.013385415
-0.003324151
-0.00047314167
-0.027297497
-0.0020051003
-0.0242877
0.023005843
0.00026798248
-0.00763762
-0.00037622452
0.036206603
0.001032114
0.019583225
0.008832216
0.026074648
0.011351466
0.0016448498
0.0053731203
0.008642912
0.004405141
-0.0050798655
0.00035488605
0.0057600737
-0.004475832
0.008342266
0.011146188
-0.016663432
0.0012381077
0.008767724
0.004884362
-0.0050588846
-0.026495099
-0.0030653477
0.0157789
-0.005318284
0.015286207
-0.005671978
-0.004306197
-0.0017675161
-0.005697489
0.0005583763
-0.013452053
-0.0033899546
0.0058478117
5.38826e-05
-0.0047558546
0.0037716627
0.01663208
0.0025668144
0.004192829
0.006912589
0.0038046837
0.01741016
0.0075895786
0.0037534237
0.008068681
-0.01163435
0.007929206
-0.0065191984
-0.010038495
-0.0018461943
0.0058897734
-0.0010566711
-0.0016655922
0.00093591213
-0.002393961
0.008145809
0.005903125
0.016287565
-0.003956914
0.0012991428
0.003362298
0.0014916658
0.01598823
0.0035552979
0.003937483
0.0015628338
0.0016756058
0.006709099
0.0074944496
-0.013717294
0.0012202263
-0.0036629438
-0.0016562939
0.012865543
0.0024106503
-0.011305571
-0.0013065338
-0.00402236
0.006559372
0.0044960976
-0.0038890839
0.021730661
-0.0022310019
0.008568406
0.0073263645
-0.0065641403
0.00539732
-0.011557579
0.0010963678
0.005407214
0.011201978
-0.015028
0.019518375
-0.0019934177
0.006033659
-0.009257913
-0.016085148
0.0068979263
-0.009925842
0.002428174
0.0019150972
0.007572055
-0.0062886477
0.016392708
-0.009310722
-0.0010902882
0.0016412735
-0.012477398
-0.025705338
-0.0028181076
0.01771903
0.020885706
-0.0015882254
-0.004121542
0.003387928
-0.0063318014
-8.702278e-05
-0.014619827
0.002354145
-0.02024138
-0.00570333
0.004003167
-0.0021153688
0.010204434
-0.00501132
-0.011151433
0.0012704134
-0.0023298264
0.0031068325
0.0057121515
-0.010280848
-0.0005875826
-0.011260629
-0.010992408
0.010434389
-0.015233159
0.022469282
0.013823152
0.0043178797
0.0056186914
0.012125611
-0.0068461895
-0.0002797842
0.017359138
-0.013167858
-0.02394998
0.0022360086
0.008466244
0.017168999
-0.0019872189
-0.006438613
0.0044488907
-0.0065932274
0.0072723627
0.012756705
0.013150334
0.013249993
-0.0070126057
0.006601095
0.008849502
0.020173788
-0.00020587444
-0.0058805943
-0.00314188
-0.0083043575
0.0147128105
0.015961885
-0.0091331005
0.0014361143
0.016292691
-0.006492138
0.00721097
-0.0029072762
-0.00031411648
0.003911495
0.00555408
0.00537467
-0.0053061247
-0.006101966
-0.0041308403
0.0090729
-0.0009522438
0.008371115
0.0007724762
0.009997606
-0.0024393797
6.175041e-05
-0.013523936
0.0021020174
0.02037549
-0.006321192
-0.005288124
-0.0036045313
-0.0022695065
-0.0043525696
-0.0013694763
-0.009975553
-0.035764694
-0.0004056692
-0.011584997
-0.01423645
0.01953125
0.010634303
0.0015207529
0.010360241
0.00015676022
-0.0025758743
-0.0052747726
0.009913206
0.0024621487
-0.0067402124
-0.0058004856
0.008366346
0.006706953
-0.02627492
0.009069204
0.0016288757
-0.016134262
0.0030055046
-0.014609933
-0.011952043
0.01771903
0.01246953
-0.0036876202
0.0023089647
0.0013586283
0.022768378
0.011121392
0.017786384
-0.011463165
0.0048499107
-0.00088858604
-0.00035595894
-0.014115214
-0.026980042
-0.002896309
-0.0005043745
0.003932357
-0.002218604
0.0032567978
0.006881833
-0.00022172928
0.01614976
0.0060122013
-0.004674554
-0.0022794008
0.005133748
-0.027340531
-0.000962615
0.0064331293
0.00023329258
0.023879886
0.0018054247
-0.00014233589
-0.0028225183
0.011099577
0.0070022345
0.0040795803
-0.00044310093
0.005492091
-0.0018402338
0.00017404556
-0.0025645494
0.014135957
0.005578041
0.0084193945
0.0060368776
-0.0063232183
0.011790752
-0.005483389
-0.0006982088
-0.017284274
0.003826499
0.0021158457
-0.008522153
-0.027495384
-0.004925132
0.027075052
0.0005913973
0.0009121895
0.0070683956
0.0005645752
-0.021297455
0.017309308
0.0058888197
-0.028577447
-0.016373158
0.006576538
-0.005867481
0.0028473139
0.0033823252
0.0043661594
-0.008813977
-0.0050821304
0.01114881
0.004177332
-0.0065454245
-0.0004966259
0.0056455135
0.017501473
-0.006846428
0.006113529
0.0038467646
-0.0028740168
0.010960817
0.001704812
-0.004581094
-0.009216189
0.0006918907
-0.0037168264
-0.0015380383
-0.0023815632
-0.02677679
0.0076162815
0.012892365
0.007104516
0.0033825636
0.0031083822
0.0014330149
0.005537629
-0.0015194416
0.013243556
0.0070757866
0.0116961
-0.0021898746
0.0064184666
0.005573392
0.007094741
-0.0066064596
-0.0030167103
0.011764526
-0.015987396
0.012227178
-0.019091368
0.00088083744
0.00093925
-0.01960218
-0.00010919571
0.009645343
0.011965632
-0.015136361
0.0030618906
0.014366269
0.018807888
0.0027546883
0.00598228
-0.002640605
-0.005531907
-0.006436348
-0.0001295805
0.0050286055
-0.001791358
-0.010073185
0.0109347105
0.00048315525
0.0008891821
-0.022928119
-0.0135627985
-0.0065494776
0.006268978
0.0053441525
0.004827738
-0.0097436905
0.0058190823
-0.0009317398
0.0009688139
-0.00073587894
0.0012660027
0.001999259
-0.0053111315
0.0058699846
0.0006995201
-0.032333612
0.0006375313
0.001593709
0.0012376308
0.00040483475
0.0009380579
-0.005388856
0.00871098
0.004030943
0.004317403
0.014701724
0.008310676
-0.00030875206
0.00560987
-0.0014404058
-0.010498881
0.0042635202
-0.019202828
0.010923743
0.01549077
-0.009211063
0.005351782
0.005280614
-0.0048338175
0.011664629
0.011880159
0.016795635

-0.011012793
0.0018900633
0.001026392
-0.0026488304
0.0017887354
0.00091028214
-0.002640605
-0.0036203861
-0.012561798
0.009942412
0.002896428
-0.002667427
0.0030008554
-0.0011174679
-0.008020639
-0.0029070377
0.0072847605
0.0022073984
0.011138082
0.0060139894
0.0017168522
-0.009990454
0.00091445446
0.0057075024
-0.0017524958
0.006726265
0.0049210787
-0.008156657
-0.017101526
0.008151531
-0.004556775
-0.010005236
-0.007609129
0.00068867207
0.01128459
0.00094115734
-0.0011126995
-0.0022628307
-0.015670061
0.0042419434
-0.0031460524
-0.0069437027
0.0140269995
-0.0013058186
0.009642005
0.004911661
6.902218e-05
0.0024499893
0.007379055
-0.0067756176
0.005472064
0.008401394
0.007684469
-0.00076568127
-0.012585282
-0.014399409
-0.001377821
-0.0071349144
-0.0042111874
0.003957987
-0.020914435
-0.010301709
-0.004229665
0.000838995
0.0062332153
0.0005220175
-0.03042531
0.010093212
0.0008445978
-0.0037270784
-0.0018684864
-0.0015027523
-0.0047426224
0.0006712675
0.00025558472
0.006819606
-0.005112767
-0.0059711933
0.004291296
0.00068700314
-0.0035289526
0.0035458803
-0.0016089678
-0.0031847954
-0.008307457
0.0033669472
-0.0028953552
0.0011242628
0.009548545
0.0053362846
0.0014964342
0.004417658
-0.009345889
-0.0008980036
-0.020481825
-0.00073444843
0.0035820007
-0.00045216084
-0.0010522604
-0.009172797
0.015777588
-0.0020291805
-0.013431668
0.0067697763
-0.0045181513
0.006885648
-0.0009924173
-0.011120439
0.0017050505
0.0046163797
0.004492879
0.00452137
-0.0114194155
-0.0017066002
-0.0010569096
-8.416176e-05
0.008259773
-0.008816719
0.014143705
0.011694074
-4.9233437e-05
-0.0015871525
-0.007995009
-0.0035398006
0.0029740334
0.0128570795
0.0050462484
-0.004221678
0.005075574
-0.00037038326
-0.0062702894
0.001887083
0.0034861565
0.012014389
-0.012325406
0.0036952496
0.0004196167
-0.0027103424
0.0043399334
-0.005441904
-0.0036699772
-0.00077557564
0.009296179
0.0070239305
-0.005507827
0.00052559376
0.011333585
-0.019699931
-0.0016983747
0.0041390657
0.0030144453
-0.006488323
-0.008671999
-0.006305456
0.011725187
-0.0009950399
-0.0042761564
-0.005797863
-0.0031009912
-0.009213805
0.013734579
0.002688408
0.0010646582
-0.0020377636
-0.005800128
0.0001026392
-0.0091097355
0.00031507015
0.0027605295
0.0035351515
0.007499695
-0.0043694973
0.0016351938
0.0032420158
0.009339213
-0.008587956
0.00923264
-0.0066022873
0.0015565157
0.012711167
0.006600499
0.006335497
0.011112571
-0.005678773
-0.0040124655
0.008555055
0.0013827085
-0.00094008446
0.0014783144
0.007966757
-0.006082654
0.011975765
0.0074026585
0.0070767403
0.004058838
-0.01877582
0.0068712234
0.0040661097
0.012819409
-0.0017485619
0.017264605
0.0122641325
0.0024586916
0.00396204
-0.013365746
-0.006755829
-0.005060196
-0.013345838
-0.0085635185
-0.0044908524
-0.008075595
0.004535675
-0.007310629
0.017649412
0.010297656
-0.005472183
0.012302637
0.0077136755
-0.0047900677
-0.0032602549
0.008334279
-0.0034662485
-0.002611637
0.002944827
-0.0061239004
-0.017477036
-0.0054775476
0.005265355
0.0063455105
-0.0014528036
0.0007619858
0.00647676
-0.0014221668
0.005201578
0.007982731
0.005795598
-0.0006068945
0.00260818
-0.0063079596
0.00042533875
0.0022878647
0.005709648
-0.00022375584
0.0054678917
0.00012266636
0.014534473
-0.002310872
-0.008759141
-0.00097191334
-0.007987261
0.012213349
-0.008085847
-0.0024091005
0.0010609627
-0.01575613
0.004078746
-0.0032274723
0.0009843111
0.014104843
0.0026978254
-0.0048952103
-0.0006837845
0.006773114
-0.009724498
0.00013422966
-0.008808613
0.020769238
0.012179375
0.0018860102
-0.0077313185
0.00050246716
0.009547472
-0.0067778826
-0.019126296
0.00567472
0.017305017
-0.0043764114
0.00020503998
-0.00031149387
0.0030311346
-0.0010428429
0.010589719
9.536743e-05
0.0040695667
0.002372861
0.019987822
-0.0054502487
0.0027573109
-0.0011931658
0.002555132
-0.005399823
0.0027438402
0.00576818
0.00066542625
-0.0016828775
3.2186508e-05
-0.022694707
0.009202838
0.005482316
0.00041997433
0.022795081
0.025729537
-0.0048425198
-0.03397751
0.003318429
-0.0062110424
0.005703807
0.00045394897
-0.00498724
0.014343381
-0.014218092
-0.0006489754
-0.0012257099
0.00069344044
-0.0034652948
-0.0025895834
-0.0021458864
0.009322882
0.016811848
0.0032570362
-0.0017598867
-0.0029150248
-0.010156393
0.0016064644
-0.0013221502
-0.001244545
-0.00082850456
0.02878201
-0.016936421
0.0032978058
0.0034729242
-0.004052043
0.010864973
0.00088369846
0.008335829
-0.021764278
-0.0026948452
0.019758701
-0.008124232
0.0034902096
0.00022745132
-0.0020651817
0.009067893
0.0032655
0.00826776
-0.009741306
-0.0005066395
0.010187268
0.011541128
-0.0072609186
-0.0023225546
0.0025501251
-0.009873867
0.018002272
0.00019979477
-0.0052609444
-0.0008727312
0.005216837
0.007287264
-0.00017547607
-0.00283432
0.01309216
-0.000451684
-0.0041252375
-0.00046646595
0.0108418465
-0.008320451
-0.0026273727
0.0021573305
-0.019902587
0.0020225048
-0.0013355017
-0.0048490763
-0.0015509129
-0.011487246
0.0024592876
0.0020788908
0.0038598776
-0.004429698
-0.0013996363
0.007040143
0.0057097673
0.023222804
0.008231521
0.00058984756
-0.0020077229
0.0010578632
-0.0017975569
-0.0028959513
-0.006615877
0.019080997
0.010400891
0.0077563524
-0.0051487684
-0.00018155575
-0.00073444843
0.0024534464
0.0055217743
-0.012547493
0.0022058487
-0.00053572655
-0.0020965338
0.0016827583
-0.008573532
0.0020771027
0.005052924
-0.00014328957
0.0037796497
-3.6597252e-05
-0.00012254715
0.0062012672
0.001809597
-0.015088558
0.002231717
0.0015500784
0.00554502
0.010074854
0.006123066
-0.0005301237
0.0013463497
0.0050467253
0.0042766333
-0.00035452843
-0.0031996965
0.0025081635
0.0016242266
0.011224866
-0.0034389496
-0.0068508387
-0.0067898035
0.001260519
0.0034116507
0.0029355288
0.0017342567
0.00032651424
-0.021588683
-0.0017145872
0.00810945
0.0067915916
0.0071282387
-0.0021551847
0.0016969442
0.0096873045
0.0025134087
0.010248542
0.008612871
0.008089185
0.002065301
0.011718512
0.004405737
-0.0008831024
-0.0086324215
0.0042932034
-0.0025731325
0.011075377
0.005835891
0.0061882734
-0.0012375116
-0.0033878088
-0.00042200089
0.00026357174
0.0064593554
-0.002879262
0.009261847
0.0015774965
-0.0004297495
-0.001029253
0.0039002895
0.004837513
-0.0035742521
-0.0020329952
0.0019557476
-0.006438017
-0.0009976625
-0.00017857552
0.003187418
0.0053778887
9.119511e-05
0.0061438084
-0.00067317486
-0.0053697824
0.0037472248
-0.010535479
-0.0039623976
0.0044533014
-0.012776971
0.0075843334
-0.0067926645
-0.007896662
-0.0005013943
0.010346651
-0.0058362484
0.0041661263
-0.006696224
-0.005517125
-0.0011255741
0.012743354
0.016670227
0.005809307
-0.0010813475
-0.0021021366
0.013383269
-0.005207062
0.0034162998
-0.008121967
0.00081169605
0.013989687
-0.010949135
0.0121821165
0.006563425
0.0060646534
0.018159747

0.0049852133
-0.0045130253
0.002269268
0.00488317
-0.007860899
-0.0047575235
-0.0031130314
-0.0041433573
0.006126642
0.008761525
-0.0014446974
0.0041344166
-0.0018956661
0.0034211874
-0.026372075
0.0031696558
0.004688382
0.007228732
-0.00093495846
0.010199904
-0.009759545
0.0005606413
-0.012541413
-0.00065910816
8.225441e-06
0.0043447018
-0.0023367405
0.0014970303
-0.00131464
-0.0030226707
-0.005977273
-7.045269e-05
-0.0045335293
0.026522279
-0.018215895
-0.0018776655
0.0031254292
-0.01013577
0.005292177
0.009365797
-0.00013434887
0.004840374
-0.0034644604
-0.0007338524
0.003781557
0.0017969608
0.00010240078
-0.00095260143
0.00047910213
0.0006520748
0.0028077364
-0.007854462
0.0006223917
0.0042994022
0.0005413294
0.0034421682
-0.005717039
-0.0011320114
0.010997295
0.005340934
0.0037903786
0.010988355
-0.006128192
0.0011029243
-0.0035778284
-0.0027498007
-0.0049295425
-0.00053215027
0.00030744076
0.009686112
-0.0023815632
-0.0013273954
-0.001968503
0.010348558
-0.0009659529
-0.0022773743
-0.0013724566
0.003937483
0.0031889677
0.008481145
0.00015640259
0.0073235035
0.0073843
0.0010396242
0.0023918152
0.0010329485
0.0006594658
0.0023325682
-0.000318408
0.0022610426
0.014140725
0.0010384321
-0.00039756298
-0.0025674105
0.010703087
-0.0021140575
-0.0032784939
0.003331542
0.0031013489
0.004034281
-9.441376e-05
0.00011396408
-0.01599896
0.019136906
-0.00070774555
6.234646e-05
-0.0010904074
0.008508325
0.0024678707
-0.0012584925
0.0012043715
0.004153371
0.0020706654
-0.018569231
0.0018757582
-0.0004787445
-0.0015146732
0.0044676065
0.001504302
-0.0025131702
0.0040769577
0.0021981
-0.0033752918
-0.0073702335
-0.0031090975
-0.011213303
0.0052005053
0.0013948679
0.0067186356
-0.0006341934
0.0051510334
0.0016247034
0.00019466877
-0.00022435188
0.00955987
-0.00017726421
-0.004900217
-0.0011421442
-0.0023177862
0.0037831068
-0.00046122074
-0.0155415535
0.00067961216
0.0060226917
-0.0075342655
-0.00095140934
1.1086464e-05
-0.0013077259
0.0021739006
-0.0110936165
-0.0031442642
0.0009021759
-0.0044983625
-0.0022184849
0.0025793314
0.001300931
-0.004504919
-0.0075343847
-0.009372354
0.006063342
-0.0024268627
-0.00089251995
0.0125494
-0.015988588
-0.0045713186
0.016016483
0.0031628609
-0.011731505
-0.015357375
0.0046042204
0.006392479
0.0009596348
-4.2438507e-05
0.014011025
0.0014247894
-0.010154486
0.0008794069
-0.00147295
-0.002311945
-0.00092697144
0.008605123
-0.00944376
-0.0007519722
-0.003746748
0.011490822
0.0012558699
-0.0029165745
0.0035874844
0.001316309
-0.004071951
-0.013166785
0.00016152859
-0.0038275719
0.0017004013
0.0009775162
0.004292965
0.0009812117
-0.0009586811
0.006360054
0.0013203621
0.004037142
-0.0010360479
0.0011812449
0.0054638386
-0.0014611483
-0.0017815828
0.0011659861
-0.009962082
-0.0011823177
0.005906582
-0.00025963783
-0.000895381
0.004478693
0.00030827522
0.0030415058
0.010502696
0.0059275627
0.0015208721
0.0027204752
0.007941723
0.00072550774
0.0029547215
0.0020327568
2.026558e-06
-0.00053167343
-0.00014579296
0.0069568157
0.00046932697
0.0025993586
-0.008763671
0.0016810894
0.004838586
0.010219574
-0.00072717667
-0.0009652376
5.6028366e-06
0.009946942
0.003582716
-0.0005772114
-0.0035151243
0.0019514561
-0.009436727
-0.0025367737
0.0022135973
-0.0007112026
0.0001809597
0.007953286
0.0014271736
-0.0009924173
-0.0006581545
0.004688859
-0.00018036366
0.008705258
0.0047894716
0.0068677664
0.0053189993
0.008932471
-0.0011749268
-0.00084650517
0.004886627
-0.00027668476
0.0037139654
-0.006819129
-0.00387156
0.00369215
-0.0014258623
0.0015439987
0.00054585934
0.0011862516
0.009294748
0.008535147
-0.001393795
0.0028213263
-0.0044357777
-0.000223279
-0.005171418
0.01749456
0.0032439232
0.0025310516
0.0052171946
-0.0010703802
0.0075577497
-0.0010339022
-0.005212903
0.0012794733
0.0044443607
-0.0063501596
-0.0011070967
-0.00055992603
0.0020807981
-0.0011576414
-0.0034542084
0.0054688454
-0.00022113323
-0.0035545826
0.0010910034
-0.0032064915
-0.0009793043
-0.002744317
-0.0067145824
0.00020837784
-0.002542615
-0.0044646263
2.0742416e-05
0.001347661
0.0037035942
0.010331154
0.0016252995
-0.0026004314
-0.0014027357
-0.0034559965
-0.008610606
-0.007318139
-0.0011907816
0.00026762486
0.007119775
-0.0078083277
0.0042085648
-0.0072063208
-0.007972598
-0.0014395714
-0.003117323
0.00069987774
0.0022209883
0.010401726
0.0017883778
0.006511569
0.0024607182
0.0022107363
-0.0078680515
-0.0009900331
-0.0007443428
-0.0026835203
0.0017861128
-0.0018593073
-0.009059191
-0.0020359755
0.0042124987
-0.00016987324
0.0082217455
-0.003826499
0.0014308691
0.0002373457
0.008134961
0.00077855587
-0.0038797855
-0.0047363043
-0.007408619
-0.009617567
0.00025439262
0.0036472082
-0.0006902218
-8.21352e-05
0.017494082
-0.0022748709
0.004271865
-0.01539588
0.0033478737
-6.7949295e-05
-0.0023149252
-0.00516665
-0.0022348166
0.02177322
0.009790182
0.011680841
0.0072700977
-0.0004041195
-0.0005937815
0.008900046
-0.004327655
0.0038501024
0.011074066
0.009488225
0.0024331808
-0.00073981285
-0.0072522163
-0.00032675266
-0.0012831688
-0.00318861
0.0022462606
-0.0017205477
0.002053976
-0.0059041977
0.0022130013
-0.0006312132
0.0013040304
0.0026288033
-0.030399323
-0.0003169775
-0.0038485527
-0.002008915
0.0042955875
-0.007455945
0.011025906
0.004641652
0.006427288
-0.0016233921
0.0069043636
0.0025402308
0.009487271
-0.0014250278
-0.008806229
0.0062081814
0.00021195412
0.0018998384
0.0033220053
0.0010647774
0.0019034147
-0.0045062304
-0.005375862
0.004063964
0.0014079809
0.0043774843
-0.010767579
0.012128711
-0.0023488998
0.001080513
0.0038044453
-0.001060605
0.011710763
0.002097249
0.009566069
-0.0026226044
0.015522957
-0.024767756
-0.0081192255
0.00784409
-0.0022004843
0.0041428804
-0.0051003695
0.0044834614
0.010576606
-0.008003712
-0.0076812506
-0.0026515722
0.0015692711
0.0036643744
0.0038028955
-0.0005710125
0.0018181801
0.016055822
0.011800289
0.004384637
-0.0016974211
0.001513958
0.0010523796
-0.0041923523
0.0012617111
-0.008285284
-0.011718273
-0.00084006786
-0.0066765547
-0.0028185844
0.01836443
0.0030415058
0.017370462
0.022117257
0.011843324
-0.0028036833
-0.0039098263
-0.002662778
0.007682562
0.0011842251
0.0031200647
-0.0018039942
-0.00082552433
0.0014077425
0.0053704977
-0.00088977814
-0.0043411255
-0.008957386
7.2956085e-05
-0.0008018017
0.010444403
-0.0014734268
-0.0018309355
0.0020247698
0.010891318
-0.0016717911
-0.0044373274
-0.0053492785
0.0007082224
0.0034643412
0.007362604
0.008315563
-0.0072467327
-0.0024620295
-0.0040302277
-0.0005325079
-0.0017571449
0.00053310394
-0.0026792288
0.00038194656
-0.0077763796
0.0077189207
0.0029634237
0.0065021515
0.0032430887
-0.0036876202
0.0011518002
0.004134178
0.009132266
0.0037673712
0.006995201
0.01135695
-0.0030124187
0.00047957897
-0.00218153
-0.01230216
-0.012541175
0.0029622316
0.0069874525

-0.0009241104
0.0016827583
-9.262562e-05
0.0051546097
-0.0009250641
0.0043467283
-0.002994895
-0.00023007393
-0.0010750294
0.0012317896
0.0024963617
-0.0007407665
0.0017662048
0.0006554127
0.0031346083
-0.00042402744
0.0006531477
-0.001192689
0.0017834902
0.00021612644
0.0002399683
-0.000121474266
0.0063118935
-0.00010383129
-0.0031867027
0.003257513
-0.0017440319
0.0011771917
-0.0008275509
0.00049829483
-6.365776e-05
0.006794095
-0.0010511875
-0.004005909
0.0015618801
-0.00033426285
-0.0027171373
0.0007029772
0.00025951862
-0.0011136532
0.0016956329
-0.0017865896
0.003644228
0.0012390614
-0.0010674
-0.00042390823
0.001924634
0.00081825256
0.0026005507
-0.001267314
0.0005406141
0.0074267387
0.0006722212
0.0055958033
-0.0008559227
0.00073468685
-0.00041294098
-0.00096285343
0.002057314
-0.00031113625
0.0010128021
-0.00034153461
0.0021258593
0.0070775747
-0.0045380592
-0.00033068657
0.0013148785
0.0033205748
0.0018545389
0.0007457733
0.0036901236
0.00055098534
0.00063836575
0.00071811676
0.004980564
0.0047643185
-0.0013515949
-0.0014324188
0.0006381273
-0.0002592802
-2.1338463e-05
0.00010550022
-0.0016820431
0.00036597252
0.001655221
0.0018504858
0.00036597252
-0.0028887987
0.00848031
0.0031024218
0.0026103258
0.0045187473
-0.00036752224
0.0029668808
0.0012837648
0.0019105673
0.0006018877
-0.0010406971
0.0042755604
0.00054323673
0.0024766922
0.0006444454
0.009063125
0.0016900301
-0.0013847351
-0.004745841
0.0035322905
0.0002681017
-0.00076925755
-0.00024151802
-0.00043570995
0.001527071
0.0036076307
-0.0007561445
0.0028847456
-0.0004043579
0.0016139746
0.00010037422
-0.0082730055
-0.00045466423
0.005200386
0.002294302
-0.004080534
0.0032503605
-0.00049853325
-0.00033557415
0.005155444
-0.000600934
-0.004855633
-0.00014138222
0.006272435
-0.0036267042
0.0022394657
-0.00084888935
0.0014145374
0.00041425228
0.00046372414
-0.004681349
0.0017614365
0.00019419193
-0.003772378
-0.0011094809
-0.0009936094
-0.004899502
-0.0001257658
-0.00087463856
0.0037218332
-0.00015771389
-0.0016431808
-0.0048624277
0.00200665
0.00043213367
-0.00083625317
0.002202034
-0.0014538765
0.0011487007
-0.0027540922
-0.00087201595
0.0030853748
-0.0070279837
0.0008599758
0.0014566183
0.0016582012
-0.00769341
0.0033804178
0.0021852255
0.0011081696
-0.00079774857
-0.00025880337
0.0031064749
-0.004952669
0.0029667616
0.0023185015
-0.00036227703
0.0016901493
0.000111460686
0.0076110363
0.004963875
0.0048542023
-0.0036462545
0.004315853
0.0009659529
-0.0033422709
0.001314044
0.0005122423
-0.002037406
0.006878853
-0.0012081861
-0.0015618801
-8.845329e-05
-0.0001500845
-0.00012493134
-0.0012495518
0.0014746189
0.0034552813
0.003903985
9.3340874e-05
0.0024864674
0.00031507015
0.004784107
-0.0008368492
0.0050530434
-0.00038433075
0.0029597282
0.00010204315
0.0033572912
0.0019661188
0.0005491972
-0.0067899227
0.006341815
0.00041997433
-0.0004862547
-0.00080883503
-0.0049533844
0.0008814335
0.0009849072
0.0036354065
-0.0035853386
0.001670599
0.0004993677
0.005683303
-0.0020862818
0.00046563148
0.00019776821
0.0006798506
5.877018e-05
-0.005363226
-0.0015560389
-0.00076055527
-0.00019347668
-0.0035390854
-2.002716e-05
-0.0002105236
-0.006521702
-0.00047135353
0.00068604946
-0.0016961098
0.00027525425
-0.0003517866
-0.0050833225
0.00035738945
-0.0015534163
-0.0009281635
0.0022141933
0.001581192
0.0010863543
0.0061944723
-0.006087184
-0.0015748739
-0.0007895231
-0.0033271313
0.005594015
-0.0014699697
-0.0030431747
0.00084388256
-0.0044903755
0.0023633242
-0.0018984079
0.0021871328
0.000172019
0.012647629
0.00074768066
-0.00011062622
-0.0022252798
-0.0013260841
-0.0006018877
-0.0023157597
0.0034816265
-0.00321424
-0.000577569
0.004573941
-0.0017286539
0.0017588139
0.00062799454
0.00018835068
7.414818e-05
0.0015958548
-0.001100421
0.0028113127
-0.00021791458
0.000944376
0.006410122
0.0034023523
-0.0024516582
-0.00269413
0.0096462965
0.00036346912
-0.0015404224
-0.0016832352
0.0009788275
-0.0032289028
-0.00019800663
-0.0039428473
-0.00024724007
-0.0014107227
0.0017426014
0.0018359423
0.001253128
-0.0039619207
0.0005097389
0.0050951242
5.6147575e-05
-0.0027467012
0.0028812885
-0.0020816326
-0.0020444393
-5.686283e-05
-5.042553e-05
0.0018006563
0.0035107136
0.0029734373
-4.1484833e-05
-0.0010945797
0.0006715059
0.013368845
0.0028066635
-0.0006842613
0.007509589
0.0054764748
-0.0014624596
0.0075440407
1.8119812e-05
0.00017619133
0.00077188015
0.001657486
-0.00021243095
0.00033164024
0.0021904707
0.0051754713
-0.005411625
0.0016235113
-0.0008673668
0.0060015917
4.9591064e-05
0.00010538101
8.72612e-05
0.0022773743
0.000792861
-0.0014475584
0.002604127
0.0026168823
0.0023881197
0.0019085407
6.914139e-05
0.000977993
-0.003091693
0.0032818317
-0.0021373034
-0.002120614
-0.0061813593
-0.0016645193
0.006724477
0.00021386147
0.00066769123
0.006585479
0.0015355349
-0.007044196
-0.0017656088
-0.0007789135
-0.002012968
0.0018019676
0.0045866966
0.00080156326
0.00018799305
0.0019500256
-0.0003964901
0.00039315224
-0.00066041946
-0.0014724731
0.0018328428
-0.0012891293
0.0037419796
0.0013047457
0.0009862185
-0.000207901
-0.0007047653
0.0054860115
0.002032876
-0.00017023087
2.002716e-05
0.0004338026
0.0040000677
0.001453042
0.0017035007
0.002566576
-0.002423644
0.00032782555
0.0009750128
-0.0019512177
0.004000187
-0.00054967403
0.0015743971
0.0010538101
-0.0034205914
0.0022705793
0.00033915043
0.00032114983
0.001861453
-0.0014951229
0.0018627644
-0.00094664097
0.00083065033
0.0017021894
-0.00010418892
0.0014711618
0.0029754639
0.0028915405
0.0015575886
0.0015097857
0.0005675554
0.0010225773
0.0036517382
-0.00033533573
-0.00046503544
0.0053317547
-0.00061154366
-0.0075052977
-0.0012532473
1.4305115e-05
0.002780676
0.00042498112
0.0009807348
0.0026583672
-0.0017722845
0.003086567
0.0017514229
-0.000882864
0.0018663406
-0.0011831522
0.004774809
0.0007069111
0.00037038326
-0.0015238523
0.0016433
-0.0006326437
-0.0005623102
0.0017493963
-0.0031938553
0.001219511
0.005244136
0.0054728985
-0.0008200407
-0.00017809868
-0.00018072128
-0.002756238
0.0024410486
0.0021880865
-0.003473878
-0.0017889738
0.0031832457
0.0034376383
-0.00022089481
0.0014593601
0.00081014633
0.00077068806
-0.004137993
0.00233531
0.0016982555
-0.0004723072
0.0041509867
0.00032150745
0.0030316114
-0.00057017803
-0.0017436743
-0.0008071661
0.0024626255
0.00088977814
0.004033208
-0.0035167933
0.0003643036
0.001344204
0.006413698
-0.0013908148
0.0068460703
-0.0032682419
0.00018501282
0.0009255409
0.003597498
-0.0054569244
0.0015767813
0.0024234056
-0.0015016794
0.00031280518
0.0005155802
0.0023261309
0.0012979507
0.003635168
-0.00021994114
0.0027157068
-0.00030648708
0.003191471
0.000615716
-0.0001282692
-0.0014238358
0.001709342
-0.0012954473
-0.00083208084
-0.00046527386
-0.00089645386
0.0012924671
0.0023435354
0.00054597855
0.00043058395
-0.0016226768
-0.0022585392
0.00046479702
0.00091314316
0.0011563301
-0.0007042885
9.012222e-05
0.0010812283
0.0014415979

-0.00087428093
0.0002039671
0.0025900602
-0.0010051727
-0.0011445284
-0.0023145676
0.0012818575
-0.00085902214
-0.00095641613
0.0018943548
-0.0012817383
0.00082588196
-0.0041253567
-0.00038325787
-0.0002771616
0.0017284155
0.00077581406
0.004683614
-0.00023019314
-0.00043094158
0.00333786
0.00092697144
0.00044953823
0.006307006
0.0007314682
0.0010359287
-0.00040125847
-0.001401186
-0.001380086
-0.002093196
0.00053191185
0.003988385
-0.0007839203
6.9737434e-05
0.004511237
0.0039960146
-0.00067055225
0.0021893978
0.002685666
0.002141714
-0.0012727976
0.0027205944
-0.001488924
0.00061893463
-0.0013291836
0.0005645752
0.0031780005
-0.00041258335
-0.00017809868
0.0026487112
0.0027233362
0.0011810064
0.0009874105
-0.0010906458
-0.0017155409
0.0022888184
-4.3272972e-05
-0.0003004074
-0.0012819767
0.0023286343
-0.00057828426
-0.00060391426
0.00087714195
0.00025856495
0.00052046776
-0.004583001
-0.0016671419
0.0018445253
0.00033521652
0.00041389465
0.0006548166
-0.004003763
0.001940608
-0.0007542372
0.0028630495
0.002636075
0.00021409988
-0.00085651875
-0.0020555258
-0.0008274317
-0.0010374784
-0.0010237694
0.0027110577
0.0007517338
0.0032292604
0.001247406
0.00084102154
0.0013480186
0.0005133152
0.005944729
0.005365491
0.000114798546
0.0004582405
-0.00022661686
-0.0017675161
0.00050342083
0.0017650127
-0.0011601448
-0.0003244877
-0.00042676926
-0.00080120564
0.0014923811
0.0028110743
-0.0010627508
-0.0026071072
0.0009198189
-0.0019481182
0.003828168
-0.0006532669
0.0011361837
-0.0023072958
0.0007368326
0.0006328821
-0.001355052
0.0010963678
0.0006816387
0.00017631054
0.0010617971
0.0045028925
0.00025463104
-0.0004389286
-0.0020139217
-0.00016999245
0.0010976791
0.00069749355
-0.0014579296
-2.3961067e-05
0.0018407106
-0.00012099743
0.0009902716
-0.0023434162
0.000697732
-0.0022746325
0.0043969154
0.00018000603
0.0030713081
0.00233984
0.0034956932
-0.0016559362
-0.00028705597
0.0025936365
-0.00035905838
-7.4505806e-05
0.0011777878
0.00027430058
0.0012526512
0.00053942204
9.524822e-05
0.002023816
0.00034475327
0.0020809174
0.0044976473
0.00018143654
-0.00027036667
0.0018273592
0.0010248423
0.00075984
-0.00015056133
0.0010932684
0.0013535023
-0.00010180473
-8.022785e-05
-0.00016963482
-0.00029337406
-0.0008094311
0.0019305944
0.0010154247
-0.00018978119
-0.00093889236
0.0004543066
0.0003567934
-0.0005209446
-2.4199486e-05
-0.002614975
-0.0012680292
-0.0007519722
0.0022889376
0.0049870014
-9.942055e-05
0.0019865036
-0.00044047832
0.001568079
0.0017871857
0.0027023554
0.00024485588
0.0018228292
3.33786e-05
0.0016124249
0.0018587112
-0.002008319
0.002734065
0.00030899048
0.0023202896
0.0008305311
0.00111413
0.0015394688
4.673004e-05
0.0009614229
0.0016177893
-0.001423955
0.0025429726
-0.00043976307
0.00015985966
-0.00023674965
0.00089895725
0.0007092953
-0.0003027916
0.0009305477
0.0005553961
-0.0007351637
0.00075900555
0.00069248676
0.0006927252
0.0013896227
-0.0013310909
0.0033864975
-5.853176e-05
0.0009819269
-0.0023316145
0.0017681122
-0.0019966364
0.0003143549
0.0007187128
2.7060509e-05
0.00035953522
-0.00084865093
-0.00093734264
0.0011200905
0.0054205656
-0.00026381016
0.000420928
-0.0006247759
0.00047039986
-0.0005732775
0.0010079145
-0.0009511709
0.00020837784
-0.00015556812
-0.00027799606
-0.0005711317
0.0009404421
-0.00094270706
0.0024168491
0.0013165474
0.0005412102
0.00109303
0.001727581
-0.00034105778
-0.0006586313
-0.0017050505
0.00090396404
0.0019234419
0.002664566
4.3272972e-05
0.0023052692
0.00070655346
-0.004984498
0.0020406246
0.003612876
-0.00060510635
0.0029156208
0.003245473
0.0041068792
0.00050234795
-0.0022236109
0.0006841421
-0.0063644648
0.0007827282
-0.00017082691
-0.00072979927
0.002306819
0.00046610832
-0.00050377846
0.0066313744
-0.0018049479
0.0010305643
-0.0008544922
0.0016087294
0.00045001507
0.001170516
0.003246665
0.0036332607
-0.0013058186
-0.0013264418
-0.00092089176
0.0019198656
0.00016319752
-0.0013133287
0.0005323887
-0.00062918663
0.00021159649
0.00020241737
-0.00011229515
0.0016390085
0.001973629
8.201599e-05
-0.0030136108
0.00022661686
-0.0017443895
-0.00011861324
-9.393692e-05
-4.4941902e-05
0.0009428263
0.0020861626
0.00027298927
-0.00047683716
0.003291607
0.0036919117
0.0021476746
-0.001481533
-0.0011405945
0.00092339516
0.00015103817
-0.0006688833
-0.0006748438
0.001168251
0.0009533167
6.0915947e-05
-0.00014019012
0.000621438
-0.0044863224
-0.00015461445
-0.0012545586
0.00034177303
0.0017930269
0.00124681
-0.0029193163
0.0018610954
0.0014187098
0.0014660358
-0.00013387203
-0.0007305145
-0.00015938282
-0.0012203455
-2.2292137e-05
0.0016902685
0.0042266846
0.0014246702
0.0017095804
-0.0039582253
0.0025593042
-0.0010601282
0.0001553297
-0.0017594099
0.0009996891
-2.2053719e-05
0.0023175478
0.0038936138
0.00034070015
0.0012737513
0.00083458424
0.0015362501
0.0018248558
-0.001335144
0.0046417713
0.00023150444
-0.001701355
-0.00029742718
-9.071827e-05
0.005336046
0.0024772882
0.00092732906
0.0020477772
0.00044178963
-0.00010275841
0.0003567934
-0.002600193
-0.0003221035
0.00068223476
-0.0014078617
0.0020819902
0.0015289783
9.8347664e-05
0.00059866905
0.0036674738
0.0014613867
-0.0005531311
0.0016856194
0.00086677074
0.0012866259
6.842613e-05
0.0020297766
0.0030629635
-0.0005899668
-0.00019693375
0.0009955168
0.0005917549
0.00041615963
-4.0769577e-05
0.0002657175
0.0045827627
0.00029802322
-0.00032889843
0.00041222572
-4.541874e-05
0.0023608208
0.0005582571
0.0005905628
-9.691715e-05
-0.00048828125
0.0008767843
-0.0005725622
0.00020873547
-0.0010472536
0.00023853779
0.004261732
0.0027643442
-0.0007195473
-0.00075376034
-0.0007172823
-0.0024061203
0.003029704
0.0012158155
0.0020933151
-2.4557114e-05
0.0034059286
0.0017025471
0.00036501884
0.0010464191
-1.7285347e-05
0.00022792816
0.0011657476
-0.00053977966
0.0036275387
0.0014126301
0.0015201569
-2.1100044e-05
0.0023287535
0.0017080307
-0.0011105537
0.0002220869
0.0010826588
0.003308773
-0.0012612343
0.0021326542
0.0007122755
-0.00016725063
0.0016205311
-0.0011202097
-0.00010931492
0.0003887415
0.0023890734
-0.00068306923
0.0014227629
0.0023001432
-0.00030088425
-0.00027430058
0.0029615164
0.0122772455
-0.0003452301
-0.0005301237
0.0008519888
-0.00032401085
0.0020768642
0.00028395653
0.00015032291
0.0041618347
-0.0015939474
-0.00010919571
0.0011153221
0.006148815
0.0017194748
0.003127098
0.0038220882
0.0043572187
0.001490593
0.00059866905
0.004071951
0.00051522255
-0.0025889874
-0.00055384636
0.0005937815
0.0012359619
-0.0033638477
0.001229763
0.004611969
-0.00019967556
0.0005455017
-5.2809715e-05
0.0021939278
-0.00016736984
0.00023317337
0.0016942024
0.0009407997
-1.7642975e-05
-0.0020917654
0.0030019283
0.00047969818
0.0032863617
-0.00082063675
0.0013816357
0.00039315224
0.0010390282
0.0017174482
-0.001760602
-0.00014197826
-0.0009866953
-0.0016000271
0.0012544394
0.00035834312
0.00039839745
0.005841613
-0.0056521893
0.0007714033
0.00089633465
-0.00041162968
0.0006740093
-3.2186508e-05
0.00025582314
-0.0030317307
0.0008698702
0.0031603575

0.0021306276
-0.0011421442
0.007649541
0.0014193058
-0.0005249977
-0.001345396
-0.00095784664
-0.00014185905
0.0034999847
8.201599e-05
-0.0028042793
-0.0012658834
-0.001178503
0.003834486
0.0003194809
0.004407406
0.0041148663
0.00051641464
-0.0019575357
0.0024760962
0.006041527
0.00010764599
-0.00103724
-0.0005134344
0.002235055
0.002935052
0.0020250082
0.0072152615
0.00020217896
0.0029524565
-0.0010265112
0.004572749
-0.001434803
-0.0043570995
-0.00015604496
-6.1154366e-05
-0.0063632727
-0.007844329
-0.001163125
0.00070619583
0.0015763044
-0.00043690205
0.0037893057
0.0005558729
0.0018155575
-0.0061463118
-0.0008215904
-0.00066554546
-0.00044953823
-0.004505992
0.0025389194
0.00039458275
-0.003716588
-0.0010219812
-0.001601696
0.00213933
0.0027413368
-0.0024217367
-0.0025355816
-0.0003323555
0.0014461279
3.6478043e-05
0.0003772974
0.0011121035
-0.0011011362
0.0056704283
-0.0019717216
0.00458169
0.0021526814
0.0016107559
0.00016796589
0.0019721985
0.0011247396
-0.002700448
0.00060606
0.00034821033
-0.00078999996
0.003439188
0.0011464357
0.0013308525
-0.0025936365
0.00037372112
0.00040447712
0.00068712234
0.0067214966
-0.0006184578
0.0030157566
0.007517934
0.003157854
0.000118255615
-0.0028820038
0.0017185211
-0.0006854534
-0.002842307
-0.002918601
0.002061963
0.0028939247
-0.0007570982
0.0013171434
-0.0034058094
0.00028908253
-0.00021004677
-0.004401684
0.0026347637
0.0027337074
0.0030406713
0.008782029
-0.003174305
0.004963994
0.0035095215
-0.0011576414
-0.0010555983
0.0019533634
-0.0014798641
-0.0023868084
-0.00011587143
0.0014231205
0.002092719
1.7046928e-05
0.0028746128
-0.00030243397
-0.0027350187
0.0009422302
0.0072386265
-0.00019836426
-0.00017607212
-9.524822e-05
0.0021508932
0.0010689497
0.00023174286
0.00070011616
-0.004646063
-0.0018553734
0.0015233755
0.001254797
0.00091791153
-0.00052547455
0.0003954172
0.0025929213
0.003136754
0.00045776367
0.003021121
0.0003490448
0.0005735159
1.3828278e-05
-0.0030286312
-0.00715065
0.0021603107
0.00066649914
-0.0038063526
0.001709938
-0.0003412962
7.426739e-05
0.0052348375
0.005856633
0.0049569607
0.0014928579
0.00022089481
-0.00011730194
-0.0036929846
0.0005322695
0.0011897087
0.0017939806
-0.0004479885
-0.0023819208
-0.0009902716
0.0017544031
0.0029838085
-0.0006338358
-6.890297e-05
0.0017727613
-0.0005514622
0.002250433
-0.00047647953
0.0015941858
0.002147913
-0.002841115
0.0005893707
-0.00041425228
0.0019720793
-0.002613902
0.00038182735
0.00094521046
0.0012745857
-0.0027081966
0.001855731
0.0051521063
0.009156108
0.0007457733
0.003237009
0.002236843
-0.00227499
-0.0009024143
0.000908494
-0.00051927567
0.0029523373
0.0015175343
-0.0019295216
-0.001535058
-0.00028955936
0.0003232956
-0.00091803074
-0.00011301041
0.001113534
0.009075046
-0.0010908842
0.0010267496
0.0011177063
-0.0015605688
4.887581e-05
0.0012357235
0.0036263466
0.0010898113
0.0076180696
-0.0010523796
0.0036156178
0.004192233
-0.0028181076
0.00018024445
-0.0029805899
0.003138423
0.0049939156
0.0011947155
0.0022929907
0.0008993149
-0.0015766621
-0.0013259649
-0.0041412115
0.00221622
-0.0009906292
-0.0001680851
-0.0034097433
0.0020436049
-0.00047123432
0.0010397434
0.0015134811
-0.002175808
0.0007967949
0.0027667284
-0.00022506714
-0.0027080774
0.0006234646
-0.0021675825
0.0020445585
0.005994916
-0.00014424324
0.0007802248
-0.0010523796
0.0073251724
-0.004053235
-0.0005174875
-0.0012097359
0.0005865097
-0.0009887218
-4.8041344e-05
0.005548954
0.00034999847
7.2956085e-05
0.002699852
0.005524993
0.0032263994
0.004799366
0.00052952766
0.006537795
0.00090539455
0.0030694008
-0.0026426315
-0.0008096695
0.0023064613
0.0034246445
-0.0012521744
0.0030157566
0.0003926754
0.002748251
-0.00085294247
-6.556511e-05
-0.00032413006
0.00027537346
0.0017774105
0.003945112
0.00033450127
0.0015511513
0.0023961067
-0.0022411346
4.7445297e-05
-0.00011384487
-0.0008727312
0.006365776
0.0029211044
0.0021562576
0.0005656481
0.0001513958
-0.0021394491
-0.0017184019
0.001439333
-0.00014984608
0.0018872023
0.0024180412
-1.8119812e-05
0.00075137615
-0.0017633438
0.00606215
0.00024867058
0.0018194914
0.0012526512
-0.0036760569
0.00048840046
-0.0023479462
-0.0005259514
4.4584274e-05
-0.0015641451
0.0034888983
0.004319668
0.0019154549
-0.0044949055
-0.0041519403
0.0015262365
0.00055873394
0.0016156435
-0.0017629862
-0.0018465519
0.0018464327
0.0023099184
-0.0002373457
-0.0009287596
0.0010100603
0.0018675327
-0.0005630255
-0.0030298233
0.0040946007
0.005667925
-0.0035873652
-0.0007253885
0.0038038492
-0.0012282133
0.002490759
0.002820611
0.0001180172
-5.3167343e-05
-0.0023120642
0.00045192242
-0.000754714
-0.0017409325
0.000685215
-0.0003950596
0.0027366877
0.004379511
0.0016055107
-0.0011745691
0.0027331114
-0.0010335445
-0.0004223585
0.0015010834
-0.0011111498
0.0017057657
0.0014320612
-0.0047855377
0.0005558729
-0.00031983852
0.0036201477
0.00039374828
0.0011774302
0.0015602112
-0.0020905733
-0.0022609234
0.0018101931
0.00044596195
2.3007393e-05
0.0002681017
0.0075143576
0.0064651966
-0.0013844967
0.0030215979
0.010452986
-0.0010675192
0.002029419
0.0067635775
0.0007094145
-0.0004518032
0.000490427
0.0059599876
0.0030611753
0.005903244
0.0006439686
0.0033005476
-0.0038021803
0.002349615
-0.0011056662
0.00041246414
0.0017399788
0.002603531
-0.0016359091
0.0012049675
0.0013258457
0.00052809715
0.0014867783
0.00039494038
0.0026835203
-0.0014747381
-0.0017230511
0.0026319027
-0.00031912327
-5.7697296e-05
-0.00070106983
-0.00079131126
-0.0031440258
-0.0003427267
0.0035516024
0.0029608011
0.00012075901
0.0016064644
0.002678156
0.0003106594
-0.0017023087
-0.0007902384
-0.00049352646
-0.0007607937
0.0046049356
-0.0019509792
0.0008548498
0.003129959
-2.3126602e-05
-7.987022e-06
-0.001501441
0.0012940168
0.00019741058
-0.005095601
-0.0007510185
-0.00022828579
0.0047394037
0.0023671389
-7.1525574e-05
0.0064516068
0.0033124685
0.0022079945
-0.0013315678
0.0018455982
0.00012564659
0.0038187504
0.0017502308
0.0002758503
-0.0017775297
0.0022140741
-0.0023405552
-0.0037395954
0.0014829636
0.006478548
0.0011949539
0.0009492636
-0.00075161457
0.0008214712
-0.0030264854
0.00091409683
0.01115036
-0.0028755665
-5.2928925e-05
-0.0025237799
0.0025017262
0.0005533695
-0.010708928
-0.004409671
-0.006224036
-0.0007623434
-0.0022870302
-0.0010838509
0.00010097027
0.0030282736
-0.0006248951
0.0009795427
-0.001177311
0.0015357733
9.655952e-06
0.00092947483
0.0039829016
-0.001091361
-0.0014172792
-0.00013840199
0.0024440289
-0.0011167526
-0.002256751
0.0008407831
0.00010740757
0.0037542582
-0.0035654306
-0.00085520744
0.0007638931
-0.0023293495
-0.000344038
-0.002058506
-0.0015007257
0.0019186735
-0.0016220808
0.0039714575
0.0017635822
-0.0027258396
0.0016703606
0.0014842749
0.0003004074
-0.00089740753
-0.00022828579
-0.006237507
-0.00036931038
-0.00076925755
-0.0013408661
0.0031856298
0.0009120703
-0.001947403
0.0023351908
-0.00041747093
0.0027163029
0.0004017353
0.0056575537

0.41988838
0.3815955
0.3178841
0.2854036
0.3192674
0.24181247
0.31468153
0.40745533
0.409701
0.36806977

