0.09013486
-0.012248635
0.031728268
-0.079242826
0.08442962
0.056580663
0.037686706
-0.023364067
0.04472828
0.02352035
0.052883863
0.08840716
0.028445005
-0.117403746
-0.05642402
0.07624185
-0.030671835
0.13078153
0.06656444
0.08691323
0.04184115
0.06640506
-0.0012615919
0.03030324
0.03076446
-0.01112175
-0.02706635
-0.030862331
0.066566825
-0.051769853
0.104231
0.09701824
0.037849307
-0.06940651
0.024604082
0.025386453
-0.03585434
0.012549758
0.03831947
0.0647217
0.027278304
0.0045689344
-0.005441904
0.12047541
0.053945422
0.12381482
-0.0194633
0.075218916
0.024180412
0.04184544
-0.06510103
0.053527474
-0.0034490824
-0.124245405
-0.06075734
0.062493324
0.027557373
0.01850462
0.0038032532
0.069774866
-0.031486273
0.11721277
0.040998578
0.07189202

0.05755198
0.01179266
-0.0016239882
0.03218758
0.052775264
0.2051059
0.025778055
-0.012571335
0.01941371
0.029054642
0.025980115
0.078725696
0.062559485
0.028817415
0.0093746185
0.22412884
0.013504028
0.097782135
0.05793929
0.024935246
0.061733603
0.053501725
0.020450592
0.0038787127
0.033106208
-0.019322872
0.015802503
0.008549571
0.005536914
0.11474717
0.026241422
0.029742122
-0.02653575
0.012534022
0.0003966093
-0.042278886
0.03622389
0.06309748
-0.029566646
0.055263877
0.0026413202
0.039503098
-0.03358388
-0.002942443
0.007455945
0.010635376
-0.01877594
0.06911588
0.05051267
-0.0030070543
0.0047109127
-0.003483653
-0.00017309189
-0.044288754
0.018173337
0.014555454
-0.014281154
0.035178185
0.04376483
0.008902311
-0.018354058
0.007921457
-0.030630708
0.08049381

0.03652692
-0.017462015
0.04579699
-0.06679034
0.049981475
0.009358883
0.010861635
0.013978362
0.056566
0.07099819
-0.0043871403
0.014377236
0.017760396
0.024850845
-0.012380004
0.009753346
0.005103469
0.021678448
0.022513032
-0.011186123
-0.008014083
0.034490466
0.020795941
0.008184671
0.005194783
0.0014667511
0.020264506
-0.0013010502
0.0096052885
0.01983881
-0.008841395
-0.018979311
0.022676587
0.01573956
0.027448654
0.021534562
0.038161516
-0.014359474
0.016635537
0.021607637
-0.005232215
0.053763032
0.01988697
-0.02705419
0.020890713
0.027380705
0.044843554
0.027464986
0.03316295
0.029862285
0.02675736
0.0087924
-0.00046253204
0.0030548573
0.02430451
0.0027866364
0.020233989
-0.011619687
0.00046539307
0.01203537
0.027304053
0.00076794624
0.009126186
-0.0009843111
0.014872313
0.020413041
0.0127289295
0.024724722
0.016491652
-0.018448591
0.0063461065
-0.005408883
-0.061127424
0.016160727
0.021908522
0.017161965
0.01195395
0.035069227
0.011722803
0.02358675
0.03613913
0.011586189
-0.008068681
0.017789602
0.038458347
0.021176577
0.045259237
0.015937686
0.048049092
-0.029896855
0.012808919
0.0027567148
0.013241529
0.028589606
0.0029416084
0.024824858
0.025115728
0.0073125362
-0.008903146
0.062520504
0.043580294
0.020504594
0.014169693
0.019471765
0.027726412
0.008138418
0.0028799772
0.016309261
0.004581094
0.0018167496
0.0075597763
0.012995005
-0.0032932758
0.022913694
-0.017086148
0.00890553
0.0035016537
-0.0055053234
-0.0011641979
0.00022542477
-0.0007082224
0.009855509
0.04227233
0.019418001
0.02003181
0.04766345
-0.006758809
-0.005825877

0.022282839
0.02508688
-0.009255648
0.028119445
0.033108592
-0.004572034
0.019605875
0.013898969
-0.005364418
0.026866794
0.01137054
0.013693452
0.0122920275
0.02398312
0.0070325136
0.031112313
0.0053100586
0.043015003
0.025547147
0.016280651
0.004478693
0.0073132515
0.011695504
0.012442946
0.020052433
0.0246588
0.021033525
0.011116624
-0.00060379505
0.022021413
-0.04533243
-0.002506256
0.02737844
0.00928092
0.0065968037
0.05525863
0.0030087233
0.007779956
0.021033764
-0.011248946
0.016344547
0.01997149
0.0101697445
0.04534495
-0.0022221804
0.018122554
0.02006483
0.0148102045
0.01573515
0.009849906
0.03469646
0.030661106
0.011737943
-0.0008826256
0.015582442
0.036940932
-0.008384466
0.006979108
-0.02504623
0.0024992228
0.04914522
0.0048998594
0.05079758
0.017823577
0.030789495
0.008017659
-0.0031388998
-0.0035071373
0.0064302683
0.0015896559
0.022439718
-0.0004837513
0.03442478
0.046762347
0.043164015
0.036050558
0.008817434
0.017912626
0.022679806
0.02946961
0.024564385
-0.019500613
0.015566826
-0.013181448
0.023765326
0.023828268
-0.009203434
0.0127032995
0.007730484
0.004815936
-0.025364757
0.051321745
0.027683735
0.024209619
-0.02676177
0.02491188
-0.010531545
0.0066148043
0.038992167
0.00992918
0.021798134
-0.030381441
0.008397579
-0.0019203424
0.0034695864
0.026452422
0.031570315
0.0012813807
0.03360033
-0.009951711
-0.000120043755
0.0069806576
0.031409502
0.02105391
-0.0024315119
0.019220352
0.036914706
0.0077893734
0.007836342
0.006275058
0.008644342
-0.0042698383
0.0014482737
0.012710094
0.014863491
0.03094244
-0.005374551
0.012146115

0.00083863735
0.02264595
0.007861137
-0.00052177906
0.011360407
-0.01591611
0.007988572
0.0024499893
0.011629701
0.0016326904
0.00035095215
0.0038038492
-0.0055992603
0.0032672882
0.011848927
0.020863771
-0.00069475174
0.017489076
0.009261727
0.016595602
-0.014014602
-0.005673647
0.00050091743
0.011087418
0.009518027
0.02140057
0.014058948
0.020149827
-0.005053997
0.018620253
0.013515353
0.011096597
-0.005627632
0.0035363436
0.0009754896
0.008047104
0.023233294
0.00013709068
0.015563369
0.009810686
0.02070129
0.006221175
0.023661256
0.0074414015
0.009108782
-0.00049471855
-0.0018254519
-0.016128302
0.022304296
0.009105325
-0.007901192
-0.0025684834
-0.0009497404
0.0039038658
-0.009355068
-0.014365315
0.017730236
-0.011131763
0.0036760569
-0.019803166
0.00427711
0.01870048
-0.005193591
0.01452148
0.0027507544
0.017904758
-0.00428319
0.0015261173
0.0018430948
0.0005553961
0.018481016
0.01920414
0.0022941828
0.0068786144
-0.004676819
-0.013678908
0.008345008
-0.00076031685
0.025522709
-0.0037810802
0.008412242
0.009748936
-0.0045148134
0.015123367
-0.038722754
0.016929269
-0.0031030178
0.025666237
0.012058377
0.0020061731
0.014540315
0.02670741
0.018185616
0.002575636
0.005393386
-0.0010942221
0.015038013
0.0149225
-0.004681945
0.019837618
-0.00028574467
0.012800455
0.012915611
0.007802844
-0.0029884577
0.014269948
0.008932114
0.009388089
0.0152077675
0.007113099
0.015146017
-0.002003193
0.0052206516
-0.0009473562
0.008514404
-0.010484934
0.003436327
0.009567261
0.007419467
0.0016918182
0.013563395
0.009334803
0.0032821894
0.0065044165
0.00094103813
-0.008586407
-0.001778245
0.014531732
0.0039559603
0.0037333965
0.016926765
0.01150763
0.006174445
0.01743865
0.002852559
0.010869503
0.032592893
0.00016665459
0.010845423
-0.003999114
0.014167309
0.0020457506
0.0015771389
0.0028648376
0.017667651
0.0010290146
0.00019347668
0.0073678493
0.020353913
0.009818912
0.022722721
0.01252532
0.0114963055
0.0036952496
0.013364673
0.013097286
0.0016311407
-0.00055217743
-0.0013445616
0.007062793
-0.00066041946
0.0036199093
0.012148142
0.024361968
0.0066450834
0.0051715374
0.012737632
0.0052859783
0.02338159
0.005920887
0.0034923553
-0.0028420687
0.019279003
0.024422169
-0.0035322905
0.0052245855
0.0020828247
0.005907178
0.0009355545
-0.0048701763
0.008610725
0.029570103
0.006697297
-0.0063101053
-0.00038135052
-0.018598318
0.006693721
-0.0045562983
-0.002814293
0.012082219
0.007799506
0.011325121
0.0021224022
0.0036110878
-0.0013743639
0.012256384
0.02361381
-0.00480783
0.015372992
0.005158186
0.009248257
0.008538842
0.0010540485
0.005884886
0.005768299
0.0026650429
0.008882999
-0.0015612841
-0.0023425817
0.0050646067
0.012226343
-0.004832864
0.0018908978
-0.009780526
0.013178706
0.0023794174
0.018736959
0.012042165
0.000536561
0.016842127
0.0181638
0.00775671
0.022145748
0.0026779175
0.016723394
0.006445408
0.013511181
0.003047943
0.0034064054
0.02701044
0.004005432
0.0018455982
0.0003618002
0.026496172
0.004731655
0.014381409
0.017813206
0.0053805113
0.0048820972
0.003306985
0.013285756
0.01567614
0.016662478
0.0064070225
-0.001614213
0.0063483715
0.021117568
0.0009663105
0.008874178
0.013862491
-0.008306503
0.016402364
0.019866705
0.0052553415
0.008507848
0.0020262003

0.0056062937
0.0006248951
-0.0004632473
0.029414296
0.013471484
0.0019359589
-0.011831164
0.008783579
0.004177332
0.0012817383
0.023343682
0.007236719
0.005422473
0.0058971643
0.009969473
2.2649765e-05
0.014032841
0.001773715
0.03115356
0.012167573
0.0075107813
0.021684289
-0.00039565563
-0.004458308
0.018526316
0.021919131
0.008456469
0.015222669
-0.0011160374
0.011913657
0.0074492693
0.004585147
0.0064178705
-0.0070533752
0.0052268505
0.01620555
0.010166049
0.013819575
0.02635634
0.0036113262
0.0009086132
0.020587325
-0.007136464
0.0069924593
0.009517908
0.013691664
0.016799927
0.0014390945
-0.0066463947
-0.0036718845
-0.0012243986
0.0016992092
0.0006171465
0.008614659
0.008511186
0.0045797825
0.00094759464
0.007291913
0.008967519
0.0057234764
-0.010082483
0.016864538
0.0026760101
-0.0029562712
0.013546824
0.00027787685
0.016188383
0.0013154745
0.002036333
0.03817308
0.0016615391
0.005508065
0.006120801
-0.001237154
0.0008535385
-0.0013096333
-0.0003709793
0.037750006
-0.0048793554
0.002683878
0.00790751
0.0040961504
0.007881045
0.0055223703
-0.0001950264
0.0024175644
0.0018023252
0.02203393
0.0019228458
-0.0026401281
0.024147272
0.00489676
0.01626873
0.018496633
0.007081747
0.008197784
0.008431315
0.0037424564
-0.00060129166
0.015117049
-0.000682354
0.021184802
0.0010316372
0.00087332726
0.011093855
0.0005841255
0.0047353506
0.0049282312
0.02263546
-0.0047563314
0.00066161156
0.013301849
0.0070192814
0.0029679537
0.001807332
-0.00074732304
-0.0032122135
0.0020782948
6.4611435e-05
0.0057446957
0.010986328
-0.0010572672
0.0015457869
0.0014408827
0.005394459
0.012684822
-0.00056409836
0.00045895576
0.0031764507
-0.0015493631
0.021229863
0.009246707
0.014463663
0.005191207
0.0030093193
-0.00467062
0.016550899
0.015130281
0.00091290474
-0.0018116236
0.011928678
0.025425673
-0.0012352467
-0.0003131628
0.0096206665
0.013126731
0.013549566
-0.0010900497
0.015653133
0.027542949
0.007033944
0.012018323
0.004080415
-0.017167449
0.014785409
-0.0055087805
0.0068507195
-0.0011006594
0.011000752
0.002110362
-0.0028364658
-0.0020788908
0.010926127
0.0012370348
-0.019527555
-0.0016019344
0.00072968006
0.021498322
0.0018242598
-0.004781723
0.0069652796
0.012311935
0.027571797
-0.0011301041
0.014853001
0.006782174
0.008703113
0.010049701
0.014596462
0.018004179
0.006259203
-0.0003386736
0.004245758
0.00022923946
0.007994771
0.006041169
0.005028844
0.01566732
-0.004220724
0.0001232624
0.0039879084
-0.005891323
0.02610457
9.763241e-05
0.012371659
0.009388328
0.008821726
0.002775073
0.006594777
0.019718766
7.915497e-05
-0.008738637
-0.005778551
0.002427578
0.0030072927
-0.00025117397
0.003359437
0.0065193176
0.0022500753
0.02090168
0.0053139925
0.009318948
0.007442713
0.0107063055
0.0061119795
-0.00081157684
0.0077883005
0.011953473
0.006266713
0.014146686
0.0045568943
0.0059337616
0.0058407784
0.011431217
0.020759821
0.016090274
0.006599784
-0.01869309
0.011749625
0.022643566
0.0043184757
0.00014162064
-0.0024061203
0.02033317
0.017428637
0.015094161
0.018990636
-0.0033056736
0.0027279854
0.013901234
-0.00044548512
0.027877808
0.00028526783
0.0024020672
-0.0039960146
0.027258873
0.0025199652
0.002983451
0.0045232773
-0.0022076368
-0.0034242868
0.018447995
0.026086569
0.009566784
0.00829947
-0.0010864735

0.020778656
0.0075194836
-0.00016760826
0.011895657
0.02043891
0.038456917
-0.002531767
0.008251667
-0.016381383
0.0029902458
0.012714386
0.012089014
0.0050315857
0.014050722
0.003998995
0.019193769
0.020965338
0.00430429
-0.001634717
0.011618733
0.01856196
-0.0035067797
0.01783216
0.0026922226
-0.0036141872
-0.013572454
-0.0012729168
-0.010683298
0.007704258
0.014557838
0.024504304
-0.0029827356
0.008522749
0.018802524
-0.023572803
0.022739053
0.00058579445
0.03294909
-0.009865046
-0.010623574
0.003333211
-0.002051115
0.0018651485
0.021922708
-0.036196828
0.00772655
0.013597608
-0.007021308
-0.004131198
-0.0078600645
0.0058443546
0.018670082
0.00043344498
0.014369011
0.009708881
0.0071680546
-0.0005940199
-0.01146543
0.02823317
0.009883642
-0.008523464
0.0124681
0.013868809
0.006476283
0.0048007965
0.0012867451
0.0051910877
0.016923666
-0.00041913986
0.01600337
0.023258328
0.0073189735
-0.002780795
-0.010941863
-0.00940001
-0.0049393177
-0.024374127
0.0062259436
0.008166313
0.0050570965
0.024270177
0.0050679445
0.00918448
0.004279971
0.012279153
0.0034329891
-0.0019944906
-0.00394392
0.033840775
0.0012578964
0.035654783
0.004825592
0.0025565624
0.0021640062
0.0064151287
0.039007545
0.016670704
-0.0038409233
-0.00020825863
-0.006729126
0.0065146685
0.011562467
0.0017001629
0.024149418
0.0077492
0.0053936243
0.004297018
0.022489905
0.011075258
-0.00045394897
-0.006326318
0.011792421
0.0018846989
0.018709779
0.00850153
0.019592881
0.013356447
0.0015823841
0.0016884804
-0.0060538054
-0.0016758442
0.022624493
-0.011967897
-0.011232257
0.023940802
0.0042865276
0.0019028187
0.0025724173
-0.029513001
0.015216231
-0.0060271025
0.03726518
0.008661389
0.019418001
0.0057650805
0.008613467
-0.017477393
-0.0038696527
0.0059634447
0.0055086613
0.004472494
-0.0019029379
0.005800605
-0.005235076
0.019434571
0.008862972
-0.0032184124
0.006326318
0.0096924305
0.0017111301
-0.0019118786
-0.0032289028
-0.004683256
0.008144617
0.012919545
0.0045884848
-0.0023388863
0.0040346384
0.0015906096
-0.0019271374
0.025856256
-0.008442521
0.014199138
-0.0011502504
0.01135385
0.0029717684
0.0016450882
0.024051785
-0.005188346
7.4744225e-05
0.015640736
0.0015231371
-0.013904452
-0.009799242
0.002032876
0.0046132803
0.011490107
-0.0030357838
0.00068223476
0.012740612
0.009726167
0.015791178
0.020490527
0.022210836
0.0016517639
0.027728438
0.017517447
-0.0020244122
0.00048708916
0.03433025
-0.006377578
0.020991445
0.03053689
0.013499141
0.019136071
-0.001555562
0.022360086
-0.0016951561
0.021573186
0.022825241
0.022807837
-0.005023122
-0.02604258
0.007670045
-0.004014373
-0.0016701221
0.007923245
0.0148996115
0.007221222
-0.004108906
0.014151692
0.054600358
0.016246557
0.0067732334
0.018472552
0.017412663
0.012975216
0.00046229362
-0.0011843443
-0.0008531809
-0.004359007
0.030133724
0.0072687864
0.013610244
0.009844303
0.008915782
0.00084114075
0.019587398
0.014015675
0.027344465
-0.0048515797
0.0019735098
0.0062378645
-0.0030822754
-0.017502427
0.011762977
-0.0044391155
0.011479139
0.020509005
0.0126543045
0.0125517845
0.0076299906
0.012530327
-0.00019788742
0.022431016
-0.0056180954
0.017234445
0.01000154
0.0046561956
0.0022630692
0.025701404
0.0077598095
-0.00472486
-0.0028671026
0.012716651
-0.0034970045

-0.0067819357
0.0043706894
0.011106133
0.0050673485
-0.002839923
0.009339929
0.0015238523
-0.0036233664
0.007870555
-9.6678734e-05
0.0010758638
0.00917995
0.0067247152
0.004278302
0.010404944
0.002354145
0.0013768673
-0.0011554956
0.01371479
0.0046038628
-0.0011701584
0.008054018
0.0063132048
-0.002927184
0.004176736
0.0014122725
0.012147188
0.0067504644
0.006162882
-0.012915611
0.0043900013
-0.0010365248
-0.009865522
0.0036082268
0.0028806925
-0.0009849072
0.008889079
0.00016844273
0.005309105
0.012525439
-0.0015460253
-0.0058885813
0.011969209
-0.006275058
0.0011657476
0.005137801
0.0040100813
0.001344204
0.0029889345
-0.015331149
-0.007815003
0.0003991127
-0.00257802
-0.0016827583
0.0048359632
0.007858276
0.008403778
0.003581643
0.0012271404
0.005851984
0.0072057247
0.013833165
-0.004606247
-0.0031548738
-0.0006994009
0.0030988455
-0.0034525394
-0.0077388287
0.004298687
0.010280728
0.010448098
0.013532162
0.0018091202
0.009767532
-0.0039924383
-0.0006581545
0.0068084
0.0011805296
0.0024430752
-0.004219413
0.00075542927
0.0003592968
-0.0028705597
-0.00069212914
0.0038392544
0.0023578405
0.010482073
0.0017367601
0.019150853
0.003990531
-0.0005736351
0.003780961
0.00067305565
0.001115799
0.0002272129
-0.0060425997
0.0042039156
0.0062633753
0.006349325
0.0018820763
-0.002499938
0.008618474
0.0014526844
-0.005416155
0.016036272
0.0030833483
0.000890255
0.0033516884
0.010358095
0.006661296
0.008499742
-0.0040746927
-0.0085452795
0.012264609
0.0023027658
0.0028703213
0.006082654
0.0017701387
-0.00045371056
0.0033228397
0.006721258
-0.009507537
0.024692416
-0.002163887
0.011215687
0.012831569
0.001087904
0.0017585754
-0.0025157928
0.0074082613
-0.0052295923
0.0075649023
0.009144902
-0.009191155
0.00043809414
0.004062295
0.008069992
0.010867
0.010516524
0.0016713142
-0.0074664354
-0.002618432
0.010230899
0.0030212402
-0.0034633875
0.00059080124
0.0023089647
0.0006098747
0.007073283
0.0104727745
5.352497e-05
0.006045699
-0.0018377304
0.013550043
-0.0012969971
0.013110042
-0.001401186
-0.0016343594
0.009591937
-0.004589796
0.013335228
-0.0014361143
-0.007128954
0.0025311708
0.007038951
-0.0047568083
0.009879231
-0.0022302866
0.0085942745
-0.0021585226
0.010975957
0.0028580427
0.015074015
0.007577181
0.003011942
-0.007912636
0.0056277514
-0.0013972521
0.0037044287
0.0065567493
0.00083613396
-0.0015028715
-0.0024787188
0.01040411
0.013197541
-0.001019597
0.0009204149
0.011057258
-0.0021424294
-0.0005685091
-0.0001591444
0.0011711121
0.0056091547
0.0011717081
0.0046747923
-0.0005880594
-0.0015285015
0.0043256283
0.0047757626
0.010162711
0.00085544586
0.0034575462
0.000223279
-0.00013911724
-2.360344e-05
-0.00016832352
0.010867834
0.008010745
0.0018490553
0.017559767
0.006449461
-0.004981518
0.014631748
0.01576364
0.0025533438
0.010101199
0.01289618
0.00043714046
0.0041103363
0.02046585
0.0033534765
0.008998871
-0.0013734102
0.0024194717
0.0012385845
0.0053625107
0.0055764914
-0.0018624067
-0.00023651123
0.010934114
-0.0019296408
0.0017193556
0.008246899
-0.0019450188
0.0045206547
0.013050556
0.0032957792
0.013949037
-0.0011377335
-0.0048394203
0.0074124336
0.0011843443
0.016349316
0.005642295
0.006244898
0.007597089
0.004490733
0.004264593
0.005734682
-0.010917425
-0.012385726
0.00464952
0.0032135248
0.003925562
-0.0062355995
0.013635397
-0.0024613142
0.0027292967
0.011880994
-0.003926158
-0.009194016
-0.002465248
0.010774732
-0.009543896
-0.0011146069
0.0032821894
0.0022859573
0.0097385645
0.004601717
-0.0068751574
-0.0028582811
0.013897896
0.0012872219
0.0034558773
0.0072146654
-0.011825442
0.008855939
0.011309028
0.0070741177
0.0048342943
0.020792484
0.007692814
-0.0027692318
0.00698781
0.008235097
0.009449005
-0.0019669533
0.0065562725
-0.007648349
-0.006989956
-0.007956505
0.004966259
0.0036000013
0.013830304
0.010114193
0.0048520565
0.0025185347
0.017791986
0.0012987852
0.0026848316
0.008113861
0.0086814165
-0.0023053885
0.0009614229
0.00035464764
0.006000519
0.0029031038
-0.006118655
0.0037072897
-0.0010780096
0.00078701973
0.008865118
-0.0058078766
0.003491044
-0.0020606518
0.009654641
-0.0051465034
0.0006542206
-8.4519386e-05
0.009961486
0.011790752
0.00808537
0.0016686916
0.0028157234
0.0045911074
-0.010289669
-0.00025188923
0.0056803226
0.0046372414
-0.0074602365
-0.0015084743
0.0041822195
0.0014301538
0.010998845
-0.0050370693
-0.00016343594
0.00043797493
0.0056661367
0.00017046928
0.001175642
0.0011402369
0.00013327599
0.0065209866
-0.010673761
0.0027594566
0.0013645887
0.0128211975
0.0043126345
0.009725213
-0.0005106926
-0.00061929226
0.003172636
0.009070635
-0.008880973
0.0060356855
0.0016224384
0.001636982
-0.0016936064
-0.001244545
0.005032778
9.775162e-05
0.006548047
0.0011066198
0.016028643
0.01290071
-0.011618853
0.0012249947
0.010068536
0.0057975054
0.0232414
0.006297946
-0.007928491
0.0059922934
-0.00096797943
-0.0018242598
-0.001846075
0.0111602545
0.010702729
-0.0011197329
0.00019216537
-0.000467062
0.004341483
0.005596876
0.0052388906
-0.005478978
-0.013715744
0.010306716
-0.0022683144
0.0075562
0.003273964
0.017052412
0.007356882
-0.0036133528
0.016751528
0.009488225
0.0056636333
0.0070500374
0.0075119734
0.005593896
-0.00019001961
-0.0033425093
-0.0023624897
-0.004049897
0.0054963827
-0.0009306669
-0.0014512539
0.011810422
-0.0015698671
0.001147747
-0.00092089176
0.001205802
-0.006119132
-0.008817196
0.0069339275
0.005227804
0.011682391
0.005347371
0.0029418468
-0.0022699833
0.02745843
0.007128954
0.006268859
-0.00068318844
0.012186408
-0.0006402731
0.013918996
-0.005272627
0.01335454
-0.0025086403
0.010071516
0.004198909
0.0026701689
0.004096985
0.003569007
0.02408564
-0.0010861158
-0.004234314
0.0031028986
0.01057148
0.00023674965
-0.00051152706
0.003175974
0.010947347
0.00015473366
0.0017689466
0.0015722513
0.008500457
0.011421084
0.0016287565
-0.0005195141
-0.000305295
0.00014984608
-0.01490593
0.0021343231
0.0144507885
-2.8014183e-05
0.008996606
0.010931134
0.0011805296
-0.0002516508
-0.00020813942
-0.009308934
0.010211945
0.011770248
-0.0023504496
-0.0022432804
-0.0003093481
0.00846076
0.0019528866
0.00034046173
0.010551691
0.00034832954
0.0057296753
0.010995269
0.010103464
0.0075997114
-0.005885005
-0.0008637905
0.0025513172
0.007091403
0.0068107843
0.012883425
-0.000710845
0.0032327175
0.0049568415
0.0076693296
0.008320332
-0.008630037
0.010672569
-0.0009851456
-0.0019170046
0.013746977
0.0023548603
0.004928708
0.0064240694
0.0008534193
0.012082934
-0.00030851364
0.004956007
-0.005766034
0.005290985
0.00923872
0.007454753
0.015718222
0.0006221533
-0.0010998249
0.0065494776
-0.0017627478
-0.0041954517
0.003983259
0.011671305
0.020972967

0.0032055378
-0.0008519888
-0.00082194805
-0.0024906397
-0.000623703
-0.00139606
0.00035345554
0.008467674
0.007032752
0.009068847
-0.0034345388
-0.0016733408
-0.0056027174
-0.00051271915
0.022309303
0.0066245794
0.00706625
0.010535002
-0.012693644
0.000875473
0.009509325
-0.0003838539
0.0042825937
0.0016188622
-0.0011233091
0.008937955
0.006001711
0.01741314
-0.003232479
0.010558486
0.00775826
-0.0011812449
0.008898139
-0.000710845
0.00030636787
-0.0005632639
-0.0008816719
0.006629348
0.012174606
0.0031336546
0.0024826527
0.00274539
0.007824302
-0.0022565126
0.0032482147
-0.0027433634
0.013784885
-0.002896428
0.006915927
0.012883663
-0.009309173
-0.0022467375
0.0069761276
0.003286004
0.00736475
-0.0059279203
0.010603547
0.0037300587
0.0018378496
-0.0038762093
-2.861023e-06
0.001129508
0.016109705
0.002538681
0.006835699
-0.0015090704
0.007035017
-0.0008510351
0.008058786
0.0049409866
-0.00091540813
0.016469836
0.012406826
0.0070997477
0.006123185
-0.00048971176
-0.005517006
0.0047802925
0.004238367
-0.0007094145
-0.0014628172
0.0056837797
-0.0013750792
0.0029307604
0.008875251
-0.0006722212
0.0010944605
-0.007767439
0.013541579
0.012823224
0.013380647
0.004841566
-0.0010589361
0.008674145
0.0012351274
0.0014660358
0.0016149282
-0.00038862228
0.00402689
-0.002102971
-0.00060749054
0.007140875
-0.0038160086
-0.004356742
0.008037686
0.008023143
-0.001855731
0.0040266514
0.0025417805
0.0067994595
-0.002261877
0.0016719103
0.006026745
0.00027036667
0.0039117336
0.0072253942
0.019711971
-0.00124228
0.011005521
0.0012587309
0.0029051304
0.0025554895
0.004831314
0.007522583
0.0014075041
0.0011179447
0.0028190613
0.003887415
0.0011759996
0.0019443035
0.006387353
-0.0071880817
0.008977532
8.1419945e-05
0.0048003197
-0.0010095835
0.014732242
0.0017092228
0.0048640966
-0.0005168915
-0.00070250034
-0.00022804737
-0.0028413534
0.009692311
0.0012965202
-0.0018485785
0.002603531
0.0011826754
-0.0024510622
-0.012367606
0.0014116764
-0.0014021397
0.004814148
0.0036469698
0.0029410124
0.00740242
0.0012437105
0.0016589165
-0.0015307665
0.0028948784
0.0094867945
0.0069127083
0.0015143156
0.008269668
0.0046150684
-0.00012671947
-0.0005142689
0.0014520884
-0.0040462017
0.0016713142
0.013046861
0.01768434
0.0014619827
0.0061249733
0.0014196634
0.0033318996
-3.707409e-05
-0.00023436546
-0.0001705885
-0.0012277365
9.441376e-05
-0.0015701056
0.006634474
-0.00637269
0.0019298792
0.0021915436
-0.0016213655
0.011358857
-0.0019438267
-0.0015115738
0.007384777
-0.0017797947
0.0018173456
0.0013260841
0.010887146
0.011434317
0.0018573999
0.0017067194
0.010895848
0.004448414
0.0048936605
0.00375247
-0.00014984608
0.0011525154
0.010517478
0.014208317
0.0048413277
0.00010597706
0.0036143064
0.0007790327
0.026694655
-0.0044389963
0.0072128773
0.008832812
0.009064913
0.0052529573
-0.0017710924
0.013837218
0.016049504
-0.0037790537
0.00490129
0.0024831295
0.007291436
0.00492239
0.0040682554
-0.0016782284
-0.0011667013
0.0024061203
0.003169775
0.0042620897
0.00070130825
0.0021806955
0.0014642477
-0.0010188818
-0.0019429922
0.0038597584
0.012616754
-0.0014152527
-0.006283045
0.0032215118
0.003384471
0.004127741
0.0076869726
0.004453182
0.003249526
0.013918281
-0.0012387037
-0.0005874634
0.0009897947
0.010762811
0.0021551847
0.00059342384
0.012511611
0.0022598505
0.00042581558
0.00026714802
0.003044486
-0.0046488047
0.00039994717
0.005858779
0.009817243
-0.005086899
0.002954483
0.005973935
-0.00046944618
-0.00087833405
-0.004737258
0.006021619
0.0019052029
0.0040284395
0.0022987127
0.0056267977
0.0036914349
-0.002208352
-0.007596493
0.0054883957
0.018216014
0.009780526
0.0047602654
0.005236864
0.012129068
0.0071718693
0.008060694
-0.0041092634
0.009159207
-0.00061917305
0.001229167
0.016414762
-0.00065612793
0.0022027493
0.0019311905
0.00062072277
0.014070153
0.0038119555
0.0028742552
0.0031980276
-0.00039672852
-0.0005168915
2.1219254e-05
-0.0010700226
0.012380958
0.0017175674
0.00035119057
0.013054252
0.00671947
0.00012242794
0.0062561035
-0.000121474266
0.0020478964
0.00067317486
0.0012110472
0.0029771328
0.0017722845
0.008410573
0.0021563768
-0.0018588305
-0.009413242
0.00412941
0.0005438328
0.0020176172
0.00065875053
-0.009553552
0.007989049
0.003004551
0.010421395
0.0047221184
-0.0015404224
0.011408687
0.007135272
0.0013012886
-0.0009739399
0.005512595
-0.002323985
0.0021241903
0.005627036
0.0031577349
0.0031667948
0.00082564354
0.0057895184
0.008113146
0.008398056
-0.00041759014
0.005948305
-0.0004312992
-0.0074528456
0.0034060478
0.007780671
0.0012392998
0.0011214018
0.004762292
0.0045080185
0.0073952675
-0.0010484457
-0.0062162876
0.003037095
0.008471847
-0.0018151999
0.002338767
0.0015614033
0.0077604055
0.0065152645
-0.0008419752
-0.0035550594
0.0063586235
0.015231609
0.00096929073
0.002470255
0.006922126
0.003242612
0.002564311
-0.006608367
0.0058920383
0.014879346
0.0090254545
0.0010691881
-0.0017563105
0.011798024
0.009159327
0.0049636364
0.005404711
-0.0020803213
-0.003213048
0.009705901
0.0114142895
0.015366435
-0.0044335127
-0.0013151169
0.014576197
0.009914517
0.00020313263
0.0065208673
-0.0074932575
0.0062327385
0.0034960508
0.0046100616
0.007320285
0.014840603
-0.0006799698
0.00076031685
0.00244236
0.001488924
0.007930636
-0.0011198521
0.010892391
0.0038200617
0.00069344044
-0.0066022873
0.0031089783
0.010257006
0.006829381
0.0044612885
0.007841349
0.0028984547
0.0072005987
0.0009635687
0.0073803663
-0.0005245209
0.005072832
0.0013433695
0.0056478977
0.0031496286
0.010060668
-0.0033893585
0.010713935
-0.00085151196
0.008474231
0.00013780594
0.007933497
0.014851451
0.005857706
0.016349435
-0.0010515451
0.0012800694
-0.002583027
-0.0036079884
0.016798377
0.0028723478
0.0016585588
0.011407852
-0.006478071
0.0008678436
0.0056921244
0.013463974
0.009331703
0.002663374
-0.0006982088
0.0042840242
0.0005940199
-0.007611394
-0.005954623
-0.00025641918
0.00861752
-0.0012595654
0.005010605
-9.047985e-05
0.0009742975
0.0015677214
-0.0009250641
0.0010972023
0.004220009
0.0025269985
0.0005246401
0.0025116205
-0.0005182028
0.0041419268
0.0074142218
0.0027017593
0.0024305582
-0.0067743063
0.0059939623
0.0036774874
0.0029628277
-0.0016537905
0.00736022
-0.002967
0.006751895
0.0039327145
0.004966855
0.0026150942
0.0019745827
0.0033842325
0.0014690161
0.0005797148
-0.00085401535
0.008764744
-0.0017637014
0.0038468838
0.0056084394
0.0054717064
0.0015152693
0.007898569
0.0009925365
0.0103747845
0.004003525
0.00027763844
0.01196897
-0.0036094189
0.01106298
0.010613203
-0.0003297329
-0.0022640228
0.0015897751
-0.0021480322
-0.0017617941
0.0041992664
0.011593223
0.0021318197
0.006264329
0.0023872852
-0.009749413
0.0037328005
0.00047016144

0.006885767
-0.0009562969
0.007021904
0.014940262
-0.0017392635
0.009000063
0.00047779083
-0.0012978315
0.012298226
0.0014331341
0.0024243593
-0.00090682507
-0.0024985075
0.005228877
0.0066559315
-0.00030231476
0.0062172413
0.009796262
0.0026003122
0.0049911737
0.020404816
0.007271886
0.0047866106
0.006646633
0.0073213577
0.0069277287
0.0051221848
0.0075769424
0.0041646957
0.001026392
0.0018905401
-0.0023860931
0.0020028353
0.010014892
-0.00033593178
0.0002975464
0.002063036
0.0070302486
0.0020046234
0.0066815615
0.00096952915
0.032223105
0.0015990734
0.0038142204
0.0027620792
0.0020719767
0.0024234056
-0.010881305
0.0030525923
0.014755011
0.00037622452
0.0011460781
-0.0007084608
0.020771146
0.002192378
-0.0028009415
-0.0024785995
-0.0027071238
-8.46386e-06
0.0035022497
0.0022733212
-0.00016117096
-0.0027580261
0.0077821016
-0.0013902187
-0.0015666485
0.004346013
0.002141714
0.005386591
0.0062320232
0.002104044
0.0008813143
0.002065897
0.0029798746
0.00039291382
0.00084483624
0.00048804283
0.007584691
0.005619645
0.008365154
0.00058948994
0.00084352493
-0.000975132
0.008048296
0.00095427036
-0.00025987625
0.005273342
0.009203672
0.008918762
0.0054084063
0.0029531717
0.011833668
0.00885582
0.008194327
0.0021082163
0.0064992905
-0.0013116598
0.01000452
0.0038411617
-0.0025613308
-0.00043475628
0.0015525818
0.00048589706
0.0022895336
0.0038052797
0.0020184517
-0.0005053282
-0.0013308525
0.0057270527
0.0025668144
-0.0034775734
0.004263878
0.0046982765
0.0027730465
0.0033946037
0.0025013685
0.00483799
0.0062862635
-8.356571e-05
0.0023952723
-0.00068056583
-0.0019146204
0.0032333136
0.0043257475
-0.004545927
0.0029364824
0.002494216
0.00054848194
0.007918239
-0.0036586523
0.009068251
-0.0045073032
0.0015361309
-0.00094771385
0.003812313
0.0012698174
0.0020282269
0.006771803
-0.00039708614
0.022210836
0.01287663
0.00058341026
0.0056518316
-0.0016994476
-0.0027873516
0.0013263226
0.001500845
0.0029604435
0.0096001625
-0.003402114
-0.0040112734
-0.0041077137
0.0018324852
0.00096333027
0.0058637857
0.004303217
-0.000603199
-0.0012090206
-0.0011290312
0.00686872
-0.001613617
0.00041151047
0.007072091
0.0070313215
0.0029711723
0.0019415617
-2.4676323e-05
-0.00039112568
0.0044116974
0.000685215
0.013336897
0.004591584
0.0020965338
0.004222393
0.0035446882
0.006517172
-0.00029671192
0.003501892
0.0027561188
0.0005899668
-1.5974045e-05
0.0073213577
0.0050565004
0.005782485
0.00097227097
0.007608533
0.0028207302
0.0054416656
-0.0022490025
0.0005812645
0.0040148497
0.0019104481
0.00861001
0.0025484562
0.0065364838
0.0060242414
0.0030009747
0.0066474676
0.0020678043
0.002482295
0.003092289
0.012472868
0.0023150444
-0.0016109943
0.0016753674
0.0036050081
0.0029821396
0.0014077425
-0.0006263256
0.008277297
0.0022146702
0.0022878647
0.0042868853
-0.0051493645
0.018940568
0.0048674345
0.0075736046
0.0030314922
0.008627653
0.00092709064
0.0012030602
1.8835068e-05
0.0007107258
-0.0016402006
0.0081784725
0.005767107
0.001937151
0.023615956
-0.0013347864
-0.000700593
0.010679603
0.0045911074
0.0047900677
0.011686802
0.00024938583
0.00077807903
0.0012141466
-0.0017980337
0.0027592182
0.0047878027
0.00053322315
-0.0034794807
4.6372414e-05
0.00039601326
0.0019447803
0.0012181997
0.00909853
0.0030813217
0.006674409
0.0017935038
-0.0020992756
0.0057418346
0.007657051
0.0060372353
0.002192974
-0.0032974482
0.0017261505
0.028368473
0.003211856
0.0040026903
0.00028419495
0.0009725094
0.006848097
0.0012102127
0.0051249266
0.0015711784
-0.00016009808
0.0033589602
0.0027914047
0.0024604797
0.0047433376
0.0009820461
-0.0010807514
0.0023337603
0.0006034374
0.00025570393
0.0074267387
0.012098312
0.0020689964
0.0071696043
0.0066503286
0.008273959
0.0059509277
-0.0010447502
-0.0022566319
-0.0006877184
0.00074005127
0.011692405
0.0007673502
0.0030157566
0.000857234
0.0056447983
0.005824685
0.0007046461
0.0030229092
-0.0005764961
0.0041874647
0.0012228489
-0.0004502535
0.0029165745
0.0010352135
0.0031505823
0.010655522
-0.0007184744
0.0072835684
-0.0010018349
-0.0027689934
0.0013529062
0.009092927
0.00093340874
0.0031985044
-0.00021803379
0.0017472506
0.003701806
0.0011628866
-0.00032877922
0.0058988333
0.0009434223
0.0031824112
-0.0011562109
0.011271954
0.000695467
0.0005323887
0.0044516325
0.0015628338
-0.0018897057
-0.0021572113
0.0038321018
0.0037115812
0.004103422
0.00031018257
-0.0016384125
-0.0018899441
0.0027270317
0.0006697178
-0.0015903711
0.0046555996
0.0028662682
0.007299781
-0.00020432472
-0.002845645
0.002413988
0.0015472174
0.0023497343
-0.0030237436
0.00097203255
0.0030187368
0.0034936666
-0.0004837513
0.004868269
0.00584507
0.0024347305
-0.0014941692
0.0052496195
0.0025150776
0.01056087
0.0028717518
0.0024647713
0.007932901
0.00045013428
0.0032149553
0.003842473
0.004549861
0.0011953115
0.0060020685
-2.8371811e-05
0.00317204
0.0071059465
-0.0001924038
0.004615426
0.0062828064
-0.0020582676
0.0015704632
0.00017499924
0.012741804
0.004161358
0.0058721304
0.002505064
-0.0013179779
0.0006958246
0.0079551935
0.006326914
0.006367922
0.008062601
-0.0008263588
0.0002552271
0.015433073
0.0069947243
0.006242037
0.00017035007
-0.0013469458
-0.00031518936
0.0071491003
-0.00022804737
0.01430738
0.008779168
-0.0025343895
0.0004746914
0.0028547049
0.0070225
0.009129047
0.0012277365
0.0024220943
0.0008665323
0.0028083324
0.0017880201
0.00049865246
-0.0006147623
0.014182687
0.00094139576
0.0028373003
0.010368347
0.008160591
0.003946185
0.0027565956
0.002893567
0.0040038824
0.004318714
0.0035027266
0.0009428263
0.00060904026
0.0036863089
0.0039794445
-0.000118136406
-5.865097e-05
0.0072208643
0.009487987
0.014110804
7.581711e-05
0.0030754805
0.0017081499
0.0070984364
0.0012845993
-0.00022852421
0.012726188
0.003556013
0.011606932
0.0012071133
0.003332138
1.859665e-05
0.00671494
0.006747961
0.0024574995
0.0047234297
0.006724477
0.009506702
0.007793188
0.004290104
-0.002049327
0.0009468794
0.003903389
0.017259002
0.006180048
-0.0033892393
-0.002654314
0.0038734674
0.0015100241
0.012006044
0.004626751
-0.004068613
-0.004422426
0.004960656
0.0013529062
0.006551385
0.004405737
-0.0017896891
0.0044710636
-0.0013490915
0.0041627884
-0.000895977
0.004419923
0.00078082085
0.0031459332
0.0018638372
-0.0016851425
-0.00026905537
0.009242177
0.0054819584
-0.006069064
0.0041548014
-0.00066304207
0.015227556
0.0019059181
0.008821726
-0.00094497204
0.0064712763
-0.0033745766
0.0009797812
8.606911e-05
-0.002626419
0.005960226
-0.0014892817
0.021316886
0.003296733
0.00041353703
0.0008864403
0.003088951
0.013513207
0.0030133724
0.010713458
0.0057138205
0.0026922226
-0.0015380383
0.0075056553
0.0019741058
0.0037802458
0.0025525093
0.000626564
0.0023109913
-0.005543232
-0.0021146536
0.008886099

0.009592414
0.0018197298
0.005201459
0.006738901
0.008836627
0.004938364
0.0110554695
0.0040016174
0.0063233376
0.0045187473
0.003597498
0.0025244951
-1.9073486e-05
-0.0002976656
-0.0007611513
0.00093221664
0.0014920235
0.0034130812
0.005568385
-0.0006277561
0.003026843
0.004623294
0.0073752403
0.0011017323
0.0009547472
0.00017392635
0.004561186
0.0049043894
0.010476828
0.0045751333
0.0053315163
0.004611969
0.0016860962
-0.00037300587
0.00011241436
0.004183769
0.0008609295
0.0017256737
0.0045152903
0.0033038855
0.0011227131
0.0006661415
0.004254937
0.00071167946
0.0024801493
0.0005707741
0.0031735897
-0.001036644
0.0051072836
-0.0015460253
0.0007940531
0.0048080683
0.0025693178
0.005637169
0.0011563301
0.006316304
-0.00018370152
0.013693571
0.009787679
0.005532503
0.0007967949
0.0012511015
0.0034834146
0.0034345388
0.0014876127
0.0009884834
0.0072370768
0.0042766333
0.004376292
0.002029419
0.0046863556
0.01297915
0.0030195713
0.0042979717
0.000903368
0.00095689297
0.0045838356
0.0021603107
0.003064394
0.00056636333
0.0025917292
0.001775384
0.019247174
-0.0019035339
0.00021362305
0.0011950731
-0.00035977364
-5.1021576e-05
0.0099895
0.004070401
0.0004117489
0.002677679
0.0019813776
0.0024377108
0.00026881695
0.0013660192
0.002810955
0.0022499561
0.0038918257
0.0001552105
0.011538982
0.00015950203
0.0009878874
-0.0004274845
0.001715064
0.0052011013
0.002545476
0.00054728985
0.008821368
-0.0005351305
0.003915429
2.3722649e-05
0.0007754564
0.004519701
0.0016671419
0.0019789934
0.0010778904
0.00083744526
0.010760784
0.000749588
0.0067971945
0.0024783611
-0.00075542927
0.000538826
0.007750869
0.0018694401
0.00553298
0.0049117804
0.0030491352
0.0014594793
0.0046554804
0.02131331
0.001775384
0.012765646
0.0007022619
-0.0004734993
0.0044790506
0.0018999577
0.007999539
0.0011993647
0.0022556782
0.002734661
0.00398612
0.0056055784
0.008266807
6.568432e-05
6.687641e-05
-0.0008736849
0.0013716221
0.0030673742
0.00043344498
0.007326007
0.0051180124
0.0081954
-9.191036e-05
0.0055511
0.002434492
0.007942438
0.0009826422
0.000625968
0.0016367435
-0.00058698654
0.0033231974
-0.0008071661
-0.00013458729
0.002866745
0.005216956
0.00791347
0.006221652
0.00048542023
0.00043988228
0.0040602684
0.0021514893
0.00077295303
0.004744172
-0.0007892847
0.0044538975
-0.0007477999
0.002330184
0.00051534176
0.0032538176
0.005461931
0.00496912
0.003960848
0.0028891563
0.0049443245
0.0036867857
0.001954317
0.0057383776
0.0042812824
0.0035905838
0.0030492544
0.007986903
0.003317237
0.003905058
0.0016635656
0.0042960644
0.005144
0.003130436
0.016000628
0.0037543774
0.0029399395
-0.00014388561
0.0039982796
0.0058578253
0.0013207197
0.0071829557
0.0036631823
0.0021576881
0.002566576
0.0008533001
0.0071852207
0.0017439127
0.0019698143
0.008909225
0.006619096
-0.00035893917
0.0032593012
0.00050497055
0.017745495
0.011895299
-0.0018401146
0.00059342384
0.0008341074
0.0051766634
0.0033934116
0.0009989738
-0.000364542
0.0005726814
0.00062298775
-0.0011204481
0.009503722
0.003386736
0.0023322105
0.0014339685
0.0026289225
0.001327157
0.00092446804
0.00095939636
0.0069437027
0.0012199879
0.0014619827
0.006427169
0.00018882751
0.0022069216
0.005392194
0.0017684698
0.0056090355
-0.00031971931
0.0008301735
-0.00088226795
0.0032538176
0.009016991
0.0031067133
0.0040581226
-0.0002297163
-7.426739e-05
0.0026749372
0.0014234781
0.0017758608
0.0014817715
-0.00037920475
-9.88245e-05
0.0018337965
0.0043791533
0.0011464357
0.00023591518
0.004534602
0.0023469925
0.005466461
0.014898419
0.003589511
0.0044469833
-0.0005083084
-0.00043320656
0.007712841
0.0036896467
0.0035995245
-0.00016868114
0.00086402893
0.00085806847
0.0015698671
0.0014407635
0.011856794
0.0071958303
-0.000787735
-2.0742416e-05
0.00041759014
0.009408951
0.0054246187
0.0034159422
-0.001054287
0.0026254654
0.00957334
0.014358163
0.010370731
0.0028662682
0.00022661686
0.0057492256
0.00073325634
0.00034868717
0.011717081
0.0017061234
0.0060424805
0.004920244
0.004776716
0.0018341541
0.0031375885
0.0024477243
0.0030299425
0.0048258305
0.008685589
0.0073838234
-0.000988841
0.0016809702
0.005690694
0.009224653
0.014239311
-0.00028002262
0.001807332
0.001262188
0.00020980835
-0.0003335476
0.0083578825
0.0028066635
0.0036616325
0.0036324263
0.0006108284
0.00086283684
0.011406183
0.001347661
0.00017046928
0.007098913
0.0008325577
0.0030310154
-0.000254035
0.0035247803
0.00032687187
0.0027393103
0.001129508
0.00336802
0.011915207
0.0067983866
6.878376e-05
0.0027070045
0.0041624308
0.0035569668
4.4584274e-05
-0.00085544586
0.0014582872
0.0022330284
-4.0650368e-05
0.0004003048
0.003888607
0.013594866
0.010491252
0.007499695
0.006562352
-0.00025486946
0.0005503893
0.0038241148
0.001339674
0.0010433197
-0.0014740229
0.00017881393
0.010527849
0.006005645
0.0063364506
-0.00036132336
0.002870798
0.0042283535
0.008495092
0.0008970499
0.0051426888
0.0029239655
0.0065534115
0.013435721
0.0019237995
0.0030003786
0.0018510818
0.00048840046
0.0096081495
0.013251662
0.0009806156
-0.00061655045
0.009097815
-0.00075125694
0.0023431778
0.005464673
0.0027513504
0.0031075478
0.007183552
0.0033550262
0.005559683
0.0060703754
-0.00047647953
0.006908655
0.007213831
0.0033955574
0.0029906034
0.0023497343
0.00023555756
0.0032719374
-0.00048720837
0.006332636
0.0011950731
9.4771385e-05
0.0052018166
0.0010477304
0.0072767735
0.004819751
0.0032423735
0.0028959513
0.0023043156
0.005072117
-0.0006097555
0.0004041195
0.0030171871
0.0024596453
0.00045740604
0.0018597841
0.006274104
-0.0014967918
-0.0007921457
0.0008238554
0.0077807903
0.002491355
0.0043768883
0.0017573833
0.0035971403
0.004401207
0.0007638931
0.001977086
0.0053782463
-0.00027358532
0.0147327185
0.00097215176
0.008357048
0.0019062757
0.00942564
-0.00070011616
-0.00039744377
0.0019494295
0.0018570423
0.0013335943
0.007289052
0.00023829937
0.0012755394
0.008022189
0.0038921833
0.0021326542
0.001018405
0.0032467842
0.0010823011
-0.00057816505
0.00065898895
0.009141922
0.0013093948
6.6280365e-05
0.0014874935
0.005277276
0.00016736984
0.0048196316
0.0009828806
0.0011194944
0.0010994673
0.006299019
0.0042909384
0.0013839006
-0.00149405
0.0016235113
0.001303792
0.005788207
0.0005277395
-0.0005097389
0.0015939474
0.0038778782
0.0036423206
0.0006670952
0.0025696754
0.0021778345
0.0030001402
0.009344101
0.005755782
0.0065745115
0.0006221533
0.00041520596
-0.0009739399
0.0015001297
0.004902959
0.0017472506
0.0008045435
0.0030366182
0.00056767464
0.0039904118
0.0035072565
0.0023554564
0.006393552
0.0012452602
0.0022286177
0.0002603531
0.003550887
0.0045638084
0.0052073
0.0074187517
-0.0004582405
0.005324602
0.0030367374
0.0016738176
-0.0010148287
0.00034093857
0.0016852617

0.006826639
0.0028111935
0.0055652857
0.0070928335
0.0068153143
0.003427744
0.001368165
0.00035333633
0.00011372566
0.0045411587
0.0011544228
0.002668023
0.003047824
0.006542444
0.0038087368
0.004717946
0.0036587715
0.003723383
0.0026807785
0.0029844046
0.0064103603
0.006641507
0.004748702
0.0056880713
0.00447309
0.0072364807
0.0051170588
-0.00021469593
0.0040949583
0.0016790628
0.0063369274
0.000859499
0.002616763
0.0034879446
0.00963819
0.0040570498
0.002281785
0.0011312962
0.0025596619
0.0005836487
0.001483202
0.009995222
0.0034236908
0.0022550821
0.0034399033
0.0087041855
0.00016582012
0.002796054
0.0036902428
0.007990599
0.00017130375
0.0035682917
0.0010370016
0.0023548603
0.0004286766
0.0044107437
0.0005015135
0.004120469
0.0010905266
0.007301688
0.000826478
0.0040438175
0.0020743608
0.0051447153
0.0018738508
0.0035372972
0.0022007227
0.001131773
0.006201029
0.0058624744
0.002639532
0.00093734264
0.004768014
0.002280593
0.0015499592
0.0027151108
0.0014467239
0.00045526028
0.0029081106
0.0062264204
0.009715319
0.0004965067
0.0042111874
0.0039492846
0.008155704
0.0034234524
0.004089117
0.006144285
0.003910184
0.0028829575
0.0056962967
0.00019264221
0.0078035593
0.004637122
0.0039356947
0.0068815947
0.009573698
0.0026392937
0.0013344288
0.0019506216
0.0014951229
8.881092e-05
0.0024142265
0.00034689903
0.0007199049
0.00077199936
0.0008419752
1.21593475e-05
0.006112814
0.0025184155
0.0052890778
0.00267303
0.006429076
0.0039805174
0.008537531
0.0015462637
0.0023678541
0.0015231371
0.0021271706
0.0077968836
0.0011427402
0.0004042387
0.002933979
0.0048844814
0.0024487972
0.0056171417
0.0013203621
0.0038737059
0.0022687912
-0.0005081892
0.0034914017
0.009945393
0.004912734
0.004625559
0.0037207603
0.0023181438
0.005670905
0.0019756556
0.004856229
0.0007857084
0.0027717352
0.009098291
0.004531026
0.0069949627
0.0041890144
0.0036963224
0.0014009476
0.006247163
0.004145026
-0.0001988411
0.0008022785
0.003915429
0.0020301342
0.0060300827
0.0034255981
0.0009770393
0.0018830299
0.0013144016
0.0055482388
0.0004376173
0.004502058
0.005717039
0.0009473562
0.0038545132
0.0052593946
0.0032547712
0.00058043003
0.00525856
0.0011548996
0.0060505867
0.00044858456
-0.00014233589
0.003967762
0.0070044994
0.0029723644
0.00076436996
0.002744913
0.0062111616
0.0055692196
-0.0003746748
0.0008636713
0.003219366
0.0014686584
0.0024670362
0.0023156404
0.0016198158
0.002031684
-5.2452087e-05
0.0054991245
0.0044920444
0.0012346506
0.0071703196
0.0013302565
0.005262375
0.00078737736
0.0052467585
0.001483798
0.004080057
0.0022010803
0.0029082298
0.0056569576
0.00064635277
0.00095129013
0.0007174015
0.0013580322
0.0056819916
0.0035574436
0.0025078058
0.0018422604
0.0035729408
0.004583001
0.003511548
0.0036468506
0.0024511814
0.007063985
0.004013777
0.0039783716
0.0016349554
0.0022263527
0.0030910969
0.0041544437
0.0033642054
0.007915974
0.00093591213
0.00033211708
0.0018565655
0.0029836893
0.0018478632
0.0014885664
0.0023360252
0.0008510351
0.006685853
0.0047279596
0.0008637905
0.00014805794
0.0021054745
0.00040483475
0.0005106926
0.006543517
0.005346656
0.008995295
0.00015985966
0.0036638975
0.0012224913
0.013328791
0.0039402246
0.0021748543
0.003934264
0.0017976761
0.003732562
0.011709452
0.007890105
0.0017966032
0.0040347576
0.0038722754
0.0029734373
0.0025291443
0.0025451183
0.0014768839
0.0032397509
0.0033677816
0.004771471
0.004337549
0.002450347
0.0012439489
0.005223036
0.0024998188
0.0003796816
0.0029753447
0.005480528
0.0024067163
0.0038843155
0.0065305233
0.0018601418
0.011767864
0.0011742115
0.001126051
0.0022683144
0.002382636
0.0014169216
0.0004426241
-8.261204e-05
0.0007764101
0.003559947
0.0014230013
0.0068677664
0.0010350943
0.00068604946
0.0004607439
0.0019313097
0.00018107891
0.0032690763
0.0022500753
0.0046253204
0.003674984
0.00031518936
0.0041342974
0.0007427931
0.0018461943
0.007965684
0.0026452541
6.1392784e-05
0.0017734766
0.00014400482
0.00058209896
0.0018783808
0.0022010803
0.005954504
0.0012303591
0.0023949146
0.008612394
0.004673004
0.00028073788
0.0061864853
0.004422307
0.00546813
0.0023066998
0.005448818
0.0037753582
0.0016462803
0.0049384832
0.0024558306
0.0040123463
0.0041309595
0.002323866
0.0031784773
0.0017927885
0.004443407
0.0032354593
0.005176902
0.0031352043
0.004019499
0.0042437315
0.002024293
0.0010880232
0.0030677319
0.002898097
0.0031740665
0.0026061535
0.0049521923
0.006018877
0.007798791
0.004147649
0.00015890598
0.0028506517
0.0059262514
0.00017762184
0.0023560524
0.0010824203
0.00440979
0.0019717216
0.0064280033
0.004221916
0.004144907
-0.00017356873
0.012997866
0.003084302
0.0004259348
0.0030630827
0.003775835
0.006268859
0.0054912567
0.0035105944
0.0007907152
0.00727582
0.00038719177
0.010851026
0.00024998188
0.00036346912
0.005005121
-2.8729439e-05
0.005710244
0.003901124
0.0031956434
0.0019788742
0.0020241737
0.00022304058
0.0013670921
0.0016642809
0.0057547092
0.0045524836
0.004711032
0.0022906065
0.0020204782
0.0029659271
0.009661555
0.00513041
0.0073797703
0.0048630238
0.0035072565
0.003370285
0.0027827024
0.00017642975
0.0005065203
0.0013787746
0.0006496906
0.0022490025
0.0014718771
0.002282977
0.0015164614
0.008378625
0.0007288456
0.0019313097
0.0045827627
0.0038311481
0.00070774555
0.004074216
0.012562394
0.0032824278
0.00291121
0.0034637451
0.0050325394
0.0045033693
0.0029408932
0.0025277138
0.004937291
0.0064377785
0.0039411783
0.00046133995
0.0019794703
0.0054649115
0.0057150126
0.0075763464
0.0022509098
0.0020397902
0.0017260313
0.0034124851
0.0012319088
0.007033944
0.0006715059
0.0011327267
0.004472971
0.0037748814
0.0022435188
0.0014275312
0.004767537
0.0033904314
0.009553671
0.0028555393
0.0019649267
0.00048673153
0.0025482178
0.004035592
0.0014095306
0.00336802
0.004303336
0.005967617
0.0010012388
0.0027406216
0.00096189976
0.0011937618
0.0019397736
0.00042772293
0.0015765429
0.003955841
-1.513958e-05
0.0013934374
0.004387498
0.0007901192
0.0020160675
0.0050714016
0.001536727
0.00018370152
0.0012054443
0.0024740696
0.0004105568
0.008102298
0.0067374706
0.0025269985
0.0025900602
0.00017046928
0.0020133257
0.0016765594
0.004944563
0.006180167
0.0041127205
-0.0002490282
0.0054160357
0.0011122227
0.0025966167
0.0036658049
0.0016932487
0.0018603802
0.0021699667
0.0025416613
0.007327199
0.0052057505
0.005888939
0.00314641
0.009971738
0.002324462
0.0011336803
0.00093984604
0.0056815147
0.0023463964
0.0031824112
0.0083658695
0.0046191216
0.004075289
0.0014433861
0.0012081861
0.003131628
0.0032271147
0.0037494898
0.0020948648
0.0021231174
0.0018780231
0.0047519207
2.9087067e-05
0.005107403
0.0033545494
-6.735325e-05

0.002863288
-0.00088977814
0.001093626
0.0047506094
0.0036623478
-0.0005893707
0.0039613247
-6.151199e-05
0.004302144
0.00031757355
-0.001152277
0.0048657656
0.0011738539
0.0029814243
0.0010665655
0.002923727
0.0038753748
0.004598975
0.0006364584
0.006383896
0.007836103
0.0066645145
0.0035407543
0.0039948225
0.00076699257
-0.00046813488
0.0029355288
0.004471898
0.0030688047
0.004787326
0.005867839
0.0013349056
0.010818601
0.006067395
0.0016847849
0.007586479
0.0036017895
0.0021953583
0.00048327446
0.0019068718
0.0021358728
0.003263235
0.00904119
0.0007805824
0.0015233755
0.0018849373
0.0046619177
0.0035783052
0.003545165
0.005595684
-0.00052189827
0.00025331974
0.0037522316
0.006794691
0.0029724836
0.004877329
0.0019798279
-0.0007107258
0.0014221668
0.0051333904
-0.0007363558
0.0051808357
0.0020251274
0.003068447
0.00035083294
0.0023134947
0.0010762215
0.004381299
0.0071935654
0.003268361
-0.0005161762
-4.0888786e-05
0.0050542355
0.0012785196
0.0065797567
0.0040843487
0.008066773
0.0007497072
0.00062286854
0.0029366016
0.007093549
0.0030224323
0.0026823282
0.0039765835
0.0021026134
0.015919447
0.0052825212
0.0005209446
0.011162877
0.0013036728
0.00529778
0.00079095364
0.007561326
-0.00045514107
0.001029253
0.0059741735
0.009186029
-0.0013097525
0.001704812
-0.0007289648
-0.00028467178
8.404255e-05
0.005330682
0.0046331882
-0.0004900694
0.0035134554
0.0028383732
-8.392334e-05
0.0021944046
0.00575006
0.0029597282
-0.00067198277
0.00084638596
0.0059947968
0.0020124912
0.0029660463
0.00149405
0.009025335
0.0019353628
0.00014829636
-7.2956085e-05
0.003024459
0.00365448
0.0018877983
0.003932953
0.00050342083
0.0033663511
0.0011081696
0.0013152361
0.001324892
0.010078192
0.00031590462
0.014156342
0.008499026
0.0046652555
0.009949803
0.0017330647
0.0038279295
0.012297988
0.0038570166
0.0048416853
0.00076949596
0.006703377
0.010027051
0.002474904
0.0013358593
0.003353238
0.00088369846
0.005762577
0.0011343956
0.00081443787
0.0015922785
0.0052189827
0.00073587894
0.0028797388
0.0029329062
0.0012286901
0.00080549717
-0.00083625317
0.0003042221
0.0011626482
0.0023753643
3.385544e-05
0.0019316673
0.0012507439
0.004788518
0.0014749765
0.009796858
0.0056638718
0.0027679205
0.001876831
-0.0016263723
0.0026572943
0.0006377697
0.0004581213
-0.0008479357
-0.00016152859
-0.0008329153
0.004614711
0.0072193146
0.0024894476
0.004553795
0.0021532774
0.004772663
-0.0019789934
0.0044904947
0.009231687
0.0034413338
0.0009288788
0.0007303953
0.00069129467
1.8119812e-05
0.002790451
0.01409328
0.0020877123
-0.0003079176
0.004250288
-0.0022704601
0.00024795532
0.0025384426
0.00016605854
-0.00039756298
0.002137065
0.005074501
0.0029649734
0.0035669804
0.00045359135
0.003897667
0.0013575554
0.0012056828
0.0020598173
0.005758643
0.006924629
0.0046266317
0.010453343
0.0052497387
0.0001450777
0.0056034327
-0.00031995773
0.0016841888
0.0033208132
-0.00053679943
0.0029405355
0.0009795427
0.0026839972
0.0010102987
0.001347661
0.0035982132
0.0076828003
0.0029165745
0.0061945915
0.0037347078
0.001961708
-0.0001385212
0.004634857
0.006612301
0.0018390417
0.003820181
0.0011404753
0.007974505
0.0018349886
-2.9921532e-05
0.0012052059
0.0013780594
0.0010281801
0.004846096
0.0022716522
0.0068023205
0.0041673183
0.004658699
-0.0025484562
0.0020177364
0.0025527477
0.0044727325
0.0023835897
0.0011962652
0.0021651983
0.0049738884
0.0013238192
0.00032758713
0.0054214
0.00013625622
0.0017137527
0.0067344904
0.008965135
0.0006958246
0.004314661
0.0021333694
0.0059547424
0.0029367208
-0.0004119873
0.012650371
0.0023690462
0.002313614
0.0012733936
0.01565063
-3.4093857e-05
-0.00012564659
0.0048656464
0.00084006786
0.0047529936
0.004335046
0.0038955212
0.0021193027
0.0014592409
-0.0001937151
0.00047039986
0.001090765
0.008135796
0.006161213
0.003172636
0.0073560476
0.0009251833
0.0027962923
0.00016069412
0.010947585
0.0075577497
0.0011450052
0.003543973
0.0019245148
0.008715272
0.005284667
0.00095903873
0.003093958
0.0029616356
0.0027537346
-4.9948692e-05
0.0094537735
0.0053464174
0.0052593946
0.0039969683
0.0026123524
0.0031739473
0.0019785166
0.0045176744
0.0047824383
0.00069367886
0.0050998926
0.00097572803
0.0008767843
0.010134101
0.0058152676
0.0006637573
0.008741617
0.0028003454
0.003143549
0.0031214952
-0.0005427599
0.0013118982
0.0036525726
0.0026017427
0.0015913248
0.0014679432
0.0013557673
0.0033022165
0.0003401041
0.006067872
0.002691865
0.0027172565
0.0067124367
0.005342126
0.0018293858
0.0036649704
0.00020885468
0.0043365955
0.0039105415
0.006575823
-0.00028979778
0.00030314922
0.0017875433
0.008130193
0.015298486
0.00066304207
6.9499016e-05
-0.00013697147
0.0034940243
0.00024151802
0.0016620159
0.0047500134
0.0039880276
0.0038233995
0.0014579296
0.0003606081
0.003771782
0.0050194263
0.00079369545
0.0020259619
0.001229763
0.0010890961
0.0024698973
0.0025146008
0.0045359135
0.004186511
0.0017545223
0.0039565563
0.0061033964
0.00261724
0.013234615
0.004176855
0.0031696558
0.004711628
0.0008995533
0.0032699108
0.0020365715
0.0034134388
0.0045768023
0.012872815
0.0009727478
0.0054830313
0.007268667
0.003905058
0.0036771297
0.012138963
0.006603718
-0.0005501509
0.004633069
0.016003847
-9.3340874e-05
0.0012128353
0.0034316778
0.00048732758
0.0027552843
0.004047036
0.0033222437
0.0007019043
0.0038564205
0.008786917
-0.00016152859
0.004613161
0.0007674694
0.0023735762
0.004977703
0.0011914968
0.0036165714
0.00019145012
0.0027850866
0.00796783
0.0078024864
0.003717661
0.0013206005
0.0026504993
0.0014865398
0.0008202791
0.005435705
1.6093254e-05
0.0056557655
0.0022021532
0.0039920807
0.0079956055
-4.9471855e-05
0.0003541708
0.0074255466
0.008611202
0.0034304857
0.001837492
0.004082799
8.893013e-05
0.008658648
0.0021867752
0.0032858849
-0.00019526482
0.0076833963
0.00079524517
0.0053334236
0.00060606
0.0046566725
-0.00057554245
0.0072790384
0.0077112913
0.0013246536
0.00578022
0.0032861233
0.0014083385
0.0015692711
0.0020900965
0.0014520884
0.0043525696
0.0050382614
0.011568546
0.004860997
0.0034832954
0.004070759
0.008901596
0.002622366
0.005095482
0.0013612509
0.0028589964
-0.0005455017
0.004191637
0.007893801
0.008943319
0.0061169863
0.0019129515
0.0012335777
0.002319336
0.0024240017
0.0022389889
0.004283428
0.00042533875
0.0042179823
0.0028373003
0.0016239882
-0.00027406216
0.0047667027
0.0017353296
0.011119485
0.0030487776
0.00094509125
0.0042328835
0.004602313
0.007992268
0.0018584728
7.605553e-05
0.0026999712
0.0014674664
0.005352974
0.009300232
0.00016021729
0.0018270016
0.008271694
0.0012184381
0.0016750097
0.013527393
0.0015649796
0.0060476065
0.0037099123
0.0032166243
0.00045502186
0.0023971796
-6.496906e-05
0.0010365248
0.0041983128

0.34577644
0.3558197
0.3014394
0.27505028
0.37828088
0.28589296
0.2952019
0.35934842
0.40839398
0.30543125

