0.124423385
-0.004963517
0.15157783
-0.03463435
0.049035072
0.07239127
0.031923532
0.055462718
0.028208137
0.026074767
0.00034368038
0.0053391457
-0.07088387
0.24631584
0.06665254
0.25551414
0.024918199
0.053418875
0.24242306
0.03964138
-0.00301373
0.041139126
-0.083167315
-0.0076266527
0.05875814
-0.18312919
0.0029301643
0.20069301
0.070987344
-0.04279208
0.06782007
0.04221511
0.00052160025
0.088078976
0.0983454
0.053127766
-0.051367283
0.037914634
0.0439775
0.138461
-0.027379751
0.05566764
-0.06020224
-0.12462306
0.061852455
0.04363978
0.080584645
0.1320107
0.118149996
0.0692271
0.047853112
0.06838012
-0.10001588
0.074392796
0.12627578
0.15850163
0.040222168
0.048185468
0.07428169
0.10608101
0.17276144
-0.010055423
0.09728944
0.067012906

0.031684518
0.028494954
0.16192889
0.1341995
0.07177639
0.06557512
0.026944637
0.04660368
0.017248034
0.065608025
0.079481125
0.08531666
0.011177778
0.007101178
0.038309693
0.1515193
-0.019080043
0.0048258305
0.03618884
0.055439472
-0.030730128
0.039368868
-0.014020205
0.04135418
0.035714507
0.026370883
0.022792578
0.090774536
-0.0029159784
0.041325927
0.010018349
0.021011233
0.088521
0.15240514
0.10038161
0.10452962
-0.038733006
0.08739555
-0.0034536123
-0.003988266
0.051284075
0.11692488
0.13405538
0.017156124
0.08693373
0.2552104
-0.045566797
0.08785641
0.070377946
0.10978496
-0.009856939
0.046997428
0.010667801
0.064876914
0.08963907
0.09170997
0.119096994
-0.024102092
0.03835976
-0.0005335808
0.061669588
0.13471377
0.048638582
-0.06074226

0.02544713
0.08161497
0.01044333
0.010114312
-0.005522728
0.022129416
0.027199864
0.018004894
-0.0050213337
0.019841313
0.039930582
0.07346356
-0.039907932
0.020926714
-0.0021243095
0.061266422
-0.029885411
0.011862516
0.00079500675
0.025597215
0.06401539
0.03680277
0.01589179
0.0053366423
0.008290529
-0.0084126
0.029951453
0.04838574
0.011381388
0.025876403
0.02929008
0.023784995
0.05395639
0.08262503
-0.012496591
0.019342303
-0.0007406473
0.025477767
0.036830068
0.019460678
0.010446072
0.07358003
0.03534496
0.013397336
0.038027763
0.017835021
0.027397156
0.02934277
0.06944013
0.013404369
-0.02696848
0.023138165
0.055238724
0.02693212
0.011602759
-0.0003591776
0.059488654
0.019843817
0.18051255
0.06907129
-0.017825007
0.017957091
0.0039510727
0.014710188
0.024959683
-0.029048443
0.040574312
0.044171453
0.0382483
0.066009045
0.090732336
0.056478024
0.05852866
0.010807633
0.055884838
0.0018062592
0.007908821
0.042849302
0.052618265
0.029992223
0.049767137
-0.005511403
-0.015733838
0.024234414
0.014679551
0.02966702
0.043948174
0.028517604
0.023613334
0.0049250126
0.017233491
0.019239068
0.057473183
0.07473445
0.056734085
0.03296423
-0.0038427114
0.0069191456
-0.00013661385
0.010280013
0.006799102
0.007067561
0.033641815
0.009028196
0.013406515
0.020781994
0.003011465
-0.0064247847
0.025483727
0.005395174
0.00056672096
0.045060635
0.028343678
0.022907376
0.009612322
0.032336593
0.006905794
0.09656894
0.039628744
0.014546275
-0.00475049
0.0955708
0.015070438
-0.00038778782
0.027671099
0.010625839
0.072585225
-0.0006197691

0.006317377
0.0018521547
0.035069704
0.027083755
-0.011885643
0.01218307
0.020095468
0.01103878
0.03759384
-0.007294774
0.02080381
0.05372691
0.022802353
0.010816097
0.022809029
0.0036962032
0.00090169907
-0.0018533468
0.00047528744
0.012148976
0.032196403
0.021209955
0.01459837
0.046643972
-0.019089818
0.0024104118
0.00687027
0.038628817
0.05170524
0.028175116
0.023842812
0.03872204
0.057037473
0.012458563
0.026847601
0.0039821863
0.009672999
0.011147976
0.029520512
0.0054261684
0.015423775
0.035790205
0.015950203
0.052531958
0.010763526
0.04761207
0.1022979
0.024128199
0.085921526
0.005866289
0.03607273
0.053791046
0.01394093
0.03404975
0.0014665127
0.03221357
-0.0012809038
0.02815044
0.016998053
0.04416597
0.059788108
0.06719303
0.094240546
0.061656117
0.08313465
0.015101671
0.031922698
0.044934392
-0.02217114
-0.008100867
0.027498245
0.059554935
0.05338788
0.013497829
0.020406127
0.013179421
0.06535375
0.00496614
0.015019178
-0.0016548634
0.013743877
-0.003286004
-0.00019490719
0.027503371
0.021574616
0.020138264
0.02224052
0.014160037
-0.00092864037
0.043392897
0.0024673939
0.0463171
0.035902023
0.0566957
0.026067615
0.0018378496
0.019028783
0.040281177
-0.0059406757
0.023064733
0.03150928
0.051635504
0.054165006
0.0036551952
-0.00025892258
0.017020226
0.044368505
0.052361727
0.0070858
0.013684869
0.009817004
0.03629303
-0.010308981
-0.008357286
0.10186136
0.068464875
0.02177751
0.017898202
0.035820484
0.030881286
0.00026988983
0.022736192
0.024122477
0.047524452
0.0072282553
0.07157147
0.0649426
0.031023264

0.016614318
0.0044457912
0.013012648
0.036147475
-0.0012118816
0.033925653
0.017603874
0.007894874
0.011739731
0.023607254
0.017854095
0.015141606
0.006479025
0.017338753
-0.014262676
0.0072003603
0.00368011
0.024125457
0.02024746
-0.00035738945
-0.0022898912
0.0039099455
0.00065147877
-0.00972867
0.012908578
0.009453058
-0.015471578
0.010545135
0.029295683
0.011937022
-0.0035336018
0.05634284
0.046017528
0.0023530722
0.0066765547
0.02520144
-0.007409692
0.008077741
0.024292111
0.019300938
-0.014320374
0.009747505
-0.01218164
0.017878652
0.012071252
0.0063197613
0.026694894
0.009789944
0.013187528
0.023002267
0.012687802
0.009436607
0.018064857
0.027330995
0.02112627
0.03085804
0.02057314
-0.022975326
-0.0004069805
0.015140176
0.00938952
0.041785
0.000988245
-0.00025308132
0.031563878
0.026572824
0.024041295
0.0036765337
-0.0038995743
-0.00034487247
0.018934011
0.012793779
0.008215785
-0.011703253
0.015319824
0.017791748
0.02239561
0.007414818
0.042975903
0.005634308
0.028969765
0.011081815
0.007007718
0.0143146515
0.021728635
0.02239728
8.666515e-05
0.0037754774
0.017703414
0.025452614
0.016294241
0.034211636
0.019414067
-0.0023169518
-0.00017416477
0.020574093
0.03417647
0.0073188543
0.019313097
0.017432451
-0.0050555468
0.046032906
0.016450047
0.00071394444
-0.0004092455
0.009740591
0.024391294
0.0009070635
-0.0011153221
0.00030124187
0.015537977
0.03223312
-0.009691715
0.04795468
-0.010814071
0.032193065
0.013725281
0.025050282
0.009994388
0.012344956
0.0008497238
0.020792603
-0.026122212
0.019911408
0.019672751
0.015501618
0.016950488
-0.005810261
0.02953434
-0.0067026615
0.017495155
0.014909983
0.015216589
0.006104946
0.0093081
0.023253798
0.0019800663
-0.0019806623
0.00095641613
-0.0022730827
-0.030807376
0.037332177
0.043230772
-0.031106949
-3.9219856e-05
0.06354523
0.017271042
-0.0060950518
0.031444788
0.049904346
-0.0008546114
0.017489433
0.017961144
0.026525855
0.031370997
-0.013906002
0.0179106
0.025205493
0.032664776
-0.0027403831
0.0021954775
0.0113168955
0.023377538
0.014611721
0.0037338734
0.011996865
-0.010207176
0.041754723
0.00021898746
0.04132092
1.6570091e-05
0.027751803
-0.0025843382
0.026798248
0.00037062168
-0.0010674
0.03271711
0.020711422
0.031688213
0.0064861774
0.025902033
-0.0073519945
0.033405423
0.028473854
0.0101082325
0.0006015301
0.008102059
0.031777382
0.015925884
-0.0026860237
0.003133893
0.0014587641
-0.00078451633
0.00997293
0.0120841265
0.014367819
0.008895278
-0.0019011497
0.012090206
-0.0033880472
0.011960268
-0.00037372112
0.0022830963
0.015250444
0.015758634
0.02323842
0.0033128262
0.025031924
0.01859355
0.03156674
0.005632758
0.044916987
0.008243799
0.021036863
-0.019988537
-0.001098156
0.015914202
0.00013923645
0.010746837
0.0049245358
0.015743494
0.033361077
0.0035448074
0.0053830147
0.0033438206
0.031915426
0.021409035
0.010599732
0.01924038
0.010555148
-0.0013029575
0.02426958
-0.006204009
0.048866272
0.00996232
0.03206134
0.012292981
0.016417027
-0.00510478
0.014208555
0.013774872
0.025495887
0.030371308
-0.0014736652
0.009696484
0.036297917
0.0075269938
0.019122839
0.013521075
0.009896398
0.019157767
-0.0005918741
0.0044395924
0.017366052
0.005788207
0.010737777

0.007907152
0.0075953007
0.008090854
0.015858293
0.007918119
0.033349752
0.00054490566
0.0031952858
0.0062536
0.0039305687
-0.0032898188
0.046775103
0.0037311316
0.0057058334
0.010513544
0.008742094
0.00836432
0.013548613
0.010123134
0.0091689825
0.012884736
0.009502411
-0.020353436
0.011836529
0.08470261
0.011373043
0.01390326
0.013301253
0.039627194
-0.0020813942
0.027593851
0.012524843
0.004557371
0.0012506247
0.039497137
-0.0064269304
0.028488874
0.0030921698
-0.003379941
-0.0009896755
-0.00032687187
0.016282797
0.042170048
0.012520552
0.0021660328
0.019036412
-0.00023019314
0.007814527
0.005163431
0.00324893
-0.00603199
0.02295208
0.00980866
0.021035075
0.045556903
0.015322924
0.012608767
0.027598739
0.030777574
0.009303093
0.015442014
0.0036947727
0.006485224
0.00071930885
0.021271944
0.03603232
0.004269719
0.036830187
-0.010499239
-0.000915885
-0.0028927326
0.018982887
0.026571274
0.00533998
0.026663184
0.025552273
-0.0035227537
0.00067579746
0.053302526
0.0004994869
0.008545995
0.002742529
-0.0082553625
0.0025014877
0.026463151
0.009830117
0.03396368
0.04395783
0.036515594
0.010241032
0.009432554
-0.0037328005
0.0027731657
0.041448474
0.021161199
0.0007702112
-4.208088e-05
0.021182895
0.018504262
0.03144324
0.046004415
0.028825283
0.020145178
0.022614717
0.0059244633
0.008739591
0.024755716
-0.0020142794
0.024055481
0.016202569
0.049194932
-0.018398285
0.004865885
0.011491418
0.0074539185
-0.0003888607
0.0074471235
0.02976346
0.014437079
0.008351922
0.011682034
0.032349467
-0.001440525
0.023342967
-0.006155491
0.020760536
0.009023309
0.0069146156
0.00015568733
0.018760324
0.013630271
0.021910906
-0.0048788786
-0.0023162365
0.017027736
0.009503961
0.01967287
0.007008791
0.00015735626
0.0298239
0.019177794
0.02174437
0.025727391
0.003418088
0.003149271
0.024347663
0.020926118
0.0071709156
-0.001816392
0.020373821
0.031854987
0.035708547
0.055030704
-0.0021915436
0.0068627596
0.017384887
0.014022589
-0.002453804
0.012490392
0.00096297264
0.024101496
0.018183947
0.0016555786
0.0023248196
0.045099735
0.00241673
0.0063017607
-0.0024248362
-0.00417161
0.025655627
0.020638466
0.01070559
-0.004816413
0.007653475
0.005877018
-0.0009254217
0.00817132
0.012331009
0.00037944317
0.007640958
-0.012140989
0.007225275
0.023869157
0.02914524
0.028597236
0.029565215
0.013492823
0.019002438
0.03008151
0.012114048
0.0027588606
-0.00094270706
0.021748304
-0.010285258
-0.00068998337
0.02030468
0.023131847
0.020224214
-0.015363932
-0.003781557
0.034186244
0.0059176683
0.021103263
-0.0006548166
-0.018272758
0.007674575
0.024535656
0.017952919
-0.0038204193
0.01341784
-0.0035823584
0.025940537
0.065968394
-0.0040524006
0.005052328
0.020800233
0.011854172
-0.002297163
0.026129842
0.0150357485
0.01465857
0.025355816
0.01488018
0.010349274
0.00038194656
-0.0026905537
0.023199081
0.0009891987
-0.002045393
0.02058816
0.0030685663
0.022090912
0.023533702
0.012555242
-0.0069339275
0.018889427
0.011835098
0.01878059
0.016789436
0.0151513815
0.012530088
0.017326832
-0.01637292
0.008316159
0.0049096346
0.0056886673
0.026112318
0.0016069412
0.013212085
0.006807089
-0.0076084137
0.026311874
0.0058660507
0.03110087
0.01999402
-0.0003758669

0.055808187
0.004050255
0.025165081
0.017285824
0.015886188
0.022837758
0.021041393
0.027094603
0.0022889376
0.0045645237
0.0022087097
0.012780905
0.011195064
0.019676924
0.06642091
0.035068274
0.030118465
0.011537075
-0.022191405
0.021249175
0.004574895
-0.010259628
0.011317611
-0.0068045855
0.01846528
0.023717403
0.04241264
0.044950962
0.03156793
0.017952204
0.01307559
0.035081267
0.020355344
0.017600179
0.0021152496
0.004175782
0.011119366
0.0073097944
0.0063877106
0.030254126
0.03398776
0.019668698
0.010940909
0.027946472
0.028677821
-0.0027725697
0.02251947
0.032273054
-0.0048599243
0.043866277
-0.00020611286
-0.002190113
0.0060352087
0.004645586
0.005756974
-0.0017025471
-0.016287327
0.010575175
-0.0397954
0.0011959076
0.0021671057
0.038796544
9.870529e-05
0.03677678
0.009883881
0.006009102
0.011486292
0.022477984
0.018674374
0.03893864
-0.0032576323
0.07798815
0.03132391
0.01690495
0.033059955
0.029537916
0.021775603
0.0015645027
0.0028649569
0.027720928
0.0006483793
0.004042268
-0.030697346
0.0028671026
0.0030113459
-0.002871275
0.005268693
0.013988256
0.02156949
0.03788364
0.0076322556
-0.020302534
0.02265954
0.0054267645
0.02369821
0.019850254
0.011640072
-0.0010508299
0.010594964
0.004242301
-0.0020570755
0.019657016
0.035593867
0.002521038
0.021615744
0.035948277
0.019376636
0.033270717
0.027108073
0.038428545
0.017287612
0.0044953823
0.014173031
0.0035905838
0.004311919
0.012398124
0.002202034
-0.0026208162
-0.0030187368
0.027197957
0.0010232925
0.013347983
0.0040431023
0.013284802
-0.0010510683
0.008706212
0.08310771
-0.008191228
0.0005595684
-0.0041401386
0.005189061
0.027371883
-0.013103604
-0.020269752
0.010074735
0.0012090206
0.007920146
-0.018745542
-0.010929227
0.035985112
0.0311203
-0.009058714
-0.02181518
0.022322893
-0.0094332695
0.015522957
-0.024010658
0.0035341978
0.002185583
0.042485237
-0.004437089
0.012661457
-0.0049544573
0.0063023567
0.032815576
0.031523824
0.030203104
0.014797449
0.026474237
0.032972455
0.016592383
0.0009639263
0.0053235292
0.01511085
0.0031461716
0.0034950972
0.004051566
0.027337313
0.01817596
-0.0047978163
-0.007001996
0.039984822
-0.020428061
0.004508853
0.006492257
-0.0089787245
0.03914082
-0.01917231
0.03241253
-0.00049877167
0.003623724
0.011178255
-0.000248909
0.032136798
0.011570215
0.009341717
0.00038707256
0.026435494
0.0052018166
0.04204321
0.008872628
-0.002419114
-0.0031627417
-0.004053831
0.0019023418
0.027659178
0.023802519
-0.011623621
-0.0036375523
0.003526926
-0.024521947
-0.0067065954
0.03465247
0.050380588
0.022541404
0.015221
0.010463715
0.016397715
-0.010292649
0.007347584
0.055197835
0.024895191
-0.00055992603
-0.00012803078
0.01129806
-0.0028015375
0.015080571
-0.007858753
-0.0021612644
0.03290975
0.024828196
0.06842625
0.036813855
0.000101327896
0.04899478
0.0022684336
-0.0016051531
-0.004333496
0.03843677
0.017712474
0.029619932
0.011504412
0.02856791
0.03003633
0.025617003
0.023454905
-0.005892873
0.017856956
0.02018559
-0.0057759285
-0.005187869
0.019542098
0.042811036
0.012674451
0.016970873
-0.00673306
0.016554236
0.025859475
-0.0010113716
0.025403142
-0.00813365
0.019030571
0.012226582
-0.007425189
0.013899326
0.019186497

0.00993228
0.008371711
0.02224183
-0.0073469877
-0.0016103983
0.00485909
0.018769026
-0.0016207695
0.004830599
0.0019589663
0.008245468
-0.019577622
0.0034708977
0.013084173
0.006284833
-0.008722067
0.011725783
0.00799942
-0.001529932
0.017026663
0.004573703
0.026564717
0.0035693645
0.0037546158
-0.0009405613
0.0039064884
0.004526973
-0.0022755861
0.0034310818
0.0044112206
-0.0001784563
0.0004169941
-0.0008277893
-0.00026369095
0.006099105
0.0004698038
0.008326292
0.01094377
0.016379118
-0.0030050278
0.0171628
0.0066211224
-0.004812479
-0.00306499
0.0073224306
0.024285674
0.013810992
0.0041764975
0.010619283
-0.0060890913
0.014980316
0.0072556734
0.007690549
-0.0061051846
0.0038926601
0.007817864
0.0020717382
0.010765672
0.0019147396
0.003938198
0.003109932
-0.0034743547
0.0054632425
0.021011949
0.015713334
-0.010961771
0.0013912916
0.007973194
0.012213588
0.0020405054
0.013403535
0.00023508072
-0.005538225
0.0068876743
0.0052239895
-0.00090014935
0.011212468
0.0020042658
0.006148219
0.00019359589
0.017611265
-0.003205061
-0.003328085
-0.033910632
0.001750946
0.004749894
-0.0002053976
0.01304245
-0.008400202
0.021707892
0.00010597706
0.002917409
0.0012507439
0.0068864822
0.006522417
0.0002670288
0.005021572
-0.00038468838
0.0082986355
0.000967741
0.013031006
0.011956334
0.0015692711
0.006192565
0.019061685
-0.006288886
0.011335015
0.014706492
0.014065981
0.010527134
0.013792634
0.006099224
0.012718797
0.01693046
0.007249832
-0.013941288
0.010290861
0.025580287
0.014631391
0.0053093433
0.005553484
0.006941557
0.0007338524
0.015084386
0.02062869
0.00630033
0.00030076504
0.032257915
0.017997622
0.00058090687
0.000942111
0.014537215
0.0059871674
-0.0035283566
-0.0002411604
0.009194016
0.0021116734
0.00043964386
0.00034987926
0.0055897236
0.012372255
0.0025242567
0.004904151
-0.005800009
0.022236824
0.0038346052
0.014622331
0.014469743
0.021116376
0.013331771
0.00071680546
0.006742716
0.01695478
0.0069681406
0.02107966
0.011406779
0.012256265
0.012890458
-0.0036818981
-0.0076272488
0.0005068779
0.0075695515
-0.00893414
0.025929451
0.002039671
0.0038558245
0.0014255047
-0.014715433
0.01711464
0.019607425
0.017166138
0.0026654005
0.006284237
0.013604164
0.017148852
0.015289545
-0.0028330088
-0.0035328865
0.0034372807
0.010807991
-0.00073611736
-0.004067421
0.012943506
0.008181453
0.008290648
0.0052683353
0.010232925
0.005037546
0.006517768
0.0049960613
-0.0002580881
0.0028853416
0.0004377365
0.005261302
0.0055482388
0.016263008
-0.0053743124
0.0044355392
0.013164997
0.0021147728
0.011777759
0.007811308
-0.008460164
0.005833745
0.0030053854
0.020452142
0.005782485
-0.0022548437
0.0012745857
0.010958552
0.009256244
-0.0043377876
-0.0011630058
0.0011101961
0.024384737
0.017399907
-0.002162218
0.0073621273
0.020126939
0.00935936
0.016885161
0.010679841
0.005289197
0.012772799
0.03269732
0.009879351
-0.0016857386
0.009492636
0.010905504
-0.0015636683
0.018652797
0.003753066
-0.0015472174
0.005126357
0.024528742
0.007832646
0.025527358
-0.013952017
0.022016168
0.0062429905
0.00056123734
-0.0052212477
0.005724907
0.004539609
-0.0031676292
-0.0046442747
0.0032857656
0.0041166544
-0.00066685677
-2.503395e-06
-0.0038474798
0.0030915737
0.0057719946
0.011080503
0.00041091442
0.0052170753
0.017768264
0.0048849583
0.004346013
0.012021661
0.023698568
-0.0020751953
0.015575409
0.012089491
0.0142560005
-0.0062812567
0.013765931
0.0034199953
0.0010699034
-0.009487987
0.024271011
0.0037052631
0.0009864569
0.016173959
0.0080212355
0.007511139
-0.001206398
0.018301249
0.012682557
0.008982658
0.0021110773
0.011066794
-3.159046e-05
-0.00073873997
0.009986043
-0.0033380985
0.01440227
0.0029890537
0.0029805899
0.011905909
-0.002919674
0.012127519
0.005131364
0.004091859
-0.0034645796
0.02101016
-0.0010318756
-3.862381e-05
0.008898854
0.0050462484
0.0046738386
-0.00057554245
0.01949811
0.013765097
0.02333939
-0.0010330677
0.006052017
0.022607446
-0.0017621517
0.009649992
0.006188035
-0.0017291307
-0.005879998
0.012566447
0.012365222
0.015448809
0.0056968927
-0.0022329092
0.016831517
0.0021047592
0.026472569
0.011754155
-0.00612998
0.0031818151
-0.0002477169
0.0137940645
0.022903085
0.011243701
0.011175156
0.0026586056
0.010801792
-0.0009377003
0.002951622
-0.0007662773
0.019507527
0.0150642395
0.009084582
0.012276053
-0.0018258095
0.0057532787
-0.0014588833
0.013814926
0.011976719
0.0046697855
-0.00030457973
0.013468623
-0.0013149977
-0.0032855272
0.0063943863
-6.6399574e-05
0.007650256
0.002978444
0.009586453
0.012003899
0.017523527
0.0074219704
0.0032343864
0.007867575
0.0010150671
0.0026379824
-0.002852559
0.00055909157
0.014909744
0.018118143
0.0006175041
-0.0044511557
0.0024220943
0.009605408
0.011106253
-0.0010559559
0.0051943064
0.00947547
0.005450964
0.010358691
-5.9127808e-05
0.01926899
0.00877583
0.0019435883
0.0027986765
0.007534623
0.024409652
0.0072448254
-0.0007786751
0.02388823
-0.0044982433
0.0037804842
0.006424427
0.006543994
0.0051784515
-0.0022332668
0.01934886
0.0037887096
0.0166018
0.0013999939
-0.0038951635
0.012672305
0.002003312
0.0030726194
0.001480341
0.006742239
-0.005398035
0.013051271
0.010861039
0.010522604
0.0030761957
-0.013537884
-0.0038677454
0.0073610544
0.011262536
0.0023332834
-0.002209425
0.0050644875
-0.0026592016
-0.008605957
0.010019422
0.010311723
0.00048410892
0.027263165
-0.0059542656
0.007177949
0.001371026
0.00029718876
0.0020843744
0.0031933784
0.006074786
0.013876796
0.02456975
-0.0037266016
0.01464498
0.009154201
-0.0034052134
0.032681465
0.018372178
0.0077910423
-0.0053344965
-0.0023242235
0.004896879
0.013041854
0.0049386024
0.00047683716
0.0023790598
-0.008291721
0.0048354864
0.0009226799
0.014962554
0.013191223
0.0035430193
-0.002203226
-0.00014603138
0.004538417
0.0053993464
0.013882279
0.013466954
0.011121869
-0.001742959
-0.009408474
0.017753601
0.010278106
-0.0021367073
0.005087018
0.00014388561
0.011007905
0.006068945
0.0059343576
0.010135651
-0.0075110197
0.0051870346
0.0056004524
0.00087571144
0.007857561
0.009404063
0.0037730932
0.00035595894
0.015413046
0.010645747
-0.0009822845
-0.002059579
0.00962472
0.018721938
0.010204792
0.009669423
0.010114908
0.00054097176
-0.0015710592
-0.0016014576
0.025687933
0.013084292
0.0051888227
-0.00028324127
0.03659749
0.0039494038
0.00042688847
0.006923437
-0.014599562
0.0047311783
0.015529752
-0.0035268068
0.01463294
0.006397128
-0.00032424927
-0.00013780594
0.002431631
0.0010060072
0.016569257
0.017472625
-0.011294246
0.00985384
-6.0796738e-06
0.02314496
0.059586287
0.03126383
-0.0009315014

-0.003281474
0.009324431
0.019509554
0.007974505
-0.005242586
0.015082598
0.005600214
0.01819551
0.024257421
0.012834072
-0.002607584
0.003847003
-0.002217412
0.026281953
0.016433477
0.010420442
0.0016448498
0.009338617
-0.00082683563
0.0040097237
0.011983633
0.0026949644
-0.0017604828
0.014305949
0.0038465261
0.019080281
-0.008989215
-0.001359582
-0.00019299984
0.00016009808
0.00609076
0.018209815
0.0021998882
0.003230691
-0.0021374226
0.016085267
0.017920852
0.007938623
0.005519986
0.008905768
0.008838534
0.0145897865
0.021335721
0.00697124
0.003076315
0.0009727478
0.0027930737
0.008220673
0.009929299
-0.001254797
0.01772666
-0.0047445297
0.0009009838
-0.0023107529
-0.0017358065
0.008859158
0.017157674
0.00743258
0.011286855
-0.007430196
0.0051549673
-0.00084745884
0.0014526844
0.008510351
0.010759354
0.013549566
0.0065672398
0.00063169
0.013541579
-0.00067830086
0.012615442
-0.0016554594
0.008890748
0.0024422407
0.002978921
0.007157922
0.016309977
0.0011856556
-0.0074590445
0.018430829
0.00013446808
-0.004248023
0.007422447
0.006725073
-0.013239384
-0.0075969696
0.0051584244
0.0077239275
0.012886643
0.0050723553
0.029588103
-0.0060640574
0.0072689056
0.00068461895
0.007104993
0.0068808794
0.0062966347
-0.0022354126
-0.0048127174
-0.0054394007
0.008047104
-0.0021035671
0.00031387806
0.009066343
0.007209897
0.00535655
0.005583167
0.0005991459
0.010607362
0.012172222
0.010706663
0.004938841
0.002512455
0.013591409
0.008857489
0.01863861
0.0036650896
0.0018664598
-0.002300024
0.012737393
-0.006481886
0.008622766
-0.0010244846
0.0045443773
0.005692482
-0.0015974045
0.008740544
0.0014503002
0.0015175343
0.0037978888
-0.002965331
0.03254199
0.015673637
-0.0010858774
0.00073325634
-0.004200816
0.0016561747
0.004429817
0.003570795
0.005972624
-0.0024089813
0.018713474
0.0021529198
0.006088257
0.0019052029
0.013709903
0.009696126
0.005555868
0.007942677
0.00078880787
0.013884783
0.0037202835
0.0076801777
0.009092808
-0.00082325935
0.0073002577
0.0059810877
-0.0019148588
0.005479932
0.0009970665
0.009297967
0.014301062
0.006010413
-0.0055611134
0.017045975
0.0149412155
0.019072652
-0.003483057
0.00101614
-0.0057008266
0.018041968
0.015625954
0.00082945824
0.026102066
0.024539948
0.011606455
0.0078117847
0.0019357204
0.002901435
0.0052810907
0.011828661
0.002791524
0.0074851513
0.0065042973
0.0067079067
-0.0013543367
0.002879262
-0.008719444
0.0075787306
0.0054763556
0.004383445
0.012505174
0.006672859
0.013163209
-0.010169387
0.00039184093
0.010608554
0.0015718937
0.005386114
0.00060510635
0.011002898
-0.004343152
0.0059189796
-0.001427412
-0.001935482
0.0057584047
-0.0065368414
0.016660452
-0.00090646744
0.0030651093
0.0092942715
0.005163789
0.023332596
0.0013076067
-0.0039334297
0.0064629316
0.006362438
0.013610244
0.0027430058
0.00729239
0.012159228
0.0069891214
0.019117475
0.029488087
0.00033330917
0.0058020353
0.0034749508
0.009856343
0.003485322
0.00405097
0.0078600645
0.0147506
0.0061451197
0.018204689
0.0005056858
0.019607782
0.004219055
0.007421255
0.010176301
0.030177116
-0.008711219
0.001432538
0.016381502
-0.0039691925
0.010048866
-0.00041282177
0.00053954124
0.0068745613
0.014394999
-0.0035583973
0.015468478
0.00019550323
0.010502219
0.008658886
0.018307209
0.000666976
0.013424754
0.005636215
0.004254818
-0.01264286
-0.0010522604
0.005384207
0.0024682283
0.006247759
0.0016566515
-0.005790472
0.02276051
0.0023679733
-0.0027513504
0.006067157
0.0035421848
0.0032042265
0.009493113
-0.005334139
0.00807035
0.012694359
-0.0018661022
-0.0010488033
0.0014973879
-0.0022876263
0.0015016794
-0.006996393
0.006494403
-0.0040334463
0.0057549477
-0.0002272129
0.0011371374
-0.012039661
0.008908749
-0.0018601418
0.00823772
0.0051082373
0.007728815
0.013288856
0.016574264
0.006319642
0.0030382872
0.013575673
0.013924718
0.007421851
0.013532877
0.02995646
-0.0017670393
0.003476739
0.0035566092
-0.0044136047
-0.002264738
-0.0015983582
-0.009070277
0.0069481134
-0.0013928413
-0.0141916275
-0.0038243532
0.0041435957
0.006161332
-0.015157461
-0.00017976761
0.0054186583
0.0028338432
0.0051635504
0.011833668
-0.0024507046
0.02066946
0.008571148
0.002812028
-3.6358833e-05
0.0033831596
0.012460351
0.048960447
-0.007291317
0.0061528683
0.008818269
-0.0032873154
0.02082014
0.004601717
-5.8054924e-05
0.006048441
0.016928315
0.008375287
0.0009074211
5.853176e-05
0.017080665
-0.0012321472
-0.0019882917
0.014274836
0.009009361
0.02012813
0.0019578934
0.01386869
0.015161872
0.0039818287
0.008099198
0.009914994
-0.003119707
0.0003234148
0.001296401
0.00096189976
0.0018638372
0.007036805
0.0046702623
-0.005266309
0.017257571
0.0019550323
-0.0043469667
0.011867523
0.012247086
0.00248003
0.002067566
0.010232091
-7.236004e-05
0.0030417442
-0.0018429756
0.0033335686
0.004250765
0.023966432
0.01007545
0.018005729
0.027404785
0.010426164
0.017722249
0.0038805008
0.0011248589
0.002162218
0.008944035
0.0016198158
0.016596556
0.020910025
-0.0018079281
0.0016108751
0.0027405024
0.011731029
0.0035256147
-0.0017492771
0.0029754639
0.0030719042
0.0075218678
0.0039577484
0.013430238
0.033030868
0.006013036
-0.00444448
0.0071200132
0.01015842
0.007825851
0.0122087
0.010676384
0.004164338
0.007507086
0.007508278
-0.0009059906
-0.013261199
0.024070382
0.028079748
0.014497399
0.019907594
-0.0022790432
-0.013216376
-0.007254958
0.0147686
0.00024175644
0.0033487082
0.01554656
-0.00020229816
0.008647561
-0.004853964
0.0022507906
0.021473765
0.011382937
0.0011628866
0.008446932
0.01838243
0.0006760359
0.012755036
0.0040898323
0.016296268
0.009476304
0.005019903
0.016086936
0.004191518
0.007293582
-0.00031077862
0.011593819
0.0094919205
0.0012347698
0.008059621
0.0029765368
0.00805378
0.0015445948
-0.002224207
0.005507946
0.00084519386
0.011681914
0.0010453463
0.018952847
0.005045414
0.0051676035
0.0030727386
0.021071434
0.031594634
0.00032794476
0.022132516
0.016093016
0.009612322
0.012927532
0.009709597
0.011022091
0.0018723011
0.006842375
0.0061262846
0.009290099
-0.008920908
0.0056898594
0.0029722452
0.014738798
0.009070754
0.0028517246
0.009727001
0.03215778
0.0131008625
-0.0003014803
0.0038263798
0.008701563
0.010878682
0.025474787
0.005289316
0.014009118
-0.0012218952
0.017390013
0.003068447
0.0062242746
0.0142759085
-0.001562357
0.012697816
0.0044982433
0.007743478
0.015663385
0.014304161
0.0067079067
0.0069036484
0.013973117
-0.0036455393
0.0010221004
0.0066666603
-0.0056375265
0.0061182976
0.0037133694
0.0090248585
0.010402679
0.015260696
0.018867254
0.022847295
0.010013223

0.006973028
0.011675
0.0025007725
0.0030424595
0.0031325817
-0.0004838705
0.019782662
0.0031924248
0.0051136017
0.0023428202
0.000590086
0.017611027
-0.00049328804
0.013281107
0.017317772
-0.0016965866
0.0034469366
0.0037753582
0.002949953
0.0048133135
0.009807825
0.012747049
0.006760001
0.0032155514
0.0025537014
0.005672097
0.011600256
0.007012844
0.015475631
0.0073319674
0.0067765713
0.02547872
0.0011595488
-0.0015267134
0.0027968884
0.009145379
0.0032826662
0.003503561
0.0030106306
0.009028316
-0.0019340515
0.0040556192
-0.0023237467
-0.0001951456
-0.0056355
-0.00033926964
-0.0007927418
0.011609435
0.0046902895
-0.00023412704
-0.0007483959
-0.0008137226
0.008674145
0.00511837
0.012316227
0.00030863285
-0.0016678572
0.005141616
0.006940365
-0.0016479492
-0.00060629845
0.012165189
0.008936524
0.012945771
-0.0051760674
0.004035473
0.012379289
-0.0029236078
0.008874416
0.025886774
-0.00083708763
0.012366772
0.0030710697
0.008681178
0.018919587
0.005427003
0.0076128244
0.0061815977
0.008830547
0.0069406033
0.0136066675
0.011256695
0.00944078
0.011467218
0.013857365
0.017681837
0.0067875385
0.02922523
0.0031001568
0.0015712976
0.024761915
-0.0052416325
0.0031163692
0.0041302443
0.005064845
-0.001385808
0.019767523
0.010600686
0.005785346
0.034543753
0.0077916384
0.0025925636
-0.0003540516
0.002691865
-0.00036668777
-0.0005581379
0.025140285
0.01525259
0.0015670061
0.0033057928
0.0047285557
0.017179608
0.0014549494
0.0072619915
-0.0004335642
-0.001671195
-0.00084745884
0.009212971
0.012036443
0.019904494
0.0056716204
0.0039156675
0.004903674
0.003901124
0.0065823793
0.0105627775
-0.0006278753
0.011075377
0.00022888184
0.012493372
0.0061903
0.01179719
0.020620942
0.0075536966
0.025726676
-0.0021944046
0.015178084
0.009306073
0.01687193
0.00066185
0.005610943
0.01579094
0.0051617622
-0.00032317638
0.00658679
0.005645275
0.0075056553
0.002952814
0.0007519722
0.0019389391
0.00057053566
0.017119288
0.038904786
0.007065892
0.010434389
0.011270165
0.004953623
0.014608026
0.0045782328
-0.002387166
-0.00095903873
0.0068063736
0.003685832
0.007875085
-0.0033453703
0.00278759
0.009725571
0.0026085377
0.0067845583
0.01809299
-0.0006955862
0.005270481
0.0037071705
0.0062247515
-0.008799911
0.004151225
0.00930047
0.007203579
0.005738497
0.026284575
0.0007779598
0.0049055815
0.0010882616
0.0022964478
0.0053777695
0.0009778738
0.0022001266
0.004847765
-0.0044021606
0.005571604
0.015585303
0.0065279007
0.010792494
0.00074899197
0.0049734116
0.00058591366
0.0009241104
-0.00070405006
0.0016857386
-0.0029668808
0.0062077045
0.011767268
0.0092487335
0.009317994
0.0037187338
0.0033009052
0.012150764
0.0019294024
0.004839301
0.009205461
0.008059144
-0.0011889935
0.0023742914
0.0027958155
0.008433819
0.024891019
0.030680299
0.010020971
0.008451104
0.003473401
0.0064036846
-0.0006699562
0.0025172234
0.014244437
0.00928843
0.00024843216
0.009779215
0.010148764
0.002076149
0.0054272413
0.015073538
0.015824676
0.0073447227
-0.001755476
0.011374354
0.02156055
0.0091792345
0.009419322
0.0015949011
0.0066188574
0.001734376
0.0036603212
0.0027163029
0.00809598
0.0031102896
0.0028287172
0.017634034
0.005446553
0.0034319162
0.0019289255
0.018279195
0.0044937134
0.012649059
0.0055963993
0.002039075
0.010809064
0.0019190311
0.010578036
0.01890874
0.005197525
0.014059663
-0.0011594296
-0.0076321363
0.015638828
0.0056819916
0.003802538
0.0013719797
0.009597182
0.004891753
0.006358862
0.0007958412
0.0012154579
0.0018395185
0.0029667616
-0.0077881813
0.033478737
0.018425703
0.010816574
-0.00037932396
0.0041285753
-2.682209e-05
0.010409355
0.001019001
-3.552437e-05
0.0020382404
0.026936173
0.0057889223
0.0044180155
0.0074534416
0.0075085163
0.013496041
0.0030663013
0.0065157413
0.010372758
0.0036654472
-0.0011981726
0.015217662
0.0028009415
-0.0012015104
0.013071775
-0.0039106607
0.0048707724
0.00035858154
0.006955862
0.006022811
0.0011482239
0.01389873
0.0036735535
0.003029704
0.013082981
0.008300662
0.013188958
0.0039952993
0.0011479855
0.0043964386
0.0048844814
0.007809162
-0.009343147
0.0043959618
-0.001676321
0.0034748316
0.0068701506
0.021249175
0.011017561
0.016477823
0.017781496
-0.00045013428
0.0016921759
0.007609606
0.035750747
0.011732101
0.0017380714
0.00085914135
0.003120184
0.008365035
0.017482877
0.00957787
0.006577134
0.007053852
0.000284791
0.0010559559
0.0047900677
0.00049710274
0.006120801
-0.0010749102
0.029782414
0.0027731657
0.0022017956
0.003012538
0.00018715858
0.012376308
0.007830977
0.006170273
0.0028065443
0.010297537
-0.0011909008
0.009676099
5.1259995e-05
0.0036486387
8.1300735e-05
0.014334083
0.0007069111
0.0011693239
0.0034109354
0.0067489147
0.0064543486
0.00499022
0.015405297
0.016060472
0.00020861626
0.012811661
0.009229064
0.0071083307
0.008808613
2.2411346e-05
0.015372276
-1.0728836e-06
0.018189192
0.0040593147
0.0013549328
0.010902047
0.011769652
0.0029591322
0.0014942884
0.009456992
0.018338561
0.009960413
0.009820819
0.01072526
0.0073211193
0.023183346
0.0097568035
0.029704213
0.012218118
0.010881543
0.013987064
0.002970457
-0.00024163723
-0.0006968975
-0.00017392635
0.004157424
0.0063638687
0.0010938644
0.0047382116
0.009372592
0.0050672293
-0.003823638
-0.004460931
0.004196763
0.0019510984
0.0003248453
0.0034486055
0.0009559393
0.0076179504
0.005256176
0.002155304
0.02711773
0.015725136
0.0018502474
0.0021358728
0.0021605492
0.00565958
0.030001044
0.008431077
0.013063908
0.0026854277
0.0026404858
0.0021879673
0.007667184
0.0034755468
0.0010480881
0.0055263042
0.005297303
0.0005953312
-0.0005841255
0.0003824234
0.00646019
0.028781533
0.002778411
0.0027059317
0.012313247
0.0043638945
0.0002527237
0.00039935112
0.004475355
0.004698038
-0.01170671
0.002770543
0.00034713745
0.006476879
0.0006502867
0.0037903786
0.0046589375
0.0048394203
0.003589034
-0.0007112026
0.009910345
0.0066133738
0.0009665489
-0.002278328
0.006231785
1.5735626e-05
0.0055611134
0.0030612946
0.0008267164
0.009509444
0.010491252
0.0034074783
0.001240015
0.0042341948
0.009098887
0.006665349
-0.0005720854
0.0058008432
-0.0011287928
0.009378195
0.009257436
0.0034415722
-0.0021514893
0.013366461
-0.0003219843
0.0006430149
0.0018408298
0.02167666
0.0064959526
0.0046464205
0.00040495396
-0.001856327
0.0056244135
0.0077831745
-0.0012276173
0.0043301582
0.001945734
0.004116893
0.0012813807
0.0052372217
0.0049147606
0.00824666
0.0027358532
0.013536096
0.007828236
0.00497663
0.0011280775
0.0019669533
0.009629965
0.0057697296
0.013462424
0.0071908236
0.0049414635
0.015053868
-0.0023335218
0.003702402

0.0010555983
0.0034941435
0.008347273
0.0108321905
0.0041177273
0.002752304
0.0032718182
-0.001303196
0.009483695
0.00018596649
0.0009716749
0.0021253824
0.0060373545
0.0026916265
-0.00072050095
0.005536914
-0.00019729137
0.0012133121
0.007178068
0.0005540848
0.018115282
0.0053334236
0.0010027885
0.007350087
0.0028339624
0.007834077
0.00014579296
0.0012450218
0.0017330647
0.0069761276
0.010362744
0.006825328
0.00020289421
0.009301662
0.0011296272
0.011490107
0.0090943575
0.0026061535
0.0023901463
0.0066537857
0.03015399
0.00035238266
0.0097619295
0.008971572
0.010175228
-0.001152277
0.0016720295
0.009202838
0.0017436743
0.0033462048
-0.0002323389
0.031235456
-0.000369668
0.0027793646
0.014838338
0.009636998
0.0129618645
0.00375247
0.002340436
0.008339763
0.009157181
0.008090138
-0.0006592274
0.0017348528
0.0046436787
0.0043239594
0.006234288
0.0013247728
-0.0014102459
0.012772679
0.0009435415
0.019996285
0.0031505823
0.0041884184
0.0019046068
0.0012705326
-0.0013654232
0.0018516779
0.01695311
0.004996896
0.024986029
0.0030728579
0.0034439564
0.009895444
0.007681012
0.011680841
0.02225256
0.0014213324
0.010289907
0.0032836199
0.01876676
0.00012791157
0.018719673
0.0073957443
0.009026647
0.0015183687
0.0011725426
0.024323821
0.0031183958
0.0073509216
0.010915399
0.0040979385
-0.000618577
0.006421089
0.0025140047
0.00083851814
0.0048497915
0.017892122
0.005199313
0.009750247
0.00060606
0.0060628653
0.00032293797
0.01909709
0.0102825165
-0.00027370453
0.006856084
0.0031613111
0.008944035
0.0007688999
0.023844242
0.009194016
0.0026079416
0.0014197826
0.015229464
-0.0008724928
0.009585738
0.0033874512
0.00199759
0.011760712
0.0015650988
0.004541874
0.0047739744
0.004853964
0.0023391247
0.0042665005
0.017671466
0.0033619404
0.003894329
0.0071282387
0.003693819
0.0028746128
0.0039367676
0.012617588
0.0062173605
-7.2956085e-05
0.0050685406
0.012893438
0.008708358
0.003707528
0.011036992
0.0038579702
0.007454157
0.022230864
0.002218604
0.007402301
-0.00083863735
0.0042022467
0.0066035986
0.009078622
0.0041846037
0.0035501719
0.0004374981
0.01265347
0.0015438795
0.016376495
0.019116163
-0.00015544891
0.0007112026
0.004028678
-0.00028395653
0.008393168
0.00030446053
0.0093176365
0.0025342703
0.00041902065
0.0022767782
0.005944729
0.0010043383
0.030186057
0.006902933
0.005657792
0.0042614937
0.004207611
0.0020395517
0.016817331
-0.0008546114
-0.00011861324
0.003897667
0.0046902895
0.001876831
0.0033869743
0.0034371614
0.0021463633
0.017331123
-0.0006340742
0.010546565
0.006368637
-0.0007340908
0.0125312805
0.0076891184
0.020650387
-0.00038707256
0.002278924
0.03384316
0.008311629
0.0039994717
0.0033791065
0.00910306
0.01090014
0.005762577
0.0030612946
0.0038602352
0.0017288923
0.009706259
0.0047715902
0.011174321
0.019905806
0.0034981966
0.0063744783
-0.0005636215
0.0047028065
0.0059131384
0.013988256
0.0027996302
0.0032112598
0.012708545
0.0032527447
0.0084552765
0.005334854
0.014231563
0.009606838
0.011898756
0.0054739714
0.008600354
0.0003632307
0.0016564131
0.017375827
0.0026090145
-0.00013291836
0.00777328
0.0150972605
0.0054112673
0.004140258
0.010030985
0.00791502
-0.00037276745
0.006816864
0.0044056177
0.010534525
0.0022082329
0.01824832
0.02085638
0.013680577
0.00404346
-0.00083863735
0.0019445419
0.010308027
0.012219191
0.0056741238
0.001475215
0.0005943775
-0.0007687807
0.012623191
-0.000854373
-0.00023508072
-0.0013123751
0.007304549
2.026558e-05
0.007834911
0.0112172365
-3.0755997e-05
0.0046737194
0.004986167
-0.0012334585
1.4781952e-05
0.00065791607
0.0010570288
0.01797688
0.0024374723
0.0024243593
0.0034275055
0.021261096
0.00043344498
0.006967783
0.015210152
0.0016963482
0.008327007
0.022121549
-0.0010933876
0.0267421
0.00079894066
-8.4877014e-05
0.003369689
0.0023719072
0.0057920218
0.003911853
0.0035983324
-0.00068211555
0.0026358366
0.01860869
0.010593176
0.010013223
0.012956262
0.009585023
-0.00018799305
0.0076158047
0.008159757
0.0013325214
0.0012801886
0.011741042
0.0027948618
0.00094532967
0.002333641
0.00039350986
0.002869606
0.0059161186
0.006207943
0.004078388
0.014270663
0.008938074
0.012235284
0.0106726885
0.010376215
0.008301973
0.010342836
0.0039675236
-0.00065124035
0.014225602
0.0082963705
0.015417814
0.012003303
0.002728343
0.0060551167
-0.0005482435
-0.00021064281
0.0034579039
0.0033476353
0.017802835
0.0014170408
0.0035874844
0.007707238
0.00063729286
0.00255239
0.0047062635
0.025568128
0.004387498
0.007063508
-0.0033183098
-0.00053167343
0.011564493
0.010107875
0.0030773878
0.0007324219
0.009064078
0.009080648
0.008882046
0.0015212297
0.0039441586
-8.070469e-05
0.008863449
0.0025695562
0.010431409
0.003114462
0.0037555695
0.0111835
0.0037100315
-0.0009486675
0.0039299726
0.0021921396
0.006351471
0.009634018
0.0069344044
0.01664126
0.010500908
-0.0015923977
-0.00056517124
0.008454204
0.0039771795
0.00088715553
-0.0004030466
0.022727728
0.011175275
0.029091477
0.014870882
-0.00017046928
-0.00042176247
0.0101873875
0.017354012
0.006427169
0.00096964836
0.0029946566
0.015704632
0.0023992062
0.003034711
0.0071778297
0.007328868
0.0043758154
0.015508175
0.008456349
0.0013352633
0.0025126934
0.004365921
0.0014429092
0.002967
0.009972334
0.015957117
0.006421447
0.0049436092
0.0010931492
0.013643622
0.0029067993
0.001587987
0.013941288
0.013748765
0.0072398186
0.015093088
0.0061038733
0.0049579144
0.008592606
-0.00075769424
0.005161166
0.005713463
0.004031539
0.0003271103
0.0029934645
0.004545212
0.014502764
0.006655097
-0.00020802021
0.0003684759
0.022222519
0.0059974194
-6.6280365e-05
0.0011526346
0.0035042763
0.0049506426
0.00015091896
0.011056662
0.0049813986
0.0009963512
0.0051734447
0.019233465
-0.0007110834
0.0036001205
0.00069761276
0.0013405085
0.0044978857
0.005223751
0.010574222
0.0033347607
0.014174819
0.0034267902
0.004547
-0.001216054
0.007894397
0.01807487
0.010160923
0.004242897
0.0020139217
0.0073820353
0.0073844194
-0.00019085407
0.0073758364
0.0048475266
0.007358074
0.015300989
0.019670129
-2.5629997e-05
-0.00020503998
0.013544202
0.013269544
0.00024664402
0.014737129
0.016112328
0.004463792
0.014721513
0.0017769337
-0.00017809868
0.028209805
0.011954784
0.00012755394
0.020347953
0.0013839006
0.019587278
0.0014234781
0.011222482
-0.0015774965
0.0005366802
0.004183769
0.0048754215
0.0016595125
0.007999063
0.0029678345
0.012319446
-0.0005879402
0.0026242733
0.015245199
0.0027810335
0.0038650036
0.00011599064
0.007137537
0.0003118515
0.0027017593
0.000151515
0.009212136
0.013358831
0.0098673105
5.6028366e-05
0.0003837347
0.010723472
0.0040994883

0.008518577
0.006409645
0.00783062
0.025201559
0.0032953024
0.014742494
0.015880227
0.0074442625
0.0021275282
0.0021066666
0.0063011646
0.01198864
0.007944584
0.0038040876
-0.0002322197
0.003816843
0.0056250095
0.0029008389
0.0028547049
0.0022087097
0.0032109022
0.005691886
0.00986135
0.002494812
0.01231277
0.009967566
0.0050629377
0.003975153
0.005637884
0.0016787052
0.00012278557
0.008995175
0.010201573
0.012496233
-0.00023365021
0.005211115
0.010659337
0.0053687096
0.0059484243
0.0032407045
0.0074738264
0.009856939
0.0038245916
0.0065739155
0.011539698
0.007202387
0.0074249506
0.004958868
0.010948658
0.0055559874
0.0019421577
0.007114649
0.0024122
0.0099669695
0.008703232
0.008447528
0.0024225712
0.005787134
-0.0004132986
0.0033476353
-0.00026130676
0.012454748
0.005790949
0.0018531084
0.00022387505
0.003753543
0.004163623
0.0056664944
0.004521847
0.0124669075
0.01365447
0.00637269
0.00260365
0.0057554245
0.013393164
0.0071696043
0.022268295
0.0073941946
0.005872965
0.0051668882
0.014745593
0.0060311556
0.0053794384
0.01365447
0.005405903
0.005490899
0.002934575
0.024326086
0.008806229
0.0028305054
0.009525895
0.0048224926
0.007997632
0.0032500029
0.0070968866
0.002882123
0.0070052147
0.00032162666
0.0025001764
0.0031087399
0.00078999996
0.0045057535
0.006035924
0.007020831
0.005888462
0.0067070723
0.013557434
0.0062389374
0.0045666695
0.008298159
0.0010260344
0.0046349764
0.00789845
0.010815859
0.0042182207
0.009989142
0.009906173
0.0040631294
0.006296158
0.006772518
0.002392292
0.0043627024
0.014827371
0.0067743063
0.005372882
0.0055451393
0.0002887249
0.012006044
0.0029127598
0.0028625727
0.002621293
0.0070620775
0.0055761337
0.011601925
0.0103952885
0.0042802095
0.028812766
0.0009649992
0.0042654276
5.0783157e-05
0.0031923056
0.0018236637
0.0071110725
0.014336467
0.0026314259
0.0068204403
0.0022063255
0.025843024
0.000772357
0.006511569
0.007684827
0.00041151047
0.009642243
-0.0003478527
0.0010045767
0.010568023
0.00652647
0.002391696
0.010576725
0.0014605522
0.0007764101
0.0010690689
0.003199339
0.0035899878
0.003852129
0.0063989162
0.0026946068
0.019876242
0.008239746
0.0038126707
0.0062202215
-0.00017786026
0.00954771
0.0029728413
0.0029418468
0.0075479746
6.747246e-05
0.008123398
0.0064936876
0.006812215
0.001294136
0.006087184
0.0053231716
0.011317015
0.004865527
0.010777831
0.0008188486
0.005030632
0.011987209
0.005051136
0.009154558
0.0015702248
0.0050120354
0.017657876
0.0063301325
0.0036455393
0.01076746
0.003648162
0.009920359
0.0062253475
0.0049773455
0.004248619
0.0011688471
0.005438566
0.004708767
0.003389597
0.00012922287
0.0075331926
0.0006868839
0.0016851425
0.008393049
0.0098929405
0.006486416
0.0038876534
6.341934e-05
0.0007982254
0.009695768
0.010749102
0.003743291
0.011591673
0.0066518784
0.003968835
0.009608984
0.009404182
0.009923816
0.0035636425
0.007980108
0.009073973
0.010643721
0.012097597
0.004926324
0.007476568
0.00092208385
0.009383321
0.008981943
0.0051413774
0.0118973255
0.011615992
0.0011078119
0.005184293
0.014302969
0.0063408613
0.010239363
0.0049238205
0.0027223825
0.015900254
0.0076123476
0.008254766
0.0120562315
0.0019204617
0.01011014
0.017241001
0.012356043
-0.00046873093
0.003471613
0.003308773
0.0054353476
0.0081704855
0.0059347153
0.0030195713
0.0132792
0.0047872066
0.0016222
0.00686121
0.016093254
0.010832906
0.012376189
0.018018365
0.008629918
0.004755616
0.0058909655
-9.6440315e-05
0.0067790747
0.00671196
0.0008113384
0.0015231371
0.006642103
0.0043816566
0.0031024218
0.0051652193
0.0049624443
0.0083703995
0.0046024323
-0.00038719177
0.004578829
0.005586028
0.009580255
0.0033277273
0.0062350035
0.004562974
0.00991559
0.0043513775
0.01244688
0.0027008057
0.00867784
-8.8095665e-05
0.008697629
0.0028477907
0.013044119
0.00519073
0.009758353
0.0035589933
0.008674264
0.005671978
0.0094794035
0.0018026829
0.0062485933
0.008246183
0.010040402
0.008373618
0.0010848045
0.0063381195
0.004224777
0.012828112
0.007028699
0.004646182
0.0091404915
0.014964461
0.0072134733
0.014812231
0.0011520386
0.012942672
0.0024917126
0.00042307377
0.011930823
0.008193612
0.009937644
0.00032043457
0.0018763542
0.004588008
0.0077410936
0.008170366
0.0061268806
0.004616022
0.011908889
0.009871125
0.0033771992
0.012027621
0.0066201687
0.0056921244
0.012028098
0.004121423
0.00013720989
0.011901975
0.0034899712
0.018271923
0.0064884424
0.013064384
0.012348652
0.0024846792
0.0037404299
0.0021508932
0.0046087503
0.0009967089
0.0042945147
0.00060892105
0.0079802275
0.010844231
0.01217258
0.0071890354
-0.00032639503
0.0047570467
0.007872343
0.0018960238
0.00015997887
-0.0012658834
0.011612058
0.004001856
0.006348729
-0.00021851063
0.014026523
0.014954209
0.006275296
0.0008414984
0.0041292906
0.00018453598
0.0006312132
0.0038824081
0.004137993
0.00375247
0.009607315
0.0033016205
0.008552432
0.002737999
0.004839897
0.0073344707
0.0008312464
0.00124228
0.0042225122
0.0147612095
0.000313282
0.0018467903
0.0041513443
0.0015615225
0.0046770573
0.0024282932
0.017047763
0.0036019087
0.009965897
0.0031876564
0.016112804
-0.00016701221
0.009740591
0.011844635
0.00256145
0.012227654
0.0061649084
0.008703947
0.012537003
0.003944874
0.005572319
0.0072768927
-0.00028038025
-0.00026750565
0.0028101206
0.00391078
0.003424883
0.0032658577
0.009451747
0.010349393
0.010558128
0.0023522377
0.0047963858
0.003982663
0.010944128
0.007314086
0.00178051
0.011465311
0.008178353
0.0109426975
0.012674332
0.0073155165
0.013029337
0.002552867
0.0035942793
0.0037351847
0.010697722
0.010117412
0.009023666
0.011757493
0.000323534
0.0068736076
0.000697732
-0.0001142025
0.0013395548
0.0028026104
0.012227416
0.008798242
0.00318861
0.006195545
0.009582162
0.009328842
0.013997436
0.0021945238
0.007179022
0.0030015707
0.0017864704
0.014336824
0.008078456
0.0025373697
0.01143527
-1.8715858e-05
0.00904417
0.0026079416
0.00998652
0.005559325
0.011752605
0.003109455
0.0013811588
0.008479714
0.0050354004
0.0019478798
0.008269668
0.003041029
0.010436177
0.0041794777
0.0017517805
0.00570333
0.009019017
0.0022919178
0.012232304
0.0010508299
0.009256005
0.0010719299
0.005908251
0.0075035095
0.0074847937
0.009764552
0.0077955723
0.0014795065
0.0026254654
0.0034879446
0.011974692
0.0077728033
0.0058362484
0.000669837
0.013861179
0.0054872036
0.009660959
0.013943791
0.0052382946
0.015256882
0.0012727976
0.0041315556
0.0020337105
0.0059269667
0.0074100494
0.0020819902
-0.0003476143
0.0063015223
0.00848937
0.002286911

0.0036708117
0.00625813
0.0051060915
0.0017046928
0.0035324097
0.004922986
0.0056483746
0.016777992
0.0055999756
0.012096167
0.010331631
0.0045826435
0.0030890703
0.0076509714
0.0059514046
0.009685397
0.0048906803
0.002960682
0.0038744211
0.002430439
0.0013843775
0.011670828
0.0006982088
0.003296733
0.0047130585
0.010527372
-0.00065279007
0.0051778555
0.0039280653
0.009812355
0.016861916
0.012521267
0.0013606548
0.00034737587
0.0059468746
0.009806991
0.013547301
0.008449197
0.014331222
0.0056473017
0.0011997223
0.0021847486
0.0032547712
0.0056191683
0.010560989
0.004768729
0.0041930676
0.009002447
0.0033011436
0.007598996
0.0028779507
0.005954623
0.0030281544
0.0023825169
0.006196022
-0.000106453896
0.0049614906
0.0031119585
0.00069868565
0.01759553
0.0007420778
0.0018106699
0.005912423
0.011329055
0.014089823
0.009319782
0.0054266453
0.00868082
0.009375095
0.0032910109
0.012304544
0.014228463
0.008365035
0.004750967
0.009058952
0.010637879
0.0095402
0.0043059587
0.008280754
0.012542725
0.004739046
0.011327386
0.0032685995
0.012130022
0.010598183
0.005211115
0.021704197
0.00270617
0.0059292316
0.0017542839
0.0018686056
0.0006428957
0.0054579973
0.0017523766
0.007658243
0.0060739517
0.0010066032
0.008550525
0.0028021336
0.0041228533
0.0016186237
0.005665064
0.007552743
0.0062299967
0.008300543
0.008247018
0.0024068356
0.013713837
0.003561616
0.0016961098
-0.00019347668
0.014650822
0.0044984818
-0.0008428097
0.004972458
0.021193981
0.002601266
0.0086447
0.003835082
0.011580467
0.010381222
0.007066846
0.0019316673
0.010212421
0.0086945295
0.0012549162
0.0139865875
-0.00069880486
0.0054237843
0.0058660507
0.0047916174
0.0062190294
0.007918596
0.0027912855
0.0044475794
0.012361765
0.00016641617
0.006598115
0.014100552
0.0035632849
0.010906458
-6.937981e-05
0.009951115
0.011273861
0.0046616793
0.0008263588
0.0029318333
0.0065835714
-0.00015294552
0.0021595955
0.0031118393
0.0034656525
0.00013518333
0.010081053
-0.002426505
0.004874468
0.005553961
0.010849357
0.004995942
0.0029222965
0.005736828
0.0062656403
0.008820891
-0.0003310442
0.0019860268
0.011087656
0.0079084635
0.0060590506
0.006898999
-0.00017011166
0.008622885
0.015424609
0.009280801
0.006339431
0.00699389
0.007210493
0.0062708855
0.007863164
0.00062537193
0.0007901192
0.012559056
0.00321877
0.012503386
0.0051082373
0.0066536665
0.0034717321
0.020956278
0.003148675
0.010127664
0.0038331747
0.0042045116
0.0027563572
-0.00030004978
0.012904525
0.0002785921
0.010650635
0.0108475685
0.003615141
0.0040080547
0.0012261868
0.026333213
0.0014103651
0.0025655031
0.010127664
0.011401057
0.010553718
0.01016295
0.0024330616
0.0041884184
0.0047100782
0.00020134449
0.012848735
0.002000928
0.0033459663
0.031231403
0.004613042
0.0014467239
0.006282091
0.024370551
0.011560559
0.012427688
0.0016516447
0.017218828
0.002654314
0.00034058094
0.0033806562
0.004635334
0.0023487806
0.0035429
0.0060573816
0.0119844675
0.0137069225
0.0030682087
0.00796473
0.009779334
0.0015177727
0.0013890266
0.004903674
0.009157896
0.0037671328
0.009343982
0.0042957067
0.0071587563
0.0047272444
0.0063203573
0.0097721815
0.008752227
0.021233082
0.001187563
0.008128881
0.004418373
0.0010010004
0.010875702
0.009412408
0.011780858
0.0078213215
0.0028105974
0.008523822
0.006414652
0.00805974
0.0024516582
0.0080679655
0.005850792
0.01855719
0.0045238733
0.008646965
0.005748749
0.001791358
0.0025039911
0.014969707
0.00769341
0.004322171
0.011492848
0.005546689
0.023805022
0.00030767918
0.0008325577
0.0042721033
0.0018633604
0.0032260418
0.0049943924
-0.0005403757
0.0014607906
0.0016450882
0.0058717728
0.0027107
0.006017208
-0.0005118847
0.009940028
0.004637122
0.0032103062
0.0014715195
0.0008146763
0.0015864372
0.0009766817
0.009259105
0.010264039
-0.0024101734
0.0012887716
0.004979372
0.0006529093
0.0031266212
0.011507392
0.0066105127
0.007558584
0.015420914
0.009046078
-0.000118255615
0.0020081997
0.0066514015
0.0003889799
0.012947917
0.005129814
0.0053664446
0.013350129
0.0077914
0.000344038
0.007344246
0.0001502037
0.0047516823
0.01718235
0.0042676926
0.011705756
0.008670807
-1.9788742e-05
0.004695773
0.0045871735
0.006114483
0.0063933134
0.0010461807
0.003777504
0.005117297
0.0068985224
0.0006406307
0.009676099
0.0055019855
-0.00055742264
0.00022387505
0.00840807
0.024438381
0.007995963
0.009492159
-8.34465e-07
0.0011119843
0.0004094839
0.005364895
0.0063893795
-5.6385994e-05
0.008792281
0.0042113066
0.0011724234
0.005369067
0.009321809
0.0071932077
0.0070968866
0.005432248
0.011291504
0.004134655
0.0040615797
0.010852218
0.0070341825
0.012594819
0.012102008
0.0062253475
0.007490158
0.0032544136
-0.00019073486
0.003102541
0.0027993917
0.0027406216
0.005786538
0.009447098
0.0017393827
0.008672357
0.006861329
0.0023208857
0.0013988018
0.0150591135
0.0016826391
0.011981964
0.008897901
0.0014938116
0.012180567
-0.00044310093
0.004276991
0.0095222
0.018536806
0.019071698
-5.7816505e-05
0.0048958063
0.0077023506
-2.69413e-05
0.008577108
0.015595794
0.0041986704
0.0069699287
0.0100438595
0.007293701
0.0011280775
0.003460765
0.026544452
0.01185739
0.0070894957
0.0033946037
0.008223057
0.002998948
0.0026031733
0.0043234825
-0.00030624866
0.008320808
0.002122283
0.0064128637
0.0005120039
0.012537718
0.0015239716
0.008359313
0.0066404343
0.0066199303
0.0007184744
0.0065965652
0.0065265894
0.005740285
0.0014338493
0.009732842
0.008901954
0.0046771765
0.008489251
0.020226598
0.0056244135
0.005781412
0.0030853748
0.0023907423
0.00048613548
0.004463911
0.008054256
0.0026262999
0.0031818151
-9.5009804e-05
0.016718268
0.016727805
0.006928444
0.0050162077
0.006327033
0.014267325
0.009417295
0.006132722
0.010724902
0.0010248423
0.012520194
0.01579988
0.020884633
0.005744219
0.006056428
0.005001068
0.016868949
0.0029262304
0.0036901236
0.010267854
0.0058870316
0.0011078119
0.0060014725
0.0012325048
0.0031011105
0.009274006
0.0031174421
0.003091693
0.009213924
0.0058699846
0.0022211075
0.00034165382
0.006072998
0.0056866407
0.015800595
0.0044225454
0.0010004044
0.001504302
0.006817341
0.009115338
0.01676178
0.01266408
0.0012214184
0.008379102
0.007833123
0.0010783672
0.00097608566
0.00013792515
0.0024918318
0.0075854063
0.015109897
0.006959319
0.0012140274
0.014533401
0.011099815
0.013497829
0.0034735203
0.0014389753
0.0133475065
0.005894184
0.004512191
0.0047990084
0.0034987926
0.0027532578
0.01284492
0.0029129982
0.016819477
0.00031077862
0.008670807
0.008217573
0.0005828142
0.002637148
0.011320949
0.0028512478

0.28374505
0.28688323
0.2340455
0.20965672
0.277807
0.19156969
0.26469827
0.2386527
0.2994566
0.21255505

