0.10454762
0.0683068
0.0530622
0.08129215
0.016907811
0.16247678
-0.09934819
0.21861148
0.18116617
0.0029623508
-0.15603185
0.10429597
0.1425538
0.22724402
0.0018970966
0.12694216
0.19019687
0.10338342
-0.07431674
-0.12735963
0.2571504
-0.014137387
-0.0052034855
0.4354037
-0.12983084
0.02478671
0.06915784
-0.19363976
-0.035983562
0.055997014
-0.06161642
0.24253428
0.21363974
-0.26196015
-0.07783747
0.02299571
0.063565016
0.313766
0.1124661
-0.119356275
-0.064159036
0.006191373
0.13181102
0.03218484
-0.022820234
0.10590446
0.21288729
0.029521465
0.024132371
0.08321881
0.051909685
0.04490173
0.056325912
-0.15961075
-0.13406163
0.06399894
0.036991
0.0011147261
0.008747935
0.07750869
0.034709334
0.19993353
0.06062007
0.10916901

0.15551162
0.083984375
-0.07275832
0.05109811
-0.008108258
-0.022518396
0.07735169
0.012285352
-0.13839364
0.29835415
0.06509435
-0.020752192
-0.026607871
0.007376313
0.029264212
0.08307421
0.16005373
-0.054303885
0.054093957
0.07254231
-0.058406234
0.03046012
0.012391925
0.0019925833
0.014850736
-0.34662008
0.040010095
0.01617527
-0.038425446
0.22055805
-0.20853734
0.27478123
0.011015058
-0.12255716
0.30788767
0.06296742
0.16121256
-0.11573577
-0.06558657
0.49305367
0.043666363
-0.06985533
0.041932464
0.15665352
0.0849911
0.33765113
-0.04263282
-0.045193672
-0.17316067
0.12553322
0.17037153
0.08147097
0.08145177
0.07138705
0.015395641
0.019497514
-0.027770638
-0.003378868
-0.030132532
0.24810064
-0.09116888
-0.038977146
-0.042214632
-0.15186548

0.005667925
0.09713912
0.05416441
-0.0031841993
-0.0039815903
0.052589536
0.0077420473
0.017238736
-0.008118153
-0.016781092
0.07558048
-0.0041811466
0.0019683838
0.06800258
-0.013998866
0.094278336
0.027666807
0.0811857
-0.002205968
0.068246365
0.15242684
0.09037769
-0.09123397
-0.15046549
-0.15775585
-0.0371449
0.0008569956
0.019854307
0.009744048
0.08094525
0.010635614
0.026580572
0.05820906
-0.050038815
0.009875059
0.060491323
0.048137903
0.033913255
0.1194042
0.004651308
0.056565046
-0.005439043
-0.010981202
0.022968292
-0.012913704
-0.0820446
0.04110551
0.025257349
0.047088742
0.09189689
-0.01170063
0.015054822
-0.050454974
0.05042398
0.02109003
-0.038371325
0.05448532
-0.0022004843
-0.05790496
0.015011311
0.06507838
0.0070893764
0.004240155
-0.1337223
0.048560858
0.039036274
-0.008302569
0.044142008
0.07068777
0.009284258
0.04789126
0.016292214
-0.012703061
0.0056933165
0.0657444
0.010488272
0.09115732
-0.012557507
0.013926983
0.04262376
-0.069568634
-0.12934649
-0.015095472
0.14119768
-0.034253
-0.010944128
0.0452559
-0.060555935
-0.104097486
0.052571535
0.03690338
-0.056739688
0.13477588
0.077113986
0.04081738
-0.08453059
0.02313447
-0.11513758
0.023221016
0.0042301416
-0.024245739
0.020004392
0.1621226
0.13129056
0.03462231
-0.005646348
0.06410134
0.00041615963
0.042453527
0.12727952
-0.075041056
-0.034254313
0.017443657
0.029624462
0.06267643
-0.0034937859
0.07978511
-0.019306421
0.0802722
-0.09460151
-0.05381596
-0.004151702
0.115994096
0.06590867
-0.10998869
0.04371798
-0.005829692
0.08267808

0.021850348
0.04842639
-0.04560733
-0.1674658
-0.00010251999
0.018087506
-0.000911355
-0.0015227795
0.088682294
0.060165405
-0.030556917
0.01804173
-0.051369548
0.08418393
-0.04532242
0.012441516
-0.023012161
0.056999683
0.015091896
0.008105397
0.05178988
0.015601039
-0.044356585
-0.058176517
-0.027974486
0.052194
0.0027792454
0.03701079
0.066785336
0.09865594
0.07182443
0.035009623
0.13547659
0.07568073
-0.18339813
0.010911465
0.03833306
-0.15353382
-0.014593363
0.056054115
0.10525668
0.062675595
0.08899772
0.07035899
0.043782234
0.019812703
-0.04390502
-0.014419436
-0.007112503
-0.04269731
-0.0007144213
-0.011142135
0.014404774
-0.021723032
0.15128219
0.001562357
0.025269628
0.010900021
0.023026109
-0.061835527
-0.019101143
0.03862226
0.044125557
0.01781869
0.03877604
-0.0005517006
-0.025865316
0.08237612
-0.03170097
0.00018107891
0.025150657
0.12234676
-0.051430464
0.023207307
0.015270472
0.10289526
-0.0074738264
0.06524086
0.026268005
-0.010820985
0.030088186
0.11592078
0.016196728
-0.003080368
0.061670423
-0.029500365
-0.0019965172
-0.08914459
0.09762144
0.016759634
0.033298492
0.10537279
0.02951181
0.10364926
0.048733354
0.012490392
0.019419074
0.05485499
0.00036096573
0.008056164
0.016899705
-0.14094019
0.005986452
-0.022937894
-0.05242181
0.0036958456
0.023679614
-0.037674904
-0.0018798113
0.03328085
0.0034223795
0.07004535
-0.034160256
0.04748869
-0.018699765
-0.025990725
0.073850274
0.10732925
-0.05973518
0.053014398
0.008317709
-0.05707872
0.020161748
0.07994652
0.044801593
0.032549024
0.070091486
-0.057977915

-0.007818818
0.009302855
-0.05710399
-0.023074985
-0.04102683
0.006952882
-0.018257976
0.07420778
0.0141865015
-0.0048252344
-0.040092707
-0.0021451712
0.01235342
0.0020557642
0.026925564
0.017415047
0.024787545
0.07993746
0.0018391609
0.032277584
0.017169952
-0.0011851788
-0.048672438
-0.017840028
-0.006234646
0.008255959
-0.00097584724
0.013361454
0.009415507
0.0029296875
0.03293276
0.027858853
0.040263295
0.015433788
-0.0011532307
0.018302679
-0.005702138
-0.008823037
0.006178975
-0.047407746
0.0028158426
0.0065432787
0.026067972
-0.0034688711
0.08340204
0.018330336
-0.08674312
0.06968689
0.0019700527
0.045698643
0.010620117
0.03788495
0.01589346
0.010042787
0.005462885
0.07001257
0.039515734
0.033163786
0.0014976263
0.041774273
0.03385663
0.02547419
0.04044664
0.00051033497
0.066119194
0.0073388815
-0.011064768
0.053315163
0.0024632215
0.0037093163
0.010048509
-0.049831986
0.0013366938
0.01456511
-0.0023145676
-0.009080887
0.011232376
0.06776571
-0.052966595
-0.004020691
0.046539307
-0.050780177
-0.03759253
0.0005273819
-0.03582132
-0.015552521
0.057257652
-0.0019450188
0.0052011013
0.001273632
-0.025336504
0.05307746
0.043090224
0.0052632093
0.05153632
-0.021698236
0.053857207
0.031410694
0.001912713
0.021345377
0.029676914
0.03498459
0.00018060207
-0.0005213022
-0.039184332
-0.0046488047
0.0045124292
0.037867665
0.05597973
0.025443554
0.012672067
0.01875782
-0.003959775
0.009579062
-0.001375556
0.025361061
-0.004296303
0.0038155317
-0.009225011
-0.021806002
-0.047616363
-0.021600604
-0.05706632
0.0402745
0.08094418
0.0027929544
0.008047581
0.027660608
-0.06968486
0.00044488907
-0.016013741
0.034026146
-0.013726115
0.0020985603
0.036284328
0.02289164
0.023672462
0.002390623
0.054691434
0.009281278
0.012765288
0.00092089176
0.013415933
0.015595794
0.036549687
-0.00667274
0.024567723
0.040683508
0.0275352
0.04333985
0.0032806396
-0.03551984
0.04101956
0.00091814995
0.010391593
0.013922334
0.049292922
0.05193913
0.0025684834
0.00815618
0.004363656
-0.032954574
-0.03053677
-0.042939186
-0.00691247
0.002267599
0.0056083202
-0.033888817
0.038319945
0.07489312
0.0015935898
0.0043708086
-0.022818565
0.024891376
-0.010944128
0.061081648
0.044395685
-0.024290562
0.007891774
0.039006114
-0.00013649464
0.021378398
0.045004725
-0.025154829
-0.0036325455
0.037387133
-0.030759454
-0.060833573
0.0035629272
-0.032917738
0.030914903
0.049205184
0.05027294
0.0028873682
-0.0023367405
-0.016590118
0.0139353275
-0.0618937
-0.07959306
0.005531788
-0.028407931
-0.043726206
0.051993966
0.06535387
0.02011633
0.003505826
0.0449059
0.01403296
0.032461166
0.0013128519
-0.04715705
-0.05187583
0.0009429455
-0.03610277
0.0642916
0.041063905
0.0010415316
-0.0026570559
0.01331377
0.009691834
0.027065754
0.033962965
-0.038621902
-0.0022399426
-0.005342126
-0.0067546368
0.0197407
-0.02105558
0.038505673
0.00014078617
-0.04011476
-0.030889988
-0.0021369457
0.047345757
-0.05971062
-0.021586299
0.097415805
0.062473655
-0.025649667
0.045080423
0.03479302
0.0105268955
-0.111680865
0.0016758442
0.032335043
0.0131367445
0.017049313
0.0053548813
0.0012446642
0.00465703
-0.012692809
0.019126773
0.014049768
-0.026593685
-0.009624481
0.013077974

0.0033147335
0.011060953
0.025655627
0.004037261
0.006955147
-0.04700148
0.03355491
0.047087193
0.0039761066
0.061097026
-0.016720772
-0.00039160252
0.0008882284
0.020502806
-0.026425362
-0.010483861
-0.0066114664
-0.04266894
0.007241249
-0.0009752512
0.015222549
0.01790154
0.023733258
0.014318347
0.0077433586
0.0042061806
0.010039806
0.005988717
0.024486542
0.16198647
-0.0032793283
-0.04110229
-0.03695941
0.037728548
0.01974523
-0.0032564402
0.0108367205
-0.03160131
-0.0037310123
-0.007073641
0.004757881
0.024407983
0.05250275
0.02389431
0.0008544922
0.008250952
0.0721513
0.00829792
0.008954287
0.0057376623
-0.007142186
0.025930166
0.0608387
-0.020749807
0.05426526
0.007692218
0.04390204
-0.051898718
-0.02050221
-0.036016464
-0.0059580803
-0.07646954
-0.026899457
0.004300356
0.046222806
-0.0023316145
0.0024297237
0.02882123
-0.0023105145
0.021265388
0.03616321
-0.06103444
0.008460045
0.0038471222
0.013385177
0.035776973
-0.015172362
-0.06239164
0.03308332
0.029569507
0.033988953
0.026764035
-0.0009996891
0.003006816
0.024247408
-0.02879548
0.041409135
-0.008631825
0.05234897
-0.029261231
0.011518478
0.0022273064
-0.0015233755
0.03243661
0.037159562
0.016207218
0.03460157
-0.010827541
0.014471173
0.06022203
-0.0012340546
-0.049310207
0.01622665
-0.06725228
0.014378071
-0.0033762455
0.029657245
-0.03296101
-0.046322346
0.0024808645
-0.003150463
-0.0034911633
0.0015197992
0.015844107
0.03310275
0.028761148
0.019088626
0.015878797
0.029866457
-0.014216304
-0.010325789
0.018596768
0.0077415705
0.0062841177
-0.017967224
0.006348014
-0.0011661053
0.038978934
-0.0006171465
0.021747112
0.024611473
-0.02545607
0.029058933
0.04583633
0.013489366
0.019860744
-0.01935041
0.033791423
0.01668477
0.051955104
0.0015482903
0.04251218
0.045325756
0.045550346
0.016352296
-0.0028020144
0.021774054
0.051151156
-0.09005141
0.04445696
0.04976225
0.014101148
0.016481757
-0.0011844635
-0.010384321
0.0056579113
-0.035802245
-0.012692809
-0.0039590597
0.017938972
-0.049489737
0.0050759315
-0.028029919
0.09014952
0.034991145
0.00035822392
0.03566742
-0.002922535
0.022598028
-0.00012552738
-0.018381476
0.01361239
0.008670926
0.002729416
0.031055093
0.015663147
0.01779294
0.017299056
-0.050091743
-0.025438905
-0.060931563
0.027315855
0.010761142
0.0060299635
-0.04292476
0.024750948
-0.007575631
-0.0005582571
-0.06084287
-0.040637493
0.0014297962
-0.010015011
0.037622094
0.0758245
-0.004035592
0.007086754
-0.044266343
0.045824528
0.0059093237
0.010476232
0.003057599
0.028219223
0.013025284
0.022310972
-0.021585345
-0.005355835
0.0027298927
-0.020225644
0.039961934
-0.029943705
-0.014842272
0.0012693405
0.036070466
0.03605616
-0.009938717
0.007966161
0.042225003
-0.004923582
0.028750896
0.117607474
0.0088887215
-0.037195683
-0.036741495
0.029242516
-0.012247443
0.04923439
0.001986146
0.0043560266
0.0058754683
-0.025595427
-0.017967701
-0.0014154911
-0.01274085
-0.0074396133
-0.007836938
0.006801486
-0.006226778
0.0034466982
-0.023049831
0.011239529
0.008818388
0.019783258
-0.033555627
0.021667719
0.025779486
0.053199053
-0.00770998
0.018603206
0.037644982
0.027334452
-0.030821323
-0.0062692165
0.018862963
0.0261873
0.05540979
0.065531135

0.07501006
-0.0054496527
-0.015497804
0.0004646778
0.018575907
0.024640918
0.038672924
0.020837545
0.034566402
0.0050213337
0.0077831745
0.035172343
0.05041015
-0.036499023
0.01096499
0.053226113
-0.008613706
0.005814433
0.057983756
0.037225604
0.007306218
0.0010536909
0.0017184019
-0.007914901
0.00030004978
0.011768103
0.011599779
0.061409593
-0.043380022
-0.010986567
-0.0001193285
-0.010522723
0.021412373
0.0021259785
0.014544368
0.034665704
0.037062645
0.0032440424
-0.030876517
0.010573626
0.039772272
0.051884055
-0.012545109
-0.02101314
-0.042339206
0.0030144453
0.03132689
0.006312847
0.085783124
0.04615569
-0.021704555
0.014511108
0.0012607574
0.05696273
0.035013914
0.021577358
-0.013714671
-0.064329505
0.02289915
0.072423935
0.0045005083
0.020321012
-0.031861544
0.006940961
0.00034832954
-0.0070238113
0.06884158
-0.027102232
-0.010984182
0.027214408
-0.025075674
0.047697783
-0.017282963
-0.0012450218
0.03431344
0.07938945
0.0072779655
-0.015370607
-0.015398264
0.014643908
0.047187686
0.03118813
-0.0014494658
0.05009544
-0.004654169
0.016611218
0.01734674
0.010968566
-0.007402897
-0.055701256
-0.013427496
0.020285845
-0.029063344
-0.0058773756
0.011073589
0.08651531
-0.028181314
0.021878242
0.027340531
-0.00034797192
-0.0072444677
-0.017783523
0.0068416595
0.038334966
0.01921618
-0.009445667
0.019554257
-0.043460965
-0.020429611
-0.017154336
-0.036174893
0.053060412
0.0037623644
0.028401017
0.027151942
-0.010112286
-0.0054113865
0.07645249
0.0842756
0.021131277
-0.045673132
0.06860411
0.023430824
0.014704466
-0.03056264
0.02018106
0.0031487942
0.016230822
-0.0125210285
-0.00639832
-0.042215586
-0.022773385
-0.011569619
0.033444762
-0.008962274
0.013518333
0.0356524
0.033575058
0.063026786
-0.0006285906
0.010576725
-0.0031567812
0.06619573
-0.043468475
-0.09089339
0.03008926
-0.022094369
-0.08088803
0.04196918
-0.0099493265
0.05941546
0.0043421984
0.02371645
-0.004782319
-0.015556455
0.033162117
0.025443316
-0.009349585
-0.0015007257
0.0720433
0.04195273
0.012371898
-0.031158924
-0.029373765
0.0157789
-0.01651311
0.035356283
-0.0016092062
-0.088406205
0.039930224
0.011647224
0.0037657022
-0.03964472
-0.022932887
-0.046307564
0.0717808
0.00478065
0.03647411
-0.041588068
0.014995456
-0.013340116
-0.0027050972
0.021998048
-0.038059235
-0.0018838644
0.008256674
0.0025148392
0.010630369
0.0023391247
0.03823018
0.011939526
0.0044184923
0.0010284185
0.03640139
0.0005264282
-0.060518026
-0.0035415888
0.022545457
0.02379191
-0.04841113
0.00432086
0.066581845
-0.021790028
-0.05340171
0.0055280924
0.024115562
0.03875506
0.0005991459
-0.045564294
0.004739046
0.028102756
0.0040643215
-0.0009239912
-0.01734829
0.0065979958
0.024222374
-0.019298792
-0.06338084
0.029626131
-0.019866943
0.011153102
-0.0035601854
0.05621171
0.03610277
-0.009936094
0.012997389
0.039664984
0.01711309
-0.018041253
0.0059882402
0.002344966
-0.0034261942
0.006818652
-0.036488056
0.0077195168
-0.020864487
0.03011775
0.058196545
-0.018500209
0.04246247
-0.022773862
0.04659748
0.07246137
-0.044902086
0.036401033
-0.013253927
0.03132856
0.07185137
-0.02645731
-0.07024515
-0.0031371117
0.016811013
-0.013750792
0.023754835
-0.018206
0.041783214

-0.0073417425
-0.021330595
0.008643508
-0.025707722
0.017442703
-0.000264287
0.017617702
0.019830585
0.007978082
-0.022865176
0.026026249
0.012321115
-0.015684128
0.046390533
-0.030668259
-0.06531882
0.006646514
0.008246183
0.028993607
-0.01965177
0.0038542747
-0.0042511225
-0.039177656
0.029876351
0.046279192
-0.020521998
0.007534504
-0.011013627
0.024807215
0.0030072927
-0.0055855513
-0.004864335
-0.0035222769
-0.046048522
0.032420874
-0.008285403
-0.0330379
0.04595709
0.021574855
0.0020284653
0.0029278994
0.01636386
-0.01330328
0.012668252
0.0015038252
0.0072801113
0.008440018
-0.0491848
-0.0313071
-0.012875795
0.021613598
0.0036088228
0.035273433
0.025098562
0.008859992
-0.010959625
-0.017704725
0.002381444
0.016143084
0.022215962
0.024042726
-0.041880608
0.013709664
0.01358676
-0.0036281347
0.014195442
0.009224415
0.0001386404
0.004992366
0.0015881062
-0.0011175871
0.019042253
-0.039669394
-0.0028077364
0.0027930737
7.081032e-05
0.012405634
-0.029598355
-0.010525823
0.013388753
-0.022984982
0.004796028
-0.008995175
0.010425806
0.009423494
0.0037671328
0.024514914
-0.020130157
0.014434338
-0.008749127
-0.028060079
0.009454131
0.010810971
0.023412228
-0.0035171509
0.041784048
0.027661204
0.008013725
0.052808166
-0.017426968
-0.025554538
-0.028857231
0.00084269047
0.018852115
-0.0029149055
0.0025855303
-0.01885295
0.04575491
-0.027116895
-0.026550293
-0.0064088106
0.017104864
0.015503049
0.021456122
0.020256639
0.02169156
0.024935842
0.014841676
0.029708982
0.026610017
-0.00019347668
-0.040509224
0.04912901
0.02668333
0.03008771
0.00027740002
0.016361713
0.022239804
0.018544436
0.007822633
0.024118066
-0.027797103
0.0035663843
0.0046702623
0.047708392
-0.029204011
0.034891963
0.0050162077
0.009407043
0.0075445175
0.007391691
0.036243558
0.004160285
0.017762423
-0.0063453913
-0.015207052
0.021323323
-0.040018678
-0.018673778
0.002385974
0.0285604
-0.020833373
0.00033569336
-0.00731194
-0.0017899275
0.0022218227
0.007715583
-0.02166009
-0.0062457323
0.007439494
0.050083637
0.040022254
0.017029881
-0.0042482615
0.011328697
0.026910305
0.035609007
0.008648396
0.009985447
0.0058915615
-0.011937022
0.0025948286
-0.030317068
0.029029608
0.0010693073
-0.0019665956
0.03214073
0.034554362
-0.010743499
0.008787513
0.012338996
0.007634282
0.0070905685
-0.00017499924
0.024433136
-0.019389391
0.01619351
0.008973718
-0.034024954
0.019244075
-0.04123652
0.0018442869
0.030368209
0.0025669336
0.024879932
-0.017467618
0.012461543
0.051558852
-0.005588889
0.014631987
0.00061929226
-0.014609337
0.002272606
0.010695696
-0.0041184425
0.010435343
0.018426418
0.005577922
-0.010597348
-0.004696369
-0.014508724
0.0018185377
-0.009033322
0.0024468899
-0.011999488
-0.00963366
0.024738193
-0.010450482
0.023177981
0.015680194
0.0017724037
0.0007581711
0.019764304
0.043035626
0.0044407845
0.0069271326
-0.002226591
0.0063158274
0.0062322617
0.011697412
0.0006868839
0.021805644
-0.010381103
-0.039623737
-0.0051128864
0.043922663
0.008906841
0.026847482
0.013132453
0.014404535
-0.008403897
0.019804716
-0.014475226
-0.06965709
-0.017533302
0.005317092
0.02272749
0.006550193
0.01965642
-0.008532882
0.03960693
-0.0057594776
-0.009072542
-0.015768528
0.0034302473
0.0102722645
-0.016895056
0.0061383247
-0.0048986673
0.00521338
-0.015849471
-0.007965803
0.016680837
0.004388809
-0.011446118
-0.036157727
0.033126593
0.028552175
0.020720243
-0.001588583
-0.0069972277
-0.0029882193
0.0013581514
0.03282404
0.011143923
0.036788106
-0.009328604
-0.012943745
0.012010455
0.032379746
-0.0061602592
0.00044202805
-0.009246111
0.0013736486
-0.03061223
0.03538215
-0.0010051727
-0.008876562
0.024199009
0.030872703
-0.014159679
-0.0072721243
0.041547537
0.018104672
-0.014076233
0.04605794
0.0124669075
0.012409806
-0.023045182
-0.006533861
0.017484665
0.008163452
0.01558888
0.013329506
-0.029292107
0.0076266527
0.0061192513
-0.080930114
-0.007994533
0.044836402
0.0036398172
-0.0014773607
0.0069289207
0.010046005
0.044074416
-0.009853601
0.020983458
0.0017049313
0.0077489614
-0.029604673
0.008325577
0.003291607
0.02730763
-0.0047898293
0.04407215
0.042546988
-0.00055873394
-0.0018087626
-0.0010406971
-0.019662619
0.028486133
0.013346195
0.023486495
0.0026487112
-0.050775886
-0.009166598
0.009269476
0.01112473
0.02943325
0.016451716
0.0063210726
-0.014477134
-0.0025935173
0.008761764
0.052990198
-0.04511118
-0.0043611526
-0.01898837
0.027094126
0.023872137
0.014233708
-0.022398233
-0.027620554
0.021785975
-0.011711836
-0.01053369
0.019262075
0.010246873
-0.015743375
0.020889401
0.021381855
0.036893368
0.053670168
0.043664098
-0.0107473135
-8.4519386e-05
-0.013794541
0.03399682
0.0042266846
0.014877558
-0.0036746264
-0.022802472
-0.001157403
0.0064629316
0.021537423
0.011671305
-0.0101492405
0.0139244795
0.0027233362
0.038639188
0.03784609
0.014565229
-0.0007394552
-0.048053622
0.0068758726
0.005578637
-0.0009627342
-0.04270935
-0.017060041
0.0054712296
0.025820613
-0.014118314
0.048092127
-0.018444657
0.015348315
-0.007448435
-0.0020998716
0.03410542
-0.004875779
-0.007922053
0.021842837
-0.032455564
-0.0016795397
0.009703398
0.017420411
0.012085319
0.014337778
0.009208202
0.023070097
0.0038764477
0.019461274
0.028484583
0.047685504
0.021030664
-0.0054045916
-0.010998845
0.016592503
-0.006833434
0.014086127
0.031205893
0.010337591
0.010425925
0.032455802
0.0025681257
0.037322164
0.015153408
-0.010584712
0.0044293404
0.010364056
-0.009235859
-0.0011678934
-0.021124959
0.0104243755
-0.023265958
0.009807229
-0.009083033
0.018334031
-0.01906526
-0.07815778
0.0103622675
-9.62019e-05
0.039356947
-0.030472398
-0.04022348
0.02217102
0.023366332
0.006646037
-0.033267856
0.011459351
0.0026903152
-0.015426278
-0.023920536
0.01889038
0.030767918
-0.0037168264
0.01564598
0.02656281
-0.00083327293
-0.007874489
0.0014489889
-0.005692005
-0.027981043
-0.015275121
0.008477926
-0.022978187
-0.052590728
0.00980401
0.00701952
-0.019359589
0.020455003
-0.024071813
0.0112627745
0.01113081
-0.016599178
0.0047096014
-0.0004951954
0.023093939
0.0038372278
0.0049091578
-0.0109142065
0.009913564
0.003966689
0.0076560974
-0.0017751455
0.021950841
-0.004204273
-0.020320058
-0.005477786
-0.016566038
0.01980269
0.008523941
0.0012087822
0.0016566515
-0.01617968
0.008031845
-0.0046628714
-0.009720445
0.022129536
-0.059128046
0.003632784
0.0015503168
-0.008686304
0.00017356873
-0.004826069
-0.033745646
-0.0012031794
0.001475811
-0.022818446
0.01328814
0.011244655
-0.0033963919
0.008389473

0.009768128
-0.010520458
-0.008595228
-0.009808779
0.015314102
0.01156342
0.007038951
0.016311526
0.002646327
0.021942616
-0.005572319
0.032026052
-0.0013130903
0.0021982193
0.0022147894
-0.0010187626
0.005696416
0.00591588
0.04764211
-0.011333466
0.008291364
0.01691091
0.007795334
0.029477358
0.012449861
0.029828906
-0.035393596
-0.023632884
9.453297e-05
-0.005280614
0.0019499063
-0.014714837
-0.01228869
0.024964333
0.011430979
0.01039505
0.003943801
0.01279068
-0.012652636
-0.002898693
-0.017356277
-0.012645364
-0.0012602806
0.034869432
0.010472417
-0.010604024
0.0076645613
-0.0071634054
-0.011923194
0.015738487
-0.011288047
0.014050245
-0.006442547
0.01893413
-0.00850153
0.0029113293
0.002900362
0.014857411
0.009173155
-0.009414196
-0.025925994
-0.013025045
0.016307116
0.00016570091
-0.012116551
-0.0017504692
0.018042684
0.013477087
0.011515498
0.014411449
0.0074543953
-0.012336493
0.016515255
0.017471313
-0.017419457
-0.005968213
0.016882658
0.018706918
-0.024255514
0.0009572506
0.041410804
-0.0041406155
-0.012512803
-0.0027441978
0.0029649734
0.040981293
0.010416627
0.04007137
0.0021840334
-0.0057407618
-0.027925849
0.01687038
-0.00477612
-0.0057166815
-0.043929458
-0.012866378
-0.004067421
0.013164997
0.018036008
0.008549809
0.0044983625
-0.027727127
-0.0081118345
-0.010326743
0.0011622906
0.0029706955
-0.0010441542
0.0075610876
0.03894627
0.00222373
0.0141016245
-0.019017339
-0.019657135
-0.0048675537
0.045235515
0.040530324
-0.007927418
-0.0128599405
0.058530927
0.002325058
0.014803052
-0.002816677
0.0106236935
-0.0062628984
0.016000628
-0.008190513
-0.0011353493
0.009232044
-0.006910205
0.0063283443
0.011922121
-0.018730164
0.023900509
-0.015001416
-0.012826443
0.008359909
0.0014489889
-0.028259039
0.004850507
0.018142581
0.0128901005
0.024998784
0.014667511
0.027128696
-0.006365657
0.011530757
-0.008240819
0.024031281
-0.00023055077
-0.0066667795
-0.004021406
0.009358406
0.014558315
0.00995028
-0.01027596
-0.0052645206
-0.0028260946
-0.011856675
0.0038409233
0.013276219
-0.032633543
0.0029802322
0.028099656
-0.023829699
-0.0094355345
0.007312894
-0.0042408705
-0.015836835
0.018396974
0.007540107
-0.0050811768
0.04007876
0.008924842
0.012488723
-0.002247572
-0.013686061
0.013457894
-0.0017409325
0.016430855
0.0072683096
-0.031133294
0.0004746914
-0.020109653
0.0036963224
0.01360929
0.005903721
0.014954567
-0.0108498335
0.009847641
-0.0049165487
0.006392479
-0.013086915
-0.022941232
-0.0026243925
0.04132521
0.017504334
-0.012016773
0.038232207
-0.0068968534
-0.003629446
0.00016450882
-0.0007736683
-0.004624009
-0.025086522
0.028672338
0.006098032
-0.015657306
0.0006276369
-0.008313775
0.0022661686
-0.013372779
-0.009416342
-0.02431631
-0.0016819239
-0.0037264824
0.028741598
0.004761219
-0.0025485754
0.0112656355
-0.07572174
0.016287208
0.021193266
0.013302088
0.031235695
0.037302136
0.01967144
0.0010430813
0.006794572
-0.028154135
-0.015046358
-0.032414198
0.026011705
0.015583038
0.022001982
-0.018269777
0.02613628
0.024276137
0.068838835
0.039852977
0.009499788
0.028728724
-0.002444744
-0.002585888
-0.0010044575
0.0010781288
-0.00010871887
0.023739815
-0.006277442
-0.009708405
0.030001044
0.005802989
0.0035768747
0.012565851
-0.011780143
0.0015366077
-0.0041058064
0.0080266
0.008061886
-0.040562868
0.0024098158
0.044608474
0.013007045
0.014157176
0.0084319115
0.01644516
0.01100111
0.0033409595
0.002400875
0.03510487
-0.0232445
-0.014413357
0.036046267
0.02828443
-0.002086997
0.0131703615
0.021803379
0.0007556677
-0.0066390038
-0.009304404
-0.002277851
0.0027557611
0.04413259
0.0412848
0.019090056
-0.033614993
0.0043118
-0.00052797794
-0.005150914
0.013793945
-0.032114506
0.0018378496
-0.010083675
-0.003771305
-0.014276862
0.004785061
0.018706203
0.001824975
0.029946685
0.005095005
-0.013921857
0.0058926344
0.008812904
0.024071932
0.040665507
0.030281901
-0.004022956
0.0059574842
-0.031015992
0.041609168
-0.011689663
-0.007241845
0.04275143
-0.0029572248
-0.0019652843
-0.0035060644
-0.0036723614
0.0064042807
-0.0009932518
-0.0018235445
0.031989217
-0.0064646006
-0.00589633
0.0015298128
-0.013010979
-0.026196957
0.020566225
0.014461398
-0.01435256
-0.002015829
-0.0028345585
0.014045119
-0.009582877
0.011528611
0.01570785
-0.0012191534
-0.038364053
0.004105568
-0.025536776
0.015589237
-0.00356102
-0.009590149
0.018261433
0.013432503
-0.0009796619
0.0010977983
0.009470463
0.019764543
-0.005141139
0.006418228
-0.010360837
0.039661765
-0.0014144182
0.0069453716
0.042234898
-0.0011901855
0.0036735535
0.03003192
0.00472641
0.010027409
0.0113373995
0.033589363
-0.014105678
0.00029301643
0.00055754185
0.008638024
0.056685686
0.0051238537
0.009948373
-0.0039492846
-0.014841676
0.00026905537
-0.0004593134
0.003263235
0.015002131
0.012103319
-0.03547716
-0.030368209
-0.0031918287
0.022513032
-0.011085629
-0.032319665
-0.01841104
-0.0017797947
0.015801787
-0.029141545
-0.024640918
0.0033923388
-0.027583718
-0.03929329
-0.0053235292
0.035387874
-0.021973014
0.031883
0.0089735985
0.0053919554
-0.036901593
0.011153698
-0.003984809
0.006214142
-0.009738088
0.010457635
0.034826875
-0.035140038
0.026103616
0.006175995
0.0039738417
0.06208384
0.0033273697
0.010975599
0.007520795
-0.00084102154
0.021960497
0.006990552
-0.031445265
-0.01882875
0.015435934
0.025659561
0.0011012554
-0.0053708553
-6.4730644e-05
-0.0049473047
-0.037392378
0.015293717
-0.024355054
0.028196335
-0.008596897
0.0076327324
0.0053937435
-0.009024382
-0.014669299
0.0038626194
0.005503297
-0.0015723705
0.009241939
-0.014154077
-0.0029608011
-0.008888125
0.008381963
-0.00799346
0.0036079884
0.0114245415
-0.010022879
0.013483286
-0.005793929
0.018188596
0.059559584
0.047896743
0.0067771673
0.02247417
0.008408546
0.011198759
0.014791727
0.030727625
0.025647521
0.02803731
-0.005312085
0.0010365248
0.050284743
-0.0063872337
0.011755228
0.022371054
-0.027668118
0.01677978
0.021019459
-0.0028669834
0.0009611845
0.016735196
-0.011271238
-0.015738606
-0.002469778
0.02300787
-0.034852266
-0.011433482
-0.030714035
-0.023832202
-0.012544274
-0.009992838
0.0056091547
0.008240938
-0.00017440319
0.0251832
-0.0054391623
0.014393806
0.0025283098
0.011825681
-0.0010392666
0.028247118
0.02238524
0.0074430704
0.039602637
-0.015093088
-0.023267865
-0.007873297
-0.010386229
0.00071668625
-0.0016568899
-0.01645255
0.0057435036
0.030581236
-0.01376915
6.4611435e-05
0.009170532
-0.0022268295
0.006974697
0.019902587
0.0107626915
-0.007121086
0.010858059
0.0054547787
-0.00013399124
-0.000600934
0.030189514

0.0015343428
-0.0011191368
0.005674958
0.0007523298
0.0048224926
0.027390718
0.00047922134
0.018087626
-0.016306162
-0.0058404207
0.0055732727
-0.0056824684
-0.011056185
0.010497093
0.007055402
0.039796114
0.0007523298
0.00029718876
-0.007940531
0.002180457
-0.0011688471
-0.0002861023
-0.0016007423
0.0091228485
0.00980854
0.022537112
-0.004534006
0.0018043518
0.014091611
0.005178094
-0.0067509413
0.0025554895
-0.0129288435
-0.0007876158
-0.019124746
-0.0009902716
0.0057418346
0.006411314
0.0048166513
0.005551696
-0.014099956
0.007213235
-0.0040204525
-0.013673544
0.0016044378
0.0016796589
-0.00595963
-0.0024118423
-0.0066218376
-0.010425806
0.00054872036
0.0035569668
0.0076692104
0.010374069
0.018070936
0.008607864
-0.006771207
0.0011639595
0.0027433634
-0.0068091154
0.002755642
0.00663805
-0.00038945675
-0.0011975765
0.020001292
0.007261038
0.011353731
0.0008317232
-0.0026100874
0.0032935143
0.019049048
-0.005864024
-0.005631566
0.010502338
0.031350493
0.002124548
0.005084634
0.04976213
0.0012784004
-0.004008889
0.0061171055
0.022465706
0.011058807
-0.019128084
-0.034942627
-0.008570075
0.012858629
0.015885592
0.0054237843
0.0015850067
0.009211183
-0.010585189
0.0011358261
0.018001795
0.013359785
-0.0055663586
0.0059081316
-0.011003494
0.017658591
-0.0049034357
-0.0014687777
-0.0050764084
-0.005755186
-0.004961729
0.015835404
-0.011633992
-0.00038778782
0.025688052
0.016972661
-0.0029213428
0.009559393
0.013486028
-0.012546182
0.018518448
0.010319114
-0.020427704
-0.009380579
0.0019506216
0.024999142
0.067525744
0.026154518
0.024187684
0.015898705
0.014111042
-0.00056409836
0.02867639
0.00017869473
0.059874773
0.007426858
-0.0049073696
-0.0073001385
-0.0052934885
0.0132603645
-0.00594306
0.017577529
-0.0036785603
0.0064866543
-0.0024933815
0.013003588
-0.0017864704
0.0033847094
0.011683226
0.013318777
0.025899172
0.01851356
-0.0025491714
-0.023884058
0.015572786
0.0028247833
-0.004472494
-0.0037602186
0.0008212328
-0.0020711422
0.041816115
0.0035899878
-0.0075137615
-0.0038849115
-0.0005158186
-0.00017678738
0.0001860857
-0.010398269
0.0067714453
-0.004481077
0.013958216
0.011708736
-0.01684177
0.012634277
-0.023230791
0.0075850487
0.00840199
-0.0022605658
-0.0027436018
-0.012288928
0.002479434
0.020219207
-0.0072824955
-0.0039303303
-0.002652645
0.013483882
0.012413144
0.0032951832
0.002246976
0.009466052
-0.019687295
0.009500384
-0.005240679
0.0018907785
0.0043495893
-0.006913781
0.008907318
-0.01024282
0.004516244
0.009221077
-0.004012108
-0.0037071705
0.025142193
0.013231754
-0.0021449327
-0.009157777
0.021569252
-0.0076606274
0.0031507015
0.000792861
0.011420965
0.016204953
-0.0008689165
-0.0025365353
-0.009460688
0.0020766258
-0.012300134
0.013357639
0.0034559965
-0.045580387
0.0054836273
0.0090096
-0.0034657717
0.0009994507
-0.0029816628
-0.0007070303
-0.022942662
-0.014999628
-0.01403892
0.011414647
0.012373924
0.0077596903
0.0040462017
0.0036650896
0.0147281885
-0.009249687
-0.0042545795
-0.018455982
-0.005611539
0.0053881407
0.0064618587
0.02597344
0.017582297
8.249283e-05
0.011898041
0.038504004
0.0128291845
-0.014718175
0.000823617
-0.01117909
1.1086464e-05
0.014225364
0.013769627
0.006359458
0.042568922
-0.008682966
-0.009177685
-0.013419509
-0.011261344
0.010775924
0.02824223
0.021420956
0.008539319
-0.0038808584
-0.0050742626
0.0012214184
-0.03032279
-0.008911133
0.0072478056
0.000702858
0.009818435
0.006221652
0.034083128
0.0022525787
0.010406256
-0.0040335655
0.012342572
0.000487566
0.02541852
0.014858961
0.004479885
0.027059197
0.003493309
0.0036824942
-0.00023901463
0.04676628
0.015606761
-0.015456796
-0.002034545
0.004770279
-0.011011124
0.020715237
0.005104661
0.022710323
0.019539952
0.009934187
-0.000116705894
0.0016396046
0.020288467
-0.0028566122
-0.004110813
0.02904582
0.0054944754
0.028178215
0.02336669
0.0013564825
-0.00010704994
-0.00529778
0.020296693
0.0061963797
0.016489506
0.011878729
0.014156222
0.0078264475
-0.0024796724
0.006268859
0.0044597387
0.010816932
-0.0021566153
-0.006602049
0.012203336
-0.00057184696
0.011335373
0.01145339
0.023722291
0.00656116
0.032819867
0.010775924
0.010349631
-0.0037117004
-0.024389863
-0.0053122044
0.0018713474
-0.00381279
0.0009356737
0.0063556433
0.0739876
-0.0048605204
0.0036638975
-0.025789976
0.017410994
-0.0004259348
0.017205715
-0.019590616
0.004746437
0.0077118874
-0.008426905
7.6174736e-05
0.014970064
-0.005278349
-0.009536147
-0.0003658533
-0.0053566694
-0.0091410875
-0.013955951
-0.010922909
-0.010944247
-0.0052741766
-0.003841281
0.0015662909
0.004041195
0.006696701
0.0123387575
0.002769947
0.0062110424
0.0033724308
-0.025737166
0.0036466122
0.016061902
0.0064669847
0.015708566
0.013068318
-0.002466321
0.018300533
0.001718998
0.0071305037
0.01903069
0.016311765
-0.08186233
0.014139175
0.00264287
0.012642622
0.0024442673
0.0056232214
-0.00082051754
0.011617184
0.0024859905
-0.0045456886
-0.0143995285
0.007312298
-0.013374209
-0.0034134388
0.021610975
0.00038063526
0.0009765625
-0.007932901
0.010852098
2.1457672e-06
0.0013325214
0.0018743277
-0.002064228
0.001514554
0.006275654
0.0013991594
0.012591243
0.00081300735
0.027665019
0.014108658
-0.014820099
0.00023925304
-0.00015640259
0.020328045
0.022372127
0.004827261
0.0098183155
-0.008224249
-0.0057370663
0.00047528744
0.0034770966
0.0082092285
0.00041270256
0.00620842
-0.0026266575
-0.009021044
-0.003228426
-0.0081909895
-0.0031734705
0.0042904615
0.010338664
-0.0050958395
-8.249283e-05
0.013584733
0.051211238
0.0027589798
-0.0022835732
-0.010901332
-0.01463294
-0.011276841
0.005684614
0.0002644062
0.004333973
0.015266895
0.0057394505
0.0017254353
0.0027352571
-0.0035971403
-0.021098137
-0.0039274693
0.003661871
0.0047620535
0.015928864
-0.00021064281
-0.0031517744
0.0010898113
0.0028868914
0.013016105
0.045011878
0.0152208805
0.004124999
0.008143783
-0.0011218786
0.01401031
0.04125476
0.00845325
0.0056705475
0.0005584955
-0.016142607
0.03246057
-0.038585424
-0.02332735
-6.377697e-05
-0.0020754337
0.010909438
0.0020563602
0.0023282766
0.0015512705
0.00081288815
0.00034153461
0.017022371
-0.0007954836
-0.014499903
-0.002287984
-0.000300169
-7.557869e-05
-0.0009821653
0.003786087
0.017537475
0.007588744
-0.0013211966
0.022180676
-0.0067801476
0.002358079
0.009391904
0.009248257
0.010853291
0.0035557747
0.004478097
-0.0022807121
0.010093093
0.0015734434
0.011004925
-0.03953266
0.001919508
0.002312541
0.011875749
-0.00066161156
8.940697e-05
0.0148307085
0.004573941
0.014248252
-0.0123438835
0.00748837
-0.0034079552
0.0007747412
-0.010592818
-0.016741753
0.005289793
-0.006392598
0.0050988197

0.0011738539
0.020628572
0.006694317
-0.0018025637
0.01904726
0.010631084
0.0023777485
0.017250776
0.0043593645
0.006323695
0.008718252
0.0068616867
-0.005232811
0.0073952675
-0.005660534
0.010282159
0.0005247593
-0.0006914139
-0.000698328
0.020182848
-0.0027791262
-0.0003424883
0.00096285343
0.012415767
0.0034052134
-0.010928392
-0.0017498732
0.0052678585
-0.0023587942
-0.007176161
0.00810945
0.011155367
0.0002477169
0.0035774708
-0.0003118515
0.00521338
-0.0005606413
0.02094698
0.0045815706
0.0057686567
0.0036643744
0.0048576593
0.0030266047
0.021510601
-0.009084225
0.00028812885
-0.001982212
0.029746532
0.0116324425
0.0140885115
0.018226743
0.0060892105
0.009410739
-5.2809715e-05
-0.0070655346
-0.0017396212
-0.0010237694
-0.0008723736
0.0036350489
0.0007368326
0.00090432167
0.010522604
0.008652329
0.006195426
0.0029314756
0.022175908
-0.0003144741
0.0070843697
0.0010595322
0.0036010742
-0.0018550158
0.011025786
-0.0028259754
0.012046099
-0.000305295
0.004951477
-0.00091063976
-0.00097465515
0.0011274815
0.0051071644
0.0050497055
0.0014926195
0.012740016
-0.0017082691
0.006097913
0.0042607784
1.6331673e-05
0.0063444376
0.008841395
0.011002183
-0.006262541
-0.0021734238
-0.0013531446
0.0011621714
-0.0042494535
0.00016760826
-0.000890255
0.0036697388
0.0023299456
0.006935239
0.0010182858
0.0055348873
0.0063527822
0.007995963
0.006156206
8.9645386e-05
0.00075638294
0.0023149252
0.00897336
-0.0055708885
0.0088784695
-0.002598405
0.0043849945
0.00093245506
0.016127229
0.012755394
0.007437706
-0.006834626
0.02348876
0.00041353703
-0.013908863
0.00020515919
0.0023344755
0.004976392
0.01061964
0.0021555424
0.020197868
-4.1604042e-05
-0.0016397238
0.002511263
0.0044136047
-0.0034856796
0.0015641451
0.002721548
-0.0010597706
-0.001701355
0.00227952
0.0019689798
0.011110306
-0.0011324883
0.0031222105
-0.000703454
0.013470054
0.0023473501
0.009376407
0.0012236834
-0.0017340183
0.013583183
-0.0052136183
-0.00749135
0.002858758
0.010372281
0.0024535656
-0.0025174618
0.007007718
-0.0019596815
0.0010582209
0.023518443
0.01339519
0.014175534
0.0009589195
0.0027228594
-0.0009485483
0.0068386793
0.011630535
0.0036132336
-0.00054347515
0.0014368296
0.004235506
0.014552474
0.0022307634
0.0021117926
-0.0041265488
0.00085401535
-0.0018441677
0.004241228
0.0040773153
0.001313448
0.0025413036
0.0015505552
0.00089764595
0.0028339624
0.00020265579
0.0019545555
0.011934519
0.0042886734
0.0036731958
0.033169866
-0.0011230707
0.015327573
0.021404982
0.014222264
0.0060788393
-0.008854032
0.0044225454
0.0017948151
0.0022542477
0.008409381
0.0045626163
0.0016994476
0.013479233
-0.0017328262
0.0055201054
-0.0078064203
-0.00086796284
-0.004279375
0.0040420294
-0.0046213865
-0.0039013624
0.0013514757
-0.0049874783
-0.0004929304
-0.0013513565
0.02914226
-0.0018725395
0.0041542053
0.0019735098
-0.001086235
0.009363174
0.00042581558
0.0014839172
0.0098029375
-0.004104972
0.0020486116
0.0010700226
0.0013746023
-0.0029916763
0.0027874708
-0.0083914995
0.0010565519
-0.0012717247
-0.0021597147
-0.0008984804
0.0005660057
0.007062435
0.004355073
0.017647147
-0.0017384291
-0.0028321743
0.0011075735
0.01668036
-0.0036113262
-0.011098623
0.008687615
-0.0010778904
0.00021624565
0.0008201599
0.000182271
0.009214282
-0.00019812584
0.022202253
-0.0017085075
0.009163499
0.0034918785
0.013809681
0.016936183
0.00032544136
0.0048447847
0.004016161
0.00758636
-0.004343748
0.0064264536
0.011212468
-0.004581809
0.002276063
0.0027136803
-0.00045657158
-0.00059080124
0.0070991516
-0.0049403906
0.007424116
0.001581192
0.0003077984
0.005338073
0.0041805506
0.0018136501
0.0059170723
0.03329563
0.0019731522
0.003653288
-0.0004490614
0.00336349
-0.0026882887
0.0020666122
-0.002057314
0.0063517094
2.026558e-05
-0.0032126904
0.003303647
0.018522501
0.0048122406
0.013697624
0.0019272566
0.0020065308
0.007295251
-0.00019299984
0.006526828
0.012093902
-0.002469182
0.006778598
0.005367756
-0.0017015934
-0.0023317337
0.0021276474
-9.6559525e-05
0.009624004
0.006053567
0.008753896
0.02643478
-0.00182724
0.013294578
0.0023448467
-0.006591916
0.011762738
-0.00020384789
-4.196167e-05
0.011952639
-0.00023424625
0.016174078
0.00090003014
0.0009806156
-0.008318305
0.008282065
-0.00011301041
0.005628705
0.0034899712
0.00082039833
0.0025798082
-0.006780505
-0.011572719
0.0048309565
0.0007698536
-0.005485058
0.011420369
0.012503266
0.0074118376
0.03029871
-0.0040067434
-0.010395169
0.0007956028
0.0005170107
0.009351611
-0.0040956736
0.0008058548
0.0029206276
-0.0012532473
-0.0011813641
0.0031565428
-0.0060042143
0.007655978
0.020052671
0.0052222013
0.0020475388
0.0031768084
0.0025355816
-0.0016934872
0.00024950504
0.01469624
0.0003246069
0.004488826
0.008732796
0.018411517
0.00041139126
0.0025736094
0.0075273514
0.01064074
0.010732532
0.018057108
-0.0022614002
0.008499384
0.007727146
0.00070261955
-0.008535504
0.016309857
0.001008749
0.010336161
-0.0028104782
0.013270497
0.003649354
0.012543321
0.00030565262
-0.0021309853
0.0034227371
0.0042527914
0.014372468
0.0116814375
-0.00043821335
-0.0018879175
0.0067209005
-0.0018669367
0.0019613504
0.00061666965
-0.002786994
0.004558325
-0.00074899197
0.0014827251
0.007125497
0.00023198128
-0.0030230284
0.0071566105
0.0058659315
3.0398369e-05
0.001136303
0.0006673336
0.002658248
0.011282086
0.0010573864
-0.0027400255
0.0026978254
0.0001269579
-0.00089013577
0.0083761215
-0.0033266544
-0.0029599667
0.00014293194
0.00984025
0.009056091
-0.0035274029
0.0093740225
-0.0042607784
-0.0044983625
-0.0008004904
0.0025892258
-0.0019857883
-0.0046539307
0.004025936
-0.0049277544
0.005845785
0.018026233
-0.0037235022
-0.0023107529
-0.00077807903
-0.0013414621
0.0027970076
0.004439473
-0.004344225
-0.00068223476
0.012362242
0.0049772263
-0.0046197176
0.014276147
0.016111255
0.0077553988
0.0060361624
0.005720496
0.0054614544
0.0026214123
0.00017011166
8.368492e-05
0.001904726
0.0070687532
0.010198712
0.01536119
-0.0008794069
-0.019592881
0.006278038
-0.00044202805
0.0063693523
-0.0032188892
-0.0010341406
0.004208803
0.003714323
-0.004668832
-0.0007431507
0.0046982765
0.001938343
0.010520101
-0.01601243
0.00047314167
0.0063456297
0.0034570694
0.0007234812
-0.0052833557
-0.0014498234
-0.007145405
0.00081408024
0.0053817034
0.000680089
0.005483389
0.008027792
-0.00070250034
0.0055576563
0.00010347366
-0.0022729635
0.009355664
0.006703377
-0.0034657717
0.004478812
0.016479492
-0.003707528
0.0026904345
0.0014916658
-0.0024471283
0.005398631
0.0058624744
0.0035575628
0.005898118
0.012086391
0.0064042807
0.014573574
0.002406478
0.0011222363
-0.0002619028
0.0044840574
-0.0010285378
0.0026249886
0.007847905
0.0041805506
0.008578777
0.006134033
0.010066152
-0.0023639202

0.0038309097
-0.0023114681
0.00018286705
0.0035170317
0.002247572
0.0024273396
-0.005205393
0.0007406473
0.0024014711
0.004005432
0.011430383
-0.0015799999
0.0056049824
-0.0027464628
0.003212452
-0.004498601
0.0045279264
-0.0009226799
-0.0021400452
-0.00067937374
0.003254652
0.0005658865
0.0009660721
0.003986597
0.0041764975
0.005791664
-0.0016440153
-0.0005004406
-0.00013673306
0.0017923117
0.0018955469
0.009518027
0.0049363375
-0.001614213
-0.0029028654
0.0019426346
0.009687066
0.008205771
0.0054649115
-0.0018131733
0.0036962032
0.0010842085
0.010924339
0.007888079
0.0012102127
0.002630353
0.0036742687
0.006002784
0.0017081499
0.014924884
0.0043976307
0.009683013
0.004155636
0.003593564
0.0024760962
-0.0019919872
0.0011831522
0.001437664
0.002470851
0.00076186657
0.012099862
-0.0021852255
0.0021166801
0.005674243
0.017152071
-0.0007276535
0.0021710396
-0.001982212
0.0019614697
0.0020560026
0.0017414093
-0.0014442205
0.0065077543
-0.0036666393
0.0036940575
0.007934451
-0.0016832352
0.0023486614
0.0057656765
0.007540345
0.0016751289
0.0006121397
0.0002888441
-0.00048530102
0.00041139126
-0.0024203062
0.002378583
0.0010716915
0.0059461594
0.004777193
0.013917208
0.005124569
0.008642435
0.0016678572
0.0024154186
0.004005313
0.0046241283
0.013491631
0.003959179
0.00891912
0.004906416
0.0030665398
0.003367424
0.0006889105
0.0006648302
0.002060771
0.004018903
0.011758566
0.0019903183
0.011014938
-0.001601696
0.00058984756
0.0020986795
0.009796739
-0.0017179251
0.008515716
0.0006326437
-0.0043547153
0.0020450354
0.003426075
0.002846837
0.005817175
-0.0016232729
0.0030363798
0.01068747
0.0025783777
-0.0042271614
0.0035145283
0.004688978
0.004671812
-0.0016645193
0.012836337
-0.0068095922
0.0014543533
0.015483379
0.010641456
0.0031692982
-0.0006172657
0.0026843548
-0.0017558336
0.011638999
0.0020968914
4.3153763e-05
0.006319642
-0.0028800964
0.011803746
0.0013635159
0.0053362846
0.0037206411
0.005830407
0.012486339
-0.00076305866
0.0047717094
0.006087899
-0.0011054277
0.00054609776
0.0057367086
0.008086801
0.0037260056
-0.00047922134
0.006447315
0.010114431
0.011481762
0.001046896
0.0041468143
0.0009522438
0.0009230375
0.0016852617
0.00017154217
-0.0053293705
0.0046602488
0.0014510155
0.00024020672
0.0026652813
0.010583162
0.003376484
0.005262375
0.0009609461
0.00012397766
0.007745981
-0.0024183989
-0.0005916357
6.711483e-05
0.004480481
0.0017827749
0.025369644
0.011541963
-0.0004968643
-0.0011085272
0.0010968447
0.004940033
0.00438118
0.0024385452
-0.0028642416
-0.0018000603
0.0033316612
0.0118300915
-0.0006483793
-0.0009926558
0.003599763
0.004773855
0.0049259663
0.00043213367
-0.00077295303
0.017675757
0.008248091
-0.0013777018
0.0019681454
-0.0010567904
0.0007991791
0.006052971
0.011354327
0.010028839
-0.0065898895
0.002634883
-0.00014448166
0.010164261
0.0028847456
0.0032417774
-0.0004541874
0.008356452
0.0015147924
0.0027151108
0.0040587187
0.00088489056
0.007667303
0.0017732382
0.008540034
-0.0016800165
0.008093119
-0.00039231777
-0.00073981285
0.0027879477
0.00028681755
0.0016567707
0.005307913
0.0027134418
0.0013383627
0.0024411678
0.009491086
0.010855675
0.009949684
-0.0025781393
0.0046741962
0.007653475
0.007589221
0.0042881966
0.0015667677
-0.00648427
0.0034778118
0.011340022
-0.00082814693
0.004552841
0.0033735037
-0.0005431175
0.0016186237
0.0076509714
-0.00060760975
0.0007523298
0.027884126
0.0038839579
0.0051273108
0.006955147
-0.0034998655
0.0007903576
0.021771312
0.014388442
0.0028557777
-0.0004940033
0.010817647
0.0007984638
0.0018875599
-0.00089883804
0.0019328594
0.0003144741
0.004053712
0.0009468794
0.004710555
0.0068030357
-0.00014209747
0.003890276
0.002000451
0.0012180805
-0.00060009956
0.0032919645
6.604195e-05
-0.0025309324
0.0042653084
0.012297392
0.0034725666
0.011157393
0.0077728033
0.0005902052
0.0008034706
0.0027737617
0.012410641
0.005377054
0.010943055
0.0027586222
-0.002522707
0.00093364716
0.012064934
0.0003991127
0.003029704
0.00807929
0.00417614
0.0011401176
0.005132675
0.0064839125
-0.00082075596
0.0044049025
0.010629892
0.0069829226
0.009756684
0.008379221
-0.00045132637
-0.0022720098
0.011946559
0.005170226
0.0068941116
0.0010986328
0.0077694654
0.0070199966
0.0050486326
0.0010142326
-0.001760006
0.011847377
0.008989811
0.004249096
0.010224223
0.00043547153
0.002302289
0.0007842779
0.0059359074
0.004037738
0.006648779
0.0028691292
0.0027278662
-0.0025632381
0.008374214
0.004293561
0.004813075
-0.0021042824
0.0010774136
0.00021970272
0.0018869638
0.0023646355
-0.00038301945
-0.0049892664
0.005312681
-0.0018315315
0.008094311
-0.00015711784
0.0041356087
-0.0039577484
-0.004025817
0.0016998053
0.002888441
0.0033667088
0.009277225
0.0019404888
0.0058864355
0.0026836395
0.0065609217
0.0124948025
-0.002200842
0.008260131
0.0040248632
-2.2172928e-05
0.0011749268
0.003021717
0.0053834915
-0.0036540031
-0.000400424
0.0004928112
0.00058972836
-0.0027620792
0.00630641
0.005752325
0.0048980713
0.00071287155
-0.0010002851
0.0019317865
0.00012350082
0.0016828775
0.0002579689
0.0020139217
-0.00038969517
0.0002654791
0.026123166
0.010269523
0.016609073
0.0034641027
-0.0027199984
0.0006299019
-0.00094389915
0.004697442
0.0043233633
0.0003515482
0.001065135
0.002179265
0.0005238056
0.0056329966
0.010046244
0.004900217
0.004120946
-0.000949502
-0.004994154
-0.0012087822
0.004970908
0.0049163103
0.002714634
0.00647521
-0.00075674057
0.00993371
0.0059307814
-0.004698634
0.0115766525
0.004355669
0.007859826
0.011746764
0.0038952827
0.009359598
0.0016955137
0.0053157806
0.0053036213
0.0022728443
0.0024363995
0.0063432455
0.0010255575
0.008668184
0.005034089
0.017289162
0.017864466
0.00048720837
0.016536832
0.0020611286
-0.0007970333
0.0038529634
0.0015672445
-0.0007687807
0.004231453
0.00016236305
0.0016862154
-0.0107700825
0.022598147
-0.0012037754
-0.0028957129
0.00031220913
0.0005310774
0.003480196
8.1300735e-05
0.0024594069
0.001902461
0.0051851273
0.0036871433
0.00015687943
0.0010906458
0.006467104
0.0011606216
0.00416255
0.01657927
0.0067077875
0.007821441
0.0013465881
0.0049272776
0.013162494
0.008816719
-0.0003517866
-0.0022323132
-0.0011512041
0.017512083
-0.0018085241
0.011282802
0.008892775
0.014657378
0.009144902
4.208088e-05
-0.00019335747
5.6743622e-05
0.0067065954
0.0037660599
-0.0026425123
0.0001270771
0.0027469397
0.00021982193
0.005296111
0.0032032728
0.0033185482
0.0011498928
-0.0025515556
0.0031610727
-0.0014356375
-0.0007019043
0.003250599
0.0031638145
0.006603956
-0.0009806156
0.00111866
0.00919807
0.003660202
-0.00092601776
0.004733205
0.011312723
0.012612581
0.0012837648
2.7537346e-05
0.005102873
0.011523247
0.010366559
0.0046151876
0.004082203

0.015782714
0.0016993284
0.010903239
0.022501111
-0.0044059753
0.006026149
0.0017005205
0.013815641
-0.0014514923
0.008331656
0.002979517
0.0042318106
-0.0041342974
0.007004261
-0.0007457733
0.021479964
-0.0039741993
-0.0013705492
-0.0010672808
-0.004518628
-0.0005836487
-0.000741601
-0.0012406111
0.021855712
0.009501338
-0.0052735806
-0.0032811165
0.003298521
0.008438587
0.0030920506
0.002334237
0.004579544
0.006579995
-0.0015597343
0.0007673502
-0.0016252995
-0.00030970573
0.0042643547
0.0005428791
0.0041573048
-0.0046958923
0.0021669865
0.0022894144
0.004273176
-0.0008274317
0.015475988
0.004310012
-0.00030827522
0.042939067
-0.010641813
-0.0030713081
0.01704204
0.0028598309
0.0005390644
-0.002776742
0.0028738976
0.007671833
0.005335808
-0.002474308
0.0017865896
0.0027577877
0.011453867
0.0037045479
0.009140372
-4.053116e-05
-0.0052952766
0.002442956
7.033348e-05
-4.1127205e-05
0.006875634
0.0067317486
0.015620828
0.015042186
-0.00070130825
-0.005088687
0.0017141104
0.0029892921
0.0031987429
0.0068879128
-0.002430439
0.0044242144
-0.0021106005
0.002980709
0.004126787
-0.0064240694
0.0013946295
0.011696696
0.0015548468
0.009956241
-0.0019049644
0.0025583506
4.5776367e-05
-0.0010976791
0.0071457624
-0.0029836893
0.0071930885
0.003056407
0.007256031
-0.0010931492
0.013682961
-0.004749775
0.012845159
0.0044237375
0.0068511963
0.0050383806
0.0023323298
0.0045502186
-0.00056278706
0.003063202
0.0074956417
0.0023111105
0.0019689798
0.0100981
-0.006228447
0.000715971
0.0005412102
0.0061069727
-0.0024760962
-0.003094554
-0.0036486387
0.003111124
0.004317522
0.004062891
-0.005948901
0.015666604
-0.0003080368
0.007875562
0.010432363
0.0009964705
0.020366192
0.0027400255
0.009094834
-0.0013233423
0.0071858168
0.0028994083
-0.0007778406
-0.0039613247
0.019327044
0.005448699
-0.00024676323
-1.7762184e-05
0.017348766
0.0047774315
0.0043650866
0.009937644
0.0016088486
-0.0015214682
0.009907246
0.0023282766
-0.0057559013
-0.00083994865
0.018546104
0.0012335777
0.004747629
0.015790462
0.0003889799
0.008717775
0.014640331
0.001254797
0.0030770302
0.00885129
0.0018945932
-0.015036106
0.024678826
0.012168884
-0.0048764944
0.0028662682
-0.0018472672
0.013988614
-0.0011783838
0.002110958
0.010244012
0.0011833906
-0.0033128262
0.001496911
-5.567074e-05
0.026197314
0.0089126825
0.004791856
-0.00042271614
0.0050275326
-0.00519526
0.00023913383
-0.0019845963
-0.0026866198
0.0026032925
-9.071827e-05
0.008125305
-0.00038266182
-0.005900979
-0.0014933348
-0.0022422075
-4.4345856e-05
0.0024204254
0.0021560192
0.009932876
-0.00080037117
0.009104013
0.012289286
0.01050818
-0.0030753613
0.0031459332
-0.0015345812
-0.004117489
0.013156295
-0.0017720461
0.012542486
-0.0035232306
0.0032470226
0.008311868
0.0132085085
-0.0010684729
-0.0005732775
0.0044089556
0.012330532
0.0040198565
-0.010175586
0.006250739
0.007355213
0.0005995035
0.009349227
0.0011638403
0.010190845
2.8252602e-05
0.0026983023
-0.0035238266
0.0033314228
-0.0048036575
0.0011408329
0.0017555952
0.0075930357
0.0119303465
0.009456873
-0.00048351288
0.0018573999
0.009465456
0.0039954185
-0.00044560432
-0.0022608042
0.004972458
0.010380983
-0.0030597448
-0.00011730194
-0.0008972883
0.005161643
0.0002951622
0.025582433
0.0026073456
0.0031518936
0.0069918633
-0.0015838146
-0.0015730858
-0.0017699003
0.016602159
-0.0054353476
0.0037357807
0.0073000193
0.0017516613
0.01748538
0.0103755
0.015125155
0.0006401539
0.004345417
-0.006554842
0.008788228
0.010905743
0.0072141886
-0.0019017458
-0.0008404255
-0.004216552
0.002739191
0.0045017004
0.011993289
0.0036680698
0.0018086433
0.011749268
-0.0026972294
0.001430273
-0.001049757
0.0032910109
0.009913087
-0.0018429756
0.016859412
0.0031454563
0.0059576035
0.00137043
0.007996559
0.0077621937
0.018073082
-0.007929087
0.01165998
-0.00068092346
0.0033496618
0.0019234419
0.004091859
0.0065259933
0.0008342266
0.005509138
0.008694053
0.0026962757
0.009624004
0.0035965443
0.009383202
-0.0014497042
-0.0014158487
-0.00012373924
0.0058956146
-0.0028473139
0.009020925
-0.010026932
0.008230925
-0.0014784336
-0.00026381016
0.00017738342
0.00028014183
0.0048770905
0.0045987368
-0.0039702654
0.0017986298
-0.0055093765
0.0015851259
8.952618e-05
0.0057510138
0.0009469986
0.005363822
0.0035120249
-0.0042272806
0.017329216
-0.0029389858
0.011119723
0.008452177
-0.0025066137
0.0017977953
0.011619329
0.0057427883
0.0040962696
-0.003120184
0.007861018
0.0030800104
0.004204154
0.0034689903
0.004016757
-0.002307415
0.001126647
0.003349185
0.0032889843
0.011536002
0.0068947077
0.0014061928
0.0042791367
0.005621314
0.014962792
0.0026082993
0.0006958246
0.0027195215
0.01111269
0.0063687563
-0.002970457
0.0084062815
0.0054000616
-3.361702e-05
0.006148815
0.013208032
-0.00977087
0.0016385317
0.005818367
0.00057709217
0.0097283125
0.016259313
-0.0012376308
0.0029991865
-0.0006438494
-0.0029375553
0.00452137
-0.0030765533
-0.0028002262
0.0059331656
0.0012491941
0.009362698
-0.0015001297
0.0025562048
0.0013891459
0.010335565
0.009100676
0.013642669
-0.00054883957
-0.0025078058
-0.0031241179
-0.010718465
0.004080057
-0.0014475584
0.024974227
0.0024077892
0.006061673
0.017933846
0.0067412853
0.007355213
0.008785844
0.0009753704
-0.0024055243
-0.0010403395
0.0036051273
-0.008295417
0.012905002
0.0018962622
0.0069828033
-0.0027024746
0.0016391277
0.0016218424
-0.002398491
-0.0033533573
0.00090527534
0.004530072
-0.002339363
0.0004992485
0.0043576956
-0.0005722046
0.0069978237
0.002393961
0.0050548315
-0.0057719946
-0.0005259514
0.0009403229
0.0019482374
0.005936861
0.012780905
0.00033593178
-0.0037418604
0.002989769
0.005780101
0.0029687881
0.00016129017
-0.00020241737
0.008893251
0.0032548904
0.0036427975
0.0019652843
0.0003695488
-0.0041817427
-0.00423491
0.0043364763
-0.006365061
0.009035468
0.006164074
0.00280118
0.0042077303
-0.0013234615
-0.0008325577
-0.00021231174
0.008805037
0.0059605837
0.0030767918
0.014536738
0.010932684
0.0012534857
0.0012499094
-0.005064726
0.0048485994
0.010469794
0.0009883642
0.02703166
-0.0007778406
0.018774748
0.0044573545
0.014081717
0.0001502037
-0.003363967
0.004950285
0.002425909
0.00094270706
0.0139706135
-0.007377267
-0.0005581379
-0.00021743774
0.009717941
0.0027743578
-0.00029873848
-0.0018503666
-0.0068924427
-0.0031324625
0.0064458847
0.0036422014
-0.0014134645
-0.0045837164
0.011029124
0.0047261715
0.0016403198
0.0033476353
-5.2690506e-05
0.0040040016
-0.0037219524
0.0070267916
0.0035418272
0.000541687
0.00042378902
0.0009894371
-0.0019404888
-0.0016317368
0.0037603378
0.0135496855
0.0006699562
0.005709052
-0.009649992
0.016218066
0.017411351
0.0108731985
0.0010473728
0.0038491488
0.032479882
0.004530549
0.0031181574
0.0028440952

0.45450056
0.52130747
0.429546
0.43765497
0.4266528
0.41975486
0.3939755
0.43064642
0.51089025
0.4357096

