0.04614556
0.06134081
0.00068080425
0.0007480383
0.018869758
0.04119742
0.024708867
0.015393972
0.056837678
0.010827184
0.09855032
0.05389893
0.04775989
0.014906645
-0.020740628
0.0034644604
0.032376647
-0.03297043
0.10192871
-0.051385283
0.0050017834
0.04074061
0.032987714
-0.02330637
0.009439349
0.037436962
0.05288887
0.00037062168
0.082344174
0.005496502
0.059990883
0.043040037
0.04519117
0.06560242
0.016283631
0.00393641
0.003914237
0.01168704
-0.017797947
0.023606658
0.032702327
0.01945448
-4.87566e-05
0.09616232
-0.025042057
0.06053543
-0.009008884
0.043412328
0.047817588
0.017971277
0.09886801
0.011119366
0.034115434
-0.011869788
0.009443045
0.005603552
0.06010616
0.028997183
0.028357029
0.006756425
-0.015673757
0.023038983
0.0066804886
-0.048816204

0.009792924
0.006751299
0.009346366
0.00013244152
0.033765674
0.037106514
-0.037454247
-0.027384996
0.09131014
0.049934626
0.012935519
0.00779438
0.013079166
0.0052632093
0.083004
0.026370168
0.038524866
0.0001360178
-0.00052785873
0.021233201
0.034045458
-0.019432902
0.038723946
0.04408896
0.013112545
0.055966258
0.046260715
0.022318482
0.02783513
0.1650039
0.023570657
0.015051842
0.016509771
-0.00076007843
0.0024049282
0.005307555
0.078756094
0.025917172
0.03290093
0.0059639215
0.0041891336
0.0011969805
-0.012984276
0.012010217
0.051297426
0.043135166
0.07295108
0.025251865
0.029749274
0.035806417
0.055637002
0.035919785
0.09833884
0.0514946
0.0009740591
0.010869503
0.060018897
-0.006400466
-0.0012749434
0.038698077
0.046093106
0.010157585
0.006438136
-0.031138778

0.019391298
0.014874101
0.017998576
0.019126177
0.009883165
0.02765429
0.0060995817
0.000839591
-0.017789245
0.024416327
0.028089404
0.017959833
0.004619837
-0.0006148815
0.0006155968
-0.038671732
0.01492238
0.007138133
0.033599377
0.021484971
0.0073598623
0.0068124533
0.02749741
0.014740944
0.022023916
-0.002409935
0.030555725
-0.019456744
-0.0011242628
0.026112676
0.008799434
-0.005061984
0.010392189
0.02487421
0.00011241436
-0.022138476
0.018578053
0.0021568537
-0.0070790052
0.0065243244
0.022039294
0.007875562
0.023039341
0.0011358261
-0.00013685226
0.018278956
0.017948627
0.015836835
0.034995556
0.04396224
0.008234739
0.0012134314
0.031843662
0.011917114
0.02061069
0.020456433
0.0007749796
0.010596633
0.018089056
0.012747884
0.03128624
0.031300187
0.013739586
-0.0012853146
0.0061662197
0.0065466166
0.0041224957
0.00460577
-0.0004930496
0.032603145
0.020082831
0.012949705
0.0027753115
0.004720807
0.0072102547
0.056162
0.039577127
0.02737999
0.00050246716
0.0112633705
0.021399617
0.013011098
0.0077180862
0.008451223
0.003499508
0.012993455
0.0002374649
0.012573242
0.01421988
0.0005545616
0.016359687
0.018046975
0.0073338747
0.01981759
0.012583137
-0.0026818514
0.0063120127
0.0046721697
0.012749791
0.0025260448
0.017262936
0.024538517
0.01159513
0.044429064
0.044615865
0.024657845
0.029801965
0.020104408
-0.0009368658
0.020290136
0.0052987337
0.010780096
0.03557253
0.021774054
0.02648735
0.0006123781
0.018069744
0.0019301176
-0.016097665
0.0011922121
0.008386016
0.050662518
-0.00063729286
0.020483136
0.011331797
0.029720664
-0.030228853
0.031629324

0.005699396
0.004752755
0.012326479
0.018516064
0.0047329664
0.00020682812
0.008266211
0.002237916
-0.0010874271
0.0069651604
0.043587685
0.019168496
0.021858692
0.019220948
0.020926952
0.0050857067
0.016335726
0.015642524
0.019735336
0.009296775
0.009474754
0.009521246
0.0029295683
-0.005338192
0.010496736
-0.0007830858
0.012267947
0.017681956
0.016677856
0.034182906
0.020080805
-0.0010205507
0.023843288
0.019364953
0.008618593
0.0010979176
0.018680453
0.008223414
0.016616464
-0.004168272
0.011259913
0.008672714
0.0092788935
0.007922411
0.01401031
-0.0055778027
0.02712512
0.009350896
0.012355208
7.3075294e-05
0.012945652
0.0070106983
0.009031653
0.013125658
0.011820197
0.008431435
0.029659986
0.008597851
0.008713007
0.012382388
0.0074691772
0.0046001673
0.014120936
0.034385204
0.034250736
0.009382844
0.003716588
0.034667134
3.504753e-05
0.0013977289
0.026134133
0.021971107
0.02456379
0.024784327
0.01563251
0.0004965067
0.014169693
0.0027953386
0.016551852
0.012736559
0.024788499
0.018285751
0.0090664625
0.0042090416
0.029050946
0.0070825815
0.013876557
0.017028332
0.03826821
0.01226759
0.008694768
0.022681475
0.021522045
0.010786176
0.0106214285
0.0138475895
0.008939147
0.014999747
0.014181018
0.001372695
0.028483152
0.008907914
0.01119566
0.0031636953
0.016023874
0.028868556
0.02167356
0.024898052
0.02126491
0.01470387
0.011201382
0.005723715
0.009880066
0.014834523
0.0015200377
0.022583008
0.026301026
0.010396123
0.023987532
0.019692063
0.013760924
-0.001843214
0.0029621124
0.0016565323
0.00010871887
0.013266444
-0.009234786
0.020383596

0.012987137
0.014627695
0.0044225454
0.0016555786
0.0020958185
0.02758801
0.0018085241
0.012694359
0.013751864
0.010463119
0.004886627
-0.018782377
0.008521199
0.0085504055
0.008877516
0.013395071
0.012602091
0.0037517548
0.0004837513
0.010867238
0.014133096
0.017413378
-0.009992003
0.0035876036
-0.0010857582
0.015781283
-0.0017712116
-0.0006200075
0.010925293
0.012221336
-0.005116105
-0.004886508
-0.0017669201
0.013309121
-0.00023806095
0.011864185
-0.0006263256
-0.00076138973
0.0032488108
-0.005353093
0.00015246868
0.008913398
-0.0040620565
-0.007318735
0.0114450455
0.011872649
0.0027871132
-0.015014172
4.1007996e-05
0.01503849
0.006958008
0.015374064
-0.000248909
-0.0021790266
-0.0045591593
0.006468177
0.030675769
0.01745832
-0.00034749508
0.022721648
0.0056507587
-0.003409505
0.00038588047
0.0044813156
0.008106351
0.00609076
0.019051433
-0.00047445297
0.003742218
-0.010025859
0.0023406744
0.009976983
0.0084962845
0.01499331
0.0063991547
0.01621461
0.021156192
0.0058763027
0.0018824339
0.011699438
0.004536271
0.0012395382
0.014946461
0.00031113625
-0.0014166832
0.009467602
0.00043296814
0.006642461
0.024557471
0.0032026768
0.0058238506
-0.00248003
0.0066326857
0.009799957
0.009287238
0.003053546
0.00095915794
0.00093865395
0.0060008764
0.0029295683
0.011112571
0.0034216642
0.01279664
0.0014560223
0.014022589
0.0032166243
0.0048413277
0.0011630058
0.01455605
0.009657502
-0.006652236
0.005728841
-0.0020897388
0.018451333
0.009106278
-0.005084157
0.021686912
0.0061929226
0.0069829226
0.008400321
0.014358044
-0.0057290792
0.025735974
0.01361382
-0.014186025
0.013534427
0.009766221
0.010561824
0.024009824
0.0013417006
0.0021277666
0.012221575
0.01064384
0.004231572
0.011158228
0.009243965
0.0028342009
0.0048297644
-0.0022659302
0.0057082176
0.0072944164
0.007965565
0.0020993948
0.009120941
-0.005710602
8.9764595e-05
0.008385539
0.005801797
-0.011212945
0.015854478
0.00795424
0.007936239
0.017864823
0.0029777288
0.020335078
-0.010299325
0.012081385
-0.0068502426
0.010137916
0.011353016
0.0014973879
0.014036179
0.012001157
0.009517312
0.015194654
0.014946103
0.003908396
0.0058990717
0.020331025
-4.4703484e-05
0.019412994
-0.00059473515
0.008224964
0.0054041147
-0.00026404858
0.012519002
0.018431067
0.013039231
-0.0111192465
0.013714671
0.00391376
0.010661364
0.019960761
0.022583008
0.009894371
0.017268538
0.008358955
0.009191275
0.0097283125
0.0026961565
0.012991428
9.894371e-06
0.012189627
0.006419778
0.008538842
-0.00032007694
0.0013474226
-4.851818e-05
-0.0062117577
-0.0029059649
0.0003156662
0.0017464161
0.00879395
0.002231717
0.004183531
0.002632022
0.012007475
0.0057702065
0.02099061
0.0033726692
0.0039339066
0.016533852
-0.005625248
0.01319921
0.0028631687
0.0002272129
0.008610845
0.015286684
0.011192083
0.00017380714
-0.0005135536
0.0021945238
0.009365916
0.011922121
0.001450181
0.0053019524
-0.014697552
0.010441542
0.012794256
0.007766843
-0.006174445
0.013302088
0.011471629
0.011394024
-0.0009855032
0.0071703196
-0.0024313927
0.004692793
0.006818652
0.002937913
0.013476491
0.0062664747
0.0119223595
0.012717366
0.0020674467
0.017075539
0.014219761
0.007420182
0.004498124
0.020560026
0.005059004
0.0030066967
-0.004796982
0.013964653
0.011503696
-0.011335254

0.0013010502
0.0133064985
0.0019068718
0.002076149
0.0091433525
0.0013959408
0.010407448
0.0028254986
-0.00050091743
0.008237958
0.006439328
0.0029428005
0.012503386
0.003617525
0.0047570467
0.0044608116
0.006054759
0.009392738
-0.0024647713
0.015872478
-5.1617622e-05
3.0040741e-05
0.009702802
0.007172823
0.023928523
0.0057429075
0.0049734116
0.0057697296
0.003570199
0.002639532
0.011333704
0.018051147
-0.0003774166
0.008915186
-0.0017609596
0.012508869
0.0128394365
0.0072045326
0.01638329
0.0001475811
0.007598877
0.0040091276
0.008125424
0.00442183
-0.0007750988
0.0072859526
0.010403633
0.00681901
0.01831615
0.017423272
0.00861752
0.00917387
0.00859499
-0.0018643141
0.0005992651
0.016602397
0.0126369
0.009438276
0.02067995
0.0075335503
0.014048815
0.013020873
-0.0036406517
0.014627218
0.00093245506
0.0062451363
0.008845806
0.020029306
0.0050274134
0.021573663
0.004925847
0.0066429377
0.01223731
0.012298942
0.009379029
0.0016556978
-0.00345397
-0.00088214874
0.010576129
-0.007878184
0.0007852316
0.0130422115
0.0061192513
0.006345153
0.01817429
0.0015888214
0.017080426
0.00029420853
0.000487566
0.008901238
0.015653849
0.0077108145
-0.0012047291
0.006033182
0.004298687
0.009221673
0.013482809
0.008405089
0.015327096
0.015605092
0.012497187
0.003238678
0.0009903908
0.0035874844
0.015041828
0.00030100346
0.009455085
0.008505225
0.009250522
0.016334176
-0.00030851364
0.0066542625
0.011131287
0.0010620356
0.014373422
0.027536392
0.0045930147
-0.0005338192
0.02119565
0.026016831
-0.01247251
0.010115981
0.008259892
0.011693358
0.0062440634
0.003542304
0.014399767
-0.0014029741
0.016018867
-0.0036666393
-0.0007696152
0.008954406
0.0017703772
-0.00059485435
0.012815714
0.024007201
0.008727789
0.006196499
0.011692286
0.0021110773
0.016450047
-0.0033888817
0.0009963512
0.014950514
0.00029087067
0.009374976
0.008166432
-0.011691093
0.014437318
-0.0068080425
0.0054223537
0.011429191
-0.0039571524
0.0018694401
0.0105232
-0.0034606457
0.0069607496
0.017419338
0.005608678
-0.0039509535
0.011165857
-0.0007698536
0.009741068
0.008060694
0.00073361397
-0.0008649826
0.011269093
0.008254886
-0.0036549568
0.0106396675
0.011353254
0.0040721893
0.005704522
0.010992765
0.0075246096
0.00199759
0.0034986734
0.008678079
0.002628684
-0.00820744
0.018432975
0.0006712675
0.004838228
0.009537578
0.0062770844
0.004004121
0.012558937
-0.004214883
0.0031015873
0.0038205385
0.0016441345
0.0019811392
0.007977724
0.007869363
-0.0044003725
0.015926361
0.005877137
0.00056886673
-0.0025901794
0.0013947487
0.008468151
0.011901736
0.005485773
-0.010955453
-0.0009278059
0.007749796
-0.0046058893
0.007298112
0.0035171509
-0.003848672
0.020852208
0.012207627
0.024674058
0.0053470135
0.0054883957
0.003771305
0.0068204403
0.00377357
0.013772488
-0.007251501
-0.0045078993
-0.0035738945
-0.0011878014
-0.0028626919
0.007923961
0.0041770935
0.013510942
0.00017225742
0.008694291
0.0150870085
0.0033385754
0.0051789284
0.009681106
-0.0024182796
0.023637295
-8.6188316e-05
0.0018171072
0.010355353
0.00016057491
0.008795857
0.00013101101
0.0016390085
0.012091637
-0.00062167645
0.009521484
0.004695177
0.0037944317
0.00044119358
0.009341717
0.011288047
0.0065704584
0.01005435
0.009393096
0.0033379793
0.0036360025
-0.00017762184

0.0017447472
-0.0052520037
-0.00010538101
-0.0040344
0.012167454
0.011865854
0.003494978
0.0057588816
0.034073234
0.0024678707
-0.00028073788
0.021468043
-0.0015478134
0.0046881437
0.0070226192
0.012561679
0.000901103
0.009947658
-0.0008482933
0.0087744
0.004037857
-0.00204885
0.003334403
0.009456873
0.0032334328
0.015927076
-0.004192829
0.0060931444
0.0038735867
0.030796766
0.017386198
-0.0035322905
-4.9829483e-05
0.015762687
0.008935094
0.0058767796
0.005756974
0.004098892
0.024949908
-0.0020563602
-0.0005824566
0.018376708
-0.005068779
0.03106761
0.003914118
-0.0016307831
0.013308048
0.0009701252
0.019752264
0.013798118
0.01681292
0.0087172985
0.0023832321
-0.015996575
0.01919353
-0.004778385
-0.00029718876
0.009901404
-0.0049790144
-0.002907753
0.015019059
0.009670138
0.010392189
-0.0005147457
0.0019029379
0.0029102564
0.0036728382
0.017161965
0.005128145
0.012104154
0.012254119
0.0106937885
0.019709826
-0.0032889843
0.0018939972
-0.002597332
0.006305456
0.0058294535
0.012580037
0.0037747622
0.00071299076
0.0030950308
-0.0037429333
0.0016350746
0.0055929422
-0.0028158426
0.0074136257
0.003218174
0.0103651285
0.0027650595
0.014947534
0.003622532
0.00074362755
-0.00154984
0.013737798
0.017838597
0.008090019
-0.00091409683
0.009916067
0.0064156055
0.00630033
0.008556843
0.009979725
-0.013394237
0.028790832
0.02360487
0.012837291
-0.0029857159
0.022351742
0.004155278
0.0050929785
6.055832e-05
0.0043234825
0.0037840605
0.003652811
0.012402177
0.004321456
0.00869751
-0.0032154322
-0.0031619072
0.011522889
0.0033612251
-0.0009889603
0.010966063
0.0013920069
0.010822773
0.0031249523
0.007214308
0.009644389
-0.002800107
0.025915384
0.009899735
0.0043469667
-0.0036036968
0.0054900646
0.008290529
0.015029669
0.0048666
-0.0031112432
0.0037209988
0.016458273
-0.0014690161
0.008960605
0.010535836
0.0022631884
-2.3245811e-05
0.010086536
0.0054314137
0.0029572248
0.0026652813
0.0020865202
0.0021885633
-0.00987792
0.02006042
0.0062566996
-0.0001718998
0.015330315
0.0055720806
0.0140378475
0.02044332
0.006879568
0.009256601
0.013311744
0.01318419
0.0071412325
0.0040313005
0.013886452
0.006458521
0.0046231747
-0.005705476
0.0076738596
0.007445216
0.000395298
-0.0036334991
0.005993128
0.000864625
0.0029985905
0.011894822
0.010881066
-0.0014094114
0.0003092289
0.010919929
0.014488339
0.008433223
-0.0039753914
0.020022035
0.024310589
-0.0060249567
0.025914907
0.0108110905
0.0055013895
0.005851507
0.017833114
0.008061171
0.011382818
0.002485752
0.0063080788
0.007702112
-0.00021588802
0.005056143
0.0021454096
0.006344676
0.0047227144
0.0008301735
-0.0037510395
0.014545321
-0.0014210939
0.010019064
0.011989832
-0.0005134344
0.009686589
0.004781127
0.0037995577
0.009412527
0.012839556
-0.0013314486
0.0043278933
0.014201522
0.009830236
-0.0028514862
0.012415767
0.0038866997
0.014449358
0.003952503
-0.0037127733
-0.0027894974
0.009965181
0.011989236
0.0044111013
-0.012627482
0.01689601
-0.0041856766
0.0006117821
0.009164333
-0.0011769533
0.00058841705
0.004733801
0.007951856
0.00643456
0.02194357
0.0059325695
0.011336446
-0.006350279
0.013144255
0.008629799
-0.0050940514
-0.001252532
-0.000895977
0.0095694065
0.0002632141
0.009881616
0.012940049
0.0120847225
0.0085372925
0.0053725243
0.029480815

0.0012526512
-0.0077228546
-0.00047171116
0.010689497
0.00872004
0.0020762682
0.004104495
0.010338664
0.010587215
-7.939339e-05
-0.00089752674
0.0024633408
-0.0010522604
0.003608942
-0.0073001385
0.00636518
0.008626938
0.003867507
0.0010222197
-0.008395076
0.0021195412
0.005912304
0.0015983582
0.0030682087
0.009589195
-0.0014702082
0.013132811
-0.0050355196
0.012481451
0.0086250305
0.0061166286
0.0012636185
0.007585883
0.008307099
0.003443122
0.004065156
0.007924557
0.0031393766
0.010587096
0.00134933
0.0075665712
-0.004959345
0.010469198
0.0035761595
-1.8715858e-05
0.00230062
-0.0010890961
-0.0070542097
0.0069310665
0.007133007
0.003062725
0.0009548664
0.0026483536
-0.0073627234
0.009512305
0.006149888
0.0015580654
0.009744167
0.0047495365
0.009306192
-0.00013387203
0.008642316
0.0023269653
0.007534027
0.0073037148
-0.003553629
0.0022381544
-0.0003296137
0.0064692497
0.016263604
0.0120767355
0.007943034
0.006006837
0.0036958456
-0.0005791187
0.0051229
0.015882134
-0.0012078285
0.004334569
0.0012849569
0.009991169
-0.0005841255
0.0036017895
-0.001715064
0.0010071993
-0.002180934
0.004710555
0.0043592453
0.0008597374
0.014592409
0.0010399818
0.00925827
0.0024812222
-0.0060259104
-0.001460433
0.006560445
0.004308462
0.0063120127
0.0039105415
-0.0043400526
0.0017416477
0.00485909
-0.00070643425
0.0025689602
0.004170418
0.015208721
-0.0044163465
0.004414201
0.0003695488
0.014489651
0.013022184
0.00068223476
0.009028554
0.0034476519
0.0008211136
0.008592367
0.00040209293
-0.0006198883
-0.0058956146
0.0031610727
0.007021904
0.0024870634
0.0015516281
0.0036741495
-0.0014674664
-0.00059580803
0.00051033497
0.0067021847
-0.00036227703
-0.0016379356
0.009784579
0.014223337
0.0019589663
0.004188895
0.009634852
0.0013742447
0.0010159016
0.008621097
0.00828445
0.010333538
0.0035392046
-0.0026946068
0.002291441
-0.0019689798
0.008188963
0.0010150671
0.0025144815
0.005990267
0.011673927
0.0046321154
0.0057029724
0.01002121
0.0007083416
0.002914071
0.00060868263
0.007711768
0.0043963194
0.005228281
0.00011706352
0.0013071299
0.0034291744
-0.00451684
0.0032799244
0.0072015524
0.006773472
0.0029295683
0.008087158
0.0027233362
0.005759716
-0.0016120672
0.010537386
0.0067669153
4.386902e-05
0.014241457
0.0004338026
0.011180401
0.006901741
-0.006055951
0.0018706322
0.0040154457
0.0065259933
0.0020782948
0.007172942
0.0045450926
-0.00022733212
0.0064373016
0.004201412
-0.002405405
-0.00062823296
0.0053294897
-0.005913019
-0.0032151937
0.0057331324
0.005414486
0.005073786
0.003799677
0.009561062
0.0055966377
0.0028244257
0.0014518499
-0.00062060356
0.0076856613
0.007073045
0.004521847
0.0037899017
0.00242877
0.004148841
0.0010699034
0.00095915794
0.0061085224
-0.0045644045
0.017452478
0.006200552
-9.727478e-05
0.00618124
0.006474018
-0.00059878826
0.0012346506
0.0054448843
-0.0026204586
0.00055634975
0.012660146
0.001306057
0.0054609776
-0.0010204315
0.0018591881
0.007933497
0.0064440966
0.0073843
0.009203553
0.0009818077
-0.0006583929
0.0009069443
0.0039622784
0.00023949146
0.0051231384
0.008942246
0.019187927
0.00030469894
-0.0004066229
0.011419177
0.0015082359
0.0027970076
0.0045301914
-0.002434969
0.003955841
0.0015920401
0.004367113
0.0028800964
0.0015575886
0.008898497
0.0037139654
-0.0008215904
0.0058321953
0.008026838
0.003406167
0.001962781
0.009587765
0.0072342157
0.0029449463
-7.498264e-05
-0.00046122074
0.016370654
0.002341628
0.0054870844
0.011986971
0.0033903122
-0.002333045
0.0045553446
0.0005147457
0.008802533
0.0012638569
0.0010870695
0.004517913
0.002317071
-0.0060800314
0.0070289373
0.00086915493
-0.0009351969
0.010876536
0.0013599396
0.0021897554
0.00011754036
0.0008955002
0.004639268
-0.0008201599
0.00260818
0.0062576532
0.006941676
0.009027481
-0.0020213127
0.0026054382
0.008154631
0.0013526678
-0.0003285408
-0.0003323555
0.001342535
0.00094246864
0.0074483156
0.0023126602
0.00026845932
-0.0005993843
0.0017867088
0.0027740002
0.0003682375
-0.0011006594
-0.008749127
0.002623558
0.007986784
0.00613451
0.0037590265
-0.0016647577
0.0019530058
0.0070558786
0.009910941
0.0006247759
0.0037676096
0.011559963
-0.0008459091
0.0068454742
0.0059963465
0.00084245205
0.003244996
0.00089240074
-0.0030870438
0.0072063208
0.009394407
0.0035530329
0.004339218
-0.0036092997
-0.0026369095
-0.010004759
0.00026082993
0.008670449
0.01264596
0.003123641
-0.0007174015
-0.0023911
0.0012551546
0.0008865595
0.00453341
0.005874753
0.0025547743
-0.0042181015
-0.0031955242
-0.003603816
0.0014688969
0.0013949871
0.0005161762
-0.0002168417
0.0048133135
0.00869441
0.0038013458
-0.0006828308
-0.0065621138
0.0020803213
0.0039149523
0.0056614876
-0.0041030645
0.006114006
0.00068855286
0.00082695484
0.0005078316
-0.00068056583
0.0017259121
0.0031493902
0.0033540726
0.0054935217
0.010299444
0.009158492
0.0023317337
0.0022093058
0.0061739683
0.007226348
0.009030819
0.0011526346
0.0057690144
0.0029739141
0.0018109083
-0.002014637
0.0038183928
-0.003281355
0.00283432
0.0041605234
-0.0034694672
0.0023448467
-0.001724124
-0.0008894205
0.00064241886
-0.0010445118
-0.00034618378
0.0059536695
0.0041246414
0.0025687218
0.006949663
0.0044794083
-0.0014343262
0.004403591
-0.0011079311
0.003292799
-0.0003939867
-0.0017882586
0.0045804977
-0.009707212
0.0018382072
0.008763909
0.003534317
0.002917409
-5.1140785e-05
0.0057554245
0.00068950653
0.0046122074
1.4305115e-06
0.00025117397
0.012370348
0.0005352497
0.0031511784
0.007670164
-0.00051760674
0.0014532804
-0.0038757324
-0.000623703
-0.0004862547
0.008417726
0.00044333935
0.004897356
-0.0022279024
0.0139091015
-0.004565954
0.013494253
-0.0026777983
0.0060851574
-0.007761359
0.00037181377
-0.00020599365
0.0029917955
-0.00092566013
0.0013394356
-0.0025333166
-0.0013920069
0.006655097
0.0015869141
0.0042840242
0.01423347
-0.0025897026
0.00075149536
-0.0013614893
0.0048373938
0.0049113035
-0.002373457
0.006238103
0.00090551376
0.00814724
0.0060812235
0.0097357035
0.0048553944
0.0037453175
0.010329127
0.00075781345
0.00887537
0.000330925
0.011484265
0.0043946505
0.007529974
-0.0033550262
-0.00022649765
-0.0022433996
0.0051470995
0.0002090931
0.0061569214
0.009586096
-0.00036346912
0.014022827
0.0069628954
0.010459065
0.006803155
0.0040613413
0.0057411194
-0.0010355711
0.008020878
0.0005965233
0.012827158
0.010372043
0.00051271915
-0.0045331717
0.001044631
0.0056358576
-0.007950902
0.004557252
-0.002183199
-0.009460092
-0.0031738281
0.00093090534
0.005148053
0.010410905
0.004770994
0.0067232847
-0.0027644634
0.0029357672
0.0016111135
0.0015534163
0.005408883
0.002153039
-0.006248355
-0.00047552586
0.002764225
-0.0016678572
-0.0024186373
0.005805373
-0.0028705597
-0.01007843
0.012475252

0.005337715
0.008116245
0.006364584
-0.00032401085
0.0030993223
-0.002024889
0.012877941
0.0038263798
0.0055435896
0.00021135807
0.010745525
0.0010783672
0.0013149977
0.007872105
0.008285761
0.0022919178
0.001783371
0.0059794188
0.003542304
-0.0002989769
0.008569479
0.0002193451
0.0046896935
0.0016931295
0.002891779
-0.0004117489
0.011337161
0.0007517338
0.006618023
0.0033591986
0.0018429756
0.005735874
-0.0010293722
0.015173554
0.0040045977
-0.0027005672
0.0031394958
0.00040745735
0.008790374
0.0064616203
0.002727151
0.007094145
-0.00017356873
0.004058838
0.0059030056
0.011574268
0.0015989542
-0.0010505915
-0.0005811453
0.00061249733
0.0025612116
-0.0002501011
0.00027632713
0.006013632
0.003740549
0.0057275295
0.0017344952
0.002338171
0.00026905537
0.00496912
0.008549929
0.00040471554
-0.0035789013
0.004782796
0.008701444
-0.00085771084
0.012363553
0.013664961
-0.00030076504
0.006360173
0.005761862
0.0044327974
0.010146499
0.010533571
-0.0005996227
0.0025155544
-0.0008414984
-0.00033390522
0.0035076141
-0.0035436153
0.0053869486
0.0009007454
0.0011521578
0.0002373457
0.0062425137
0.0058614016
0.01205039
0.008762836
0.005981207
-0.0008883476
-0.0030037165
-0.0010530949
0.006064892
0.0043069124
0.005498171
0.006803155
0.0008766651
-0.00068593025
0.0015237331
0.00077688694
0.00039064884
0.0001988411
0.0040985346
0.00197196
0.004007578
-0.0021852255
0.001983285
0.0021765232
0.0065994263
0.0078469515
-0.0007123947
0.0059353113
0.0041474104
0.0020172596
0.0030436516
0.00079488754
0.002398491
0.0046699047
0.0057604313
0.0041399
-0.0024610758
-0.00050485134
0.005085349
-0.00010287762
0.0036247969
-0.0024918318
-9.250641e-05
-0.0020720959
-0.0021295547
0.0009889603
-0.0011630058
0.0077022314
0.0012648106
0.0054171085
0.0063228607
0.005723834
0.008518815
0.007958889
5.722046e-05
-8.225441e-06
0.007757187
0.0038125515
-0.0034630299
0.009696007
0.00010561943
0.0022916794
0.0026767254
0.0027850866
0.00620842
0.0076014996
0.007921696
-0.0015567541
0.0046647787
0.005023718
0.0026334524
0.009672761
0.0012798309
0.010797501
-0.0066092014
0.010086656
0.0006338358
0.0025619268
-0.0052461624
0.0009112358
0.0066221952
0.0014052391
-0.0014003515
0.005476117
-0.0018104315
0.0013792515
0.0014526844
-0.0008672476
-0.0029506683
0.0013237
0.0035362244
0.002875805
0.0014470816
0.009531617
0.006456852
0.0006761551
0.0055093765
-0.0036723614
0.0047792196
0.009676695
0.00154984
0.004650235
0.007284522
0.0072282553
0.00361979
0.004463315
0.0011632442
0.0030556917
0.010710597
0.0013962984
-0.0015217066
0.007214308
0.0051988363
0.0032655
0.009564877
0.009208083
-0.0005184412
0.004882455
0.00089251995
0.00223732
0.0044465065
0.0025404692
-0.0013307333
0.00086426735
0.0067584515
0.010205507
0.004881859
0.00574553
-0.0005247593
-0.002317667
0.0021955967
0.003994465
0.0028214455
0.00042915344
-0.0018540621
0.008113146
0.014943123
-0.00016188622
-0.00044977665
0.016531348
0.0032815933
0.0105730295
0.0064040422
0.004767418
0.000947237
0.0076670647
0.006086707
0.0038443804
0.00027751923
0.0040192604
-0.0005238056
0.0046230555
0.0007663965
0.0012279749
0.008105159
0.009407759
-0.0067569017
0.007062435
0.010189652
-0.0034028292
0.0027288198
0.004749775
0.0091382265
0.0018332005
-1.5497208e-05
0.0027899742
0.008446932
0.0020725727
-0.0013847351
-0.0018835068
0.008699894
0.0013480186
-0.0028038025
0.0042414665
0.0012683868
0.001303792
-0.0055468082
0.005064249
-0.00082731247
0.008203864
0.002177596
0.005008459
0.0045307875
0.009693623
-0.0018142462
-0.001021862
0.0008894205
-0.0011966228
0.0006047487
0.0026191473
0.0034846067
-0.0015562773
-0.0027825832
0.0037076473
0.00064122677
0.0022376776
-0.0008414984
0.007529497
-0.00010240078
0.004360795
0.006767869
-0.0007684231
0.0049669743
0.0008075237
0.0031584501
-0.0001578331
0.009636641
0.004346013
0.0014647245
0.00028038025
0.0037113428
0.00018131733
0.004851103
0.012841105
0.0012742281
0.005223632
0.0077147484
0.005589962
0.006714344
-0.0033220053
0.0027236938
-0.001226306
0.005700469
0.006504178
0.0056107044
0.004335761
0.0037841797
0.004947543
0.0054796934
0.0016112328
0.00316751
0.008960724
-0.0008009672
0.005248904
0.0054820776
0.00071561337
0.0067766905
0.0025690794
0.004622221
0.0038403273
0.0023943186
0.01683414
0.0065996647
0.0059503317
-0.005758047
0.0015997887
0.0061320066
0.004181385
-0.0009199381
-0.0012004375
0.016603827
-2.4437904e-05
0.008565545
-0.00089144707
-0.0017832518
-0.00017881393
-0.0007895231
0.0037218332
-0.0030468702
0.0037561655
-8.499622e-05
0.00089240074
-0.0013219118
0.0019257069
0.0007574558
-0.00058054924
-5.567074e-05
0.0027977228
0.003203988
0.0036325455
0.0072926283
0.0013536215
0.008316636
-0.0009251833
-0.0014592409
0.0011947155
0.021044016
0.007995009
0.009118438
-0.0034452677
0.00013148785
0.000621438
-2.2649765e-06
0.0057809353
0.011587739
-0.00042963028
-0.0006015301
0.003717184
-0.0009367466
0.0051494837
0.007251978
-0.0004130602
0.0023587942
0.005716324
0.0012329817
0.0069719553
0.0004798174
0.007940531
0.0033990145
0.0022433996
-0.0014406443
0.013855457
0.007991672
0.002716422
0.0101982355
-0.00082302094
0.0002090931
-6.3061714e-05
0.0013586283
0.00081920624
0.0062162876
0.005774498
0.00073206425
0.003698945
0.0053368807
0.0048862696
-0.0024636984
0.00728786
0.00028777122
0.00050354004
0.0055086613
-0.0023210049
0.010388851
0.0069988966
0.0011293888
0.0013804436
0.0012435913
-0.00408113
-0.00057816505
0.0009433031
-0.0032727718
0.005911112
0.005636215
-0.0014050007
0.0062280893
0.0022665262
0.0021986961
-0.007859111
-0.000546813
-0.0051956177
0.005133271
-0.0018781424
0.006926298
-0.0011457205
0.011349916
0.005159974
-0.00066912174
0.0046596527
0.0007246733
0.0061342716
0.00088727474
0.0041872263
0.00023901463
0.0024968386
0.0059907436
0.0021944046
0.00080013275
0.0016198158
0.008889794
0.004737377
-0.0022171736
0.0019780397
0.009727597
-0.0007773638
-0.00018823147
0.0028241873
0.0016034842
0.0071498156
0.001922965
-0.0027048588
-0.0044994354
0.0017821789
-0.0019338131
0.0034210682
0.0055166483
0.0011199713
0.0005406141
0.0066862106
0.0033804178
0.0016605854
0.0012828112
0.007067561
0.007185936
-0.0006107092
0.0072484016
0.012274861
0.0059845448
-0.000721097
0.0037161112
0.008878708
0.0060733557
-0.00026667118
-0.0013315678
0.0034538507
0.00027799606
0.0023509264
0.0009601116
0.007349372
0.0029933453
0.0055772066
0.0053066015
-0.0007559061
0.0008789301
0.0038354397
0.0058125257
0.007130027
0.012540579
0.006750226
0.0034195185
0.0014870167
-0.00022947788
0.005709648
-0.0014975071
0.0013275146
0.0076993704
-0.002925992
-0.00088107586
-0.003480792
0.008494735
0.010894895
0.008322358
0.009108663
0.006536007
-0.002333641
0.00014019012
0.00023341179
-0.0028465986
0.004799843

0.009991169
0.0013546944
0.004683852
0.00050604343
-7.534027e-05
0.0039321184
0.014132619
-0.0011842251
0.0028318167
0.001470685
0.0056973696
0.0006893873
0.00060498714
0.0016454458
0.0035988092
0.0011740923
0.0016087294
0.0064240694
0.007989049
-0.000880003
0.011918426
-0.0010060072
0.0068719387
0.0021466017
-0.0007350445
0.004403949
0.006560087
0.0025744438
0.00019645691
0.0022287369
0.0032476187
0.0032349825
0.0026205778
0.005277157
0.004147172
0.0016610622
-0.00017380714
0.0032932758
0.012323141
0.006418705
0.00320673
0.0043224096
0.0023863316
0.001427412
0.0011738539
0.0043336153
0.0014317036
0.004705906
0.002693653
0.00010740757
0.0016407967
0.0021470785
0.00448215
0.0021510124
0.008311987
0.002821207
0.006248951
0.0067721605
0.008215666
0.00058698654
0.0013734102
0.012072325
0.0014367104
0.0019546747
0.00119555
0.0019996166
0.001924634
-0.00034236908
0.00033140182
0.00089120865
0.0019016266
0.0010861158
0.0052280426
0.0035239458
0.0038093328
0.000111579895
-9.7990036e-05
0.003976226
0.0064376593
0.002248168
0.013536692
0.008614302
0.00033640862
0.0032397509
0.002896428
0.0014235973
0.0023070574
0.007328391
0.004682064
0.0010074377
-0.00043940544
0.009078026
0.0087019205
0.006139636
0.00072979927
0.0028169155
0.0003644228
0.000108003616
0.009135008
0.003968954
0.003129363
-0.0005785227
0.0054615736
0.005971074
0.0022888184
-0.0017281771
0.0077575445
0.004077673
0.003961444
-0.0017303228
0.0018694401
0.0014089346
0.00068354607
0.0015770197
0.00944984
-0.0004323721
-0.00019037724
0.0009095669
0.0017032623
-0.001995325
0.0091046095
0.0018086433
0.00037109852
0.0023846626
0.0017424822
0.0021232367
0.0010863543
0.0028822422
0.002054572
0.0032430887
0.0015637875
0.001957059
0.0058948994
0.0020327568
0.0013728142
0.006172657
0.002547264
-0.0005180836
0.00677073
-0.0009994507
0.0010221004
0.0004632473
0.0051834583
0.011501312
0.0005810261
0.00053322315
0.0018907785
0.0041714907
0.008621573
0.009532332
0.010201335
0.0025268793
0.000715971
0.0062851906
0.019770622
0.0036765337
0.002318263
0.009528995
0.0026581287
-0.0011042356
0.004939556
-0.00079369545
0.001390338
-2.6226044e-06
0.0053157806
0.012699127
0.00032925606
0.0010755062
0.004165888
0.002357006
0.0066981316
0.0005517006
0.0031490326
0.0043655634
0.0011765957
-0.00038051605
0.0023542643
0.007562399
0.0013526678
0.0006599426
0.003406763
0.004482627
0.0034464598
0.0093022585
0.00656116
0.0057804585
0.00081574917
0.011307716
0.0019464493
-0.0005297661
0.009181738
0.010745645
0.0011144876
0.0076179504
-0.000579834
-0.0004965067
0.0051772594
0.0016591549
0.00057435036
0.008129954
0.0015027523
0.001096487
0.010136485
0.0028090477
0.003993988
0.00041389465
-0.0002567768
0.0017316341
0.00017082691
0.0021281242
0.00067329407
0.003125906
0.005419016
0.0010956526
0.0055884123
-0.0005815029
0.004942775
0.0015252829
0.008562803
-0.0007902384
0.0070199966
0.0015615225
0.005692005
0.008333921
-0.0029079914
0.0008575916
0.0011712313
0.0034341812
0.00030958652
-0.0031497478
0.0031346083
0.013064265
0.00082206726
0.0034325123
0.0013577938
0.0038450956
0.0025619268
-0.0017725229
0.00086176395
0.0043370724
0.0043079853
0.0132985115
0.0031079054
0.0013729334
0.00046741962
0.0013270378
0.0064446926
-0.00081408024
0.0069128275
-0.0013970137
0.010208845
0.006137371
0.00064229965
0.000436306
0.0022403002
0.007843733
0.01364398
0.0037147999
0.00045382977
0.00096714497
0.0016807318
0.00080633163
-0.0006532669
-0.00086033344
0.00068581104
0.00057280064
0.0013253689
-0.00027394295
0.0051209927
6.8068504e-05
0.0001348257
0.0010991096
-0.0053231716
0.00053596497
0.023442745
0.005935192
0.00019085407
-0.00075411797
0.006075263
0.0052189827
0.0065487623
0.0028910637
0.012481928
0.0056123734
0.0021344423
0.0033419132
0.00014650822
0.0028851032
0.001122117
0.005874753
0.0010905266
0.003067255
0.0035380125
0.0033978224
0.0067088604
0.0021579266
0.0027908087
0.0085167885
0.0026011467
0.0015467405
0.004158139
0.0041695833
0.005229473
0.0003105402
0.0022283792
0.0006632805
-0.00015413761
1.2993813e-05
-0.0004838705
-0.0006262064
0.0032480955
0.008700132
-1.5616417e-05
-0.0017027855
0.0055480003
0.0029392242
0.0008561611
0.0020118952
0.0023696423
0.00016093254
0.0007480383
0.0032960176
0.0024712086
0.0038665533
0.00254035
0.0012888908
0.0057696104
0.0004222393
0.012132287
0.003928423
0.0035237074
0.00041639805
-0.0005893707
0.007888675
-0.0059684515
0.0043268204
0.0042467117
0.0039464235
0.002255559
0.0038523674
-0.0014026165
0.0013817549
-0.00034177303
0.0045855045
0.009584546
-0.0021580458
0.0065683126
-0.00048398972
0.005128622
0.00071012974
0.0034371614
0.0027124882
0.0023189783
0.0040528774
0.0021129847
0.0021027327
0.009051323
0.005546212
-0.00040888786
0.0023328066
0.0010279417
0.004297495
-0.0009717941
0.0091308355
-0.00023388863
0.00048410892
0.0017894506
-0.0031312704
0.0027079582
-0.0011929274
-0.0013424158
0.0033384562
0.00523448
0.0018000603
-0.00012218952
0.0058932304
0.006151676
0.0019794703
0.00015342236
0.0062716007
0.002028942
0.001709342
0.0061194897
0.0013365746
0.00511086
0.0054457188
0.0008318424
0.0010895729
0.00028192997
-0.0021196604
0.014573693
0.0022693872
0.009006143
0.008833289
0.008949876
0.0002708435
0.009851098
0.0069566965
0.000359416
0.0027006865
0.008010507
0.00096714497
0.006161809
0.0015410185
0.0050798655
0.002949357
0.0056710243
-0.001416564
0.003005147
-0.0012727976
-0.0001462698
0.0015839338
0.0036126375
0.0007418394
0.0016132593
0.0008466244
-0.0021009445
0.002838254
-0.0008584261
0.0094560385
0.00739038
0.006253481
0.0048662424
0.0018635988
0.0047285557
0.005180359
9.3221664e-05
0.00774014
0.0033301115
0.00025451183
0.0038063526
1.6093254e-05
0.0049313307
0.008195281
0.0010567904
0.005108118
0.0011389256
0.0017056465
0.0041134357
0.0018757582
0.003292799
0.006386876
0.0005044937
0.00064718723
0.0032234192
0.00070238113
-0.0014961958
0.0036882162
0.00088346004
0.0049033165
0.0018817186
0.006334424
0.00476408
0.001683116
0.0021275282
0.0012116432
-0.0010002851
0.0029445887
0.0025115013
0.0036537647
0.0043057203
0.010002136
0.0015016794
0.00123775
0.00044214725
0.00084352493
0.0020395517
0.004412055
0.0017701387
-0.00028455257
0.00217247
0.0015776157
-0.00030517578
0.009247541
0.0093176365
0.0017552376
-0.007023692
0.002809167
0.0029598475
0.011282682
0.00034677982
0.0029941797
0.0008662939
0.0007572174
0.0051449537
0.0018953085
0.003879428
0.0024598837
0.00560081
3.6001205e-05
0.0003452301
0.008785009
0.003681302
0.011538506
-0.00031268597
0.0028840303
0.011558056
0.0069562197
0.005629182
0.013584018
0.010927081
0.0029330254
0.0018281937
0.0027133226
0.0027621984
0.00036263466
0.0035127401
0.0034399033
0.0036501884
0.00012767315
0.0015268326
0.0036194324

0.0004401207
0.0069081783
0.0049426556
0.003191352
0.010159016
0.0029232502
0.0042335987
0.004159212
0.000420928
0.00491786
0.00016081333
0.0014551878
-0.00044846535
0.0030665398
0.003906369
0.008225203
0.0030984879
0.00034570694
0.0012499094
0.0002799034
0.005346775
-0.000109910965
0.0024676323
0.0023076534
-0.0004386902
0.0035996437
0.0015356541
0.0037747622
0.005069971
-0.00080001354
0.002723813
0.0027606487
0.0018651485
-5.9485435e-05
0.012584448
0.008694649
0.0027492046
0.002362132
0.00060760975
-0.00059580803
0.0033608675
0.0007749796
0.00097608566
0.004879236
0.0012619495
0.003468275
0.0020473003
0.011671662
0.0020673275
0.005760908
0.0015593767
0.0052098036
0.0018583536
0.005982995
0.0010765791
0.0007531643
0.0027278662
0.0012606382
0.0017081499
0.0010516644
0.0010281801
0.015101433
0.00051510334
0.001821518
0.002593875
0.0068360567
0.0035116673
-7.843971e-05
0.008933425
0.0025494099
0.004737377
0.0037384033
-0.0009908676
0.0062378645
0.0020138025
0.0030835867
0.0003464222
0.013016105
0.0017648935
0.0017457008
0.0019296408
0.00884223
0.0050309896
0.009659648
0.00030601025
0.0054837465
0.00042390823
0.009410143
0.00167799
0.0017136335
0.0013233423
0.0019413233
0.01340723
0.0008238554
0.0011224747
0.0013549328
0.0066262484
0.00026512146
0.00554502
0.0014938116
0.0006020069
0.003758788
0.00050640106
0.0035008192
0.0008584261
0.0036950111
-0.0006773472
0.0054227114
0.0023915768
0.00019550323
0.004568815
0.003183484
0.000908494
0.0011107922
0.0018630028
0.0017541647
0.0010666847
0.0001784563
-0.0004646778
0.00093078613
0.0022360086
0.00017547607
0.0065722466
0.005378604
0.0026757717
0.006615758
0.00060379505
0.00030696392
0.0024234056
0.003984332
0.0017666817
0.0026102066
0.00609231
0.012665749
0.0036774874
0.0004975796
0.0066708326
0.0007972717
0.00028920174
0.0006443262
-0.00039947033
0.0047585964
0.003185153
0.0011997223
-0.000395298
0.0028787851
0.002778411
0.0029110909
0.005356431
0.009878278
0.0038819313
0.0012934208
0.00076413155
0.0029951334
0.0034172535
0.0038909912
0.0009762049
0.0034239292
0.0015497208
0.002508998
0.009821296
0.002341032
0.0038115978
0.0040023327
0.001623869
-2.9921532e-05
0.0041983128
0.0017926693
0.0033371449
0.0028829575
0.0032117367
0.0030719042
0.007783413
0.002568245
0.0065084696
0.0009434223
0.0049358606
0.0021939278
0.0013494492
0.0069545507
0.004973173
0.0055413246
0.005391717
0.0009454489
0.0007637739
0.0018998384
0.0038450956
0.004255533
0.003487587
0.001629591
0.0009098053
0.0036046505
0.006880164
0.00028264523
0.0012719631
0.0033090115
0.003680706
0.0020364523
0.0038900375
0.0019699335
0.0032753944
0.009159565
0.0035099983
0.0009801388
-0.0004183054
0.013418913
0.002040863
0.0055111647
0.0026857853
0.00040507317
0.0005902052
0.0006580353
0.0016264915
0.006562352
0.0023161173
0.00032651424
-0.000626564
0.00087428093
0.0065580606
0.0025646687
0.0003077984
-0.00013446808
0.00051391125
0.007003665
0.0023013353
0.013629675
0.0025491714
0.006353259
0.005251169
0.0006481409
0.0053374767
-4.6253204e-05
0.00819087
0.00049877167
0.009588599
0.002001524
0.015619397
0.0025794506
0.0037401915
0.0044835806
0.00065898895
0.0024713278
0.0040328503
-0.00018310547
0.0034942627
0.00049471855
0.0021258593
0.0006773472
0.0026786327
0.013384581
0.00024104118
0.00032520294
0.0017420053
0.008388996
0.007749915
0.006590247
0.00089514256
0.0048633814
0.0077666044
0.0008414984
0.0049706697
0.0027515888
-8.773804e-05
0.002089858
0.0019401312
0.0017529726
0.0029402971
-0.000104904175
0.0036275387
0.008412123
0.004410982
0.0009981394
0.007138133
0.009110928
-0.0001219511
0.0063927174
0.002393365
0.00030112267
0.00092089176
0.004583478
0.00014638901
0.005235791
-6.604195e-05
0.0069892406
0.0028983355
0.005588293
-0.000101566315
0.004351735
0.0040539503
0.0032875538
0.004526615
0.0002272129
0.0021175146
0.007421732
-0.00049102306
0.0034794807
0.007815242
0.0025231838
0.0028204918
0.0015788078
0.0075358152
0.0029304028
-0.00034296513
0.002692461
0.0038602352
0.0020723343
0.0032794476
0.018321276
0.0018831491
0.008703828
0.0040928125
0.008119106
0.0036680698
0.00011575222
0.0029673576
0.0034085512
0.0027741194
0.005611062
0.0071867704
0.0013637543
0.007991195
0.007810116
0.004742384
0.00022435188
-5.209446e-05
0.00027358532
0.00048971176
0.0036141872
0.0013701916
0.0017696619
0.006518364
0.0017610788
0.0072563887
0.00467515
0.000885725
0.0019081831
0.0028910637
0.0068352222
0.0024073124
0.0054215193
0.00081157684
0.0040403605
0.00046861172
0.0019104481
0.0002859831
0.0021609068
0.004921317
0.0010749102
0.00230515
0.00074994564
0.009311318
0.001349926
0.001971364
0.0025604963
0.0052468777
0.0021716356
0.0052427053
0.0042136908
0.0017591715
0.0019999743
0.002250433
0.0013331175
0.0051465034
-0.00036156178
-0.00024271011
0.0030452013
0.0010828972
0.0037237406
0.0019093752
0.0026943684
0.0020673275
0.006309867
0.0016565323
0.006998658
0.0074421167
0.0026961565
0.0065231323
0.0029751062
0.004168272
0.002796054
-0.00016820431
0.0030128956
0.0043108463
0.0016059875
0.003828168
0.005613804
-7.879734e-05
0.006357193
0.0023989677
0.0049347878
0.0003399849
0.0045576096
0.0025861263
0.006496072
0.00504148
-0.0002759695
0.0038763285
0.005461216
0.0008378029
0.0018775463
0.002061367
0.0026010275
0.0031416416
0.0049567223
0.0013098717
-0.00068974495
0.002791524
0.0017092228
-0.00018548965
0.0045382977
0.003180623
0.0039544106
0.010993004
0.0011099577
0.0014426708
0.004985571
0.0036416054
0.00035190582
-0.0011590719
0.004203558
0.003194809
-0.00034046173
0.0026408434
0.009234309
0.0071082115
0.0028247833
0.004060507
0.005653739
0.005684018
0.0017619133
0.0022864342
-0.00027251244
-0.00016832352
0.0032231808
0.0017981529
0.0018385649
0.0063062906
0.0030721426
0.00043404102
0.0014014244
0.00666523
0.011159897
0.0061250925
0.004036784
0.0006053448
0.0023063421
0.0042550564
0.0036088228
0.00070750713
0.0031967163
0.0038226843
0.0013002157
0.0004492998
0.0031695366
0.00013375282
0.00059866905
-0.0002155304
0.0046441555
7.4863434e-05
0.0012623072
0.001081109
0.0013504028
0.0050076246
0.003662467
0.0006582737
0.0040340424
0.0020087957
0.0040966272
0.0011759996
0.006972909
0.0027740002
0.003888011
0.0044944286
0.00069510937
0.0069357157
0.000988841
0.0018362999
0.00039935112
0.013783455
0.0026278496
0.00079858303
0.0033905506
0.00014293194
0.0069311857
0.001921773
0.0029742718
0.001295805
9.250641e-05
0.00047779083
0.0010772943
0.0015890598
4.4703484e-05
0.016448379
0.0018509626
0.0022842884
0.002805233
0.00079107285
0.006118417
0.002214551
5.853176e-05
0.0032194853
0.004812479
0.0029610395
0.0029473305
0.0052455664
0.00288105
0.004058957
0.0015456676
-0.0010274649
0.0037897825
0.0005713701
0.0009274483

0.007991314
0.00238657
0.00223732
0.009672642
0.0030152798
0.008725882
0.0051043034
0.0034159422
0.0036147833
-0.0004441738
0.0017237663
0.0063216686
0.007537365
0.004115939
0.0015405416
0.0011667013
0.0026625395
0.0012087822
0.0035814047
0.003002286
0.003967643
0.0021734238
0.006009221
0.0015064478
0.001884222
0.0071042776
0.001959443
0.00197649
0.005290866
0.0032440424
0.0027637482
0.00082182884
0.0020614862
-0.00023674965
0.00081944466
0.0018525124
0.004692793
0.001034379
0.0033398867
0.005649686
0.004175067
0.002696991
0.003082037
0.00031149387
0.0034013987
0.0049649477
0.0033220053
0.0036674738
0.0044264793
0.0006824732
0.0018138885
0.0013617277
0.0016283989
0.0026806593
0.0047148466
0.0006006956
0.0028796196
0.0070530176
0.0006351471
0.00082719326
0.0011113882
0.0012425184
0.003174901
0.0014024973
0.001851201
0.0077542067
0.0041326284
0.00096070766
0.0010204315
0.0046340227
0.0008819103
0.0026210546
0.0014932156
0.0072396994
0.002882719
0.0033333302
0.005581498
0.0020650625
0.0030344725
0.003975868
0.0034765005
0.0033818483
0.0029518604
0.0029777288
0.0011190176
0.004631877
0.0038055182
0.0017409325
0.002806306
0.0041456223
0.0018045902
0.004749179
0.004595995
0.0017991066
0.00021755695
0.0026136637
0.0026786327
0.0032513142
0.006961584
0.00062179565
0.009519935
0.010155678
0.004770279
0.0064634085
0.0021810532
0.0024938583
0.004102111
0.006644249
0.0016003847
0.0021697283
0.001811862
-0.00012600422
0.006721139
-0.00018918514
0.0041826963
0.0007747412
0.005037427
0.0016466379
0.001371026
0.002774477
0.0018444061
0.0071845055
0.0051600933
0.0032408237
0.00039553642
0.004112482
0.0030668974
0.0044722557
0.0041611195
0.002895832
0.0032964945
0.0008058548
0.002058506
0.0012134314
0.0061802864
0.001306057
0.0007123947
0.00080394745
0.0011329651
0.0042961836
0.0020253658
0.0008651018
0.004385352
0.0015823841
0.0044749975
0.0060135126
0.0030071735
0.00064599514
0.007842541
0.0024739504
0.0024020672
0.004368663
0.005400896
0.003157258
0.0064731836
0.005739689
0.0028210878
0.0034698248
0.009124279
-0.00026798248
0.002131343
0.0024858713
0.00087833405
0.00257802
0.005109191
0.0015406609
0.0063672066
0.0041383505
0.0035299063
0.006137967
0.0032522678
0.0046840906
0.0008934736
-0.00023794174
0.00061810017
0.0014756918
0.0025384426
0.004541278
0.0043462515
0.0036269426
0.002342105
0.0010015965
0.0058404207
0.0025393963
8.535385e-05
0.0016437769
0.004144311
0.0046418905
0.0005888939
0.0015864372
0.003114462
0.002580762
0.003807664
0.0025417805
0.0017740726
0.00090038776
0.008785605
0.0008431673
0.0038756132
0.002363205
0.0043708086
0.0011060238
0.0036166906
0.005369067
0.0027822256
0.006215334
0.005124569
0.0038950443
0.00014126301
0.0029824972
0.004164219
0.0002707243
0.0045483112
0.0024362803
0.00769794
0.003566265
0.0026994944
0.0036582947
0.0019680262
0.0064815283
0.0022889376
0.0042891502
0.0016789436
0.003992796
0.004869938
0.0023332834
0.0007046461
0.0014014244
0.008538604
0.004452467
0.002588272
0.00040364265
0.0017925501
0.004970789
0.0021255016
0.0038911104
0.0027595758
0.004246235
0.0036242008
0.0002732277
0.0020272732
0.0019284487
0.0056267977
0.0026260614
0.00083327293
0.0058898926
0.0022319555
0.0007703304
0.0048236847
0.0054143667
0.0014986992
0.00329113
0.0015026331
0.0018541813
0.005446911
0.0023163557
0.0026934147
0.00597322
0.0009112358
0.0076789856
0.009468079
0.0031423569
0.0014159679
0.006138444
0.0056967735
0.0014841557
0.00015819073
0.0017306805
0.0075321198
0.002257824
0.0017142296
0.0010259151
0.0037599802
0.00410676
0.00033283234
0.0032765865
0.0039725304
0.0013684034
0.013515115
0.0011070967
0.005636573
0.0030839443
-0.00046992302
0.0018663406
0.004083991
0.0012800694
0.0023909807
0.010233283
0.0012124777
0.00028645992
-7.56979e-05
0.0026088953
0.004106164
0.0020375252
0.0023099184
0.0047541857
0.0019061565
0.0049729347
0.0017582178
0.0019916296
0.0028336048
0.0042304993
0.0014615059
0.0032314062
0.0019950867
0.003143549
0.0032117367
0.0046344995
0.0018231869
0.002060771
0.0055681467
0.0007505417
0.0042071342
0.0025560856
0.002310872
0.004396796
0.001636982
0.0017844439
0.0057485104
0.0049237013
0.0009202957
0.010010362
0.006056428
0.0015972853
0.005153179
0.0023214817
0.0030559301
-0.00015580654
-4.5895576e-05
0.0028619766
0.00246346
0.001873374
0.0018994808
0.0030341148
0.0013542175
0.0016919374
0.002647519
0.0017793179
0.003374219
0.0016649961
-0.000400424
0.00068867207
0.0043213367
0.00069344044
0.0036911964
0.0032587051
0.0006622076
0.0010620356
0.005046129
0.008396506
0.002637267
0.003333807
0.0010855198
0.006012559
0.0030895472
0.0041456223
0.0053106546
0.0012168884
0.00412333
-9.572506e-05
0.00195992
0.001793623
0.0072431564
0.005414605
0.0004441738
0.0031039715
0.0018068552
0.007681608
0.0006508827
0.009140015
0.0015823841
0.003718257
0.0031108856
0.0011646748
0.0004876852
0.00534606
0.00557971
0.00077939034
0.004160166
8.106232e-05
-0.00017642975
0.00038182735
0.0011105537
0.0030800104
0.0029799938
0.0036355257
0.004958391
0.0021400452
0.003428936
0.0107370615
0.0043429136
0.003402114
0.0044823885
0.0013468266
0.002359271
0.0006171465
1.5854836e-05
0.0011857748
0.0019402504
0.0051369667
0.0013777018
0.010195851
0.0015497208
0.00016891956
0.0048025846
0.004470825
0.00038325787
0.0026547909
0.0064991713
0.0077474117
0.0024733543
0.0026638508
0.0017335415
0.0010592937
0.0008790493
0.006888509
0.0016570091
0.0024985075
0.0006799698
0.0038235188
0.0028823614
0.006503463
0.0001821518
0.001040101
0.0033022165
0.0028899908
0.0016158819
0.0032527447
0.008877873
0.004420042
0.0039098263
0.0029258728
0.001958251
0.0033494234
0.0030682087
0.0082165
0.009177566
0.0033056736
0.0011749268
0.0031067133
0.00404346
0.003493309
0.006373763
0.0017379522
0.0016444921
0.0016440153
0.0059571266
0.005595207
0.006987095
0.0071167946
0.004951954
0.002068758
0.0035996437
0.00030612946
0.0045548677
0.0025537014
0.0013201237
0.0050606728
0.008785844
0.0017031431
0.004521489
0.0018186569
0.0025104284
0.0022495985
0.004127383
0.0022794008
0.003592372
0.0037230253
0.0050058365
0.0047231913
0.009213805
0.003185153
0.0019410849
0.008421302
0.0030356646
0.0023503304
0.0023761988
0.001286149
0.004367709
0.0021579266
0.0010447502
0.0030078888
0.00192976
0.0013743639
0.003524661
0.0032714605
0.00091552734
0.0022768974
0.0050212145
0.0068308115
0.0045979023
0.0013850927
0.006599903
0.002448678
0.006079197
0.0049313307
0.0009480715
0.00050759315
0.0015470982
0.0008941889
0.0021615028
0.00046253204
0.0038609505
0.005453348
0.004349947
0.0037833452
0.006731987
0.0035803318
0.0005174875
0.0033334494
0.0014765263
0.00031518936

0.0033183098
0.0017802715
-0.0011298656
0.0029433966
0.002768159
0.004122019
0.010168672
0.006343603
0.0013297796
0.0018827915
0.0028687716
0.0041958094
0.0090715885
0.0013164282
0.007158518
0.0005341768
0.010822177
0.0044521093
0.0018949509
0.0029280186
0.00015377998
-0.00015163422
0.0056169033
0.0018014908
0.0014138222
0.0074084997
0.0026197433
0.0008896589
0.0013805628
0.0020030737
0.0011007786
0.0056550503
0.0033575296
0.006169915
-0.00053334236
0.0051960945
0.0062457323
0.0075740814
0.0017279387
0.0019152164
0.0051738024
0.0036824942
0.0035458803
0.0037122965
0.0013645887
0.0030395985
0.00012791157
0.0012490749
0.00090539455
0.0010713339
-0.0014861822
0.0042819977
0.001045227
0.007717252
0.001471281
0.0057276487
0.0027958155
0.0024594069
0.0038232803
0.00397563
-0.0002449751
0.0014485121
-0.00019562244
0.005251527
-0.00024282932
0.0006374121
0.00061261654
0.0044139624
0.003094077
0.00025177002
0.0022989511
0.0039322376
0.0051857233
0.0016282797
0.00076186657
0.004094839
0.00083851814
0.0011156797
0.0063949823
0.0012158155
0.0054627657
0.0031769276
0.004219532
0.00011098385
0.0030483007
0.0031700134
0.0028409958
0.0062720776
0.0020911694
0.0030446053
0.0029199123
0.0047038794
0.0005055666
0.0020102262
0.0036591291
0.0016746521
0.0061312914
0.0033644438
0.00032925606
0.0049108267
0.0030237436
0.0016477108
0.0016022921
0.005878687
0.0034757853
0.004284382
0.004558444
0.0057290792
0.0017104149
0.009278297
0.0042613745
0.0008865595
0.0069172382
0.0026026964
0.0015511513
-0.0010663271
0.0038779974
0.0015764236
0.0010396242
0.00206995
0.0025503635
0.0015639067
0.0030771494
0.0020984411
0.0009467602
0.0006097555
0.0015650988
0.003205657
0.005457163
0.0038306713
0.0033730268
0.0041731596
0.0017132759
0.0035161972
0.0022140741
0.00056028366
0.0054454803
0.0013824701
0.009066105
0.0034184456
0.0012493134
0.0020530224
0.0006452799
0.0039834976
0.0049830675
0.0029357672
0.00024938583
0.0034040213
0.004950285
0.003368616
0.0010896921
0.001470089
0.0060863495
0.011558652
-0.00016307831
0.004614711
-0.00040090084
0.00036978722
0.00038218498
0.003627777
0.0032807589
0.0027281046
0.0012637377
0.0040831566
0.0040738583
0.0037600994
-0.00019609928
0.005376935
0.0010025501
0.00023984909
0.0043650866
0.0018997192
0.0012595654
0.0013458729
0.0074168444
0.0015317202
0.0008547306
0.0060106516
0.0005495548
0.007835269
0.002720356
0.0013868809
0.0040575266
0.0005378723
0.0063893795
0.0023641586
0.0026857853
0.0018135309
0.0003299713
0.0077569485
0.0057628155
-1.180172e-05
0.004904747
0.00023782253
0.0018895864
0.0027559996
0.0072631836
0.004461646
0.002161026
0.004739642
0.009895325
0.007463813
0.00020813942
0.0064628124
0.0052303076
0.0045012236
0.0028373003
0.0060931444
0.0006978512
0.0044463873
0.0028482676
0.0025018454
0.0020830631
0.003252983
0.0012300014
0.0013440847
0.012579918
0.0012164116
0.008030891
0.0011649132
0.002380252
0.0011870861
0.0024341345
0.008887768
0.004515052
0.0031152964
0.0012961626
0.0020635128
0.0042345524
0.001316309
0.0016224384
0.00077843666
0.0040962696
0.0044795275
-0.00010621548
0.0062071085
0.004434705
0.007229924
0.00048327446
0.0063670874
0.0017342567
0.002267003
0.0010576248
0.00257802
0.0030905008
0.000600338
0.0007119179
0.0038598776
0.0009844303
0.003067255
0.002221465
0.0062053204
0.0018522739
0.0024971962
0.0040301085
0.004368782
0.0021899939
0.007833362
0.0015904903
0.009207487
0.0027012825
0.0005828142
0.0017455816
0.0034290552
0.00536108
0.0019601583
0.009699464
0.0032480955
0.001712203
-0.00021588802
0.0039100647
0.001205802
0.0033937693
0.0019783974
0.0026954412
0.010134697
0.0096485615
0.0066691637
0.009685755
0.003600359
0.0018798113
-0.0006066561
-0.000120043755
0.0073189735
0.0021555424
0.0031610727
0.0026210546
0.0025200844
0.0034079552
-3.373623e-05
0.0022380352
0.013429403
0.0008534193
0.005359888
0.0041439533
0.0063819885
-0.0006940365
0.003267765
0.0022456646
0.0029999018
0.0019545555
0.0102369785
0.0024667978
0.004352212
0.0021009445
-0.0007261038
0.0010931492
0.0023611784
0.004657507
0.007852316
0.0043053627
0.0019718409
0.005203724
0.0033091307
0.0037187338
0.0019731522
0.0043480396
0.013541937
0.005832553
0.00054967403
0.0040676594
0.008874416
0.0020468235
0.0018123388
0.0032910109
0.0056242943
0.0051972866
-0.00047194958
0.006561637
0.0048338175
0.0025966167
0.0032835007
0.0029997826
0.005010247
0.006893635
0.0058528185
0.003181219
0.0059820414
0.0032650232
0.0014922619
0.0031374693
0.0010578632
0.005093932
0.001680851
0.0024333
0.005853772
0.0017861128
0.001045227
0.0010244846
0.0012346506
0.003227353
0.0055191517
-0.00013399124
0.010143995
0.002884984
0.0052495003
0.007889509
0.0024645329
0.0036650896
0.0049893856
0.005582452
0.0041302443
0.0006815195
0.0025924444
0.0011622906
0.0014197826
0.0006760359
0.002952218
0.0047670603
0.005880356
0.00920558
0.0022302866
0.00078225136
0.00010251999
0.0057332516
0.003713131
0.0001616478
0.00043833256
0.0023987293
0.005347848
0.0001924038
0.0035396814
0.001611948
0.003460288
0.002339244
0.0013910532
0.003559351
0.0067721605
0.004802227
0.0007098913
0.00059497356
0.0047695637
0.0026198626
0.0027745962
0.0029129982
0.004810214
0.0013093948
0.005787492
0.0040216446
0.00430727
0.00028407574
0.0017892122
0.004331112
0.0031034946
0.0030412674
0.0036342144
0.0070950985
0.002063632
0.0014462471
0.004098773
0.0029412508
0.000315547
0.0045149326
0.0058130026
0.005924344
0.011980653
0.005326748
0.0041986704
0.01116848
0.0037847757
7.510185e-05
0.0038280487
0.0045599937
0.00080776215
0.0014264584
-0.000300169
0.0077131987
0.0025367737
0.0009906292
0.00024962425
0.0016824007
0.0028330088
0.0034863949
0.0021865368
0.00014328957
0.00086832047
0.0023322105
0.0010259151
0.0031186342
-0.00015854836
0.0009061098
0.0013898611
0.0046230555
0.0035059452
0.013491273
-4.1007996e-05
0.00083971024
0.0027350187
-0.000207901
-0.00040996075
0.0018162727
0.0020976067
0.0019004345
0.0018304586
0.0006324053
0.0017460585
0.0044995546
0.002625823
0.0025302172
-0.00059628487
0.0018330812
0.0048594475
0.0082633495
0.002376318
0.0017172098
0.0037305355
0.0026824474
-0.00024998188
0.012227535
0.0003825426
0.0023815632
0.0037528276
0.0028378963
0.004147887
0.004630089
0.0012290478
0.0038558245
0.005107641
0.0025334358
0.0016517639
0.0027304888
0.0028949976
0.0020409822
0.0030559301
0.003477335
0.0013400316
0.00052797794
0.0014425516
0.002444148
0.0038870573
-0.0006868839
0.0041697025
0.0015392303
0.0011096001
0.0026490688
0.004930973
0.0037859678
0.004756093
0.001409173
0.004270196
0.002272606
0.0008971691
0.00062167645
0.0018672943
0.0019153357
0.0017566681
0.0047678947
0.003784299
0.007208109
0.0033285618
0.0027885437
0.004838109

0.29405963
0.2923901
0.2009635
0.19711328
0.27248847
0.21084082
0.28419638
0.28527617
0.27191246
0.26403582

