0.18447411
-0.03175056
0.061014175
-0.092158675
0.18883646
0.08411801
0.059075356
-0.029915452
0.07326293
0.018931031
0.07413328
0.19268787
0.020848632
-0.1924305
-0.15791821
0.22207916
-0.10387015
0.2219758
0.07853806
0.18330657
0.0811609
0.12224817
0.014809489
0.048149467
-0.00031852722
-0.027929306
-0.054810405
-0.11382592
0.06736958
-0.1723752
0.13745606
0.14782596
0.07049
-0.20293379
0.06767833
0.051783323
-0.073326945
0.021927118
0.07225835
0.13095355
0.036377072
0.013121605
-0.042007565
0.2680763
0.06055355
0.19107723
-0.03693962
0.14039457
0.011939645
0.117729664
-0.10260737
0.045338035
-0.013645411
-0.19662082
-0.07506794
0.07228899
0.03513336
0.010064483
-0.024165988
0.12433159
-0.07126117
0.18794072
0.07544339
0.13261712

0.12842059
-0.05360198
0.0036319494
0.024735332
0.029062033
0.21295333
3.71933e-05
-0.008405328
0.040515184
0.004565954
0.004132509
0.12448156
0.11583829
0.0594064
0.020738482
0.4075899
0.049833894
0.11949241
0.17887211
0.048574567
0.10020745
0.07182491
0.012510896
0.006441951
0.065431714
-0.10090995
0.02664578
0.028945804
-0.018923402
0.21457815
0.059678674
0.032428503
-0.13153398
-0.022869349
-0.023880959
-0.08519435
0.0029791594
0.08496845
-0.07677245
0.029922962
0.004638672
0.09308219
-0.07598972
-0.008247733
8.8214874e-05
0.024999619
-0.06351185
0.1166991
0.063200235
0.006687641
0.00021719933
-0.047917724
-0.05505216
-0.15229464
-0.0077198744
0.015107751
-0.065301776
0.09647751
0.07258618
0.095283985
-0.021790862
-0.010951281
-0.043959975
0.18927431

0.12663388
-0.049800634
0.058660626
-0.109317064
0.0603503
0.0354048
0.009440064
0.01043427
0.13084495
0.108475566
-0.025068164
0.036224365
0.037014127
0.076679945
-0.06517947
0.034814715
0.010429621
-0.0040010214
-0.010168552
-0.040543795
0.0041151047
0.06979489
0.008419991
-0.0008111
-0.013106823
0.015855312
0.036748648
-0.005278945
0.02285707
0.045055866
-0.04242909
-0.024890065
0.061205745
-0.008343339
-0.008749485
0.02081871
-0.005037546
-0.10413051
0.029821634
0.020177245
-0.002090454
0.06949508
0.031926036
-0.11334646
0.06087017
0.051098824
0.10278463
0.020895243
0.068174124
0.03916192
0.044806957
0.006442666
-0.024320364
0.019655466
-0.023577094
-0.006636739
0.03551495
-0.068633914
0.00041115284
0.027436733
-0.0131623745
-0.007282734
0.047337055
0.0052843094
0.037599683
0.024203062
0.020520091
-0.022878528
0.0049883127
-0.05479622
-0.029832482
0.035878062
-0.12930572
0.07118237
0.036578536
0.024037361
0.013461471
0.020532131
0.030184388
0.04358971
0.001227498
-0.019525409
-0.05110109
0.04295051
0.0579803
0.031716704
0.0858506
0.03370273
0.05013883
-0.07197583
0.01909399
0.018865466
0.0006979704
0.04824257
0.019318223
-0.0470649
0.0005866289
0.014362812
-9.608269e-05
0.0955466
0.0783
0.022431612
-0.01268518
0.035642862
0.05408919
0.047317386
0.002219677
0.03872621
0.025814533
-0.0007414818
0.0064501762
0.025199056
-0.035865664
0.053388715
-0.047571182
0.02053094
0.021764517
0.0030003786
0.022351027
-0.003884554
0.0027564764
0.023857117
0.10868502
0.007993102
-0.008720636
0.077986
-0.0057302713
-0.03770542

0.010362983
0.014801383
-0.023675442
0.0432384
0.035863876
-0.07235205
0.006732583
-0.022009134
-0.0045033693
0.05810237
-0.040225744
0.029343963
0.061808586
0.06185639
0.004842162
0.0013657808
0.019870877
0.06046331
0.070964575
0.061239123
0.024926782
-0.009339094
-0.003571868
-0.015925527
0.0067328215
0.04057491
0.033758402
0.06276631
0.00325346
0.016523242
-0.077104926
0.0066229105
0.021383643
0.03809595
0.055232167
0.14059055
0.03027749
-0.00403738
0.032429695
-0.09395146
-0.0012520552
0.008951426
-0.00016880035
0.04859364
-0.023855925
0.08465326
-0.023763895
0.0016752481
0.045207858
0.016063333
0.036750793
0.07397711
0.0189085
0.017767072
0.036586404
0.0631659
-0.00083100796
0.004106641
-0.030894756
0.0011581182
0.030446768
0.009532452
0.040847898
0.0024615526
0.03777969
-0.020474434
0.0015171766
-0.0018196106
0.028302073
0.0015873909
-0.010345697
0.002221942
0.05426562
0.04318142
0.10231483
0.05927372
0.010047078
0.00042307377
0.0074710846
-0.0005464554
0.008278012
-0.025621414
0.042824745
-0.047500014
0.06342125
-0.03153467
-0.020310283
0.017382622
0.020528793
0.012468219
0.002367735
0.110817075
0.060831547
0.045144916
-0.073945045
0.04112792
0.029501796
0.025880456
0.00041043758
0.019276738
0.01905477
-0.10433233
-0.0036078691
0.01196003
-0.008055806
-0.010807157
0.06632614
0.006769538
0.01754725
-0.0024465322
-0.003636241
-0.0030543804
0.048019767
0.01636219
-0.0586679
0.0584867
0.0037966967
0.03387773
0.0021059513
-0.046390176
0.027056932
-0.020890832
-0.003327608
-0.002606392
0.00091540813
0.03279662
0.0007958412
0.03359413

-0.0018794537
0.028072238
-0.010063171
-0.02457571
0.01183784
-0.0152391195
0.029194474
-0.0007356405
0.010048747
-0.005691886
-0.018625617
0.039973736
-0.009189367
0.022659779
0.06257427
0.0141836405
-0.0013434887
0.015205264
-0.007993579
0.016375542
0.022333503
-0.008281112
-0.0048012733
0.012466431
0.014692068
0.008355856
-0.016325116
0.043833375
-0.03865218
-0.011986256
0.023822308
-0.013142347
-0.015105724
0.029199481
0.0070973635
-0.01449275
-0.005355835
0.005368352
0.033002496
0.026751876
-0.011136055
-0.010900617
0.019358039
0.015864253
0.018256307
0.011749268
0.0028238297
-0.024781585
0.020563245
0.011386514
0.03282702
0.039427638
0.008424044
0.02571261
-0.04304409
-0.06179583
0.020261645
-0.037631035
0.023763895
-0.04379201
0.005087614
0.033568382
-0.0056072474
-0.009426475
-0.004754305
0.025079727
0.008047104
0.008202314
-0.0067739487
0.002316475
0.0072672367
0.037387967
0.010701895
0.014521956
0.011493206
-0.031079888
0.0155876875
0.01388371
0.018933058
-0.028588653
0.018678904
-0.0046089888
-0.0047363043
0.01113832
-0.031180978
-0.01355207
0.013366342
0.043021083
0.019344687
-0.0369879
0.014948845
0.04793477
0.06530416
-0.048268557
0.024677396
-0.038079858
0.017791271
0.017127514
-0.03371215
0.03013146
0.003655672
-0.016526699
0.024889708
0.027484298
0.015813947
0.02160275
0.033256054
0.014784217
0.010528088
0.0034575462
-0.019348025
0.00074350834
0.021832824
0.00020706654
0.045272112
-0.023933768
0.020413637
0.009485841
-0.008347988
0.019771576
0.022904515
-0.00015890598
0.025015235
0.007950664
0.009679437
-0.039248466
0.0010658503
0.030664563
0.02710557
-0.008973002
0.006362319
0.054928064
-0.021348834
0.015461683
-0.013019085
0.044121146
0.06998539
-0.028054714
-0.006126523
0.010447979
0.014598727
0.028322339
0.0033107996
-0.0021680593
0.004524827
-0.0013161898
0.0077912807
-0.013820529
0.024429798
0.026027203
0.019852757
0.004879117
0.004369855
0.0041657686
0.017801762
0.025315762
0.0021942854
0.004458189
0.017864466
0.0067852736
0.0022284985
0.007890224
-0.0061165094
0.0174433
0.020914674
-0.01079011
0.031903625
0.0006147623
0.0479455
0.014279723
0.003545761
-0.0067443848
0.0070171356
0.027489305
-0.026935935
0.009271741
-0.0019603968
0.031983376
0.0033732653
-0.04514861
0.015966773
0.035018682
-0.015467644
-0.025300026
0.007122278
-0.059452772
0.009651899
0.023468494
-0.030554533
0.040052056
0.030879378
0.0034023523
0.015996814
0.012235165
0.007842064
-0.02108705
0.028339982
0.0011184216
0.010679007
0.03197062
0.029679656
-0.019703269
0.0008776188
0.025785685
0.011951923
-0.012534738
0.017100215
0.011626482
0.0042886734
0.02242744
0.027722955
-0.020628333
0.0072698593
-0.004082203
0.042703032
-0.002321124
0.07612705
0.0451293
-0.0010569096
0.02546382
-0.00088095665
0.009317517
0.0024427176
-0.04647553
-0.0052531958
0.021987796
0.006677389
0.010776162
0.0039799213
-0.004681587
0.023427606
0.010369301
0.005933881
0.047370195
-0.007604599
-0.036504865
-0.004340172
0.021808624
-0.004086137
-0.002977252
0.010632873
0.039884686
-0.014415622
0.025607705
0.0017259121
0.015047073
0.010228395
-0.04903543
0.031745434
-0.003439784
0.0042208433
-0.030526042
0.030290008
0.029846191
-0.008941054
0.03205502

-0.0065521
-0.0030697584
0.0044466257
0.0024735928
-0.030892253
0.032817245
0.003216505
0.021389365
0.03160727
-0.003975868
0.031955123
0.016579986
0.012188435
-0.005026579
-0.0055656433
0.0053880215
0.04096532
0.0066438913
0.0072858334
-0.003401637
-0.002235651
0.019869208
-0.0013278723
-0.019617915
0.0005402565
-0.0073410273
0.038449287
-0.012669802
-0.0020662546
0.010700941
0.0046333075
0.00012552738
0.007207155
-0.008102536
0.009614468
0.026964545
0.009751558
0.04148066
-0.006405711
0.0036929846
0.0034258366
0.018235683
-0.013164997
0.0091917515
0.023949265
-0.0040340424
-0.033713102
-0.006287098
-0.0074027777
0.016556382
0.01675582
0.016425729
-0.00224936
0.034210324
-0.023015857
-0.010470629
0.007319331
0.02567935
0.014400125
0.015089154
-0.010729551
-0.015160918
-3.015995e-05
-0.011573672
0.007063508
0.034156084
0.030965447
-0.0065079927
0.016891599
-0.00030493736
-0.036628366
0.00909245
0.009926677
0.0029654503
-0.0011659861
-0.0028535128
0.017834783
0.024206638
-0.011412263
0.0031747818
0.019527078
-0.0013192892
-0.0018205643
0.024161458
0.017531633
-0.021026373
0.010317683
0.029055476
0.025216341
-0.027603388
0.028310895
0.019801259
0.008247137
0.03056717
-0.0029367208
-0.009262204
0.024674416
0.018487573
-0.017722845
0.014327526
0.00534451
-0.012951136
-0.007868171
-0.00045609474
0.027387738
0.0014582872
0.031860948
-0.0031985044
0.04900062
-0.011966348
0.015483737
0.013998628
-0.018624425
0.007249117
-0.018211484
-0.009394765
0.00059759617
0.029715061
0.01126039
0.00044095516
-0.0058772564
0.0006248951
0.02959776
-6.735325e-05
0.02932489
0.04390657
0.003983259
-0.010724187
0.04118371
0.021361828
-0.01241827
-0.00086820126
-0.0049552917
0.004217267
0.0062788725
0.012776732
0.06393552
0.03818977
0.023393035
-0.011816621
0.01772201
0.022728562
0.011965871
-0.0032502413
0.061596155
-0.010232329
-0.023118973
0.026976943
-0.012372017
-0.002210021
0.015297294
0.008756876
-0.00609684
-0.00083971024
0.0153313875
0.002295494
0.025304675
-0.0012383461
-0.0064321756
-0.018793225
0.011754751
0.018024087
-0.007865548
-0.07817924
-0.009096742
-0.011220098
-0.003540039
-0.001480341
-0.009412885
0.029099584
-0.02958405
0.013165355
0.015724063
0.038112402
0.02286911
0.010168076
0.045749545
-0.009427071
0.006251931
-0.0120027065
-0.000824213
-0.013515234
0.0052574873
0.016442537
0.00080382824
0.025274038
-0.01672709
0.057573795
-0.036288857
-0.0023788214
0.0024882555
-0.017063737
0.004239559
-0.010843039
-0.025171638
0.012716055
0.0056387186
-0.0050570965
0.08321297
0.012350321
0.0075519085
0.010297298
0.006502509
0.002253294
0.00067448616
0.0032162666
-0.0006586313
-0.0071074963
-0.02765584
0.009865046
-0.015148401
0.026655674
0.026411772
0.064357996
0.006009102
8.904934e-05
-0.013495326
-0.015956402
0.010199785
0.02636385
0.018922687
-0.010107636
-0.0059211254
0.011260152
0.021698117
0.062385917
0.003914833
0.017507553
0.017457724
0.057852983
0.019960523
-0.036397338
-0.008857608
0.024908543
0.015005946
0.032218218
0.038740635
-0.0034140348
0.0054051876
-0.029595852
-0.003998041
0.052013516
-0.0016624928
-0.0061644316
-0.0126930475
0.020510197
0.019921899
-0.00044345856
0.025989056
0.001060009
0.004000902
0.008037567
0.073055506
0.020698547
0.0016009808
-0.006888628

0.046823025
-0.015625477
-0.013357878
-0.027073741
0.007956862
0.0043793917
-0.034914613
-0.013457656
0.0003027916
7.6293945e-05
0.04735446
0.08335793
0.022984982
0.0023450851
-0.02712655
0.011833191
0.021415353
0.023867011
-0.00986886
-0.033339024
0.013304114
-0.043558
0.078234315
-0.0056073666
0.020166755
-0.022897959
0.0004159212
0.024623752
-0.03571987
-0.000808239
0.0009832382
-0.00944519
0.012612224
0.055057168
0.009765148
0.0019183159
0.0024923086
0.0009434223
-0.02960229
0.0066217184
-0.03814876
-0.0006388426
-0.0051887035
-0.0049729347
-0.05956483
-0.0120821
0.023663163
0.002921462
-0.01318562
0.016474366
0.011814594
-0.01623118
-0.0078083277
-0.017651796
0.03854525
0.010901332
-0.01771617
0.007941246
0.057285666
0.012784958
-0.024852633
0.02145946
-0.0056368113
0.032497406
-0.0019937754
0.006042242
-0.043958902
0.011519313
-0.0017991066
0.040792346
-0.00061297417
0.020887733
0.012920499
0.019486427
-0.010581732
-0.010849357
-0.030548215
0.036958575
-0.007849097
-0.016934514
0.037687182
-0.01567936
0.034127235
0.0056010485
0.026767492
0.0866003
0.0016430616
0.015535355
0.035743594
0.021644235
0.034941673
0.012934208
0.00011241436
0.028862596
-0.012040377
0.058686376
-0.015591502
0.005925417
-0.003176093
0.022709608
0.03137505
0.035401702
0.0022271872
0.008769989
-0.0056533813
0.04705906
-0.029139638
0.047004104
0.0028686523
-0.003191948
0.03585565
0.020030856
0.0007312298
0.032738805
0.0054637194
0.018322825
0.024629593
-0.009068012
0.017400742
-0.011269689
0.00017893314
0.114305615
0.00853169
-0.0400002
0.011789322
0.0031325817
0.0073132515
0.0017542839
0.0068491697
0.018182278
-0.010848999
0.019287586
0.009863496
-0.018518329
0.0065004826
0.029668689
0.0048550367
0.028411508
-0.041275978
0.064157486
-0.007494688
-0.0013650656
-0.015337825
0.005231023
0.006321907
0.006955862
0.03999865
-0.0039662123
0.0150101185
0.030456543
0.0055731535
-0.020412207
-0.0019530058
0.013166189
0.06294298
0.028305292
-0.008850336
-0.0006644726
-0.0059577227
-0.0066286325
0.009034038
-0.0021950006
0.03266239
-0.013569474
0.07088089
-0.031713963
-0.0069913864
-0.035259962
0.03433895
0.0021945238
0.043154836
-0.0021722317
-0.005813837
-0.042406082
-0.013057351
0.028908014
0.01442194
-0.060531974
-0.0059353113
-0.005897641
0.026912093
-0.010725617
0.015128136
0.009194255
0.021445274
0.04260373
-0.024512172
0.0012283325
0.043741584
-0.011114478
-0.0065113306
0.0048395395
0.07154226
0.014380455
0.031938076
0.001967311
0.008456588
-0.0106287
0.025791645
-0.0023128986
0.030034184
0.009787321
0.010995269
-0.061288238
0.048633933
0.04328692
0.027332544
0.013592958
0.012828827
0.0041712523
-0.0049762726
0.013897538
0.019631267
0.05812943
-0.012423754
0.04518938
-0.00444293
-0.007159233
0.0074927807
-0.008472562
-0.01852429
0.033430815
0.016118646
-0.025225997
0.017478347
0.0048156977
0.031073093
0.033769965
-0.020105362
0.019205451
0.0008877516
0.011250019
0.007814884
0.029555678
-0.028420448
0.04036987
0.0044760704
-0.019321203
-0.0032744408
-0.04984188
0.044558287
0.005581975
-0.012984753
0.014275312
0.01142478
-0.012036443
-0.034114957
0.018074036
-0.008822441
0.002601266
-0.0036067963
0.019003153
-0.0095072985
-0.0026209354
0.0022660494
-0.0021498203

0.01614225
0.029690146
0.011371732
-0.0057729483
-0.0071042776
-0.016535997
0.0018997192
-0.025322795
0.010444999
-0.0032122135
-0.015702248
-0.0025748014
-0.01058805
0.0071707964
-0.015852094
0.023385167
-0.0026462078
-0.0029571056
0.016433597
-0.0050877333
0.013403654
-0.0025414228
0.02704823
0.0056484938
-0.010468721
0.009820104
-0.022657275
-0.0025479794
-0.004438281
-0.003946185
0.022236109
0.0040460825
-0.0024183989
0.016558409
0.012246609
-0.0029093027
0.0026760101
0.00532043
-0.011869788
0.01933372
0.014667392
-0.0064754486
0.03983462
0.019898415
0.00068342686
-0.0029700994
0.03138864
-0.0035767555
0.00040769577
-0.007940292
-0.009380817
0.005638361
0.009145141
0.0023554564
0.011106133
0.01876247
0.0149383545
0.016515374
0.0006970167
0.011971116
-0.018579364
0.0014070272
-0.0015752316
0.012085557
-0.027237535
-0.029255152
0.0024541616
-0.021020293
0.028905869
0.0152385235
-0.02340746
-0.009299159
0.022534728
0.00925529
-0.0029131174
0.00065016747
0.021425009
0.008152723
0.027767658
0.016184092
-0.034807563
0.018075705
-0.031720996
-0.004078865
-0.019202948
-0.00034415722
0.021586299
0.0025007725
-0.005797267
-0.010421753
0.0026978254
-0.008834004
-0.017996788
-0.0020092726
0.010681033
-0.012396336
-0.009105563
0.021304011
0.010957837
0.011814117
-0.004229903
0.014539599
0.007076025
-0.007155299
0.012616038
0.027217269
-0.018782139
0.0069738626
-0.0036114454
0.011984348
0.008847475
-0.00081551075
0.022982359
-0.0012485981
-0.0067806244
0.009004116
-0.0030155182
0.022382617
-0.00770545
0.008355737
-0.0017838478
-0.0035161972
0.029957175
0.01898539
0.011516929
0.053760767
0.012521744
0.00072431564
0.050303936
-0.020883441
0.003535986
0.022408247
0.008697629
0.017841816
0.008890986
0.00856638
0.013024688
0.001018405
0.010803103
0.00641346
-0.003532648
-0.04450047
0.023923993
0.0014784336
0.0038938522
0.0039002895
-0.015777588
0.0017154217
-0.012710094
0.011666179
-4.720688e-05
0.012700319
0.0042874813
0.005280614
-0.00665617
0.018179059
-0.0020372868
-0.0035426617
2.503395e-06
0.002827406
0.021884322
0.0025366545
-0.0025361776
0.002833128
0.0045933723
0.0249331
0.0016504526
-0.008815408
0.002349496
-0.00017428398
0.016453505
0.00014007092
0.011110783
-0.004031062
0.009201288
-0.009743929
0.002776742
0.022165895
5.4717064e-05
0.01441884
-0.018119335
-0.047233462
-0.024701118
-0.0051876307
0.006813407
0.0074226856
0.00026857853
-0.021084785
-0.014289737
0.00046241283
0.0019062757
0.003463626
0.007143736
-0.014325261
-0.0060470104
-0.021841884
0.0021829605
0.016669154
0.0055629015
0.0013695955
0.022055984
0.0133981705
0.01414752
-0.0020862818
0.0054172277
-0.010869861
0.008093715
0.021208405
-0.002565384
0.021145701
0.0046231747
0.02268207
0.007344365
0.033144355
0.016527534
-0.007851362
0.011134028
-3.1113625e-05
0.012292266
0.012663722
-0.024951935
0.0032405853
0.01902318
0.016755223
-0.0050355196
-0.017310739
-0.0066337585
0.010192394
0.024107337
0.00017619133
0.0033917427
0.009110212
0.013267875
0.0046104193
-0.005448103
-0.034595132
0.02347374
-0.0017777681
0.010608435
0.0062402487
-0.0032459497
0.02394998
0.0050235987
0.009560466
0.016769767
0.0067631006
0.022566557
0.0065898895
0.012848854
-0.051973104
0.0048695803
0.008694768
-0.002034545
0.041202307
0.010408044
0.010683417
-0.013191462
0.007226944
0.01374495
-0.008197069
-0.0023800135
-0.005910754
0.005916953
-0.005930066
0.0150847435
0.008757234
-0.017868876
0.030633569
0.00018715858
0.0031626225
-0.005341172
0.005657077
-0.0015482903
-0.020637631
-0.002044797
-0.009504557
0.014516592
0.024149895
-0.010678768
-0.031091094
-0.01496768
0.041588187
-0.0035607815
-0.0025889874
0.0031903982
-0.013232946
0.0041736364
-0.002384901
-0.011268854
-0.009837627
0.0017168522
0.029818535
-0.0019938946
-0.00072324276
0.0028190613
-0.0011109114
0.01562643
-0.0063226223
-0.01576817
0.0057991743
-0.026631713
0.025901675
0.017648935
0.010968208
-0.006624818
0.0029854774
0.00649786
0.02419734
0.011000037
0.010318518
-0.01373744
0.02289629
-0.02565825
0.025532603
0.0017601252
0.02543509
-0.02083671
-0.007835627
-0.003299594
0.021765113
-0.006718397
0.00976634
0.011564612
-9.083748e-05
-0.040313363
0.0047932863
0.007838964
-0.009750485
0.010753512
0.010085344
0.004822612
0.017987251
0.0020555258
0.014431953
0.024463773
0.00018334389
0.010365605
0.011135459
0.0007722378
-0.016131163
-0.0022736788
-0.00078999996
0.022080302
0.013626099
0.009871602
0.010656953
0.005666971
0.019265175
0.025328994
0.020986795
-0.0070910454
-0.0028066635
0.019881964
0.016585827
0.00754416
0.021659732
0.008469582
0.017410994
-0.0020803213
0.038572907
0.01612389
0.0024889708
0.0027341843
0.01378715
0.024830103
-0.021201849
0.0010175705
0.00970006
-0.0064926147
0.004288435
0.0038676262
0.032020688
-0.041553497
-0.0033886433
-0.011478186
0.00012600422
0.015213132
-0.03283918
-0.005473137
0.0021812916
0.013303161
0.01179266
-0.024601698
-0.0030024052
0.023750424
-0.010168552
0.0100159645
0.004331827
-0.011008024
-0.014952064
0.02316606
-0.0026186705
-0.008904457
0.013191819
0.009658098
-0.02179408
-0.0008034706
0.014081359
-0.03041482
0.002978444
-0.004388213
0.014968753
-0.0141227245
0.021299839
0.020609856
-0.013256788
0.008688211
-0.015891552
-0.0014090538
0.005366206
0.016472459
-0.00334692
-0.032714963
0.018174767
0.0063495636
0.009729862
0.008265376
0.0139712095
-0.0034575462
0.013408542
0.007918596
0.0035332441
0.01704204
-0.008062482
0.00049734116
0.0013747215
-0.008765936
0.004811883
-0.027306914
0.02721107
0.004053831
-0.0041868687
0.0077056885
0.016204476
-0.00032126904
-0.01590848
0.024415135
0.005117774
0.012062788
-0.0040792227
0.016432166
0.0028711557
-0.003187418
0.0053110123
-0.0092099905
-0.022066236
0.023683429
0.00528121
0.0028289557
0.0055960417
-0.005245328
-0.01559782
0.04792273
0.0036450624
-0.00064992905
-0.00276196
-0.0036985874
0.020761728
0.009766698
-0.010770798
0.0027401447
0.0028344393
0.057146072
0.0085788965
0.023493767
0.024366617
0.029241443
0.006443739
0.0037184954
0.003480196
0.012117624
-0.0006196499
0.03660178
0.00255692
0.0004554987
0.0032604933
-0.020114064
-0.004751444
0.011077285
0.007803321
0.0088346
-0.0032289028
-0.0069140196
0.016831398
0.013201594
0.011379123
0.008464813
0.0076522827
0.020964146
-0.0036376715
0.003991723
0.0116763115
-0.004774213
0.043074846
-0.010727525
0.0046436787
-0.02593565
0.006042123
0.004463434
-0.010241866
0.0061239004
-0.0069350004
0.012413263
-0.0013285875
-0.0054444075
0.004126191
-0.048998833
0.0067169666
-0.008479953
-0.021613598
-0.0027843714
0.025764227

0.0017448664
0.0022661686
-0.01991713
0.0025589466
-0.0050178766
0.004154086
-0.010306954
-0.0019375086
-0.005410552
-0.0035704374
0.0044950247
0.02731371
0.010399342
0.0074130297
0.013517976
-0.006331444
0.012476563
-0.0019035339
-0.010010362
0.00805676
0.0032360554
0.015398741
0.0042983294
0.006035328
-0.0038772821
-0.002372384
0.00079643726
-0.0021755695
0.0024957657
0.0019053221
0.0020235777
-0.0038655996
0.011602521
0.0076133013
0.0122751
-0.0005393028
0.0018382072
-0.0034246445
0.020816922
0.0003066063
0.00815928
0.0037995577
-0.0015357733
5.38826e-05
0.01871121
-0.010437012
0.0032078028
-0.038133264
0.011963487
0.019522548
0.0055969954
-0.0074943304
0.005701065
0.000690341
0.018648863
0.005249262
0.0008763075
-0.00839448
0.007837057
0.0020912886
0.0036205053
0.0034922361
0.0064098835
0.008770108
0.02996695
0.0058202744
0.0061303377
-0.0017037392
-0.010792851
0.0012302399
-0.0067259073
0.013958335
-0.00033175945
0.018948674
0.0037635565
0.012123466
-0.003948927
0.018915772
0.007671356
-0.011251807
0.006568432
0.0037417412
-0.0070602894
0.0017762184
0.0061796904
0.0073815584
-0.0023612976
-0.009029746
-0.0039385557
0.0017206669
0.022514343
0.00059068203
0.0028820038
0.022957444
-0.0058500767
-0.01283288
0.0048897266
0.0019329786
0.0036058426
0.019842982
0.009150267
0.001775384
0.016112447
0.019615173
-0.00043320656
-0.010753512
-0.004709244
0.006927371
-0.0031553507
-0.00036883354
0.010234952
0.0003709793
0.009042025
-0.00030207634
0.01463151
-0.017650485
-0.0030052662
0.003809929
0.012352705
0.012491226
0.0007287264
-0.0035963058
0.011134028
0.013244271
-0.006886363
-0.0031038523
0.00021469593
0.010017395
-0.0030304193
0.00033521652
-0.013221383
0.03985405
-0.0055577755
0.020584464
0.026780963
-0.011235833
-0.007490039
-0.00998354
0.015026808
-0.004528284
0.01747632
0.029136062
-0.0054495335
0.0072562695
-0.0048737526
-0.0017836094
0.0016400814
-0.008011937
0.0011419058
-0.027028918
0.0085737705
-0.029868126
0.015420079
-0.00017309189
-0.027262926
-0.045250177
0.009328723
0.016095757
0.0067754984
0.002135396
2.5510788e-05
0.020987153
0.007871628
0.0040972233
-0.0032253265
0.00015461445
-0.00025069714
-0.0061261654
0.005399704
0.007784128
-0.0013893843
0.009512782
-0.0018969774
0.014170766
-0.018302321
0.0014220476
0.021203756
0.0032289028
0.007234931
0.026855707
0.01004827
-0.008103728
0.030147672
-0.011628866
-0.014318585
0.0042778254
0.0034347773
0.00037956238
-0.01053071
0.018120289
0.041488886
-0.0067332983
-0.0012651682
0.0005669594
0.013745189
0.0056124926
0.0033006668
0.019427657
0.0008302927
0.0004490614
-0.0011330843
0.02209878
-0.0055502653
-0.0006352663
-0.0011954308
0.026689887
0.010094047
-0.0082502365
0.031110287
0.012577534
0.0015069246
-0.0033465624
-0.0011416674
0.027392149
0.0051704645
0.028891444
0.017175436
0.004204035
-0.011537671
0.004712224
0.022252321
0.0072345734
0.007110834
0.018504143
0.0031095743
0.0133425
0.024154067
0.0073367357
-0.0027060509
-0.0012648106
0.0012824535
0.00731647
0.006701231
0.00054478645
0.013518214
0.0038210154
0.0020850897
0.013907313
0.018524885
-0.011129141
0.0074920654
0.013708711
0.011997938
0.008729577
-0.00058948994
0.01091671
-0.009275675
0.0038272142
0.0031203032
0.009217024
-0.0020189285
0.0022258759
-0.00065791607
0.0057064295
-0.032683134
-0.00642097
0.0110839605
0.023030758
0.031041026
0.0060738325
-0.023815751
0.0067249537
-0.017887473
-0.002280593
0.0032457113
0.014616013
0.007638693
0.01091826
-0.00547719
0.0033712387
-0.016114473
-0.003996253
0.002573371
-0.0006182194
0.005928397
0.015968204
0.013936877
-0.00059723854
0.005671978
0.012465477
0.026028395
0.027478099
-0.013239861
0.021679282
-0.0076526403
-2.7060509e-05
-0.0060875416
0.008762121
-0.00010073185
0.0033507347
0.0015721321
-0.0026685
-0.003744483
-0.0035049915
0.0215137
-0.008029342
0.0207268
0.023440123
0.011464
0.022825956
0.005429983
-0.01959145
-0.006657958
-0.0038487911
0.012834072
0.020294785
0.009913087
0.00020480156
0.0035101175
0.0006389618
0.023677588
-0.02249217
-0.013306022
-0.0022996664
0.008618593
-0.00291121
-0.0031038523
0.006518364
-0.001861453
0.0050572157
0.0016821623
0.011711597
0.02486384
-0.009701252
0.028676748
0.016444087
-0.010810137
-0.003997326
-0.004569173
0.020241618
0.000834465
0.00015282631
0.0023622513
0.0056256056
-0.018152833
-0.019567728
-0.0015569925
-0.00095152855
0.010426998
0.020804524
0.0160321
-0.0049841404
0.0017567873
0.008537769
0.00536108
-0.0035885572
0.018544197
0.005164504
-0.0072358847
-0.0014926195
-0.0036145449
0.005522847
-0.002039194
0.014162898
0.0053294897
0.0011479855
0.0039277077
-0.0026150942
-0.0063329935
0.0046089888
0.010382891
0.007634282
-0.030793428
0.018301964
0.011698604
-0.005172968
-0.011177897
0.0057429075
0.0023618937
-0.00037515163
-0.021212816
-0.008608341
0.0102956295
-0.0007008314
0.010566831
0.0028342009
0.0005298853
0.0070328712
0.0010117292
0.020889282
-0.0061326027
0.012630463
-0.0025388002
0.017276406
0.004284382
0.027632713
-0.0032756329
0.026973724
0.0020929575
0.003191471
-0.019016504
-0.006028414
0.01115787
0.031814218
-0.01762247
-0.01164794
0.011157751
0.002294898
0.023079276
0.014533281
0.0075184107
0.0018228292
0.0014914274
-0.014644384
0.035230637
-0.014615774
0.0022399426
0.001483798
-0.016762972
0.013696194
0.013905764
0.0031677485
0.014121056
-0.0028083324
0.01922214
-0.001517415
0.0073803663
0.00874114
0.006614089
0.011874318
-0.00050115585
-0.008041382
0.0015985966
-0.015651584
0.021416903
0.008364797
-0.03392327
0.0038019419
-0.011685133
-0.031019092
-0.02406907
0.013244033
0.0017004013
-0.0035777092
0.01372695
-0.0069465637
-0.009789586
0.029277205
0.00665617
-0.003987789
0.0039919615
0.021175146
0.0042327642
0.009540319
-0.017416716
0.0014671087
-0.016358614
0.0024065971
-0.006350279
-0.008846402
0.008008599
-0.0014306307
0.0042443275
0.016251564
0.0005848408
0.0014339685
0.006182909
0.0045940876
0.003267169
0.0079654455
0.024184108
0.0061273575
-0.010867953
-0.006227255
0.017261028
0.019075632
0.004747033
0.036916494
0.0036127567
0.004672408
-0.010948896
0.011938572
0.009126067
0.012527227
0.0010682344
0.0012234449
0.0039334297
0.0007265806
0.0013338327
0.01473403
0.0026892424
-0.00019276142
0.017339706
0.00947845
-0.009817123
0.0012565851
-0.003939748
-0.0069316626
-0.0067697763
0.016504884
0.005046129
0.005180955
-0.012814879
-0.0060766935
-0.0030844212
-0.0008765459
0.0013276339
0.010353684
-0.009309769
0.002125144
-0.0028110743
-0.016343594
-0.009675145
-0.0048521757
0.007996559
0.007668853
-0.014514446
0.02240038
0.0026403666
-0.002286911
0.032324076
0.032065988

-0.002320528
-0.0056830645
0.014270544
0.018397808
0.0071650743
0.025928736
0.0015974045
0.016420364
0.009005666
0.0054713488
-0.0020745993
-0.0051305294
-0.005521059
0.00028562546
0.004008174
0.0010551214
0.0018297434
0.00364542
0.0009965897
0.003563881
0.0049607754
0.036922574
-0.012239099
0.008841991
0.009727836
0.010609388
0.0030819178
0.002231598
0.0033079386
0.0026538372
-0.0071920156
0.015854597
-0.010126233
-0.013525963
-0.00079476833
-0.0009614229
0.011282682
0.018948555
-0.001816392
0.009784102
-0.009428501
-0.0045719147
0.0073257685
0.0075526237
-0.002054572
0.00660038
0.0030065775
0.010735273
0.0052155256
0.018337965
-0.011875987
-0.0016872883
-0.0059241056
0.012890458
3.2305717e-05
0.0039395094
0.0011940002
-0.002515316
-0.0017478466
-0.01625514
0.01429522
-0.0043457747
-0.0116888285
0.009696722
0.010408163
-0.0025150776
0.008348465
-0.00076818466
-0.0049538612
-0.019801259
-0.014173627
0.014886975
0.009475708
0.020620227
0.0012005568
-0.003984809
0.016332626
-0.0055758953
0.003861189
-0.0001335144
0.002543807
0.00597167
0.0027981997
0.0042295456
0.0094435215
0.011321425
0.00093114376
0.021249056
0.016947627
-0.015236497
0.0019134283
0.017501593
0.0028398037
-0.0103366375
0.00645411
-0.030111194
-0.00557518
0.018669248
0.021934748
0.012457967
0.0011216402
0.0004504919
-0.0062732697
0.0034688711
0.0079340935
-0.0038170815
0.008060336
-0.002040863
0.003268838
0.010669708
0.00572598
-0.01613295
0.0075927973
0.011174679
-0.00027179718
0.011241674
-0.00070786476
-0.007392645
-0.0032186508
0.0010318756
0.0061303377
-0.0048455
0.00565207
0.010210991
-0.016797066
-0.006936431
0.0047689676
0.006126046
0.009727716
0.024314404
-0.004461646
0.026671529
-0.000461936
-0.01586008
0.005578041
0.0050427914
-0.0036767721
-0.00458014
0.004442334
0.005454302
0.007833719
-0.002067566
0.008230448
-0.0072904825
0.009563208
0.0054563284
0.0026390553
0.0011385679
0.013714671
-0.028385043
0.0009045601
0.011828184
0.0038944483
0.007942319
0.011490464
-0.0021442175
0.0060708523
-0.004916787
-0.0055093765
-0.005432725
-0.007225871
-0.003812313
0.01741016
0.007266879
0.012685895
0.009708881
0.004033804
0.00682199
0.010641575
-0.0036551952
-0.003937483
-0.015204668
0.0067293644
4.529953e-06
0.0041900873
0.022256136
0.00845623
-0.0007225275
0.0008150339
-0.0045017004
0.0027154684
-0.002450943
0.007869244
0.0022519827
-0.0017946959
0.0019207001
0.008944988
0.016494036
0.0012712479
-0.005051017
-0.011765003
-0.00048017502
-0.015651941
-0.0077501535
0.0074385405
0.005624056
-0.002423048
0.0035147667
0.0037790537
0.01797831
0.016609192
0.04707706
7.867813e-06
0.0042541027
0.00033926964
0.0021862984
0.013520479
0.0047926903
0.0021699667
-0.011913896
0.0032783747
0.0006144047
-0.005626917
-0.01330483
-0.010311127
0.016915917
0.004446745
0.007110715
0.005298972
-0.007280469
-0.0020537376
0.008930206
0.00146842
-0.007254839
0.0013028383
0.023200274
0.010838866
-0.00024461746
-0.0033131838
-0.006574273
0.0167315
-0.0052331686
0.002734065
0.007101536
0.007965922
0.0061092377
0.0057953596
-0.0011020899
0.0013619661
0.009299874
-0.00040757656
-0.011449933
0.0077449083
-0.00044584274
0.0023399591
0.0011538267
0.008303285
0.0011612177
-0.0017774105
0.0085071325
0.001003623
0.002664566
-0.018511176
-0.0006725788
0.010504842
-0.0030556917
0.002001524
0.025216341
0.008305192
-0.0015865564
0.014438748
0.015660524
0.006855607
0.0094668865
0.01384294
0.004779458
-0.0027706623
0.0065659285
0.0018393993
0.022629738
0.009026408
0.00080132484
0.0007658005
-0.024677515
-0.0005413294
0.0012344122
0.002105713
0.0030356646
0.0106476545
0.018220663
0.0069555044
-0.0066370964
0.018130302
-0.0030605793
0.004507065
0.0057115555
0.002630949
-0.008204341
-0.0016418695
0.0018570423
0.0015773773
-0.013090014
0.030204892
-0.009956479
0.01874435
-0.00091326237
-0.004791975
-0.0025296211
0.005194783
0.008054495
0.008383989
-0.0004529953
0.026331425
0.013063908
-0.0008265972
-0.004619479
-0.008538842
0.0035473108
0.0068700314
0.005398035
0.010403395
-0.0008621216
-0.0011658669
0.00017976761
0.006842375
0.005818367
0.004537463
-0.0021971464
0.013817787
-0.00026619434
-0.0021079779
0.0044265985
-0.018599987
0.0012537241
0.0034136772
0.00014317036
-0.0029211044
0.0079984665
0.016125321
0.0055327415
0.0026768446
0.011791706
0.007961035
-0.007887244
-0.00080549717
0.0047688484
-0.0020008087
0.014480352
-0.0028893948
0.015023828
-0.001331687
0.0026763678
-0.0025731325
0.005259156
-0.006427765
0.010473847
0.0010193586
0.016182542
-0.0047962666
-0.0034799576
0.0035384893
0.011481166
0.009177089
-0.0058631897
-0.00046527386
0.011191726
0.010713339
0.010461926
0.010986328
0.0010054111
0.00069367886
-0.00034236908
0.001770258
-0.00015091896
0.0075142384
0.00086534023
0.017039418
0.018844008
0.00067794323
-0.0057274103
-0.000865221
0.0057365894
0.0013797283
-0.007944107
0.0034371614
-0.027138948
0.0025408268
0.0040133
0.003410101
-0.00980258
-0.0052472353
0.016242981
-0.005110383
0.009554863
-0.004249096
0.0023077726
0.011635184
0.014506936
0.0042282343
0.00035619736
0.036560893
-0.0033397675
0.016894102
-0.00070786476
0.034593344
0.00066399574
0.00067305565
-0.00388515
-0.0032428503
0.011497736
0.0027143955
0.0015865564
0.0016242266
0.002102971
0.003051281
0.015478373
0.0051146746
0.0060782433
0.0190022
0.0042592287
0.004074812
0.002980113
0.016850471
0.030211091
0.02050209
0.0011104345
-0.011902928
-0.0069106817
-0.006953478
-0.0014766455
0.002563715
-0.01000309
-0.004207611
-0.024615169
-0.0036200285
-0.0063949823
0.006922841
0.03495264
0.0013293028
0.018983364
-0.0011445284
0.0065327883
0.003082037
0.007454872
-0.01951933
0.012316346
-0.00075149536
0.0051136017
-0.0059028864
0.0016810894
0.019792438
0.026542187
0.00025880337
0.0075548887
0.0084552765
0.004740119
-0.012120724
0.019810319
-0.013117194
-0.0036063194
0.009716272
0.04510832
0.008160472
0.020494342
-0.008728266
0.003382802
0.009521365
0.010932922
0.012969136
-0.001502037
0.011010528
0.00784409
0.012083888
-0.0015399456
0.007340789
0.006793618
-0.0012680292
0.0034811497
0.005866289
-0.0008699894
0.0083966255
-0.008271217
0.002548933
0.017056346
-0.0009676218
0.016305923
-0.016903996
0.009551048
0.01668191
-0.005956769
-0.00077831745
0.003404498
-0.00022852421
0.006708741
0.0010529757
0.0065538883
0.0002552271
-0.0013355017
0.0018023252
-0.00040113926
0.004397869
-0.004758239
0.02477622
0.005745411
0.002380252
0.0093410015
0.0050427914
0.026158333
0.0003540516
0.007887483
0.0005337
0.006537199
-0.0040421486
0.0029414892
-0.008200049
0.024863243
-0.00813961
-0.0035717487
0.005929351
-0.007104516
0.0015113354
0.005790353

0.008360386
0.0028214455
0.003917098
-0.009362459
0.003361702
0.004067898
0.016636133
0.006781101
0.009210944
0.0037001371
0.004720807
-0.0022381544
-0.00026917458
-0.0034378767
-0.00034177303
0.00073206425
0.002560258
-0.010040641
-0.0016762018
-0.0018422604
0.0014415979
0.004788041
0.0077705383
0.0026452541
0.0007697344
-0.0025014877
-0.0007100105
0.0036746264
0.01632297
0.009807706
0.0051283836
-0.0012876987
0.0023174286
-0.00060224533
0.0009986162
0.012754679
-0.0015641451
0.0026025772
0.0057138205
-0.00848043
0.0026515722
0.00096321106
0.00848496
0.0029507875
0.007083535
0.00013244152
0.003283739
9.6678734e-05
-0.0018857718
-0.0010100603
-0.00059342384
0.00634861
0.0037591457
0.0018700361
0.006475687
0.0071128607
-0.00083708763
0.014486194
0.008402705
0.004644394
0.0017904043
0.0038934946
0.0032970905
0.0037600994
0.0045905113
0.00089621544
0.0014072657
0.002436161
0.007813096
7.43866e-05
0.004449725
0.02259767
0.009330988
0.00091314316
0.0024024248
-0.0027809143
0.0039520264
-0.002871275
0.003658533
-0.0011960268
0.0031483173
0.004981756
0.012754917
-0.0042134523
0.0018607378
0.000595212
-0.0014603138
-0.00077712536
0.009667277
0.005833745
-0.0010288954
0.005417824
0.0041635036
0.006456256
-0.0009557009
0.0028898716
-0.0007766485
-3.0994415e-05
0.010438919
-0.0004118681
0.012140393
-0.0004749298
0.00447309
-0.0006773472
0.002347231
0.007915497
0.0016078949
0.0011698008
0.0060772896
-0.00034081936
0.0036245584
-0.000854969
-0.0024510622
0.006729722
0.0032948256
0.003589034
-0.0019034147
0.0037111044
0.019767642
-0.0025138855
0.0073685646
-0.002765894
0.0035091639
-0.001278162
0.002061963
-0.0013394356
-0.0013825893
0.010565639
0.0040159225
0.0014033318
0.0058510303
0.028948307
0.0044277906
0.00375247
-0.0015351772
-0.00079381466
0.0016077757
0.0028227568
0.013335109
-0.0010536909
0.008286357
0.009993434
0.00055384636
0.006180525
0.0168041
0.006952405
0.0013133287
-0.003047824
0.00060999393
-0.00025486946
0.0035825968
0.005107045
0.0007097721
0.0113351345
-0.0020714998
0.007394433
0.0033450127
0.017543316
0.004029751
0.0004544258
0.0052833557
0.0003774166
0.0060095787
-0.004237294
-1.7404556e-05
0.0014047623
0.0076799393
0.015135169
0.0013017654
0.0010792017
0.0015347004
0.005233288
-2.8848648e-05
-0.0009844303
0.004804969
-0.0030406713
0.008909225
0.0030032396
-0.00073468685
0.00042068958
0.0014777184
0.0020706654
0.0032209158
-0.0019295216
0.0065028667
0.0072114468
0.00736022
0.0029556751
0.0015933514
-0.0015411377
0.011383414
-6.818771e-05
0.0060697794
0.0014958382
0.0025930405
0.00049328804
0.0058637857
0.0070028305
0.006236315
0.010918856
0.0043417215
0.0005530119
0.0011299849
0.030346036
0.0069384575
0.0027418137
0.014577508
0.0028555393
0.0012068748
0.005722165
0.0031541586
0.008874059
0.0014486313
0.0016648769
0.013220787
0.0016143322
0.0016028881
0.008162141
-0.00065529346
0.017813206
-0.0018905401
-0.0018174648
-0.004011631
0.00086688995
0.007575631
0.01216054
0.0026763678
0.013858557
-0.00045001507
0.0015227795
0.0046089888
0.036491036
0.00688231
0.001019597
-1.5616417e-05
0.009473443
0.008168697
0.004650116
-0.0011479855
0.0052193403
0.00058317184
-0.0026848316
0.010586023
0.0014468431
-0.0008673668
-0.00045216084
3.0040741e-05
0.007188797
-0.00017130375
0.0009493828
-0.00090134144
0.002188325
0.010899305
0.010298848
-0.0019521713
-0.0007121563
-0.0012841225
0.000579834
0.0092840195
-0.001686573
0.0069630146
-0.000279665
0.0011168718
-0.002078414
0.005133152
-0.0032225847
-0.0032151937
-0.0024023056
0.0028566122
0.0051681995
0.010642767
-0.00011765957
0.003501296
-0.003933668
-0.00038826466
0.015473485
0.008609533
0.006531477
-0.00019729137
0.0034877062
-0.0011703968
0.000821352
0.002797246
0.010301828
0.003516078
-2.7894974e-05
-6.2823296e-05
0.0051988363
0.01940155
-0.0014153719
-0.0030670166
-0.00175035
0.00645113
0.0092202425
0.014274716
0.003714323
0.0035746098
-0.0011104345
0.00803864
-0.0006759167
-0.0009226799
0.023133874
0.0048781633
-0.0022178888
0.0013998747
0.00032615662
-0.0017359257
0.008059382
-0.0016067028
0.00011122227
-0.00048935413
-0.0009304285
0.013716936
0.0022838116
0.00035119057
0.018343806
0.0059399605
0.0065408945
-0.0009932518
0.0005391836
0.0011717081
-0.00016951561
0.00056898594
0.009392858
0.0024755
0.0023236275
0.007927537
-0.00019454956
0.00040912628
0.020071864
0.0015126467
0.0026086569
0.0045164824
0.0003106594
-0.00074493885
0.0007915497
0.0028839111
-0.00037837029
0.0013148785
0.0012948513
-0.0028414726
0.0056164265
-0.004381418
0.0013484955
0.008057594
0.0036035776
0.009217262
0.0026220083
-0.003949642
-5.8174133e-05
0.002672553
0.003246069
0.0009161234
-0.0005863905
0.008693576
0.012330294
0.00062060356
0.011572361
-0.0041778088
0.0023486614
0.0045001507
-0.0020308495
0.001662612
0.0044692755
-0.00067710876
0.0023075342
0.0020270348
0.004643202
6.890297e-05
-0.0005877018
0.00109303
0.010463595
-0.00293231
0.0019829273
-0.0011248589
0.0070079565
0.02523315
0.00051534176
0.0044629574
0.0070860386
0.00038266182
0.010524273
0.013662219
0.006844759
-0.0048680305
0.017462373
-0.00025951862
-0.0004554987
0.001894474
-0.0006817579
-0.0032738447
0.024442315
0.010654926
0.0021395683
0.00011944771
0.0010848045
0.01944971
0.009403944
0.004437566
0.002812028
0.004534006
0.0034593344
0.0043245554
0.0022768974
0.011907935
-0.00075376034
0.0058478117
0.009767413
0.00049614906
0.013090014
0.002895832
0.014657736
0.0058311224
-0.0009551048
0.009843469
-0.002948761
7.915497e-05
0.0020397902
0.0033103228
0.0027068853
0.0036455393
0.003098011
-0.0020005703
0.0012134314
0.0033060312
0.0019676685
0.0013229847
0.0036398172
9.584427e-05
0.0011427402
-0.0017755032
0.005698085
-0.0039269924
0.0053830147
-4.0650368e-05
0.020540237
0.0070649385
0.0047490597
0.00031161308
0.0034303665
-7.2956085e-05
-0.00038850307
0.0029141903
-0.0013366938
0.012756228
0.00989306
-0.004822135
0.0010244846
0.007960796
0.0012402534
0.0025206804
0.0020344257
2.1219254e-05
-0.0014646053
-0.0073126554
-0.0039180517
0.015097499
-0.00095176697
-0.0002859831
0.0026317835
0.008446574
0.00017225742
0.0035922527
0.0060477257
-0.0025744438
0.002977848
0.0059552193
0.0028436184
-0.0007492304
0.0015212297
-0.0023400784
0.006751895
-0.0027339458
0.011272788
-0.00030946732
0.0005378723
0.0041971207
0.0036773682
-0.0038836002
0.007724762
0.00079226494
-0.004452944
0.010453105
0.0019587278
0.009370685
0.00052952766
-0.0010375977
-0.0007312298
0.0054728985
0.0037759542
-0.0028586388
0.0039179325
-0.0019454956
4.9591064e-05
0.003911853
-0.004304886
0.0025644302
-0.001033783
0.008697867
0.0071507692
0.0001487732
0.004745722
0.0011148453
0.008037448
0.017183185
0.00059103966
0.017904758
0.004541874
0.000741601
0.0025479794
0.0002912283
-0.0043126345

0.0025449991
0.0044025183
0.004562497
0.011350989
0.000999093
0.0047017336
-0.0029933453
0.003333807
0.0010166168
0.005776286
0.0014544725
-8.010864e-05
0.0069767237
0.01165998
0.005277157
0.004326701
0.0039492846
0.004568815
0.003375411
0.0008639097
0.016900301
0.004518509
0.00709188
0.0023573637
0.010318756
0.0045731068
0.00085651875
-0.005459547
0.0038827658
0.0005172491
0.008370519
-0.0006426573
0.0025712252
0.0035777092
0.007114053
0.00017297268
0.00020086765
0.0017710924
0.012415051
-0.0017149448
0.0009800196
0.0047659874
0.0013296604
0.003746152
0.0031840801
0.0085965395
0.00019776821
0.0021235943
0.005113125
0.012834191
-0.0011684895
0.0030784607
-0.0030009747
0.004531145
0.0020697117
0.0048731565
-0.00090157986
0.0044460297
0.0015981197
0.010661721
0.0006008148
0.0038768053
0.0026481152
0.008090138
0.0044466257
0.0032571554
0.0048758984
-0.00086438656
-0.003460884
0.0080657005
0.0049898624
0.004675746
0.002018571
0.0014166832
-0.00094652176
0.0049107075
0.0017155409
0.00062835217
0.0025994778
0.0038719177
0.009529829
0.0004298687
0.0034458637
0.0070631504
0.013211489
0.00689888
0.001426816
0.006008506
0.0016949177
0.0010278225
0.007268429
0.001486659
0.0072461367
0.0027837753
0.012112856
0.0051990747
0.010918379
0.0017039776
0.00039851665
0.004278302
0.0012803078
-0.0003424883
0.0008740425
0.002602458
0.0025404692
-0.00022637844
-0.0006520748
-0.000664711
0.015361667
-0.0023823977
0.005272031
0.0033259392
0.009562492
0.004442811
0.005170703
0.0018440485
0.00759387
0.00094664097
0.004049897
0.009003162
0.0009877682
-0.00030303
0.0019654036
0.004650831
-0.00069999695
0.0006773472
-0.0013270378
0.0026997328
0.005949974
0.001666069
0.002563119
0.0086660385
0.0026023388
0.0017869473
0.004423976
0.0072487593
-0.004411578
0.008169651
0.006079197
0.0031056404
0.0028182268
0.008442521
0.004316807
0.00024199486
0.008986115
0.0017184019
0.0012153387
0.0059916973
0.0045773983
0.0013229847
0.00085270405
0.0005059242
0.009730697
0.0031660795
0.009345889
0.0015630722
0.0024820566
-0.00011134148
0.006213784
-0.00033783913
0.00443542
0.0068725348
0.0009676218
0.0011223555
0.0070551634
0.0025695562
0.0017678738
0.007841945
0.0017689466
0.0105443
0.0012229681
0.0014914274
0.0050200224
0.00565958
0.0048775673
-0.0011616945
0.008270144
0.0058763027
0.0012072325
0.0015159845
0.0015451908
0.0060253143
0.0030794144
-0.0007491112
0.00038826466
0.006519437
0.00584507
0.000749588
0.009846926
0.0028073788
0.0041116476
0.0068473816
-0.00047564507
0.0034104586
0.0017995834
0.009719253
0.00088882446
0.00152421
0.0008494854
0.0036449432
0.0031192303
-0.0024944544
-0.00018084049
0.003016591
-2.8729439e-05
0.00442183
0.007617116
0.0032135248
0.00058603287
0.0018496513
0.008336186
0.0010471344
0.0028954744
0.00034832954
0.011312723
0.0016298294
0.0071715117
0.0012737513
0.00089108944
0.0025100708
0.0052444935
0.0058265924
0.005136013
6.210804e-05
-0.0030263662
0.008001089
-0.00017130375
0.0014138222
0.0020332336
0.0025683641
0.0023760796
0.0005309582
0.004373789
0.0007123947
0.00046503544
0.0029290915
-0.0027323961
0.0017914772
0.008077502
0.007997274
0.0035363436
0.0018783808
0.008034229
0.0011349916
0.011254191
0.006727457
0.00054872036
0.009147167
0.00026249886
0.006425023
0.013195634
0.0075211525
0.0008889437
0.005509019
0.0006053448
0.004581809
-0.0007007122
-0.00081431866
0.0018115044
0.006366253
0.0035027266
-0.0005785227
0.0053993464
-0.00065648556
0.008632898
0.0032590628
0.006594777
-0.0006674528
0.0032285452
0.003307581
0.0016723871
0.006622076
0.007238269
6.043911e-05
0.016544342
0.0024033785
-0.0002528429
0.0043985844
0.0024369955
0.0019204617
-0.00068604946
-0.000819087
0.003368497
-0.0011399984
-0.0001488924
0.0029011965
0.0004682541
0.00065004826
0.0057760477
0.0008459091
0.0018624067
0.005648017
0.0015821457
0.008847833
0.008417249
-0.0015423298
-0.00033128262
0.0021836758
0.0002142191
0.0026589632
0.0049147606
0.0010409355
0.0019897223
0.0003414154
0.0038501024
0.0029129982
0.006377697
0.009473205
0.0016392469
0.0019772053
0.012570739
0.0048037767
0.0043674707
0.009764314
0.0023167133
0.0010019541
0.0033712387
0.009326696
-0.0007520914
0.00015056133
0.0066080093
0.004380107
0.0059577227
0.00560081
0.0034240484
0.0015124083
0.00025463104
0.0011013746
-0.000819087
0.01230526
0.0031263828
0.0040642023
0.00038778782
0.0010538101
-0.00019681454
0.004838109
0.0023337603
0.0013109446
0.0023918152
0.008893251
0.007885933
0.005788684
-0.0012565851
0.00050807
0.002813816
0.0016928911
-0.00020253658
0.0028122663
0.0030931234
0.0020663738
0.004360795
0.0039851665
0.008997798
0.0072151423
-0.00040078163
0.0121032
0.00057423115
-0.00049710274
0.003321886
0.0012028217
0.004195571
0.005403757
0.002811551
0.0030840635
0.011564612
-0.0005081892
0.013784885
0.000944376
0.002254963
0.0055086613
-0.00030994415
0.0052717924
0.0021389723
0.005641818
0.0017819405
0.005366087
0.00235188
0.002652645
-0.0041481256
0.0037950277
0.0054130554
0.004949689
-4.9710274e-05
0.004036188
0.003673911
0.01097095
0.0039447546
0.010703683
0.009948492
0.002648592
0.0071280003
0.00089383125
0.00064480305
-2.3126602e-05
0.0005789995
0.0032907724
-0.0015788078
-0.0017904043
0.0041199923
-0.00079989433
0.00923264
0.000741601
0.001316905
0.0034276247
0.0014071465
0.001357913
0.0013736486
0.013164997
0.009637713
0.0058660507
0.005559802
0.0061059
0.0027245283
0.006217122
0.00088727474
0.0010867119
0.0073623657
0.0053231716
-0.00054073334
0.0030692816
0.0074898005
0.006344199
0.007676959
0.006244421
0.002201438
0.0018732548
0.004349351
0.003066659
0.009064436
0.0034017563
0.00058472157
0.0065921545
0.009922266
0.00566864
-0.0013536215
0.005637169
0.0014170408
0.007706523
0.0024760962
0.0032156706
-0.00022888184
0.0039721727
0.0034518242
0.0012288094
0.0031379461
-5.567074e-05
0.005960822
-0.0016602278
-0.00056886673
0.0006568432
-0.0014418364
0.0031541586
-0.0009379387
0.0017434359
0.0043082237
1.8119812e-05
0.0113132
-2.8371811e-05
0.004170537
0.000101685524
0.0012999773
0.001292944
-0.0015671253
0.0009847879
0.0024945736
2.682209e-05
0.0044630766
0.0066695213
-0.0014021397
0.0025851727
0.002115965
0.0021716356
0.0003633499
0.0045933723
0.009024739
0.005900264
-0.0003656149
0.010561585
0.00082314014
0.0023812056
0.0061802864
0.0014821291
0.00038349628
0.0005341768
0.00083243847
0.012022257
0.0059458017
0.0038422346
0.0048595667
0.011756778
-0.00023066998
-0.0027649403
0.0011355877
0.01032722
0.0017927885
0.0028755665
0.008343339
0.006619096
0.001952529
0.0045996904
0.0035812855
0.0015711784
0.009506464
0.0037481785
0.0015854836
-0.00039374828
0.0027147532
0.0055166483
-0.0011460781
0.0060629845
0.0039846897
0.002709031

0.00018703938
-0.0029420853
0.0005502701
0.0076465607
0.0077314377
0.0009938478
0.0034909248
-0.00036466122
0.0051004887
-0.0019381046
-0.0038752556
0.001896143
0.0012500286
0.00011968613
0.0021744967
0.0017166138
0.011371851
0.007159233
-0.00071692467
0.0010535717
0.014560103
0.0090123415
0.0015250444
0.0033572912
0.00066518784
-0.0019558668
-0.0026845932
0.0033512115
-0.00016963482
-0.0013110638
0.011253834
0.00288105
0.0067532063
0.008874655
0.003818512
5.9604645e-06
0.0014352798
0.00020122528
-0.00016415119
0.0031160116
0.005403161
-0.002662778
0.01420176
-0.0005893707
0.0021350384
0.0006765127
0.002876997
0.006047249
0.0026413202
0.0061947107
-0.0028301477
-0.00079369545
0.005002618
0.00575459
0.0048960447
0.004986167
0.0022336245
-0.00079476833
-1.7285347e-05
0.007406831
-0.0017594099
0.008114576
-0.00033462048
0.0032340288
-0.00015485287
0.0028223991
0.0017067194
0.004881978
0.0058213472
0.001663208
-0.001126051
-0.0024365187
0.0036700964
0.0001399517
0.010382414
0.003888011
0.010991216
-0.0011833906
2.7298927e-05
0.0015429258
0.008373499
0.0032117367
0.00047934055
0.0049505234
-0.00040733814
0.021564841
0.006736994
-0.00067806244
0.01264751
0.0029176474
0.006568432
0.00075924397
0.009553313
-0.006206751
-0.0027920008
0.0038118362
0.0047888756
-0.0055037737
0.0011013746
-0.00052523613
-0.0010421276
-0.002527237
0.005544305
-0.0005530119
-0.0010097027
-0.0014469624
0.004556179
0.0005379915
0.0020608902
-0.0017077923
-0.0015027523
-0.0056408644
0.0010787249
0.0113482475
0.0006788969
0.0033209324
0.0023691654
0.014812231
-0.011077166
-0.0039590597
0.0025383234
0.002691269
-0.0016813278
-0.0038164854
0.0067247152
-0.00031924248
0.003345251
-0.0030539036
0.0019016266
-0.0026284456
0.009312868
0.0019814968
0.02408421
0.018498778
0.006660223
0.01061976
-0.0001591444
0.0050308704
0.02543497
-8.022785e-05
0.0060129166
-0.0021845102
0.008593321
0.011393547
0.0026819706
0.0016827583
-0.0010938644
0.0041149855
0.0034956932
-0.00013637543
-0.0013562441
0.0008468628
0.012367964
0.0013221502
0.0004888773
0.0049455166
0.001972556
-0.0024892092
-0.0018851757
-0.00090897083
-0.0013861656
-0.00046014786
0.0042978525
0.0011795759
0.0016275644
0.0019794703
-0.0010808706
0.015991092
0.0066916943
0.002342105
0.002587676
-0.003494382
0.0034748316
0.003794074
-0.0018320084
0.00066268444
0.00028896332
-0.0031564236
0.005440116
0.00268507
0.0033259392
0.005013466
0.005555153
0.007856369
-0.0055748224
0.0103417635
0.012601376
0.0043646097
-0.00012493134
-0.0019620657
0.002130866
0.00065004826
0.002335906
0.025093436
-0.0032395124
-0.0009458065
0.0038288832
-0.010040045
-0.00023293495
0.0053249598
-0.00019788742
-0.0032513142
0.0051796436
0.009157538
0.006072521
0.0025801659
0.0052058697
0.0019003153
0.0020073652
-0.00057411194
0.0008598566
0.009093046
0.0050901175
0.0028916597
0.01133728
0.006788254
-0.00052309036
-0.0009096861
-0.0034805536
0.0030238628
0.0032186508
-0.0043153763
0.009734035
0.002662897
0.0022774935
0.003061533
-0.0010180473
0.0062019825
0.009925365
0.0010972023
0.011264205
-0.00048530102
0.0026385784
0.00023984909
0.0036988258
0.0054148436
0.0010895729
0.007574916
0.00058221817
0.008920193
0.0019363165
-0.005184412
0.004359603
0.0010662079
-0.00021278858
0.005535245
-0.0014950037
0.007827878
0.0060999393
0.008467317
-0.001064539
-0.0014888048
0.0040080547
0.007886052
0.0031300783
-0.00044858456
0.0023350716
0.004543543
0.0006607771
-0.003396511
0.0053002834
-0.0028612614
0.0011585951
0.010925174
0.013606906
9.2983246e-05
0.0011143684
0.0019170046
0.0062692165
0.0038793087
-0.0011039972
0.023218632
0.004603505
0.0025954247
0.0017735958
0.047463536
0.0005879402
-0.00036990643
0.00047957897
-0.00111413
0.0025434494
0.001680851
0.0073103905
0.0031533241
-0.0009137392
-0.0005463362
0.003169179
-0.0038467646
0.002274394
0.0057160854
0.0043281317
0.009309053
0.0021829605
0.0024437904
-0.00022029877
0.017124653
0.006167412
0.00021016598
0.002981186
0.003702283
0.013242483
0.0043780804
-0.0048455
0.004243493
0.005356908
0.006827593
0.00046730042
0.012902379
-0.0023635626
0.0050702095
0.0020992756
0.0042865276
0.0039196014
-0.002068758
0.0049768686
0.010486484
-0.0059036016
0.0073053837
0.0027778149
-0.0004917383
0.012481928
0.007245302
-0.00018239021
0.0066058636
-0.0008627176
0.0027852058
0.0026328564
-0.00063347816
-8.9764595e-05
0.009397864
0.0011103153
-0.0012007952
0.0076522827
0.00035893917
0.004047632
-0.0036857128
0.0065928698
0.0042341948
0.00282228
0.008769035
0.0035318136
0.0032867193
0.010332584
-0.0009123087
0.0061297417
0.0011520386
0.0097078085
0.0038505793
-0.0004453659
0.004706621
0.0069026947
0.021729708
0.0004348755
-0.00031781197
-0.0032342672
0.003717661
-0.0010229349
0.000813961
0.007802725
0.006767392
0.0037851334
0.0072243214
-0.002419114
0.0050172806
0.0073286295
0.0031793118
5.3286552e-05
0.00037407875
0.003029108
0.0029491186
0.0028128624
0.0043770075
0.002184391
0.00033438206
0.0082092285
0.008118272
0.0044124126
0.02320695
0.0046821833
0.001090169
0.0068745613
-0.0013777018
-0.0005518198
0.0002772808
0.0021333694
-0.00096964836
0.016862273
0.005091667
0.011420965
0.015301824
0.0037084818
0.0030932426
0.014710188
0.012271762
0.00017821789
0.0033437014
0.027492166
-0.00067460537
-0.00034105778
0.010269403
0.009388685
0.0011998415
0.0034675598
0.0027583838
-0.0022815466
0.0068968534
0.014707208
-0.0014570951
0.005936742
0.00015211105
-0.0076625347
0.00511086
-2.1338463e-05
0.0048208237
-0.0018259287
0.003550887
0.009203911
0.006928444
0.010662675
-0.0037665367
0.003837943
-0.0014103651
0.0032361746
-0.00032687187
-0.00020754337
-0.0029636621
-0.00039076805
0.009000421
0.010019779
5.00679e-06
-0.0008945465
0.011709571
0.012345552
0.004388809
-0.0010404587
-0.003078699
-0.00036931038
0.0059714317
0.0031502247
0.007614255
-0.0018260479
0.012374043
0.00080525875
0.0031548738
0.0008419752
0.0016133785
-0.0032680035
0.0140680075
0.00645411
0.0029608011
0.009884596
0.0042220354
-0.0018498898
-0.0010459423
-0.0012044907
0.004291892
-0.00054836273
0.004832983
0.0181247
0.0084809065
0.0038446188
0.005836487
0.009388089
0.0020182133
0.0030983686
-0.0009018183
0.005421877
-0.0016644001
0.0063307285
0.0059455633
0.015292883
0.008689523
0.0022679567
-0.0011849403
0.0014549494
-0.0022850037
0.003845811
0.007941246
-0.0005880594
0.0064333677
0.005849123
0.0020512342
0.00022518635
0.0029979944
0.0034322739
0.005779147
0.0019721985
0.004574895
0.005529523
0.004028082
0.0124953985
0.0016692877
0.000467062
0.001886487
-0.00063204765
0.010357618
0.0111711025
-0.0010926723
0.002211094
0.010656595
0.0013973713
0.0037275553
0.01685834
0.0027786493
0.00893569
0.004585862
0.0013632774
-0.00080263615
0.0022073984
-0.00055909157
-0.0016450882
0.001013279

0.3230574
0.33097208
0.26401198
0.23134148
0.32449937
0.24377394
0.26492012
0.32699847
0.38042486
0.2798437

