0.0033721924
0.04361391
-0.08754134
-0.051712632
0.06720173
0.090487
0.043956637
0.018752575
-0.035993576
0.09235394
-0.06679189
0.10429907
0.11306167
0.0023075342
0.057764888
0.025716305
-0.023498654
0.06242788
0.3368287
0.056989312
0.07029557
0.020358086
0.11649883
-0.0010919571
-0.011318326
0.17906082
-0.06271517
-0.007931948
0.3170805
-0.002999425
-0.00342381
-0.04774809
0.10163653
0.030757666
-0.08365238
0.053978443
-0.33593678
0.17462945
0.019283295
0.13059878
0.018215537
0.11881292
0.13385606
0.24871993
0.03644705
0.05046153
0.08976579
0.12349999
0.025159001
-0.03231466
0.067465186
-0.03006208
-0.0010962486
0.23823202
-0.15151215
0.09691656
0.05910659
0.1539284
0.008205056
0.045752168
-0.0043114424
0.08230603
0.048400044
0.056370735

0.010053754
-0.025167346
-0.013338327
0.007920504
0.026780367
0.075232744
0.1313343
0.0037528276
0.024371505
-0.027080417
0.030600786
0.18431771
-0.045350432
0.005682111
0.030933619
0.04432726
0.122656465
0.014963031
0.021152735
0.031133413
0.035106182
0.100171685
0.08516383
0.011377215
0.09547877
0.088817835
0.08885372
-0.04300368
0.22505307
-0.0013538599
0.123015404
0.04971695
0.06149447
0.08994794
0.09635401
0.028892756
0.045024753
-0.0027757883
-0.0654546
0.04303336
0.15187597
0.02159369
0.001757741
0.080584645
0.056827784
0.04049647
0.01851058
-0.037201524
0.12728775
0.27021694
0.044855833
0.0036256313
0.023170114
-0.0991174
0.05696869
-0.056613803
0.055157185
0.19912302
0.0039845705
0.14692223
-0.027487755
0.037326813
0.07851839
0.021837115

0.004791379
0.0424217
0.017477274
0.032203794
0.012337565
-0.03674972
0.019588828
0.05062878
0.07909775
0.012659907
0.017346859
0.01347816
0.001957655
0.022543788
0.051423192
0.012412906
0.024795413
0.0053317547
0.048831224
0.027165055
-0.029192448
-0.019108534
0.021961689
-0.0018250942
0.051136255
0.09447789
-0.023346901
0.047145247
-0.0014045238
0.07779586
-0.04975009
0.03210342
-0.03337431
0.010025382
0.013745904
0.029966116
0.019352317
0.068448305
-0.0076668262
0.015438676
0.031398177
0.005332589
0.077543974
0.04199803
0.045615315
0.000988841
0.006239414
0.0041627884
0.007409215
-0.0002541542
0.029292941
0.038089037
0.075425744
0.0026786327
-0.0009101629
0.08052802
0.045653343
0.02528143
0.033274174
0.035301805
0.09774768
-0.005688429
0.05881059
0.037594795
0.016699314
0.0054439306
0.013314962
0.0415287
0.00063562393
0.008035779
-0.0058344603
0.053070188
0.007820725
0.0147717
0.03781891
-0.0020024776
0.021054745
0.061106086
-0.013611913
-0.01025629
0.025535345
0.013887405
0.017068982
0.034392238
0.028419971
0.0005527735
0.010941386
0.013873816
0.009940386
-0.009429336
0.026708126
0.010915518
0.0014002323
0.047110796
-0.031751275
0.017810822
0.058746934
0.035021186
0.058909893
0.018628359
0.025639772
0.061950445
0.04523492
0.05303192
0.044767022
-0.030509353
-0.043147206
0.04519105
-0.0014168024
0.11188948
0.015131593
0.009846449
-0.023576975
-0.021819592
0.03752005
0.017522454
0.015380263
0.064623475
0.020247102
0.029739141
-0.008252621
0.053199768
0.0624907
0.020589113
0.08622277
0.0037407875
0.028023839
0.00021576881

-0.021186471
0.080961704
-5.9723854e-05
0.06152904
0.02870214
-0.036019325
0.010744691
0.065102935
0.0014359951
0.055810213
0.045440435
0.0058704615
0.019423604
0.02409041
-0.0020252466
0.017181873
0.039181948
0.02363801
0.026465535
0.07124829
0.0030004978
0.035393834
0.018538475
0.046826124
0.04298532
-0.019179821
0.05352831
0.023288727
-0.0044995546
0.032630324
0.022392511
0.06585908
0.0017802715
-0.0121665
0.009531736
0.055747867
0.03277266
0.01193893
0.046676755
0.07466996
0.008686185
0.03778732
-0.017447114
0.02861619
-0.014836788
0.013504863
0.0073934793
0.027500033
0.010843396
-0.0013098717
0.026928663
0.022607923
0.011079073
-0.0050581694
0.014772415
0.024275541
3.0040741e-05
0.08454776
0.067457676
0.014781952
-0.010543585
-0.004442215
0.015746236
0.076180935
0.059774518
0.005808711
0.017584085
0.007135749
0.038445115
0.040309787
-0.0015459061
0.032960415
0.015578747
0.04924798
-0.0045211315
0.0053212643
0.030586243
0.010239363
0.008235693
0.012039423
0.0054705143
0.031054616
0.01268971
0.024549484
0.027571559
0.014071465
0.04934001
0.07448971
0.0008788109
0.011643171
0.025868297
0.0062856674
0.00961411
0.019959927
0.055763245
0.00085246563
0.022665143
0.010040283
0.029014349
0.0599041
0.04256618
-0.005224824
0.0014140606
0.030111074
0.065110445
0.010132194
0.035565734
-0.01495266
0.030566454
-0.033980846
0.013518691
0.042768955
0.088300705
0.0009971857
0.08357906
0.0062949657
0.034103155
0.014101267
0.013025284
0.0085321665
0.0031172037
0.015542269
0.0016852617
0.040408492
0.006253481
0.010640383
0.022732615
0.04202819

0.017512918
0.0027720928
0.0016703606
0.0031745434
0.040772796
0.011266947
0.034675717
0.019932032
0.018879771
-0.0059416294
0.02432084
0.014006853
0.029940367
0.0023163557
0.0123125315
0.005042553
0.012517691
0.006384492
0.012613654
0.0018979311
0.0027441978
0.027092695
0.0074779987
0.008301854
0.021077514
0.02385199
0.014914155
-0.00024700165
0.051679373
-0.0022896528
-0.0005130768
0.01341784
0.01519382
0.007663846
0.010856509
0.018595338
0.0064356327
0.010220885
-0.00045263767
0.00884378
0.01157403
0.017472148
0.0142428875
0.013121963
0.0182302
0.04070127
0.01667738
-0.0039844513
0.004135728
0.034371376
0.038374543
0.014816284
-0.0023821592
0.0005196333
0.018385887
0.010774374
0.020173788
0.01375401
0.032788873
-0.00396204
0.028044939
0.0012122393
-0.0010360479
0.025709152
-0.007267952
0.01624
0.002384901
-0.011555672
0.008015633
0.017255664
-0.01156795
0.040729523
0.033834577
-0.01838708
0.010736942
0.03516376
0.010929108
0.0027183294
0.0025137663
0.012692809
-0.005164981
0.0059856176
0.009773254
0.034699082
-0.0044116974
0.021190643
-0.0054814816
0.009724736
0.023075461
-0.023184538
0.0021030903
-0.03565693
0.022282004
0.023597479
0.007908821
-0.0070717335
-0.008113503
-0.00276649
-0.0010402203
0.044054747
-0.0033928156
0.01374197
0.00026929379
-0.020205736
-0.008476853
0.00084221363
0.016696215
0.028226972
0.036674023
0.008360982
0.02081883
0.03208077
0.0005161762
0.0021781921
0.011345863
0.001531601
0.018189073
-0.0018119812
0.022132754
0.016185641
0.007386565
0.012047887
0.00063431263
0.001565218
0.029422998
0.054872513
0.003371954
0.002336502
0.025229692
-0.002627015
0.0249933
0.015402675
0.01802361
-0.0049940348
-0.0020546913
-0.0016299486
0.00863111
0.021684408
0.014415383
0.0011577606
0.012338996
0.010704994
0.020855665
-0.0004415512
0.028244972
0.04663372
0.006564498
0.011301398
0.005781889
0.0040568113
0.0027506351
0.03903818
0.012686491
0.015287399
0.011268258
0.0036519766
-0.03363669
-0.0018470287
0.017480612
0.03839183
0.000554204
0.005864501
4.053116e-06
0.012142062
0.03211677
0.025321007
-0.0020811558
0.017533183
-0.0011469126
0.016520023
0.006775975
0.024210691
-0.01288414
0.02265048
0.0007544756
0.0044891834
0.029013634
0.03741002
0.014953375
0.028624058
0.010584831
-0.0012227297
0.061068416
-0.0071132183
0.019698739
0.013327122
0.025441766
0.015972257
0.024626017
0.0036278963
0.010876894
0.027166486
0.028888106
-0.0007200241
-0.015760303
0.030430794
0.011485934
0.0036523342
0.033491254
0.015042543
-0.018970251
0.00913167
0.01928091
0.0017721653
-0.0043839216
0.0044691563
0.013046384
-0.0010509491
-0.0035951138
0.0061466694
0.030537128
-0.0005209446
0.044745088
0.013848901
0.015189767
0.011736751
0.0059262514
0.0068854094
0.020383716
0.021773815
0.036144137
0.0027288198
-0.011190772
0.009416461
0.0057275295
0.016963482
0.02411139
-0.017420769
-0.013753772
-0.01665628
0.016386628
0.004236102
0.008855224
0.0327183
0.003566265
-0.0073667765
-0.00066792965
0.025969386
-0.00063335896
0.0027171373
0.016837835
0.020198584
0.00383842
0.0046482086
-0.0068501234
0.02023077
0.018671513
0.030650377
-0.0081954
0.052610874
0.009483695
0.023331046
0.001978159
-0.0031979084
0.009008408
0.017134428

0.0026786327
0.02904284
-0.0014681816
0.040585995
0.011814356
0.0288769
-0.0031763315
-0.0037288666
0.018768549
0.010915399
0.038946867
0.0046560764
0.021612525
0.043507576
0.015564799
-0.008531928
0.019399762
0.00835681
0.0010498762
-0.014150023
-0.05393374
0.014232755
0.013410449
-0.0026078224
0.0018056631
0.0010280609
0.014934301
-0.004211068
0.0070078373
0.0155591965
0.020689607
-0.011106968
0.00066435337
-0.001742363
0.010694385
0.01856184
0.011288881
0.030505538
-0.002594471
-0.0012847185
0.031146526
0.028601766
-0.00045239925
0.038546205
0.026633859
-0.0015599728
0.01627636
0.019377112
0.043493032
0.067206144
-0.009774685
0.014638543
-0.009404182
0.013159275
0.01130259
0.0018879175
0.0075728893
0.01462388
0.037531137
-0.011172414
0.007475853
0.005036831
0.0057252645
0.017330289
-0.00030469894
0.019792914
0.012748003
0.00026917458
0.026793957
-0.00078880787
0.027825952
0.0059235096
0.011984587
0.009162545
0.020890474
0.013990521
0.007202506
0.0128029585
-0.013313055
0.028823376
0.0003771782
-0.0007388592
0.008231521
-0.0033693314
0.034420848
0.024626017
-0.011210799
-0.016104817
0.01910472
0.012313962
0.005775094
-0.005953312
0.02169609
-0.004271865
0.015940547
0.013423562
0.0013124943
-0.0026607513
0.015707374
0.002866149
0.023768306
0.0034959316
0.034949422
-0.019491673
0.019489527
0.011072159
-0.0028680563
-0.0011770725
0.0077455044
0.0059159994
0.063225985
-0.0029095411
0.019124866
0.01556468
-0.01650381
-0.0019711256
0.01847589
0.0012154579
-0.0033683777
0.022447944
0.007178545
0.029037833
-0.00038146973
0.030280232
0.0139757395
0.023754
0.0027679205
0.033967733
-0.029433846
0.0030578375
0.026412487
0.0071793795
-0.02273643
-0.0039521456
0.022744536
0.025438666
0.01606834
0.015150428
-0.011330247
0.021204114
0.035573006
0.013279676
0.015631676
0.0070688725
0.0070519447
0.0088841915
0.0046083927
0.016757727
0.03772831
0.0027645826
0.014616728
0.018367648
0.04029894
0.004919648
0.014350414
0.008136988
0.029269338
0.029506922
0.009769917
0.0036125183
0.0075167418
-0.007839203
0.007509589
0.021673322
-0.022811532
0.07553911
0.022726893
-0.01622355
-0.010226607
0.023084521
0.03818655
0.010766983
-0.003924012
0.0006366968
0.03809297
-0.00010049343
0.04606366
-0.0017354488
0.017430902
0.0011467934
0.031553626
0.031881213
0.020671487
7.092953e-05
0.01764226
-0.0097100735
0.0037519932
-0.007091999
-0.0031847954
0.024827361
0.018105388
-0.02046585
-0.004808545
0.013636947
0.020840764
0.0224576
0.020742655
0.0046368837
0.007179022
0.049070716
-0.00022947788
-0.001766324
0.009535193
0.025056839
0.0049734116
0.0007555485
0.03802991
0.018013835
-0.0044568777
0.024736285
0.00042665005
-0.00013267994
0.005279064
0.00055491924
0.023029804
0.026159644
-0.0013926029
0.029732347
0.0062075853
0.00630033
0.021747828
0.02505219
0.020941615
-0.008880854
-0.0015954971
-0.009996533
0.04222417
0.0032578707
0.016171217
0.018279314
0.017674685
0.0016394854
0.015393615
0.0024888515
0.032428503
0.00446105
0.03147888
0.026057959
0.013955951
-0.0011048317
0.032128215
0.0009226799
0.054103255
0.01903522
0.025729895
0.020382047
-0.0035983324
0.00072324276
0.0022603273
0.008691788
0.0054837465
-0.008992314
0.010574937
0.005225897
0.0027515888
-0.001725316

0.0044150352
0.02017355
0.008305192
0.017051816
0.012660265
0.02581048
0.0240767
0.023568153
0.0181669
0.026005268
0.01438725
0.0012532473
0.02559352
-0.0074516535
0.0461061
0.02559185
0.020813346
-0.010998607
0.009100556
-0.010477304
-0.0098029375
0.033772945
-0.010776877
-0.00754261
-0.0054723024
0.0091638565
0.035067677
-0.0025552511
0.021366835
0.012563825
-0.000910759
0.026013851
-0.0033785105
0.002937317
0.011093497
0.061859965
0.040890336
-0.0043418407
-0.006532073
0.031794667
0.028654695
0.027500153
0.020572186
0.022108078
0.027278423
-0.00468874
-0.011439204
-0.0050811768
0.0017198324
0.020999312
0.01165092
0.009892583
0.015455842
-0.0015798807
0.00039863586
0.0029946566
0.023305655
0.0248065
-0.008819699
-0.0012103319
0.0056415796
0.0015069246
0.0073798895
0.009677649
0.031612992
0.06063509
0.042607665
0.043552518
0.00061404705
0.010097146
-0.020696402
-0.0062539577
-0.0066252947
0.031483054
-0.0105262995
0.038217306
0.013769507
-0.0046908855
0.0006887913
0.0026744604
0.017528772
0.041579247
0.015175343
0.028973222
0.019711018
0.014757514
-0.010234475
0.006200075
0.017635822
-0.012157798
0.010680795
0.01872778
0.040922523
0.029811382
-0.0075541735
0.013422847
0.0092635155
-0.0070408583
0.005240798
-0.0080913305
-0.009227753
0.023531675
0.013059139
0.032675505
0.03205526
-0.013504028
-0.0064213276
0.038314104
0.03698623
0.0053468943
0.01754415
0.0026162863
0.01128149
0.021126032
0.000723958
0.052767992
-0.0059832335
0.02443111
0.0407511
-0.0007059574
0.0341053
-0.014948249
-0.002760172
0.014162183
0.033304095
-0.0061962605
-0.0013769865
0.03291595
0.019221067
-0.005580783
0.010101557
0.025017142
0.020308733
-0.0048497915
-0.007347703
-0.0031768084
-0.008193731
0.037244916
0.009112716
0.03025651
-0.029310107
0.02698636
0.0004376173
0.07782996
-0.0047416687
0.037249446
0.017224312
0.0027586222
0.021834135
-0.0004490614
0.008540988
0.0006572008
0.051431537
-0.005249858
0.00658381
-0.005547762
0.0007238388
-0.012525797
-0.010939598
0.010921717
0.031599402
0.0026426315
0.026319861
0.008421063
0.014184475
0.033884406
0.0077164173
0.028816938
0.004225135
0.019928575
0.0012201071
0.014714122
0.048866034
0.002171874
-0.006660819
0.00043654442
-0.015744328
-0.012454271
0.0053277016
0.010047913
0.021523476
0.032981873
-0.021741748
0.0031151772
-0.0149229765
0.0123877525
0.004383445
-0.00821054
0.025458455
-0.0029212236
0.026354909
0.0133116245
0.025920153
0.0016645193
0.04171443
-0.005795002
0.04916942
-0.0004864931
0.072681785
0.022807002
-0.006205678
-0.004302144
0.009092212
0.022839308
0.00197649
0.030670285
0.0005584955
-0.007033944
-0.01947546
0.02163899
0.019437194
0.024150848
0.018875837
0.012334704
-0.013427854
0.03158343
0.0021631718
0.01117599
0.0069613457
0.08308244
0.0027829409
0.041570306
-0.0072957277
-0.016464472
-0.0354774
0.020051122
0.029158592
0.028332233
-0.0046958923
0.006296873
-0.002871871
0.040420175
0.020038009
0.0006881952
-0.0028384924
0.021583438
0.0016057491
-0.01536119
0.0041849613
0.0016963482
-0.01321733
-0.03649938
0.01952231
-0.0001219511
0.012412429
-0.01630652
7.581711e-05
-0.0022306442
0.019002795
0.00046813488
0.034454823
0.028478026
-0.0069162846
-0.007850766
0.001781702
0.019883394

0.006042242
0.013592362
0.022880793
0.0067873
-8.428097e-05
0.011210084
0.006423831
0.0049898624
0.008730531
0.0038220882
0.0041490793
0.0063456297
0.018808246
0.015068173
0.0022399426
0.0039799213
0.01628244
0.00015830994
-0.013300896
0.004137635
0.012034416
0.015651584
0.00062966347
0.007254243
0.004966855
-0.004627943
0.0013380051
0.007102847
-0.006034851
-0.0016149282
0.024288774
-0.0039423704
-0.0076731443
0.012060523
0.00743258
0.016587734
0.0070990324
0.01788795
0.007578969
0.008485913
-0.0002142191
-0.009586573
0.0045917034
-0.009190798
0.0073173046
-0.006717682
0.0027555227
0.016252875
0.0035219193
0.005495906
-0.008276224
0.009609103
-0.0052666664
0.004565358
0.011091709
0.012537956
0.01330173
-0.0015661716
-0.0035332441
0.033449054
0.0053123236
0.0023607016
0.020545006
0.015683413
0.015355468
0.026625037
0.015863419
0.008523703
0.0056803226
-0.005540371
-0.0065755844
0.011678696
0.013753891
0.020977259
0.0119975805
0.0009394884
-0.0022414923
0.013919234
0.0093592405
0.0042415857
0.002445817
-0.008348465
0.021759033
0.008620858
0.043448806
0.013066769
0.000828743
-0.0025334358
0.010221362
0.015416861
0.013429642
0.0057142973
-0.005954981
0.0110548735
0.007145524
0.015278101
0.016269207
0.019116879
0.007820606
0.00824964
0.010470748
0.0027834177
0.008330941
0.0068638325
0.014385223
-0.017888308
-0.0014135838
-0.0026288033
0.008984327
0.013925314
0.009949088
0.028398156
0.024980664
0.009231687
0.009381533
0.0027644634
0.019071937
0.01164639
-0.0022240877
0.01075685
-0.01028645
0.005538583
0.01013422
0.0071944
0.005045414
0.0070261955
0.00991714
0.0014584064
0.015996456
0.024785876
0.008647323
0.018205643
-0.0013281107
0.008075595
0.016939044
-0.01025629
0.0020992756
-0.001425147
-0.013718247
0.00036418438
0.013449907
0.001647234
0.0001784563
0.015128255
0.0027098656
-0.007566929
0.028339982
0.007825136
0.0055482388
0.028597951
0.008572817
0.017965794
0.0078526735
0.009987354
0.0055485964
0.0062783957
0.018576026
0.0060628653
-0.008868933
0.017021537
0.00094401836
0.008850098
0.006216049
0.0037753582
-0.006769657
-0.0011277199
-0.0062009096
0.0016194582
-0.0035334826
0.0010471344
0.0055173635
0.023246527
0.0056090355
0.0067750216
0.0025533438
0.0030708313
0.0063837767
0.011993647
0.006922841
0.00073719025
0.004393697
0.013574481
0.0131042
0.0005598068
0.002005577
0.005942464
0.030395746
0.01636529
0.002265811
0.00019073486
0.0054727793
-0.0028352737
0.011426806
-0.0058791637
0.023640037
0.018304348
0.0040438175
0.0049706697
-0.010209084
0.014329314
-0.0011150837
0.0062947273
0.016862154
0.01882124
0.01966393
-0.007762313
0.010026932
0.0012300014
0.002162695
-0.0037668943
-0.0033826828
0.009759665
-0.0031015873
0.006795287
0.0054329634
-0.008727312
8.881092e-05
0.0054041147
0.010742426
0.010725856
-0.020059586
-0.036673784
-0.0002797842
-0.008626223
0.014082909
-0.0011297464
-0.000254035
-0.015361667
-0.02715969
0.025414348
0.0272758
0.0006725788
0.011664152
0.0024596453
-0.002846837
0.010902047
0.024493456
0.005825281
-0.00045108795
-0.0025720596
0.0122561455
-0.0005283356
0.020410895
0.013555646
0.0011193752
0.012839913
0.0059957504
0.0026676655
0.0036467314
0.006444812
0.008763909
-0.0077358484
-0.007926106
0.002081871
0.014188409
0.0077826977
0.014196396
0.0042147636
-0.00042402744
-0.0019959211
0.005129695
0.009392381
0.004388809
-0.0075825453
0.006313443
0.0010135174
-0.0018335581
0.0054825544
0.015972733
0.028690815
0.015595198
0.0027729273
0.0014556646
0.01625359
0.004267812
0.0049254894
0.015792608
0.0023998022
-0.009604096
0.0051647425
0.014986396
0.018831372
0.0015387535
0.003318429
0.0119102
0.025329947
0.0063894987
0.0017676353
0.004919529
0.016958237
-0.002038598
0.006394148
0.0060231686
-1.5377998e-05
0.0030471087
-0.01096797
0.017646909
-0.01914668
0.008329034
-0.0005068779
0.004614711
0.007858396
-0.011073828
-0.014944434
0.021679282
-0.00076055527
-0.006308675
0.023266792
0.004989147
0.012303948
0.014512658
-0.0027035475
0.032497764
0.0037859678
-0.003540039
0.017501354
0.0016314983
0.011340141
0.0039982796
0.0069789886
-0.0019875765
0.01897049
0.010387659
0.0032840967
0.0036844015
0.0030872822
0.0030056238
-0.007943869
0.00057017803
0.008737206
-0.0153160095
0.014160514
0.011517048
0.017086625
0.01659739
0.016367793
0.008577585
0.004252672
0.021375537
0.0192703
0.00029039383
0.022358656
0.028646111
-0.0046602488
0.00982213
0.00055253506
0.0029406548
0.00660038
0.0029262304
-0.0005275011
0.00025594234
0.02074325
0.0020500422
0.006066799
0.0038188696
0.00051033497
-0.002913475
-0.0071680546
0.0126520395
-0.004927993
-0.0028882027
0.0049301386
0.00694561
-0.010029197
-0.0011048317
-0.003219843
-0.0046532154
0.0013808012
-0.008832812
-0.009226561
0.0015237331
0.014814973
0.006689787
0.0049692392
0.0050053596
0.006474018
0.0028594732
0.010423064
0.0046594143
0.0106316805
0.0115094185
0.0139017105
0.01859343
-0.0037968159
0.010937452
-0.0020240545
0.024017096
0.0044841766
0.01804626
0.004156947
0.007737875
0.005653143
0.0030066967
0.00060224533
-0.0025744438
0.01644969
0.0008392334
-0.0029190779
-0.007202506
-0.007808447
0.010029197
0.0016703606
0.006937623
0.0037112236
0.005510688
0.022725701
0.010841012
0.02279067
0.011199117
0.0218817
0.0014925003
0.0010632277
0.010676384
0.014165878
0.012533307
0.012609243
-0.008874178
0.018871665
0.0027464628
0.014395952
0.001332283
0.0008249283
0.011396289
-0.0012720823
-0.0033339262
-0.004745245
0.010001779
0.0045781136
0.010711908
0.0034787655
-0.00039744377
-0.00058436394
0.0011196136
0.003321886
-0.0014872551
0.011752605
0.0074059963
0.014401078
0.026712298
0.01041162
0.010675669
-0.0019433498
0.0062065125
0.009015322
0.0122612715
0.004320979
-0.015930891
0.002562642
-0.0050184727
0.022098899
0.0029057264
0.005612254
-0.0035073757
-0.0057622194
-0.00070393085
-0.01590085
0.014355779
-0.0029342175
0.014156818
0.0029855967
-0.001413703
-0.007510662
0.0039447546
-0.0005297661
0.0109962225
-0.007142067
0.0015201569
-0.0027377605
0.0038781166
0.031980276
-0.0008062124
0.021486163
0.0063285828
0.003921032
0.002547741
-0.011551261
-0.0035042763
0.011302829
0.0075519085
-0.001193881
0.013060927
0.02109623
-0.00046491623
0.0044544935
0.0041986704
-0.015909672
-0.004205942
6.4611435e-05
0.005625248
0.015985131
-0.010080934
-0.003969431
0.0014718771
0.0052314997
-0.0078018904
0.0021494627
0.0048561096
0.005903363
0.0031454563
0.0029643774
-0.016590238
-0.0059589148
-0.0038955212
0.004228592
0.017184973
-0.03171444
0.006144166
0.0054069757
0.0075422525
0.0075962543
0.0153797865
-0.0050959587

0.006721735
-0.0027580261
0.0024356842
0.00029361248
0.00041759014
0.0013896227
0.0062958
0.0046174526
0.00627017
0.007399559
0.0056556463
-0.0024245977
0.0007773638
-0.00024008751
0.014671445
0.013614655
0.02604878
-0.005934477
0.014310122
0.019233227
0.008709192
0.0016726255
0.0005071163
0.0054564476
0.021664858
0.0031106472
-0.0010253191
0.0057222843
0.009788275
0.0098416805
0.0053259134
0.0027133226
0.01106143
0.011456251
0.019661784
0.0057133436
0.0031249523
0.0047712326
0.023447275
0.008381367
0.0037989616
0.0025888681
0.008240461
-0.0028657913
0.009005547
0.013756871
-0.0023200512
-0.009510398
0.0070010424
0.00094401836
-0.000369668
0.007893801
0.00033855438
0.005132556
0.014919877
0.006600499
0.012466311
-0.0024658442
-0.00081825256
0.00076937675
0.0020922422
-0.00531888
0.016407132
-0.00069248676
0.009298205
0.0069378614
-0.012085557
0.006574154
-0.0035976171
-0.0108424425
0.015835047
0.0020352602
-0.006333828
0.00021672249
0.006942868
-0.007716298
-0.00888288
0.008464336
0.010802388
0.0027285814
-0.0076001883
-0.0023891926
0.008054256
0.0076190233
0.0036890507
-0.004583955
0.0033996105
-0.010917306
0.0017963648
0.0025757551
-0.0032080412
0.014713526
0.002942443
-0.0045439005
0.0014163256
-0.0025091171
-4.9829483e-05
0.005289674
0.0062822104
-0.0009611845
0.011670709
0.008166909
0.0074039698
0.012154222
0.008329511
0.00019621849
0.006363988
-0.0033951998
0.008200645
0.015022397
-0.001193881
0.01768136
0.014749765
0.0034202337
0.0049136877
0.012800217
0.011788845
0.0011847019
0.0069833994
8.416176e-05
0.0013234615
0.0042836666
0.010362744
0.0004878044
0.010509968
0.016281962
0.010302901
0.010129213
0.0136265755
0.016373396
0.005435705
0.0033591986
0.02009964
0.022681832
-0.006301403
0.0043559074
-0.002376318
0.0005812645
0.0018675327
0.0011476278
-0.0012408495
0.003649354
0.005779147
0.010909557
-0.0088166
0.017752409
-0.0017184019
0.002555132
0.019821644
0.00863266
0.014547586
0.009004593
0.028645396
0.017716527
0.011045575
0.018666625
0.0012406111
0.013473272
-0.005443096
-0.0029975176
0.021015286
-0.0024348497
0.0008199215
0.006168008
-0.0017544031
-0.0093922615
-0.00061643124
0.004963517
0.004376292
0.006458521
0.016216278
0.0013982058
0.014302731
0.0024257898
0.022068858
0.006923437
-0.005322933
7.6532364e-05
0.0016452074
-0.01730144
0.001365304
0.01271832
0.009656191
0.014294505
0.0032173395
-0.002619505
0.00087583065
0.021183252
0.0109785795
0.0018168688
0.027801871
0.004454851
0.0037680864
-0.010581851
0.017158985
-0.012664795
0.000744462
0.015139461
0.012643576
-0.000118494034
0.019309402
-0.017944813
0.006205082
0.0020884275
0.023396015
-0.0014243126
-0.0017219782
0.016755223
0.0043592453
-0.009271979
0.00043332577
-0.0018395185
-0.0027382374
0.01614511
0.012871146
0.0011985302
0.009746075
0.024203897
0.002460003
0.007858872
0.011557698
4.029274e-05
0.013591766
0.008778691
0.013722062
0.00077581406
-0.001352787
0.0042573214
0.006457925
0.004508376
-0.005931258
0.0035375357
-0.0008406639
0.006956339
0.0074390173
-0.0044867992
-0.0041782856
0.0040602684
0.016460896
-0.00310421
0.014540195
0.0017989874
0.031000733
0.0015426874
-0.0016561747
0.008208871
0.010093689
0.007987022
0.018684506
0.016234398
-0.0010560751
0.009788752
0.011514068
-0.004965186
0.022380471
-0.0012112856
0.0011470318
0.016031027
0.0045086145
0.016092062
0.0016696453
-0.011099815
0.005758524
0.010893941
0.007591605
-0.012390614
0.019584179
0.0015784502
-3.71933e-05
0.014576554
0.000374794
0.02606988
-0.0013951063
0.0032141209
0.0084472895
0.010975599
-0.0031110048
-0.0038946867
-0.0021252632
0.004892707
0.0006685257
0.006629944
0.010639191
0.00863421
0.012801528
0.004697919
0.0060465336
0.0019856691
0.0076413155
-0.0024518967
0.0063490868
0.0039436817
0.012878537
-0.00019466877
-0.00023245811
0.0042909384
-5.9604645e-05
0.013324499
-0.00096714497
-0.0009057522
-0.0085361
0.021985292
0.019072294
-0.0007741451
0.01048398
-0.005689621
-0.0004504919
0.00061261654
-0.0044454336
0.012157917
-0.0045523643
0.005717516
0.022866726
-0.007663965
0.0037312508
0.0012789965
0.009982109
0.0033388138
0.0009095669
0.017000675
0.008098602
0.007052064
0.019678116
0.0007662773
0.02091062
-0.002399683
-0.003908992
0.02103126
0.009587407
0.0029252768
0.012236834
0.005952239
-0.0006033182
0.004003763
-0.008527279
-5.197525e-05
-0.003026247
0.016957402
0.0066854954
0.0041675568
0.0135988
0.0013331175
0.009791374
0.0026304722
0.004618883
0.00050807
0.008532286
0.025301337
0.009364247
0.010827184
0.00286901
0.011125088
0.008410811
0.014493465
0.0049928427
0.014716625
-0.0017118454
-0.0042926073
-0.00028014183
0.008164525
-0.00015306473
0.014395952
0.0038275719
0.0009781122
0.0064401627
0.01171422
0.0044151545
0.010516882
0.01587534
-0.0094053745
-0.002024889
0.0017790794
-0.0036460161
0.01868689
-0.0040165186
0.016579747
0.002009511
0.0026483536
0.0070023537
9.3340874e-05
0.00018954277
-0.003701806
0.015729666
0.007183671
-0.009649992
-0.0018407106
0.0070804358
0.020007372
0.0077545643
0.0041600466
0.011995792
0.0002478361
0.019402027
-0.0014802217
-0.0044567585
0.017080188
-0.0019034147
0.0057678223
0.00630939
0.01156795
0.01815784
0.019872546
-0.0048593283
0.0068222284
0.0057495832
0.013692021
0.01008904
0.01533103
-0.0029944181
0.0047079325
-3.71933e-05
0.008129954
0.0112121105
0.0025464296
0.009344101
-0.0021189451
0.004308462
0.026955605
-0.0013740063
-0.0032595396
0.0016452074
0.022014499
0.0025639534
0.017940402
-0.002474308
0.0013303757
0.00010097027
0.012458563
-0.0009968281
0.028850198
0.013473153
-0.0031095743
0.0032821894
0.014865756
-0.0050001144
-0.007121563
0.003575325
0.0037914515
0.002691865
-0.0065671206
0.01405859
0.018566012
0.010714769
0.01384151
0.015622735
0.0056676865
0.015246034
0.0054683685
0.0044875145
-0.005747199
0.0097362995
0.00064730644
-0.0031609535
-0.0019103289
0.011448741
0.0030788183
0.02200818
0.03964603
0.0016998053
-0.0029888153
-0.0050188303
0.01471436
0.0006568432
0.02987814
0.00063467026
0.004250407
0.011343002
-0.0045871735
0.0009545088
-0.0033490658
0.013250351
0.001606822
0.00733459
0.009616017
-0.0050148964
0.015643835
0.000295043
0.0008035898
0.023406744
-0.012399435
0.01989603
0.010832548
0.0127927065
0.0036796331
0.01896751
-0.00096714497
0.0031758547
0.011670113
0.0040388107
0.0026880503
0.008844018
0.016258597
-6.556511e-05
-0.0070189238
0.0020850897
-0.0024706125
0.008472085
0.017876744
-0.0026735067
0.0041798353
0.0071219206
0.0049778223
0.0016359091
-0.007275462
0.0067931414
-0.012805581
0.0077848434
0.0036507845
0.011052728
0.006202936
0.01663065
-0.005179405

0.008216739
0.0049232244
0.026457667
0.021169662
0.0044870377
0.0013874769
0.0014836788
0.0012128353
0.0041668415
0.002769351
0.00023436546
0.03530538
0.016820312
0.0063934326
-0.019555926
0.015154004
0.0056909323
0.009062052
-0.002810359
0.011864185
0.0030326843
0.007043004
0.015770316
0.0007202625
-0.00080037117
0.01146996
0.021152139
0.016620278
0.016075015
0.008724451
-0.006993413
0.0020166636
0.017545938
0.030485034
0.012155056
0.0059046745
0.008305907
-0.0020873547
-0.0008583069
0.0022975206
0.011629581
-0.0042386055
0.01135993
0.003755331
-0.012089491
0.013173342
0.0068246126
0.025654316
0.009504914
0.015753388
0.0061326027
-0.011720896
0.011666894
-0.0019482374
0.01986456
0.0041605234
0.0044904947
0.0046919584
0.0117839575
-0.0009319782
0.00667274
0.0132472515
0.0032413006
-0.00039350986
0.004114151
0.01164639
-0.010807037
0.0024682283
-0.0011131763
0.014546156
0.0034401417
0.0013110638
-0.004822731
0.008001566
0.0046930313
0.0025601387
0.007904768
0.016812086
0.015022278
0.015543699
0.0011043549
0.0034695864
0.0016804934
0.009003162
0.002867937
0.002646923
0.0037442446
0.0042704344
0.009684324
0.0018640757
0.018728733
0.0024547577
0.0045610666
0.009467721
0.007843375
0.03183627
0.0038977861
0.0003759861
0.0053013563
-7.748604e-06
0.0029549599
0.005295396
-0.007841587
0.008777142
0.0046174526
0.0037455559
0.0025908947
0.0023940802
0.002346754
0.007401824
0.0016770363
0.0010954142
0.0015281439
0.0053840876
0.0009576082
-0.00036239624
0.0025138855
0.0033814907
0.03565824
0.008672237
0.00043034554
0.007342577
0.0018987656
0.012456179
-0.009412885
-0.008940458
0.0035802126
-0.0032322407
0.015390754
0.0048145056
0.0050262213
0.0138270855
-0.008398175
0.0043570995
0.018441081
0.008561373
0.00856185
0.0008802414
-0.0016708374
0.0028281212
0.005110383
-0.00471437
0.003312111
0.004869461
-0.00070631504
-0.001475215
0.00689888
0.0013418198
0.008545637
0.014700651
-0.0012098551
-0.0025029182
0.002282381
0.0015425682
-0.00038456917
-0.0016429424
0.0016895533
0.00038659573
0.012020826
0.0044425726
-0.003312707
0.0037271976
-0.0030095577
0.020946622
0.0028909445
0.014390111
0.008117795
-0.00018262863
-0.002163887
0.0047118664
-0.0021589994
0.0032913685
0.002832532
0.010758638
0.0013211966
0.0028116703
0.0019659996
0.0047773123
0.0032479763
0.00034058094
-0.011108518
0.0032701492
0.01267302
0.0041419268
0.008577228
0.0005413294
0.0024991035
0.004119158
0.0062766075
0.00013148785
0.007193804
0.006578326
0.007208228
0.014241934
0.006426692
0.014981389
-0.000108003616
0.0039167404
0.006709814
0.013810992
0.005473256
0.0028705597
0.0013642311
-0.002728939
0.0011329651
0.0037437677
0.0057270527
-0.0042067766
0.025259376
0.011851907
0.0052802563
0.0057510138
0.005300164
0.0013984442
0.007666707
0.004545927
-0.00038802624
0.0201329
0.0024254322
0.0058825016
-0.00041353703
0.0083402395
0.005234599
0.000502944
0.015026808
0.003008008
-0.009366989
0.0056159496
1.1920929e-05
0.006416559
0.0008202791
-0.0064139366
0.0028239489
-0.006750703
-0.0050284863
0.0015364885
0.031069398
0.008751512
-0.0003657341
0.0007491112
0.0005553961
0.0011636019
0.003529191
0.000238657
0.0003553629
0.0021800995
0.0026038885
0.0012251139
-0.0044310093
0.00821352
0.030474901
0.0011026859
0.0014460087
0.011285305
0.012222171
-0.0016601086
0.013571858
0.002382636
0.0031785965
0.009614706
0.0047289133
0.010751486
-0.01258111
0.00535357
0.009247184
0.016961098
-0.0013940334
-0.0018321276
-0.00033783913
0.005026102
0.012439609
0.0012438297
0.008379102
0.008375168
0.004616499
0.0062811375
0.009096742
0.0065431595
0.0049358606
0.013328433
0.0029530525
0.0017774105
0.012739301
0.0018242598
0.0026849508
0.00011408329
-0.0015149117
0.0012085438
0.0059467554
0.008734584
-0.00063061714
0.008568168
0.004858613
0.0015926361
-9.059906e-05
-0.0033495426
0.0341295
-0.00089657307
0.0053856373
-0.003642559
-0.001432538
0.012372613
0.009077072
0.012103081
0.004965782
-0.0016208887
0.007228136
0.00421834
0.006167531
0.00093209743
-0.0054290295
0.021110654
0.013090849
0.0133577585
-0.0017075539
0.0066177845
0.009441614
0.00035095215
0.009623647
-0.006435752
0.004865885
0.00028800964
0.0053651333
0.0038359165
0.01625073
-0.00013494492
0.006222725
0.0015695095
0.002875805
0.009699702
0.0038951635
0.001491189
0.021306634
0.0012362003
0.00036668777
0.0030337572
0.004729271
0.013108373
0.004065156
0.006713152
0.0050623417
0.012154579
0.0038900375
0.01041925
0.0058938265
0.008676767
0.0058910847
-0.0009818077
0.009191275
0.012156963
0.0035814047
0.0073987246
0.017375708
0.006940961
0.0072262287
0.005960703
-0.0017994642
0.023792982
0.0028027296
-0.0026019812
0.0015283823
0.012278914
0.012691379
0.02101612
-0.0067304373
0.005868435
0.0045865774
0.009612441
0.0047148466
-0.0035185814
0.0028520823
0.013231993
0.0085760355
0.003696084
-0.00095927715
0.001830101
0.009229302
0.029151917
0.027363181
0.0010358095
-0.00023424625
0.004029274
-0.0013625622
0.012740493
0.00057816505
0.0021526814
0.006777525
0.0012325048
0.0035051107
0.011744499
0.0011963844
0.0034971237
0.0038074255
0.025297403
0.009650707
0.011160731
0.0027537346
0.019590855
0.0053201914
0.011216402
-0.0026564598
0.0049358606
0.005666852
0.005264282
0.013546109
0.0066047907
0.00022006035
0.0026322603
0.00601542
-0.001227498
0.006899953
0.0006902218
0.01158607
0.0048274994
0.0064696074
0.010797143
0.0070695877
0.0033462048
0.0023335218
0.032132983
0.003348589
0.01003027
0.01224792
0.012744546
-0.0056140423
0.00014567375
0.023695707
0.014238715
-0.0038311481
0.0054899454
0.0038671494
0.0028153658
0.0010504723
0.008238673
-0.002990961
0.0012500286
0.0031827688
0.0041656494
0.004095435
0.017780185
0.020934463
0.004951954
0.012428045
0.017268538
0.016530752
0.0037088394
0.006379366
0.005995989
-0.0014839172
0.005030513
0.0016819239
0.00088214874
0.006748438
0.014739871
0.006021023
0.01606226
0.00599885
-0.0004351139
0.012067556
0.0015774965
-0.0022386312
0.0028464794
-0.002694726
0.0069231987
-0.0044528246
-0.0014437437
0.016234756
0.011387825
-0.007204175
-0.00816977
0.003956914
0.020468831
0.016544342
0.013135433
0.004961014
0.015879393
0.0010023117
0.008018017
0.03171563
0.01900649
-0.003222704
-0.0039428473
0.021372199
0.0039776564
0.016300678
0.0023902655
-0.004675865
0.004963994
-9.6321106e-05
0.0016756058
-0.0009622574
-0.0033032894
0.00017559528
-0.006870508
0.009130359
0.0055556297
-0.0016406775
0.0041611195
0.008572817
0.005603671
-0.0048291683
0.008051515
0.014039516
0.007155061
0.012832403
0.0016264915
0.0018584728
0.0014028549
-0.0038317442
0.021702409
0.0037795305
-0.00070154667

0.00043225288
0.0028629303
-0.00044214725
0.018978834
0.010052323
-0.0026481152
0.0051133633
-0.00093984604
-0.0007674694
0.0017104149
0.016691923
0.00070500374
1.5497208e-06
0.0019257069
0.0035016537
-0.00033390522
0.0031472445
0.0044543743
0.005449176
-0.00076425076
0.009516597
0.0025265217
0.013190985
0.0006763935
-0.00096929073
0.0070911646
0.007230878
0.0019744635
0.0028271675
0.008716106
0.008836508
0.011535764
0.00064718723
0.0069812536
0.0034811497
0.00041496754
0.0042096376
0.012659788
0.0025360584
0.0018042326
0.003740549
0.0012071133
0.007957578
-7.1525574e-05
0.0006135702
0.00017559528
0.009820461
-0.00071263313
0.013461113
-0.0012677908
0.00045609474
0.022461653
-0.0006351471
0.0007609129
0.0016722679
0.011153936
0.0028526783
0.00856626
0.011369586
0.0034759045
0.004059911
0.008693814
0.0013849735
0.0116740465
0.013118982
-7.43866e-05
0.0072774887
0.014023304
0.004930258
0.009055495
0.008547783
-0.00039231777
-0.00060272217
0.001711607
0.005690694
0.011390924
-9.703636e-05
0.004979849
0.007299304
-0.00078606606
0.0044933558
0.0040057898
0.0023415089
0.009054184
0.007519603
9.250641e-05
0.0026772022
0.0077853203
0.0045956373
0.012758255
0.0047273636
0.007875562
0.00047016144
-0.0012379885
0.014352679
0.010321379
0.015740633
0.021093845
0.002688527
0.0011739731
-0.0023932457
0.0027770996
0.011447668
0.002980709
-0.0014061928
0.0063153505
0.0030833483
-0.001590848
-0.0005892515
0.00085532665
0.000813365
0.006249547
0.0014578104
0.0010582209
0.0021814108
-0.0009688139
0.0009378195
0.0056197643
0.00067162514
0.00098598
0.013948441
0.012117624
4.0769577e-05
0.007712722
0.0015362501
0.005968094
0.00966382
0.00719285
0.0059970617
0.012216449
0.00952661
0.0015597343
0.005622506
0.0029215813
0.0013823509
0.007888675
0.0004823208
0.002342701
0.0072836876
0.0015072823
0.012465239
0.016030908
0.0033884048
0.0028356314
0.0011959076
0.0004684925
0.0072590113
0.003018856
0.0026158094
0.0030026436
0.00043427944
0.0004990101
-0.00063574314
0.0047866106
0.013184547
0.0035539865
0.010787964
0.0015653372
0.01869452
0.0052446127
0.0082188845
0.0034358501
0.0059685707
0.025448322
0.0045006275
0.0036227703
0.003895402
6.580353e-05
0.0065740347
0.002141714
0.010382652
0.009371996
0.021978378
0.005816698
0.014639497
0.008964658
0.01808691
0.00025308132
0.0048425198
0.009434104
0.009853601
-0.0010275841
0.004790902
0.0011618137
0.0071566105
0.0053981543
0.02086091
0.007335305
0.00101161
0.012035489
0.00026845932
-0.0008214712
0.0010499954
0.009541631
0.002254963
0.00047183037
0.003931999
0.00067281723
0.00761497
0.0018956661
0.00042295456
0.011343718
0.0013000965
0.022007585
0.0012876987
0.008071303
0.0047091246
0.005284548
0.0066076517
0.014311075
-0.00072848797
0.0025093555
0.009411931
0.015485764
0.011077046
0.008717537
0.005485058
0.0005187988
0.002438426
0.0058071613
0.010316849
0.003288269
0.0002014637
-0.0013725758
0.0005918741
0.013995051
-0.0021607876
0.0018943548
0.0011440516
2.3841858e-07
0.0079392195
0.004132271
0.008281946
0.0033974648
0.0008380413
0.00028443336
0.0039857626
-0.0008531809
0.0045062304
0.016851068
0.0026714802
0.012790561
0.0013837814
0.008023024
0.005629301
0.010262966
0.009163141
0.01755333
0.010057688
0.0014755726
0.00794363
0.010025144
0.021664143
0.004256606
0.020592809
0.0044947863
-0.002542019
0.0019155741
0.0033522844
0.0021920204
0.012552738
-0.0009940863
0.0044389963
0.005494833
0.00020074844
-0.00025045872
0.009243965
0.010556102
0.004088998
0.002607584
0.012075901
0.008468032
0.004929781
0.0037783384
0.007462144
0.019636631
0.002606988
0.0027225018
0.010775685
0.018787265
0.0016266108
0.010295272
0.008489132
-0.00048410892
0.00062561035
0.0049043894
0.002833724
0.0039994717
-0.00022447109
-3.9100647e-05
0.0042737722
0.021181464
0.0039844513
0.010895371
0.008999348
-0.00040721893
0.007954955
0.00015854836
0.0016088486
0.002462387
0.002936244
0.011792302
0.0008940697
0.006776929
0.0021373034
0.0017232895
0.0034359694
0.0030847788
0.0051170588
0.0015170574
0.003895402
-0.0019952059
0.0015288591
0.0046522617
0.009306312
0.0062829256
0.0029194355
0.026274562
0.023452044
0.00057566166
0.012915134
-0.0016037226
0.0007622242
0.004937768
0.015227795
0.0018587112
0.0012062788
0.014417529
0.023316026
0.00543344
0.0024718046
-0.00028526783
0.03922391
0.00799036
0.001850009
0.0009965897
0.0050002337
0.0026472807
0.01908648
0.02115333
-0.0019991398
0.0051255226
0.00044584274
3.504753e-05
0.00093078613
0.0020571947
0.011622071
-0.0003926754
0.0005431175
0.0065635443
0.019778848
0.026110291
0.00015938282
0.010414004
0.0076016188
0.0063591003
0.0066304207
0.005452156
0.0009896755
0.003942251
-0.0008164644
0.0043593645
0.004419327
0.0031323433
0.0061142445
0.0013771057
0.012382984
0.00022816658
0.003332615
0.0068944693
0.00044822693
0.007462859
0.007855654
0.0019843578
-0.00073456764
0.00030875206
0.016787887
0.0017086267
-0.00016784668
-0.002347827
0.008382678
0.0031026602
0.00050771236
0.014302254
0.012678742
0.0072818995
-0.0010272264
0.0015021563
-0.00055897236
0.013381958
0.002104044
0.0033516884
-0.0009763241
0.017036438
0.006574869
0.009837508
0.0026112795
0.0032333136
0.013928652
0.003868699
0.0031893253
0.0013184547
0.0020825863
-0.00042915344
0.003047943
0.005008936
0.010699868
0.0035123825
0.0012924671
0.002196908
0.0006451607
0.006511569
0.0016602278
0.00019025803
0.01048708
0.0019276142
0.013681412
-0.0004130602
7.665157e-05
0.011375785
0.0064446926
0.015264392
0.0051324368
0.00020086765
0.007371068
0.007895112
0.00016355515
0.0008774996
0.0018835068
0.0068024397
0.00065886974
0.0049523115
0.0040791035
0.0017579794
-0.0002105236
0.0014998913
0.013841271
0.017296672
0.009759426
0.010736108
0.01933682
0.001466155
-0.00023555756
0.005789399
0.0012391806
0.0036811829
0.006530285
0.015328288
0.015372872
0.032405734
0.023482203
0.00032544136
0.0031843185
0.004604101
0.006452918
0.005475998
0.0018332005
0.010653377
0.017447114
0.009360433
-0.0011252165
0.012490034
0.0064361095
0.00024449825
-0.0007381439
-6.8068504e-05
-0.001019001
0.00350976
-0.0020503998
3.33786e-06
0.015517473
0.018274426
0.0031028986
0.0077250004
0.0013986826
0.0025404692
0.0034548044
0.0010918379
0.014960527
0.00020372868
0.003151536
0.00015294552
0.0054473877
0.0045962334
0.008636117
0.015518665
0.011517525
-0.00034570694
0.012757301
0.012812018
0.004153013
0.006262183
0.011487365
0.005622864
0.0056033134
-0.0003927946
-0.0007636547
-0.0011343956
0.0037944317
0.00074124336
0.0026379824
0.011108875
0.009608388
0.0054945946
0.0036059618
-0.00074481964
0.01703763
0.007471919
-0.0003106594
0.00051009655
0.0032192469
0.00837791

0.0034778118
0.0033650398
0.011700392
0.0012469292
0.0024557114
0.011069775
0.0014441013
0.0050257444
-0.00013279915
0.003022194
6.818771e-05
0.007834196
0.008900046
-0.000101447105
7.6532364e-05
0.004110694
0.005809307
0.008364439
0.003585577
0.010656238
0.013363719
0.0021592379
0.005849123
0.009492159
0.0060014725
0.004598379
0.002080679
0.000936985
0.0066291094
0.0008739233
0.00774014
0.0137040615
0.009816289
0.0052672625
0.0067806244
0.0014915466
0.005104542
0.013820648
0.008031249
0.008658886
0.0053669214
0.012259722
0.0023943186
0.0050640106
0.0056010485
0.001634717
0.013121843
0.000923872
0.0026196241
0.01544559
0.007946849
0.0023508072
0.0020487309
0.004789114
0.005528569
0.008434534
0.003010869
-0.00023698807
0.004291892
0.0038825274
0.0011451244
0.011417866
0.007230401
-2.4795532e-05
0.005636215
0.00204885
0.0027178526
0.00857985
0.0042802095
0.00033128262
0.0017168522
0.0057047606
0.0016640425
-0.0011501312
0.0053663254
0.014504671
0.0069789886
0.0045700073
0.006868243
0.0017421246
0.0047962666
0.0027298927
0.007890224
0.003844142
0.00860405
0.006377578
0.0020929575
0.022436857
0.0021734238
0.015425682
0.014300585
0.00040960312
0.0025941133
0.0035299063
0.004911065
0.0010454655
0.016568422
0.004416585
0.003726244
-0.0002104044
4.339218e-05
0.0061342716
0.010193944
0.004011631
0.0040767193
0.008815765
0.0063523054
0.0035221577
0.01711607
0.0057047606
0.002334237
0.0032474995
0.0038022995
0.00024592876
0.0082165
0.012118459
0.004346013
0.003930688
0.011448741
0.002784729
0.0016177893
0.0025024414
0.00085413456
0.006005764
-0.00013411045
0.006364703
0.002836585
0.008756161
0.003949523
0.0072484016
0.005084634
0.002038002
0.001357317
0.011059165
0.00046765804
0.012798429
0.008736372
0.0024425983
0.012011886
0.008413911
0.009162664
0.003025651
0.0007132292
0.011758089
0.002722621
0.0029842854
0.005409837
0.0020569563
0.014656067
0.005412936
0.004844427
0.0099157095
0.0020179749
0.0011907816
0.0003284216
0.0045802593
0.0013639927
0.005031109
0.0041749477
0.0057929754
0.006898403
0.004782319
0.0013362169
0.002800107
0.00887382
0.004057169
0.007813692
0.0025268793
0.005687475
0.0012586117
0.007926345
0.007851601
0.0045354366
0.00888598
0.0063517094
0.00867331
0.0060266256
0.014595985
-0.00036001205
0.0054529905
0.0017104149
0.0074808598
0.009611607
0.0035563707
-0.0008068085
0.008667946
0.0076522827
0.007191539
0.0024096966
0.012402177
0.0068796873
0.0066599846
0.009942412
0.003751874
0.007529974
0.010799646
0.0076681376
0.009325266
0.0057114363
0.0016338825
0.0044158697
0.008097768
0.0033802986
0.009336591
0.00017809868
0.0044304132
0.0053174496
0.006185293
0.0035926104
0.009560943
0.012085915
0.006557584
0.0030665398
0.0009138584
0.007156968
0.00518167
0.0056539774
0.008610368
0.00060522556
0.005275488
0.007496476
0.0009725094
0.0062446594
0.003631115
0.008801937
0.0010534525
0.0009723902
0.00884676
0.010590076
0.0014375448
0.002408862
0.0039458275
0.00557518
-0.00018012524
0.0022301674
0.0022848845
0.0011788607
0.0019350052
0.0128673315
-0.00016593933
0.010646105
0.008065224
0.01430428
0.002552271
0.0014793873
0.027860284
0.0029304028
0.0018533468
0.010148764
0.0025918484
0.020919442
0.006024599
-0.00060915947
0.0022855997
0.008304238
0.008721352
0.009581566
0.0018576384
0.008956671
0.0050547123
0.0010066032
0.008345962
0.008907914
0.0045034885
0.0058494806
0.007025957
0.006664872
0.0048394203
0.012385726
0.0013123751
0.0056484938
0.0017229319
-4.339218e-05
0.007871866
0.0048286915
0.0060836077
0.0048595667
0.008368254
0.0035926104
0.008678079
0.005214572
0.010903597
0.010351419
0.0033301115
0.002943039
0.008213639
0.0048742294
0.0068717003
0.0027432442
0.0022176504
0.005546212
1.8954277e-05
0.0038659573
0.00239861
0.010714412
0.0040916204
0.011236191
0.005281806
0.0048485994
-0.00020241737
0.0026148558
0.0006186962
0.0003978014
0.007967472
0.002874136
-0.0007086992
0.016392708
0.010200143
0.0075238943
0.009942293
0.009634852
0.0004272461
0.00417006
0.0015332699
0.010197282
0.008254766
0.00494051
0.0021477938
-5.8174133e-05
0.00020217896
0.011596799
-0.00016820431
-0.00063467026
0.0054813623
0.0070102215
0.0021927357
0.011764526
0.0020622015
0.005442977
0.0087150335
0.0021474361
0.0046349764
0.0031131506
0.0015816689
0.008598685
0.007163286
0.015027046
0.0024476051
0.010765433
0.0035896301
0.008813858
0.0072333813
0.0066279173
-0.00017976761
0.008129358
0.012511373
0.0073087215
0.0066668987
0.002630353
0.0032334328
0.00048446655
0.004446745
0.012205124
-0.00059747696
0.013273716
0.0007246733
0.0068005323
-0.00046753883
0.008171797
0.009047866
0.0007863045
0.011303663
0.0060528517
0.007424116
0.0016415119
0.0027011633
0.005142212
0.0010684729
0.010987759
0.009812117
0.008293986
0.004327178
0.002112627
0.005181074
0.010161281
0.0070221424
0.0020891428
0.0021367073
-0.00021278858
0.008586049
0.002673149
0.0034440756
0.0030730963
0.0022597313
0.00311625
0.006110549
0.00468266
0.009319663
0.00011754036
0.0017644167
0.009140253
0.0041520596
8.225441e-06
0.0001603365
0.0068547726
0.0058795214
0.0049227476
0.013898373
-6.1154366e-05
0.0006695986
0.00467062
0.0017424822
0.0076949596
0.010832429
0.0019568205
0.008674145
0.008841395
0.0013514757
0.0018680096
0.007898331
0.00016140938
0.011230826
0.00710845
0.005241871
0.007603407
0.0074261427
0.008657098
0.002543807
0.008545518
0.0070738792
0.008257151
0.0073279142
0.0023485422
0.0130313635
0.0060771704
0.009005547
0.0076978207
0.013724923
0.0061751604
0.006252289
0.00087308884
0.009950161
0.008934259
0.0012447834
0.006684184
0.0069390535
0.001701355
0.0056630373
0.0019807816
0.00033521652
0.0058785677
0.009582877
0.007064581
0.0028324127
0.008903146
-0.00028288364
0.0038166046
0.0069087744
0.02328825
0.002443552
0.0054836273
0.007884145
0.005427718
0.0082656145
0.008878708
0.004402995
0.0028797388
0.004585743
0.0066871643
0.009065151
0.010432363
0.0021162033
0.013687491
0.0077131987
0.016736507
0.0023447275
0.010106444
0.014167905
0.0014563799
0.0032156706
0.007971287
0.0022610426
0.0012180805
0.002426982
0.0049499273
0.005800009
0.002917409
0.004168868
0.0057908297
0.007309437
0.0053195953
0.0077017546
0.0038821697
0.012949944
0.0030047894
0.0017569065
0.0017795563
0.005442381
0.013045192
0.007372737
0.0018142462
0.0054877996
0.0035083294
0.0012238026
0.005297184
0.001843214
0.009538293
0.003545165
0.0013067722
0.0045443773
0.0061303377
0.008404732
0.009012461
0.011047959
0.0003644228
0.0030156374
0.0036092997
0.004083514
0.005753875
0.0077468157
0.012347579
0.010042906

0.01867354
0.0015068054
0.013008833
0.013542175
4.887581e-05
0.005276799
0.003546834
0.0019601583
0.0054985285
0.005374074
0.0010912418
0.00059592724
-0.0010403395
0.0071161985
0.0062988997
0.015787601
0.013343215
0.0035182238
0.0061873198
0.009887099
0.019875646
0.0024687052
0.000121831894
0.00297606
0.0022621155
0.007873058
0.0031769276
0.016577601
0.013469696
0.0060275793
0.0040528774
0.005649805
0.012958884
0.00089609623
0.0024582148
0.00025606155
-0.0033205748
-0.00096297264
-0.0014835596
0.011141896
0.0074796677
0.0034973621
0.013413429
0.0061125755
0.0033422709
0.0027600527
0.00918889
0.0052107573
0.0009562969
0.0090459585
0.00488019
0.0038456917
0.0016031265
0.0008511543
0.0056113005
0.0060600042
0.0070021152
0.007982016
0.0009344816
0.0014132261
-0.00042390823
0.002947569
0.0030465126
0.00364995
0.002334118
0.010219097
0.00027787685
-0.00029039383
0.012667179
0.005117655
0.0042272806
0.006124258
0.0036318302
-0.0013474226
0.005820513
0.0009756088
0.0076556206
0.014241457
0.0012383461
0.001919508
0.0024975538
0.006431222
0.007152796
0.003424406
0.019618034
0.004009962
0.0063323975
0.011643767
0.012534499
0.0081756115
0.0049015284
0.0052570105
0.0014511347
0.00044739246
0.0014863014
0.0025007725
0.015437961
0.0060474873
0.001632452
0.0027160645
0.007622838
0.003025651
0.00011885166
0.015171766
0.012477398
0.0074089766
0.01145041
0.009348631
0.012697339
0.0073400736
0.0011885166
0.0003157854
0.0029619932
0.002101183
0.008163571
0.00579226
0.0039645433
0.014202476
0.005273223
0.0027018785
4.6253204e-05
0.0032417774
0.003549099
0.015923262
0.00021374226
0.012567401
0.00271523
0.0065532923
0.010194063
0.0020616055
-0.0012339354
-0.0021055937
-0.0008699894
0.011166453
0.0044978857
0.002233982
0.000106453896
0.013021946
0.0035700798
0.013743997
0.009312153
0.0043702126
0.004327059
-7.164478e-05
0.0021646023
0.0012120008
0.006338358
0.006011486
0.00046396255
0.0021710396
0.006887555
0.008599997
0.005392194
0.015980244
0.01091373
0.008710742
0.0025435686
0.0059708357
0.0005761385
0.001819253
0.0033192635
0.014352798
0.010920048
0.011096716
0.00025701523
0.0018470287
0.0028167963
0.004416585
-0.00043940544
0.008675337
0.0044549704
0.0019475222
0.009432077
0.00088119507
0.0064219236
0.0053725243
-0.0018106699
0.010387182
0.0009087324
0.010469556
-0.00093746185
0.0050951242
-0.0011618137
0.013264418
0.0067135096
0.0028722286
0.016475558
0.0127106905
0.0118306875
0.011676788
0.0084325075
-0.0025452375
-0.0016508102
0.002187252
0.0021631718
0.0073051453
0.007471323
0.008035183
-0.0011043549
0.00067675114
0.0024129152
0.008977175
0.0014028549
0.009706974
0.018812418
0.0034922361
-0.00029444695
0.0042384863
0.0020924807
0.016267657
0.006235957
0.0066951513
0.007461548
0.01403439
0.0011979342
0.01138711
0.0062328577
0.005201459
0.0021510124
0.0002875328
0.010784507
0.023077488
0.00742805
0.011330843
0.009788871
0.00439322
0.0017055273
0.0028902292
0.0034047365
0.0009381771
0.0128542185
0.014750004
0.003005147
0.002900362
0.004468441
0.0068399906
0.006970644
0.0035537481
0.004662633
0.0040888786
0.005058646
0.0041451454
0.002073884
0.0072727203
0.011451602
0.0035102367
0.0008327961
0.002135396
0.01716721
0.00025117397
0.00024616718
-0.00051152706
0.0039442778
0.010858774
-3.2186508e-06
0.015051246
0.0127340555
0.007994652
0.005673647
0.012581944
0.009382486
0.031671286
-0.0002412796
0.0092920065
0.004445672
0.0016181469
0.00927341
0.0074260235
0.009490252
0.011307359
0.0027222633
0.008065581
0.0045576096
0.011046886
0.008281469
0.0033202171
0.0061326027
-0.0027890205
0.005333066
0.026225805
0.0018699169
0.002985835
0.0077798367
0.0026589632
0.0015848875
0.0003604889
0.0013229847
0.012750983
0.0143015385
0.0045011044
0.00717628
0.0025292635
0.0047477484
0.00057792664
0.0027874708
0.00055754185
0.009402752
0.0051420927
0.0062088966
0.007440686
4.5657158e-05
0.017187119
0.0012818575
0.0014452934
0.0065670013
0.010275483
0.0018671751
0.00018763542
0.001483202
0.0026369095
0.0075205564
0.014817834
0.015982866
0.009816408
0.00442338
0.004031539
0.010361552
0.0034008026
0.017813325
0.0019561052
0.004309535
0.008544207
0.0069981813
-0.0001090765
0.005017042
0.003647089
0.010377288
0.003051877
0.005923152
0.0083498955
0.007957697
0.0021517277
-0.0006496906
0.0129618645
0.005431056
0.0026500225
0.008826137
0.0027889013
0.0049940348
0.0066446066
0.0015574694
0.0039178133
0.0024472475
0.0022746325
-0.00026631355
0.000795722
0.013619542
0.001205802
-0.00093233585
0.0064287186
-0.001790762
0.00044238567
0.0055989027
0.0013769865
0.011459947
0.004435301
-0.0020016432
0.0011358261
0.012431264
0.0029377937
0.0043839216
0.002296567
0.0055975914
0.0051249266
0.0041702986
0.0041110516
0.004222989
0.0008366108
-0.0020222664
0.020853281
0.020196438
0.002752781
0.015025139
0.0064219236
0.0024813414
0.004527569
0.008455753
0.005782008
0.004481435
0.0020694733
0.014300585
0.016014218
0.018810987
0.0017435551
0.01278007
0.0059490204
0.005423069
0.0057418346
0.0020349026
0.0075963736
0.0076270103
0.0026723146
0.0021698475
0.003717184
0.003959894
0.010773063
0.0066444874
0.009922743
0.0034843683
0.004660368
0.012233257
0.0009818077
0.004159689
0.0023835897
0.00987649
-0.0016583204
0.0053840876
0.011404991
0.0063074827
0.00026726723
0.0012558699
0.003823042
0.00092732906
-0.0008087158
0.00238204
0.0032327175
0.0037835836
0.012292147
0.0042500496
0.0010734797
0.011081696
0.0037212372
0.002778411
0.0020651817
0.006669283
0.0033123493
-0.0005725622
0.001291275
-0.00045073032
0.0055600405
0.0028295517
0.011274934
0.015280485
0.0085276365
0.0031876564
0.0015966892
0.004775882
0.004777193
0.012340784
0.0040824413
0.00483191
0.0029177666
0.007362962
-0.00053977966
-0.0018980503
0.0034083128
0.019440532
0.0075269938
0.0064190626
0.0015016794
0.0050053596
0.0041104555
0.007117033
0.022817135
-0.0021674633
0.007722974
0.0117788315
0.0054728985
0.001748085
0.0041543245
0.0033644438
-0.00012481213
0.00092864037
0.0016158819
0.00011026859
0.0022808313
0.008168459
-9.918213e-05
0.00861311
0.002965808
0.01037848
0.0021193027
0.012230754
0.009157896
0.007921815
0.0027946234
0.0013500452
0.015510559
0.008854985
0.00084900856
0.0004376173
0.0015832186
0.01673472
0.0011343956
-0.0002732277
0.009300947
0.008485556
0.00089526176
0.0020298958
0.0050598383
0.0055890083
0.003614664
0.00894928
0.0060385466
0.0027986765
0.0028976202
0.011926055
0.0049664974
0.0024615526
0.0017688274
-0.000983715
0.0010331869
0.0022864342
0.002344966
0.004537344
0.012754679
0.0022643805
0.0085532665
0.0028321743
0.008009911
0.004177332
0.008153081

0.3202411
0.265463
0.23881209
0.19977224
0.24300194
0.18580103
0.22923625
0.31372404
0.30948555
0.2520032

