0.083094835
-0.021198034
0.027669668
-0.086435914
0.07840216
0.050658464
0.0348655
-0.03452158
0.034419894
0.017405272
0.04620266
0.08294892
0.024208188
-0.13047445
-0.06685746
0.06905055
-0.033722878
0.12626863
0.054242015
0.07964909
0.041175723
0.060715914
-0.0010464191
0.029567242
0.018364191
-0.018783927
-0.03461957
-0.045443177
0.060079098
-0.058710217
0.09768331
0.08622384
0.031282544
-0.08073604
0.022427678
0.020707488
-0.047124743
0.008578658
0.033772826
0.061134815
0.026341558
0.0030122995
-0.009821057
0.10259271
0.04783058
0.11719239
-0.019895673
0.068137884
0.019667864
0.036046386
-0.066341996
0.046091437
-0.012554169
-0.12956905
-0.06836784
0.060220957
0.025176048
0.012424469
-0.00027942657
0.062188983
-0.033847332
0.1082108
0.03645146
0.06836069

0.049458504
-0.0034282207
-0.0037142038
0.028341293
0.036186695
0.17689693
0.017401218
-0.01526618
0.014671445
0.023967385
0.022595644
0.07430887
0.050640583
0.026782393
0.008041739
0.20312333
0.011361837
0.085247636
0.05206585
0.02057147
0.046052814
0.043780923
0.014678955
0.003885746
0.03078556
-0.028851628
0.00520885
0.008235216
0.003460288
0.103104115
0.025056243
0.026389599
-0.046116948
-0.0017896891
-0.005649328
-0.048650622
0.030813813
0.051477432
-0.036787152
0.047577977
0.0026561022
0.03368163
-0.042060494
-0.003347516
0.005866289
0.0035881996
-0.024000883
0.06454265
0.031523347
-0.006434679
0.0036838055
-0.0100057125
-0.011328101
-0.06308484
0.015939355
0.011627793
-0.01937902
0.03155482
0.037621737
0.0072700977
-0.029039264
0.007033825
-0.03271377
0.07417047

0.030687094
-0.0219239
0.043015122
-0.071483135
0.045360923
0.008662462
0.009409308
0.011921525
0.051777124
0.06661987
-0.0076682568
0.013746977
0.01159358
0.023102283
-0.023186684
0.007543683
0.0036343336
0.017147303
0.01646173
-0.014317274
-0.0131396055
0.032064438
0.015424848
0.0049823523
0.0043947697
0.0007902384
0.0186733
-0.0013238192
0.006882906
0.016433954
-0.011892915
-0.023228884
0.019414186
0.01456058
0.020099282
0.019129157
0.032440543
-0.031532764
0.014517188
0.018077493
-0.009026766
0.04597521
0.018909216
-0.03835368
0.018994808
0.022951126
0.04218614
0.024489045
0.031303763
0.025437236
0.024784923
0.0054177046
-0.007060051
0.0017675161
0.017751455
-0.0009430647
0.015326858
-0.014449
0.0003863573
0.009322166
0.02125299
-1.8835068e-05
0.008433223
-0.0029267073
0.010355115
0.018141389
0.0062520504
0.020373821
0.011902332
-0.026064992
0.0013340712
-0.0070558786
-0.06783247
0.013749242
0.019814849
0.016211748
0.0071189404
0.032708406
0.011464715
0.021536231
0.02994299
0.0034966469
-0.01266861
0.0142041445
0.03526914
0.019405246
0.040497422
0.015181184
0.040180683
-0.036554456
0.010434985
-0.0034906864
0.008142829
0.027558327
-0.0003861189
0.020529032
0.023541331
0.0067483187
-0.012928367
0.057783484
0.04101813
0.01731658
0.0097334385
0.017432809
0.02508378
0.0042022467
0.0024350882
0.014880776
3.8981438e-05
0.001724124
0.0072216988
0.01245749
-0.006753087
0.019904613
-0.022817135
0.008269191
0.0018186569
-0.005544305
-0.0049574375
-0.004518032
-0.0016971827
0.008455038
0.03388524
0.016245604
0.018465996
0.04183829
-0.013601899
-0.013233423

0.018999934
0.023670435
-0.0124874115
0.023913503
0.029214859
-0.008145928
0.015143275
0.006427288
-0.0072637796
0.024351358
0.0029985905
0.012008905
0.0074733496
0.022001386
0.0019499063
0.026241064
0.0013153553
0.040189266
0.019427419
0.013920069
-0.00050127506
0.0042960644
0.010225058
0.00924325
0.015025973
0.021229625
0.016473532
0.008520007
-0.0036885738
0.01663208
-0.052366972
-0.002755046
0.0252043
0.009000659
-0.0009646416
0.05101037
0.0026193857
0.0063670874
0.016590714
-0.018635273
0.011184216
0.0173105
0.0048754215
0.040584445
-0.008275509
0.011786699
0.015559435
0.011118293
0.012829304
0.008606076
0.030090451
0.025526643
0.008366346
-0.0015285015
0.01239872
0.032050967
-0.009497762
0.006631613
-0.029548287
0.0023162365
0.042729735
0.0013400316
0.044841528
0.016320229
0.024970055
0.0012161732
-0.008272409
-0.0038256645
0.0037044287
-0.0041371584
0.020844579
-0.0022473335
0.030138612
0.04088998
0.039797783
0.030943155
0.007755637
0.013465643
0.020076752
0.026334405
0.020817637
-0.022210002
0.010810137
-0.016353726
0.018115282
0.02065432
-0.011575341
0.010444641
0.006649971
0.0044053793
-0.030240059
0.04823649
0.02539289
0.02089262
-0.031101108
0.021678805
-0.015160918
0.0064730644
0.02647376
0.008488774
0.018110037
-0.037002087
0.0060207844
-0.002965808
-0.0007302761
0.020249486
0.029254436
0.0011892319
0.02520752
-0.012782812
-0.00012600422
0.004285097
0.025902629
0.016070604
-0.006404519
0.01601994
0.031403303
0.006369233
0.00535357
0.0017635822
0.0048202276
-0.006587386
0.0011591911
0.009963632
0.0120129585
0.0271554
-0.0076851845
0.00968039

-0.0024648905
0.02119708
0.0052661896
-0.003057599
0.010832667
-0.017233253
0.00746119
0.0024341345
0.009360671
-0.0013048649
-0.003595233
0.0029922724
-0.0063427687
0.000318408
0.01032269
0.019571543
-0.00069856644
0.015802264
0.008110642
0.015455842
-0.016333222
-0.006731987
-0.0014386177
0.008899093
0.007683754
0.019418478
0.0127391815
0.017656803
-0.0074244738
0.015289187
0.012508154
0.0075662136
-0.0074658394
0.0024607182
0.00092995167
0.0044151545
0.02092588
-1.5854836e-05
0.013623118
0.008974433
0.01892054
0.0036982298
0.021712542
0.006566286
0.007823825
-0.00061893463
-0.0019974709
-0.01958561
0.021431684
0.0066542625
-0.0121456385
-0.0056796074
-0.0009505749
0.003181696
-0.0120590925
-0.017098308
0.016661286
-0.013625264
0.0028915405
-0.022203207
0.0026673079
0.017551541
-0.0057896376
0.012136698
0.0022763014
0.01620698
-0.0049643517
0.0008751154
-0.0013496876
0.00055491924
0.016342878
0.016736984
0.002272725
0.006210923
-0.005741
-0.016200304
0.007532239
-0.0023658276
0.023914814
-0.0055389404
0.005624652
0.00835371
-0.004694462
0.01338172
-0.04052198
0.013716102
-0.003534913
0.02372849
0.0114581585
-0.0013955832
0.013032436
0.024544954
0.016115308
0.00025224686
0.004823804
-0.004746318
0.012764573
0.011835337
-0.008693099
0.017794847
-0.00031757355
0.011385679
0.011827111
0.006479025
-0.004695058
0.011881471
0.0063199997
0.0051687956
0.014049768
0.005581379
0.012663245
-0.0021182299
0.0043172836
-0.0009614229
0.0068341494
-0.013293266
0.0014619827
0.008854985
0.0057086945
0.0012029409
0.012728214
0.008459568
0.0023856163
0.004847884
-0.0019299984
-0.009960294
-0.0017775297
0.013441682
0.0008678436
0.0025753975
0.013615251
0.0076628923
0.003375411
0.014505029
0.00079751015
0.008063912
0.03025484
-0.004173398
0.009857535
-0.0046190023
0.013637543
0.00022602081
0.001355052
0.0024658442
0.0156492
0.00092482567
-0.0007302761
0.003928542
0.019387245
0.0065550804
0.021753192
0.011966348
0.008915067
0.002324462
0.011862278
0.0113482475
-0.00022757053
-0.00075626373
-0.0023300648
0.004518032
-0.0016130209
0.002210021
0.009976983
0.019795656
0.0055817366
0.002836585
0.010170698
0.0041241646
0.021257758
0.0055800676
0.0019915104
-0.005049348
0.016994238
0.020366669
-0.0078026056
0.0047118664
-0.00032866
0.0041657686
0.00042271614
-0.0070921183
0.0062355995
0.026376605
0.0051293373
-0.009179473
-0.00068187714
-0.022977948
0.006255746
-0.006159663
-0.005508423
0.010829449
0.007193327
0.008265018
-0.0012602806
0.0033779144
-0.0014719963
0.010031462
0.020746589
-0.0061131716
0.0136573315
0.0044623613
0.0057166815
0.0063402653
0.0010197163
0.0049996376
0.0047906637
0.0001988411
0.007447839
-0.006733775
-0.0025309324
0.0043098927
0.009669423
-0.007676244
0.0018845797
-0.012778282
0.012398601
0.000682354
0.015345097
0.010081053
0.00048339367
0.013885021
0.016028523
0.006608963
0.021369815
-0.00037240982
0.015245199
0.006218672
0.012026787
-0.00054371357
0.0027240515
0.023394465
0.0035799742
0.00015795231
-0.0025053024
0.023852348
0.0025851727
0.012153149
0.015535235
0.003501892
0.0027484894
0.00082683563
0.009723425
0.01360786
0.015980482
0.005894661
-0.0018492937
0.004944563
0.017382264
-0.0031832457
0.0059467554
0.010744333
-0.0109421015
0.011758685
0.017928123
0.0038813353
0.005540848
0.00011086464

0.004144788
-0.0020874739
-0.0024117231
0.025652766
0.010787249
-0.000626564
-0.013594747
0.0063221455
0.0016257763
0.0011869669
0.021175146
0.0051180124
0.004561782
0.0056978464
0.006690502
-0.0010877848
0.012800574
0.0013152361
0.028918505
0.010570407
0.006326556
0.0198282
-0.00046420097
-0.0068860054
0.016586185
0.018567204
0.0063819885
0.012296915
-0.0035860538
0.009774804
0.0046970844
0.0035625696
0.005466938
-0.0100739
0.003955722
0.0146000385
0.008908868
0.012318969
0.023891807
0.0032877922
0.00044226646
0.018492818
-0.010629177
0.0059103966
0.007453203
0.012529731
0.014733076
0.0011523962
-0.007999182
-0.007195115
-0.0024797916
0.00012469292
0.0005983114
0.005388856
0.0071208477
0.002366066
0.000554204
0.005476594
0.006943345
0.0015590191
-0.010496497
0.01361239
-0.00012397766
-0.0031388998
0.011947036
-0.00063312054
0.013004541
-0.0016461611
0.00094115734
0.034679532
-0.0010464191
0.003632903
0.0052467585
-0.0022220612
0.0005761385
-0.0014054775
-0.0034569502
0.034363866
-0.0061496496
-0.00033640862
0.006684065
0.0035794973
0.0076310635
0.00430274
-0.00031971931
0.0004080534
0.0015981197
0.01819551
0.0015691519
-0.0063420534
0.021226525
0.0036731958
0.014063239
0.016504407
0.0053981543
0.0050047636
0.0042214394
0.0014586449
-0.0036484003
0.012810588
-0.0012388229
0.018190145
0.0009993315
-0.0022687912
0.0085225105
0.00039339066
0.0022408962
0.004220605
0.018624902
-0.0062707663
0.00038814545
0.011537552
0.0048214197
0.0022978783
0.0011713505
-0.00083839893
-0.0035744905
0.0009634495
-0.0013540983
0.0027155876
0.009867549
-0.0010341406
0.00016641617
0.00012981892
0.004054785
0.010097504
-0.0005683899
-0.0004339218
0.0018239021
-0.0017164946
0.018753171
0.008122563
0.012452722
0.0040359497
0.0017368793
-0.0051487684
0.014135718
0.010460496
-0.0023288727
-0.003532648
0.010243058
0.022198677
-0.002516985
-0.00081288815
0.007863164
0.011668444
0.011182666
-0.003030777
0.013882756
0.023855686
0.004478693
0.0086660385
0.0025681257
-0.01970756
0.012470841
-0.008643031
0.004912615
-0.0011937618
0.0093176365
-0.00022447109
-0.0052279234
-0.0039726496
0.009390593
-0.002635479
-0.022549033
-0.0039595366
0.0006095171
0.019612432
-0.00021982193
-0.0066633224
0.005097389
0.010159969
0.025225878
-0.0028563738
0.013409972
0.004968524
0.007233143
0.0078058243
0.012061
0.014565825
0.0045462847
-0.0046001673
0.0016121864
-0.0009816885
0.006193757
0.0037391186
0.0036722422
0.012727976
-0.0051267147
1.5258789e-05
0.0031508207
-0.0076749325
0.023292065
-0.0006161928
0.0105416775
0.0067201853
0.00750196
0.0020016432
0.003058076
0.016035676
-0.00013148785
-0.010493517
-0.008593321
0.0011110306
0.0024687052
-0.00029861927
0.0017110109
0.0058487654
0.00032436848
0.019014359
0.0019359589
0.007424593
0.005939007
0.0077040195
0.005169511
-0.0008151531
0.006468296
0.010645866
0.0050908327
0.012654424
0.0028614998
0.004338026
0.004888892
0.009309053
0.01770091
0.010923743
0.005488515
-0.023219705
0.01008296
0.019349098
0.0031731129
-0.00055861473
-0.00404191
0.017109275
0.01608169
0.012852788
0.017111659
-0.0034698248
0.00040090084
0.011903644
-0.0004644394
0.025613427
0.0002387762
0.0017793179
-0.0045084953
0.024326444
0.00075280666
0.002768159
0.0029634237
-0.0039303303
-0.006345749
0.016236663
0.024201155
0.0065330267
0.007850051
-0.002350688

0.01911664
0.006888747
-0.0035960674
0.010042667
0.017355204
0.036435485
-0.0048600435
0.006435871
-0.019292474
0.0013480186
0.010545969
0.0095950365
0.003375411
0.01239717
0.0025879145
0.017699122
0.018617392
0.0017706156
-0.004232049
0.010668874
0.01736188
-0.005339861
0.015059233
0.00053167343
-0.0059689283
-0.015591383
-0.0018182993
-0.012872577
0.0056355
0.0119565725
0.02194798
-0.0029968023
0.0068864822
0.016478062
-0.024914503
0.020807981
8.761883e-05
0.028958559
-0.012103915
-0.0131213665
0.0012147427
-0.0023454428
0.000790596
0.020666718
-0.04107666
0.0049563646
0.010970712
-0.0071316957
-0.0056141615
-0.009989738
0.0044653416
0.017091632
-0.00014615059
0.013832569
0.007370591
0.005421996
-0.002448082
-0.01414299
0.025924683
0.006691098
-0.011476874
0.011671424
0.0119508505
0.0034461021
0.0038728714
0.0011230707
0.0041316748
0.015961766
-0.0011326075
0.013558269
0.021814227
0.006382227
-0.0028871298
-0.013188124
-0.010097504
-0.0070188046
-0.025473714
0.0039200783
0.006738186
0.0036079884
0.022710443
0.0025628805
0.0074743032
0.004023552
0.010161161
0.0011451244
-0.0026130676
-0.0043064356
0.031430483
-0.0009008646
0.033026457
0.003308773
-0.0004976988
-0.00028443336
0.0045535564
0.03562522
0.013474464
-0.004667878
-0.0008776188
-0.009096384
0.004594207
0.010754585
0.00084125996
0.020748854
0.0054057837
0.00260818
0.00218606
0.020271778
0.008660555
-0.0007661581
-0.006803155
0.008678794
0.0016657114
0.017158985
0.0077337027
0.01619792
0.01161027
-5.90086e-05
0.00053441525
-0.007515073
-0.002567172
0.02055335
-0.015205741
-0.015662432
0.022185326
0.0036551952
0.0013676882
0.0021073818
-0.03275585
0.014478326
-0.0065928698
0.03322661
0.0066512823
0.016438365
0.003770709
0.0060852766
-0.019570112
-0.009437323
0.0028403997
0.004567623
0.0037552118
-0.0020697117
0.0050797462
-0.0062687397
0.018348575
0.007868528
-0.0059456825
0.0049728155
0.009050846
0.0001283884
-0.0025879145
-0.0035670996
-0.005072236
0.006316066
0.009843349
0.0017464161
-0.004095793
0.002303481
0.0005662441
-0.0022296906
0.02332294
-0.008623123
0.013603926
-0.0026415586
0.009285808
-0.0010761023
0.00085675716
0.021246314
-0.0075654984
-0.0005323887
0.013599157
-0.00014746189
-0.015476704
-0.0131464
0.001665473
0.003508687
0.008581042
-0.005624056
3.361702e-05
0.010927677
0.0076714754
0.013937473
0.01829195
0.020099044
-0.0013167858
0.024959326
0.015135288
-0.0024899244
-0.0025184155
0.031732798
-0.0070706606
0.017834902
0.027475357
0.012643218
0.016659498
-0.0016030073
0.020127654
-0.0029548407
0.018321872
0.020770788
0.02075243
-0.0057617426
-0.02764523
0.006054759
-0.0077717304
-0.0030257702
0.006116748
0.013652444
0.004875183
-0.004301667
0.012398481
0.05210817
0.014196038
0.0052933693
0.015963674
0.015504122
0.011705279
-0.0007236004
-0.0038759708
-0.0021458864
-0.0049831867
0.028364897
0.0059148073
0.010187745
0.0071833134
0.00820291
-0.0016653538
0.017941594
0.012335539
0.026024342
-0.0050218105
0.000947237
0.0046180487
-0.0044237375
-0.020438194
0.01086247
-0.006050825
0.0102825165
0.017863631
0.009835482
0.008399963
0.0046539307
0.010284543
-0.0015460253
0.019451618
-0.0066640377
0.013684869
0.007815242
0.0041377544
0.0004913807
0.022851348
0.0066463947
-0.0054115057
-0.0031650066
0.0110446215
-0.0037294626

-0.0077610016
0.0038224459
0.010471821
0.0043777227
-0.0034868717
0.008392334
0.0007343292
-0.004240513
0.007084489
-0.0015934706
-0.00033307076
0.0076731443
0.005825639
0.003465891
0.009255052
0.0021951199
0.00017130375
-0.0012072325
0.012986064
0.0039600134
-0.0013986826
0.007336378
0.0054056644
-0.0034366846
0.0030546188
0.0011332035
0.010985374
0.005849123
0.005680442
-0.013554692
0.0035461187
-0.0018603802
-0.010709286
0.0032851696
0.0024850368
-0.0010383129
0.008222461
1.9073486e-06
0.004091859
0.011164308
-0.0024268627
-0.0071775913
0.010694623
-0.007607579
0.0007443428
0.004711747
0.0031801462
0.0001835823
0.0025906563
-0.016461134
-0.009774208
-0.0002399683
-0.0027951002
-0.0033103228
0.003755331
0.0066194534
0.007378459
0.0018764734
0.0010436773
0.0044611692
0.0056642294
0.013011575
-0.005717039
-0.0038552284
-0.0017772913
0.0026521683
-0.004050851
-0.0087172985
0.0033956766
0.009095669
0.009285092
0.012187719
0.0010521412
0.009364843
-0.005568385
-0.0009840727
0.005931139
-0.00034224987
0.001940608
-0.004926443
-5.0783157e-05
2.9444695e-05
-0.003974676
-0.0007984638
0.0023331642
0.0021520853
0.009469271
0.0014322996
0.018056273
0.002753973
-0.00069987774
0.0035403967
-0.00034081936
0.0009701252
-0.0005785227
-0.0071229935
0.002388239
0.005119443
0.0056152344
0.001812458
-0.002806425
0.0077593327
0.0010050535
-0.006113529
0.014859796
0.0023249388
-0.00058591366
0.003075838
0.009377241
0.0058811903
0.0075336695
-0.004488826
-0.010676026
0.011373758
0.0012658834
0.0008741617
0.005381584
0.0013563633
-0.0006222725
0.0028021336
0.0061141253
-0.010413051
0.02315116
-0.003038764
0.009289384
0.011220217
0.00069344044
0.00074088573
-0.002937317
0.006594658
-0.005899191
0.0061786175
0.008304
-0.011186361
-0.0006967783
0.0036706924
0.0074709654
0.010089278
0.009276986
0.00041747093
-0.008382797
-0.0038506985
0.008950591
0.0026896
-0.0046010017
0.00024306774
0.0007632971
-0.00084233284
0.0061448812
0.009362578
-0.00033533573
0.005249858
-0.0020686388
0.01246953
-0.0012969971
0.012045383
-0.0024360418
-0.0018504858
0.008780122
-0.0048629045
0.012302756
-0.002260685
-0.007847905
0.0018955469
0.0062850714
-0.005767226
0.008913994
-0.0033444166
0.0068967342
-0.0025080442
0.009813309
0.0021079779
0.013882041
0.006470442
0.002569437
-0.008929014
0.0048630238
-0.0017217398
0.0031507015
0.0060213804
0.00033330917
-0.0034987926
-0.003191948
0.009594679
0.012299418
-0.0010893345
0.000623703
0.009816885
-0.002621889
-0.0011789799
-0.0016006231
0.0011270046
0.0047876835
0.00025320053
0.0037811995
-0.0009138584
-0.0015790462
0.0031138659
0.0039651394
0.008591294
0.0003244877
0.0032143593
-0.00079894066
-0.0005506277
-3.2305717e-05
-0.0012179613
0.009878397
0.006033182
0.00097596645
0.016153216
0.0058994293
-0.0058660507
0.012734532
0.015113831
0.002408743
0.009849429
0.011535287
-0.00010430813
0.0034401417
0.019327402
0.0026909113
0.008452654
-0.0031354427
0.0018981695
0.0008966923
0.0030249357
0.0048947334
-0.0028954744
-0.0007638931
0.010238647
-0.0029627085
0.0015307665
0.0067720413
-0.004116297
0.0041269064
0.011901379
0.0017684698
0.0132369995
-0.0022569895
-0.005249262
0.0063118935
0.0004067421
0.015464425
0.004517436
0.005371332
0.0068517923
0.003199935
0.0033371449
0.004711032
-0.011881828
-0.014450908
0.0042710304
0.002848506
0.002832532
-0.007303953
0.012261391
-0.0032689571
0.0020412207
0.010509968
-0.004632592
-0.01024425
-0.0030015707
0.009994149
-0.010240078
-0.0012900829
0.002081871
0.00078487396
0.008699536
0.0044323206
-0.0080679655
-0.004139304
0.013328075
0.0009790659
0.0028818846
0.0061199665
-0.012761593
0.008188605
0.009988308
0.0061974525
0.0034878254
0.01964879
0.0061734915
-0.0043034554
0.00621593
0.0073344707
0.0072051287
-0.003213644
0.005687952
-0.008892059
-0.0082063675
-0.0088329315
0.0029155016
0.0022776127
0.012492418
0.009373188
0.004037738
0.0012601614
0.016688228
-0.00095522404
0.002130866
0.00722301
0.007882476
-0.0026721954
0.0006585121
-0.00015604496
0.005117297
0.0025253296
-0.007071972
0.0031046867
-0.001729846
-0.0002733469
0.007684469
-0.0073781013
0.0023766756
-0.0021225214
0.008842468
-0.0065336227
0.00031363964
-0.0023909807
0.008859992
0.00992167
0.0077044964
0.0011035204
0.0023072958
0.0029206276
-0.011160731
-0.00077712536
0.004316449
0.0036514997
-0.008557677
-0.0033845901
0.003943205
0.0008761883
0.009742498
-0.005885601
-0.00028002262
0.00015318394
0.004943371
1.0728836e-06
-0.0001502037
0.0009971857
5.376339e-05
0.0058107376
-0.011292219
0.0018671751
0.0006656647
0.011562228
0.0039401054
0.0083498955
-0.0010265112
-0.0010284185
0.002530098
0.007857084
-0.010264397
0.004863143
0.00072681904
0.001295805
-0.0019778013
-0.0012511015
0.0045683384
-0.0017626286
0.0058686733
-0.00026392937
0.014541388
0.011339188
-0.013106465
0.00063097477
0.009556413
0.00449121
0.022185802
0.0052393675
-0.008975625
0.00436759
-0.0016278028
-0.0030664206
-0.0025851727
0.010575652
0.009893179
-0.0022872686
-6.484985e-05
-0.0016374588
0.0038588047
0.005016923
0.004958153
-0.0070950985
-0.01488471
0.008472443
-0.0023657084
0.005915642
0.001674056
0.015955329
0.00609529
-0.0041686296
0.016586542
0.008428097
0.004122019
0.0058876276
0.006289482
0.0046122074
-0.00042045116
-0.004233837
-0.0030001402
-0.004415989
0.0044076443
-0.0018496513
-0.0030167103
0.010823011
-0.0030782223
-0.0015362501
-0.0024040937
0.0001834631
-0.008022547
-0.009639859
0.0055680275
0.004384756
0.0103007555
0.0033618212
0.002559781
-0.0023024082
0.026551485
0.006267667
0.0050246716
-0.0017416477
0.010658145
-0.00082063675
0.012804389
-0.0063328743
0.01162684
-0.0031599998
0.009310842
0.0036842823
0.0020529032
0.0038888454
0.002464056
0.022774577
-0.001729846
-0.00553298
0.0028584003
0.009441376
6.747246e-05
-0.0017026663
0.0025086403
0.009527445
-0.0010498762
0.0012407303
6.16312e-05
0.007027507
0.00997448
0.0015558004
-0.0009789467
-0.0011889935
-0.00056397915
-0.016159177
0.0012959242
0.013161063
-0.0004194975
0.0076636076
0.010140657
0.00089240074
-0.0015749931
-0.00028717518
-0.010430336
0.009107947
0.011497974
-0.002896905
-0.0030932426
-0.00069224834
0.007160902
0.0013148785
0.00033009052
0.009540319
-0.0012454987
0.004488468
0.009855509
0.008728504
0.006685972
-0.006590843
-0.0014642477
0.0023671389
0.0063363314
0.0058341026
0.012092829
-0.0017620325
0.0026704073
0.0041884184
0.0066843033
0.007193446
-0.009360075
0.008542538
-0.0011597872
-0.002037406
0.01275146
0.0021891594
0.003481865
0.005998969
0.0006738901
0.010902762
-0.0007532835
0.0042141676
-0.0075950623
0.003910303
0.008134484
0.0065973997
0.0144068
0.00028955936
-0.0014876127
0.004531741
-0.002807498
-0.0047188997
0.0031570196
0.0101515055
0.01849997

0.002166152
-0.0033038855
-0.0031294823
-0.00440681
-0.00087094307
-0.0014880896
0.000313282
0.0073868036
0.0052553415
0.00820303
-0.004031539
-0.0021474361
-0.007408738
-0.00086677074
0.020813584
0.004994631
0.006393075
0.0097026825
-0.01426518
-0.0003361702
0.009018064
-0.0009729862
0.0033311844
0.001420021
-0.0012611151
0.0076419115
0.005354166
0.015379071
-0.0033819675
0.009560704
0.006857872
-0.0016582012
0.008046031
-0.0018676519
-0.0008085966
-0.0009059906
-0.0013034344
0.0058255196
0.011233568
0.0027711391
0.001409173
0.0026911497
0.00615263
-0.0026501417
0.0023989677
-0.0036541224
0.013046145
-0.0040107965
0.0057361126
0.011970401
-0.009777069
-0.0025770664
0.005645156
0.002931118
0.006372452
-0.006635785
0.009837866
0.0031784773
0.0010844469
-0.005228758
-0.00083351135
0.0008504391
0.014492989
0.001396656
0.0056117773
-0.0018347502
0.0052268505
-0.00096809864
0.007053733
0.0043343306
-0.0013313293
0.014620662
0.011321068
0.00671947
0.005033374
-0.0018811226
-0.00558424
0.003499508
0.0033994913
-0.0013258457
-0.0014775991
0.0046932697
-0.00283885
0.0023132563
0.007618189
-0.0013099909
0.0008507967
-0.008761406
0.011973977
0.011457443
0.012923837
0.0040376186
-0.0023783445
0.008037925
0.0009545088
0.00027823448
0.0010381937
-0.0010615587
0.0028743744
-0.0033054352
-0.0023465157
0.006235242
-0.0054352283
-0.005358219
0.007599592
0.006684184
-0.0021333694
0.0030984879
0.0012292862
0.0057777166
-0.0027256012
0.0010273457
0.0055491924
-0.0008829832
0.0028333664
0.006519556
0.018039107
-0.0017439127
0.009961247
0.00066018105
0.001327157
0.0023268461
0.0027165413
0.0067806244
0.0010024309
0.0002667904
0.0019426346
0.0032008886
0.0005772114
0.0002821684
0.0052211285
-0.007998109
0.008295178
-0.00013387203
0.0041006804
-0.0017375946
0.013672948
0.0005327463
0.004044652
-0.00069487095
-0.00090777874
-0.00046992302
-0.0034424067
0.008901238
9.083748e-05
-0.0023599863
0.001934886
0.00042951107
-0.0029631853
-0.013813019
0.0009288788
-0.002842784
0.0036320686
0.0019801855
0.0020376444
0.006885886
0.00012612343
0.0006004572
-0.0024977922
0.002094984
0.008705378
0.0065585375
0.0011792183
0.007236719
0.0037879944
-0.00014936924
-0.0008401871
0.0010107756
-0.0045263767
0.0009957552
0.011883736
0.01655376
0.0004181862
0.0052508116
0.000320673
0.0023382902
-0.0017126799
-0.001218915
-0.0012942553
-0.0033023357
-0.00016260147
-0.002064705
0.005195141
-0.007422447
0.0017427206
0.0018782616
-0.0017822981
0.01034534
-0.0027559996
-0.0018376112
0.0063644648
-0.0024838448
0.0015283823
0.0010114908
0.009597659
0.010560155
0.00024855137
0.0005648136
0.009655714
0.0035436153
0.004436016
0.0027390718
-0.0018676519
0.0010221004
0.009423852
0.012576103
0.00402534
-3.6597252e-05
0.0013144016
-0.0013879538
0.025739431
-0.0055906773
0.0066269636
0.0072795153
0.0072368383
0.0035949945
-0.002562523
0.012860894
0.015003681
-0.0041810274
0.0039360523
0.0020128489
0.005794406
0.0044230223
0.0039622784
-0.0027450323
-0.0020490885
0.0016949177
0.0022894144
0.0029671192
-0.0002771616
0.0017055273
0.0009019375
-0.0012227297
-0.002695322
0.0029693842
0.010930896
-0.0019228458
-0.007265806
0.00271976
0.0025172234
0.0026621819
0.005383849
0.0035114288
0.002379775
0.013023615
-0.0029426813
-0.00086832047
0.00076532364
0.009114146
0.0014858246
0.00014293194
0.011291027
0.00056648254
-8.583069e-05
-0.00025498867
0.0012927055
-0.0065119267
-0.0010155439
0.004430294
0.008341551
-0.0069025755
0.0018991232
0.0054055452
-0.0008459091
-0.0021561384
-0.004981756
0.0052930117
0.0012648106
0.0037971735
0.0011367798
0.0045098066
0.002916336
-0.0025827885
-0.008622885
0.0037081242
0.01663971
0.009132981
0.0039316416
0.0035449266
0.01132524
0.0066375732
0.0075086355
-0.0057923794
0.0070005655
-0.00076544285
0.00012218952
0.015082955
-0.0009138584
0.00061929226
0.0012278557
-0.00013792515
0.013358593
0.0026285648
0.0022494793
0.0021054745
-0.00072693825
-0.00054347515
-0.0007532835
-0.002418518
0.01110816
0.00020861626
-9.071827e-05
0.01219368
0.005554557
-0.0003979206
0.0054050684
-0.00015258789
0.001689434
-7.3194504e-05
-7.1406364e-05
0.001842618
0.0008122921
0.007504344
0.0014833212
-0.002350688
-0.010067821
0.0034139156
9.6440315e-05
0.0014927387
-0.00022172928
-0.0107091665
0.0071983337
0.0014768839
0.009006739
0.0043162107
-0.003005743
0.00873673
0.006495118
0.0006324053
-0.0010420084
0.0049031973
-0.0026755333
0.001893878
0.0040768385
0.0016191006
0.0018552542
-0.0007365942
0.0049726963
0.0069055557
0.0073531866
-0.0018672943
0.0042573214
-0.0014902353
-0.008139014
0.0031827688
0.0068861246
0.00020933151
0.00066018105
0.0045263767
0.0035728216
0.0061178207
-0.0015552044
-0.007849097
0.002645135
0.0072437525
-0.0027409792
0.0022097826
0.0006068945
0.006471753
0.0056625605
-0.0010880232
-0.0048042536
0.0051327944
0.013087273
-0.0001885891
0.0011082888
0.006107807
0.001888752
0.0021334887
-0.007984757
0.004441142
0.0134859085
0.007679224
0.0008376837
-0.0026262999
0.01109159
0.00799799
0.004073739
0.0041993856
-0.0038166046
-0.004270911
0.009349704
0.009811044
0.014025807
-0.006102681
-0.0020900965
0.0139917135
0.009043217
-0.00066280365
0.0055931807
-0.007875323
0.0053064823
0.002413869
0.0028295517
0.0066957474
0.014076471
-0.000849247
-6.330013e-05
0.0005916357
0.000523448
0.007047415
-0.0012357235
0.009825826
0.0028401613
0.00049221516
-0.0071924925
0.0023055077
0.008679032
0.005764127
0.0032263994
0.0071097612
0.0022995472
0.0065273046
0.00029444695
0.0062527657
-0.0006302595
0.0042330027
0.0007510185
0.0046970844
0.002719164
0.008621931
-0.004055381
0.009626389
-0.0014128685
0.007837772
-0.00093460083
0.007498622
0.013269305
0.004914999
0.015196562
-0.0017507076
0.0011963844
-0.0038141012
-0.004478693
0.015202999
0.0021178722
0.00096809864
0.009922862
-0.0073120594
0.0003296137
0.004807472
0.011899471
0.007206559
0.0018217564
-0.001178503
0.0024315119
0.00056767464
-0.007861614
-0.0062475204
-0.001506567
0.0073297024
-0.0012836456
0.004652977
-0.0010597706
0.0005646944
0.0009560585
-0.0020062923
0.00029945374
0.003983736
0.0016844273
-0.0017821789
0.0019921064
-0.0006599426
0.0034748316
0.006585121
0.002339363
0.0014606714
-0.007492304
0.0052417517
0.002176404
0.0016490221
-0.0019304752
0.0059609413
-0.0034424067
0.0052098036
0.0032951832
0.0042157173
0.0009723902
0.0013583899
0.002990961
0.0006978512
-0.00074481964
-0.0011937618
0.008085012
-0.0020422935
0.003067851
0.004740238
0.0050485134
-0.00076651573
0.0068398714
0.00059604645
0.00967741
0.0025353432
-4.518032e-05
0.011741161
-0.0041356087
0.010211945
0.009271383
-0.0008108616
-0.0026847124
0.001401186
-0.0031055212
-0.0025736094
0.0030027628
0.010741949
0.0017545223
0.0057942867
0.0013548136
-0.010743141
0.002280593
-0.00042116642

0.005779743
-0.0015079975
0.0061615705
0.01259768
-0.0026512146
0.008066058
-0.00018525124
-0.002380252
0.010752082
-0.00011122227
0.0015441179
-0.0020819902
-0.0034439564
0.0046594143
0.005173087
-0.0006991625
0.005880475
0.008747578
0.0023885965
0.0045381784
0.01904869
0.006313443
0.0037213564
0.0053458214
0.006235242
0.0064446926
0.004187703
0.0035779476
0.003729105
0.0009499788
0.0010039806
-0.0028313398
0.0011276007
0.007870913
-0.00059878826
-0.0012446642
0.0017681122
0.003233552
0.0013010502
0.0057246685
0.00077974796
0.030039072
0.0011816025
0.0033307076
0.0023274422
0.0019526482
0.0015355349
-0.01307714
0.0028532743
0.012116909
-0.0010031462
0.0009548664
-0.0007878542
0.017974019
0.0011901855
-0.002960682
-0.0029705763
-0.0033692122
-0.00013017654
0.002572775
0.0008480549
-0.00029408932
-0.0031090975
0.006633401
-0.0016254187
-0.0017137527
0.003443122
0.002019167
0.004341483
0.0045382977
-0.00053215027
0.00038194656
0.0016233921
0.0019367933
-0.00042772293
0.0007637739
2.9921532e-05
0.0054620504
0.0046789646
0.0075719357
0.0005013943
0.0005583763
-0.0015085936
0.007340789
0.00011539459
-0.0006541014
0.004881382
0.008045435
0.006272912
0.0042341948
0.0022991896
0.010938764
0.006427169
0.0059729815
0.0018080473
0.005387187
-0.0021334887
0.00820744
0.003202796
-0.0032106638
-0.0009485483
0.001221776
0.00042557716
0.0019184351
0.0028403997
0.0017939806
-0.00062429905
-0.0013898611
0.0041211843
0.0019353628
-0.0043284893
0.0027917624
0.004246354
0.0024892092
0.000338912
0.0023670197
0.0041205883
0.0049450397
-0.00025701523
0.0020189285
-0.0014737844
-0.00245893
0.0022804737
0.0038369894
-0.0069223642
0.0028108358
0.0019285679
-0.00011193752
0.006174803
-0.0054217577
0.007371545
-0.0072278976
0.00028645992
-0.0013663769
0.0032744408
0.0010391474
0.0015778542
0.0059319735
-0.0005068779
0.020434022
0.011729121
8.058548e-05
0.0043842793
-0.0035666227
-0.004504442
0.0012738705
0.000749588
0.0024694204
0.009226084
-0.0042334795
-0.005855441
-0.0053426027
0.0014253855
0.00020360947
0.0056602955
0.0033855438
-0.0014830828
-0.0015124083
-0.0012378693
0.006112814
-0.002445221
0.00015699863
0.004976392
0.006075382
0.0021446943
0.00046813488
-0.00042688847
-0.000595212
0.0042034388
6.425381e-05
0.012182355
0.0038918257
0.0017505884
0.0016200542
0.0028079748
0.005959749
-0.0012558699
0.0031155348
0.0025171041
0.0002616644
-4.851818e-05
0.00581789
0.0041497946
0.0053561926
0.00024807453
0.006822467
0.002319932
0.00233984
-0.0037084818
0.00027048588
0.0036703348
0.00092709064
0.008226633
0.002205491
0.0064245462
0.005297065
0.0028965473
0.005541086
0.0012705326
0.0023639202
0.0029615164
0.010974884
0.0021976233
-0.0022172928
0.0014805794
0.0021899939
0.0025814772
0.0011826754
-0.001222372
0.0071338415
0.001691699
0.0020593405
0.003589511
-0.006471634
0.015549421
0.0041263103
0.00527668
0.0029597282
0.0077387094
0.00074231625
0.0010237694
-0.0013107061
0.00029301643
-0.002059102
0.007415414
0.00552392
-0.0005327463
0.02161932
-0.0044231415
-0.0009454489
0.009920478
0.0024883747
0.003847003
0.010410786
-0.00051116943
5.1617622e-05
0.0004028082
-0.0020039082
0.0025414228
0.0043007135
-0.0011047125
-0.006460786
-0.00039064884
7.843971e-05
0.00074338913
0.00028562546
0.008312345
0.0011453629
0.00577569
0.0017453432
-0.0023522377
0.0051356554
0.005056381
0.005287051
0.0016934872
-0.0034780502
0.00044035912
0.022089839
0.0030725002
0.0038348436
-0.00066685677
0.00014030933
0.0064543486
0.00062036514
0.0033435822
0.0014659166
-0.00020051003
0.0026694536
0.0011162758
0.0017578602
0.0039280653
0.000751853
-0.0015878677
0.0015529394
0.0002645254
-0.00033187866
0.0061484575
0.011361957
0.0012619495
0.006638646
0.006048918
0.0062634945
0.005238652
-0.0014309883
-0.0028004646
-0.00088858604
-0.00013685226
0.008304119
-6.234646e-05
0.002515912
0.00076425076
0.0040034056
0.0046577454
0.00034999847
0.0025411844
-0.0005759001
0.0028233528
0.0002501011
-0.00052535534
0.0014015436
-0.0006879568
0.0030052662
0.008800149
-0.0025877953
0.006537318
-0.0010404587
-0.0029649734
0.0007452965
0.008363247
-0.0005443096
0.00089526176
-0.00034105778
0.00090289116
0.002604127
0.00076138973
-0.0012869835
0.0040693283
0.0007792711
0.0025981665
-0.0013731718
0.010938406
0.0005387068
-3.3140182e-05
0.0040609837
0.0011981726
-0.0027251244
-0.0027770996
0.0031795502
0.0034315586
0.0033743382
1.4543533e-05
-0.0021842718
-0.0026084185
0.002452135
0.00048816204
-0.0020304918
0.0033254623
0.002222538
0.0059702396
-0.00088214874
-0.0035910606
0.0010509491
0.0008211136
0.0010308027
-0.0033673048
-0.00022101402
0.002252221
0.0026501417
-0.0006568432
0.0046031475
0.005457282
0.0019615889
-0.0018060207
0.0041133165
0.0018208027
0.008099556
0.0020996332
0.0021651983
0.0047210455
-0.0005643368
0.003145218
0.0030009747
0.0037076473
0.0010973215
0.0053454638
-0.00025427341
0.002274394
0.0060548782
-0.00054192543
0.0021207333
0.004025936
-0.002865672
0.0013047457
0.00014066696
0.011354804
0.0002503395
0.0042999983
0.002323985
-0.0029531717
0.00043570995
0.006144285
0.004998207
0.0051823854
0.007533312
-0.0036324263
8.869171e-05
0.014069319
0.0053629875
0.005886674
-0.00031149387
-0.0025383234
-0.00067448616
0.006044984
-0.00020694733
0.013183594
0.0056830645
-0.002543211
0.00028169155
0.002220273
0.0061012506
0.008048773
0.00028944016
0.0023431778
0.0001320839
0.0026817322
0.0014337301
0.00023567677
-0.0012689829
0.011500478
-0.00022947788
0.00268507
0.008530617
0.0072060823
0.0027809143
0.002153635
0.0023753643
0.0034407377
0.0035544634
0.0024491549
0.00034558773
0.0005850792
0.0018047094
0.0029813051
-0.0014178753
-0.0002541542
0.004163623
0.008051634
0.010778427
-6.353855e-05
0.0025771856
0.00079262257
0.006495595
0.0011767149
-0.00046563148
0.010753512
0.0027834177
0.010644197
0.0007157326
0.0029070377
-0.00037515163
0.0057878494
0.0055941343
0.0018409491
0.004021287
0.0054576397
0.007879257
0.00739038
0.003961563
-0.0026960373
0.0007132292
0.0013172626
0.014662981
0.005657792
-0.004151225
-0.0040472746
0.0023430586
0.00030958652
0.010882139
0.003798008
-0.004356265
-0.004932761
0.0045940876
0.00015354156
0.005990267
0.00416255
-0.0019181967
0.004286766
-0.0014947653
0.002880931
-0.0011407137
0.003709197
-1.2397766e-05
0.0024949312
0.0012353659
-0.0025296211
-0.0006068945
0.007583499
0.0050519705
-0.006288767
0.0036661625
-0.00068295
0.0122087
0.001334548
0.0074203014
-0.00097060204
0.00441432
-0.003680706
0.00044381618
-0.00041747093
-0.0029740334
0.004734516
-0.0016889572
0.019680023
0.0029228926
9.119511e-05
0.0008108616
0.003004074
0.011500955
-0.000818491
0.009052992
0.0047187805
0.002046585
-0.0025651455
0.0038551092
0.0015052557
0.000756979
0.0024985075
0.00013017654
0.0020225048
-0.0077443123
-0.0022605658
0.007500887

0.006880641
0.0012710094
0.003971219
0.0061603785
0.007394552
0.0040460825
0.009395599
0.0022928715
0.0051956177
0.0036002398
0.001594305
0.0018854141
-2.0384789e-05
-0.0007017851
-0.00081050396
0.00020933151
0.0012409687
0.0021067858
0.003943801
-0.00063169
0.0026074648
0.004128337
0.004109621
0.00090301037
0.00088715553
-0.00021290779
0.0034732819
0.0034713745
0.008100748
0.0034745932
0.0046960115
0.0031337738
0.0014591217
-0.000374794
4.4941902e-05
0.0033829212
0.00069999695
0.0016579628
0.003036499
0.0020879507
0.00092065334
0.00044095516
0.0036745071
0.0004940033
0.0018780231
0.00039994717
0.0022243261
-0.001082778
0.0034137964
-0.0019017458
5.8054924e-05
0.004381418
0.0020688772
0.003366828
0.00079262257
0.0036078691
-0.00032627583
0.011468172
0.008148313
0.004337549
0.0005851984
0.0010068417
0.0011068583
0.0031198263
0.0013263226
0.0006633997
0.005416274
0.003917575
0.0023220778
0.0009357929
0.0032498837
0.010949612
0.0024272203
0.0029008389
-0.0004054308
0.0004502535
0.0031934977
0.00065529346
0.0023657084
0.00051140785
0.001807332
0.0010039806
0.015401959
-0.0020126104
0.0001616478
0.00034797192
-0.00037956238
-5.6147575e-05
0.0068821907
0.0027813911
0.00024724007
0.002503872
0.0014412403
0.0017149448
0.00016498566
0.00041806698
0.0017739534
0.0014075041
0.0029944181
6.556511e-05
0.008015037
0.00014543533
0.00062441826
-0.00044333935
0.0016456842
0.003727436
0.00047183037
0.000103235245
0.00772357
-0.0005341768
0.0035549402
-1.1920929e-07
1.8119812e-05
0.003653407
0.00092184544
0.0014423132
1.1920929e-07
0.0006353855
0.008700728
0.000690341
0.005309224
0.002342105
-0.0008018017
0.00017046928
0.006600857
0.0006635189
0.0037634373
0.003700018
0.0024813414
0.0010075569
0.003848195
0.018454432
0.0016007423
0.010468721
0.0005581379
-0.00047385693
0.0038050413
0.0013751984
0.005093813
0.0008919239
0.0018162727
0.002016306
0.0027099848
0.004483819
0.007129073
3.7312508e-05
3.8146973e-06
-0.0010197163
0.0005508661
0.0025749207
-0.00018918514
0.006657362
0.004245162
0.006515026
-0.00044441223
0.0038455725
0.0020108223
0.006677985
0.00018465519
0.00040388107
0.0015258789
-0.0006246567
0.0027617216
-0.0008007288
-0.00018012524
0.0014855862
0.0036833286
0.006275654
0.0050928593
0.00040316582
-6.9737434e-05
0.003109932
0.0018651485
0.0005005598
0.002490878
-0.0008120537
0.003165722
-0.0008485317
0.00200212
0.00035440922
0.0023061037
0.0036900043
0.0032420158
0.0020833015
0.0026373863
0.0037674904
0.003002882
0.0010969639
0.004240513
0.0025063753
0.0030469894
0.0025087595
0.006870985
0.002815485
0.0031013489
0.0015140772
0.003093958
0.003636241
0.0016924143
0.013305545
0.0012954473
0.0023891926
-0.00017535686
0.0032404661
0.0046821833
0.0009355545
0.005972147
0.0029224157
0.0013914108
0.0019618273
0.0005592108
0.006198764
0.000577569
0.001591444
0.006100774
0.0052597523
-0.00042903423
0.0026068687
0.00023889542
0.01335752
0.0088784695
-0.001911521
-0.000110030174
0.00046360493
0.0040183067
0.002460122
0.0008177757
-0.0015510321
0.00023436546
0.00056803226
-0.0012487173
0.0074344873
0.0027896166
0.0016762018
0.0011028051
0.001732707
0.0009059906
0.00079631805
0.0008556843
0.005232215
0.0010631084
0.0013004541
0.004242301
0.00018584728
0.0016036034
0.00404191
0.0013859272
0.0038505793
-0.0006791353
0.00074517727
-0.0013022423
0.0026737452
0.007630706
0.0021640062
0.0033603907
-0.00026750565
-0.00012648106
0.0007739067
0.0006506443
0.0014692545
0.0007991791
-0.0003798008
-0.0010640621
0.0015951395
0.0030077696
0.00094628334
-0.00030636787
0.0034347773
0.0017501116
0.004846692
0.011581659
0.0032815933
0.0038548708
-0.0006502867
-0.0012016296
0.0062514544
0.0031477213
0.0033257008
-0.0002669096
0.0004067421
0.00048947334
0.0012099743
0.0005682707
0.0069280863
0.0054153204
-0.0008300543
-1.7404556e-05
0.00013411045
0.0073292255
0.004622221
0.002634406
-0.0011339188
0.0024998188
0.0076801777
0.011556745
0.00851059
0.0025789738
0.0002156496
0.0032247305
0.00048565865
-0.00032174587
0.008616805
0.00035595894
0.0040968657
0.0042151213
0.0033743382
0.0007686615
0.002219677
0.0015538931
0.0024311543
0.0032457113
0.0058761835
0.006172538
-0.001026392
0.0016399622
0.0049203634
0.0067584515
0.010894299
-0.00027954578
0.0014600754
0.001021862
0.0001527071
-0.00040900707
0.0062264204
0.0021830797
0.0028887987
0.0021500587
0.00045609474
0.0005477667
0.0095078945
0.00049448013
6.1035156e-05
0.005534649
0.0006592274
0.002268672
-0.0007200241
0.0025607347
0.0002245903
0.0024137497
0.0008741617
0.0025844574
0.009124875
0.005248904
-0.0004864931
0.001590848
0.0033398867
0.003380537
-0.0001975298
-0.0015435219
-0.0005675554
0.001672864
-8.9883804e-05
3.4451485e-05
0.0028045177
0.010829449
0.007746339
0.0063803196
0.004537344
-0.0008391142
0.00049448013
0.0028988123
0.0010623932
0.0007827282
-0.00199306
0.00014674664
0.008085489
0.004545331
0.004888773
-0.00036287308
0.0024514198
0.0034753084
0.0069596767
0.0007594824
0.0036929846
0.001870513
0.004886389
0.008857131
0.0017597675
0.001853466
0.0013917685
0.00029551983
0.0069699287
0.011286855
0.00057423115
-0.00081181526
0.007237673
-0.0007824898
0.0011235476
0.0042740107
0.0016988516
0.0023310184
0.0059354305
0.002042532
0.0045888424
0.004742503
-0.0005095005
0.0054762363
0.0054864883
0.0023453236
0.0018312931
0.0019493103
-0.0003566742
0.0020860434
-0.0010033846
0.0044277906
0.00096154213
-0.00012671947
0.004254222
0.0008136034
0.005654812
0.0031063557
0.0020477772
0.0017435551
0.001416564
0.0038909912
-0.00090813637
0.00024199486
0.002718091
0.0009753704
0.00028002262
0.001543045
0.0045210123
-0.002059698
-0.0008149147
0.00032126904
0.005331993
0.0017776489
0.0033240318
0.0013797283
0.0028580427
0.0034296513
0.00013589859
0.0018078089
0.004518628
-0.0002797842
0.012560844
0.0008238554
0.0059449673
0.0017492771
0.0077893734
-0.00073611736
-0.0004014969
0.0014996529
0.00091683865
0.0006322861
0.0057103634
-0.00021719933
-0.00024080276
0.0056073666
0.0032445192
0.0018121004
0.00061130524
0.001990676
0.0008138418
-0.00063955784
0.0004528761
0.006407976
0.0012569427
5.51939e-05
0.00074124336
0.00364995
0.00013422966
0.0044294596
0.00067031384
0.000834465
0.00091707706
0.0056049824
0.0033961535
0.0010000467
-0.0018304586
0.001173377
0.0009764433
0.0048499107
0.00015807152
-0.0007710457
-0.00021159649
0.0027644634
0.0026358366
0.000590086
0.0014232397
0.0019243956
0.0018240213
0.0062235594
0.004008889
0.0048969984
4.9948692e-05
7.009506e-05
-0.0011678934
0.0012494326
0.0039304495
0.00046145916
0.00024557114
0.0022758245
0.00029301643
0.0032333136
0.0015438795
0.0020176172
0.0047032833
0.00041294098
0.0018264055
0.00025093555
0.0034182072
0.003109932
0.0030120611
0.005373597
-0.00045907497
0.0043330193
0.0023750067
0.0013827085
-0.0011664629
0.0002603531
0.0011944771

0.0051748753
0.0026152134
0.004641652
0.0052199364
0.0054428577
0.0023105145
0.00078332424
-8.440018e-05
-0.00044560432
0.003409505
0.0008970499
0.0017783642
0.0019643307
0.0052069426
0.0027990341
0.0034276247
0.002626419
0.0029482841
0.002075553
0.0024387836
0.005191803
0.004737258
0.003936887
0.004454732
0.0032565594
0.0060020685
0.003617525
-0.001355052
0.002760291
0.0012774467
0.004982114
-0.0001553297
0.0020576715
0.002436161
0.007507682
0.0032367706
0.0019415617
0.0006195307
0.0017025471
0.00013577938
0.00079512596
0.0073912144
0.0026476383
0.0015878677
0.0028210878
0.0066342354
0.00016224384
0.0022243261
0.0028817654
0.0064895153
0.00016534328
0.002763033
0.0005223751
0.0020179749
-0.00030601025
0.00317204
0.0004771948
0.0031563044
0.0007611513
0.0052500963
0.0005084276
0.0034151077
0.0015259981
0.0033534765
0.001410842
0.002720356
0.0016251802
0.0009602308
0.0044494867
0.0041316748
0.0016961098
0.00059485435
0.0037451982
0.0015188456
0.0010690689
0.0018467903
0.001036644
0.00039422512
0.0018115044
0.0045149326
0.007818341
0.0004787445
0.003244996
0.0032949448
0.00632143
0.002415061
0.0024274588
0.0045541525
0.0025340319
0.001839757
0.0045164824
1.4424324e-05
0.0069277287
0.0037417412
0.00269413
0.005014777
0.007819414
0.001990199
0.00084769726
0.0014470816
0.0010732412
-5.1140785e-05
0.0013270378
0.00026202202
0.0006170273
0.0004285574
0.00058567524
-1.2278557e-05
0.0042840242
0.001036644
0.0040091276
0.0019788742
0.005604267
0.0028510094
0.006923318
0.0012663603
0.0014544725
0.00062060356
0.0014321804
0.005628586
0.00031864643
0.00034546852
0.002338767
0.0033560991
0.0017379522
0.00435555
0.00072681904
0.0025013685
0.0016143322
-0.0007430315
0.0027103424
0.008211374
0.004234791
0.0036785603
0.002779007
0.0015826225
0.0031912327
0.0010637045
0.0038387775
0.0006774664
0.0019385815
0.007020712
0.003508091
0.0050979853
0.0029053688
0.0027098656
0.0011373758
0.00504303
0.0030629635
-0.0013147593
0.0005184412
0.0030550957
0.0014542341
0.004944086
0.0028429031
0.0006427765
0.0011541843
0.0005438328
0.0046606064
0.00034213066
0.0034811497
0.0037049055
0.0006836653
0.0027124882
0.0038107634
0.002697587
0.00047504902
0.003712535
0.00067186356
0.0047211647
0.00022804737
-0.00014257431
0.0030366182
0.0059934855
0.0020304918
0.00057017803
0.0017796755
0.0049989223
0.0045514107
-0.0003759861
0.00063836575
0.0028271675
0.0007958412
0.0014613867
0.0016679764
0.00094771385
0.0016304255
-6.377697e-05
0.0039299726
0.0029685497
0.00083589554
0.0054125786
0.0012990236
0.00411582
0.0002605915
0.003987074
0.0010818243
0.0032014847
0.0015535355
0.0020285845
0.0044350624
0.0003118515
0.00033533573
0.00034487247
0.0010707378
0.004440069
0.0026381016
0.0017386675
0.0015656948
0.0030463934
0.003324151
0.0023319721
0.002446413
0.0021265745
0.005479336
0.0021256208
0.003363371
0.0011440516
0.0015438795
0.002503872
0.0029324293
0.0018703938
0.0059640408
0.00069642067
-0.0005836487
0.0010664463
0.002521038
0.0014013052
0.0008341074
0.0016663074
0.00056159496
0.0045241117
0.0031045675
0.0007828474
-5.1021576e-05
0.0016832352
-0.00022888184
7.83205e-05
0.005684972
0.0038474798
0.0065051317
0.00010430813
0.00268054
0.0009907484
0.010878444
0.0032697916
0.0016224384
0.0031547546
0.0012993813
0.002937436
0.009337544
0.00628829
0.001050353
0.0031824112
0.002485156
0.0019845963
0.0017660856
0.0022529364
0.0010693073
0.0022917986
0.0021533966
0.0035880804
0.0027207136
0.0017551184
0.00047266483
0.003569603
0.0013560057
0.00034725666
0.0020918846
0.0041486025
0.0014032125
0.0030879974
0.0051908493
0.0015580654
0.009423971
0.0008556843
0.0005760193
0.0015324354
0.0013558865
0.0011445284
0.00034475327
-0.0006221533
0.0005275011
0.0026248693
0.0009331703
0.0054739714
0.0008699894
0.0004838705
0.00019979477
0.001134634
0.0001667738
0.0021367073
0.0014578104
0.004000306
0.0028920174
0.00011777878
0.0031461716
0.0006388426
0.0014793873
0.005767703
0.001952529
3.9219856e-05
0.0013452768
0.00013315678
7.18832e-05
0.00119555
0.0012966394
0.0043839216
0.0006915331
0.0020252466
0.0069254637
0.0037206411
-0.00019419193
0.0052826405
0.0033289194
0.004784107
0.001506567
0.004319668
0.002657771
0.0009379387
0.0038300753
0.0015747547
0.003107071
0.0031772852
0.001846075
0.0024565458
0.0012145042
0.0034934282
0.0023759604
0.0037418604
0.0026307106
0.003158927
0.0028386116
0.0012886524
0.0007133484
0.0017162561
0.0022246838
0.002169609
0.0016223192
0.0041970015
0.0043447018
0.006110668
0.0030887127
0.00014925003
0.0021650791
0.003997326
-0.00034415722
0.001832962
0.00045859814
0.003321886
0.0015172958
0.004839778
0.0036799908
0.0030794144
-0.00017547607
0.010384917
0.002158165
0.00030076504
0.0023676157
0.0032510757
0.0047142506
0.004294038
0.0027240515
0.00044214725
0.005849004
-0.00028693676
0.008508563
-0.00048542023
-4.220009e-05
0.0038679838
-2.9206276e-05
0.0045747757
0.0025795698
0.0023483038
0.0015125275
0.0017043352
0.0001335144
0.000647068
0.0009393692
0.004830718
0.0030853748
0.0033837557
0.0014885664
0.0013306141
0.0020859241
0.0071560144
0.003606081
0.0057326555
0.003684044
0.0029197931
0.0025413036
0.0017586946
4.2915344e-05
0.00018930435
0.0009841919
0.00017476082
0.0012435913
0.00092482567
0.0020105839
0.00056385994
0.0068752766
-0.00035238266
0.0016338825
0.0031893253
0.0029873848
0.0005300045
0.003276348
0.010187149
0.0025058985
0.0021414757
0.0018138885
0.004143715
0.0029674768
0.0027620792
0.0021315813
0.0038619041
0.0040302277
0.0032385588
7.56979e-05
0.0013020039
0.0041754246
0.004640937
0.0059355497
0.0010149479
0.0013561249
0.0012465715
0.0025359392
0.0005553961
0.0058084726
0.00030887127
0.00045681
0.0031096935
0.0027980804
0.0018050671
3.7670135e-05
0.004035592
0.0023794174
0.007166147
0.0014656782
0.001288414
0.00021541119
0.0018074512
0.0030255318
0.00092959404
0.0022341013
0.0035889149
0.0041565895
0.0004400015
0.0019470453
0.00071907043
0.0008817911
0.0014392138
0.00031757355
0.0008883476
0.0031926632
-5.7578087e-05
0.00085413456
0.0033779144
-0.00032138824
0.0016154051
0.0041623116
0.0012432337
-0.00045859814
0.0010043383
0.0019342899
0.00039350986
0.006360531
0.0047166348
0.001704216
0.0013513565
8.666515e-05
0.001585722
0.0013549328
0.003306985
0.0047307014
0.0031660795
-0.00035190582
0.003514886
-0.0005209446
0.0016852617
0.0026855469
0.0011509657
0.000844717
0.001416564
0.0017504692
0.0054647923
0.004053712
0.0048441887
0.0020333529
0.0078190565
0.0013028383
0.00088846684
0.00065910816
0.0035063028
0.0006713867
0.002646923
0.0063477755
0.0034474134
0.0030612946
0.000978589
0.0011200905
0.0023255348
0.0024827719
0.0030839443
0.0014667511
0.0016076565
0.0014424324
0.0034929514
-0.0004118681
0.004369974
0.0026544333
-0.000105023384

0.002158761
-0.0013228655
0.00057315826
0.003175497
0.0029352903
-0.0012866259
0.0030474663
-0.00045681
0.0032618046
-0.00022292137
-0.0015187263
0.0036748648
0.0008672476
0.0019366741
0.00076007843
0.002343297
0.0026825666
0.004058242
-0.00013673306
0.0035479069
0.0056136847
0.0052535534
0.0030921698
0.0032850504
0.0004284382
-0.0005902052
0.00090765953
0.003921509
0.0016537905
0.0039252043
0.005268812
0.00052177906
0.00926137
0.004794359
0.0009763241
0.004506707
0.001599431
0.0010701418
-7.05719e-05
0.0013155937
0.00077593327
0.0019031763
0.00806129
0.0004451275
0.0012567043
0.0011000633
0.003552556
0.0023283958
0.0026615858
0.0045536757
-0.00070273876
-0.00019955635
0.0031704903
0.0057690144
0.002392292
0.0029431581
0.00096809864
-0.0009778738
0.0010707378
0.0038678646
-0.0010876656
0.004336238
0.001224041
0.0017188787
-0.00028336048
0.0016967058
0.0006597042
0.0028902292
0.0051944256
0.0025299788
-0.00077855587
-0.00026929379
0.0036478043
0.00076138973
0.005025029
0.0031423569
0.0068229437
0.0002655983
0.00043952465
0.001899004
0.006170392
0.002417326
0.0017068386
0.0029951334
0.0014785528
0.014546514
0.0046099424
3.3974648e-05
0.009535432
0.0006222725
0.0043183565
-0.000121593475
0.006765008
-0.0015528202
0.0004749298
0.005270362
0.007425189
-0.0025479794
0.0012648106
-0.00090026855
-0.00048053265
-0.00065612793
0.004086137
0.003556013
-0.00050985813
0.002050519
0.0018075705
-0.00083601475
0.0016106367
0.003890276
0.001817584
-0.0012761354
4.684925e-05
0.0051920414
0.0011615753
0.0013443232
0.0012636185
0.007378578
-0.00056409836
-0.0012698174
-0.0011171103
0.0022619963
0.0022993088
0.0003708601
0.0031301975
0.00018119812
0.0016714334
0.00050985813
0.00079751015
0.0007867813
0.008422971
-4.3988228e-05
0.012914777
0.007025242
0.003373146
0.0083088875
0.001077652
0.0031116009
0.010773301
0.0027673244
0.0035891533
-0.0002721548
0.004523158
0.00850749
0.0017236471
-8.6188316e-05
0.0021595955
0.0004492998
0.0038949251
0.0006868839
0.0005341768
0.0012049675
0.0042003393
9.7990036e-05
0.0019710064
0.002245903
0.0010328293
-2.3722649e-05
-0.0012683868
0.00011587143
0.0003118515
0.0014377832
-0.0013958216
0.0016237497
0.0010960102
0.0036857128
0.00074732304
0.008364201
0.004401684
0.0021737814
0.0012412071
-0.0030241013
0.0022499561
8.34465e-07
-0.00076651573
-0.0014028549
-0.00033783913
-0.0013182163
0.0037993193
0.006047249
0.0017641783
0.0037956238
0.0017020702
0.003868699
-0.0026636124
0.003616929
0.007912993
0.0028181076
0.00054478645
-0.0005608797
0.00021111965
-0.00019204617
0.0019946098
0.0123051405
0.0013672113
-0.00032913685
0.0024614334
-0.0035059452
2.6226044e-06
0.0015808344
-0.0002425909
-0.0012313128
0.0017822981
0.0039179325
0.0022842884
0.0018537045
-7.343292e-05
0.0032066107
0.0010128021
0.00074374676
0.0016270876
0.004472494
0.005717993
0.0038832426
0.0074466467
0.004348278
-0.00039184093
0.004143715
-0.0007777214
0.0011379719
0.0027679205
-0.00079858303
0.0021935701
0.0006350279
0.0014061928
0.0004273653
0.0005016327
0.0031547546
0.0066246986
0.0021032095
0.005082965
0.0033055544
0.00047194958
-0.00037312508
0.003852129
0.0051709414
0.001432538
0.0030134916
0.00053846836
0.006417632
0.0012055635
-0.0011433363
0.0006175041
0.0010859966
0.0006042719
0.0038307905
-8.85725e-05
0.0058698654
0.0035811663
0.003534317
-0.003216505
0.0010616779
0.001798749
0.0032740831
0.0016468763
0.0003966093
0.0017485619
0.0038437843
0.0005209446
-0.0011411905
0.0043771267
-0.000446558
0.0006389618
0.0058392286
0.0074846745
-0.0006697178
0.0025265217
0.00192976
0.0050344467
0.0018054247
-0.00041234493
0.010614514
0.0017324686
0.0019500256
0.0011143684
0.01479125
-6.508827e-05
-0.00038790703
0.0039265156
-9.75132e-05
0.004024625
0.0033868551
0.002853632
0.001359582
0.00073981285
-0.00023651123
3.71933e-05
0.00034809113
0.006734252
0.0042961836
0.0026193857
0.0060999393
0.0004826784
0.001801014
6.9856644e-05
0.0087070465
0.0061262846
0.0006403923
0.0024331808
0.0014402866
0.0077804327
0.0036011934
-0.00019812584
0.0025879145
0.00262928
0.0022244453
-0.00036728382
0.008388042
0.002750516
0.0045843124
0.0026493073
0.001954317
0.0024267435
0.0013186932
0.0034430027
0.0039265156
-0.0008301735
0.004521847
0.00046384335
0.00047826767
0.008424878
0.004994631
7.331371e-05
0.007324457
0.0017926693
0.0017515421
0.002257347
-0.0007867813
0.00054323673
0.002834797
0.0014464855
0.0008368492
0.0004943609
0.0008405447
0.0029839277
7.6413155e-05
0.005394101
0.0017430782
0.0021065474
0.005461812
0.0038198233
0.0014013052
0.0026019812
-1.180172e-05
0.003755927
0.0025173426
0.0051516294
-0.00058174133
-0.0003900528
0.0012782812
0.0065823793
0.013275623
0.00042927265
3.8146973e-06
-0.00076675415
0.0029073954
-0.00025498867
0.00063097477
0.003250122
0.0035483837
0.0020929575
0.000667572
-0.00034415722
0.0030962229
0.0039821863
0.0006644726
0.001301527
0.00049090385
0.00083339214
0.0021681786
0.0017846823
0.0035955906
0.0023604631
0.0012881756
0.0029417276
0.0050252676
0.0022355318
0.011759877
0.0035557747
0.002149582
0.0035744905
-0.00028026104
0.0020682812
0.0014992952
0.0022312403
0.0035345554
0.01110208
0.00024569035
0.00426507
0.0054534674
0.0018388033
0.0030219555
0.010404229
0.005559683
-0.00057399273
0.0035116673
0.013934135
-9.3340874e-05
0.0008819103
0.0025031567
-0.00014960766
0.0021631718
0.00304389
0.0025373697
0.0002695322
0.0029443502
0.008220792
-0.00048327446
0.003550887
0.00017881393
0.0007585287
0.004186511
0.00067925453
0.002503872
3.5643578e-05
0.0023083687
0.007021904
0.005092025
0.0030559301
8.702278e-06
0.001960516
0.0007690191
0.00036907196
0.004058242
-0.0007009506
0.0042710304
0.001614213
0.0027024746
0.00661397
-5.1259995e-05
-2.9563904e-05
0.006413698
0.007269144
0.0028412342
0.0011608601
0.0028053522
-3.385544e-05
0.007183552
0.0013509989
0.0019184351
-0.00031399727
0.0068050623
0.00034582615
0.003846407
8.1539154e-05
0.0038092136
-0.0009279251
0.006173253
0.0059205294
0.0010924339
0.0049054623
0.003019452
0.000666976
0.00068604946
0.0011005402
0.0008274317
0.0030452013
0.0043729544
0.010010123
0.00362432
0.0029997826
0.0033653975
0.0073405504
0.001242876
0.0039696693
-9.9897385e-05
0.0018242598
-0.0012449026
0.0034220219
0.00587523
0.0056476593
0.0038411617
0.0014902353
0.00061678886
0.0018178225
0.0011240244
0.0017296076
0.003914833
0.00020599365
0.0035157204
0.0018228292
0.0011748075
-0.00027549267
0.003234148
0.0015234947
0.008353233
0.0022653341
0.00052797794
0.0034286976
0.0040689707
0.006898284
0.0014461279
-0.00031101704
0.0021630526
0.0003244877
0.004617572
0.0073879957
-9.298325e-06
0.0011353493
0.0070797205
0.0008883476
0.00090420246
0.011671424
0.0010454655
0.0049278736
0.0023736954
0.0025291443
0.00031220913
0.001871109
-0.00014936924
0.0005812645
0.002179265

0.31300795
0.32146955
0.2521943
0.22599792
0.33678937
0.23323488
0.26360357
0.32860565
0.3795159
0.2759391

