0.09480071
0.02594006
0.054019332
0.045353055
0.0033769608
0.11890459
-0.12970006
0.19578433
0.16844821
-0.024484396
-0.16394019
0.04683292
0.12451506
0.14244008
-0.018340468
0.10950756
0.18502569
0.09774697
-0.085562706
-0.13115287
0.20825326
-0.020977259
-0.025287151
0.3582884
-0.14354372
0.012354612
0.061986923
-0.20846498
-0.048760056
0.04873085
-0.08045137
0.2043004
0.18356371
-0.29767573
-0.11318219
0.012013197
0.060081124
0.21578908
0.08544409
-0.1393112
-0.07859039
-0.0014542341
0.086818814
0.022125721
-0.08659482
0.039129734
0.18239069
0.012331843
0.014075398
0.025257349
0.022639394
0.02378571
0.021378875
-0.18319571
-0.1705705
0.04711938
-0.01011467
-0.01786244
-0.019529462
0.0610224
0.0037915707
0.14342892
0.015488505
0.054941416

0.069508076
0.03558576
-0.09254718
0.03746283
-0.0136784315
-0.036055088
0.014154911
-0.0017952919
-0.1670897
0.21915507
0.055330634
-0.029939175
-0.040212154
-0.023953915
0.015973091
0.07616806
0.122885585
-0.10575497
0.03863573
0.0473243
-0.08202183
0.0029810667
0.010558605
-0.00086414814
-0.0072590113
-0.3940853
0.034800053
-0.05210483
-0.049536347
0.179968
-0.2665745
0.18588519
0.010437846
-0.1590215
0.235574
0.041623354
0.12438595
-0.16011202
-0.073578
0.40984702
0.0406847
-0.08221471
0.012877345
0.09191418
0.07397246
0.279284
-0.09091687
-0.08100653
-0.25679588
0.07777166
0.13045335
0.05759096
0.0733825
0.05858791
-0.0033026934
0.017692327
-0.029462337
-0.013555646
-0.040355444
0.18305612
-0.12425649
-0.05935359
-0.08647573
-0.18912935

0.0056865215
0.0789268
0.043465972
-0.005625844
-0.006114602
0.03681469
-0.00494349
0.00946939
-0.008144498
-0.048117876
0.04457879
-0.0055544376
-0.028673172
0.06161177
-0.040769815
0.080248475
0.018442035
0.07324016
-0.0022197962
0.05313146
0.1315291
0.07766867
-0.12379944
-0.18311489
-0.17638612
-0.056358337
0.00074863434
0.00784874
0.0070465803
0.06090033
0.005219102
0.012766838
0.045104504
-0.07397699
0.006567955
0.04078114
0.011611223
0.028396726
0.075730324
-0.020989895
0.033543706
-0.020093441
-0.02733469
0.01624477
-0.025531888
-0.09738934
0.034145713
0.012577295
0.030075312
0.0736053
-0.03473425
-0.0019803047
-0.062256455
0.03318429
-0.0071891546
-0.047665358
0.01481986
-0.015319586
-0.07098198
-0.010177612
0.044813752
-0.00036418438
0.0033282042
-0.1748389
0.041723967
0.0153592825
-0.029157639
0.021071076
0.06004834
-0.003877163
0.03217554
0.015309453
-0.023183584
0.005546093
0.05345559
0.0012003183
0.060853958
-0.0381248
-0.0039018393
0.03278041
-0.10282397
-0.1560924
-0.031695604
0.109657526
-0.0484761
-0.024887085
0.031939507
-0.08035028
-0.11353719
0.0366596
0.036126375
-0.08292842
0.11393428
0.064781666
0.030841231
-0.099763036
0.019725919
-0.13085079
0.019636989
-0.009951472
-0.03022468
0.013033032
0.14207792
0.118718624
0.024964929
-0.028706908
0.050736785
0.0003786087
0.02377224
0.11687398
-0.10134852
-0.064484
0.0019993782
0.018561482
0.048206806
-0.017641425
0.07321668
-0.022854328
0.06342161
-0.13264573
-0.072942615
-0.020811558
0.100889325
0.045594454
-0.1267457
0.035820007
-0.008441925
0.06112981

0.0183568
0.02880168
-0.06357801
-0.18486607
-0.00050473213
0.0064305067
-0.0053972006
-0.0015277863
0.06640029
0.049800515
-0.0509398
0.004899502
-0.07061696
0.051529527
-0.055710196
-0.003909588
-0.065929055
0.034858942
0.014311314
0.006704569
0.043289542
0.0014654398
-0.05707574
-0.07649672
-0.049280286
0.048464537
-0.0075592995
0.024235725
0.056210995
0.08290136
0.06481004
0.027321935
0.10775912
0.05622542
-0.22649622
0.0045679808
0.017432809
-0.17204106
-0.0368253
0.041476488
0.083967805
0.028758764
0.073145986
0.05608821
0.014165044
0.0013238192
-0.05578971
-0.019269824
-0.0072267056
-0.05678165
-0.026748657
-0.014054894
0.010752916
-0.03185904
0.13745034
-0.021352053
0.013725162
-0.0060139894
0.011171699
-0.075225115
-0.027857184
0.020958066
0.022373438
0.009667754
0.022009969
-0.004979372
-0.04549551
0.07050502
-0.03948021
-0.0061815977
0.01778841
0.094534755
-0.06397617
-0.0065846443
0.00755322
0.08422041
-0.0074909925
0.051292777
0.013608336
-0.03789568
-0.0016599894
0.09615505
-0.006260395
-0.02524364
0.045572758
-0.03762436
-0.019389749
-0.10401487
0.07635176
0.0026888847
0.01980102
0.07448888
0.016904593
0.08342934
0.03985679
0.0024889708
0.005084276
0.044958472
-0.0030596256
-0.0074703693
0.008102655
-0.16381276
-0.01752019
-0.038051605
-0.06817293
0.0031530857
0.016256452
-0.046791434
-0.0070394278
0.024939299
-0.0018795729
0.06571114
-0.044575334
0.019694924
-0.02613473
-0.053224206
0.030079484
0.07725966
-0.06964433
0.03861034
-0.013042688
-0.07677567
-0.011312485
0.06686962
0.022508025
0.0095255375
0.044425964
-0.073328614

-0.009960413
0.0005232096
-0.06690097
-0.02741146
-0.057568192
0.004909754
-0.025703788
0.06651795
0.012193322
-0.017313123
-0.04887545
-0.006754756
0.0012190342
0.0018337965
0.014922142
0.015048981
0.019488215
0.069874525
0.0014919043
0.026935697
0.011836648
-0.00809896
-0.06536305
-0.025295138
-0.021483779
0.0006674528
-0.005210638
0.004314542
0.008387446
-0.011094928
0.028238535
0.022824407
0.032718897
0.012794733
-0.023485899
0.0020356178
-0.011308908
-0.019929647
-0.0018577576
-0.06308067
-0.0027922392
0.0002617836
0.020576239
-0.0034928322
0.072475314
0.007858515
-0.09947264
0.05657649
-0.01784122
0.03657353
0.009345531
0.027070284
0.011084914
0.00066125393
0.00019538403
0.05689037
0.034830093
0.030221105
0.0007683039
0.0354563
0.027089238
0.017725825
0.03604448
-0.0034508705
0.058830738
0.0065187216
-0.020785809
0.044533014
-0.005792141
0.0014593601
0.00044822693
-0.05933392
0.0013324022
0.00053703785
-0.0036752224
-0.01693976
0.010737777
0.056782603
-0.06511116
-0.010132909
0.031035423
-0.060978055
-0.055125833
0.0004426241
-0.042517185
-0.025350451
0.046001673
-0.0025886297
-0.0016607046
0.0006971359
-0.03826058
0.047400475
0.039181232
-0.00050508976
0.04472518
-0.02999711
0.044050813
0.021554947
0.0010288954
0.01233685
0.017982364
0.022966266
0.0001718998
-0.00053346157
-0.05294168
-0.010903478
0.0033881664
0.031667233
0.04738736
0.02118969
0.00062179565
0.015320897
-0.0048042536
0.003312111
-0.013003588
0.015212178
-0.0050746202
0.003472805
-0.025539875
-0.028190732
-0.061604857
-0.025204182
-0.06718683
0.028801084
0.066872954
-0.009719133
0.0017790794
0.022224307
-0.08884239
-0.011783719
-0.029959679
0.02006042
-0.0255723
-0.0016754866
0.027098656
0.010652661
0.022006989
-0.009832859
0.044214845
0.00754714
0.0065060854
0.00011026859
-0.0023998022
0.013312459
0.030483484
-0.01677835
0.021921992
0.032639146
0.024854422
0.034769773
0.0028518438
-0.043356776
0.030464768
-0.004340768
0.007778883
0.0027946234
0.04276383
0.04472208
0.0021157265
-0.0040397644
-0.0025109053
-0.052369356
-0.038366914
-0.054615736
-0.014352679
0.0018200874
-0.0013786554
-0.042963862
0.03483045
0.062562466
0.0014908314
-0.0022412539
-0.030505896
0.021564126
-0.018541217
0.052832365
0.038755655
-0.045996666
0.004086256
0.036086082
-0.0011487007
0.019630194
0.03194487
-0.033517957
-0.0074038506
0.028136373
-0.038622975
-0.06725669
0.0029747486
-0.038687587
0.018766403
0.044677258
0.04357791
0.002893567
-0.014001727
-0.026460886
0.012689948
-0.081685066
-0.09336233
-0.0052189827
-0.03819394
-0.05238521
0.042007565
0.052072406
0.013085246
0.0025957823
0.035089016
0.0109859705
0.023877144
-0.0043388605
-0.05567622
-0.059417725
-0.000207901
-0.046893716
0.043226838
0.035701394
-0.00011897087
-0.0026773214
0.008308053
0.004213929
0.022743106
0.022213578
-0.044997454
-0.0031217337
-0.0075861216
-0.008607745
0.01627779
-0.032641172
0.031918168
-0.00897789
-0.047526717
-0.041035295
-0.018921614
0.031779528
-0.07355666
-0.030035853
0.087120056
0.051935196
-0.045082927
0.0391562
0.027718186
-0.00014531612
-0.120226264
-0.012757301
0.014327049
0.008616924
0.011311889
-0.0020492077
0.0009725094
-0.006019473
-0.028191328
0.011204481
0.0059348345
-0.031517625
-0.02147019
0.007766366

-0.01216197
0.0045051575
0.0208807
0.00045001507
-0.00290668
-0.060626745
0.020027399
0.03978455
5.1259995e-06
0.047599792
-0.01880455
-0.013391972
-0.0010968447
0.017629266
-0.037515044
-0.02778697
-0.014402986
-0.05500686
0.0007919073
-0.013068795
0.009994507
0.008728862
0.017502666
-0.00320673
0.003657937
-0.006845832
0.0018291473
-0.0018708706
0.020869136
0.14723301
-0.0077490807
-0.048681736
-0.046540856
0.029869914
0.011600137
-0.013643622
0.0073269606
-0.047341824
-0.013878107
-0.014582634
0.001619935
0.014055967
0.040291548
0.013879538
-0.007920027
0.0063807964
0.059611917
0.0020000935
0.008370519
0.00022983551
-0.023026347
0.019894958
0.047840238
-0.026531577
0.049800992
0.00560236
0.029096484
-0.058688283
-0.023465872
-0.041060448
-0.0126719475
-0.08619285
-0.035003066
-0.007581353
0.039647102
-0.0043052435
-0.0048662424
0.023589492
-0.015393376
0.0073262453
0.0278095
-0.07409656
0.0019443035
0.00061297417
0.0056825876
0.03039527
-0.0154976845
-0.069820285
0.023953557
0.023331165
0.026993513
0.019325018
-0.0054633617
-0.004110217
0.017267108
-0.038803577
0.035935402
-0.019117475
0.033838034
-0.04473138
-0.0026210546
0.00060129166
-0.015164018
0.026936293
0.024375796
0.006557226
0.028710723
-0.019609332
0.010840535
0.052489877
-0.009078026
-0.059494734
0.011115193
-0.07380271
0.010600448
-0.008757949
0.023790717
-0.046489358
-0.053363204
-0.009967923
-0.0032566786
-0.008179188
-0.012825847
0.007243991
0.028488517
0.02123344
0.01717794
0.012260675
0.01734066
-0.015119791
-0.01183641
0.0019714832
0.0027787685
0.00546062
-0.0332402
-0.0025031567
-0.0031539202
0.029278398
-0.0090043545
0.019203067
0.015783072
-0.02932465
0.020580411
0.039363503
0.0072612762
0.012699962
-0.021848917
0.019682527
0.007925153
0.042217374
-0.0027611256
0.03342855
0.03880632
0.03787279
0.008714676
-0.0040504932
0.011358261
0.035632253
-0.102564216
0.030813098
0.042842746
0.0106858015
-2.8967857e-05
-0.006618738
-0.017881393
0.0024858713
-0.051866055
-0.021639824
-0.005456686
0.0044225454
-0.057822585
0.0032773018
-0.03336191
0.07702184
0.02453518
-0.006328225
0.030237794
-0.013552666
0.01355052
-0.0011188984
-0.025061488
0.012791276
0.005081415
-0.003005743
0.0196985
0.005742669
0.013381839
0.011594653
-0.056958675
-0.03907442
-0.06599772
0.015420437
-0.0025199652
-0.0051510334
-0.05321908
0.014163852
-0.008146167
-0.0009970665
-0.076649666
-0.04775703
0.0005171299
-0.018289208
0.03081739
0.06720412
-0.0054762363
0.0013930798
-0.051057816
0.037942648
7.510185e-05
0.009167552
0.0013507605
0.014230251
0.005927801
0.01783061
-0.035542727
-0.018063068
-0.005399227
-0.035950065
0.03260207
-0.03490901
-0.023533225
0.001075983
0.025698543
0.032221794
-0.021182418
0.0022985935
0.022436619
-0.004974842
0.026976466
0.10274577
-0.0019661188
-0.046010375
-0.04332912
0.025246382
-0.024665594
0.041306615
-0.0017515421
0.00230515
0.002491951
-0.039761424
-0.025756717
-0.011453509
-0.02272296
-0.007696986
-0.011994004
-0.0018811226
-0.014172435
0.002906561
-0.034970522
0.009011865
0.0068837404
0.016707778
-0.044520736
0.0055533648
0.02150333
0.043473244
-0.017198205
0.015639424
0.03404033
0.019010305
-0.036676884
-0.015391707
0.009962082
0.019580364
0.047537684
0.0582546

0.06880796
-0.019896626
-0.018446207
-0.0020399094
0.010100365
0.020309329
0.035129905
0.01663673
0.02877438
8.678436e-05
0.00371778
0.024707913
0.036593676
-0.052907348
0.004953742
0.04361534
-0.011833072
-0.0025271177
0.049967647
0.03309858
0.0022230148
-0.0047705173
-0.0044152737
-0.013403773
-0.01702118
-0.0058374405
-0.00020265579
0.053919196
-0.058351994
-0.014831781
-0.00892508
-0.011647344
0.013358712
0.0001809597
0.011246085
0.022637248
0.022610903
9.775162e-05
-0.03986299
0.0018908978
0.03470385
0.043427587
-0.017052174
-0.028052568
-0.05156803
0.00047445297
0.027092814
0.0047967434
0.07812476
0.0327605
-0.030845404
0.0019248724
0.00044846535
0.04510033
0.030435085
0.009583354
-0.020296574
-0.081620455
0.009045601
0.06185782
0.00052940845
0.016652107
-0.0402776
0.0050046444
-0.014970183
-0.01286757
0.06255591
-0.03573048
-0.013278961
0.015634775
-0.027373672
0.03869021
-0.024139524
-0.0037455559
0.02737689
0.0719831
-0.0023739338
-0.0251925
-0.019668102
0.005087614
0.037036538
0.027267218
-0.007502079
0.03883958
-0.009680986
0.0073764324
0.011256695
0.0038985014
-0.0142138
-0.06722367
-0.020619273
0.006958604
-0.035381198
-0.014543533
0.00067424774
0.077763915
-0.034577012
0.019128561
0.014074206
-0.012636185
-0.00902462
-0.020611525
0.0023115873
0.02622497
0.010084629
-0.021571875
0.014388442
-0.061173677
-0.032458186
-0.023182034
-0.046139
0.044132233
0.0029661655
0.011513233
0.023899198
-0.022160769
-0.012895107
0.06659508
0.07333267
0.013774991
-0.054262996
0.057249904
0.022298932
0.006752372
-0.035115838
0.0037834644
-0.00446558
0.011504769
-0.014092207
-0.0075558424
-0.049627304
-0.024794698
-0.018031359
0.016294003
-0.015794635
0.008763909
0.02838087
0.021685481
0.04780543
-0.0069713593
0.005116105
-0.0039012432
0.058526874
-0.05652809
-0.099062204
0.019967318
-0.037222862
-0.08968449
0.035097122
-0.021962404
0.050013423
-0.0035883188
0.021539211
-0.0054608583
-0.02655685
0.024916887
0.017409444
-0.011653423
-0.016464591
0.05942118
0.035743833
0.0077474117
-0.039960742
-0.047527432
0.011879683
-0.024093986
0.02565229
-0.009009242
-0.10224843
0.035241246
-0.0021703243
-0.0034672022
-0.04283929
-0.02415526
-0.051201344
0.061615705
-0.0054055452
0.029080987
-0.04796517
0.012927175
-0.017320275
-0.003767848
0.0170815
-0.04363346
-0.013345957
0.0045892
-0.0066400766
0.0014470816
-0.006324768
0.026854396
-0.00063705444
0.0017513037
0.00064241886
0.022475481
-0.00052928925
-0.069604754
-0.00872612
0.018828392
0.013502598
-0.055806756
-0.0060886145
0.061131716
-0.023120522
-0.060743332
0.0042574406
0.018957973
0.02984035
-0.0062440634
-0.06172061
0.002990365
0.023847342
0.0012830496
-0.012018561
-0.025293827
-0.0007842779
0.01922369
-0.03095758
-0.07132959
0.022289038
-0.027036428
0.0075212717
-0.011222243
0.04064226
0.028653622
-0.018748045
0.0074267387
0.036954165
0.012101412
-0.022026658
-0.0004338026
0.0021226406
-0.0034389496
-0.0045417547
-0.04549384
0.005711913
-0.033303738
0.024948955
0.042176843
-0.038441658
0.02088058
-0.029641151
0.042659402
0.06457603
-0.05007422
0.03069508
-0.02553153
0.026148915
0.05209589
-0.040312767
-0.07923806
-0.0046038628
0.0047643185
-0.018392801
0.018406987
-0.028211713
0.032499075

-0.01411891
-0.022675157
0.0033700466
-0.029517412
0.011561871
-0.010349274
0.010699153
0.0143175125
0.00053167343
-0.025046587
0.02201879
0.007902384
-0.017476916
0.039373755
-0.034140468
-0.069000125
0.0048983097
0.0049208403
0.02170825
-0.026743293
0.00013148785
-0.008285403
-0.041386366
0.024767041
0.0431571
-0.028169155
0.0069937706
-0.015825748
0.022863746
0.00095272064
-0.008950591
-0.010602474
-0.0037864447
-0.04914558
0.02884543
-0.0088220835
-0.0363822
0.038614392
0.018332005
-0.0015054941
-0.0028779507
0.011335254
-0.01966834
0.0088380575
0.001178503
-0.0012073517
0.0048463345
-0.05545628
-0.035945892
-0.016626596
0.016543508
-0.0013728142
0.033451676
0.019222856
0.0076510906
-0.012995243
-0.021557093
-0.0011048317
0.012047648
0.016935825
0.019266486
-0.04669094
0.010789752
0.011991024
-0.008015394
0.011110306
0.0050224066
-0.0032446384
0.0037066936
-0.0032019615
-0.0026911497
0.015662074
-0.045328856
-0.00598228
-0.00068843365
-0.0036153793
0.005990267
-0.034912467
-0.014526725
0.010422587
-0.026459813
0.0027931929
-0.010135055
0.0046248436
0.009339452
0.0014572144
0.021368265
-0.024755836
0.0076942444
-0.009144664
-0.035394788
0.0046983957
0.008745074
0.019048333
-0.0095950365
0.033851504
0.021452308
0.006598711
0.04699087
-0.01926291
-0.029979587
-0.0320462
-0.0038206577
0.016532898
-0.0063900948
0.0014797449
-0.024228334
0.039243937
-0.030727506
-0.026765347
-0.009454727
0.012184739
0.011445284
0.020001173
0.017099023
0.01834333
0.02302134
0.013477802
0.025031447
0.023792624
-0.0054545403
-0.044898033
0.04283631
0.024251342
0.019927979
8.022785e-05
0.013338327
0.014288306
0.014434338
0.0032482147
0.020115733
-0.032243133
0.0024094582
-0.00047910213
0.042636514
-0.034374833
0.028433561
-0.00016903877
0.008190393
0.005959749
0.0057840347
0.02886641
6.043911e-05
0.014882922
-0.011653304
-0.022042513
0.01676619
-0.044261217
-0.021248698
0.0017969608
0.024091959
-0.024725795
-0.0016171932
-0.013236642
-0.006877184
0.00012612343
0.004742503
-0.027646184
-0.007278204
0.0056148767
0.043430448
0.034245014
0.013932943
-0.0056114197
0.008172274
0.022700548
0.033075333
0.00726068
0.0014451742
0.004252076
-0.01749897
-0.004029393
-0.033922434
0.025748372
-0.000603199
-0.0053800344
0.029564977
0.03154528
-0.013870835
0.0054695606
0.0074031353
0.005893588
0.0050034523
-0.0011461973
0.02053845
-0.026299238
0.0125210285
0.0033240318
-0.037513256
0.014683247
-0.04817748
-0.0010781288
0.023708582
0.0019905567
0.018933773
-0.023409605
0.010497689
0.0462054
-0.0064998865
0.013190508
-0.0072444677
-0.015913844
-0.0013239384
0.009521484
-0.008776188
0.004314661
0.015806556
0.0034747124
-0.015341401
-0.0074601173
-0.018135428
-0.0015211105
-0.013356209
-0.0040825605
-0.017584562
-0.013066053
0.020250201
-0.013846874
0.0224756
0.013007879
-0.0017887354
-0.0038256645
0.01646924
0.039409637
0.0038135052
0.0013939142
-0.007746458
0.0010919571
-0.00034284592
0.0073542595
-0.0035309792
0.017772198
-0.015291095
-0.04280317
-0.007897496
0.036920547
0.006453991
0.020695448
0.008862495
0.013283968
-0.009362221
0.0158993
-0.018133998
-0.07848859
-0.02126515
-0.0034344196
0.020318031
0.0040260553
0.017816901
-0.012970805
0.036028504
-0.01043129
-0.011550546
-0.01787877
-0.0004762411
0.008128047
-0.018969297
0.0017306805
-0.009851098
0.004235387
-0.020997047
-0.014899373
0.010812283
-0.0008099079
-0.0149508715
-0.040349722
0.029267669
0.025384903
0.01942432
-0.0024273396
-0.01380682
-0.0052542686
-0.0022974014
0.027950287
0.0026134253
0.0326308
-0.015040159
-0.014754891
0.008459568
0.028841138
-0.00818038
-0.0048304796
-0.012763619
-0.003954053
-0.037404656
0.032484055
-0.0050162077
-0.015235186
0.018524408
0.026983142
-0.019123435
-0.009350419
0.036163926
0.014828682
-0.018867612
0.041333914
0.008264184
0.010791063
-0.024018764
-0.013953447
0.013120174
0.0036605597
0.012435436
0.013010144
-0.031814694
0.0032647848
0.002438426
-0.08473945
-0.00956583
0.038655043
0.00012946129
-0.007558346
0.005281329
0.0060043335
0.039066315
-0.014329553
0.01959467
-0.00048017502
0.004502058
-0.038900256
0.0042597055
-0.0016747713
0.02365899
-0.005955696
0.039560914
0.03813994
-0.002491951
-0.0022252798
-0.0035156012
-0.022336006
0.022804022
0.008638263
0.018581033
0.00076699257
-0.054801226
-0.012102962
0.003750801
0.00985682
0.023984551
0.012516618
0.0014042854
-0.020675302
-0.0032087564
0.0071326494
0.04976964
-0.046253443
-0.008816719
-0.025852919
0.023967147
0.018478751
0.0126719475
-0.028541803
-0.033396125
0.012597561
-0.013186097
-0.017088056
0.016257167
0.0057834387
-0.019356132
0.017913818
0.01673305
0.03238833
0.051162362
0.040828347
-0.0145481825
-0.0023815632
-0.017062545
0.029519796
0.0017664433
0.010843396
-0.0041713715
-0.02377069
-0.0012940168
0.0053488016
0.019243479
0.008023977
-0.012727857
0.012586951
-0.0023052692
0.03550732
0.03334129
0.012166262
-0.001865983
-0.053093433
0.0037138462
-0.0014226437
-0.004561782
-0.047966003
-0.022280097
0.0037810802
0.021534085
-0.022399902
0.042071342
-0.023579717
0.011891484
-0.0123142
-0.0024701357
0.029243112
-0.01404798
-0.012033582
0.01785767
-0.038775206
-0.0018757582
0.009194255
0.014755249
0.010509849
0.010153532
0.005560994
0.018645763
0.0030466318
0.013846874
0.023105979
0.043287158
0.0184834
-0.009120941
-0.014656305
0.00912261
-0.007912874
0.009119034
0.020165563
0.008902788
0.006641388
0.030173063
-0.0025632381
0.03454578
0.011694431
-0.012542486
-0.00011217594
0.0036705732
-0.01315856
-0.0071800947
-0.024025798
0.006741643
-0.025024414
0.007546544
-0.014612198
0.0146564245
-0.02400434
-0.08263147
0.0050257444
-0.0004130602
0.034133792
-0.03575158
-0.04407811
0.01675725
0.017179012
0.002411127
-0.035411596
0.0084962845
0.0019618273
-0.016630888
-0.029963017
0.01418972
0.02547896
-0.008899927
0.013134003
0.019760251
-0.0060726404
-0.011280179
-0.00052058697
-0.008867741
-0.03229177
-0.018639803
0.0026648045
-0.030310988
-0.062675595
0.0074830055
0.0025250912
-0.022796035
0.015644312
-0.027205586
0.009275079
0.009316564
-0.023419857
0.004013777
-0.0052685738
0.017222404
-0.0004402399
0.0021487474
-0.011599302
0.008449793
0.0031951666
0.0039200783
-0.0035659075
0.017701745
-0.004238367
-0.026515007
-0.009304047
-0.021710396
0.015715599
0.0056443214
-0.0038266182
-0.00572443
-0.02101779
0.0061540604
-0.009570599
-0.014662266
0.01788497
-0.062381983
-0.00014686584
7.05719e-05
-0.010859132
-0.0020549297
-0.008353829
-0.037753105
-0.004229903
0.0012432337
-0.027540803
0.0103935
0.009310842
-0.005804777
0.006938219

0.005291939
-0.016268969
-0.008906722
-0.012072921
0.008959055
0.007857561
0.0017539263
0.011432409
-0.0029650927
0.014251113
-0.011831999
0.027140975
-0.0017263889
0.0004938841
-0.0011285543
-0.0023326874
0.004609823
-0.0008288622
0.04338324
-0.016220927
0.006259322
0.013933659
0.005815387
0.024156332
0.007840514
0.023670077
-0.039302707
-0.029545069
-0.0009884834
-0.01215744
-0.0050628185
-0.017493725
-0.015946627
0.020487785
0.010415912
0.00432384
-0.0016832352
0.007670164
-0.019097567
-0.0054314137
-0.024348259
-0.015064716
-0.0041763783
0.034599543
0.008175135
-0.012410879
0.0039503574
-0.007175684
-0.015255094
0.0092417
-0.014899254
0.009711146
-0.010439038
0.008944392
-0.010280132
0.0020873547
0.0025314093
0.011549473
0.007259369
-0.014244199
-0.029444933
-0.015086412
0.012220621
-0.00031626225
-0.014812589
-0.0036648512
0.012520909
0.0067431927
0.0099157095
0.010566354
0.005046129
-0.015412569
0.013946772
0.01498878
-0.020007253
-0.013843417
0.0097334385
0.015177727
-0.02683568
-0.0045604706
0.035474777
-0.0071419477
-0.015643358
-0.0064748526
0.00044465065
0.037428856
0.007741332
0.036961317
0.00015938282
-0.0070068836
-0.0342052
0.010212302
-0.010822773
-0.010050297
-0.052618623
-0.016595244
-0.0048692226
0.0119303465
0.014566302
0.0005759001
0.0020639896
-0.032803178
-0.009889841
-0.013509631
-0.001506567
0.0012708902
-0.003673911
0.0053926706
0.03583324
0.0012352467
0.010964513
-0.02454412
-0.026627302
-0.011330128
0.04064262
0.03699875
-0.021316051
-0.015319347
0.054065228
0.001234889
0.008439183
-0.0030702353
0.00908339
-0.0070072412
0.013496637
-0.01008141
-0.0024261475
0.0056456327
-0.008917451
0.0034937859
0.0035620928
-0.021760464
0.014843702
-0.019178629
-0.018815517
0.0019021034
-0.003376007
-0.0313915
-0.0013535023
0.0155489445
0.0075844526
0.022216797
0.012731791
0.020830393
-0.006926775
0.007939339
-0.0098257065
0.017526507
-0.00035202503
-0.009269476
-0.005488634
0.0064480305
0.010058045
0.004196644
-0.015418172
-0.008408904
-0.007041812
-0.019683957
-0.0012401342
0.006799102
-0.042220235
-0.0014612675
0.021962881
-0.028132081
-0.015166879
0.0029126406
-0.010771155
-0.021260738
0.013426065
0.0045251846
-0.005490303
0.033689022
0.0045884848
0.00837934
-0.009232402
-0.014868021
0.0060714483
-0.004704237
0.0111448765
0.0040847063
-0.034485817
-0.0009914637
-0.02273333
-0.0011664629
0.008386612
0.0019931793
0.007829547
-0.013310909
0.0071122646
-0.010584116
7.867813e-05
-0.021834731
-0.026878834
-0.0076853037
0.030875683
0.012947321
-0.01737845
0.034454703
-0.008187413
-0.0053179264
-0.0019747019
-0.0030430555
-0.008603096
-0.030534625
0.022014856
0.0016014576
-0.018247724
-0.0014219284
-0.010906935
0.0015985966
-0.01860702
-0.01588726
-0.027264595
-0.0016672611
-0.0094617605
0.025400281
0.0039100647
-0.0060367584
0.005163789
-0.084156275
0.012154222
0.018455386
0.008774757
0.026866913
0.030590057
0.015989661
-0.001625061
0.0036931038
-0.03178203
-0.021950006
-0.03460741
0.022237897
0.010682225
0.017270803
-0.019294381
0.022960067
0.020559192
0.05720222
0.035641193
0.008367419
0.021558523
-0.003193736
-0.0071954727
-0.004371166
-0.001796484
-0.00144279
0.015441537
-0.00974834
-0.015993118
0.02423215
0.001496315
-0.001866579
0.003971696
-0.014276862
-0.0003694296
-0.0063661337
0.0063569546
0.005268097
-0.047845364
-0.0017498732
0.038964033
0.0073400736
0.012713194
0.0035514832
0.013174534
0.006426573
0.0015763044
-0.0013723373
0.027675986
-0.024979115
-0.01690054
0.032236338
0.024903536
-0.0061599016
0.011521697
0.01892662
-0.003651023
-0.010228753
-0.00968051
-0.004279852
-0.0029375553
0.037967443
0.039418936
0.012007475
-0.03583455
0.002833724
-0.0023335218
-0.012163281
0.0054404736
-0.03924668
-0.00016260147
-0.012313604
-0.0042852163
-0.020488858
0.0025373697
0.01674521
0.001491189
0.025164247
0.0029917955
-0.016726732
0.0049368143
0.0055505037
0.020757198
0.033912778
0.020387769
-0.006476164
0.000426054
-0.03600812
0.0349344
-0.015767336
-0.018409252
0.036442995
-0.0035369396
-0.01195395
-0.008366942
-0.008219361
0.0027285814
-0.0077437162
-0.0023179054
0.027626753
-0.007729292
-0.008566499
-0.0055772066
-0.0144302845
-0.028365612
0.015554547
0.011757851
-0.018232107
-0.002080202
-0.006771803
0.008623719
-0.012380719
0.0074288845
0.013082862
-0.001675725
-0.042244673
-0.0024067163
-0.029381514
0.012080193
-0.008547902
-0.014762998
0.013873577
0.009479046
-0.0015245676
-0.0013477802
0.009042382
0.0170964
-0.008000374
0.0043600798
-0.016617656
0.030830383
-0.0046007633
0.0045696497
0.036259532
-0.003292799
0.00190413
0.022164345
0.003824234
0.0076099634
0.00819993
0.028714538
-0.016099334
0.0002645254
-0.0043075085
0.0071719885
0.051436543
0.0022788048
0.003616929
-0.007016301
-0.016931534
-0.00053453445
-0.0020157099
0.0024451017
0.01192987
0.0069277287
-0.043618202
-0.034325838
-0.0036503077
0.021662474
-0.013916731
-0.03867674
-0.02108264
-0.003202796
0.0062761307
-0.037390947
-0.02579379
0.0011036396
-0.029763222
-0.043245316
-0.0123637915
0.03341949
-0.026966691
0.027294874
0.0064743757
6.6399574e-05
-0.041631818
0.0064305067
-0.008010268
0.003951788
-0.010667205
0.008681774
0.030825019
-0.04230416
0.018280745
0.004472494
-0.0062223673
0.056759596
0.0017724037
0.009182811
0.005524516
-0.0035192966
0.019536018
0.0047830343
-0.035390735
-0.023828864
0.011222482
0.02109158
0.0005476475
-0.006593585
-0.0018143654
-0.010388613
-0.04161334
0.01319325
-0.02701211
0.021389961
-0.012561202
0.003911853
0.0015511513
-0.01239574
-0.016487837
0.0026803017
0.0033904314
-0.0046173334
0.005829811
-0.0195117
-0.009307146
-0.010731101
0.003389001
-0.0092231035
0.0012875795
0.0036816597
-0.015968561
0.008473873
-0.00875926
0.010527492
0.052790403
0.042296886
0.0037864447
0.019140124
0.0023982525
0.010155201
0.012394428
0.025884748
0.021444082
0.01951778
-0.008076072
-0.0012845993
0.044273734
-0.0097965
0.010488868
0.017129421
-0.03065145
0.015009761
0.01700759
-0.0051288605
-0.004441023
0.0121907
-0.013366103
-0.01684165
-0.0032571554
0.0173738
-0.03921187
-0.016037107
-0.03185129
-0.026665688
-0.015876174
-0.011422515
0.0019260645
0.0026681423
-0.002686739
0.019851327
-0.007662058
0.008840799
0.0013046265
0.0066843033
-0.0017518997
0.024404407
0.017741442
0.0061252117
0.033703923
-0.019625783
-0.02616477
-0.013286471
-0.013165593
-0.0016863346
-0.0026896
-0.021544695
0.0003477335
0.022905946
-0.022059083
-0.0044589043
0.004732132
-0.003428936
0.0062783957
0.016129851
0.008037925
-0.008013725
0.007756233
0.0009723902
-0.0012142658
-0.0009198189
0.025825977

0.0012748241
-0.0019780397
-0.003704667
-0.008067489
0.003001213
0.02316022
-0.00088334084
0.011916876
-0.020083189
-0.0073258877
0.004486203
-0.008585811
-0.021917105
0.00737834
0.0023072958
0.031976342
-0.00015807152
0.00018429756
-0.008598924
0.00036001205
-0.0041081905
-0.0019096136
-0.0023179054
0.0036039352
0.0021083355
0.016830802
-0.0045318604
0.0010583401
0.012249112
0.0036389828
-0.0074931383
0.0024493933
-0.014385939
-0.0016884804
-0.026506305
-0.0021995306
0.0048720837
0.0028260946
0.0028575659
0.0013833046
-0.018226981
0.006629586
-0.0064041615
-0.018680573
8.6426735e-05
-0.008316278
-0.009096146
-0.0026961565
-0.00728333
-0.012495995
-0.0045900345
0.0025020838
0.0070643425
0.009193301
0.01318562
0.005287051
-0.011896372
7.355213e-05
0.00094377995
-0.008669615
0.000549078
0.0014593601
-0.0016692877
-0.010909677
0.011534572
0.0015051365
0.010449171
-0.0016038418
-0.007080078
0.0027464628
0.008208275
-0.0075285435
-0.012874365
0.010053515
0.02898264
0.0020635128
-0.0007381439
0.044397354
0.00095677376
-0.0047935247
0.0015027523
0.01777935
0.007826328
-0.023169994
-0.04395652
-0.020055056
0.011737704
0.012563944
0.0017067194
0.00051498413
-0.0024164915
-0.016816497
0.00017309189
0.015627742
0.011965513
-0.006313443
0.0010221004
-0.014912248
0.012559772
-0.0058259964
-0.0023339987
-0.0067611933
-0.011198044
-0.0072945356
0.013754964
-0.014438868
-0.0017496347
0.022408247
0.012910843
-0.0032031536
0.007218361
0.006931901
-0.019914746
0.012830734
0.008624911
-0.021333933
-0.010924339
-0.0035831928
0.012552381
0.044871926
0.021241307
0.021536231
0.014772773
0.005218148
-0.0026887655
0.024823189
-0.00028300285
0.054922223
0.003195405
-0.010482073
-0.015972376
-0.006631613
0.0066785812
-0.009557128
0.013804674
-0.003829956
-0.0021520853
-0.0034490824
0.0051338673
-0.007381201
-0.0006661415
0.0077251196
0.0047926903
0.012394786
0.01436913
-0.013049841
-0.028137326
0.014271617
0.0011632442
-0.006149411
-0.003906846
0.00043070316
-0.0059924126
0.03568554
0.0025138855
-0.008620977
-0.0051904917
-0.00094497204
-0.0024262667
-0.006738186
-0.0134135485
0.003635645
-0.008734107
0.010439396
0.01036799
-0.018375397
0.0048618317
-0.02977252
0.003471136
-0.003546834
-0.0039167404
-0.0041525364
-0.013814449
0.0017738342
0.015900373
-0.007547617
-0.007820487
-0.0027900934
0.007909775
0.006594658
0.0029418468
-0.006451726
0.007842183
-0.026650906
0.005865097
-0.007245183
0.0010284185
0.0033540726
-0.0077154636
0.0021423101
-0.014382362
0.0027866364
0.008228183
-0.004167676
-0.008003831
0.014172912
0.011038661
-0.0032049417
-0.015163302
0.020370603
-0.009642124
0.0014573336
-0.005513072
0.0076675415
0.009616256
-0.0018978119
-0.005866885
-0.011703014
-0.003053069
-0.015099525
0.011536479
0.0030264854
-0.058516383
0.004943967
0.0017156601
-0.0073639154
0.00072956085
-0.0048060417
-0.0019305944
-0.030948162
-0.018897533
-0.020432353
0.007105112
0.010711193
0.0016351938
-0.00064468384
0.00076544285
0.012886405
-0.011119008
-0.0048009157
-0.022034407
-0.0062093735
0.0025018454
0.0026192665
0.024716973
0.0088135
-0.005091667
0.0065910816
0.028869748
0.011041164
-0.021307707
-0.0012913942
-0.016438365
-0.015732765
0.0027930737
0.011422157
0.002436161
0.03926301
-0.009128451
-0.009976625
-0.016658187
-0.01773429
0.010035038
0.022854686
0.013058901
0.0057809353
-0.007249236
-0.0052968264
0.00028204918
-0.03873241
-0.012377739
0.0051184893
3.2782555e-05
0.00952363
0.0042051077
0.028051615
-0.0024696589
0.0015957355
-0.009232044
0.0106778145
-0.0014873743
0.023889184
0.013656616
0.0031147003
0.020926476
0.003246069
0.0027635098
-0.00077569485
0.04213965
0.014090896
-0.022384644
-0.009158134
0.0011987686
-0.013972878
0.012541413
0.0014020205
0.014262557
0.016686797
0.0052593946
-0.0005518198
0.0005713701
0.018909931
-0.0033566952
-0.0047676563
0.01996088
0.002697587
0.025027275
0.015200734
-0.0054143667
-0.0060095787
-0.0057405233
-0.0041840076
0.0060504675
0.0049409866
0.010625005
0.012631774
0.006293535
-0.005657077
0.0047701597
0.0028585196
0.008497
-0.00218606
-0.009042025
0.0075684786
-0.0017169714
0.0077605247
0.0070956945
0.0052286386
0.0062953234
0.008016348
0.009984016
-0.0007197857
-0.018348575
-0.031600833
-0.0061131716
0.0015881062
-0.0040006638
-0.0062464476
0.0024635792
0.054071784
-0.0050485134
-0.00064742565
-0.03475976
0.004855871
-0.003747344
0.003152728
-0.023892283
0.002650261
0.005435109
-0.013457179
-0.0029921532
0.008977056
-0.0053771734
-0.01175189
-0.0013552904
-0.0084991455
-0.011786461
-0.015791774
-0.021963
-0.014106989
-0.005972743
-0.012593508
0.0007829666
0.0034948587
0.005478382
0.0059794188
0.0027142763
0.0025542974
0.0028970242
-0.033684373
-0.007212162
0.010503888
0.005294442
0.0074568987
0.008907795
-0.0060697794
0.0072063208
-0.0024507046
0.0024585724
0.01605761
0.012586236
-0.0900774
0.011334777
-0.00084733963
0.010390282
0.0011315346
0.004216671
-0.005722761
0.004327178
0.0015465021
-0.01580286
-0.023571968
-0.0019266605
-0.014571428
-0.0052722692
0.019521713
-0.00019001961
-0.0027880669
-0.0098359585
0.0066598654
-0.0008612871
0.00038194656
0.0014519691
-0.0033363104
0.0010942221
0.005327344
0.001376152
0.0102905035
-0.0075820684
0.02584529
0.01092577
-0.016245008
7.4744225e-05
-0.001850605
0.0119024515
0.018848658
0.0020114183
0.005383134
-0.008731008
-0.006696701
-0.00069987774
-0.0096770525
0.004926324
-0.0012199879
-0.0029848814
-0.00364995
-0.0102978945
-0.0062316656
-0.009871125
-0.003919482
0.0010166168
0.009619713
-0.007893324
-0.0015119314
0.0070050955
0.041524768
-0.011247635
-0.004791498
-0.012520671
-0.022610545
-0.023603678
0.0053141117
-0.001218915
0.0033762455
0.008929729
0.0027166605
0.0011206865
0.0018290281
-0.0057367086
-0.026004314
-0.0062254667
-0.0043723583
0.0010126829
0.011799455
-0.007764101
-0.0036661625
-0.0036325455
-0.0028305054
0.008962274
0.039206386
0.010738969
0.0036498308
0.0055491924
-0.002368331
0.011215568
0.033925653
0.005190015
0.0025582314
-0.0014081001
-0.028241754
0.028469086
-0.043782353
-0.026208162
-0.005242586
-0.0045325756
0.0035042763
0.0017852783
0.001241684
-0.0031766891
0.00053977966
-0.001282692
0.01233995
-0.0012928247
-0.021164656
-0.0031696558
-0.00022006035
-0.0008022785
-0.0023833513
-0.003169179
0.004154086
0.003494382
-0.0023305416
0.011005878
-0.007455349
-0.0027006865
0.0080554485
0.007568717
0.008223534
0.0021189451
0.0043216944
-0.0074368715
0.008487225
0.0009326935
0.007568121
-0.045570135
0.00021278858
-0.0023593903
0.009159327
-0.0017623901
-0.0038392544
0.010216117
0.0019468069
0.010422111
-0.022399783
0.00015938282
-0.005234003
-0.0020231009
-0.017095089
-0.019642472
0.0009012222
-0.0070011616
0.0044281483

-0.0056062937
0.009682655
0.0024073124
-0.0019936562
0.014322996
0.004745364
0.0012323856
0.0048235655
-0.001937747
0.0041977167
0.0034581423
-6.520748e-05
-0.0076828003
0.0019721985
-0.006668091
-0.0078060627
-0.0014467239
-0.000729084
-0.0006991625
0.009923935
-0.0033956766
-0.0047329664
-0.0020586252
-0.0019629002
0.0013664961
-0.018909216
-0.0033806562
0.0041041374
-0.0025345087
-0.007910252
0.0049505234
0.006930709
-0.007312894
0.0024154186
-0.00030648708
0.0030766726
-0.006147623
0.012045145
0.0040994883
0.0045380592
0.0025173426
-0.0029803514
0.0028208494
0.009159803
-0.02186215
-0.0058259964
-0.0027303696
0.021942496
0.0035299063
0.0061495304
0.008744717
0.004057765
0.006544471
-0.0022547245
-0.009039164
-0.0017147064
-0.0012321472
-0.0011678934
0.002266407
-0.0007289648
-0.0070693493
-0.0027028322
0.0025964975
0.0044515133
-0.0022025108
0.004361987
-0.006230235
0.0020945072
0.00076401234
0.0010279417
-0.0018817186
0.004999757
-0.0066018105
0.0017750263
-0.0023064613
0.0019329786
-0.00092339516
-0.0016332865
-0.00076007843
0.002328515
0.002161026
3.9339066e-05
0.008867502
-0.001812458
0.0020576715
0.003269434
-0.0060310364
0.0012973547
0.002429366
0.0053961277
-0.009115338
-0.002652049
-0.0021677017
0.00044953823
-0.0060111284
-0.00040638447
-0.0022099018
0.0024296045
0.0012669563
0.0056546926
0.00091958046
0.00037026405
0.0013270378
0.006949544
-0.0019620657
-0.0016345978
-0.000980854
-0.0064680576
0.0030676126
-0.0068171024
0.0058734417
-0.0036376715
-0.0007953644
-0.0018877983
0.006646514
0.008184433
0.001573801
-0.01077497
0.013305545
-0.0017096996
-0.017441511
-0.0036951303
0.0016298294
-0.00020575523
0.0026129484
0.0016217232
0.009383559
-0.0025230646
-0.0018292665
-0.00033009052
-0.0009214878
-0.008223534
0.001160264
0.0016356707
-0.0038775206
-0.004854083
0.0006670952
0.0015205145
0.008239508
-0.0022878647
0.0013548136
-0.0022267103
-0.00057280064
-0.0011687279
0.0048395395
-0.0005840063
-0.0021981
0.008131146
-0.008315444
-0.014535785
-0.0024952888
-0.0015234947
-0.006311178
-0.005503416
0.0050183535
-0.004131317
0.00081562996
0.018288732
0.011096835
0.007972479
-0.001004219
6.830692e-05
-0.0009824038
0.00031256676
0.006944537
0.0011333227
-0.0049334764
-0.004269719
0.0025393963
0.0060225725
-0.0019059181
0.0014387369
-0.0054832697
-0.0012900829
-0.0035555363
0.002645731
0.0019147396
0.0007352829
0.0021903515
-2.5510788e-05
-0.0018707514
0.0025568008
1.2278557e-05
-0.0044492483
0.005093813
0.00054872036
0.0020817518
0.008899689
-0.0022491217
0.013851523
0.013048887
0.0076123476
-0.011721253
-0.01257515
0.0037113428
-0.0014058352
-0.0020259619
0.0058629513
0.0039818287
-0.0019006729
0.0013276339
-0.007672906
0.0011515617
-0.0136396885
-0.0032368898
-0.011305213
-0.0030462742
-0.011311293
-0.0067662
0.00062918663
-0.007888079
-0.000697732
-0.0023206472
0.021559954
-0.0025494099
0.00109303
-0.0022631884
-0.0011044741
0.006998658
-0.0035079718
0.0011731386
0.0074009895
-0.005607605
0.0013910532
-0.003234744
-0.00055360794
-0.007820249
0.0006120205
-0.016397238
-0.0018054247
-0.0030984879
-0.005640626
-0.010982156
-0.0038790703
0.0027362108
0.0022348166
0.008359909
-0.0071572065
-0.0041817427
-0.0034424067
-0.0022031069
-0.0041166544
-0.013020992
0.0039880276
-0.0010867119
-0.0014094114
0.0005232096
-0.0035071373
0.0063130856
-0.0057053566
0.01572895
-0.0040853024
0.007952809
0.0020310879
0.004470706
0.006627798
-0.00046026707
0.00239861
0.0038003922
0.005230427
-0.006361246
0.0009448528
0.005951762
-0.005692601
-0.00094103813
0.0006586313
-0.0027879477
-0.0034202337
0.0042836666
-0.0064257383
0.00058841705
0.0010888577
0.00011539459
-0.0026259422
-0.0023976564
0.00036394596
0.0020986795
0.023877501
-0.0023852587
0.0017886162
-0.0018091202
0.001180172
-0.0029137135
0.00044476986
-0.0027856827
0.0017248392
-0.0034989119
-0.0047986507
-0.0011180639
0.013694286
0.0038102865
0.0046103
-0.0009057522
-0.00062048435
0.0039708614
-0.0015759468
0.004197359
0.0074402094
-0.0113556385
0.005747199
0.0036126375
-0.0017596483
-0.014946103
0.0020549297
-0.00024044514
0.005297065
0.004146099
0.0025131702
0.010693312
-0.0029120445
0.0076026917
-0.004453182
-0.007546425
0.0022267103
-0.0011607409
-3.552437e-05
0.0032974482
-0.0012590885
0.011657596
0.00077855587
-0.0010750294
-0.013472199
0.007058382
-0.0023331642
0.0019943714
0.0019983053
0.00038564205
9.8347664e-05
-0.021539688
-0.01643312
0.0038086176
-0.0016094446
-0.0078029633
0.0072112083
0.0071662664
0.0069874525
0.014680743
-0.0044481754
-0.012203574
-0.00012624264
-0.003826499
0.0038347244
-0.005262494
0.00056922436
-0.0013958216
-0.0018070936
-0.002562642
-0.0012332201
-0.0066791773
0.001475215
0.0034493208
0.0012975931
-0.001678586
0.0014234781
-0.00048279762
-0.0026735067
-0.00029933453
0.004836917
3.9696693e-05
0.002652049
0.0059723854
0.012794733
0.00016772747
0.0019145012
0.0048218966
0.0070414543
0.005739093
0.010292053
-0.0028175116
0.003134489
0.003101468
-0.001458168
-0.008856177
0.0033304691
-0.0023673773
0.008408785
-0.0051748753
0.007829547
0.002357006
0.006542206
-0.0026620626
-0.0023409128
0.0023679733
-0.0010801554
0.00067794323
0.008835554
-0.0006477833
-0.0037736893
0.002338171
-0.0048502684
0.0009980202
0.00023901463
-0.0061483383
0.0039139986
-0.0021528006
0.0009151697
0.003628254
-0.0031590462
-0.0049221516
0.0034880638
-0.0027689934
-0.0037003756
-2.8133392e-05
0.0006492138
-0.0061211586
0.0040966272
-0.0014964342
-0.0061905384
-0.0062077045
-8.8095665e-05
-0.0066566467
0.006673217
-0.007880926
-0.008557081
-0.0008262396
0.0060886145
0.0059651136
-0.0068683624
0.0040853024
-0.0055195093
-0.007557869
-0.004152894
0.0002951622
-0.0024322271
-0.0058215857
0.0020378828
-0.009770989
0.00425601
0.007633686
-0.0051538944
-0.010417819
-0.0026437044
-0.001336813
0.0018942356
0.0028437376
-0.012434483
-0.0008224249
0.006038904
0.0028381348
-0.0056905746
0.0073975325
0.005499959
0.005112648
0.0015640259
0.0027799606
0.002922058
0.0021436214
-0.0027041435
-0.0024348497
0.0010824203
0.0029090643
0.0040705204
0.008449197
-0.0010465384
-0.029217958
0.002927661
-0.0019840002
0.004508972
-0.013814807
-0.0163337
0.0020462275
-0.00017952919
-0.0081989765
-0.0007305145
0.002654314
-0.007288456
0.0044771433
-0.019547343
-0.0051835775
0.0022541285
-0.0062355995
4.720688e-05
-0.006183028
-0.0017088652
-0.008891344
-0.0006811619
-0.0016578436
-0.0020874739
0.003480792
0.0034930706
-0.0007531643
0.00019705296
-1.0728836e-06
-0.009469509
0.0038087368
0.0054831505
-0.004250765
0.0018814802
0.006791353
-0.0046902895
-0.0075167418
0.00015950203
-0.0043355227
0.0035758018
0.0015157461
0.0025031567
-0.006999135
0.0018019676
0.000713706
0.0023605824
0.0008471012
-0.0027973652
-0.00037050247
0.0007094145
-0.0023282766
0.00070524216
0.0038889647
-0.0022563934
0.0055834055
-0.00380373
-0.00024461746
-0.003827095

-0.00045228004
-0.0067921877
-0.0038793087
0.0012854338
-0.00044226646
-0.0013233423
-0.008891821
-0.0022580624
-0.0003259182
-0.004975319
0.005195737
-0.0032339096
0.0033028126
-0.004315853
0.0021357536
-0.013305783
-0.006068945
-0.0044031143
-0.0044755936
-0.00119102
-0.0005258322
-0.0031865835
-0.00086796284
-0.00037765503
0.0004451275
0.0032155514
-0.0034462214
-0.0005013943
-0.0034761429
-0.0025851727
-0.00037562847
0.004659891
0.0025821924
-0.0052622557
-0.006183982
-0.0007145405
0.0047086477
0.0029087067
0.0014789104
-0.0047752857
-0.0011714697
-0.00037682056
0.0056245327
0.002943635
-0.00064611435
-0.00026893616
-0.0031983852
-0.0003452301
-0.0016974211
0.009500861
-0.0019072294
0.0059230328
0.0010166168
0.0015913248
-0.0002963543
-0.005877018
-0.0017350912
0.0012917519
-0.00012052059
0.00037002563
0.0059509277
-0.006683588
-0.00041913986
0.0023306608
0.007588744
-0.0016630888
0.00016117096
-0.0052690506
-0.0007119179
-0.00091540813
0.0012971163
-0.0027390718
0.002162099
-0.0073895454
0.0011223555
0.004905224
-0.0036158562
0.0008672476
-0.00056922436
0.00087559223
-0.00065147877
-0.0007992983
0.00018465519
-0.0005879402
-0.0013210773
-0.006430149
-0.0024536848
0.00047326088
0.00075662136
0.002406478
0.0085181
0.0027763844
0.002652526
-0.0018763542
0.00078463554
0.0014542341
0.001737237
0.0066883564
0.00013422966
0.0026105642
0.002075076
0.0010004044
0.0015927553
-0.0017989874
-0.0011132956
-0.0031795502
-0.0007787943
0.005529046
-0.003197074
0.0041399
-0.0030921698
-0.002603054
0.0016217232
0.0062628984
-0.0048422813
0.0036616325
-0.0011435747
-0.006496668
-0.003215313
-0.0005605221
-0.0002619028
0.0013449192
-0.0054558516
-0.0005502701
0.003663659
-0.001696229
-0.0055247545
0.0022758245
0.0005540848
0.000824213
-0.0032747984
0.0068114996
-0.016240716
0.00029051304
0.00620842
0.0013997555
-0.00015878677
-0.0049842596
0.00014173985
-0.0023088455
0.003999114
-0.0033259392
-0.00088334084
-0.004736066
-0.0040813684
-0.00020825863
-0.002180338
0.0015133619
0.00015258789
0.0027456284
0.005781293
-0.0026067495
0.0016522408
0.0003938675
-0.0011525154
-0.003241539
0.0005865097
0.0028072596
0.0023738146
-0.00048744678
8.499622e-05
0.0040119886
0.0072461367
-0.0022222996
0.0013165474
-0.0009278059
-0.0032703876
0.00022757053
-0.0032938719
-0.009316087
-0.0004054308
-0.0010368824
-0.0034320354
0.002008319
0.0032474995
0.0009406805
-0.00016188622
-0.0013327599
-0.0018783808
0.0016124249
-0.0031479597
-0.0035655499
-0.00094103813
-0.0026664734
0.00037443638
0.009870291
0.002596736
-0.0023418665
-0.004003644
-0.002834797
0.0021088123
0.00049102306
-0.000259161
-0.0033679008
-0.0028309822
-0.0018732548
0.0066400766
-0.003238678
-0.001554966
0.0011101961
0.0011328459
0.0024309158
-7.9870224e-05
-0.0033888817
0.008590698
0.0023839474
-0.001843214
-9.024143e-05
-0.001996398
-0.0015525818
0.0014193058
0.0073621273
-0.00016438961
-0.010700464
-0.0030605793
-0.0016770363
0.004963517
0.0010304451
-0.0015537739
-0.007341504
0.0033346415
0.00093853474
0.0006933212
-0.00092566013
0.0001745224
0.0033749342
-0.0015101433
0.0025901794
-0.004166007
-0.0011894703
-0.0016924143
-0.0016855001
-0.001419425
-0.002033472
-0.00045359135
0.002367258
0.0007119179
-0.0024796724
-0.0033032894
0.0015645027
0.005949497
0.0021651983
-0.0031063557
0.0007020235
0.001385808
0.00081682205
-0.0013861656
-0.0013325214
-0.008220792
0.0006020069
0.006612897
-0.0008506775
0.0006593466
0.0013198853
-0.0011429787
1.13248825e-05
-6.54459e-05
-0.0053930283
0.00044369698
0.013536453
0.0013656616
0.0018154383
0.002584815
-0.006150484
0.00044965744
0.013369322
0.007925034
0.0011569262
-0.00049459934
0.0032740831
0.00036728382
0.0003657341
-0.001846075
0.0014536381
-0.0003848076
0.0010583401
-0.0005791187
-0.0023185015
-0.001959443
-0.00075781345
-0.0032458305
0.0003736019
-0.00124228
-0.002789855
-0.00054478645
-0.0028034449
-0.00851953
0.0017639399
0.0077568293
-0.0003541708
0.0027136803
0.0039032698
-0.0005891323
-7.534027e-05
0.00076556206
0.008017898
0.0024785995
0.0068023205
0.0008405447
-0.003579855
-0.00091457367
0.0068330765
-0.0013637543
0.00058221817
0.0046064854
-0.0011709929
-0.0027753115
0.00087201595
-0.0011068583
-0.0025537014
0.0021167994
0.003504157
0.0040363073
-0.0001001358
0.0022252798
-0.0027432442
-0.0036714077
0.006076932
-0.00037920475
0.002007842
-0.0018421412
0.0023887157
0.0020394325
0.0010348558
-0.0027965307
-0.0046144724
0.0040426254
0.0022319555
0.0023099184
0.0043712854
-0.00022351742
-0.0016466379
-0.0008689165
0.0016751289
0.0008262396
0.0022546053
-0.0025399923
-0.0009688139
-0.0048155785
0.005506754
-0.0040876865
0.0015432835
-0.0052782297
-0.00056421757
-0.0021842718
-0.0031905174
-4.4822693e-05
-0.0007710457
-0.008046508
-0.0009864569
-0.0025583506
0.0043679476
-0.00514555
0.0027612448
-0.0065271854
-0.005666375
0.00035738945
-0.0035698414
0.0013480186
0.004399419
-0.0008934736
-0.0020076036
-0.0004595518
0.00012385845
0.0065563917
-0.0031769276
0.0016307831
0.0008172989
-0.0011562109
-8.702278e-06
-0.00072801113
-0.004936576
-0.0046960115
-0.001044035
-0.0023967028
-0.0015963316
-0.005884886
0.0009765625
-0.0021797419
-0.00017094612
-0.005269408
-0.0015153885
-0.0025911331
-0.0024820566
-0.00020802021
-0.000300169
-0.0033714771
-0.0036232471
-0.0002272129
0.015213609
0.0026649237
0.0096639395
-0.0003618002
-0.003016591
-0.0038739443
-0.0009769201
0.0010944605
-0.0004093647
-2.193451e-05
-0.0019798279
-0.0024170876
6.484985e-05
0.0030431747
0.0054625273
-0.00083339214
3.0040741e-05
-0.0013244152
-0.010932803
-0.0015066862
0.003925085
0.0015672445
-0.0012546778
0.0038331747
-0.009209275
0.00129354
0.0030255318
-0.008744478
0.0043405294
0.0014387369
0.0024523735
0.0044130087
0.0006850958
0.00235641
0.00026631355
0.00086236
-0.002040267
-5.1021576e-05
-0.0044111013
0.0022455454
-0.0026311874
0.001791358
0.0005046129
0.008320093
0.009520054
-0.0024949312
0.007380843
-0.0010986328
-0.007843375
-0.0012613535
-0.006922126
-0.0018867254
0.0009921789
-0.00064241886
-0.0026015043
-0.014122963
0.012227774
-0.005251169
-0.004029155
-0.0059303045
-0.002593279
0.001887083
-0.00064110756
-0.0038768053
-0.0021256208
-0.002315998
0.0022602081
0.00015950203
-0.0020384789
0.0030511618
-0.0042442083
0.0018488169
0.0066150427
-0.0004041195
0.00073838234
0.000218153
0.0024290085
0.005632758
0.0048315525
-0.0034985542
-0.0029428005
-0.0048666
0.006146908
-0.008065224
0.006494522
0.004314065
0.0077112913
0.0038524866
-0.0038946867
-0.0019968748
7.5101852e-06
0.002289772
-0.0017517805
-0.009563684
-0.0008883476
-0.0028003454
-0.0012888908
-0.001336813
-0.0050239563
-0.00011789799
-0.00029182434
-0.0066941977
-0.0021516085
-0.001648426
-0.0044054985
0.00052690506
0.0012093782
0.0030241013
-0.003501892
0.00046157837
0.0015405416
-0.0015115738
-0.0060327053
0.0011464357
0.0023055077
0.0042551756
-0.0016497374
-0.00084102154
0.00044810772
0.0022224188
0.0061011314
0.0006002188
0.0013138056

0.008884549
0.000113487244
0.00590539
0.014195204
-0.0076082945
0.0030754805
-0.00081562996
0.004693866
-0.003247738
0.004569888
0.0014455318
0.0008816719
-0.007817864
0.0038969517
-0.004792452
0.014115453
-0.007559538
-0.002934575
-0.0011026859
-0.008046985
-0.0039178133
-0.0018696785
-0.0012407303
0.01852262
0.0051664114
-0.009750247
-0.0038871765
7.677078e-05
0.0011905432
-2.5868416e-05
0.0012134314
0.001354456
-0.0018379688
-0.002548933
-0.00093889236
-0.010140061
-0.0044612885
-0.0014202595
-0.0024102926
0.0021759272
-0.008398056
-0.0023988485
-0.0015752316
-0.0013885498
-0.0025548935
0.009588718
0.0001591444
-0.005160451
0.027128577
-0.018106699
-0.004028082
0.011675715
-0.0007750988
-0.0019520521
-0.003868699
0.0014442205
0.0039157867
0.0010327101
-0.009889841
-5.3286552e-05
-0.00014400482
0.0069773197
-0.002806902
0.0049197674
-0.0011694431
-0.0063078403
0.0010945797
-0.0025852919
-0.0027680397
0.0041639805
0.002925396
0.008622527
0.011122942
-0.005328059
-0.009004712
-0.001167059
-0.0019279718
-0.00085258484
0.0045143366
-0.008153558
0.003293395
-0.004189968
0.001065731
0.00018584728
-0.010042787
-0.0016098022
0.0070397854
-0.0006531477
0.007888317
-0.0027301311
-0.001001358
-0.0015801191
-0.001529336
0.0013507605
-0.0038241148
0.004625082
-0.0002990961
0.0035176277
-0.0037295818
0.005573511
-0.009225249
0.008228302
-0.00044882298
0.00078618526
-0.0005799532
-0.00023663044
0.0014264584
-0.0008944273
-0.00045394897
0.0020524263
-0.0016365051
-0.0019441843
0.0059757233
-0.009050727
-0.0009912252
-0.0026019812
0.0013929605
-0.0042893887
-0.008311987
-0.0089200735
-0.003722787
0.00070261955
0.00038433075
-0.010450363
0.008560419
-0.0010250807
0.0051790476
0.0053395033
-0.0014162064
0.012976527
-0.0014576912
0.0052167177
-0.0013530254
0.0008519888
-0.00043809414
-0.0039800406
-0.0054950714
0.010093212
0.00039362907
-0.004214406
-0.0028020144
0.011635661
0.0015505552
-0.0025589466
0.0061169863
-0.005403042
-0.0049312115
0.0063040257
0.0007622242
-0.009046316
-0.0036679506
0.013930559
-0.0024888515
0.0021601915
0.009054422
-0.000118374825
0.006366968
0.009143472
-0.0017341375
-0.002133131
0.0031673908
-0.0014300346
-0.021604538
0.017477512
0.0032947063
-0.0058255196
0.0007086992
-0.0047762394
0.010390639
-0.0028885603
0.00045597553
0.0025607347
-0.0023742914
-0.005623579
-0.00067949295
-5.543232e-05
0.020210862
0.0010271072
0.0015127659
-0.002948165
-0.0041116476
-0.007976055
-0.0020207167
-0.0023889542
-0.0058472157
0.00033009052
-0.00028443336
0.004237056
-0.0010620356
-0.008434892
-0.003942251
-0.003334403
-0.00063598156
-0.0018389225
-0.0011645555
0.005468011
-0.0021301508
0.0035386086
0.0066372156
0.006628275
-0.009261847
0.0011233091
-0.0029389858
-0.008234143
0.0096457
-0.0034183264
0.0072999
-0.010040998
-0.0010043383
0.005364299
0.006326437
-0.0031971931
-0.005265951
0.0011239052
0.007076144
-0.0007659197
-0.01354897
0.003249526
0.0033046007
-0.0014380217
0.0053676367
-0.0024850368
0.0020358562
-0.0030766726
-5.7697296e-05
-0.005662799
-0.0002002716
-0.011040211
-0.0004900694
-0.0010229349
0.0037845373
0.009233713
0.003135085
-0.004079342
-0.0020002127
0.0016884804
0.0017879009
-0.004250288
-0.0031526089
-0.00021374226
0.004638672
-0.0054422617
-0.0009047985
-0.003564477
-0.0011007786
-0.0012295246
0.015908122
0.0009319782
0.0015980005
0.0026545525
-0.0048469305
-0.0024735928
-0.007839203
0.011745691
-0.00674963
0.0016218424
0.00074625015
0.0007505417
0.009922504
0.006013155
0.009304762
-0.0006008148
0.0019230843
-0.010516763
0.0061051846
0.0063802004
0.0032260418
-0.0061109066
-0.00084614754
-0.006786108
0.0014168024
0.0012097359
0.0020964146
0.002115488
-0.0006363392
0.007784009
-0.0084917545
-0.0016385317
-0.0028506517
0.000744462
0.0053156614
-0.0031456947
0.008854389
-0.0045871735
0.0017943382
-0.0017962456
0.0025799274
0.0051311255
0.011061072
-0.010618329
0.005946517
-0.004306674
-0.0003722906
0.00037181377
-0.00040912628
0.002354145
-0.002413392
-0.0038998127
0.004582882
-0.000726223
0.0008481741
-0.0051528215
0.0054444075
-0.0034286976
-0.0024590492
-0.00013399124
0.0037821531
-0.010067463
0.004694104
-0.019967675
0.0029107332
-0.001483798
-0.009905815
-0.0015951395
-0.0012954473
0.0017130375
0.0032342672
-0.005187869
-0.0005123615
-0.0087662935
-0.00015211105
-0.0017210245
0.0026516914
-0.0030682087
0.002114892
0.0010015965
-0.005583644
0.010939002
-0.007429719
0.0036536455
0.006674528
-0.0052962303
-9.512901e-05
0.00812006
0.00024998188
-0.0028265715
-0.005940795
0.0051021576
-0.0002812147
0.00035345554
0.00059711933
0.00096452236
-0.0083140135
-0.0010086298
0.00028181076
-0.004714489
0.0077900887
0.003669858
-0.002516389
0.0022261143
0.0013172626
0.012259364
-0.0026384592
-0.003667593
-0.00020945072
0.006403208
-0.0017329454
-0.005521059
0.003677249
0.0025224686
-0.0012856722
0.0033943653
0.0067653656
-0.013115644
-0.0007995367
0.0037734509
-0.003041029
0.0065205097
0.009872556
-0.0056688786
-0.00021636486
-0.0038069487
-0.0051208735
-0.0002105236
-0.00916338
-0.008601308
0.0012657642
-0.001760602
0.0038704872
-0.0031198263
-0.0010113716
0.00024271011
0.005908251
0.0057430267
0.009138584
-0.00054883957
-0.005329609
-0.008492708
-0.015057683
0.0024636984
-0.004471302
0.01800108
-0.0016690493
-0.005473137
0.010410547
0.00051641464
0.0007954836
-0.0032075644
-0.00241673
-0.0048377514
-0.0038551092
0.00040388107
-0.014923215
0.008732557
-0.0007100105
0.0038784742
-0.004398823
-0.004794359
-9.4771385e-05
-0.002981186
-0.004032016
-0.0008289814
0.0015940666
-0.0068792105
-0.0033091307
-0.0017259121
-0.0020843744
-0.002410531
0.00050759315
0.0024918318
-0.015049696
-0.005709648
-0.0012351274
-0.0023559332
-0.0060338974
0.007399559
-0.0055104494
-0.00494349
-0.0013506413
0.0022017956
0.0007748604
-0.001172185
-0.0013519526
0.005017996
-0.0009493828
0.0015021563
-0.001606822
-0.0023800135
-0.0044853687
-0.0072268248
0.0006119013
-0.008671284
-0.0009822845
0.0009634495
0.0016100407
-0.0017356873
-0.005071163
-0.0014811754
-0.0029889345
0.0045615435
0.0034966469
0.00054085255
0.0043019056
0.004821658
-0.0026984215
-0.0020139217
-0.009242535
0.0011795759
0.0074470043
-4.7802925e-05
0.02034533
-0.0057508945
0.013501048
-0.006144166
0.0064913034
-0.0030745268
-0.0060323477
-0.00033712387
-0.008667231
-0.003347993
0.0077955723
-0.010506272
-0.0033984184
-0.004381299
0.005066395
-0.00043344498
-0.001486659
-0.0018504858
-0.014247894
-0.004653573
0.0029188395
0.0015203953
-0.0031235218
-0.0061947107
0.00782156
0.003132224
-0.0017020702
-0.0012258291
-0.0019314289
0.00123775
-0.006960511
0.0011031628
0.0018488169
-0.0014526844
-0.00031805038
0.00026381016
-0.011515737
-0.003262043
0.00023210049
0.009377241
-0.0073230267
-0.0011862516
-0.013006449
0.007264495
0.0114245415
0.00563097
-0.0023038387
0.00037264824
0.026313066
-0.00025606155
0.00056898594
-0.002403736

0.3771447
0.45441425
0.33118176
0.34738576
0.34486568
0.33420885
0.32354462
0.36018586
0.44557154
0.36837542

