0.008267105
0.035224915
-0.11025536
-0.028306961
-0.06639087
0.043506265
0.02391088
0.03426397
-0.044373155
0.08686495
-0.047566056
0.05040002
0.06699085
0.0032793283
0.017983675
-0.0041760206
-0.026620269
0.04547155
0.057895422
0.047927618
0.05234611
0.049771428
0.05140698
0.004858136
-0.0031206608
0.11219907
-0.031386495
0.00632751
0.20696163
0.04974079
-0.0013866425
-0.024607062
0.041443706
-0.0009883642
-0.08804858
0.054306746
-0.27212548
0.17544055
-0.0004887581
0.093364
0.014136076
0.03737414
0.08686566
0.15554357
0.035009146
0.051214337
0.04769492
0.06510317
0.044486642
-0.04541552
0.05468142
-0.033070922
-0.017638445
0.12017357
-0.11745083
0.02278459
0.027249336
0.14507091
-0.00483799
0.046412468
0.00701046
0.09221256
0.054035306
0.025880814

0.0024911165
-0.058986425
-0.028642535
-0.08605313
-0.04816234
0.05258763
0.12107289
0.006267786
0.009159207
-0.03221798
0.017751455
0.113114834
-0.07871294
0.000895977
0.034321666
-0.048531532
0.08883655
-0.0076282024
0.016538858
0.027239323
0.021377206
0.13254595
0.090093374
0.037342787
0.03606248
0.078867674
0.049970865
-0.05579698
0.14200449
-0.0017037392
0.099291444
0.0358392
0.022692323
0.010808349
0.12093961
0.0072386265
0.03924632
-0.008939266
-0.08148527
0.019217491
0.0918982
0.005171776
0.0038977861
0.019099355
-0.019290447
0.017994046
-0.0060503483
-0.09151113
0.08423972
0.19277418
0.030372143
0.0245862
0.008121967
-0.11353612
0.047601223
-0.08805883
0.0006271601
0.20359957
0.0043991804
0.05640471
-0.08086622
-0.02702725
0.065692425
0.005006075

0.009162784
0.05099225
0.0059235096
0.011103988
0.01717341
-0.04899943
0.015298724
0.0045604706
0.077432156
0.03723681
0.0030058622
0.0047516823
-0.028175712
-0.046941876
0.0036699772
-0.008025527
-0.019522905
0.017200708
0.05696118
0.011386633
-0.0059486628
-0.014666319
0.025111556
-0.011335731
0.02124989
0.05782914
-0.0066595078
0.015883803
-0.013313293
0.03620422
-0.020716667
0.0031069517
-0.018042445
-0.013713837
0.007263303
-0.018437266
0.01004374
0.048564672
-0.004478812
-0.00969255
0.03406489
-0.0076578856
0.04423821
0.01341939
0.04286921
-0.0038311481
0.0093199015
-0.03332293
-0.010239482
0.0008366108
0.031260967
0.025034904
0.017080545
0.008864403
-0.013357639
0.050682306
0.023293614
0.016999364
0.043925166
-0.015369415
0.05542028
0.005871415
0.039745092
0.012145042
0.014314294
-0.0049432516
-0.004102707
0.034355044
-0.0010106564
-0.010424614
0.007934451
-0.00063824654
0.020741701
0.015261769
0.009918332
0.0055378675
0.011078358
0.027936101
-0.020333886
-0.014186382
0.053216815
0.023275018
0.016734242
0.013400316
0.015831947
-0.0005931854
-0.011974335
-0.020857096
0.020231485
-0.04221344
0.034841657
-0.040097952
-0.034840226
0.054166436
0.0028150082
0.023866415
0.052390933
0.0005428791
0.02209115
0.008278608
0.01701808
0.044879675
-0.0034257174
0.060348988
0.04509914
-0.056953907
-0.0499928
0.030882
-0.027926922
0.063568115
0.0049444437
-0.0067961216
-0.006444931
-0.024585724
0.035706878
0.029777408
0.012431264
0.014550805
0.0015326738
0.026697278
-0.0066746473
0.0199337
0.03593731
0.025259137
0.055300474
0.021973848
0.039625764
-0.009051681

-0.034337163
0.041947365
-0.001259923
0.023814678
-0.009029269
-0.038814783
-0.0070182085
0.026939988
0.003230095
-0.0014389753
-0.021793723
0.0153160095
0.024690032
0.028144956
-0.0006439686
0.016932607
0.042277694
0.009463549
0.026211262
0.03082335
-0.031995773
0.037850738
0.013335943
0.00025212765
0.01275754
-0.031603456
0.016432405
0.016741753
0.0013434887
0.044190764
-0.003713131
0.069974065
0.0029261112
-0.03793478
0.01656425
0.025891185
-0.00036263466
0.009928465
0.04169154
-0.008359075
0.014408708
0.042667747
-0.05493605
0.010045409
-0.005264282
-0.0029370785
0.0054272413
-0.008528352
-0.006505847
0.00010275841
0.046257615
0.005142212
0.009599447
0.0091609955
-0.0004942417
-0.022452474
-0.004054904
0.014837861
0.0055360794
0.00027501583
-0.008391142
0.024305224
-0.0018174648
0.024697185
0.040976286
-0.0030276775
0.0054599047
-0.016176343
0.07356548
0.01846683
0.0009082556
0.023815274
0.017343283
0.035308957
-0.0030920506
0.015818715
0.010825157
0.009422541
0.0111500025
0.034549356
0.0153518915
0.017481089
-0.009187341
0.012131333
0.024925709
0.013799667
0.038069606
0.09464502
0.005355239
0.010496378
-0.013436556
0.010636449
0.026382565
0.028589606
0.020499706
-0.0043212175
-0.0053782463
0.00082063675
-0.004848361
0.04962766
0.009083986
0.017298818
0.00041091442
0.02255869
0.03736174
0.008530855
0.070812225
-0.042675376
0.011021733
-0.05705321
-0.0044190884
0.0082935095
0.042114258
0.020690322
0.045200706
0.012393951
0.030864835
0.0056039095
-0.027538061
0.019898295
-0.004761815
0.0067225695
0.003276825
0.027160406
-0.009116054
-0.007051468
-0.0003633499
0.015731812

0.02058947
-0.044303298
0.0024110079
9.536743e-07
0.027062774
-0.0041507483
0.0070638657
-0.019171
-0.011228919
0.008617282
0.009517193
0.019723773
0.022486806
0.011491895
0.009858131
-0.0015509129
0.020175695
0.0002412796
0.004007578
0.010599971
0.0038411617
0.002884388
0.023405313
0.008605719
0.0038762093
0.011250973
0.008527279
0.005981922
0.0036650896
-0.030453324
-0.00040459633
0.017664552
0.020184875
0.00920558
0.028503656
0.016078472
-0.007855415
0.0010023117
-0.0026818514
0.0052722692
-0.012839556
0.008067489
-0.012048006
-0.00063073635
0.0095642805
-0.028662682
-0.004117012
-0.000908494
0.010687709
0.03075099
0.025834799
-0.0029320717
0.0002989769
0.008539081
0.0015741587
0.0018591881
0.020373702
0.037149787
0.007838726
0.00046527386
0.006533265
-0.001393795
-0.0011208057
0.012086391
-0.017400503
0.0035049915
-0.017701745
-0.057545543
0.01388216
0.03317499
-0.008693576
0.03802097
0.02564001
0.011712074
-0.0074641705
-0.0015645027
0.0199337
0.011396289
0.00020492077
0.0008363724
0.03696978
-0.0011003017
0.002194047
0.0045377016
0.0027121305
-0.010599375
0.012974381
0.007139683
0.008825541
-0.012527943
-0.0034599304
-0.009549379
0.0154492855
0.025465846
0.011286616
0.019422889
0.008476853
0.003169775
0.005562663
0.029240847
0.007340193
-0.0011553764
-0.0077427626
-0.040915012
-0.017733097
-0.011963129
0.026654005
0.025437593
-0.024529457
0.019613862
0.004911661
0.040034413
0.005431056
0.014174342
-0.008105993
-0.017111659
0.0072830915
-0.026802063
0.017765284
0.02833426
0.0061074495
0.0060515404
-0.0059016943
0.013547182
0.016262174
-0.023970127
0.02187574
0.013839006
0.0012720823
0.0035442114
0.01102829
0.00035226345
0.0005065203
0.00033986568
-0.010427833
0.011166692
0.0134902
0.0097436905
0.0044726133
-0.0041122437
0.020714402
-0.017389774
0.025928497
0.0015398264
0.0064787865
-0.0046156645
0.0033842325
0.012320399
0.0035073757
-0.00050473213
0.003189087
0.016547203
0.013367653
0.027574658
0.014663696
0.005051017
-0.048905373
0.0023075342
-0.0028252602
0.027644753
0.0082829
-0.0058152676
0.010172486
0.0051140785
0.015047789
-0.0017603636
0.0015966892
0.0376575
0.00058472157
0.010543823
0.022062778
-0.0007814169
-0.011636496
0.014406085
-0.0037773848
0.012178421
0.016528606
0.012325168
0.0062886477
0.030427694
0.016720295
-0.0076196194
0.018128633
0.009423614
0.04690218
0.0040943623
0.010076165
0.039972663
0.0032542944
0.0066565275
0.006161213
0.021208286
0.022396207
0.014316678
-0.00012874603
0.005338788
0.015670776
-0.0007046461
-0.009786844
0.0007390976
0.0023055077
0.008724213
0.014882445
0.005132675
0.0076874495
0.0027757883
-0.0008172989
-0.0016932487
-0.034944892
-0.0013526678
0.024932504
-0.00031137466
-0.005648017
0.008011222
-0.015613675
0.019197583
0.011724949
0.0036296844
-0.02644372
0.013518095
0.013134122
0.024135232
-0.021422029
0.016238093
-0.0013141632
0.034615636
-0.009282589
-0.026662111
-0.01023829
-0.028373122
0.015092611
0.0031044483
0.0033307076
-0.022395015
0.013552189
0.003402114
-0.00059068203
0.005977273
0.0021734238
0.00052440166
-0.01055634
0.015642643
0.026059031
-0.0144046545
0.0016987324
0.011664629
-0.018790722
0.010350108
0.011485696
0.010563135
0.009075761
0.02398169
-0.008530736
0.005133629
-0.008673787
0.011311173

0.0012602806
-0.010247588
-0.0020567179
0.007817268
-0.017874718
-0.00754261
0.0070869923
0.0056990385
-0.010561109
0.012520075
0.0040519238
0.0062856674
0.011227608
-0.0025191307
0.005755067
0.0037183762
0.013266563
0.0054563284
0.010379076
0.022368073
-0.027080536
-0.0076760054
0.026304722
0.014887333
-0.012341738
-0.01449573
0.006833315
0.005433917
-0.019294739
-0.010806084
0.033477902
-0.01662457
0.0009869337
0.0062253475
-0.006977439
0.017158031
0.01032877
0.011438012
-0.0029414892
-0.0012768507
-0.015942574
-0.021493793
-0.0028722286
0.009755373
0.009670019
0.0016230345
0.016091824
-0.03230214
0.009667158
-0.018879414
0.004785776
0.025190115
0.020157933
0.007468939
0.004727602
0.0027198792
0.0050457716
0.0074720383
-0.030384302
0.010500908
0.0029972792
0.0050143003
0.01856649
0.020474315
0.0015262365
0.02375555
-0.007819414
-0.00032639503
0.040109754
-0.0019931793
-0.019531846
0.009601235
0.025951624
0.0040938854
0.045457006
0.0048054457
-0.011440635
0.017062426
0.014068127
0.0019321442
-0.01128149
0.001632452
0.011543989
-0.0035830736
-0.009791493
0.019989252
0.0067356825
0.0025987625
-0.0020394325
0.004635811
0.0069749355
-0.0022666454
0.030633569
0.024357915
0.0063022375
0.023985267
-0.0027588606
0.0011844635
0.008554697
-0.002814293
0.016489744
0.0035742521
-0.011238217
0.010514975
-0.004099846
-0.01085794
-0.0042749643
-8.785725e-05
-0.033771157
0.010488629
-0.0021723509
0.019953728
0.01807797
-0.0015226603
-0.021850824
0.014966726
0.02098763
0.0044255257
-0.0007301569
-0.002403617
0.004658103
-0.0010761023
0.01623249
0.023979664
-0.011203051
0.03792584
0.018648982
0.025444388
-0.0043489933
-5.018711e-05
0.011053562
-0.0034804344
-0.024549961
0.0127391815
0.021555781
0.013118625
0.0023870468
0.01772666
-0.023295641
0.0034153461
0.019208074
0.028313637
0.018594265
0.0113636255
0.006072283
0.027227879
0.011031628
-0.00587976
0.011923671
0.012392759
0.012084842
0.03233576
0.007824779
-0.0023612976
0.007097602
0.010752201
0.011699557
-0.014845133
0.015635371
0.000903368
0.023215294
0.0027213097
-0.005649686
0.009572744
-0.016337752
0.03499925
0.012496114
0.0018619299
-0.03707707
-0.005219102
0.009337068
-0.021366358
0.0050513744
0.00818038
0.034637094
0.0433923
-0.011731267
-0.035111427
0.032235026
0.005290985
-0.0024696589
0.0217247
0.028209567
0.024052978
-0.0025292635
0.002583146
9.75132e-05
0.0055223703
0.005451083
0.0040385723
0.012732744
0.018113613
0.006464362
0.012209177
0.027884841
-0.008462191
0.012615919
0.008471012
0.0020679235
0.0069932938
0.0032018423
-0.027337909
-0.015646458
-0.006294489
0.009426713
-0.0020469427
-0.007606983
-0.009945393
-0.008779049
0.011971235
0.018458247
-4.3272972e-05
0.008337975
-0.0013257265
0.01647818
0.018453717
-0.0018134117
-0.0035213232
0.01700902
0.0118921995
0.0009576082
0.0035743713
0.01992774
-0.006972432
0.0042284727
0.0008956194
0.0012738705
-0.0018581152
-0.0026236773
0.0033205748
0.012301207
0.008039951
-0.005886078
0.013893485
0.0073012114
-0.004283786
0.0037288666
0.029087067
0.0036511421
0.014814377
0.008030176
0.010690331
0.032917857
0.016581297
0.005603552
-0.02762127
-0.008927345
-0.0015996695
0.01683867
0.0072011948
0.021816015
-0.017691374
0.007999897
0.03406334
0.0020825863
0.0063180923

0.022290587
-0.00851953
0.019520283
0.0076515675
0.009744525
0.009364963
0.015504837
-0.006030917
0.023174047
-0.005925894
0.0050348043
0.03934765
0.038018346
0.010670543
0.0026385784
0.03854263
0.009425163
0.0041959286
0.012116432
-0.0024305582
0.028499842
0.046792746
0.0040676594
-0.009152651
-0.00088214874
0.0015769005
0.016823173
-0.0057754517
0.005612254
-0.022636652
0.005665064
0.025566459
-0.0070118904
-0.0013620853
-0.0011837482
0.004402399
0.0015597343
0.008297682
-0.00169456
0.012937188
0.03435743
0.032948136
0.03144014
0.005714655
-0.0016165972
-0.006175518
-0.009723306
0.012255907
0.002457261
0.0023232698
-0.000569582
0.003124237
-0.006341815
0.0014150143
-0.0038670301
0.011680126
-0.0067557096
-0.010234594
-0.0020023584
-0.023303986
-0.012964129
-0.005324483
0.0015320778
0.05776286
-0.018797278
0.05171466
0.013085723
0.027211308
-0.031702638
0.002411127
0.021068096
-0.010889649
-0.013933063
0.009540677
-0.04126787
0.01950419
-0.024129748
0.006253004
-0.044442654
-0.0019973516
-0.001116991
0.00716877
0.005791664
0.0126924515
0.0016011
0.017254472
-0.01012516
-0.00044810772
-0.002061367
-0.014670491
0.0038827658
0.015221119
-0.010297656
0.022313356
-0.0048947334
-0.0027641058
0.00048434734
0.0048127174
0.014176488
-0.006996274
-0.0040402412
0.0018959045
0.002071023
0.016817212
-0.021755338
-0.010562301
-0.014579892
-0.0025479794
0.016604424
-0.004762888
-0.005284786
0.005994916
0.004676938
0.015823603
0.023145556
0.035935998
-0.00011396408
-0.001232624
-0.011348367
0.00789237
0.018529177
0.022211432
0.04391706
0.019187212
0.034287095
0.006109953
0.0011769533
0.03746319
0.010820508
-0.0024005175
0.0105314255
0.0068206787
-0.017792463
0.00071787834
-0.005263567
0.0039024353
-0.010651231
0.048788548
-0.0013849735
0.0601995
0.03531766
0.020179749
0.031864166
-0.006973624
-0.0120972395
-0.0032397509
0.020817518
0.003976226
0.029686809
-0.029654622
0.014371276
-0.00794065
-0.019936204
-0.010691404
-0.02093041
0.0039844513
0.0003004074
-0.010273337
-0.020770788
0.016065001
-0.025329351
0.0051380396
0.022925973
-0.012153029
0.040230155
0.04513669
0.005898118
0.009318352
-0.0055508614
0.0061405897
0.016839266
0.002628684
0.014733911
0.011103988
0.003848195
0.00034463406
-0.004624605
0.002557516
0.013869762
0.017277122
-0.018118262
0.032320738
-0.0033454895
0.01309979
0.002473712
0.0035119057
-0.004264474
0.014441609
-0.0026905537
-0.0108248
-0.020005345
0.023106456
-0.007977605
0.0045952797
0.023786902
-0.005424142
0.01777494
-0.013096571
0.020297766
0.010824442
-0.008355379
0.001344204
0.04314351
0.04061663
-0.0102164745
0.002320528
-0.003366232
-0.011216164
0.00012052059
-0.013900518
0.0011719465
-0.01995945
0.006390333
0.010246873
-0.0044282675
0.017907381
-0.03298366
0.0076936483
0.021295667
0.01974678
-0.04225707
0.0059673786
-0.018747926
-0.008696556
0.004557729
-0.03338468
-0.001801014
-0.015922904
0.017481208
-0.000274539
0.016947389
0.0051472187
0.030618668
-0.0058267117
0.032514095
-0.010855436
0.0148745775
-0.00032150745
0.01833427
-0.008639455
0.011838555
-0.0041240454
0.003627181
0.019805789
-0.0056015253
0.01726687
0.0014594793
0.022904277
0.0050519705
0.009341478
0.04320371
0.013548017
0.0068132877
-0.024098873
0.012334228
0.016294599

0.010632992
0.028496146
-0.006566882
-0.001077652
0.004292488
0.010060906
0.006355047
0.00890851
-0.012569308
-0.011352658
-0.008582234
0.008522153
-8.773804e-05
0.0117948055
-0.005076766
0.0029922724
0.006175399
-0.00047504902
-0.0077593327
0.0028457642
0.022958875
0.001933217
0.0045564175
-0.002481699
0.0075998306
0.004244089
0.004547
0.0021760464
-0.0035479069
-0.00017607212
0.004622102
-0.007938981
-0.00411427
-0.00013911724
0.010525823
0.006523013
-0.024558067
-0.0074237585
0.00047814846
-0.0122874975
-0.009121776
-0.0098826885
0.0020639896
-0.01330328
-0.0025230646
-0.009639382
-0.0031793118
0.0028487444
0.012346506
0.00401783
0.010739207
0.0006586313
0.0019339323
-0.02366805
-0.0035674572
0.00085401535
-0.0065232515
0.0041698217
0.0048425198
0.0077912807
-0.0010439157
0.006140232
0.022747278
0.012847424
0.0006284714
0.006128311
0.014734745
0.0057929754
0.0068591833
0.011151195
0.014751911
0.008673906
0.0024704933
0.016217828
-0.0077580214
-0.014969587
0.017307878
0.0034922361
0.0007003546
0.004442215
-0.0023565292
-0.0026515722
0.010512829
0.0023758411
-0.0007869005
-0.0017858744
-0.0046617985
-0.0085372925
0.0026117563
0.0026693344
0.00576365
-0.0008250475
-0.0081733465
-0.005898714
-0.016107082
0.010560274
-0.0040546656
0.013842583
0.02061367
-0.0049636364
-0.0025852919
0.0057154894
0.015215993
-0.0015153885
0.0007995367
-0.025076509
-0.00024592876
-0.022173524
0.026583433
0.0027638674
-0.0066053867
0.0017422438
0.040993094
0.004776001
0.020606041
0.011556983
0.028725028
0.014266014
0.0026137829
0.005951524
0.0100210905
0.0071594715
-0.0020616055
0.0029741526
0.0071799755
-0.0031499863
0.009765148
0.0127635
-0.015153408
0.0032491684
0.0096719265
0.006855488
-0.0024768114
-0.025247335
-0.0006759167
0.017564058
-0.003786683
0.016744614
-0.004539132
-0.004027605
0.0018237829
-0.005491972
0.001496911
-0.011155963
-0.0014237165
0.0060201883
0.0039920807
-0.0028551817
0.0054723024
0.018734694
0.003365755
0.0049271584
0.0074614286
0.0054984093
0.019270182
0.009556651
0.005966425
0.008625627
-0.008649945
0.008851647
-0.00473392
-0.009107351
-0.0016760826
0.0069493055
-0.00043404102
0.0007597208
0.0014698505
-0.0019644499
0.01148057
0.007043481
0.016955614
-0.00086414814
0.00363338
0.0047820807
0.001672864
0.017522693
0.0040655136
0.0045905113
0.0032340288
0.0024875402
0.010902286
0.008755922
-0.011809707
0.0023862123
-0.0013222694
-0.0009623766
0.016763687
0.00442636
-0.009260297
-0.00023448467
-0.0037199259
0.0080862045
0.005070448
-0.003645897
0.023686409
-0.0005633831
0.010877013
0.008073807
-0.0033519268
0.0061354637
-0.010428548
0.0015132427
0.009273887
0.013622761
-0.012453198
0.022028804
-0.00069105625
0.00705719
-0.0076141357
-0.013034701
0.009509921
-0.0072267056
0.0034786463
0.003684044
0.008825421
-0.004262924
0.018869162
-0.0070747137
-0.00019431114
0.004176855
-0.010198951
-0.023332477
-0.0022283792
0.019816041
0.022796392
-0.00091814995
-0.000865221
0.0051783323
-0.004367709
0.0023206472
-0.0124617815
0.0039725304
-0.019213796
-0.0017613173
0.006539583
0.00028657913
0.010925412
-0.003231287
-0.010512352
0.0037183762
-0.0016869307
0.0036901236
0.007256627
-0.007148862
-0.0004080534
-0.008848667
-0.008082628
0.012946367
-0.01249671
0.025957942
0.018893123
0.0053635836
0.008058906
0.013005376
-0.0040044785
0.0010560751
0.019344449
-0.011815548
-0.020120263
0.0030719042
0.009881258
0.019829273
-0.001075983
-0.0055069923
0.005095601
-0.0038950443
0.008446932
0.014010668
0.015951633
0.014002919
-0.0050399303
0.008607388
0.010932803
0.022454381
0.0011194944
-0.004886508
-8.1300735e-05
-0.004840493
0.016166449
0.017198682
-0.006713748
0.0027154684
0.018155694
-0.006091237
0.009579182
7.343292e-05
0.0017009974
0.0075889826
0.006070733
0.0076363087
-0.0033359528
-0.0043752193
-0.0014129877
0.011663556
5.1140785e-05
0.01066947
0.0031782389
0.012492776
-0.0011614561
0.0009595156
-0.010680199
0.0044441223
0.023124814
-0.005826831
-0.0030603409
-0.003523469
-0.000669837
-0.0017814636
-0.0008369684
-0.0070621967
-0.030249476
0.0016505718
-0.00881958
-0.011760592
0.020964384
0.01227653
0.0018934011
0.012251377
0.0021897554
-0.0002490282
-0.004074216
0.012052059
0.0033328533
-0.004519224
-0.005634904
0.011096954
0.0079211
-0.022862911
0.0100672245
0.0030056238
-0.01423347
0.0043008327
-0.011544108
-0.0099157095
0.01944244
0.01434803
0.00032496452
0.003210187
0.002690792
0.02543211
0.012070656
0.020563364
-0.0065135956
0.0066951513
0.00052821636
0.0010674
-0.012680769
-0.025256753
-0.002368927
-0.00012087822
0.0045639277
-0.0009622574
0.0036661625
0.008610368
0.0028282404
0.018870115
0.009367943
-0.0041441917
-0.00040066242
0.0069875717
-0.023781538
-0.00025749207
0.007804394
0.0016853809
0.028044581
0.002625823
0.00014054775
-0.0017163754
0.013845682
0.008873224
0.004838586
0.0022729635
0.008044481
-0.0017743111
0.002649784
-0.0016746521
0.01704526
0.0070257187
0.011577845
0.008121967
-0.0040209293
0.01510179
-0.0051361322
0.0014737844
-0.014729738
0.0054569244
0.003967762
-0.0073661804
-0.024685144
-0.0037754774
0.029998183
0.0021669865
0.0021948814
0.007755995
0.0029363632
-0.019226313
0.019746184
0.0078001022
-0.02397585
-0.013662934
0.009438276
-0.0043661594
0.0036456585
0.004626155
0.0049768686
-0.006945014
-0.0016516447
0.012415051
0.005317092
-0.0039186478
0.0020725727
0.00634706
0.019047856
-0.0046799183
0.008908272
0.00449574
0.00096428394
0.012314081
0.0045155287
-0.0024324656
-0.007552147
0.00078451633
-0.0016450882
-0.0011478662
-0.0007493496
-0.024114609
0.008198023
0.014151931
0.009704828
0.0047211647
0.0036906004
0.001938343
0.0064282417
0.0003273487
0.014974475
0.007571101
0.011957765
-0.0012567043
0.009726882
0.0068632364
0.008260131
-0.0047445297
-0.00026404858
0.012386441
-0.012059331
0.013206959
-0.017486095
0.0029366016
0.0013608932
-0.015542984
0.00026369095
0.01108861
0.01294148
-0.013465524
0.0032801628
0.016433716
0.021932602
0.0029923916
0.007846594
5.8293343e-05
-0.0026693344
-0.004175186
0.0012626648
0.0067845583
-0.0011821985
-0.007193327
0.012345314
0.0014430285
0.0026113987
-0.018472195
-0.01057744
-0.0036765337
0.008309007
0.0068616867
0.0070836544
-0.008376598
0.008400798
0.002743721
0.0019948483
-9.715557e-05
0.0031596422
0.004677415
-0.002875924
0.008202672
0.001115799
-0.028746367
0.0006785393
0.0018571615
0.0039675236
0.0022212267
0.0044265985
-0.0032167435
0.010350823
0.004858732
0.0060201883
0.016225457
0.011362672
0.00094008446
0.007837057
0.0016453266
-0.0079523325
0.007477045
-0.017009616
0.0121587515
0.01780665
-0.005944133
0.0061221123
0.0065983534
-0.003121376
0.016063333
0.014914155
0.019563675

-0.008032203
0.0029541254
0.0013073683
-0.0024108887
0.0029889345
0.0010751486
-0.001670599
-0.0006047487
-0.0112121105
0.013347268
0.0038274527
-0.0022364855
0.005014062
0.0011713505
-0.004681349
0.00026285648
0.010326743
0.0029799938
0.0140070915
0.009178162
0.002321601
-0.008015752
0.0011228323
0.0064857006
0.0006314516
0.008530378
0.0058699846
-0.005529046
-0.013398528
0.009768367
-0.002782464
-0.008238673
-0.005607605
0.00169456
0.013925791
0.0022025108
-0.00052952766
0.0013751984
-0.0147714615
0.0062025785
-0.0016299486
-0.0038682222
0.015887737
-0.00018310547
0.012460947
0.00655818
0.00096559525
0.0030821562
0.008832216
-0.0036764145
0.0060129166
0.010399938
0.009348869
0.00035107136
-0.009436011
-0.012116313
-8.1539154e-05
-0.0050296783
-0.003471136
0.006039977
-0.018033624
-0.009017229
-0.002129078
0.002126336
0.0071521997
0.0013602972
-0.028562665
0.012115836
0.0012036562
-0.0034692287
-0.00071680546
-0.0012866259
-0.0024141073
0.0008716583
0.0052723885
0.009546518
-0.0025584698
-0.00460732
0.0068211555
0.0038576126
-0.0033892393
0.0044089556
0.0013945103
-0.0013883114
-0.0074278116
0.0037158728
0.00049078465
0.0024206638
0.010835052
0.0071339607
0.00230968
0.007236719
-0.008239865
0.00047457218
-0.016436934
0.0027059317
0.0040972233
-2.014637e-05
0.00073456764
-0.0074157715
0.017699122
0.0020823479
-0.01136601
0.00873971
-0.0016987324
0.008328199
0.0022289753
-0.009043574
0.004493475
0.0059086084
0.005208969
0.007000923
-0.0089303255
-0.0008393526
0.0014870167
0.001388669
0.012008429
-0.0050861835
0.015653968
0.012583017
0.0013481379
-0.0009763241
-0.005958557
-0.0025547743
0.0062110424
0.016133308
0.0078908205
-0.001552105
0.006402731
0.001069665
-0.004793167
0.0036042929
0.0055021048
0.015911698
-0.008452654
0.004995942
0.003730774
-0.0017559528
0.006477356
-0.0050908327
-0.0023150444
-8.34465e-05
0.011248231
0.009796023
-0.0023332834
0.003980756
0.012113571
-0.016808748
0.00036370754
0.006014228
0.0045820475
-0.0050467253
-0.005438447
-0.0036485195
0.014772177
-2.7418137e-05
-0.003703475
-0.004977584
-0.002338767
-0.007686496
0.01694882
0.0058609247
0.003823042
-0.0010303259
-0.004503846
0.0014792681
-0.008784771
0.00048828125
0.003608942
0.004275441
0.009244561
-0.0038121939
0.003682375
0.00412488
0.014246702
-0.0062863827
0.011155367
-0.0056978464
0.002942562
0.014793158
0.008778572
0.008184671
0.012087464
-0.00419724
-0.0019714832
0.01028645
0.0023366213
0.00015687943
0.002811551
0.011143088
-0.0044277906
0.014578819
0.008105278
0.008076191
0.0055071115
-0.017699957
0.009955049
0.0066713095
0.0145766735
-0.00068974495
0.020094275
0.013844967
0.00492692
0.0050519705
-0.011603594
-0.0055036545
-0.0035932064
-0.011292458
-0.0041544437
-0.0015240908
-0.006392002
0.006046295
-0.0064077377
0.019541383
0.012283087
-0.003513217
0.015198231
0.010433555
-0.0016633272
-0.0013395548
0.009985924
-0.0017726421
-0.0022952557
0.0051757097
-0.0038793087
-0.015495777
-0.004986286
0.007099986
0.008589268
0.0002863407
0.002839923
0.009810805
-0.0004479885
0.0067210197
0.009530306
0.010941744
0.0006221533
0.005543351
-0.004856825
0.0030351877
0.0031597614
0.0063622
0.0020564795
0.006670356
0.0010143518
0.016332507
-0.0007762909
-0.005456686
0.0038615465
-0.0062618256
0.014142275
-0.005112171
0.0016871691
0.003920436
-0.012848139
0.00505352
0.00012922287
0.0043102503
0.015559554
0.004973173
-0.0044909716
0.00040721893
0.007694006
-0.005867839
0.00066292286
-0.007686138
0.02373147
0.013136625
0.0021064281
-0.0067691803
0.0023175478
0.011369109
-0.005279064
-0.016942501
0.008432746
0.019428253
-0.004163265
0.0044715405
0.0014067888
0.0051068068
-0.00053465366
0.012349367
0.0052005053
0.0074231625
0.0043218136
0.020917892
-0.0039846897
0.003112793
-0.0007019043
0.0040301085
-0.004296541
0.0049934387
0.008337855
0.0012379885
6.508827e-05
0.0009741783
-0.020938277
0.009560704
0.0069713593
0.0019526482
0.02510047
0.027549386
-0.002817154
-0.03171718
0.0047883987
-0.0059762
0.007161379
0.0006740093
-0.0006971359
0.017276049
-0.01154983
0.0008596182
0.00038290024
0.0021423101
-0.0021394491
-0.0015615225
-0.00022161007
0.011593461
0.018316507
0.007998705
-0.000669837
-0.0013188124
-0.006843567
0.0028988123
-0.0010797977
-0.0011479855
-0.00037992
0.03337884
-0.015581965
0.003575921
0.006039262
-0.0029027462
0.014772296
0.0024302006
0.010232687
-0.018322706
-0.0016150475
0.023158193
-0.005110979
0.004907131
0.001583457
-0.00076937675
0.011937499
0.0074909925
0.009917855
-0.008357525
0.0012737513
0.011681914
0.013694882
-0.0053408146
3.4213066e-05
0.0047204494
-0.0058101416
0.018852353
0.0006068945
-0.0027934313
-0.00087559223
0.007037401
0.009680986
0.0039793253
-0.00015580654
0.01710236
0.001113534
-0.0022628307
0.0021982193
0.01287055
-0.005366802
-0.0009483099
0.0032182932
-0.017353415
0.0048879385
0.00029814243
-0.00073218346
0.0005440712
-0.006637454
0.0046025515
0.002529502
0.005069375
-0.0036098957
-0.0007121563
0.007834554
0.006831646
0.02561891
0.010643125
0.0025023222
-0.0013703108
0.0011597872
-0.0010701418
-0.0015616417
-0.0056712627
0.020714402
0.010892272
0.010175705
-0.0025628805
0.00023937225
0.00089609623
0.0028276443
0.006372452
-0.01104033
0.0043212175
0.00085926056
-0.00031161308
0.003682971
-0.0062344074
0.0041383505
0.005772829
0.0009627342
0.0062918663
0.0016270876
0.0026086569
0.008278847
0.002931714
-0.012596011
0.004529953
0.003088951
0.008216858
0.011826873
0.008344412
-0.00049209595
0.0022082329
0.006629944
0.0070979595
0.00060915947
-0.0020772219
0.0038434267
0.002729535
0.012734532
-0.0012300014
-0.0067750216
-0.004634261
0.004945636
0.0036199093
0.00425148
0.005345583
0.0029804707
-0.020342112
-0.0014750957
0.009388208
0.009806395
0.009333491
0.0016516447
0.005800605
0.010954022
0.0035104752
0.011804223
0.010613322
0.009837031
0.0030498505
0.01331687
0.0052394867
0.00026392937
-0.007533431
0.005762458
-0.001111269
0.013257027
0.0068409443
0.007879376
5.3286552e-05
-0.0025855303
0.0023475885
0.002662897
0.0077353716
-0.0028568506
0.012156963
0.0030332804
0.00012373924
-0.00027012825
0.005937457
0.0066595078
-0.0034695864
-0.0006324053
0.002434373
-0.0056523085
0.0002323389
0.0030456781
0.006520629
0.0068161488
0.000992775
0.009230137
0.001381278
-0.0014138222
0.0063222647
-0.008289576
-0.0018746853
0.007174492
-0.009327054
0.008728027
-0.0039526224
-0.0070052147
-0.00033962727
0.013310313
-0.003576994
0.00705266
-0.0040512085
-0.0044902563
0.0015381575
0.01427269
0.018643975
0.0063322783
0.00083494186
-0.0007081032
0.01781559
-0.0030224323
0.0047445297
-0.0049728155
0.0021452904
0.014897943
-0.008330107
0.013965249
0.009854555
0.0076737404
0.020115733

0.0052433014
-0.00027656555
0.0034681559
0.007049918
-0.007335067
-0.0045604706
-0.0030510426
0.00021982193
0.0077642202
0.012014508
-0.0012774467
0.0062206984
-0.0013682842
0.0041885376
-0.018262625
0.006942153
0.006280422
0.010270834
-0.0005712509
0.010818362
-0.0058562756
0.0017670393
-0.008998275
-0.00053596497
0.0004079342
0.0057946444
-0.00042247772
0.003119111
-0.00086700916
0.0006766319
-0.0019412041
9.9897385e-05
-0.0015473366
0.036262512
-0.01575172
-0.0016186237
0.0053372383
-0.0051549673
0.007535577
0.012948036
0.0007067919
0.0065284967
-0.0018824339
-0.0005953312
0.006591797
0.004070878
0.001434207
0.003344655
0.001972556
0.003847003
0.0035920143
-0.0027234554
0.0013495684
0.0055485964
0.0026957989
0.0046485662
-0.0045080185
-0.00075030327
0.011549473
0.009276748
0.004129648
0.012918353
-0.0035681725
0.0014486313
0.0005892515
-0.0025447607
-0.001879096
-0.00054192543
0.001040101
0.010487914
-0.0020618439
-0.0007895231
0.0021448135
0.013659835
-0.0002901554
-0.0015386343
-0.0012503862
0.009906888
0.0074985027
0.009995341
0.00033950806
0.008164287
0.008720279
0.0012205839
0.0054347515
0.003512144
0.0014765263
0.0050526857
0.006976962
0.00268507
0.016773224
0.0013011694
0.00032174587
-0.0017514229
0.014930129
0.0009624958
0.0006887913
0.005401373
0.0036082268
0.0045393705
0.00033938885
0.0015032291
-0.0071212053
0.022668004
0.000166893
0.00094020367
-0.00048148632
0.009423614
0.0030037165
0.00014591217
0.0022399426
0.004619837
0.0020210743
-0.01625526
0.0018856525
-0.0003194809
0.00040507317
0.00515604
0.003071189
-0.00092196465
0.0050467253
0.0026272535
-0.0007033348
-0.0053474903
0.0023177862
-0.0068387985
0.008210659
0.0021260977
0.0073498487
0.0028728247
0.007654786
0.00240314
0.0016906261
0.0017546415
0.011449456
0.0010707378
-0.004030466
-0.0009921789
0.0009125471
0.0049259663
-7.915497e-05
-0.0113533735
0.0018173456
0.0063841343
0.0025978088
-0.0006495714
0.0021739006
-0.00090026855
0.011307359
-0.0070188046
-0.00286448
0.0012001991
-0.0017687082
-0.0019419193
0.0028768778
0.0015403032
-0.0026367903
-0.0062321424
-0.00748384
0.011527061
-0.0016648769
-0.00081527233
0.018695712
-0.012062669
-0.0035806894
0.018382788
0.009945154
-0.010609746
-0.01008904
0.005114913
0.0065990686
0.0035637617
0.0016727448
0.020021558
0.002419114
-0.006084442
0.0017457008
0.0010268688
-0.001222372
2.7656555e-05
0.01202631
-0.007741213
0.0004298687
-0.0032367706
0.013023138
0.0057855844
-8.690357e-05
0.0043554306
0.0036215782
-0.0032417774
-0.010154009
0.0008119345
0.00022757053
0.0028557777
0.0020382404
0.0056869984
0.0010615587
-0.00062417984
0.008038521
0.0034948587
0.006815672
-0.00031363964
0.0024473667
0.006864071
-0.000121712685
0.00048196316
0.0016230345
-0.008124471
0.0012819767
0.008016944
0.003908992
-0.00028526783
0.006170392
0.0006841421
0.0038603544
0.011534452
0.006399274
0.0017160177
0.0028916597
0.010787487
0.0013662577
0.0033180714
0.0026646852
0.00090408325
0.0010575056
0.002131939
0.007962108
0.0032019615
0.0036177635
-0.002433896
0.003653288
0.0054887533
0.012110114
0.00056004524
-0.00010251999
0.0010584593
0.012482524
0.0043963194
0.00046277046
-0.001601696
0.0022484064
-0.0062565804
-0.0019578934
0.003309369
-0.00045847893
0.00037753582
0.009941936
0.0025396347
0.00072944164
-0.00050473213
0.008417487
0.0016658306
0.010407567
0.0054682493
0.008014202
0.006705284
0.013173699
0.0005429983
-7.379055e-05
0.005815029
0.0009434223
0.0051418543
-0.0028358698
-0.0019966364
0.004177928
0.0026812553
0.0024101734
0.0010925531
0.0015627146
0.011196375
0.009186149
0.00029945374
0.003166914
-0.003959894
0.0011900663
-0.0047963858
0.02286017
0.0034110546
0.005238652
0.0073150396
0.0007940531
0.013542771
-0.0002361536
-0.0041018724
0.0030441284
0.004497528
-0.0037724972
-0.00092482567
-0.0004913807
0.0029057264
-0.00040912628
-0.0010983944
0.008598089
0.0002603531
-0.003210187
0.0018646717
0.00026762486
-0.0009357929
-0.0018690825
-0.00030124187
0.00023698807
-0.00018799305
-0.0012427568
0.00054240227
0.0014477968
0.0051879883
0.011926889
0.0068565607
-0.0022915602
-0.001091361
0.0028185844
-0.00810349
-0.0062936544
-0.00046885014
0.0005464554
0.008546591
-0.003926158
0.0048669577
-0.006342411
-0.0030430555
-0.0012168884
-0.0020782948
0.0010746717
0.002397418
0.011169672
0.0019009113
0.011527419
0.003518939
0.00352633
-0.0036190748
0.00065529346
0.0003684759
-0.0021036863
0.002466321
-0.0015507936
-0.008120656
-0.0016018152
0.008810401
0.0003350973
0.0087890625
-0.0033564568
0.00169456
0.0015097857
0.008871555
0.0039144754
-0.0023628473
-0.0046470165
-0.007086396
-0.0069674253
0.0014719963
0.0045411587
-0.00030219555
0.0008445978
0.021549582
-0.0012630224
0.004711151
-0.011850715
0.0065340996
0.00017118454
-0.0013639927
-0.0044538975
7.772446e-05
0.02643764
0.013645172
0.015794396
0.00790596
0.0011991262
0.000109791756
0.009883285
0.0032154322
0.0095329285
0.01499939
0.01179719
0.0027588606
0.0010261536
-0.0039168596
0.0026216507
0.0021016598
0.0043059587
0.002410531
0.0004837513
0.0025222301
-0.0030808449
0.0028066635
-0.0004669428
0.0034649372
0.0028932095
-0.02940464
-0.00013518333
-0.0028307438
-0.0018519163
0.00469172
-0.003399253
0.012339234
0.0069441795
0.009200931
-0.0007741451
0.009384513
0.0031148195
0.011065125
-0.00037276745
-0.00449574
0.0068011284
0.0004593134
0.004813075
0.004477024
0.0022957325
0.0019202232
-0.003840804
0.001616478
0.004557967
0.0023332834
0.0049386024
-0.0081807375
0.015141249
0.00043070316
0.001617074
0.004002571
4.053116e-06
0.014518142
0.0021721125
0.0109142065
-0.00089371204
0.016264081
-0.01711142
-0.0062178373
0.008870363
-0.00042891502
0.009315848
-0.0024024248
0.005847335
0.013186932
-0.007349968
-0.003988147
-0.002470851
0.0022218227
0.006581545
0.0042444468
0.0014060736
0.0047006607
0.020418525
0.014910102
0.0050834417
0.00017154217
0.004391074
0.0011506081
-0.000656724
0.0023385286
-0.0061672926
-0.008232951
0.0001335144
-0.0055538416
-0.00038862228
0.023967266
0.0030839443
0.019303203
0.026293397
0.013564348
-0.00018632412
-0.0026603937
-0.002346158
0.009703875
0.0016145706
0.0049438477
-0.0013341904
-0.0007339716
0.005692601
0.0066256523
-0.0006517172
-0.0010281801
-0.008603454
0.0022250414
0.0010142326
0.0134574175
-0.0011813641
0.002110362
0.0024040937
0.014003754
0.001085639
-0.002956152
0.0011100769
0.0020861626
0.005284071
0.008033991
0.009406567
-0.00650084
-0.00018548965
-0.0018815994
-0.00025773048
-0.0005135536
0.0004042387
-0.0013862848
0.00087702274
-0.006504059
0.0086295605
0.0038583279
0.007081151
0.0065500736
0.0019119978
0.0013298988
0.007413864
0.011841297
0.004285097
0.008870482
0.0143841505
-0.0023560524
0.0009738207
-0.0017597675
-0.009665847
-0.0098160505
0.007445812
0.009835839

-0.00061261654
0.0024161339
1.847744e-05
0.008628488
0.00037992
0.0055832863
-0.0006053448
-4.8160553e-05
-0.00059843063
0.0021113157
0.0062630177
-0.0005503893
0.0020282269
0.0009857416
0.0046192408
0.0003055334
0.0012439489
0.00052547455
0.0037413836
0.00043582916
0.002191186
0.0013580322
0.010467529
-2.2053719e-05
-0.002455473
0.0038511753
-0.0012763739
0.0014351606
0.000997901
0.0021790266
0.0009986162
0.010558724
-0.0010063648
-0.002806425
0.0027564764
-0.0001155138
0.0006554127
0.0074795485
0.0004557371
-0.0009646416
0.0019054413
-0.0017055273
0.0062901974
0.0014278889
-0.0010174513
-0.00014853477
0.0030872822
0.0018647909
0.0052808523
-0.00022089481
0.001809597
0.010473609
0.0015385151
0.008509159
0.0012207031
0.0014297962
0.000492692
0.00076150894
0.0038596392
0.0012671947
0.0015718937
0.0018281937
0.002865672
0.010941982
-0.0007171631
-0.00033259392
0.0022786856
0.01021266
0.0044282675
0.003003478
0.0039434433
0.00067937374
0.0011296272
0.0011318922
0.0069282055
0.0070137978
-0.001178503
3.6001205e-05
0.002347827
-1.847744e-05
0.0031933784
0.0028698444
-0.001091361
0.0033922195
0.002015233
0.0023245811
0.0005121231
-0.002546072
0.011716247
0.0064207315
0.002914548
0.005277276
-0.00035655499
0.0041502714
0.0061808825
0.0038096905
0.0018091202
-0.00011277199
0.0055657625
0.00065112114
0.008031845
0.0037543774
0.014634967
0.002573371
-0.0010324717
3.2544136e-05
0.004539013
0.0014709234
0.0011456013
0.00023281574
-0.00026512146
0.0036188364
0.005073786
3.1232834e-05
0.0031478405
-0.0003350973
0.002457738
0.0010643005
-0.0075876713
-0.00044345856
0.007859826
0.005966425
-0.0039304495
0.0043652058
-0.00048398972
0.00035738945
0.007781744
0.00031220913
-0.0035932064
0.0011267662
0.009604692
-0.0013302565
0.003576517
-0.00016355515
0.0026990175
0.005398512
0.0012130737
-0.003882885
0.004190445
0.00025558472
-0.0007852316
0.0023773909
0.00064587593
-0.0027496815
0.0029598475
-0.0007841587
0.004903674
0.0023912191
-0.0014401674
-0.0043382645
0.0020673275
0.0016251802
-0.00022470951
0.004501462
0.0014139414
0.002487421
-0.001478076
-0.00065362453
0.0055969954
-0.005629182
0.0023941994
0.0019785166
0.00437963
-0.0010117292
0.0041629076
0.0033931732
0.0033403635
0.0063027143
0.0023138523
0.0036228895
-0.000101327896
0.003659606
0.0065557957
-0.00033402443
0.004635453
0.0037482977
0.015446544
0.009117842
0.008868694
-0.0020953417
0.005566478
0.0016922951
0.0009160042
0.0029182434
0.0021665096
-0.0017670393
0.0097721815
-1.6450882e-05
-0.0003374815
0.0036166906
5.364418e-06
0.0005707741
-0.0011075735
0.0043542385
0.004112959
0.004545331
0.00063169
0.0038124323
0.0025601387
0.008115649
-0.0007367134
0.006709695
-0.0001360178
0.0062988997
0.0005186796
0.009474158
0.005802512
0.001339078
-0.0028641224
0.010226846
0.0006939173
0.00038528442
-7.6413155e-05
-0.002826929
0.0018417835
0.005004525
0.0044760704
-0.0024012327
0.0025867224
0.0007300377
0.012839794
-2.8729439e-05
0.00082170963
0.00077295303
0.0012360811
0.0020561218
-0.0050104856
-0.0012488365
0.0009809732
0.0015451908
-0.0026435852
3.7550926e-05
0.0020195246
-0.004276514
0.00033318996
0.0008277893
-0.001665473
0.00077307224
0.0012434721
4.720688e-05
0.0016447306
0.004855752
-2.861023e-05
0.0042533875
0.0047587156
0.003365159
0.010012746
-0.0025351048
-0.0008636713
-0.00054848194
-8.833408e-05
0.010528207
0.0012909174
-0.0023671389
0.0036355257
-0.003805399
0.0041098595
0.0008573532
0.0037021637
0.0003862381
0.017054677
0.00075542927
0.0012302399
0.0014839172
-0.0008716583
-0.00023889542
0.00028443336
0.0076360703
-0.0020141602
-0.000577569
0.0074727535
-0.0010584593
0.002606988
0.0022860765
0.00090765953
0.0019214153
0.0063803196
-0.0007081032
0.0058716536
0.001691103
0.0025430918
0.00930655
0.00641346
-0.0023223162
-0.002465129
0.012952566
0.0022239685
-0.0007286072
-0.00077331066
0.0011329651
-0.0015604496
0.0035612583
-0.0006248951
0.003479004
-0.0006853342
0.0018751621
0.002882719
0.001722455
-0.0014411211
0.002066493
0.0062589645
0.0015594959
-0.0008150339
0.00602901
-0.0008804798
-0.00085163116
0.0011951923
0.0011752844
0.0027569532
0.0037174225
0.0054330826
0.00045979023
-0.00081706047
0.0013055801
0.017628789
0.0035811663
-0.0006481409
0.010553598
0.008045793
0.0009371042
0.011930823
0.0006020069
0.00018703938
0.0011854172
0.007311821
0.00092995167
0.0007497072
0.0031921864
0.008400083
-0.00185287
0.005014181
0.00027799606
0.01277256
0.00096452236
0.00052535534
0.00013542175
0.0033373833
0.003005147
0.0015184879
0.0041843653
0.00772202
0.0049847364
0.002760768
0.0023130178
0.0021973848
-0.002929926
0.006481886
-0.0020667315
-0.0007226467
-0.0044761896
0.0033675432
0.008449316
0.00022852421
0.0024491549
0.008155584
0.0034227371
0.00075531006
0.00051641464
-0.00031292439
-0.00067543983
0.0028971434
0.006592393
0.001255393
0.0012782812
0.0043509007
0.0008765459
0.0039391518
-0.00060236454
0.0016293526
0.0042937994
-0.00066137314
0.008785486
0.0031323433
0.00220263
0.00019717216
-0.000693202
0.008309722
0.0021603107
0.00026094913
5.1498413e-05
0.005340934
0.006388545
0.0023864508
0.0036302805
0.004804969
-0.0007195473
0.0013809204
0.0011303425
-0.0016257763
0.005539775
0.0004937649
0.0029509068
0.0056010485
0.0010477304
0.004057765
0.0021710396
0.0013632774
0.0028727055
0.00064599514
0.0022833347
-0.000518322
0.0013223886
0.0023758411
-0.00010883808
0.0020813942
0.0051225424
0.0056835413
0.0049239397
0.002978921
0.001268506
0.001333952
0.004936099
-7.545948e-05
0.0005185604
0.0062578917
-0.00033915043
0.00074636936
-0.0011116266
8.690357e-05
0.0060305595
0.0017311573
0.004745722
0.004458189
-0.0016101599
0.0046464205
0.003787756
4.8995018e-05
0.0021585226
-0.0010883808
0.008008361
0.003450036
0.00091683865
-0.0007420778
0.0027301311
-0.0006322861
0.0013400316
0.007124305
0.0041309595
0.0021791458
0.0067260265
0.0072858334
0.0002887249
-1.6212463e-05
0.005010009
-0.0020433664
0.003378272
0.0035538673
0.001106739
0.0015597343
0.009122372
0.008777022
1.2516975e-05
0.0019060373
0.002031684
0.003958583
-0.003737092
0.0031569004
0.0026040077
0.004978895
0.009705663
0.0010075569
0.00601995
0.00078082085
-0.00068748
-0.0008044243
0.0033535957
0.0009241104
0.007061124
-0.002882719
0.0003734827
0.003982544
0.014671922
-0.00031101704
0.010191321
-0.0015041828
0.0009074211
0.0032522678
0.0061870813
0.00024187565
0.0017161369
0.0032219887
-0.0014061928
0.0014587641
0.0006135702
0.0036082268
0.0027815104
0.0050804615
0.00068712234
0.009982824
0.004029393
0.0046464205
0.0044465065
0.0011539459
0.00027740002
0.0045048
0.000111579895
-0.0007352829
0.00038564205
0.0008136034
0.0035208464
0.0038950443
0.0037010908
0.0013023615
0.0018024445
0.0011378527
0.00051164627
0.0032002926
0.004933715
-0.000543952
0.00016975403
0.0012712479
0.001964569

-3.671646e-05
0.0018745661
0.0071076155
-0.000528574
0.0038534403
0.00028538704
0.0020282269
0.00031483173
0.001982689
0.0041850805
-0.0009533167
0.0021523237
-0.0010455847
-0.00037693977
-0.00014448166
0.0045444965
0.002071023
0.0064287186
0.0010756254
0.0015907288
0.0069544315
0.0014201403
0.0019755363
0.009538174
0.0021651983
0.0019398928
0.000518322
-0.00018453598
0.0002399683
-0.001367569
0.0023491383
0.005625844
0.00090384483
0.0013939142
0.0072700977
0.006876588
0.00081562996
0.0043034554
0.0045337677
0.0031244755
-0.0004720688
0.005631089
-6.937981e-05
0.0018302202
0.0009393692
0.0033442974
0.007448077
0.00089371204
0.0008146763
0.0070180893
0.0048681498
0.0027768612
0.0023999214
0.00037658215
-0.0011976957
0.0039725304
0.00038194656
0.001803875
-0.0004994869
0.0029786825
-0.00048291683
0.0021135807
0.0025326014
0.00025773048
0.00088870525
-0.0016117096
-0.000477314
0.0039452314
0.0020503998
0.00061142445
0.000988841
0.0007735491
0.0028791428
0.0019677877
0.0056569576
0.008096933
0.0014275312
0.00019013882
5.90086e-05
-0.00042450428
0.0007059574
-0.00026142597
0.0060782433
0.0012282133
0.0047780275
0.0026915073
0.0018292665
0.0058891773
0.0016856194
0.008928299
0.007940173
0.00037002563
0.0034371614
0.0008609295
-0.00040876865
0.00085127354
0.00556159
0.00089895725
0.0008084774
-0.0003964901
-0.00014173985
0.002683878
0.004824519
-0.00042951107
-0.0003811121
0.0020393133
0.000104665756
0.006824255
0.0020303726
0.0038639307
-0.0017390251
0.0014730692
0.001521945
-0.0013234615
0.0027735233
0.0037320852
0.0017772913
0.0057940483
0.0070312023
0.0011388063
0.0006816387
-0.001075983
0.00033712387
0.0021157265
0.00081419945
0.00033080578
0.0001090765
0.0054513216
0.0018304586
0.0049083233
-0.0018146038
0.0027142763
-0.0011739731
0.009644151
0.0002862215
0.005278945
0.005386591
0.0051350594
0.0015425682
0.0026124716
0.005748749
0.00020301342
0.0004210472
0.0036170483
0.00088846684
0.002136588
0.0009279251
0.0012221336
0.004948616
0.0021810532
0.0035108328
0.007610321
0.0015006065
-0.00025320053
0.0032821894
0.003917575
0.0032578707
0.0020908117
0.0031992197
0.004637599
0.0017315149
0.002167821
0.00061261654
-8.738041e-05
0.0019071102
0.0042272806
0.0035660267
0.0011839867
0.0011663437
0.0005733967
0.002927065
0.0006865263
0.0018146038
-0.00028812885
0.0006701946
0.0006418228
0.003949523
0.0082986355
-2.69413e-05
0.0041240454
0.0012991428
0.0031666756
0.0027304888
0.0050917864
0.00071644783
0.0036246777
0.002650857
0.002278328
0.0043096542
0.0020620823
0.006921649
0.00129807
0.006194949
0.0032696724
0.0035232306
0.0038415194
0.0028539896
0.0034319162
0.003712535
5.6147575e-05
0.0063774586
0.0024763346
0.0027617216
0.0036439896
0.0012660027
0.0020325184
0.0008188486
0.0023736954
0.0014976263
0.0014317036
0.0035192966
0.001972437
0.0026661158
0.002870798
5.4359436e-05
0.0046218634
0.0008633137
0.0017285347
-0.0012675524
0.0031409264
-0.00075125694
0.002137065
0.001303196
0.0017434359
0.0020805597
-0.0007662773
0.00060772896
0.002510786
0.008477211
0.00013422966
0.0012331009
0.0004941225
0.001606226
-0.0005540848
0.0013606548
-0.00020301342
0.00031900406
0.00011634827
0.00056266785
-0.00035011768
0.003354311
0.0009955168
0.006036401
0.002178073
0.00083839893
0.007855177
0.0021039248
0.00084614754
0.0018979311
0.00023448467
0.0045149326
0.0042128563
0.0047973394
0.0010569096
0.004808545
0.0029387474
-0.0019028187
0.002696395
0.0066577196
0.0021628141
0.0047078133
0.0050156116
0.0072966814
0.0010699034
-6.0796738e-06
0.0019460917
-0.0042283535
0.0018440485
0.0018308163
-0.0005573034
0.0040631294
0.0008556843
-0.0005015135
0.010409117
0.00079226494
0.0035892725
-6.890297e-05
0.003755331
0.0018053055
0.0022625923
0.0044829845
0.005154252
0.0021816492
-0.00089097023
-0.0006020069
0.0037409067
0.0012444258
0.00035095215
0.0005530119
-0.00019097328
0.0021418333
0.00030946732
0.00046658516
0.0026119947
0.0045633316
0.0016463995
-0.0007507801
0.0023429394
-0.00063836575
-8.4519386e-05
0.00068187714
0.0003732443
0.001161933
0.004791856
0.00076806545
3.9815903e-05
0.006821513
0.005902171
0.003923297
0.002882123
0.0012629032
0.0021630526
0.0008596182
-0.00055480003
0.0017119646
0.0049272776
0.0021920204
0.0007480383
-3.4928322e-05
0.0008864403
-0.001109004
-0.00015461445
-0.0011223555
0.0010983944
0.0044293404
0.0026851892
0.00075030327
0.002718687
0.0029605627
0.003731966
0.0013091564
-5.2809715e-05
0.00068974495
-0.00062441826
0.0019613504
0.0042487383
0.010728121
0.0026978254
0.0036244392
-0.001552105
0.004860401
-7.379055e-05
0.0018925667
-0.0014455318
0.002178669
0.004015684
0.0043724775
0.0063557625
0.00074756145
0.0030281544
0.0014790297
0.0029798746
0.0032835007
-0.0005402565
0.00729692
0.00041341782
0.0014152527
-0.00028645992
0.0014923811
0.0092971325
0.0031564236
0.0053067207
0.002358675
0.0016545057
-8.761883e-05
0.001303792
-0.0011308193
0.0011256933
0.0024172068
-9.3221664e-05
0.005340457
0.0029841661
0.0008405447
0.0009293556
0.0060220957
0.0025616884
-0.0005517006
0.0040460825
0.0010557175
0.0033296347
0.0009330511
0.0054980516
0.004327297
0.0008171797
0.00041162968
0.0025855303
0.0027464628
0.0015182495
0.00014686584
0.00026202202
0.0074483156
0.0020920038
0.00015926361
0.00072431564
0.004068136
0.005408168
0.002568245
0.0028458834
-8.428097e-05
-0.00012087822
0.0027952194
2.5749207e-05
0.0036131144
0.0022644997
0.00027406216
0.0068091154
0.0068565607
-0.00017821789
-0.00015115738
0.0010234118
0.00025212765
0.0070484877
0.0036219358
0.0036826134
0.0017095804
0.004811406
0.0037679672
0.0018172264
0.003281951
0.001201272
0.0012319088
0.0041474104
0.0005939007
0.0061718225
0.002882719
0.0043177605
0.0013654232
0.0065790415
0.0026888847
0.0021508932
0.0002824068
0.003718853
0.0060688257
-0.0007017851
0.0038380623
0.003890872
3.9577484e-05
0.0024963617
0.000926733
0.0004993677
0.0017212629
0.004183531
0.0025619268
0.003715396
0.0034918785
-0.00030100346
0.0014703274
0.0049579144
0.01930976
0.0010967255
-5.686283e-05
0.0038055182
0.0013463497
0.0042800903
0.002806425
0.0014398098
0.0072875023
0.0013399124
0.0010769367
0.0025063753
0.009594083
0.0028989315
0.008153677
0.0094771385
0.008544445
0.0029308796
0.004107833
0.0089582205
0.0017231703
-0.00034320354
0.0008029938
0.0010831356
0.001491785
-0.0007082224
0.0024505854
0.0077186823
0.0004800558
0.0022518635
0.0003720522
0.004036665
0.0017371178
0.0015971661
0.002911806
0.0034178495
0.00033521652
-0.0005444288
0.0041829348
0.001679182
0.007464528
0.0014505386
0.0028164387
0.0009188652
0.0019141436
0.0026409626
-0.0011302233
0.00021624565
0.0021134615
0.0005327463
0.0026595592
0.0024491549
0.001657486
0.009984255
-0.0029244423
0.0037976503
0.001674056
0.0013206005
0.0013513565
0.0008288622
0.0017801523
-0.0019210577
0.004081726
0.0055673122

0.0046657324
-0.00086915493
0.009550929
0.0031483173
0.0013645887
-0.000590086
0.00029218197
0.0007481575
0.004384041
0.00088369846
-0.0015890598
-0.00069999695
-0.00063204765
0.005545974
0.0012295246
0.0067408085
0.006462455
0.0011459589
-0.00034344196
0.0055834055
0.009637594
0.0030282736
-0.00066435337
0.00065279007
0.00470376
0.003914833
0.0030738115
0.010424972
0.0042483807
0.0046389103
0.0014432669
0.007011652
0.0009086132
-0.0015746355
0.00039100647
-6.1154366e-05
-0.0033661127
-0.005370736
-0.00010621548
0.0020974874
0.0030802488
0.0009331703
0.006268859
0.001917839
0.0027736425
-0.0029006004
0.0008405447
0.0014942884
-0.000111579895
-0.0019991398
0.0037884712
0.0020923615
-0.0032638311
-0.000641942
0.00090134144
0.0040147305
0.0046719313
-0.0003849268
-0.0011441708
0.000351429
0.0020008087
0.0021328926
0.0007739067
0.0016537905
0.0009948015
0.00962162
-0.0004439354
0.007858276
0.0043804646
0.0025383234
0.0008946657
0.0032240152
0.0019555092
-0.0005681515
0.0028752089
0.0014523268
0.0022205114
0.006602764
0.0021243095
0.0028626919
-0.00025558472
0.001180768
0.0031707287
0.0025558472
0.010482907
0.0011159182
0.0063847303
0.011336803
0.0062128305
0.0028514862
-0.0013707876
0.003226757
-0.00045752525
-0.0006147623
-0.0015141964
0.0036070347
0.0063158274
0.0026589632
0.0020079613
-0.00087344646
0.0011360645
0.0011417866
-0.0018066168
0.004312992
0.0059484243
0.004079461
0.012504816
-0.0014895201
0.00740993
0.006630659
-0.0007058382
-0.0008764267
0.0052171946
-0.00041294098
0.0014125109
0.0017659664
0.0046185255
0.004890442
0.0012798309
0.0057598352
0.0007532835
-0.0005866289
0.0022115707
0.009829402
0.000649333
0.0024660826
0.0012236834
0.003511548
0.003837943
0.0015691519
0.0018390417
-0.00368011
-0.00083863735
0.0053248405
0.0028324127
0.0023949146
-6.3180923e-06
0.003856182
0.0046875477
0.0051864386
0.0028457642
0.0049700737
0.0010863543
0.000826478
0.001306057
-0.001257062
-0.0030813217
0.003755331
0.0016548634
-0.0016739368
0.0025684834
0.0009378195
0.001132369
0.007142663
0.009485602
0.0072268248
0.004861355
0.0016463995
0.0009638071
-0.0011667013
0.0018179417
0.0035630465
0.003828168
0.0043879747
-0.00030434132
-0.00038158894
0.0024095774
0.005333066
0.0016146898
0.001206398
0.004763961
0.00047898293
0.0057982206
-0.0003722906
0.0050885677
0.0047249794
-0.0019375086
0.0058779716
0.000116705894
0.0032936335
-0.0013588667
0.0014333725
0.0046743155
0.0052872896
0.00025093555
0.0035104752
0.0076863766
0.011695862
0.0031832457
0.0046038628
0.0031442642
-0.0019874573
0.0013914108
0.0018013716
-0.00012302399
0.005014062
0.0029540062
0.0019147396
-0.0006314516
0.00050497055
0.002118349
0.0007315874
-0.00010108948
0.0033438206
0.012616992
0.00045979023
0.0015211105
0.0020679235
-0.0009782314
0.004074812
0.0020436049
0.0055685043
0.0033029318
0.01065588
-0.0002757311
0.0054751635
0.008827448
-0.00092983246
0.0021115541
-0.0007277727
0.0069322586
0.007182479
0.0020130873
0.0036964417
0.0032035112
0.0006355047
-0.00047039986
-0.002328992
0.002898097
0.0016101599
0.0033855438
-0.000646472
0.003224492
4.8995018e-05
0.0019214153
0.0038831234
0.0009818077
0.00204885
0.005320549
0.0018888712
0.0003938675
0.0023963451
-0.0008573532
0.003982067
0.007576704
0.0005785227
0.0019052029
0.00031602383
0.009892464
-0.0021297932
-1.5616417e-05
0.00024867058
0.0014126301
0.004792452
0.00026905537
0.0074284077
0.004118204
0.0014827251
0.0054472685
0.0075351
0.0047109127
0.009554148
0.001593113
0.008000493
0.0014175177
0.004183531
-0.0015536547
0.000446558
0.0039309263
0.0057007074
0.0012418032
0.0057379007
0.0020091534
0.0046731234
0.0014426708
0.0004671812
0.00048744678
0.0013029575
0.0029287338
0.0101543665
0.001196742
0.002798438
0.0046275854
-0.0009460449
0.0016596317
2.0384789e-05
0.00041401386
0.0097305775
0.004157543
0.0040693283
0.0028710365
0.00088799
-0.0005389452
0.00024867058
0.0029771328
0.00076949596
0.0033972263
0.00312984
-1.859665e-05
0.004480481
0.00038921833
0.0074641705
0.0011847019
0.0032349825
0.002313614
0.0006483793
0.0022921562
-0.001047492
-0.00045251846
0.0005862713
-0.00035524368
0.0057305098
0.0066690445
0.004175544
-0.0018501282
-0.00069093704
0.004514694
0.0018179417
0.007967472
5.9366226e-05
0.002395749
0.00411427
0.0029296875
0.0001924038
0.0021743774
0.0022443533
0.004196644
5.567074e-05
-0.0013816357
0.006033063
0.008147001
-0.0009913445
-0.000582695
0.005022526
0.0010135174
0.0039042234
0.0046446323
0.0006155968
0.0012689829
-0.0018709898
0.0006520748
0.001065135
-0.00076544285
0.0019350052
0.0023149252
0.006243944
0.0066429377
0.0057445765
-0.00044703484
0.004419446
-0.0003632307
-0.00041985512
0.00289464
-0.0006713867
0.0039646626
0.0024273396
-0.0021498203
0.002966404
0.003972888
0.005419612
0.0013934374
0.003141284
0.0029921532
-0.00036859512
-0.0004348755
0.0030583143
0.00196743
0.00030827522
0.0008584261
0.011309981
0.010684371
-0.00060009956
0.0058016777
0.014394522
0.0006200075
0.0038808584
0.008684516
0.0021800995
0.00045228004
0.0014694929
0.009712696
0.005774617
0.008215904
0.0021196604
0.005914092
-0.0021882057
0.0033701658
0.00066518784
0.0012441874
0.004332423
0.0049664974
0.00019538403
0.0021913052
0.002055645
0.0016360283
0.0044864416
0.0024086237
0.0051828623
-0.00034594536
0.0005941391
0.005710721
0.00051391125
0.0009672642
0.0010279417
0.0022215843
-0.002174735
0.0013464689
0.005682349
0.0049521923
0.0006223917
0.003823638
0.0042580366
0.0008301735
-0.001434803
0.0009343624
0.0008326769
0.0021500587
0.007834911
-0.00057792664
0.0011832714
0.0045381784
0.0012843609
0.0008751154
-0.00068867207
0.0031716824
0.00066673756
-0.003153801
-0.00029575825
-0.0002065897
0.0071457624
0.0028856993
0.001855731
0.008027554
0.0047086477
0.0034116507
-0.001119256
0.003463626
0.0019500256
0.006270647
0.0041503906
0.0010130405
-0.0006018877
0.004135847
-0.0015705824
-0.002621293
0.003082633
0.008877397
0.0030373335
0.0030283928
-0.00045192242
0.0022871494
-0.0015300512
0.0028824806
0.015345812
-0.0022306442
0.0025013685
0.0020471811
0.0035229921
0.0016725063
-0.006534934
-0.003120184
-0.0041310787
0.0003284216
0.0007750988
-0.0004903078
0.0019607544
0.004380226
-0.00053179264
0.002769947
-0.00037956238
0.0040956736
0.00034856796
0.003045082
0.0050201416
0.00040113926
0.00072979927
0.0013833046
0.005617738
-9.393692e-05
-0.0015087128
0.0014078617
0.0016410351
0.006823182
-0.0024659634
0.0011479855
0.004000187
-0.00083494186
0.001480937
-0.0014003515
0.0008201599
0.00448215
-0.00055241585
0.0072665215
0.0039664507
0.00064504147
0.003573656
0.0046247244
0.0017462969
-0.00053334236
0.00046098232
-0.0033295155
0.0004953146
0.0016494989
-0.00020086765
0.004655242
0.0025792122
-0.0003786087
0.004947424
-0.00014030933
0.0044600964
0.0028795004
0.007559061

0.49783802
0.44449472
0.40384436
0.38090158
0.39410818
0.33338714
0.37593555
0.47811937
0.47341383
0.44160807

