0.0628432
0.083007574
0.018606186
0.05504787
0.017881513
0.028836608
-0.041612983
0.10981214
0.044101834
0.008108735
-0.12883449
0.051054716
0.044417977
0.07796395
0.033001542
0.051140666
0.067777276
0.05589056
0.004934907
-0.029639244
0.12247372
0.019926429
0.0031679869
0.1277951
-0.07380867
0.0039008856
0.018614411
-0.07030094
0.0069669485
0.027981281
-0.031142712
0.075788856
0.0816344
-0.059775352
-0.005586624
0.02456808
0.04170227
0.121527195
0.078543544
-0.05284643
-0.02764237
0.01518929
0.07323229
0.038866043
0.018075585
0.0861187
0.09287822
0.022114873
0.007348895
0.06480539
0.025975108
0.024254799
0.039210796
-0.04414177
-0.07584381
0.03671992
0.044440508
0.004980564
0.012174368
0.042895436
0.014846802
0.055185318
0.042128325
0.036404967

0.12493169
0.06769967
0.015589833
0.02442336
-0.0026749372
0.033601165
0.055123568
0.015317321
-0.018316388
0.096800804
0.011407495
0.016529918
0.003271699
0.004548788
0.01296711
0.05041349
0.102173686
0.018201232
0.012416005
0.033750057
-0.0076134205
0.00883317
0.0029507875
0.008694053
0.029757619
-0.15769637
0.009362459
0.017457366
0.0054318905
0.0824393
-0.05616188
0.13860321
0.010978222
-0.022418022
0.106140494
0.022949338
0.033511758
-0.002777338
-0.024017215
0.18659353
0.038916588
-0.02356553
0.013913274
0.12863386
0.060194492
0.11580837
-0.0063505173
-0.0028953552
-0.043784976
0.033684254
0.056786656
0.027760625
0.049510002
0.006557584
0.025682688
0.01882863
0.00204885
0.0050758123
0.0018730164
0.09346092
-0.06595671
0.033745646
0.010736585
-0.028506279

0.0028665066
0.02099979
0.032432318
0.00046765804
-0.0017999411
0.01628089
0.014304876
-0.00030386448
-0.001842022
0.01553154
0.037098408
0.0009647608
-0.0073583126
0.022630095
0.005692959
0.041595817
0.015746593
0.029470086
-0.0016112328
0.023193002
0.022001863
0.044963717
-0.01091218
-0.056295753
-0.028256416
0.010100126
0.001355648
0.026219606
0.006753683
0.020124197
-7.18832e-05
0.011469841
0.010975838
0.0004171133
0.005125046
0.025202036
0.027345777
0.003679514
0.062381387
0.0059132576
0.013554454
0.0048599243
-0.0106931925
0.014872313
0.034983158
-0.0315423
0.011019826
0.012830853
0.010988474
0.053555608
0.015744805
0.011007547
0.0022577047
0.023397803
0.03427255
-0.0036443472
0.0543617
-0.0059366226
-0.013237357
0.025197744
0.050874352
0.017568946
0.00013446808
-0.016298652
0.020190716
-0.0018936396
-0.004149556
0.018796325
0.01843071
-0.0065532923
0.0355891
0.0089674
0.029167295
-0.0010733604
0.03954971
0.017416358
0.049249172
0.0056937933
0.012277126
0.024435997
-0.02805984
-0.018833756
0.017468333
0.03672874
0.008246422
-0.00784564
0.017204762
-0.03035295
-0.021676302
0.022489905
0.01324296
0.01932776
0.032606483
0.06388223
0.02044034
-0.029850364
0.010332465
-0.05732262
0.008802891
0.02394569
0.0044903755
0.020938873
0.06534469
0.04461491
0.01733315
0.011707783
0.037151694
0.00081562996
0.023841143
0.052851915
-0.035793185
-0.010056734
0.013347983
0.023682833
0.025321126
0.02895379
0.0037269592
-0.0024915934
0.060216427
-0.022612453
0.0140731335
-0.0050987005
0.048959136
0.00081300735
0.0038679838
0.018219352
0.00999105
0.022549152

0.0026489496
0.04035139
-0.0030218363
-0.029332638
0.0008671284
0.022357702
0.014685154
-0.0009133816
0.03551197
0.041911006
-0.01411593
0.015997529
0.0040227175
0.045621395
-0.0115664005
-0.004633069
0.014804125
0.01640892
0.002286911
0.003971815
0.0147948265
0.021162271
0.01912558
-0.008735776
0.008966565
0.009130359
0.03728354
0.00091683865
0.014917016
0.01773405
0.015887856
0.00974524
0.010477066
0.039384723
-0.077215075
0.017043948
0.025330305
-0.04992366
0.007458687
0.011087537
0.036763787
0.013568878
0.026314497
0.03568113
0.038224936
0.024966478
-0.0046485662
0.0033921003
-0.001501441
0.012217283
0.019617915
0.0038036108
0.006091118
0.02304709
0.057436585
-0.004366994
-0.0011281967
0.024501681
0.001227498
0.012405872
0.0181489
0.035465002
0.018746018
0.0027623177
0.0070900917
-0.0031915903
-0.008695364
0.019456148
0.0072345734
-0.0025333166
0.01689756
0.05316007
-0.0025689602
0.015545011
0.015499353
0.033988833
0.0003527403
0.022923112
0.020320177
0.009545803
0.0041997433
0.067976
-0.012262464
-0.0058994293
0.021461606
-0.0025970936
0.0018850565
-0.013668656
0.026034832
0.026183486
0.02286899
0.06111896
0.018838882
0.026998878
0.012093663
0.031175494
0.017547965
0.027626991
0.0020475388
3.874302e-05
0.014938235
-0.024322629
0.024114609
-0.0029985905
-0.0176152
0.00045394897
0.00075542927
-0.021747828
0.004255533
0.048668504
0.0067549944
0.028613687
-0.020092607
0.050951242
-0.005266428
0.022566319
0.030213356
0.0395689
-0.018386722
0.031708717
0.0140239
0.015390754
0.008030176
0.017348409
0.01788342
0.04109943
0.04764521
-0.011961818

0.010628223
0.022013783
-0.012452364
0.010026574
-0.0172472
0.0015755892
6.556511e-06
0.011261344
-0.00037419796
-0.010661602
0.0010157824
0.021700144
0.002415061
-0.0012993813
0.009970665
0.0031750202
0.008687496
0.015765429
0.0016354322
0.012378573
-0.0076681376
0.0097332
-0.015966773
0.025611162
0.002559185
0.025323153
0.017468452
0.019233584
-5.4955482e-05
-0.0064008236
0.011388779
0.0026621819
0.016591907
0.025321007
0.004369855
-0.0010139942
0.007296443
0.020003796
0.014625549
-0.012595415
-0.0019789934
-0.00021851063
0.0031626225
0.00078713894
0.002515912
0.00680995
-0.026689887
-0.0010046959
0.022474408
0.023654222
0.00500834
0.014863491
0.015048981
0.020812035
0.007230997
0.017558098
0.0074329376
0.012303114
-0.0016191006
0.006460309
0.030103087
0.003825426
0.009822965
-0.0025242567
0.014293909
0.0017510653
-0.004220128
0.021265984
0.001937151
0.010496497
0.0044175386
-0.007834554
8.356571e-05
0.012094736
0.0079215765
0.027366638
0.0039874315
0.03125608
-0.008127451
0.006064296
0.0018805265
-0.004496455
0.0030941963
-0.00013637543
-0.012028694
0.0099333525
0.01898408
0.0017580986
0.0049852133
0.00207901
0.007502079
0.0071594715
0.014534235
0.0047830343
0.012449503
-0.0063892603
0.0226053
0.0029277802
0.012077928
-0.0018619299
0.0001770258
0.0011509657
6.9499016e-05
0.00010406971
-0.004679084
0.006425619
0.012647748
0.0003169775
0.022237778
0.005124092
0.03747368
0.004604697
0.0025185347
0.010571361
-0.011957288
0.005206585
0.006601453
0.0014959574
-0.0009576082
0.01784408
0.0035403967
0.0015438795
0.0033966303
0.024263501
0.012755513
-0.018514276
0.0037692785
0.007642865
-0.0053625107
0.0083322525
-0.02091515
0.006382942
0.007962227
0.0066024065
0.02898705
0.003417492
-0.0002939701
0.0060009956
0.014065385
0.0053542852
0.019405961
0.005224347
0.03092134
0.002108574
0.006296277
-0.0029258728
0.0064389706
0.006785989
0.00073862076
0.002144456
0.00030624866
0.0042635202
0.013684034
0.01410234
0.0019398928
0.002702713
0.033243895
0.0033160448
0.0023671389
0.013285756
0.00869
-0.02133584
0.006577611
-0.022627592
0.0076289177
-0.0037745237
0.020868897
0.02051258
0.009805679
0.011523366
0.0006968975
0.022074342
0.0027964115
0.018205523
0.012713671
0.033305645
0.00031030178
0.0050331354
0.01676774
0.022005081
0.0018901825
0.008102894
0.0039259195
0.005523801
0.0063165426
0.027949452
-0.007013917
0.022764802
-0.000572443
-0.0014570951
-0.01747942
0.0070004463
0.01325953
0.0018020868
0.013936162
-0.022108436
-0.0006607771
0.004814625
-0.011772156
0.018028855
0.007851839
0.0016885996
0.0060412884
0.034493566
0.0040034056
0.008145213
0.007125497
0.0074568987
-0.00039315224
0.0124566555
0.004066348
0.0007748604
0.0023559332
0.005810857
0.03686142
0.0045888424
-0.0016057491
-0.0016958714
0.017260432
0.0056892633
0.032212496
0.0018934011
0.014449
-0.0030151606
0.003861308
0.009476423
0.01662147
-0.0030155182
2.861023e-05
-0.0008369684
0.020044208
-0.01314497
-0.0033609867
0.0026314259
0.018395185
-0.0049870014
0.0268538
0.012727499
-0.002757907
-0.0031943321
0.012110949
-0.015519738
-0.009651542
0.007322073
0.004027486
-0.003434658
0.014398098
0.004218936
-0.0008677244
0.017014027
0.0047962666
0.007894039
0.0069289207
-0.00622797
0.0041912794
0.0048031807

0.010116339
0.00010538101
0.0051665306
-0.0037463903
0.004489422
0.010736346
0.00806427
0.009336114
0.0023921728
-0.0014901161
0.011731029
0.0019868612
0.0016539097
0.020779848
0.0044350624
0.01262033
0.0051819086
-0.009919882
-0.009961009
0.012017012
0.00791049
-0.0018721819
0.0017347336
-0.002538681
-0.0041029453
0.0058180094
0.018698335
0.010570765
-0.0010701418
0.022562504
0.010122061
-0.005065441
0.007892489
0.0068980455
0.0034793615
-0.015519977
-0.00069129467
0.003174901
0.004928112
0.012827039
0.0058504343
0.0135627985
0.0028822422
0.013568044
0.0025964975
0.0028544664
0.028372407
0.008977532
-0.001865387
0.021796584
0.008408904
0.0040973425
0.008386135
0.0008330345
0.01215148
-0.0007493496
0.028247952
-0.0037721395
-0.0019997358
-0.008975625
0.0003517866
0.005268216
-0.011649132
-0.006290674
0.0037658215
0.0019438267
0.013094902
0.01698792
0.0045188665
-0.004206419
0.01181829
-0.0026068687
0.00817728
0.013092756
0.0057827234
0.009410858
-0.0011105537
-0.0022940636
0.011842012
0.014499664
0.017838478
0.009746194
0.010903239
0.003861189
-0.0041401386
0.029561996
0.0047730207
-0.008847117
0.00055229664
-0.0075290203
0.018763065
-0.0038052797
0.009883881
0.008124232
0.009218097
0.007360339
0.007948399
0.009298801
0.0013713837
0.018668056
0.008085132
0.013145089
0.00763762
0.0028215647
0.02773881
0.005181551
0.015846133
-0.010140181
3.0398369e-05
0.010401249
0.0024795532
0.011167169
-0.011324525
0.010057807
0.013648629
0.00014066696
-0.0039767027
0.00067687035
0.004475832
0.00014388561
-0.003558278
0.007128358
0.00042629242
-0.0006417036
0.02111137
0.018530965
0.0014430285
0.014083862
-0.0070363283
0.0023027658
0.0084337
-0.005030036
0.03304124
0.031441092
-0.004997611
-0.0064878464
0.007163048
0.007925987
-0.0009250641
0.010300636
0.012508273
0.016200066
0.008923531
-0.006381035
0.014262795
-0.0027977228
-0.0025931597
0.011753678
0.013264298
0.02342689
0.01700461
0.002511382
0.0160501
0.008110285
0.029187202
0.010812163
0.0030272007
-0.011311054
0.013210058
-0.020671606
-0.0024119616
-0.001429081
-0.0019735098
0.020961165
0.028940082
0.0064712763
0.0068303347
0.008088589
2.9087067e-05
0.0008997917
0.005046487
0.0013928413
0.0015368462
0.0103087425
0.009217501
0.015970707
0.0065357685
0.007495761
0.01147604
0.013514996
0.003858447
0.009164691
0.011638284
0.013110876
-0.01157248
-0.0050690174
0.0011006594
-0.00084257126
-0.006429434
-0.004095435
-0.00041484833
-0.017892003
0.010374546
0.014924288
0.000151515
0.012335181
0.020460844
0.00605917
0.017392635
-0.0032570362
-0.00023925304
0.003584981
0.009652972
0.014981866
-0.002235651
0.019613266
-0.0029659271
0.012474775
0.0024926662
-0.011819482
0.01554203
-0.0027343035
0.017074943
0.010859966
0.0060544014
0.011423111
0.02334416
0.0012817383
0.004771352
0.019702315
0.008412838
0.007879257
0.022123933
0.0009906292
0.004630089
0.026812673
-0.0052770376
0.0037164688
0.0016992092
-0.014490008
0.009251714
0.011674643
0.005689621
-0.003068447
0.007287383
0.01604426
0.0115811825
0.0075569153
0.02052474
0.0016288757
0.0017344952
-0.008020639
0.008269906
0.0067204237
0.008579612
0.024119496
0.017831922
0.0023664236
0.0024373531
0.011073589
0.005985737
0.006829262
0.015178323
0.0017068386
0.016156077
0.016808987

0.025705338
0.032035828
0.007690668
-0.0017076731
0.006659031
-0.006067276
0.012947559
-0.0035321712
0.029504895
0.007232189
-0.0033056736
0.019879699
0.009547949
-0.004430771
0.008776188
0.01677084
0.014466643
-0.0011696815
0.01643169
0.004847884
0.020067334
0.008221626
-0.0026112795
-0.0051424503
0.019022346
0.018239975
0.0154669285
0.002469778
-0.0005185604
0.015732765
0.010303378
0.00612998
-0.0006405115
-0.0018656254
-0.0017850399
0.0036836863
0.0044538975
-0.008327365
0.011927724
-9.6321106e-05
0.007026911
-0.0022217035
0.0082530975
-0.008952737
0.005780697
0.00072288513
-0.011518121
0.002870798
0.016869664
0.0016126633
0.008913755
0.013008118
0.0026675463
0.0081563
0.0074732304
0.027563095
-0.00041508675
-0.0047055483
-0.0056236982
0.037860513
0.009942412
0.030079484
-0.008803844
-0.0038529634
0.0010129213
0.008299589
-0.00072586536
0.013737559
-0.0050139427
0.0247643
0.011332631
0.008155942
0.000121712685
0.012439132
0.014957905
-0.0012609959
0.009639502
0.004042268
0.003140688
0.017450452
0.0024170876
0.019967556
0.012705207
0.02766633
0.009297848
0.008261681
0.022989511
0.014717221
8.85725e-05
-0.012381911
0.0025035143
-0.005266547
0.00843358
-0.0024408102
0.011405468
0.011682987
0.0269413
0.009797215
0.010835648
0.0037529469
0.005323291
0.004483342
-0.007998705
0.014254212
-0.010595202
0.01681149
-0.0016851425
0.03398776
-0.029830933
0.015759945
0.0066890717
0.026907325
-0.009227753
0.0028238297
0.0018297434
0.0018942356
0.00025379658
0.021758199
0.0021862984
0.0127289295
0.007103443
0.042129397
-0.0053076744
0.0034508705
-0.005788207
0.005468011
0.030794144
0.005214572
-0.0006878376
0.011611223
0.020766854
0.0025240183
-0.004370451
0.014362812
-0.0047141314
0.009931326
0.004989624
0.013020396
0.01980114
0.0092481375
0.015425682
-0.0002912283
0.0040359497
0.024800658
0.020791292
0.010373235
-0.013635874
-0.009280682
0.014220238
0.030367255
0.012340069
0.02080524
-0.0023452044
-0.0007261038
-0.028122783
0.0105775595
-0.0027848482
-0.012108207
0.0071781874
0.032098174
0.010717154
0.0038781166
0.006788969
0.0012301207
0.003536582
0.02336979
0.010282636
0.008803248
0.021051645
0.017661333
-0.002161026
-0.0071257353
-0.01052475
-0.008282065
0.0052930117
0.010678053
0.002407074
0.0029007196
0.0013564825
-0.0018253326
-0.0058882236
-0.0009930134
0.0014415979
-0.0025638342
-0.0015705824
0.0075372458
0.009082913
0.02487588
0.021063566
0.0012192726
-0.006499052
0.010796547
-0.0014746189
-0.0053192377
-0.0031261444
-0.008817434
0.02074635
-0.004944086
-0.009471178
-0.011732221
-0.0008261204
0.019916058
-0.0036605597
0.0037152767
0.0003336668
0.006906867
-0.0024459362
0.007583022
0.0041599274
-0.00086164474
0.007007599
0.0020418167
0.015948892
0.00569582
-0.0027371645
-0.0039954185
0.009973884
-0.0013849735
0.023002386
0.0095642805
-0.0043997765
0.013828516
0.04507661
-0.00636065
-0.003668785
0.003532052
0.0017727613
-0.0035134554
0.016800642
0.015513897
0.00014603138
-0.00016224384
0.014880419
-8.261204e-05
0.0043827295
0.031864166
0.0026459694
0.026841998
0.012250543
0.0134340525
-0.0042392015
0.007984042
-0.0057952404
0.00022506714
0.005320668
0.023780227
0.011257172
0.018405795
-0.04356754
-0.0117332935
-0.0023635626
0.009029865
0.00647676
0.0042784214
-0.003580451
0.0092794895

-0.016551375
-0.0077769756
0.00084269047
-0.0076099634
0.0065613985
0.013564825
0.010539532
0.013850689
0.008353829
0.0011959076
0.004882574
0.002290845
0.0007841587
-0.0026496649
0.00678432
0.0093410015
0.00013124943
0.003216982
0.0025223494
0.008615732
-0.00022292137
0.016876698
0.0017254353
0.0060710907
0.005758524
0.005429983
-0.0019501448
-0.00999999
0.009334564
0.0002541542
-3.33786e-05
0.019383073
-0.0011620522
0.003596902
0.0006226301
0.0048559904
0.003013134
0.018414259
0.008892059
0.012450576
-0.0037642717
0.008093357
0.009867072
-0.0021349192
0.0016390085
-0.003397584
0.00033020973
-0.005291581
-0.013482809
0.005340576
-0.0037921667
-0.006869316
0.00208807
0.012832522
0.0072746277
0.008951306
-0.0019026995
0.00058972836
0.019655585
0.0056676865
0.013434172
-0.0063277483
0.00023925304
-0.0004233122
0.011635423
0.013877988
-0.002718687
0.008626819
-0.0017340183
0.0053391457
0.009720206
0.016481876
0.00944376
-0.0018212795
-0.008056164
-0.005482316
0.0077103376
0.0013892651
0.005358815
0.006097913
0.015798092
0.0064713955
0.0020122528
0.00826478
0.0019123554
0.0066986084
0.0014371872
-0.014360905
0.0020173788
0.0014102459
0.0032001734
-0.007153392
-0.0010223389
-0.0036884546
-0.008696079
0.0025863647
0.016921997
0.007384181
0.002806425
0.0009881258
-0.0006322861
0.00094890594
0.005633235
0.011375427
0.013239026
0.005527377
-0.007994652
-0.006473899
0.005112529
0.006511569
0.0064384937
0.01752615
0.003946185
0.0051494837
0.008673668
0.013971686
-0.0021487474
0.0046346188
-0.0009468794
-0.0028351545
0.0018672943
0.007442832
0.0056574345
0.00043463707
-0.002718687
0.0034736395
-0.011695027
-0.010655284
0.0077854395
-0.0014240742
0.01266396
0.009550571
-0.002804041
-0.0013004541
0.005559087
0.0016821623
-0.0049767494
0.001652956
-0.002903819
0.0021317005
-0.0037009716
0.013845563
0.00401628
0.0028744936
0.0003054142
-0.00052785873
0.0068029165
-0.015460014
0.016944885
-0.001650095
-0.016013026
0.0018279552
0.0054923296
0.013236165
-0.009572864
-0.000233531
-0.004131794
-0.0078264475
0.0034993887
0.01802802
-0.0005867481
0.01758647
0.0014779568
0.005294323
0.0027503967
0.01458323
-0.0050685406
-0.00023245811
-0.0002721548
-0.0007327795
0.0076503754
0.008020639
-0.015613675
0.00295794
0.0029343367
-0.0020251274
0.0052963495
0.0015422106
0.011873126
0.009400368
-0.00028693676
0.012321353
0.0023075342
0.0015829802
-0.0059683323
0.0058122873
0.009402037
0.009041071
0.0073800087
0.0032150745
0.012208104
0.009834051
0.014458537
-0.00027287006
0.0037258863
0.007612109
0.0013666153
0.018851757
-0.0016256571
-0.0070644617
-0.0007778406
0.00030183792
-0.011328459
0.00486362
0.0058586597
-0.0069406033
-0.0043326616
0.0033507347
0.0046001673
-0.0012567043
0.007885814
-0.0003502369
0.006003976
0.011530161
-0.005659461
-0.0044745207
0.0010935068
0.0023770332
0.0031189919
0.0064536333
0.003269434
0.010943294
0.005622864
0.0073628426
0.004209399
0.012620568
-0.0015249252
0.01838088
0.0029678345
0.008347869
0.010961056
-0.0001244545
0.0023534298
-0.0039122105
-0.0034894943
0.0041462183
-0.0033721924
0.0082986355
0.0001142025
-0.00028836727
0.00050640106
-0.006386757
-0.003565073
-0.014386058
0.0093410015
-0.017457843
0.0016663074
0.009340405
0.0068172216
0.004983783
0.0044002533
0.0041862726
0.0042182207
0.0069075823
0.0015761852
0.005522847
-0.00011193752
0.0050094128
0.0073195696
0.0035982132
0.00962913
0.011105418
0.00096333027
0.0029482841
0.0013979673
-0.0022780895
-0.010772705
0.0066287518
0.0046510696
0.0013979673
-0.0042151213
0.007813454
0.0025844574
-0.0001963377
0.0007895231
0.008662105
0.0033979416
-0.0001783371
0.011042833
0.01077199
0.00019228458
0.0030962229
-0.0066877604
0.00094521046
0.00957644
-0.0013862848
0.0065493584
-0.010197401
-0.002557397
0.0022720098
0.002244234
0.008439541
0.0071452856
0.0016387701
0.0064623356
0.0069987774
0.0095847845
0.003340602
0.002025485
0.007539749
-0.006997347
0.025454521
0.004107952
0.0009986162
-0.0020922422
0.008361697
0.0034222603
-0.018313766
0.003976226
0.01251483
0.0031235218
0.020310879
-0.003160596
0.005238414
0.017369866
0.004103899
-0.0037178993
-0.0010989904
0.007944107
-0.028864026
-0.014768839
0.004437566
0.012750506
0.00044739246
0.0065642595
-0.004968524
0.013228297
0.0013207197
0.0005007982
-0.0073666573
0.007498741
0.015388966
0.006748557
-0.0024350882
0.0063939095
-0.002231717
-0.0009959936
-0.0018032789
0.004991412
-0.00370574
0.010533571
-0.00835216
0.0049290657
0.001032114
0.021285295
0.00426805
0.008985519
0.016360164
0.014101028
0.006970644
0.017481446
0.016977668
0.008708954
0.009246707
-0.0050759315
-0.0017393827
0.01857531
0.013664484
-0.007419944
0.0062913895
0.0062367916
0.0013082027
-0.0070695877
0.006309867
-0.0050519705
-0.010210156
0.0068718195
0.017383933
0.0008215904
-0.0033240318
1.7523766e-05
-0.0016648769
-0.00041031837
0.00053584576
0.001406312
0.0031167269
0.008711338
0.0034840107
0.012532949
0.0014315844
-0.0025954247
-0.0035283566
0.004068017
0.0041462183
0.009413958
0.015043497
0.005808115
0.001619935
-0.0031336546
0.00096571445
0.011669993
0.004639387
0.013339043
-0.0010490417
-0.012767553
-0.00032234192
-0.0012415648
0.0046465397
-0.003170967
0.0004633665
0.0021198988
0.0049678087
-0.0013926029
0.0040507317
0.001603961
-0.0012296438
-0.0025129318
0.013420343
0.004056692
0.005369544
0.005921364
0.011715651
-0.0021511316
0.0035332441
0.002731204
-0.0016261339
0.008151531
0.0045660734
0.006781101
0.017116785
-0.0039019585
-0.0027486086
0.007597208
0.0034172535
-0.0006247759
-0.00077164173
-0.0026199818
0.0003466606
-0.0008485317
0.009074688
0.009189129
0.0014388561
0.015123606
-0.0009915829
0.0054579973
0.017846942
0.0040677786
0.003981352
0.0056251287
-0.002667427
0.0060169697
0.0040131807
-0.0055431128
-0.00024855137
-0.0020170212
0.004271269
0.00058186054
0.009293914
0.009795666
-0.002512455
-0.008256555
0.011554956
-0.003848195
0.01295042
0.003606081
0.00035858154
0.020896077
-0.0057934523
0.005356312
0.0015852451
0.020087242
-0.0071998835
0.0019335747
0.015361428
0.00083756447
-0.006329179
-3.528595e-05
0.0012052059
-0.0034571886
0.0006505251
0.0011286736
0.00305295
-0.0021404028
-0.00070762634
0.0040721893
0.002440691
0.010052919
0.011028409
0.0010188818
-0.0033783913
0.0055752993
0.0011165142
0.0028518438
-0.005051613
0.007554412
-0.0016987324
0.0018866062
-0.0067659616
0.00966084
0.017034292
0.006614089
0.0069258213
0.0071231127
-0.009018183
0.010628104
0.011424184
0.009781718
0.0038125515
-0.00578928
0.008290648
0.0040038824
0.00066137314
0.0028851032
-0.0023367405
0.006456971
0.0007120371
0.0013995171
-0.01186955
0.003962517
9.727478e-05
0.0033187866
0.0021047592

0.00095176697
-0.0012096167
0.00021636486
-0.010996103
0.0107598305
0.0061125755
-0.0038311481
0.008149028
-0.0029262304
0.007606387
-0.0014494658
0.021245837
-0.0028887987
0.002889514
0.0021691322
0.00045645237
-0.00012516975
-0.0011708736
3.2663345e-05
0.003937125
0.005617857
-0.0023452044
-0.0053625107
0.0033675432
0.0062999725
0.014641881
0.0008391142
0.0026524067
-0.0022628307
-0.0013492107
0.0020375252
0.0070465803
0.0033638477
0.0025544167
-0.00027501583
-0.00042021275
-0.004203081
0.0028803349
0.0153080225
0.0032168627
-0.0007003546
0.004173994
-0.00037109852
-0.0015317202
0.008456945
0.004243493
0.0022178888
-0.002170086
-0.00089251995
-0.0057122707
0.00604558
-0.00045347214
0.0005556345
-0.002588272
-0.003548503
0.00075018406
-8.034706e-05
0.003539443
-0.0011212826
0.0016020536
0.011545181
-0.0010954142
0.00768137
0.00066649914
0.0025287867
-0.00043654442
0.010220528
-0.003739357
-0.0029324293
-0.0036810637
0.003328085
0.0041074753
0.011634707
0.0110138655
0.0052187443
0.010774255
0.0037839413
-0.008227229
0.0014023781
0.0025504827
0.0044498444
0.0024323463
-0.00027680397
0.0070592165
-0.0018297434
0.006914258
-0.0016026497
0.0013582706
-0.00015866756
0.000104665756
0.0045899153
0.008074522
0.0086477995
0.008831859
0.0014505386
0.0096719265
-0.00037658215
0.0064046383
0.0027457476
-0.012378931
-0.0047522783
0.006652355
0.006124258
0.013471365
0.0031911135
0.0014885664
0.003365159
-0.0008095503
-0.0043694973
-0.0019791126
0.002636671
-0.002832532
0.0054662228
-0.0066713095
0.009599805
0.008550048
-0.0051995516
0.0029318333
-0.0015004873
0.00026392937
0.0059010983
-0.0011997223
0.0050783157
0.0019211769
0.0014839172
-0.002093792
-1.6093254e-05
0.010769129
-0.004312396
-0.0009752512
0.011897683
0.0063889027
0.018415332
0.01435256
0.004147172
0.0031949282
0.0072437525
0.010228515
0.004447818
0.0056477785
0.0046476126
0.0039764643
-0.00079357624
0.006356001
-0.00066185
-0.00038194656
0.0023094416
0.002610445
-0.0022822618
0.0017354488
-0.004155159
0.0025502443
0.0018172264
0.0008176565
0.0022890568
0.0002439022
-0.0050446987
0.015471458
0.0027155876
0.013235688
0.0049040318
0.011589885
0.0024638176
0.0016542673
0.006824732
0.010181308
0.011829734
0.002801299
-0.0053869486
0.0039651394
-0.0002528429
0.0077462196
-0.0010150671
0.004313588
0.008165717
-0.0009173155
-0.0038708448
0.0063426495
0.0024100542
-0.0011974573
0.020381212
-0.001134634
0.0043262243
0.0048798323
0.0049185753
0.0028457642
0.0030341148
0.00630486
0.0045586824
0.0027559996
0.011636853
0.013644457
0.00981462
0.01793778
0.004468441
0.004688978
-0.0035389662
-0.003183961
0.0039696693
-0.0015363693
0.0002412796
0.00059247017
0.011111498
-0.002998352
0.0028119087
0.014857054
-0.00057017803
0.0011581182
-0.00019729137
0.0035455227
-0.010081053
0.0151536465
0.0030964613
0.00018072128
0.011405706
0.012853622
0.000516057
-0.005763054
0.005341053
-0.010449886
0.0035953522
-0.0010751486
-0.0039379597
0.0003296137
0.008754492
0.010135055
0.0009651184
0.0020530224
-0.0007252693
-0.0061500072
-0.00066554546
0.008957505
-0.0020201206
0.011772037
0.008018613
0.0038571358
-0.0003068447
0.023890734
0.0020731688
0.01071012
0.0011489391
-0.00080633163
0.011574268
0.0068751574
0.0027945042
-0.0011035204
-0.0015329123
-0.0005142689
0.004085064
0.006539345
0.0064816475
0.0023082495
0.014996529
-0.0010249615
0.0022877455
0.001750946
0.0005532503
0.0025036335
0.011215091
0.01105392
0.0042653084
-0.00916183
0.010249138
-0.0036847591
0.006315112
0.005895853
0.0013356209
0.0037989616
0.004047632
0.00987649
-0.0011740923
0.009346604
0.008253217
0.0019702911
-0.004319072
0.0057020187
-0.0005403757
0.0024126768
-0.0030549765
-0.0016241074
0.0017716885
0.010604024
0.009060144
0.008036852
0.0061756372
0.0009050369
0.008818746
0.008159637
-0.01023376
0.008223295
9.6678734e-05
0.0074219704
-0.00016665459
0.016748905
-0.00019347668
0.020353913
-0.001762867
0.011289477
0.004915476
0.0031824112
-0.0016623735
0.0017979145
0.012671232
0.0023040771
0.01753831
-0.0049232244
-0.001329422
0.0019234419
0.007671356
0.01448226
0.0038399696
0.0018845797
0.0036221743
0.0049096346
0.0011183023
-0.0021777153
0.018006563
0.0011844635
-0.0025142431
-0.0050940514
-0.0013192892
0.0146023035
0.01637566
-0.0014592409
0.005933404
-0.003185153
0.002546668
-0.0071595907
-0.0028765202
-0.00192523
-0.00025379658
0.0070364475
0.0012253523
0.013407946
-0.00010919571
0.0026804209
0.0059604645
0.0053361654
-0.00723207
0.0037750006
-0.00082981586
0.00637424
0.007617235
-0.00017297268
0.00026369095
-0.00065386295
0.012659311
0.0046390295
0.0056563616
0.0038163662
0.012129545
0.0033545494
0.0029993057
0.011054277
0.009383202
-0.010443807
0.010717392
-0.00039160252
-0.0018559694
0.0009377003
0.0069942474
0.0025629997
0.0007343292
0.003919244
0.003970742
0.010492206
0.01209414
0.0060908794
0.013363481
-0.0007855892
-0.0035105944
-0.00086796284
0.0018123388
0.00062310696
0.0029263496
-0.0065950155
0.0029525757
-0.0005259514
0.00043594837
0.014104009
0.006610751
-0.0004990101
0.000500679
0.008051515
0.008436322
0.0009485483
0.00015091896
0.005883217
0.00095021725
0.002444148
0.010215402
-0.004590988
0.008256793
0.0097129345
0.0043963194
0.010125041
-0.0008288622
0.00096178055
-0.003975272
0.009178996
-0.0024232864
0.0065265894
0.010958314
0.002126336
0.0008581877
-4.708767e-05
0.0003451109
0.0014811754
-0.0033576488
-0.0012032986
0.007812858
0.00021219254
0.0035728216
0.017095923
-0.002098918
0.0068056583
-0.014114618
-0.0047273636
0.004209161
0.0046949387
0.009286165
-0.0019023418
-0.0065928698
0.0064337254
0.016510963
0.0055799484
-0.0026347637
0.008944273
0.011064291
0.0027103424
-0.0018156767
0.0034353733
0.0028191805
0.008724928
-0.00025701523
0.012973309
0.0014449358
0.00299716
0.0036494732
-0.0005983114
0.0042351484
-0.00611341
0.0011556149
0.0018205643
0.0036472082
0.0033442974
-0.003063202
-0.0010988712
0.006472707
0.0016720295
0.0002193451
0.008784413
-0.00047957897
-0.010254145
0.011689663
0.004319787
0.0043438673
-0.0006104708
-0.00028443336
8.869171e-05
0.0025106668
0.013012171
0.00040233135
-0.00014650822
0.003765583
0.003251195
0.01884067
-0.0008432865
0.008433223
-0.0044739246
0.002660036
0.0062122345
-0.0016269684
0.0074976683
0.02558422
-0.005044222
-4.8995018e-05
-0.00041759014
0.0045446157
-0.0017954111
-0.004839301
0.0013512373
0.011339068
0.0008215904
0.0058225393
-0.0015031099
-0.0027878284
-0.00082433224
0.0006227493
0.0012396574
6.258488e-05
-0.014736414
-0.0035949945
-0.0042814016
0.008504629
0.00479877
-0.0073937178
-0.0019013882
0.009593964
0.0076265335
0.00048208237
-0.0054974556
0.00018882751
-0.0031746626
0.0009227991
0.00017893314
-0.0033878088
0.007778406
0.025708914
-0.00027120113
0.00068855286
0.005830765

-0.0006906986
-0.0014154911
0.0029860735
0.009484291
0.008181572
0.001013875
0.0063511133
0.014866471
0.0046263933
0.007964134
0.0009390116
0.00010955334
0.0017044544
0.004840374
0.0011509657
0.008293629
0.00040733814
0.0016453266
-0.0016607046
0.010687828
0.0011070967
0.0039868355
0.010784984
0.0033621788
0.0042153597
0.0062077045
0.0068079233
-0.0015892982
0.0040744543
0.00042498112
0.001447916
-0.0018439293
0.00455904
-0.006970525
0.0063530207
-0.0013216734
0.004219651
0.0012921095
-2.3722649e-05
-0.00089240074
0.0037447214
0.0052616596
0.0018937588
-0.0006377697
0.0063067675
-0.0017516613
-0.0010927916
0.007545829
0.005493045
0.0029621124
0.003651023
0.0029728413
0.00050091743
0.0035688877
0.013289213
0.0031852722
0.0034227371
-0.0010448694
0.0020035505
0.0016671419
0.0075056553
-0.0020188093
0.002693057
0.0011991262
0.0080064535
8.4519386e-05
0.0021708012
0.0021756887
-0.0033528805
0.0011655092
0.009273171
-0.0010447502
0.02053094
0.004053712
0.0013196468
-0.00024092197
-0.0049245358
0.009163618
-0.00023937225
-0.00046300888
-0.00026285648
-0.0021871328
0.006575346
0.0039566755
0.0041407347
0.0041183233
0.001521349
0.00037574768
0.0065672398
0.0007635355
0.011155248
0.006036639
-0.00016415119
0.00025057793
0.0013406277
-0.004069805
0.0026938915
0.010480642
-0.00019097328
0.0046857595
0.006433606
0.0016477108
0.0045827627
-0.0023447275
0.0034476519
-0.0037411451
0.0016738176
0.0019881725
-0.0011509657
0.0036121607
0.004640341
0.0049608946
0.0073097944
0.013468027
0.0013850927
-0.0029762983
0.0002862215
-0.002137661
0.007210374
0.019679546
0.0064456463
0.0036703348
0.0008147955
0.012007475
-0.00036525726
0.0005450249
0.013097048
0.00421834
0.00045239925
0.00035631657
0.0006750822
0.002849102
0.0050159693
-0.0017029047
0.011115432
-0.00079476833
-0.0040256977
-0.0007505417
0.005886197
0.006632924
-0.0061876774
-0.003513813
0.0013161898
0.0126081705
0.0047113895
0.0050934553
0.0079859495
-0.0028264523
0.0023486614
0.00085937977
1.5377998e-05
0.0058870316
0.007279277
0.009804606
0.0015577078
0.0010861158
0.0007747412
0.0038795471
0.0006085634
0.00087606907
-0.0004581213
0.005910039
-0.0058487654
-0.0005892515
0.003988743
-0.005594015
0.00035703182
0.0073571205
0.008110642
-0.0009171963
0.0031540394
0.0017917156
0.001495719
-0.001016736
0.001211524
-0.00057148933
0.01777184
0.0026382208
0.009534121
-0.0009893179
-0.0006184578
0.004969597
0.008600831
-0.008118629
0.00057554245
-0.0006098747
0.00054228306
0.0005553961
0.005825639
0.0028436184
0.0006556511
0.003974676
0.0012210608
-0.0013754368
0.007465601
0.00706017
0.0036344528
0.007821798
-0.0008575916
-0.0020780563
0.0018968582
0.0036872625
0.0073262453
0.005687833
0.0015132427
0.0015081167
0.004879117
0.0057564974
-0.0012204647
0.0034641027
0.0064913034
0.0015678406
-0.019985795
0.005310297
0.0030236244
0.0041480064
-0.00097227097
0.0054810047
0.0014293194
-0.005452037
0.0062686205
-0.0009932518
-0.001327157
0.008525014
0.0069937706
-6.592274e-05
0.0045536757
0.0046224594
0.0015889406
0.0003515482
0.0016456842
0.005246401
0.007122755
0.013188481
0.0030606985
0.011609912
-0.0030065775
0.003008008
0.01730454
0.006176114
0.0022565126
0.0045728683
-0.00027179718
0.0053424835
0.0043947697
0.0014536381
0.0009936094
0.004353404
-8.010864e-05
0.002004385
0.007875323
0.0020371675
-0.00042176247
0.0104852915
0.011548519
0.004025936
-0.0018680096
0.0019898415
-0.00081682205
0.000775218
0.004046321
-0.001786232
0.003601551
0.007084608
0.005529642
0.0114632845
-0.00038599968
0.011846304
0.0002039671
0.009571433
-0.0017095804
0.0041167736
0.0050309896
0.00070619583
0.014310956
-0.00068855286
0.00056540966
0.0032331944
-0.0032743216
0.0025818348
0.0026938915
-0.0037044287
0.0056761503
-0.0011571646
0.0010294914
0.003966689
0.0007791519
0.0040472746
0.018499613
-0.00017929077
-0.001175642
0.0019749403
-0.0019658804
0.005664587
0.010665059
0.0011892319
0.009651542
0.002868414
0.00075924397
0.0050899982
0.0027663708
-0.0012254715
9.775162e-06
0.020677805
0.0033589602
0.0045342445
0.0016628504
0.002850175
0.001904726
0.0029455423
-0.00024807453
0.00050807
0.0016958714
0.0059791803
0.0006570816
0.0041327477
0.015048504
0.0008829832
0.0024101734
0.0037257671
-0.0017397404
0.0109318495
0.011143446
0.012066007
-0.0019670725
-0.0007702112
-0.0010634661
0.0103952885
0.007069826
0.008226275
0.0037064552
0.0031927824
0.009767294
0.0050195456
-3.361702e-05
0.012279153
0.003579855
0.0014513731
0.004059434
0.0013369322
-0.0018668175
0.007360816
-4.351139e-05
0.013563752
-0.0006072521
-0.00037944317
0.0006865263
0.009699106
0.0031118393
0.0060306787
-0.00027763844
0.008372903
0.00040590763
-0.0005019903
0.006568074
-0.0069622993
0.001290679
0.0102238655
-0.0015485287
0.008633733
0.002156973
0.00399518
-0.002220273
0.004095912
0.0015215874
0.010743976
0.0129522085
0.0052645206
0.003817439
-1.835823e-05
0.009205937
-0.008780003
0.00014412403
0.007851601
0.0051229
0.00047421455
0.0035130978
0.0024348497
0.00086236
0.004003644
0.003053546
0.006080389
0.008257747
0.002197504
-0.0014333725
0.004306555
0.00029683113
0.00092947483
-0.001439333
0.005714178
0.0011552572
0.0012741089
0.0022855997
0.0012447834
-0.0011218786
-0.00089609623
-0.00088751316
0.0072728395
0.0018880367
-0.00044870377
0.009094
0.0043331385
0.003554821
0.005111575
0.008180857
0.008846521
0.0014833212
0.012906551
-0.0016028881
-0.0010840893
0.0055259466
0.0037699938
0.0038692951
-0.0014326572
0.024092436
0.006251931
-6.341934e-05
0.0061877966
-0.00060784817
-2.014637e-05
-0.00055634975
0.01147306
0.0041931868
0.004666209
-0.0010457039
0.0069727898
0.004081726
0.0013976097
0.00036740303
7.867813e-05
-0.002998948
-0.0013372898
0.0011707544
0.0004761219
0.01059854
0.003155589
0.0014054775
0.00043833256
-0.002947569
0.005697489
0.0021967888
-0.0007585287
0.0033926964
0.002553463
0.0028960705
0.010741711
0.005258918
0.0033819675
0.003291726
0.0018464327
0.0022956133
-0.0014586449
0.0015186071
0.0006005764
0.007808566
0.020653248
0.0062049627
0.00048458576
0.002996564
0.0051668882
-0.004942298
-0.0004836321
-0.0008354187
0.0010565519
0.001242876
0.008176684
0.001969695
0.0030741692
0.008060455
0.0031614304
0.0013679266
0.0037909746
0.0018697977
-0.0035470724
0.0021939278
0.00079369545
0.0011219978
-0.0010689497
0.001909852
0.010263085
0.0038366318
-0.0017533302
0.0062931776
-0.0025336742
0.0018926859
0.00030732155
0.0029315948
0.0030879974
0.0028651953
0.00046670437
0.0025923252
-0.0014326572
-0.0008023977
0.004690647
0.0046105385
-0.0013346672
-0.005154729
0.006031871
-0.0005619526
0.003385663
0.0015385151
-0.0004736185
0.0054348707
-0.00027298927
0.00012481213
0.009140134
-0.0021309853
0.011400342
0.010576725
0.0037591457
-0.0006150007
0.00035881996

0.0041390657
0.0057367086
0.0028266907
8.356571e-05
0.0114399195
0.0022958517
6.055832e-05
0.014985919
0.004759431
0.0063506365
0.0031944513
0.004648447
-0.002474904
0.0062214136
-0.0009952784
0.012905836
-0.00016129017
-0.00020956993
-0.00031161308
0.009721994
0.00030326843
0.0028774738
0.0029320717
0.005322695
0.0021258593
0.0016645193
0.0022588968
0.0021933317
-0.0014288425
0.000595212
0.0010697842
0.0038110018
0.0074567795
0.0040278435
-0.00042819977
0.0010454655
0.0028244257
0.0042796135
0.00063347816
0.0010119677
0.0023950338
0.004664421
0.0007020235
0.0076066256
0.0039670467
0.0030094385
0.002031684
0.011843801
0.0052392483
0.008895874
0.0013946295
0.00062322617
0.0039777756
0.0014892817
-0.00036466122
-0.0004169941
-0.0014083385
0.00070381165
0.00084733963
0.00121665
0.0043530464
0.002567649
0.0014650822
-0.0012325048
0.0004911423
0.0065512657
0.0011250973
0.0022332668
0.000762105
0.002555132
-0.00046122074
0.0055897236
0.0016480684
0.006987095
0.0026775599
0.0039947033
-0.0011039972
0.0003106594
0.0019338131
0.0016442537
-0.0013928413
0.0011129379
0.0030026436
0.0007493496
0.00079345703
-6.842613e-05
0.0070255995
0.00020956993
0.00085163116
-0.00016880035
0.0019421577
8.583069e-06
0.0032702684
0.0019979477
0.0020219088
-3.6001205e-05
8.189678e-05
0.0040574074
0.0012943745
0.0013344288
0.001123786
0.0041992664
0.0015819073
0.0022705793
0.014506102
0.0016428232
0.0024774075
-0.0006326437
0.0041069984
0.0013405085
0.005797744
0.0021682978
0.007742524
0.001385212
0.008054256
0.0028829575
0.0011267662
0.002065897
0.009260178
0.00025880337
0.00043141842
0.0020097494
0.0028258562
0.00096797943
0.0059332848
-0.0005978346
0.0019904375
0.00081181526
-0.00026905537
0.0027997494
0.0051831007
0.0026482344
-0.00012266636
0.001558423
0.0035105944
-0.0024917126
-0.000330925
0.0011452436
0.0028643608
0.004620552
0.00095641613
0.0007073879
0.0057293177
0.0026841164
0.0020045042
0.0020343065
-0.00024449825
0.0031177998
0.0012102127
0.0038086176
0.0024689436
0.0033164024
0.008085132
-0.0016564131
0.0010757446
0.0054837465
-0.00018203259
0.0037468672
0.0016211271
0.013259888
0.00080931187
0.002879262
0.00040316582
0.0019915104
0.0069235563
0.010494947
0.0037178993
-0.00018286705
0.00023198128
0.00485003
0.0037263632
-0.0007702112
0.0024752617
0.0006723404
0.0006092787
0.004922271
0.0022195578
0.00066292286
0.001958251
-0.00066125393
0.0005720854
-0.00064492226
-0.00011897087
0.0026922226
0.003555417
0.0017751455
0.0025265217
0.011524916
0.00094759464
0.0028742552
0.0018802881
0.00097572803
0.009475112
0.0025690794
0.0014643669
0.004584551
0.0011345148
0.0040051937
0.0016446114
0.0037668943
0.0086683035
0.00919044
0.0027064085
0.003904581
0.0026824474
0.012887597
0.0019285679
0.013101816
0.0043177605
-0.0009737015
0.002570033
0.0012602806
0.0022935867
0.006087661
0.0001513958
0.0013986826
0.0009317398
-0.000330925
0.0040125847
0.007774353
-0.00066649914
0.003164053
0.0034490824
2.1338463e-05
0.0017375946
-1.5497208e-06
0.0024654865
0.0014877319
0.004491806
-0.0019925833
0.007306218
0.0025911331
0.010358453
0.0028649569
0.0039721727
0.00029230118
0.01289773
0.0052160025
-0.00045132637
0.006882429
0.0071003437
-0.00030612946
0.003837943
0.0021291971
0.00091695786
-0.0010501146
-0.0003644228
0.00020253658
0.0047986507
0.0022292137
0.007727504
0.0008069277
0.006153941
0.0036418438
0.00751853
0.0025837421
2.193451e-05
0.00731802
0.00036156178
0.0006123781
0.0040996075
0.0039794445
0.0044664145
0.00061392784
0.0065569878
0.003899932
0.0029958487
0.0042755604
0.0028176308
0.0013157129
-0.00022637844
0.0019108057
0.00052821636
0.0066604614
0.0043359995
0.0003515482
0.004741192
0.015097141
0.0046174526
0.0024366379
-0.0004988909
0.0060043335
-0.00031673908
0.0027951002
0.00016784668
0.0012789965
0.002396822
0.003400445
8.416176e-05
0.0083191395
0.00053298473
0.009443998
0.0020444393
0.0020973682
0.0029357672
0.0074567795
0.004707098
0.0012153387
0.0030146837
0.0016826391
0.0010895729
-0.00021874905
0.007372737
7.4625015e-05
-0.00055098534
0.00850451
0.001521945
0.006037593
0.005580783
0.0031548738
0.00840044
0.0019727945
0.0006005764
0.006131649
-0.0017489195
-4.7922134e-05
0.0067014694
-6.9737434e-05
0.012712359
-0.00020825863
0.0011615753
-0.00017261505
0.008222103
9.6678734e-05
0.0020873547
0.00036013126
0.00057816505
0.00087952614
0.015125275
0.0027999878
0.002370119
0.005351424
0.0015661716
0.0049666166
0.002191186
0.0021595955
0.017341852
0.0030965805
0.0065232515
0.0012512207
0.0025991201
0.003629446
0.0011383295
9.918213e-05
0.0018920898
0.00052917004
0.0019714832
0.004478097
0.0011372566
0.0075068474
0.013250709
0.00028014183
0.004929185
0.0032806396
0.0065410137
0.0008417368
0.0031778812
0.01297009
0.0023530722
0.003951788
0.0010774136
0.005648613
0.00020933151
0.0019620657
0.0022341013
0.00281322
0.0065455437
0.012589097
0.0005348921
0.0044728518
0.0043120384
0.0034339428
0.0010899305
0.010204554
0.0008291006
0.004320979
0.0016973019
0.007314682
0.0031359196
0.005299568
-0.0005389452
3.3020973e-05
0.004262805
0.005018711
0.009861827
0.0078777075
0.00062811375
0.00087583065
0.006069541
0.0042078495
0.0012778044
0.0003259182
0.0012695789
0.00072956085
0.0011107922
-0.00011086464
0.0028954744
-0.00046753883
0.0018925667
0.0028438568
0.0010281801
-0.0002681017
0.00289464
-2.503395e-06
0.0054525137
0.013654709
0.00019931793
0.0021038055
0.0043005943
-3.9935112e-05
0.0006560087
0.006830454
0.0033504963
0.0027034283
0.0011526346
0.0053590536
0.0058921576
0.0017030239
0.008394003
-0.0004080534
0.0034987926
0.00080657005
0.0062379837
0.00015938282
0.00036740303
0.00032567978
0.0009485483
5.4597855e-05
0.010255933
-0.0011861324
0.0037201643
0.0027047396
-0.0006445646
0.0032800436
-0.00070631504
0.0095694065
0.00010550022
0.0033459663
5.710125e-05
0.0035301447
0.0012614727
0.0073689222
0.005216956
0.0050541162
0.0033171177
0.00061023235
0.0011587143
0.0037608147
0.0010821819
0.0012991428
0.002020955
0.0012395382
0.007794142
0.00042033195
0.0040866137
0.0049260855
0.00010442734
0.0012768507
0.012630224
0.0062111616
0.0036797523
0.0011560917
0.003232956
-0.00090777874
-0.00010609627
0.014614582
0.015093803
0.0006251335
0.006196022
0.0065356493
0.008413315
0.0014830828
0.0011086464
0.00090932846
0.002928853
0.001734972
0.0059762
0.00050747395
0.0007536411
0.004838705
-0.00018692017
0.004792452
-8.690357e-05
0.0043708086
0.004862666
0.0006816387
-0.0006740093
-0.00052797794
0.014039159
0.0024050474
0.0003707409
0.00018823147
0.002508998
0.005841017
0.004404068
0.0009649992
0.006689787
0.00019073486
0.001987815
0.00073325634
-7.581711e-05
0.0037965775
0.00020360947
0.008321881
0.0007238388
0.0017158985
0.0041644573
0.005580902
0.0041139126
0.0071099997
0.008162379
0.00024724007

0.0018200874
0.0027344227
0.0033359528
0.002673149
0.0041390657
0.0049465895
0.00048530102
-2.3126602e-05
0.001334548
0.0011702776
0.0044720173
0.00024712086
0.0025978088
-0.00047075748
0.003401637
0.009341359
0.0052634478
-4.041195e-05
0.0012044907
1.3947487e-05
0.0030831099
0.0029286146
0.0004975796
0.0078446865
0.0034060478
0.003106594
-0.0007508993
-0.00012505054
0.0055924654
0.004424691
0.0024020672
0.006305456
0.0048282146
0.0020656586
0.0032112598
0.002871871
0.0039771795
0.0055464506
0.004102707
0.002214551
0.0028270483
-0.0004194975
0.0040607452
0.005205035
0.0020531416
0.0022963285
0.002617836
0.002131343
0.0021297932
0.0031763315
0.0030144453
0.0027170181
0.0011560917
0.00303483
0.0040563345
-0.000243783
0.0014910698
0.0005134344
0.0008870363
0.00012803078
0.008698225
0.0011572838
0.0026329756
0.0019961596
0.006939769
-9.202957e-05
0.002122283
0.003763914
0.0026723146
0.0036149025
0.0011298656
0.0038977861
0.0032337904
0.0009958744
0.0044748783
0.0029150248
0.00064873695
0.00014817715
0.0030046701
0.0041567087
0.0035799742
-0.00014102459
0.0007439852
0.00057816505
0.00026106834
0.0023896694
0.0067955256
0.0007984638
0.0013537407
0.0016891956
0.0059952736
0.0027837753
0.004355192
0.004670739
0.0010050535
0.0015577078
0.002091527
0.008407235
0.003382206
0.006209135
0.0016188622
0.002313733
0.0011008978
0.0014538765
0.0016955137
0.006000042
0.0028221607
0.0043118
0.0030138493
0.0046520233
0.0009057522
0.0026857853
0.0010521412
0.003922224
0.0027998686
0.00472486
0.0011432171
-0.00012910366
0.0040724277
0.0061872005
0.0034605265
0.0061428547
0.00014770031
0.002686739
0.008193374
0.0013809204
-9.88245e-05
0.0010280609
0.0020635128
0.002385497
0.00042200089
0.00432837
0.008790612
0.00032174587
0.0062873363
0.0027221441
0.0023872852
0.0021327734
0.00082218647
-0.000695467
0.0035136938
0.0059603453
0.0016651154
0.008567333
0.00047194958
0.0031501055
0.004509449
0.0019352436
0.0030212402
0.004184842
0.005426407
0.0036517382
0.0006239414
0.004501343
-7.605553e-05
0.002287507
0.0052400827
0.002460003
0.004739642
-0.00020253658
0.0065273046
0.0032596588
0.004683137
0.0031118393
0.00026106834
0.0017668009
0.0014321804
0.001947403
0.002252698
0.0012797117
0.003692627
0.0032705069
0.0060988665
0.0009561777
0.006380558
0.004286647
0.0042893887
0.0001553297
0.00017929077
0.0040584803
0.00031471252
0.0047467947
0.002050519
0.005736947
0.0015075207
0.010574818
0.0058344603
0.0023124218
0.0016572475
0.0041925907
0.006243825
0.004235506
0.0005624294
0.00016927719
9.179115e-06
0.002022624
0.002662897
0.002934575
9.536743e-06
0.0029577017
0.002373457
0.0023044348
-0.00023591518
0.00035762787
0.004537463
0.008799791
0.00039327145
0.001024723
0.0010957718
0.0033726692
0.0034998655
0.006584406
0.006881118
0.00063169
0.0039286613
0.0014299154
0.006886363
0.0024460554
0.0015505552
0.0010625124
0.002285242
0.00034821033
0.0018298626
0.0012866259
-0.00039350986
0.0039470196
0.0010169744
0.0031768084
0.00101614
0.0056812763
-0.00022566319
0.0017188787
0.0014424324
0.0018898249
0.0035325289
0.0035643578
0.0017228127
0.0013604164
0.002010703
0.005858779
0.008468986
0.009378195
0.005170107
0.0042802095
0.005269885
0.0056141615
0.0038208961
6.4373016e-05
0.001763463
0.00031769276
0.0014134645
0.0002580881
0.0057109594
0.0033546686
0.00024998188
0.0036367178
0.012147069
0.00061774254
-0.00014400482
0.010311604
0.0014308691
0.0033166409
0.006174922
0.0015591383
0.0007671118
0.008019686
0.005783677
0.0017067194
-7.331371e-05
0.0034487247
-0.0004940033
0.0012158155
0.0013501644
0.0007638931
0.00029921532
0.0021016598
0.00038158894
0.005285144
0.009601474
0.0008126497
0.0016745329
0.0010348558
0.0046988726
0.0020810366
0.0028957129
0.00021278858
0.0021003485
0.0032069683
0.003950238
0.0018351078
0.0068132877
0.0021320581
0.0008815527
0.00092983246
0.0024454594
0.0056837797
0.0018587112
0.004787922
1.7166138e-05
0.0006736517
0.0015166998
0.0061267614
0.0009794235
0.0012875795
0.0038764477
0.0029797554
0.0030879974
0.004006505
0.007466197
0.0032066107
0.0016489029
0.0048480034
0.0040067434
0.007624984
0.002245307
0.0037546158
-0.00090551376
0.0041406155
0.0034469366
0.005337596
0.003991008
0.0041282177
0.0030680895
0.0028729439
0.0036536455
0.00093996525
0.0048822165
0.0057929754
0.0037055016
0.0045466423
0.00054883957
0.003950715
0.0011979342
0.0025292635
0.0011405945
0.00399518
0.007089615
0.0013427734
0.00096952915
0.003005147
0.0041424036
0.005321622
0.0034313202
0.0027515888
0.00015747547
0.00029921532
0.00047039986
-0.00014650822
0.0015101433
0.0013178587
1.1444092e-05
0.0055701733
0.0029871464
0.0020984411
0.001672864
0.0008300543
0.001543045
0.0058755875
0.00033080578
0.0029752254
0.0005533695
0.0038223267
0.0015876293
0.006361127
0.008121252
0.0012444258
0.006018281
0.0011227131
0.001393199
1.8239021e-05
0.005160928
0.013416171
0.0008660555
0.00027263165
0.0035694838
0.0023735762
0.0023002625
0.0054425
0.0053129196
0.006011367
0.0024033785
0.0010060072
0.0010509491
0.0013720989
0.0044060946
0.00052690506
0.0029332638
0.0041867495
0.0005110502
0.0060397387
0.009187818
0.006256938
0.0019211769
0.0024977922
0.001412034
-0.00013649464
0.0024170876
0.0058311224
0.000543952
0.00079262257
0.0050709248
0.00067055225
0.0022336245
0.004844308
0.0031269789
0.003804922
0.00061905384
0.00275743
0.0006260872
0.00272429
0.0030384064
0.002294898
0.0063380003
0.0051077604
0.0044704676
0.0024243593
-0.0009810925
0.003499627
0.001684308
0.0019885302
0.0054916143
0.0019500256
0.009110689
0.0028971434
0.0016828775
0.0033700466
0.0027296543
0.0070562363
0.0017572641
0.0022033453
0.0015774965
0.0022882223
0.010089874
0.0089918375
0.0034565926
0.003896594
0.0018920898
0.0053805113
0.005460739
0.010553956
0.0006262064
0.0033985376
0.00015985966
0.003147602
0.00025200844
0.015300393
0.0028398037
-0.000259161
0.0050350428
0.0005438328
0.0028247833
0.0008814335
0.001131177
0.0046720505
0.0034211874
0.0019984245
0.00044703484
0.0007250309
0.003081441
0.0037206411
0.0028676987
0.008018851
0.0045324564
0.008625746
0.0010294914
0.0061223507
0.0059831142
0.005951047
0.0035575628
0.0019005537
0.006480098
0.0070482492
0.0044863224
0.005069256
0.0057854652
0.0061813593
0.005181074
0.0017696619
0.0012511015
-7.6532364e-05
0.0011878014
0.0074352026
0.009672284
0.0010443926
0.003011942
0.0010948181
0.0025416613
0.0044887066
0.0029110909
-0.00040185452
0.0033020973
0.006633401
0.0002682209
0.0018763542
0.0025668144
-8.3208084e-05
0.0052906275
0.0017888546
0.0005837679
0.00846529
0.0016423464
0.0034792423
0.0035171509
0.007818222
0.0068644285
0.002251029
-6.568432e-05
0.0042322874
0.012146115
0.008636951
0.00012648106
0.0028432608

0.0059372187
0.0008943081
0.008998632
0.010076761
0.0021214485
0.0021800995
0.0030544996
0.010281324
0.0016899109
0.003182888
0.0034656525
0.003909588
0.00030434132
0.0017879009
0.0030144453
0.010017395
0.0018795729
-0.00030303
-0.00011920929
0.00068295
0.0014266968
0.00096035004
0.0002105236
0.0112730265
0.005067706
-0.00025737286
-0.0003453493
0.0017566681
0.0127209425
-0.0004825592
0.0017524958
0.0031234026
0.0081733465
0.00019168854
0.0018565655
0.00481534
0.0027735233
0.0065704584
0.004108429
0.0026431084
-0.0006747246
0.0029170513
0.0015000105
0.0032829046
0.0013682842
0.0065215826
0.0032422543
0.0011885166
0.01127851
0.00030767918
-0.0003682375
0.0069662333
0.0010710955
0.0014414787
-0.0009239912
0.0027720928
0.0046117306
0.0034029484
0.00083231926
0.0023390055
0.0012267828
0.005552411
0.0018290281
0.0035921335
4.053116e-05
0.00017750263
0.0015456676
0.0020450354
0.0019495487
0.003607273
0.0038597584
0.004425049
0.005954981
-0.0014243126
0.0022987127
0.005694866
0.0035042763
0.0034593344
0.0031832457
0.0011303425
0.001535058
0.00025570393
0.0019615889
0.0007901192
0.003348589
5.567074e-05
0.0068953037
0.0020411015
0.0053315163
0.00045764446
0.002654314
-0.001006484
0.00030255318
0.008106947
-0.0004785061
0.005041957
0.0021933317
0.003326416
0.0007443428
0.010829091
0.0021424294
0.0064668655
0.006231189
0.008790851
0.0026524067
0.0029097795
0.0061181784
-0.0005401373
0.0028223991
0.0033752918
0.0017133951
0.0046902895
0.0053834915
3.0994415e-06
0.000928998
0.0005595684
0.005440235
-0.0013517141
0.002467513
0.0030257702
0.0015772581
0.0050462484
-0.00041997433
-0.00026738644
0.009621024
-0.0003232956
0.00073826313
0.0056915283
0.0013842583
0.006742358
0.004766941
0.006215453
0.00012683868
0.008845568
0.0015823841
0.0013304949
0.00026476383
0.010035634
0.004355192
0.0006623268
2.3961067e-05
0.005219221
0.006811738
0.0089046955
0.006679535
0.0049859285
-5.9604645e-05
0.0031676292
0.0022923946
-0.0005123615
0.0018831491
0.009898663
0.0062214136
0.0011126995
0.006701827
0.00026881695
0.0029582977
0.008818388
0.0010185242
0.0040311813
0.002037406
0.003498435
0.0020354986
0.012293458
0.007397771
-0.00020051003
0.0011571646
0.0020811558
0.0017999411
0.003325224
0.0008237362
0.01029861
0.0024223328
0.00087559223
0.0005401373
0.0005441904
0.017329574
0.0015779734
0.0021284819
0.0020757914
0.0076788664
0.00020480156
0.00057291985
0.000101447105
0.0014592409
0.0010880232
0.0005428791
0.008103013
0.000613451
0.0004427433
0.0021162033
-0.00039815903
0.00039553642
0.003165841
0.003992796
0.006099224
0.002472639
0.0010489225
0.007843852
0.005928874
0.0009822845
0.0009685755
0.00078737736
0.00043845177
0.00712502
0.0022484064
0.005335927
0.0016176701
0.0022448301
0.0041389465
0.005649686
-4.7445297e-05
0.003896594
0.00020849705
0.0055071115
0.006435752
-0.0008044243
0.0038256645
0.0021847486
0.001170516
0.0042016506
0.0022433996
0.0083351135
0.0034421682
0.0027199984
-0.00030314922
0.0020416975
0.0004335642
0.0014047623
0.0010355711
0.005388975
0.0038599968
0.0010935068
0.0012048483
0.002835393
-0.00013935566
0.0035175085
-0.0010281801
8.21352e-05
0.002410531
0.0008010864
0.0013591051
0.0006444454
0.00092065334
0.004357457
0.0001899004
0.018383026
0.0023930073
0.00017154217
0.0056284666
-0.0006066561
-0.000451684
0.0051785707
0.0062104464
-0.0007041693
0.0026648045
0.0059814453
0.00088632107
0.009733796
0.004768491
0.006055236
0.0009124279
0.0028574467
-0.0013765097
0.005036831
0.0058846474
0.006467104
0.0025202036
0.00038409233
-0.00023078918
0.0012135506
0.0030094385
0.0057100058
0.00066018105
0.0022827387
0.0034224987
0.0041069984
0.0022693872
0.00027370453
-0.00017416477
0.00402081
-0.00024867058
0.0052045584
0.0057611465
0.005878091
-6.7830086e-05
0.004831791
0.005559325
0.0046397448
-0.0015281439
0.0023852587
0.00072586536
0.001151681
0.001360178
0.0031419992
0.005616188
0.00387609
0.0071736574
0.0030891895
0.0021594763
0.0063415766
0.009449124
0.005112767
0.002408743
0.00018799305
0.00022113323
0.0051311255
0.004454136
0.004611492
0.004029155
0.0062208176
-0.000341177
0.0034897327
0.00025773048
0.0007278919
0.0049767494
0.00021719933
0.00039196014
-0.00029921532
0.0012530088
0.0015271902
0.00064980984
0.003175497
0.0063308477
0.0054832697
0.004416108
-0.00032639503
0.0055794716
0.0030047894
0.008193135
0.0038393736
-0.0001090765
0.0009826422
0.003223896
0.0036013126
0.0014892817
0.0018880367
0.0048931837
0.003203988
0.0040006638
0.0037549734
0.0014407635
-0.00015461445
-0.00035071373
0.003731966
0.0040802956
0.008568406
0.004997611
0.0009850264
0.0022895336
0.0036480427
0.005293846
0.0029531717
0.0037816763
0.0025178194
0.0011308193
0.0074543953
0.0009690523
0.0055463314
0.0024638176
-0.00014388561
0.0042567253
0.00538826
-0.00062537193
0.005761862
0.0037862062
0.0022883415
0.0069969893
0.0021220446
0.0020439625
0.0041605234
0.0010823011
0.001506567
0.0031064749
0.0028831959
0.0012718439
0.0025305748
0.002321124
0.0066478252
0.00043559074
0.0018600225
0.0015585423
0.0038807392
0.0023926497
0.004292965
0.001550436
0.001283288
0.0030937195
0.0028309822
0.0011264086
0.002269268
0.0099874735
0.0024926662
0.008002162
0.007847905
0.0047854185
0.0061844587
0.004823923
5.221367e-05
0.004471898
0.0017359257
0.00556314
0.0029258728
0.0025588274
0.0014756918
0.0034586191
0.00032055378
0.0026062727
0.0018582344
0.0002707243
-0.00058436394
0.0025224686
0.0032690763
0.0012798309
0.0028482676
0.0028657913
0.001385808
0.016875267
0.001398325
0.0013750792
0.0015782118
0.004847884
0.0018941164
0.0014039278
0.007432699
0.0055903196
0.00038051605
-0.0007739067
0.0054790974
0.0030212402
0.00082302094
-7.855892e-05
0.00057685375
0.0061540604
0.004196167
0.0028535128
0.0028346777
-0.00015425682
4.87566e-05
-0.00061678886
0.0031003952
-0.002870679
0.0086529255
0.003952503
0.0020766258
0.0069829226
0.0016000271
-0.001009345
0.0008196831
0.0035954714
0.001816988
0.002250433
0.012355924
0.008394957
-7.009506e-05
0.001853466
0.0014793873
0.003156662
0.0065095425
-0.00035226345
0.008955836
0.0015285015
0.009469271
0.00533998
0.0070847273
0.0011271238
0.0010302067
0.0058715343
0.0059764385
0.0021340847
0.008675098
0.001889348
0.0004849434
0.0017468929
0.009227395
0.004421711
0.0005003214
-0.0002707243
-0.00069129467
-0.00011205673
0.0022847652
0.0022243261
-0.00051677227
-0.00066912174
0.0017527342
0.0044965744
0.001318574
0.006365299
0.0017929077
0.0013555288
0.0005632639
0.0023722649
0.0022958517
0.0028176308
0.00050008297
0.0012514591
0.0023120642
0.00037801266
0.002721548
0.0052907467
0.004492283
0.004976988
0.0021585226
0.012241125
0.004367709
0.0039863586
0.00024437904
0.0017838478
0.015530348
0.0034497976
0.0050138235
0.0037184954

0.35113668
0.3723681
0.33235526
0.31403816
0.34103525
0.28833532
0.3140515
0.3211788
0.41906095
0.34872687

